-1.000000000000000000e+00,-6.999999999999988454e-01,-1.000000000000000000e+00,-9.799999999999990941e-01,-2.799999999999984723e-01,-7.699999999999989075e-01,-1.000000000000000000e+00,-6.799999999999970512e-01,-5.199999999999951328e-01,-1.000000000000000000e+00,8.800000000000034461e-01,4.000000000000270006e-02,9.769962616701377556e-15,2.200000000000046363e-01,9.900000000000062084e-01,-5.199999999999960210e-01,7.600000000000051159e-01,-6.799999999999988276e-01,-1.000000000000000000e+00,-1.000000000000000000e+00,-1.000000000000000000e+00,5.700000000000076117e-01,5.300000000000057998e-01,5.700000000000049472e-01,-8.199999999999971756e-01,-7.699999999999989075e-01,5.800000000000058442e-01,-4.499999999999968470e-01,8.000000000000362377e-02,-1.000000000000000000e+00,-2.099999999999921929e-01,-1.000000000000000000e+00,7.400000000000050981e-01,-3.499999999999976463e-01,-4.999999999999560352e-02,2.200000000000046363e-01,-9.999999999997344347e-03,8.000000000000628830e-02,3.700000000000038813e-01,8.200000000000051692e-01,-1.000000000000000000e+00,-1.899999999999975042e-01,-3.899999999999985700e-01,-7.599999999999935696e-01,-1.000000000000000000e+00,-4.599999999999933031e-01,6.600000000000014744e-01,9.000000000000629718e-02,-4.999999999999649170e-02,8.500000000000043077e-01,-1.000000000000000000e+00,-5.399999999999969269e-01,-3.099999999999940581e-01,9.500000000000052847e-01,-1.000000000000000000e+00,3.400000000000047429e-01,1.200000000000072120e-01,-1.000000000000000000e+00,-1.000000000000000000e+00,8.800000000000016698e-01,2.000000000000028422e-01,4.100000000000030287e-01,3.100000000000020517e-01,-7.699999999999989075e-01,-9.399999999999990585e-01,-5.599999999999987210e-01,9.000000000000052403e-01,-1.000000000000000000e+00,5.000000000000084377e-01,4.500000000000048406e-01,-1.000000000000000000e+00,-9.999999999996456168e-03,-2.399999999999984368e-01,-1.000000000000000000e+00,4.000000000000039080e-01,2.800000000000046896e-01,9.500000000000017319e-01,1.800000000000037126e-01,-4.199999999999985967e-01,-1.000000000000000000e+00,-1.000000000000000000e+00,-4.599999999999968558e-01,-5.699999999999987299e-01,-8.999999999999990230e-01
-1.000000000000000000e+00,-1.000000000000000000e+00,-1.000000000000000000e+00,-3.899999999999976819e-01,-1.000000000000000000e+00,-3.199999999999985079e-01,-1.000000000000000000e+00,-1.299999999999956746e-01,-1.000000000000000000e+00,-1.000000000000000000e+00,8.800000000000034461e-01,-1.000000000000000000e+00,-5.999999999999916511e-01,2.200000000000046363e-01,-6.799999999999934985e-01,-3.299999999999958522e-01,7.600000000000051159e-01,-1.000000000000000000e+00,-1.000000000000000000e+00,-1.000000000000000000e+00,-1.000000000000000000e+00,5.500000000000084821e-01,-3.999999999999941380e-01,5.700000000000049472e-01,-1.899999999999966160e-01,-1.000000000000000000e+00,7.300000000000059774e-01,-5.999999999999738876e-02,-4.599999999999959677e-01,-1.000000000000000000e+00,-2.099999999999921929e-01,-8.499999999999980904e-01,3.000000000000446754e-02,-9.099999999999990319e-01,3.300000000000047340e-01,2.200000000000046363e-01,6.200000000000041034e-01,-1.000000000000000000e+00,4.300000000000039346e-01,5.900000000000040767e-01,-3.299999999999940758e-01,4.500000000000021760e-01,-3.899999999999985700e-01,-1.000000000000000000e+00,-3.799999999999950084e-01,-4.599999999999933031e-01,-2.399999999999975486e-01,5.700000000000076117e-01,2.700000000000046807e-01,9.300000000000043787e-01,-4.899999999999986589e-01,-5.399999999999969269e-01,-2.999999999999931610e-01,9.500000000000052847e-01,-5.199999999999933564e-01,4.600000000000039613e-01,1.200000000000072120e-01,-1.000000000000000000e+00,-3.699999999999976641e-01,8.800000000000016698e-01,-5.199999999999977973e-01,7.300000000000042011e-01,5.300000000000040234e-01,-1.000000000000000000e+00,-2.199999999999984190e-01,-1.000000000000000000e+00,9.000000000000052403e-01,-1.000000000000000000e+00,5.000000000000084377e-01,3.400000000000056311e-01,-8.699999999999954436e-01,-2.999999999999825029e-02,-5.999999999999738876e-02,-1.099999999999983213e-01,-2.599999999999975664e-01,2.800000000000046896e-01,9.500000000000017319e-01,1.800000000000037126e-01,-1.000000000000000000e+00,-1.000000000000000000e+00,-9.299999999999990496e-01,-4.599999999999968558e-01,-1.000000000000000000e+00,-1.000000000000000000e+00
-1.000000000000000000e+00,-1.000000000000000000e+00,-1.000000000000000000e+00,-9.799999999999990941e-01,-1.000000000000000000e+00,-3.199999999999985079e-01,-1.000000000000000000e+00,-4.199999999999977085e-01,-5.199999999999942446e-01,-1.000000000000000000e+00,8.800000000000034461e-01,-1.099999999999983213e-01,-1.599999999999948130e-01,2.200000000000046363e-01,9.900000000000062084e-01,-5.199999999999960210e-01,7.600000000000051159e-01,-1.000000000000000000e+00,-1.000000000000000000e+00,-1.000000000000000000e+00,-1.000000000000000000e+00,5.700000000000076117e-01,5.300000000000057998e-01,-1.599999999999948130e-01,1.300000000000027800e-01,-7.699999999999989075e-01,-1.000000000000000000e+00,-5.999999999999738876e-02,8.000000000000362377e-02,-1.699999999999983746e-01,2.000000000000889955e-02,4.300000000000012701e-01,7.800000000000051337e-01,-6.999999999999988454e-01,-4.999999999999560352e-02,2.700000000000055689e-01,-9.999999999997344347e-03,6.000000000000449418e-02,4.300000000000039346e-01,5.900000000000040767e-01,3.100000000000082689e-01,6.000000000000271783e-02,-6.899999999999979483e-01,-1.000000000000000000e+00,-4.699999999999959766e-01,-4.599999999999933031e-01,6.600000000000014744e-01,1.800000000000054889e-01,-4.999999999999649170e-02,8.400000000000042988e-01,-8.399999999999989697e-01,-2.599999999999949019e-01,-3.099999999999940581e-01,6.500000000000059064e-01,-8.399999999999927525e-01,-1.000000000000000000e+00,2.700000000000082334e-01,-6.999999999999828582e-02,-3.299999999999985167e-01,8.800000000000016698e-01,2.000000000000028422e-01,4.100000000000030287e-01,5.300000000000040234e-01,-1.000000000000000000e+00,-1.000000000000000000e+00,-4.399999999999986144e-01,9.000000000000363265e-02,-1.000000000000000000e+00,6.100000000000094236e-01,1.000000000000533795e-02,-8.699999999999954436e-01,-2.999999999999825029e-02,-2.099999999999975220e-01,-1.000000000000000000e+00,4.600000000000039613e-01,-3.099999999999949463e-01,9.500000000000017319e-01,1.800000000000037126e-01,-2.099999999999957456e-01,1.800000000000028244e-01,-9.299999999999990496e-01,-4.599999999999968558e-01,8.200000000000042810e-01,-1.000000000000000000e+00
-1.000000000000000000e+00,-1.999999999999984013e-01,-1.000000000000000000e+00,-9.799999999999990941e-01,-2.799999999999984723e-01,-1.000000000000000000e+00,-1.000000000000000000e+00,2.000000000000046185e-01,3.400000000000047429e-01,-1.000000000000000000e+00,8.800000000000034461e-01,-3.399999999999976374e-01,-1.599999999999948130e-01,2.200000000000046363e-01,9.900000000000062084e-01,-5.099999999999951239e-01,7.600000000000051159e-01,-6.799999999999988276e-01,-1.000000000000000000e+00,-1.000000000000000000e+00,-5.499999999999987121e-01,5.700000000000076117e-01,5.300000000000057998e-01,5.700000000000049472e-01,-8.199999999999971756e-01,-5.999999999999827693e-02,-1.000000000000000000e+00,7.400000000000042100e-01,8.000000000000362377e-02,-1.000000000000000000e+00,-2.099999999999921929e-01,4.300000000000012701e-01,7.400000000000050981e-01,-3.499999999999976463e-01,3.600000000000038725e-01,2.700000000000055689e-01,-9.999999999997344347e-03,-3.099999999999931699e-01,4.300000000000039346e-01,8.200000000000051692e-01,-3.299999999999940758e-01,-1.899999999999975042e-01,-6.899999999999979483e-01,-3.999999999999941380e-01,7.100000000000068479e-01,-2.399999999999922196e-01,6.600000000000014744e-01,8.800000000000078870e-01,-4.999999999999649170e-02,9.500000000000035083e-01,-1.000000000000000000e+00,-5.399999999999969269e-01,-1.000000000000000000e+00,9.500000000000052847e-01,-6.799999999999988276e-01,3.400000000000047429e-01,2.700000000000082334e-01,-1.000000000000000000e+00,-3.299999999999985167e-01,8.800000000000016698e-01,-5.199999999999977973e-01,4.100000000000030287e-01,3.100000000000020517e-01,-3.299999999999985167e-01,-9.399999999999990585e-01,-1.000000000000000000e+00,9.000000000000052403e-01,-1.000000000000000000e+00,5.000000000000084377e-01,4.500000000000048406e-01,-1.000000000000000000e+00,-2.999999999999825029e-02,-2.399999999999984368e-01,-1.000000000000000000e+00,-2.599999999999975664e-01,2.800000000000046896e-01,9.500000000000017319e-01,1.800000000000037126e-01,-1.000000000000000000e+00,-2.599999999999966782e-01,-9.299999999999990496e-01,-4.599999999999968558e-01,-5.699999999999987299e-01,-1.000000000000000000e+00
-1.000000000000000000e+00,-1.000000000000000000e+00,-1.000000000000000000e+00,-9.799999999999990941e-01,-1.000000000000000000e+00,-7.699999999999989075e-01,-1.000000000000000000e+00,-6.799999999999970512e-01,7.000000000000068390e-01,-1.000000000000000000e+00,8.800000000000034461e-01,-3.399999999999976374e-01,1.400000000000081180e-01,2.200000000000046363e-01,9.900000000000062084e-01,-5.199999999999960210e-01,7.600000000000051159e-01,-1.000000000000000000e+00,-1.000000000000000000e+00,-1.000000000000000000e+00,-1.000000000000000000e+00,5.700000000000076117e-01,5.300000000000057998e-01,-4.499999999999986233e-01,-8.199999999999971756e-01,-1.000000000000000000e+00,-1.000000000000000000e+00,-5.999999999999738876e-02,8.000000000000362377e-02,-1.000000000000000000e+00,-2.099999999999921929e-01,4.300000000000012701e-01,6.700000000000041478e-01,-3.499999999999976463e-01,4.400000000000057199e-01,2.700000000000055689e-01,-8.899999999999963496e-01,-4.499999999999950706e-01,4.300000000000039346e-01,5.900000000000040767e-01,-3.299999999999940758e-01,-1.899999999999975042e-01,-1.000000000000000000e+00,-3.999999999999941380e-01,7.100000000000068479e-01,-4.599999999999933031e-01,2.500000000000019984e-01,1.800000000000063771e-01,-4.999999999999649170e-02,8.400000000000042988e-01,-1.000000000000000000e+00,-5.399999999999969269e-01,-3.099999999999940581e-01,-1.000000000000000000e+00,-5.199999999999933564e-01,4.600000000000039613e-01,1.200000000000072120e-01,-1.000000000000000000e+00,-3.299999999999985167e-01,8.800000000000016698e-01,-5.199999999999977973e-01,4.100000000000030287e-01,5.300000000000040234e-01,-1.000000000000000000e+00,-7.399999999999979927e-01,-1.000000000000000000e+00,1.100000000000054268e-01,-1.000000000000000000e+00,1.500000000000099032e-01,4.500000000000048406e-01,-8.699999999999954436e-01,-2.999999999999825029e-02,-2.399999999999984368e-01,-3.399999999999985256e-01,4.600000000000039613e-01,2.800000000000046896e-01,6.000000000000023093e-01,1.800000000000037126e-01,-1.000000000000000000e+00,1.800000000000028244e-01,-9.299999999999990496e-01,-4.599999999999968558e-01,4.900000000000039879e-01,-1.000000000000000000e+00
-1.000000000000000000e+00,-1.000000000000000000e+00,-1.000000000000000000e+00,-9.799999999999990941e-01,-1.000000000000000000e+00,-3.199999999999985079e-01,-1.000000000000000000e+00,-6.799999999999970512e-01,3.400000000000047429e-01,-1.000000000000000000e+00,8.800000000000034461e-01,-7.799999999999980282e-01,-1.599999999999948130e-01,2.800000000000055778e-01,9.900000000000062084e-01,-4.899999999999986589e-01,7.600000000000051159e-01,-1.000000000000000000e+00,-1.000000000000000000e+00,-1.000000000000000000e+00,-1.000000000000000000e+00,5.700000000000076117e-01,-1.000000000000000000e+00,5.700000000000049472e-01,-8.199999999999971756e-01,-7.699999999999989075e-01,4.500000000000048406e-01,-5.999999999999738876e-02,1.100000000000045386e-01,-1.000000000000000000e+00,-2.099999999999921929e-01,4.300000000000012701e-01,7.400000000000050981e-01,-6.999999999999988454e-01,-4.999999999999560352e-02,2.200000000000046363e-01,-9.999999999997344347e-03,8.000000000000628830e-02,3.700000000000038813e-01,5.900000000000040767e-01,-3.299999999999940758e-01,4.500000000000021760e-01,-3.899999999999985700e-01,-3.999999999999941380e-01,-4.699999999999959766e-01,-3.699999999999923350e-01,6.600000000000014744e-01,-7.999999999999296563e-02,-4.999999999999649170e-02,8.400000000000042988e-01,-8.499999999999989786e-01,-5.399999999999969269e-01,-3.099999999999940581e-01,9.500000000000052847e-01,-5.199999999999933564e-01,3.400000000000047429e-01,1.200000000000072120e-01,-1.000000000000000000e+00,-3.299999999999985167e-01,-3.499999999999967581e-01,2.000000000000028422e-01,4.100000000000030287e-01,7.200000000000050804e-01,-1.000000000000000000e+00,-9.399999999999990585e-01,-1.000000000000000000e+00,9.000000000000052403e-01,-1.000000000000000000e+00,5.000000000000084377e-01,4.500000000000048406e-01,-8.699999999999954436e-01,1.600000000000028066e-01,2.400000000000037659e-01,-1.000000000000000000e+00,4.600000000000039613e-01,2.900000000000055866e-01,9.500000000000017319e-01,1.800000000000037126e-01,-1.000000000000000000e+00,-6.099999999999969891e-01,-9.299999999999990496e-01,-4.599999999999968558e-01,-5.699999999999987299e-01,-1.000000000000000000e+00
-1.000000000000000000e+00,-1.000000000000000000e+00,-1.000000000000000000e+00,-9.799999999999990941e-01,-1.000000000000000000e+00,-7.699999999999989075e-01,-1.000000000000000000e+00,-1.299999999999956746e-01,-5.199999999999951328e-01,-1.000000000000000000e+00,8.800000000000034461e-01,-9.099999999999990319e-01,-1.599999999999948130e-01,2.200000000000046363e-01,9.900000000000062084e-01,-3.899999999999950173e-01,1.000000000000054179e-01,-6.799999999999988276e-01,-1.000000000000000000e+00,-1.000000000000000000e+00,-1.000000000000000000e+00,-2.199999999999922018e-01,5.300000000000057998e-01,3.600000000000056488e-01,1.300000000000027800e-01,-1.000000000000000000e+00,4.500000000000048406e-01,-5.999999999999738876e-02,-4.599999999999959677e-01,-5.899999999999987477e-01,-2.099999999999921929e-01,-2.699999999999984635e-01,6.700000000000041478e-01,-3.499999999999976463e-01,-4.999999999999560352e-02,2.200000000000046363e-01,6.200000000000041034e-01,6.000000000000449418e-02,5.200000000000049027e-01,5.900000000000040767e-01,-3.299999999999940758e-01,4.500000000000021760e-01,-3.899999999999985700e-01,-1.000000000000000000e+00,-4.699999999999959766e-01,-4.599999999999933031e-01,6.600000000000014744e-01,1.800000000000054889e-01,-4.999999999999649170e-02,8.400000000000042988e-01,-4.899999999999986589e-01,-5.399999999999969269e-01,5.329070518200751394e-15,1.800000000000054889e-01,-5.199999999999933564e-01,3.400000000000047429e-01,2.700000000000082334e-01,-2.599999999999984546e-01,-1.000000000000000000e+00,8.800000000000016698e-01,2.000000000000028422e-01,4.100000000000030287e-01,3.100000000000020517e-01,-1.000000000000000000e+00,-1.000000000000000000e+00,-1.000000000000000000e+00,4.000000000000056843e-01,-1.000000000000000000e+00,5.000000000000084377e-01,3.400000000000056311e-01,-1.000000000000000000e+00,-2.999999999999825029e-02,-2.399999999999984368e-01,-1.000000000000000000e+00,-2.599999999999975664e-01,2.900000000000055866e-01,9.200000000000025935e-01,1.800000000000037126e-01,-1.000000000000000000e+00,-1.000000000000000000e+00,-9.299999999999990496e-01,-4.599999999999968558e-01,4.900000000000039879e-01,-1.000000000000000000e+00
-1.000000000000000000e+00,-1.999999999999984013e-01,-1.000000000000000000e+00,-9.799999999999990941e-01,-1.000000000000000000e+00,-7.699999999999989075e-01,-1.000000000000000000e+00,2.000000000000046185e-01,-5.199999999999951328e-01,-1.000000000000000000e+00,-3.799999999999985612e-01,-9.099999999999990319e-01,2.000000000000889955e-02,2.200000000000046363e-01,9.900000000000062084e-01,-3.299999999999958522e-01,7.600000000000051159e-01,-1.000000000000000000e+00,-1.000000000000000000e+00,-1.000000000000000000e+00,-1.000000000000000000e+00,5.700000000000076117e-01,5.300000000000057998e-01,-1.000000000000000000e+00,-1.899999999999966160e-01,-1.000000000000000000e+00,4.500000000000048406e-01,-5.999999999999738876e-02,-4.599999999999959677e-01,-1.000000000000000000e+00,-2.099999999999921929e-01,-2.699999999999984635e-01,6.700000000000041478e-01,-3.499999999999976463e-01,-4.999999999999560352e-02,2.700000000000055689e-01,6.200000000000041034e-01,-2.999999999999469757e-02,4.300000000000039346e-01,5.900000000000040767e-01,-3.299999999999940758e-01,4.500000000000021760e-01,-3.899999999999985700e-01,-1.000000000000000000e+00,7.100000000000068479e-01,-4.599999999999933031e-01,2.500000000000019984e-01,9.000000000000629718e-02,-4.999999999999649170e-02,8.400000000000042988e-01,-4.899999999999986589e-01,-5.399999999999969269e-01,-1.000000000000000000e+00,9.500000000000052847e-01,-5.199999999999933564e-01,3.400000000000047429e-01,1.200000000000072120e-01,-2.599999999999984546e-01,-3.299999999999985167e-01,8.800000000000016698e-01,2.000000000000028422e-01,7.300000000000042011e-01,3.100000000000020517e-01,-3.299999999999985167e-01,-1.000000000000000000e+00,-1.000000000000000000e+00,-7.599999999999962341e-01,-3.199999999999985079e-01,-1.299999999999912337e-01,3.400000000000056311e-01,-8.699999999999954436e-01,1.600000000000028066e-01,-8.999999999999741540e-02,-3.399999999999985256e-01,-8.699999999999972200e-01,2.800000000000046896e-01,9.500000000000017319e-01,1.800000000000037126e-01,-1.000000000000000000e+00,-1.000000000000000000e+00,-9.299999999999990496e-01,-4.599999999999968558e-01,-1.000000000000000000e+00,-7.399999999999988809e-01
-1.000000000000000000e+00,-1.999999999999984013e-01,-1.000000000000000000e+00,-9.799999999999990941e-01,-1.000000000000000000e+00,-7.699999999999989075e-01,-1.000000000000000000e+00,2.000000000000046185e-01,-5.199999999999951328e-01,-1.000000000000000000e+00,-1.000000000000000000e+00,-3.399999999999976374e-01,-1.599999999999948130e-01,2.200000000000046363e-01,9.900000000000062084e-01,-5.199999999999960210e-01,7.600000000000051159e-01,-1.000000000000000000e+00,-1.000000000000000000e+00,-1.000000000000000000e+00,-1.000000000000000000e+00,5.700000000000076117e-01,5.300000000000057998e-01,-1.000000000000000000e+00,-8.199999999999971756e-01,-1.000000000000000000e+00,-1.000000000000000000e+00,-5.999999999999738876e-02,8.000000000000362377e-02,-1.000000000000000000e+00,-2.099999999999921929e-01,4.300000000000012701e-01,6.700000000000041478e-01,-3.499999999999976463e-01,3.600000000000038725e-01,2.700000000000055689e-01,-8.899999999999963496e-01,-5.599999999999951683e-01,4.300000000000039346e-01,5.900000000000040767e-01,-3.299999999999940758e-01,-1.899999999999975042e-01,-6.899999999999979483e-01,-3.999999999999941380e-01,7.100000000000068479e-01,-4.599999999999933031e-01,6.600000000000014744e-01,9.000000000000629718e-02,-4.999999999999649170e-02,9.500000000000035083e-01,-1.000000000000000000e+00,-5.399999999999969269e-01,-1.000000000000000000e+00,9.500000000000052847e-01,-8.399999999999927525e-01,3.400000000000047429e-01,1.200000000000072120e-01,-1.000000000000000000e+00,-3.299999999999985167e-01,8.800000000000016698e-01,-5.199999999999977973e-01,4.100000000000030287e-01,3.100000000000020517e-01,-3.299999999999985167e-01,-1.000000000000000000e+00,-1.000000000000000000e+00,9.000000000000052403e-01,-3.199999999999985079e-01,-1.299999999999912337e-01,4.500000000000048406e-01,-8.699999999999954436e-01,-2.999999999999825029e-02,-2.399999999999984368e-01,-3.399999999999985256e-01,-2.599999999999975664e-01,2.800000000000046896e-01,9.500000000000017319e-01,1.800000000000037126e-01,-1.000000000000000000e+00,-2.599999999999966782e-01,-9.299999999999990496e-01,-4.599999999999968558e-01,-1.000000000000000000e+00,-1.000000000000000000e+00
-1.000000000000000000e+00,-1.000000000000000000e+00,-1.000000000000000000e+00,-9.799999999999990941e-01,-1.000000000000000000e+00,-7.699999999999989075e-01,-1.000000000000000000e+00,-1.599999999999948130e-01,5.000000000000537348e-02,-1.000000000000000000e+00,8.800000000000034461e-01,-3.399999999999976374e-01,-1.599999999999948130e-01,2.200000000000046363e-01,9.900000000000062084e-01,-5.199999999999960210e-01,7.600000000000051159e-01,-1.000000000000000000e+00,-1.000000000000000000e+00,-1.000000000000000000e+00,-1.000000000000000000e+00,5.700000000000076117e-01,5.300000000000057998e-01,-1.000000000000000000e+00,-8.199999999999971756e-01,-1.000000000000000000e+00,-1.000000000000000000e+00,-8.199999999999971756e-01,-4.599999999999959677e-01,-1.000000000000000000e+00,-2.099999999999921929e-01,-2.699999999999984635e-01,6.700000000000041478e-01,-7.799999999999971401e-01,-4.999999999999560352e-02,7.300000000000059774e-01,5.300000000000049116e-01,6.000000000000449418e-02,4.300000000000039346e-01,5.900000000000040767e-01,-3.299999999999940758e-01,-1.899999999999975042e-01,-3.899999999999985700e-01,-1.000000000000000000e+00,-4.499999999999950706e-01,-4.599999999999933031e-01,6.600000000000014744e-01,1.800000000000054889e-01,-4.999999999999649170e-02,9.500000000000035083e-01,-1.000000000000000000e+00,-5.399999999999969269e-01,-1.000000000000000000e+00,9.500000000000052847e-01,-5.199999999999933564e-01,3.400000000000047429e-01,1.200000000000072120e-01,-1.000000000000000000e+00,-3.299999999999985167e-01,8.800000000000016698e-01,2.000000000000028422e-01,4.100000000000030287e-01,3.100000000000020517e-01,-3.299999999999985167e-01,-1.000000000000000000e+00,-1.000000000000000000e+00,9.000000000000052403e-01,-1.000000000000000000e+00,6.100000000000094236e-01,4.500000000000048406e-01,-8.699999999999954436e-01,1.600000000000028066e-01,-2.399999999999984368e-01,-3.399999999999985256e-01,-8.699999999999972200e-01,2.800000000000046896e-01,9.500000000000017319e-01,1.800000000000037126e-01,-1.000000000000000000e+00,-1.000000000000000000e+00,-9.299999999999990496e-01,-4.599999999999968558e-01,4.900000000000039879e-01,-1.000000000000000000e+00
-1.000000000000000000e+00,-1.999999999999984013e-01,-1.000000000000000000e+00,-9.799999999999990941e-01,-1.000000000000000000e+00,4.500000000000030642e-01,-1.000000000000000000e+00,-6.799999999999970512e-01,-5.199999999999951328e-01,-1.000000000000000000e+00,8.800000000000034461e-01,-9.099999999999990319e-01,-1.599999999999948130e-01,2.200000000000046363e-01,9.900000000000062084e-01,-4.899999999999986589e-01,7.600000000000051159e-01,-1.000000000000000000e+00,-1.000000000000000000e+00,-1.000000000000000000e+00,-1.000000000000000000e+00,5.700000000000076117e-01,-1.000000000000000000e+00,5.700000000000049472e-01,-8.199999999999971756e-01,-1.000000000000000000e+00,4.500000000000048406e-01,-5.999999999999738876e-02,1.100000000000045386e-01,-1.000000000000000000e+00,-2.099999999999921929e-01,1.000000000000178524e-02,6.700000000000041478e-01,-6.999999999999988454e-01,-4.999999999999560352e-02,2.700000000000055689e-01,6.200000000000041034e-01,8.000000000000628830e-02,4.300000000000039346e-01,5.900000000000040767e-01,-3.299999999999940758e-01,-4.099999999999976996e-01,-3.899999999999985700e-01,-1.000000000000000000e+00,-4.699999999999959766e-01,-3.699999999999923350e-01,6.600000000000014744e-01,9.000000000000629718e-02,-4.999999999999649170e-02,8.400000000000042988e-01,-5.999999999999978684e-01,-5.399999999999969269e-01,-1.000000000000000000e+00,9.500000000000052847e-01,-5.199999999999933564e-01,3.400000000000047429e-01,1.200000000000072120e-01,-1.000000000000000000e+00,-3.299999999999985167e-01,8.800000000000016698e-01,2.000000000000028422e-01,7.300000000000042011e-01,7.200000000000050804e-01,-1.000000000000000000e+00,-1.000000000000000000e+00,-1.000000000000000000e+00,-7.599999999999962341e-01,-1.000000000000000000e+00,-1.299999999999912337e-01,4.500000000000048406e-01,-8.699999999999954436e-01,1.600000000000028066e-01,-3.999999999999559464e-02,-1.000000000000000000e+00,4.600000000000039613e-01,2.800000000000046896e-01,9.500000000000017319e-01,1.800000000000037126e-01,-1.000000000000000000e+00,-1.000000000000000000e+00,-1.499999999999974687e-01,-4.599999999999968558e-01,-1.000000000000000000e+00,-7.399999999999988809e-01
-1.000000000000000000e+00,-1.999999999999984013e-01,-1.000000000000000000e+00,-9.799999999999990941e-01,-2.799999999999984723e-01,-1.000000000000000000e+00,-1.000000000000000000e+00,2.000000000000046185e-01,3.400000000000047429e-01,-1.000000000000000000e+00,8.800000000000034461e-01,-3.399999999999976374e-01,-1.599999999999948130e-01,2.200000000000046363e-01,9.900000000000062084e-01,-5.099999999999951239e-01,7.600000000000051159e-01,-6.799999999999988276e-01,-1.000000000000000000e+00,-1.000000000000000000e+00,-5.499999999999987121e-01,5.700000000000076117e-01,5.300000000000057998e-01,-1.000000000000000000e+00,-8.199999999999971756e-01,-5.999999999999827693e-02,-1.000000000000000000e+00,7.400000000000042100e-01,8.000000000000362377e-02,-1.000000000000000000e+00,-2.099999999999921929e-01,4.300000000000012701e-01,6.700000000000041478e-01,-3.499999999999976463e-01,3.600000000000038725e-01,2.700000000000055689e-01,-9.999999999997344347e-03,-3.099999999999931699e-01,4.300000000000039346e-01,8.200000000000051692e-01,-3.299999999999940758e-01,-1.899999999999975042e-01,-6.899999999999979483e-01,-3.999999999999941380e-01,1.200000000000072120e-01,-4.599999999999933031e-01,6.700000000000023714e-01,6.000000000000715872e-02,-4.999999999999649170e-02,9.500000000000035083e-01,-1.000000000000000000e+00,-5.399999999999969269e-01,-1.000000000000000000e+00,9.500000000000052847e-01,-8.399999999999927525e-01,3.400000000000047429e-01,-6.999999999999926281e-01,-1.000000000000000000e+00,-3.299999999999985167e-01,8.800000000000016698e-01,-5.199999999999977973e-01,4.100000000000030287e-01,3.100000000000020517e-01,-3.299999999999985167e-01,-1.000000000000000000e+00,-1.000000000000000000e+00,9.000000000000052403e-01,-3.199999999999985079e-01,5.000000000000084377e-01,4.500000000000048406e-01,-1.000000000000000000e+00,-2.999999999999825029e-02,-2.399999999999984368e-01,-1.000000000000000000e+00,-2.599999999999975664e-01,2.800000000000046896e-01,9.500000000000017319e-01,1.800000000000037126e-01,-1.000000000000000000e+00,-3.199999999999958433e-01,-9.299999999999990496e-01,-4.599999999999968558e-01,-5.699999999999987299e-01,-1.000000000000000000e+00
-1.000000000000000000e+00,-1.000000000000000000e+00,-1.000000000000000000e+00,-9.799999999999990941e-01,-1.000000000000000000e+00,-7.699999999999989075e-01,-1.000000000000000000e+00,2.000000000000046185e-01,-5.199999999999951328e-01,-1.000000000000000000e+00,8.800000000000034461e-01,-9.099999999999990319e-01,2.000000000000889955e-02,-1.000000000000000000e+00,9.900000000000062084e-01,4.600000000000057376e-01,7.600000000000051159e-01,-1.000000000000000000e+00,-1.000000000000000000e+00,-1.000000000000000000e+00,-1.000000000000000000e+00,5.700000000000076117e-01,5.300000000000057998e-01,-1.000000000000000000e+00,-1.899999999999966160e-01,-1.000000000000000000e+00,-1.000000000000000000e+00,-8.199999999999971756e-01,-4.599999999999959677e-01,-1.000000000000000000e+00,-2.099999999999921929e-01,-2.699999999999984635e-01,6.700000000000041478e-01,-3.499999999999976463e-01,-4.999999999999560352e-02,2.700000000000055689e-01,6.200000000000041034e-01,5.400000000000058087e-01,4.300000000000039346e-01,5.900000000000040767e-01,-3.299999999999940758e-01,-1.899999999999975042e-01,-3.899999999999985700e-01,-1.000000000000000000e+00,7.100000000000068479e-01,-4.599999999999933031e-01,6.600000000000014744e-01,1.800000000000054889e-01,-4.999999999999649170e-02,9.500000000000035083e-01,-4.899999999999986589e-01,-5.399999999999969269e-01,-1.000000000000000000e+00,9.500000000000052847e-01,-1.000000000000000000e+00,3.400000000000047429e-01,1.200000000000072120e-01,-2.599999999999984546e-01,-3.299999999999985167e-01,8.800000000000016698e-01,2.000000000000028422e-01,7.300000000000042011e-01,3.100000000000020517e-01,-6.899999999999979483e-01,-1.000000000000000000e+00,-1.000000000000000000e+00,9.000000000000052403e-01,-1.000000000000000000e+00,6.100000000000094236e-01,4.500000000000048406e-01,-8.699999999999954436e-01,1.600000000000028066e-01,-2.399999999999984368e-01,-3.399999999999985256e-01,-8.699999999999972200e-01,2.800000000000046896e-01,-1.000000000000000000e+00,1.800000000000037126e-01,-1.000000000000000000e+00,-1.000000000000000000e+00,-9.299999999999990496e-01,-1.000000000000000000e+00,-1.000000000000000000e+00,-7.399999999999988809e-01
-1.000000000000000000e+00,-1.999999999999984013e-01,-1.000000000000000000e+00,-9.799999999999990941e-01,-1.000000000000000000e+00,-1.000000000000000000e+00,-1.000000000000000000e+00,2.000000000000046185e-01,-5.199999999999951328e-01,-1.000000000000000000e+00,8.800000000000034461e-01,-3.399999999999976374e-01,-1.599999999999948130e-01,-1.000000000000000000e+00,9.900000000000062084e-01,-5.099999999999951239e-01,7.600000000000051159e-01,-1.000000000000000000e+00,-1.000000000000000000e+00,-1.000000000000000000e+00,-5.499999999999987121e-01,5.700000000000076117e-01,5.300000000000057998e-01,-1.000000000000000000e+00,-8.199999999999971756e-01,-1.000000000000000000e+00,4.500000000000048406e-01,7.400000000000042100e-01,8.000000000000362377e-02,-1.000000000000000000e+00,-2.099999999999921929e-01,-2.699999999999984635e-01,6.700000000000041478e-01,-3.499999999999976463e-01,-4.999999999999560352e-02,2.700000000000055689e-01,-9.999999999997344347e-03,-2.999999999999469757e-02,-1.000000000000000000e+00,5.900000000000040767e-01,-3.299999999999940758e-01,-1.899999999999975042e-01,-6.899999999999979483e-01,-3.999999999999941380e-01,7.100000000000068479e-01,-4.599999999999933031e-01,2.500000000000019984e-01,8.800000000000078870e-01,-4.999999999999649170e-02,8.400000000000042988e-01,-1.000000000000000000e+00,-5.399999999999969269e-01,-1.000000000000000000e+00,9.500000000000052847e-01,-5.199999999999933564e-01,3.400000000000047429e-01,1.200000000000072120e-01,-1.000000000000000000e+00,-3.299999999999985167e-01,8.800000000000016698e-01,-5.199999999999977973e-01,7.300000000000042011e-01,3.100000000000020517e-01,-3.299999999999985167e-01,-1.000000000000000000e+00,-1.000000000000000000e+00,9.000000000000052403e-01,-5.099999999999977884e-01,5.000000000000084377e-01,3.400000000000056311e-01,-8.699999999999954436e-01,1.600000000000028066e-01,1.000000000000036415e-01,-1.000000000000000000e+00,-2.599999999999975664e-01,4.200000000000057021e-01,9.500000000000017319e-01,1.800000000000037126e-01,-1.000000000000000000e+00,-2.599999999999966782e-01,-9.299999999999990496e-01,-4.599999999999968558e-01,-1.000000000000000000e+00,-1.000000000000000000e+00
-1.000000000000000000e+00,-1.999999999999984013e-01,-1.000000000000000000e+00,-1.000000000000000000e+00,-6.199999999999978861e-01,-3.199999999999985079e-01,-1.000000000000000000e+00,-4.199999999999977085e-01,-5.199999999999942446e-01,-1.000000000000000000e+00,8.800000000000034461e-01,-1.000000000000000000e+00,-1.599999999999948130e-01,2.200000000000046363e-01,9.900000000000062084e-01,-3.999999999999381828e-02,7.600000000000051159e-01,-1.000000000000000000e+00,-1.000000000000000000e+00,-1.000000000000000000e+00,-1.000000000000000000e+00,5.700000000000076117e-01,5.300000000000057998e-01,5.700000000000049472e-01,1.300000000000027800e-01,-7.699999999999989075e-01,-1.000000000000000000e+00,7.400000000000042100e-01,8.000000000000362377e-02,-1.699999999999983746e-01,-2.099999999999921929e-01,4.300000000000012701e-01,7.400000000000050981e-01,-3.499999999999976463e-01,-4.999999999999560352e-02,2.700000000000055689e-01,-9.999999999997344347e-03,6.000000000000449418e-02,4.300000000000039346e-01,8.200000000000051692e-01,3.100000000000082689e-01,6.000000000000271783e-02,-6.899999999999979483e-01,-1.000000000000000000e+00,7.100000000000068479e-01,-2.399999999999922196e-01,6.600000000000014744e-01,1.800000000000054889e-01,-4.999999999999649170e-02,9.500000000000035083e-01,-8.399999999999989697e-01,-5.399999999999969269e-01,-3.099999999999940581e-01,6.500000000000059064e-01,-8.399999999999927525e-01,-1.000000000000000000e+00,2.700000000000082334e-01,-1.000000000000000000e+00,-3.299999999999985167e-01,8.800000000000016698e-01,2.000000000000028422e-01,4.100000000000030287e-01,5.300000000000040234e-01,-1.599999999999983658e-01,-1.000000000000000000e+00,-1.000000000000000000e+00,9.000000000000052403e-01,-1.000000000000000000e+00,5.000000000000084377e-01,1.000000000000533795e-02,-8.699999999999954436e-01,2.300000000000028688e-01,-2.399999999999984368e-01,-1.000000000000000000e+00,4.600000000000039613e-01,-3.099999999999949463e-01,9.500000000000017319e-01,1.800000000000037126e-01,-1.000000000000000000e+00,1.800000000000028244e-01,-9.299999999999990496e-01,-4.599999999999968558e-01,-5.699999999999987299e-01,-1.000000000000000000e+00
-1.000000000000000000e+00,-1.000000000000000000e+00,-1.000000000000000000e+00,-9.799999999999990941e-01,-1.000000000000000000e+00,-3.199999999999985079e-01,-1.000000000000000000e+00,2.000000000000046185e-01,-5.199999999999942446e-01,-1.000000000000000000e+00,8.800000000000034461e-01,-1.099999999999983213e-01,-1.599999999999948130e-01,2.200000000000046363e-01,9.900000000000062084e-01,-3.199999999999949551e-01,7.600000000000051159e-01,-1.000000000000000000e+00,-1.000000000000000000e+00,-1.000000000000000000e+00,-1.000000000000000000e+00,5.700000000000076117e-01,5.300000000000057998e-01,-1.599999999999948130e-01,-8.199999999999971756e-01,-1.000000000000000000e+00,-1.000000000000000000e+00,-5.999999999999738876e-02,8.000000000000362377e-02,-1.699999999999983746e-01,2.000000000000889955e-02,4.300000000000012701e-01,7.800000000000051337e-01,-3.499999999999976463e-01,-4.999999999999560352e-02,2.000000000000063949e-01,-8.899999999999963496e-01,6.000000000000449418e-02,4.300000000000039346e-01,5.900000000000040767e-01,-3.299999999999940758e-01,6.000000000000271783e-02,-6.899999999999979483e-01,-3.999999999999941380e-01,7.100000000000068479e-01,-1.000000000000000000e+00,6.600000000000014744e-01,9.000000000000629718e-02,6.100000000000049827e-01,9.500000000000035083e-01,-8.399999999999989697e-01,-2.599999999999949019e-01,-3.099999999999940581e-01,9.500000000000052847e-01,-8.399999999999927525e-01,3.400000000000047429e-01,1.800000000000081535e-01,-1.000000000000000000e+00,-3.299999999999985167e-01,8.800000000000016698e-01,-5.199999999999977973e-01,4.100000000000030287e-01,3.100000000000020517e-01,-3.299999999999985167e-01,-1.000000000000000000e+00,-4.399999999999986144e-01,9.000000000000052403e-01,-3.199999999999985079e-01,-1.299999999999912337e-01,1.000000000000533795e-02,-8.699999999999954436e-01,-2.999999999999825029e-02,7.800000000000042455e-01,-3.399999999999985256e-01,4.600000000000039613e-01,-3.099999999999949463e-01,9.500000000000017319e-01,1.800000000000037126e-01,-2.099999999999957456e-01,1.800000000000028244e-01,-9.299999999999990496e-01,-4.599999999999968558e-01,7.200000000000050804e-01,-1.000000000000000000e+00
-1.000000000000000000e+00,-1.000000000000000000e+00,-1.000000000000000000e+00,-9.799999999999990941e-01,-2.799999999999984723e-01,-3.199999999999985079e-01,-1.000000000000000000e+00,-1.299999999999956746e-01,-1.000000000000000000e+00,-1.000000000000000000e+00,8.800000000000034461e-01,-1.000000000000000000e+00,9.769962616701377556e-15,2.200000000000046363e-01,-6.799999999999934985e-01,-3.299999999999958522e-01,7.600000000000051159e-01,-1.000000000000000000e+00,-1.000000000000000000e+00,-1.000000000000000000e+00,-1.000000000000000000e+00,5.700000000000076117e-01,-3.999999999999941380e-01,5.700000000000049472e-01,-8.199999999999971756e-01,-1.000000000000000000e+00,7.300000000000059774e-01,-4.499999999999968470e-01,4.700000000000057465e-01,-1.000000000000000000e+00,-2.099999999999921929e-01,-8.499999999999980904e-01,3.000000000000446754e-02,-3.499999999999976463e-01,-4.999999999999560352e-02,2.200000000000046363e-01,6.200000000000041034e-01,8.000000000000628830e-02,4.300000000000039346e-01,3.700000000000056577e-01,-1.000000000000000000e+00,4.500000000000021760e-01,2.700000000000029043e-01,-7.599999999999935696e-01,-1.000000000000000000e+00,-4.599999999999933031e-01,-2.399999999999975486e-01,9.000000000000629718e-02,5.100000000000048939e-01,8.500000000000043077e-01,-8.899999999999981259e-01,-5.399999999999969269e-01,-1.000000000000000000e+00,9.500000000000052847e-01,-5.199999999999933564e-01,4.600000000000039613e-01,1.200000000000072120e-01,-1.000000000000000000e+00,-1.000000000000000000e+00,8.800000000000016698e-01,-5.199999999999977973e-01,4.100000000000030287e-01,5.300000000000040234e-01,-1.000000000000000000e+00,-2.199999999999984190e-01,-5.599999999999987210e-01,9.000000000000052403e-01,-1.000000000000000000e+00,5.000000000000084377e-01,3.400000000000056311e-01,-8.699999999999954436e-01,-9.999999999996456168e-03,-2.399999999999984368e-01,-1.000000000000000000e+00,4.000000000000039080e-01,2.800000000000046896e-01,9.500000000000017319e-01,1.800000000000037126e-01,-4.199999999999985967e-01,-1.000000000000000000e+00,-1.000000000000000000e+00,-7.899999999999962608e-01,-5.199999999999986855e-01,-1.000000000000000000e+00
-1.000000000000000000e+00,-6.999999999999988454e-01,-1.000000000000000000e+00,-9.799999999999990941e-01,-9.999999999999982236e-01,-7.699999999999989075e-01,-1.000000000000000000e+00,2.000000000000046185e-01,-5.199999999999951328e-01,-1.000000000000000000e+00,-3.799999999999985612e-01,4.000000000000270006e-02,9.769962616701377556e-15,2.200000000000046363e-01,3.300000000000065103e-01,-5.199999999999960210e-01,7.600000000000051159e-01,-6.799999999999988276e-01,-1.000000000000000000e+00,-1.000000000000000000e+00,-1.000000000000000000e+00,5.700000000000076117e-01,5.300000000000057998e-01,-1.000000000000000000e+00,-8.199999999999971756e-01,-1.000000000000000000e+00,5.800000000000058442e-01,-5.999999999999738876e-02,-6.499999999999952482e-01,-1.000000000000000000e+00,-2.099999999999921929e-01,-2.699999999999984635e-01,6.700000000000041478e-01,-3.499999999999976463e-01,-4.999999999999560352e-02,2.700000000000055689e-01,-9.999999999997344347e-03,8.000000000000628830e-02,3.700000000000038813e-01,8.200000000000051692e-01,-1.000000000000000000e+00,-1.899999999999975042e-01,-3.899999999999985700e-01,-7.599999999999935696e-01,7.100000000000068479e-01,2.900000000000082512e-01,6.600000000000014744e-01,9.000000000000629718e-02,-4.999999999999649170e-02,8.400000000000042988e-01,-1.000000000000000000e+00,-5.399999999999969269e-01,-1.000000000000000000e+00,9.500000000000052847e-01,1.200000000000081002e-01,3.400000000000047429e-01,1.200000000000072120e-01,-2.599999999999984546e-01,-3.299999999999985167e-01,8.800000000000016698e-01,2.000000000000028422e-01,7.300000000000042011e-01,3.100000000000020517e-01,-3.299999999999985167e-01,-2.399999999999975486e-01,-5.599999999999987210e-01,-7.599999999999962341e-01,-1.000000000000000000e+00,5.000000000000084377e-01,3.400000000000056311e-01,-1.000000000000000000e+00,-9.999999999996456168e-03,-2.399999999999984368e-01,-3.399999999999985256e-01,-8.699999999999972200e-01,2.800000000000046896e-01,9.500000000000017319e-01,-5.599999999999960565e-01,-1.000000000000000000e+00,-1.000000000000000000e+00,-9.299999999999990496e-01,-4.599999999999968558e-01,-1.000000000000000000e+00,-7.399999999999988809e-01
-1.000000000000000000e+00,-1.000000000000000000e+00,-1.000000000000000000e+00,-1.000000000000000000e+00,-2.799999999999984723e-01,-1.000000000000000000e+00,-1.000000000000000000e+00,2.000000000000046185e-01,3.400000000000047429e-01,-1.000000000000000000e+00,8.800000000000034461e-01,-6.199999999999978861e-01,-1.599999999999948130e-01,2.200000000000046363e-01,9.900000000000062084e-01,-3.899999999999950173e-01,1.000000000000054179e-01,-6.799999999999988276e-01,-1.000000000000000000e+00,-7.799999999999989164e-01,-1.000000000000000000e+00,5.700000000000076117e-01,5.300000000000057998e-01,5.700000000000049472e-01,-8.199999999999971756e-01,-5.999999999999827693e-02,7.800000000000060218e-01,-5.999999999999738876e-02,8.000000000000362377e-02,-1.000000000000000000e+00,-2.099999999999921929e-01,-2.699999999999984635e-01,6.700000000000041478e-01,-3.499999999999976463e-01,3.600000000000038725e-01,2.200000000000046363e-01,6.200000000000041034e-01,6.000000000000449418e-02,4.300000000000039346e-01,8.200000000000051692e-01,-3.299999999999940758e-01,4.500000000000021760e-01,-6.899999999999979483e-01,-4.499999999999932943e-01,-4.699999999999959766e-01,-4.599999999999933031e-01,-1.000000000000000000e+00,-3.699999999999941114e-01,-4.999999999999649170e-02,9.500000000000035083e-01,-4.899999999999986589e-01,-5.399999999999969269e-01,5.329070518200751394e-15,9.500000000000052847e-01,-5.199999999999933564e-01,3.400000000000047429e-01,-5.999999999999916511e-01,-2.599999999999984546e-01,-3.299999999999985167e-01,8.800000000000016698e-01,-5.199999999999977973e-01,4.100000000000030287e-01,3.100000000000020517e-01,-1.000000000000000000e+00,-1.000000000000000000e+00,-1.000000000000000000e+00,4.000000000000056843e-01,-1.000000000000000000e+00,5.000000000000084377e-01,4.500000000000048406e-01,-1.000000000000000000e+00,-2.999999999999825029e-02,-2.399999999999984368e-01,-1.000000000000000000e+00,-2.599999999999975664e-01,2.800000000000046896e-01,9.500000000000017319e-01,1.800000000000037126e-01,-1.000000000000000000e+00,-1.000000000000000000e+00,-9.299999999999990496e-01,-4.599999999999968558e-01,4.900000000000039879e-01,-1.000000000000000000e+00
-1.000000000000000000e+00,-1.000000000000000000e+00,-1.000000000000000000e+00,-3.899999999999976819e-01,-1.000000000000000000e+00,-3.199999999999985079e-01,-1.000000000000000000e+00,-6.199999999999952216e-01,7.000000000000068390e-01,-1.000000000000000000e+00,8.800000000000034461e-01,-9.999999999999831246e-02,1.400000000000081180e-01,2.200000000000046363e-01,-1.000000000000000000e+00,-1.299999999999947864e-01,1.000000000000054179e-01,-1.000000000000000000e+00,-1.000000000000000000e+00,-1.000000000000000000e+00,-1.000000000000000000e+00,5.700000000000076117e-01,-3.999999999999941380e-01,-4.499999999999986233e-01,-1.899999999999966160e-01,-1.000000000000000000e+00,7.300000000000059774e-01,-5.999999999999738876e-02,-4.599999999999959677e-01,-1.000000000000000000e+00,-9.399999999999919531e-01,4.300000000000012701e-01,3.000000000000446754e-02,-3.499999999999976463e-01,3.300000000000047340e-01,2.200000000000046363e-01,6.200000000000041034e-01,-4.499999999999950706e-01,4.300000000000039346e-01,5.900000000000040767e-01,-3.299999999999940758e-01,-1.899999999999975042e-01,-3.899999999999985700e-01,-1.000000000000000000e+00,-3.799999999999950084e-01,-4.599999999999933031e-01,2.500000000000019984e-01,1.800000000000063771e-01,2.700000000000046807e-01,9.300000000000043787e-01,-1.000000000000000000e+00,-5.399999999999969269e-01,-3.099999999999940581e-01,9.500000000000052847e-01,-5.199999999999933564e-01,4.600000000000039613e-01,1.200000000000072120e-01,-1.000000000000000000e+00,-3.299999999999985167e-01,-1.000000000000000000e+00,-5.199999999999977973e-01,4.100000000000030287e-01,5.300000000000040234e-01,-4.999999999999826805e-02,-7.399999999999979927e-01,-1.000000000000000000e+00,1.100000000000054268e-01,-1.000000000000000000e+00,1.500000000000099032e-01,4.500000000000048406e-01,-8.699999999999954436e-01,-2.999999999999825029e-02,-5.999999999999738876e-02,-3.399999999999985256e-01,-2.599999999999975664e-01,2.800000000000046896e-01,6.000000000000023093e-01,1.800000000000037126e-01,-1.000000000000000000e+00,1.800000000000028244e-01,-9.299999999999990496e-01,-4.599999999999968558e-01,-1.000000000000000000e+00,-1.000000000000000000e+00
-1.000000000000000000e+00,-1.000000000000000000e+00,-1.000000000000000000e+00,-9.799999999999990941e-01,-1.000000000000000000e+00,-1.000000000000000000e+00,-1.000000000000000000e+00,2.000000000000046185e-01,3.400000000000047429e-01,-1.000000000000000000e+00,8.000000000000042633e-01,-3.399999999999976374e-01,1.400000000000081180e-01,2.200000000000046363e-01,9.900000000000062084e-01,-5.199999999999960210e-01,7.600000000000051159e-01,-1.000000000000000000e+00,-1.000000000000000000e+00,-1.000000000000000000e+00,-5.499999999999987121e-01,5.700000000000076117e-01,5.300000000000057998e-01,-4.499999999999986233e-01,-8.199999999999971756e-01,-2.499999999999984457e-01,-1.000000000000000000e+00,7.400000000000042100e-01,8.000000000000362377e-02,-1.000000000000000000e+00,-2.099999999999921929e-01,4.300000000000012701e-01,7.400000000000050981e-01,-3.499999999999976463e-01,4.400000000000057199e-01,2.700000000000055689e-01,-8.899999999999963496e-01,-9.399999999999928413e-01,4.300000000000039346e-01,8.200000000000051692e-01,-3.299999999999940758e-01,-1.899999999999975042e-01,-1.000000000000000000e+00,-3.999999999999941380e-01,7.100000000000068479e-01,-4.599999999999933031e-01,6.600000000000014744e-01,7.993605777301127091e-15,-4.999999999999649170e-02,9.500000000000035083e-01,-1.000000000000000000e+00,-5.399999999999969269e-01,-3.099999999999940581e-01,-1.000000000000000000e+00,-5.199999999999933564e-01,3.400000000000047429e-01,2.700000000000082334e-01,-1.000000000000000000e+00,-3.299999999999985167e-01,8.800000000000016698e-01,-5.199999999999977973e-01,4.100000000000030287e-01,3.100000000000020517e-01,-1.000000000000000000e+00,-9.399999999999990585e-01,-1.000000000000000000e+00,9.000000000000052403e-01,-1.000000000000000000e+00,5.000000000000084377e-01,4.500000000000048406e-01,-8.699999999999954436e-01,-2.999999999999825029e-02,-2.399999999999984368e-01,-1.000000000000000000e+00,4.600000000000039613e-01,2.800000000000046896e-01,6.000000000000023093e-01,8.000000000000451195e-02,-1.000000000000000000e+00,-2.599999999999966782e-01,-9.299999999999990496e-01,-4.599999999999968558e-01,-5.699999999999987299e-01,-1.000000000000000000e+00
-1.000000000000000000e+00,-1.000000000000000000e+00,-1.000000000000000000e+00,-9.799999999999990941e-01,-1.000000000000000000e+00,-3.199999999999985079e-01,-1.000000000000000000e+00,-6.799999999999970512e-01,-1.000000000000000000e+00,-1.000000000000000000e+00,8.800000000000034461e-01,-1.000000000000000000e+00,-5.999999999999916511e-01,2.800000000000055778e-01,-6.799999999999934985e-01,-4.899999999999986589e-01,7.600000000000051159e-01,-1.000000000000000000e+00,-1.000000000000000000e+00,-1.000000000000000000e+00,-1.000000000000000000e+00,-3.999999999999914735e-01,-1.000000000000000000e+00,5.700000000000049472e-01,-8.199999999999971756e-01,-1.000000000000000000e+00,4.500000000000048406e-01,-5.999999999999738876e-02,1.100000000000045386e-01,-1.000000000000000000e+00,-2.099999999999921929e-01,-8.499999999999980904e-01,7.400000000000050981e-01,-6.999999999999988454e-01,-4.999999999999560352e-02,2.200000000000046363e-01,6.200000000000041034e-01,-1.000000000000000000e+00,3.700000000000038813e-01,5.900000000000040767e-01,-3.299999999999940758e-01,4.500000000000021760e-01,-3.899999999999985700e-01,-3.999999999999941380e-01,-3.799999999999950084e-01,-4.599999999999933031e-01,6.600000000000014744e-01,5.700000000000076117e-01,2.700000000000046807e-01,9.300000000000043787e-01,-8.499999999999989786e-01,-5.399999999999969269e-01,-3.099999999999940581e-01,9.500000000000052847e-01,-5.199999999999933564e-01,3.400000000000047429e-01,1.200000000000072120e-01,-1.000000000000000000e+00,-3.299999999999985167e-01,8.800000000000016698e-01,2.000000000000028422e-01,7.300000000000042011e-01,7.400000000000059863e-01,-1.000000000000000000e+00,-2.199999999999984190e-01,-1.000000000000000000e+00,9.000000000000052403e-01,-2.899999999999984812e-01,5.000000000000084377e-01,3.400000000000056311e-01,-8.699999999999954436e-01,-2.999999999999825029e-02,2.400000000000037659e-01,-1.000000000000000000e+00,-2.599999999999975664e-01,2.800000000000046896e-01,9.500000000000017319e-01,1.800000000000037126e-01,-1.000000000000000000e+00,-1.000000000000000000e+00,-9.299999999999990496e-01,-4.599999999999968558e-01,-1.000000000000000000e+00,-1.000000000000000000e+00
-1.000000000000000000e+00,-1.000000000000000000e+00,-1.000000000000000000e+00,-9.799999999999990941e-01,-1.000000000000000000e+00,-3.199999999999985079e-01,-1.000000000000000000e+00,-4.199999999999977085e-01,-5.199999999999942446e-01,-1.000000000000000000e+00,8.800000000000034461e-01,-3.399999999999976374e-01,-1.599999999999948130e-01,2.200000000000046363e-01,9.900000000000062084e-01,-5.199999999999960210e-01,7.600000000000051159e-01,-1.000000000000000000e+00,-1.000000000000000000e+00,-1.000000000000000000e+00,-1.000000000000000000e+00,-1.000000000000000000e+00,5.300000000000057998e-01,7.000000000000068390e-01,-8.199999999999971756e-01,-1.000000000000000000e+00,-1.000000000000000000e+00,3.500000000000038636e-01,8.000000000000362377e-02,-1.699999999999983746e-01,-2.099999999999921929e-01,-1.999999999999824141e-02,7.800000000000051337e-01,-3.499999999999976463e-01,-4.999999999999560352e-02,2.700000000000055689e-01,-9.999999999997344347e-03,6.000000000000449418e-02,4.300000000000039346e-01,5.900000000000040767e-01,-3.299999999999940758e-01,-1.899999999999975042e-01,-1.000000000000000000e+00,-1.000000000000000000e+00,-4.699999999999959766e-01,-4.599999999999933031e-01,6.600000000000014744e-01,1.800000000000063771e-01,-4.999999999999649170e-02,2.500000000000046629e-01,-1.000000000000000000e+00,-5.399999999999969269e-01,-3.099999999999940581e-01,6.500000000000059064e-01,-8.399999999999927525e-01,-1.000000000000000000e+00,2.700000000000082334e-01,-1.000000000000000000e+00,-3.299999999999985167e-01,8.800000000000016698e-01,-5.199999999999977973e-01,4.100000000000030287e-01,5.300000000000040234e-01,-1.000000000000000000e+00,-7.399999999999979927e-01,-1.000000000000000000e+00,1.000000000000045297e-01,-1.000000000000000000e+00,6.100000000000094236e-01,4.500000000000048406e-01,-8.699999999999954436e-01,-2.999999999999825029e-02,-8.999999999999741540e-02,-1.000000000000000000e+00,-1.000000000000000000e+00,2.800000000000046896e-01,2.300000000000019806e-01,1.800000000000037126e-01,-2.099999999999957456e-01,1.800000000000028244e-01,-9.299999999999990496e-01,-4.599999999999968558e-01,4.900000000000039879e-01,-1.000000000000000000e+00
-1.000000000000000000e+00,-5.199999999999986855e-01,-2.199999999999984190e-01,-3.899999999999976819e-01,-1.000000000000000000e+00,-3.199999999999985079e-01,-1.000000000000000000e+00,-6.799999999999970512e-01,-1.000000000000000000e+00,-1.000000000000000000e+00,8.800000000000034461e-01,-1.000000000000000000e+00,-1.599999999999948130e-01,2.800000000000055778e-01,-6.799999999999934985e-01,-4.199999999999977085e-01,7.600000000000051159e-01,-1.000000000000000000e+00,-1.000000000000000000e+00,-1.000000000000000000e+00,-1.000000000000000000e+00,5.500000000000084821e-01,-1.000000000000000000e+00,5.700000000000049472e-01,-1.899999999999966160e-01,-7.699999999999989075e-01,7.300000000000059774e-01,-6.399999999999970157e-01,-4.599999999999959677e-01,-1.000000000000000000e+00,-2.099999999999921929e-01,4.300000000000012701e-01,3.000000000000446754e-02,-9.099999999999990319e-01,3.300000000000047340e-01,2.200000000000046363e-01,-9.999999999997344347e-03,-1.000000000000000000e+00,3.700000000000038813e-01,5.900000000000040767e-01,-3.299999999999940758e-01,4.500000000000021760e-01,-3.899999999999985700e-01,-3.999999999999941380e-01,-4.699999999999959766e-01,3.300000000000091749e-01,-9.499999999999972911e-01,5.700000000000076117e-01,2.700000000000046807e-01,9.300000000000043787e-01,-4.899999999999986589e-01,-5.399999999999969269e-01,-3.099999999999940581e-01,9.500000000000052847e-01,-2.999999999999203304e-02,3.400000000000047429e-01,1.200000000000072120e-01,-1.000000000000000000e+00,-3.699999999999976641e-01,-3.499999999999967581e-01,2.000000000000028422e-01,4.100000000000030287e-01,7.200000000000050804e-01,-1.000000000000000000e+00,4.900000000000030997e-01,-1.000000000000000000e+00,-1.000000000000000000e+00,-1.000000000000000000e+00,5.000000000000084377e-01,3.400000000000056311e-01,-8.699999999999954436e-01,1.600000000000028066e-01,-5.999999999999738876e-02,-1.000000000000000000e+00,-2.599999999999975664e-01,2.800000000000046896e-01,9.500000000000017319e-01,1.800000000000037126e-01,-1.000000000000000000e+00,-1.000000000000000000e+00,-2.999999999999976019e-01,-4.599999999999968558e-01,-5.699999999999987299e-01,-1.000000000000000000e+00
-1.000000000000000000e+00,-1.999999999999984013e-01,-1.000000000000000000e+00,-9.799999999999990941e-01,-1.000000000000000000e+00,-7.699999999999989075e-01,-1.000000000000000000e+00,-4.199999999999977085e-01,-5.199999999999942446e-01,-1.000000000000000000e+00,8.800000000000034461e-01,-1.099999999999983213e-01,2.000000000000889955e-02,2.200000000000046363e-01,6.217248937900876626e-15,-3.299999999999958522e-01,7.600000000000051159e-01,-1.000000000000000000e+00,-1.000000000000000000e+00,-1.000000000000000000e+00,-1.000000000000000000e+00,5.700000000000076117e-01,5.300000000000057998e-01,-1.000000000000000000e+00,1.300000000000027800e-01,-7.699999999999989075e-01,-1.000000000000000000e+00,7.800000000000042455e-01,8.000000000000362377e-02,-1.699999999999983746e-01,2.000000000000889955e-02,-9.699999999999981970e-01,6.700000000000041478e-01,-3.499999999999976463e-01,-4.999999999999560352e-02,2.700000000000055689e-01,6.200000000000041034e-01,-2.999999999999469757e-02,4.300000000000039346e-01,5.900000000000040767e-01,3.100000000000082689e-01,6.000000000000271783e-02,-3.899999999999985700e-01,-1.000000000000000000e+00,-4.699999999999959766e-01,-4.599999999999933031e-01,2.500000000000019984e-01,9.000000000000629718e-02,-4.999999999999649170e-02,8.400000000000042988e-01,-4.899999999999986589e-01,-5.399999999999969269e-01,-4.299999999999932765e-01,9.500000000000052847e-01,-5.199999999999933564e-01,3.400000000000047429e-01,2.700000000000082334e-01,-2.599999999999984546e-01,-7.899999999999980371e-01,8.800000000000016698e-01,2.000000000000028422e-01,4.100000000000030287e-01,3.100000000000020517e-01,-3.299999999999985167e-01,-1.000000000000000000e+00,-4.399999999999986144e-01,9.000000000000363265e-02,-1.000000000000000000e+00,-1.299999999999912337e-01,3.400000000000056311e-01,-8.699999999999954436e-01,-2.999999999999825029e-02,-2.099999999999975220e-01,-3.399999999999985256e-01,4.600000000000039613e-01,2.800000000000046896e-01,9.700000000000026379e-01,1.800000000000037126e-01,-2.099999999999957456e-01,-1.000000000000000000e+00,-9.299999999999990496e-01,-4.599999999999968558e-01,-1.000000000000000000e+00,-1.000000000000000000e+00
-1.000000000000000000e+00,-1.000000000000000000e+00,-1.000000000000000000e+00,-3.899999999999976819e-01,-1.000000000000000000e+00,-3.199999999999985079e-01,-1.000000000000000000e+00,-1.299999999999956746e-01,-1.000000000000000000e+00,-1.000000000000000000e+00,8.800000000000034461e-01,-9.099999999999990319e-01,-1.599999999999948130e-01,2.200000000000046363e-01,-6.799999999999934985e-01,-3.299999999999958522e-01,7.600000000000051159e-01,-6.799999999999988276e-01,-1.000000000000000000e+00,-1.000000000000000000e+00,-1.000000000000000000e+00,5.500000000000084821e-01,5.300000000000057998e-01,3.600000000000056488e-01,-1.899999999999966160e-01,-1.000000000000000000e+00,4.500000000000048406e-01,-5.999999999999738876e-02,-4.599999999999959677e-01,-5.899999999999987477e-01,-7.799999999999918110e-01,-2.699999999999984635e-01,6.700000000000041478e-01,-3.499999999999976463e-01,3.300000000000047340e-01,2.200000000000046363e-01,6.200000000000041034e-01,-1.000000000000000000e+00,4.300000000000039346e-01,5.900000000000040767e-01,-3.299999999999940758e-01,4.500000000000021760e-01,-3.899999999999985700e-01,-1.000000000000000000e+00,-3.799999999999950084e-01,5.100000000000084466e-01,-2.399999999999975486e-01,1.800000000000054889e-01,2.700000000000046807e-01,9.300000000000043787e-01,-4.899999999999986589e-01,-5.399999999999969269e-01,-2.999999999999931610e-01,9.500000000000052847e-01,-8.399999999999927525e-01,3.400000000000047429e-01,2.700000000000082334e-01,-2.599999999999984546e-01,-3.699999999999976641e-01,8.800000000000016698e-01,-5.199999999999977973e-01,4.100000000000030287e-01,5.300000000000040234e-01,-1.000000000000000000e+00,-2.199999999999984190e-01,-1.000000000000000000e+00,9.000000000000052403e-01,-1.000000000000000000e+00,3.300000000000091749e-01,3.400000000000056311e-01,-8.699999999999954436e-01,2.800000000000029132e-01,-2.399999999999984368e-01,5.300000000000031353e-01,-2.599999999999975664e-01,2.800000000000046896e-01,9.200000000000025935e-01,1.800000000000037126e-01,-9.299999999999990496e-01,-1.000000000000000000e+00,-9.299999999999990496e-01,-4.599999999999968558e-01,-1.000000000000000000e+00,-1.000000000000000000e+00
-1.000000000000000000e+00,-1.000000000000000000e+00,-1.000000000000000000e+00,-1.000000000000000000e+00,-1.000000000000000000e+00,-1.000000000000000000e+00,-1.000000000000000000e+00,2.000000000000046185e-01,-5.199999999999942446e-01,-1.000000000000000000e+00,8.800000000000034461e-01,-3.399999999999976374e-01,-1.599999999999948130e-01,2.200000000000046363e-01,9.900000000000062084e-01,-5.099999999999951239e-01,7.600000000000051159e-01,-1.000000000000000000e+00,-1.000000000000000000e+00,-1.000000000000000000e+00,-1.000000000000000000e+00,5.700000000000076117e-01,5.300000000000057998e-01,-1.599999999999948130e-01,1.300000000000027800e-01,-5.999999999999827693e-02,-1.000000000000000000e+00,7.400000000000042100e-01,1.100000000000045386e-01,-1.000000000000000000e+00,-2.099999999999921929e-01,-2.399999999999984368e-01,7.400000000000050981e-01,-6.999999999999988454e-01,3.600000000000038725e-01,2.700000000000055689e-01,-9.999999999997344347e-03,-3.099999999999931699e-01,4.300000000000039346e-01,8.200000000000051692e-01,3.100000000000082689e-01,-1.899999999999975042e-01,-6.899999999999979483e-01,-1.000000000000000000e+00,-4.699999999999959766e-01,-4.599999999999933031e-01,6.600000000000014744e-01,1.800000000000054889e-01,-4.999999999999649170e-02,9.500000000000035083e-01,-1.000000000000000000e+00,-5.399999999999969269e-01,-8.099999999999989431e-01,6.500000000000059064e-01,-8.399999999999927525e-01,3.400000000000047429e-01,2.700000000000082334e-01,-6.999999999999828582e-02,-3.299999999999985167e-01,8.800000000000016698e-01,-5.199999999999977973e-01,4.100000000000030287e-01,1.100000000000045386e-01,-1.000000000000000000e+00,-1.000000000000000000e+00,-1.000000000000000000e+00,9.000000000000363265e-02,-1.000000000000000000e+00,5.000000000000084377e-01,4.500000000000048406e-01,-8.699999999999954436e-01,-2.999999999999825029e-02,-2.399999999999984368e-01,-1.000000000000000000e+00,-2.599999999999975664e-01,2.800000000000046896e-01,9.500000000000017319e-01,1.800000000000037126e-01,-2.099999999999957456e-01,4.200000000000048139e-01,-9.299999999999990496e-01,-4.599999999999968558e-01,-5.699999999999987299e-01,-1.000000000000000000e+00
-1.000000000000000000e+00,-1.000000000000000000e+00,-1.000000000000000000e+00,-9.799999999999990941e-01,-1.000000000000000000e+00,-3.199999999999985079e-01,-1.000000000000000000e+00,2.000000000000046185e-01,-5.199999999999951328e-01,-1.000000000000000000e+00,-1.000000000000000000e+00,-1.099999999999983213e-01,-1.599999999999948130e-01,2.200000000000046363e-01,9.900000000000062084e-01,-5.199999999999960210e-01,7.600000000000051159e-01,-1.000000000000000000e+00,-1.000000000000000000e+00,-1.000000000000000000e+00,-1.000000000000000000e+00,5.700000000000076117e-01,5.300000000000057998e-01,-1.000000000000000000e+00,-8.199999999999971756e-01,-1.000000000000000000e+00,-1.000000000000000000e+00,-5.999999999999738876e-02,8.000000000000362377e-02,-1.699999999999983746e-01,-2.099999999999921929e-01,4.300000000000012701e-01,6.700000000000041478e-01,-3.499999999999976463e-01,-4.999999999999560352e-02,2.700000000000055689e-01,-8.899999999999963496e-01,6.000000000000449418e-02,4.300000000000039346e-01,5.900000000000040767e-01,1.300000000000089972e-01,6.000000000000271783e-02,-6.899999999999979483e-01,-3.999999999999941380e-01,7.100000000000068479e-01,-4.599999999999933031e-01,6.600000000000014744e-01,9.000000000000629718e-02,-4.999999999999649170e-02,9.500000000000035083e-01,-8.399999999999989697e-01,-5.399999999999969269e-01,-8.199999999999989519e-01,9.500000000000052847e-01,-8.399999999999927525e-01,-1.000000000000000000e+00,2.700000000000082334e-01,-1.000000000000000000e+00,-3.299999999999985167e-01,8.800000000000016698e-01,6.800000000000041567e-01,4.100000000000030287e-01,5.300000000000040234e-01,-1.000000000000000000e+00,-1.000000000000000000e+00,-4.399999999999986144e-01,9.000000000000052403e-01,-3.199999999999985079e-01,6.100000000000094236e-01,4.500000000000048406e-01,-8.699999999999954436e-01,-2.999999999999825029e-02,-2.399999999999984368e-01,-3.399999999999985256e-01,4.600000000000039613e-01,-3.099999999999949463e-01,9.500000000000017319e-01,1.800000000000037126e-01,-1.000000000000000000e+00,-1.000000000000000000e+00,-9.299999999999990496e-01,-4.599999999999968558e-01,-1.000000000000000000e+00,-1.000000000000000000e+00
-1.000000000000000000e+00,-1.000000000000000000e+00,-1.000000000000000000e+00,-1.000000000000000000e+00,-1.000000000000000000e+00,-3.199999999999985079e-01,-1.000000000000000000e+00,-4.199999999999977085e-01,-5.199999999999942446e-01,-1.000000000000000000e+00,8.800000000000034461e-01,-1.099999999999983213e-01,-5.999999999999916511e-01,2.200000000000046363e-01,-7.899999999999927081e-01,-5.199999999999960210e-01,7.600000000000051159e-01,-1.000000000000000000e+00,-1.000000000000000000e+00,-1.000000000000000000e+00,-1.000000000000000000e+00,5.700000000000076117e-01,-3.999999999999941380e-01,-1.599999999999948130e-01,-1.899999999999966160e-01,-2.599999999999984546e-01,-1.000000000000000000e+00,-5.999999999999738876e-02,-4.599999999999959677e-01,-1.000000000000000000e+00,-2.899999999999904876e-01,-8.499999999999980904e-01,7.800000000000051337e-01,-6.999999999999988454e-01,-4.999999999999560352e-02,2.200000000000046363e-01,-9.999999999997344347e-03,6.000000000000449418e-02,4.300000000000039346e-01,5.900000000000040767e-01,-8.799999999999936762e-01,6.000000000000271783e-02,-3.899999999999985700e-01,-1.000000000000000000e+00,-4.699999999999959766e-01,-4.599999999999933031e-01,-2.399999999999975486e-01,5.700000000000076117e-01,-4.999999999999649170e-02,8.400000000000042988e-01,-8.399999999999989697e-01,-5.399999999999969269e-01,-2.999999999999931610e-01,9.500000000000052847e-01,-8.399999999999927525e-01,-1.000000000000000000e+00,1.200000000000072120e-01,-1.000000000000000000e+00,-3.699999999999976641e-01,8.800000000000016698e-01,2.000000000000028422e-01,7.300000000000042011e-01,5.300000000000040234e-01,-1.000000000000000000e+00,-1.000000000000000000e+00,-4.399999999999986144e-01,9.000000000000052403e-01,-1.000000000000000000e+00,6.100000000000094236e-01,1.700000000000063682e-01,-6.199999999999943334e-01,-2.999999999999825029e-02,-5.999999999999738876e-02,-1.000000000000000000e+00,4.600000000000039613e-01,-1.000000000000000000e+00,9.500000000000017319e-01,1.800000000000037126e-01,-2.099999999999957456e-01,1.800000000000028244e-01,-9.299999999999990496e-01,-4.599999999999968558e-01,4.800000000000048672e-01,-1.000000000000000000e+00
-1.000000000000000000e+00,-1.000000000000000000e+00,-1.000000000000000000e+00,-9.799999999999990941e-01,-2.799999999999984723e-01,-1.000000000000000000e+00,-1.000000000000000000e+00,2.000000000000046185e-01,3.400000000000047429e-01,-1.000000000000000000e+00,8.500000000000043077e-01,-3.399999999999976374e-01,-1.599999999999948130e-01,2.200000000000046363e-01,7.900000000000069189e-01,-5.099999999999951239e-01,7.600000000000051159e-01,-6.799999999999988276e-01,-5.699999999999987299e-01,-1.000000000000000000e+00,-5.499999999999987121e-01,5.700000000000076117e-01,5.300000000000057998e-01,-1.000000000000000000e+00,-8.199999999999971756e-01,-5.999999999999827693e-02,-1.000000000000000000e+00,-8.199999999999971756e-01,-4.599999999999959677e-01,-1.000000000000000000e+00,-2.099999999999921929e-01,-2.699999999999984635e-01,6.700000000000041478e-01,-3.499999999999976463e-01,-4.999999999999560352e-02,7.300000000000059774e-01,-9.999999999997344347e-03,-1.599999999999948130e-01,4.300000000000039346e-01,-4.099999999999959233e-01,-3.299999999999940758e-01,-1.899999999999975042e-01,-6.899999999999979483e-01,-3.999999999999941380e-01,-4.499999999999950706e-01,-8.899999999999919087e-01,8.100000000000024958e-01,1.800000000000054889e-01,-4.999999999999649170e-02,9.500000000000035083e-01,-1.000000000000000000e+00,-5.399999999999969269e-01,-1.000000000000000000e+00,9.500000000000052847e-01,-5.199999999999933564e-01,3.400000000000047429e-01,2.700000000000082334e-01,-1.000000000000000000e+00,-4.399999999999977263e-01,8.800000000000016698e-01,2.000000000000028422e-01,4.100000000000030287e-01,3.100000000000020517e-01,-3.299999999999985167e-01,-9.399999999999990585e-01,-1.000000000000000000e+00,9.000000000000052403e-01,-1.000000000000000000e+00,6.100000000000094236e-01,4.500000000000048406e-01,-1.000000000000000000e+00,-2.999999999999825029e-02,-2.399999999999984368e-01,-1.000000000000000000e+00,-2.599999999999975664e-01,-3.299999999999949640e-01,9.500000000000017319e-01,1.800000000000037126e-01,-1.000000000000000000e+00,-1.000000000000000000e+00,-9.299999999999990496e-01,-4.599999999999968558e-01,-5.699999999999987299e-01,-1.000000000000000000e+00
-1.000000000000000000e+00,-1.000000000000000000e+00,-1.000000000000000000e+00,-9.799999999999990941e-01,-1.000000000000000000e+00,-7.699999999999989075e-01,-1.000000000000000000e+00,-1.299999999999956746e-01,-5.199999999999951328e-01,-1.000000000000000000e+00,8.800000000000034461e-01,-9.099999999999990319e-01,-1.599999999999948130e-01,2.200000000000046363e-01,-1.000000000000000000e+00,-3.899999999999950173e-01,1.000000000000054179e-01,-1.000000000000000000e+00,-1.000000000000000000e+00,-1.000000000000000000e+00,-1.000000000000000000e+00,-2.199999999999922018e-01,-4.399999999999941735e-01,-1.000000000000000000e+00,1.300000000000027800e-01,-1.000000000000000000e+00,-1.000000000000000000e+00,-5.999999999999738876e-02,8.000000000000362377e-02,-1.000000000000000000e+00,-2.099999999999921929e-01,-2.699999999999984635e-01,6.700000000000041478e-01,-3.499999999999976463e-01,4.400000000000057199e-01,2.200000000000046363e-01,-8.899999999999963496e-01,-1.199999999999947775e-01,5.200000000000049027e-01,5.900000000000040767e-01,-3.299999999999940758e-01,4.500000000000021760e-01,-1.000000000000000000e+00,-1.000000000000000000e+00,-1.000000000000000000e+00,-4.599999999999933031e-01,2.500000000000019984e-01,1.800000000000063771e-01,-4.999999999999649170e-02,8.400000000000042988e-01,-1.000000000000000000e+00,-5.399999999999969269e-01,5.329070518200751394e-15,-1.000000000000000000e+00,-5.199999999999933564e-01,3.400000000000047429e-01,1.200000000000072120e-01,-1.000000000000000000e+00,-1.000000000000000000e+00,8.800000000000016698e-01,-1.000000000000000000e+00,4.100000000000030287e-01,3.100000000000020517e-01,-1.000000000000000000e+00,-7.399999999999979927e-01,-1.000000000000000000e+00,-6.499999999999943601e-01,-1.000000000000000000e+00,5.000000000000084377e-01,3.400000000000056311e-01,-1.000000000000000000e+00,-2.999999999999825029e-02,-2.399999999999984368e-01,-3.399999999999985256e-01,-2.599999999999975664e-01,2.900000000000055866e-01,6.000000000000023093e-01,1.800000000000037126e-01,-1.000000000000000000e+00,1.800000000000028244e-01,-9.299999999999990496e-01,-4.599999999999968558e-01,4.900000000000039879e-01,-1.000000000000000000e+00
-1.000000000000000000e+00,-1.000000000000000000e+00,-1.000000000000000000e+00,-9.799999999999990941e-01,-7.599999999999988987e-01,-3.199999999999985079e-01,-1.000000000000000000e+00,-6.799999999999970512e-01,3.400000000000047429e-01,-9.199999999999990408e-01,8.800000000000034461e-01,-3.399999999999976374e-01,1.400000000000081180e-01,2.800000000000055778e-01,9.900000000000062084e-01,-4.899999999999986589e-01,7.600000000000051159e-01,-1.000000000000000000e+00,-1.000000000000000000e+00,-1.000000000000000000e+00,-1.000000000000000000e+00,5.700000000000076117e-01,-1.000000000000000000e+00,-4.499999999999986233e-01,-8.199999999999971756e-01,-7.699999999999989075e-01,4.500000000000048406e-01,-5.999999999999738876e-02,8.000000000000362377e-02,-1.000000000000000000e+00,-2.099999999999921929e-01,4.300000000000012701e-01,6.700000000000041478e-01,-6.999999999999988454e-01,-4.999999999999560352e-02,2.200000000000046363e-01,-8.899999999999963496e-01,8.000000000000628830e-02,4.300000000000039346e-01,5.900000000000040767e-01,-3.299999999999940758e-01,-1.899999999999975042e-01,-1.000000000000000000e+00,-3.999999999999941380e-01,-4.699999999999959766e-01,-3.699999999999923350e-01,2.500000000000019984e-01,-7.999999999999296563e-02,8.400000000000051870e-01,8.400000000000042988e-01,-1.000000000000000000e+00,-5.399999999999969269e-01,-3.099999999999940581e-01,9.500000000000052847e-01,-5.199999999999933564e-01,4.600000000000039613e-01,1.200000000000072120e-01,-1.000000000000000000e+00,-3.299999999999985167e-01,-3.499999999999967581e-01,-5.199999999999977973e-01,4.100000000000030287e-01,5.300000000000040234e-01,-1.000000000000000000e+00,-9.399999999999990585e-01,-1.000000000000000000e+00,9.000000000000052403e-01,-1.000000000000000000e+00,1.500000000000099032e-01,4.500000000000048406e-01,-8.699999999999954436e-01,1.600000000000028066e-01,2.400000000000037659e-01,-1.000000000000000000e+00,4.600000000000039613e-01,2.900000000000055866e-01,6.000000000000023093e-01,1.800000000000037126e-01,-1.000000000000000000e+00,-6.099999999999969891e-01,-9.299999999999990496e-01,-4.599999999999968558e-01,4.900000000000039879e-01,-1.000000000000000000e+00
-1.000000000000000000e+00,-1.000000000000000000e+00,-1.000000000000000000e+00,-9.799999999999990941e-01,-1.000000000000000000e+00,-3.199999999999985079e-01,-5.699999999999987299e-01,-6.799999999999970512e-01,7.000000000000068390e-01,-1.000000000000000000e+00,8.800000000000034461e-01,-3.399999999999976374e-01,1.400000000000081180e-01,2.200000000000046363e-01,9.900000000000062084e-01,-4.899999999999986589e-01,7.600000000000051159e-01,-6.899999999999988365e-01,-1.000000000000000000e+00,-1.000000000000000000e+00,-1.000000000000000000e+00,5.700000000000076117e-01,-1.000000000000000000e+00,-4.499999999999986233e-01,-8.199999999999971756e-01,-1.000000000000000000e+00,4.500000000000048406e-01,-5.999999999999738876e-02,1.100000000000045386e-01,-1.000000000000000000e+00,-2.099999999999921929e-01,4.300000000000012701e-01,7.400000000000050981e-01,-6.999999999999988454e-01,4.400000000000057199e-01,2.200000000000046363e-01,-9.299999999999954969e-01,8.000000000000628830e-02,4.300000000000039346e-01,5.900000000000040767e-01,-3.299999999999940758e-01,-1.899999999999975042e-01,-1.000000000000000000e+00,-3.999999999999941380e-01,7.100000000000068479e-01,-3.699999999999923350e-01,6.600000000000014744e-01,-7.999999999999296563e-02,-4.999999999999649170e-02,8.400000000000042988e-01,-1.000000000000000000e+00,-5.399999999999969269e-01,-3.099999999999940581e-01,9.500000000000052847e-01,-5.199999999999933564e-01,3.400000000000047429e-01,1.200000000000072120e-01,-1.000000000000000000e+00,-3.299999999999985167e-01,-3.499999999999967581e-01,2.000000000000028422e-01,4.800000000000039790e-01,7.200000000000050804e-01,-1.000000000000000000e+00,-9.399999999999990585e-01,-1.000000000000000000e+00,4.100000000000056932e-01,-1.000000000000000000e+00,5.000000000000084377e-01,4.500000000000048406e-01,-8.699999999999954436e-01,-2.999999999999825029e-02,-2.399999999999984368e-01,-3.399999999999985256e-01,4.600000000000039613e-01,2.800000000000046896e-01,6.000000000000023093e-01,1.800000000000037126e-01,-1.000000000000000000e+00,1.800000000000028244e-01,-9.299999999999990496e-01,-4.599999999999968558e-01,4.900000000000039879e-01,-1.000000000000000000e+00
-2.099999999999984102e-01,-1.000000000000000000e+00,-7.999999999999829470e-02,-9.799999999999990941e-01,-1.000000000000000000e+00,-3.199999999999985079e-01,-8.599999999999989875e-01,-1.599999999999948130e-01,5.000000000000537348e-02,-1.000000000000000000e+00,8.800000000000034461e-01,-3.399999999999976374e-01,-1.599999999999948130e-01,4.100000000000065814e-01,-1.000000000000000000e+00,-5.199999999999960210e-01,7.600000000000051159e-01,-1.000000000000000000e+00,-1.000000000000000000e+00,-1.000000000000000000e+00,-1.000000000000000000e+00,5.700000000000076117e-01,5.300000000000057998e-01,5.700000000000049472e-01,-8.199999999999971756e-01,-7.699999999999989075e-01,4.500000000000048406e-01,-5.999999999999738876e-02,-4.599999999999959677e-01,-1.000000000000000000e+00,-2.099999999999921929e-01,4.300000000000012701e-01,-1.000000000000000000e+00,-7.799999999999971401e-01,-4.999999999999560352e-02,7.300000000000059774e-01,-9.999999999997344347e-03,6.000000000000449418e-02,8.100000000000051603e-01,5.900000000000040767e-01,-3.299999999999940758e-01,4.500000000000021760e-01,-3.899999999999985700e-01,-3.999999999999941380e-01,-4.699999999999959766e-01,-3.699999999999923350e-01,-1.000000000000000000e+00,1.800000000000054889e-01,-4.999999999999649170e-02,9.500000000000035083e-01,-1.000000000000000000e+00,-5.399999999999969269e-01,-3.099999999999940581e-01,9.500000000000052847e-01,-5.199999999999933564e-01,3.400000000000047429e-01,1.200000000000072120e-01,-1.000000000000000000e+00,-3.299999999999985167e-01,-3.499999999999967581e-01,2.000000000000028422e-01,4.100000000000030287e-01,7.200000000000050804e-01,-3.299999999999985167e-01,-1.000000000000000000e+00,-1.000000000000000000e+00,9.000000000000052403e-01,-1.000000000000000000e+00,6.100000000000094236e-01,4.500000000000048406e-01,-8.699999999999954436e-01,1.600000000000028066e-01,-2.399999999999984368e-01,-3.399999999999985256e-01,4.600000000000039613e-01,2.900000000000055866e-01,9.500000000000017319e-01,1.800000000000037126e-01,-1.000000000000000000e+00,-1.000000000000000000e+00,-9.299999999999990496e-01,-4.599999999999968558e-01,-5.699999999999987299e-01,-1.000000000000000000e+00
-1.000000000000000000e+00,-1.000000000000000000e+00,-1.000000000000000000e+00,-9.799999999999990941e-01,-1.000000000000000000e+00,-3.199999999999985079e-01,-1.000000000000000000e+00,2.000000000000046185e-01,-5.199999999999951328e-01,-1.000000000000000000e+00,2.900000000000038103e-01,-9.099999999999990319e-01,2.000000000000889955e-02,2.200000000000046363e-01,9.900000000000062084e-01,-3.299999999999958522e-01,7.600000000000051159e-01,-1.000000000000000000e+00,-1.000000000000000000e+00,-1.000000000000000000e+00,-1.000000000000000000e+00,5.700000000000076117e-01,5.300000000000057998e-01,-1.000000000000000000e+00,-1.899999999999966160e-01,-1.000000000000000000e+00,-1.000000000000000000e+00,-5.999999999999738876e-02,8.000000000000362377e-02,-1.000000000000000000e+00,-2.099999999999921929e-01,4.300000000000012701e-01,7.800000000000051337e-01,-6.999999999999988454e-01,-4.999999999999560352e-02,2.700000000000055689e-01,6.200000000000041034e-01,-2.999999999999469757e-02,4.300000000000039346e-01,5.900000000000040767e-01,-3.299999999999940758e-01,4.500000000000021760e-01,-3.899999999999985700e-01,-1.000000000000000000e+00,7.100000000000068479e-01,-1.000000000000000000e+00,2.500000000000019984e-01,9.000000000000629718e-02,-4.999999999999649170e-02,8.400000000000042988e-01,-4.899999999999986589e-01,-2.599999999999949019e-01,-1.000000000000000000e+00,9.500000000000052847e-01,-8.399999999999927525e-01,-1.799999999999948308e-01,2.700000000000082334e-01,-2.599999999999984546e-01,-3.299999999999985167e-01,-1.000000000000000000e+00,2.000000000000028422e-01,7.300000000000042011e-01,3.100000000000020517e-01,-3.299999999999985167e-01,-1.000000000000000000e+00,-5.899999999999987477e-01,-7.599999999999962341e-01,-3.199999999999985079e-01,6.100000000000094236e-01,1.000000000000533795e-02,-8.699999999999954436e-01,-7.299999999999970957e-01,-8.999999999999741540e-02,-1.699999999999983746e-01,-8.699999999999972200e-01,-3.099999999999949463e-01,9.500000000000017319e-01,1.800000000000037126e-01,-2.099999999999957456e-01,-1.000000000000000000e+00,-9.299999999999990496e-01,-4.599999999999968558e-01,8.200000000000042810e-01,-1.000000000000000000e+00
-1.000000000000000000e+00,-1.999999999999984013e-01,-1.000000000000000000e+00,-9.799999999999990941e-01,-1.000000000000000000e+00,-7.699999999999989075e-01,-1.000000000000000000e+00,2.000000000000046185e-01,7.000000000000068390e-01,-1.000000000000000000e+00,8.800000000000034461e-01,-3.399999999999976374e-01,1.400000000000081180e-01,2.200000000000046363e-01,9.900000000000062084e-01,-5.199999999999960210e-01,-1.000000000000000000e+00,-1.000000000000000000e+00,-1.000000000000000000e+00,-1.000000000000000000e+00,-1.000000000000000000e+00,5.700000000000076117e-01,5.300000000000057998e-01,-4.499999999999986233e-01,-8.199999999999971756e-01,-1.000000000000000000e+00,-1.000000000000000000e+00,-5.999999999999738876e-02,8.000000000000362377e-02,-1.000000000000000000e+00,-2.099999999999921929e-01,4.300000000000012701e-01,6.700000000000041478e-01,-3.499999999999976463e-01,3.600000000000038725e-01,2.700000000000055689e-01,-8.899999999999963496e-01,-5.599999999999951683e-01,4.300000000000039346e-01,5.900000000000040767e-01,-3.299999999999940758e-01,-1.899999999999975042e-01,-6.899999999999979483e-01,-3.999999999999941380e-01,7.100000000000068479e-01,-4.599999999999933031e-01,6.600000000000014744e-01,1.800000000000063771e-01,-4.999999999999649170e-02,9.500000000000035083e-01,-1.000000000000000000e+00,-5.399999999999969269e-01,-1.000000000000000000e+00,9.500000000000052847e-01,-8.399999999999927525e-01,3.400000000000047429e-01,1.200000000000072120e-01,-1.000000000000000000e+00,-3.299999999999985167e-01,8.800000000000016698e-01,-5.199999999999977973e-01,4.100000000000030287e-01,5.300000000000040234e-01,-1.000000000000000000e+00,-1.000000000000000000e+00,-1.000000000000000000e+00,9.000000000000052403e-01,-1.000000000000000000e+00,1.500000000000099032e-01,4.500000000000048406e-01,-8.699999999999954436e-01,-2.999999999999825029e-02,-2.399999999999984368e-01,-3.399999999999985256e-01,-2.599999999999975664e-01,-4.999999999999951150e-01,9.500000000000017319e-01,1.800000000000037126e-01,-1.000000000000000000e+00,-6.999999999999970690e-01,-1.799999999999974953e-01,-4.599999999999968558e-01,-1.000000000000000000e+00,-1.000000000000000000e+00
-1.000000000000000000e+00,-1.000000000000000000e+00,-1.000000000000000000e+00,-9.799999999999990941e-01,-1.000000000000000000e+00,-7.699999999999989075e-01,-1.000000000000000000e+00,-1.599999999999948130e-01,5.000000000000537348e-02,-1.000000000000000000e+00,8.800000000000034461e-01,-3.399999999999976374e-01,1.400000000000081180e-01,2.200000000000046363e-01,9.900000000000062084e-01,-5.199999999999960210e-01,7.600000000000051159e-01,-1.000000000000000000e+00,-1.000000000000000000e+00,-1.000000000000000000e+00,-1.000000000000000000e+00,5.700000000000076117e-01,5.300000000000057998e-01,-4.499999999999986233e-01,-8.199999999999971756e-01,-1.000000000000000000e+00,-1.000000000000000000e+00,-8.199999999999971756e-01,8.000000000000362377e-02,-1.000000000000000000e+00,-2.099999999999921929e-01,-2.699999999999984635e-01,6.700000000000041478e-01,-3.499999999999976463e-01,4.400000000000057199e-01,2.700000000000055689e-01,5.300000000000049116e-01,-4.499999999999950706e-01,4.300000000000039346e-01,5.900000000000040767e-01,-3.299999999999940758e-01,-1.899999999999975042e-01,-9.699999999999990852e-01,-1.000000000000000000e+00,7.100000000000068479e-01,-4.599999999999933031e-01,2.500000000000019984e-01,-1.499999999999930278e-01,-4.999999999999649170e-02,9.500000000000035083e-01,-1.000000000000000000e+00,-5.399999999999969269e-01,-1.000000000000000000e+00,9.500000000000052847e-01,-5.199999999999933564e-01,4.600000000000039613e-01,1.200000000000072120e-01,-1.000000000000000000e+00,-3.299999999999985167e-01,8.800000000000016698e-01,2.000000000000028422e-01,4.100000000000030287e-01,5.300000000000040234e-01,-1.000000000000000000e+00,-7.399999999999979927e-01,-1.000000000000000000e+00,9.000000000000052403e-01,-1.000000000000000000e+00,-6.599999999999899281e-01,4.500000000000048406e-01,-8.699999999999954436e-01,1.600000000000028066e-01,-4.799999999999977618e-01,-3.399999999999985256e-01,-8.699999999999972200e-01,2.800000000000046896e-01,9.500000000000017319e-01,1.800000000000037126e-01,-1.000000000000000000e+00,1.800000000000028244e-01,-9.299999999999990496e-01,-4.599999999999968558e-01,4.900000000000039879e-01,-4.199999999999985967e-01
-1.000000000000000000e+00,-1.000000000000000000e+00,-1.000000000000000000e+00,-9.799999999999990941e-01,-1.000000000000000000e+00,-7.699999999999989075e-01,-1.000000000000000000e+00,-6.799999999999970512e-01,5.000000000000537348e-02,-1.000000000000000000e+00,8.800000000000034461e-01,4.000000000000270006e-02,9.769962616701377556e-15,2.200000000000046363e-01,9.900000000000062084e-01,-5.199999999999960210e-01,7.600000000000051159e-01,-1.000000000000000000e+00,-1.000000000000000000e+00,-1.000000000000000000e+00,-1.000000000000000000e+00,5.700000000000076117e-01,5.300000000000057998e-01,2.200000000000055245e-01,-8.199999999999971756e-01,-7.699999999999989075e-01,5.800000000000058442e-01,-8.199999999999971756e-01,-4.599999999999959677e-01,-1.000000000000000000e+00,4.200000000000092548e-01,-1.000000000000000000e+00,7.400000000000050981e-01,-7.799999999999971401e-01,-4.999999999999560352e-02,2.200000000000046363e-01,5.300000000000049116e-01,8.000000000000628830e-02,3.700000000000038813e-01,5.900000000000040767e-01,-1.000000000000000000e+00,-1.899999999999975042e-01,-3.899999999999985700e-01,-1.000000000000000000e+00,-4.499999999999950706e-01,-4.599999999999933031e-01,6.600000000000014744e-01,9.000000000000629718e-02,-4.999999999999649170e-02,8.500000000000043077e-01,-1.000000000000000000e+00,-5.399999999999969269e-01,-1.000000000000000000e+00,9.500000000000052847e-01,-5.199999999999933564e-01,3.400000000000047429e-01,1.200000000000072120e-01,-1.000000000000000000e+00,-7.399999999999988809e-01,8.800000000000016698e-01,2.000000000000028422e-01,4.100000000000030287e-01,3.100000000000020517e-01,-3.299999999999985167e-01,-9.399999999999990585e-01,-1.000000000000000000e+00,9.000000000000052403e-01,-1.000000000000000000e+00,5.000000000000084377e-01,4.500000000000048406e-01,-1.000000000000000000e+00,1.600000000000028066e-01,-2.399999999999984368e-01,-1.000000000000000000e+00,4.000000000000039080e-01,-6.699999999999952660e-01,9.500000000000017319e-01,1.800000000000037126e-01,-1.000000000000000000e+00,-1.000000000000000000e+00,-9.299999999999990496e-01,-4.599999999999968558e-01,-5.699999999999987299e-01,-1.000000000000000000e+00
-1.000000000000000000e+00,-1.999999999999984013e-01,-1.000000000000000000e+00,-9.799999999999990941e-01,-2.799999999999984723e-01,-1.000000000000000000e+00,-1.000000000000000000e+00,2.000000000000046185e-01,3.400000000000047429e-01,-1.000000000000000000e+00,-1.000000000000000000e+00,-3.399999999999976374e-01,-1.599999999999948130e-01,2.200000000000046363e-01,-1.000000000000000000e+00,-5.199999999999960210e-01,7.600000000000051159e-01,-1.000000000000000000e+00,-1.000000000000000000e+00,-1.000000000000000000e+00,-1.000000000000000000e+00,5.700000000000076117e-01,-2.399999999999939959e-01,5.700000000000049472e-01,-8.199999999999971756e-01,-5.999999999999827693e-02,-1.000000000000000000e+00,-5.999999999999738876e-02,8.800000000000052225e-01,-1.000000000000000000e+00,-2.099999999999921929e-01,4.300000000000012701e-01,6.700000000000041478e-01,-3.499999999999976463e-01,3.600000000000038725e-01,2.700000000000055689e-01,-9.999999999997344347e-03,-1.000000000000000000e+00,4.300000000000039346e-01,5.900000000000040767e-01,-3.299999999999940758e-01,-1.899999999999975042e-01,-6.899999999999979483e-01,-3.999999999999941380e-01,7.100000000000068479e-01,-2.399999999999922196e-01,6.600000000000014744e-01,9.000000000000629718e-02,-4.999999999999649170e-02,9.500000000000035083e-01,-1.000000000000000000e+00,-5.399999999999969269e-01,-1.000000000000000000e+00,9.500000000000052847e-01,-6.799999999999988276e-01,3.400000000000047429e-01,2.700000000000082334e-01,-1.000000000000000000e+00,-3.299999999999985167e-01,8.800000000000016698e-01,-5.199999999999977973e-01,4.100000000000030287e-01,3.100000000000020517e-01,-3.299999999999985167e-01,-9.399999999999990585e-01,-1.000000000000000000e+00,9.000000000000052403e-01,-1.000000000000000000e+00,-1.299999999999912337e-01,4.500000000000048406e-01,-8.699999999999954436e-01,-2.999999999999825029e-02,-2.399999999999984368e-01,-3.399999999999985256e-01,-2.599999999999975664e-01,-4.899999999999951061e-01,9.500000000000017319e-01,7.200000000000050804e-01,-1.000000000000000000e+00,-2.599999999999966782e-01,-9.299999999999990496e-01,-4.599999999999968558e-01,-5.699999999999987299e-01,-4.599999999999986322e-01
-1.000000000000000000e+00,-1.000000000000000000e+00,-1.000000000000000000e+00,-3.899999999999976819e-01,-1.000000000000000000e+00,-7.699999999999989075e-01,-1.000000000000000000e+00,-1.299999999999956746e-01,-1.000000000000000000e+00,-1.000000000000000000e+00,8.800000000000034461e-01,-9.099999999999990319e-01,-1.000000000000000000e+00,2.200000000000046363e-01,-1.000000000000000000e+00,-3.299999999999958522e-01,1.000000000000054179e-01,-1.000000000000000000e+00,-1.000000000000000000e+00,-1.000000000000000000e+00,-1.000000000000000000e+00,5.500000000000084821e-01,5.300000000000057998e-01,5.700000000000049472e-01,1.300000000000027800e-01,-1.000000000000000000e+00,4.900000000000057643e-01,-5.999999999999738876e-02,-4.599999999999959677e-01,-1.000000000000000000e+00,-2.099999999999921929e-01,-7.099999999999979661e-01,3.000000000000446754e-02,-3.499999999999976463e-01,-4.999999999999560352e-02,2.200000000000046363e-01,6.200000000000041034e-01,-1.000000000000000000e+00,4.300000000000039346e-01,5.900000000000040767e-01,-3.299999999999940758e-01,4.500000000000021760e-01,-2.699999999999975753e-01,-1.000000000000000000e+00,-4.699999999999959766e-01,-4.599999999999933031e-01,6.600000000000014744e-01,1.800000000000054889e-01,-4.999999999999649170e-02,9.300000000000043787e-01,-4.899999999999986589e-01,-5.399999999999969269e-01,-1.399999999999921307e-01,1.800000000000054889e-01,-5.199999999999933564e-01,3.400000000000047429e-01,1.200000000000072120e-01,-8.299999999999989608e-01,-1.000000000000000000e+00,8.800000000000016698e-01,2.000000000000028422e-01,4.100000000000030287e-01,3.100000000000020517e-01,-1.000000000000000000e+00,-1.000000000000000000e+00,-1.000000000000000000e+00,9.000000000000052403e-01,-1.000000000000000000e+00,5.000000000000084377e-01,3.400000000000056311e-01,-1.000000000000000000e+00,-2.999999999999825029e-02,-5.999999999999738876e-02,-1.099999999999983213e-01,-2.599999999999975664e-01,2.900000000000055866e-01,-1.000000000000000000e+00,1.800000000000037126e-01,-1.000000000000000000e+00,-1.000000000000000000e+00,-9.299999999999990496e-01,-4.599999999999968558e-01,-1.000000000000000000e+00,-1.000000000000000000e+00
-1.000000000000000000e+00,-1.000000000000000000e+00,-1.000000000000000000e+00,-3.899999999999976819e-01,-1.000000000000000000e+00,-7.699999999999989075e-01,-1.000000000000000000e+00,-6.799999999999970512e-01,-5.199999999999951328e-01,-1.999999999999984013e-01,8.800000000000034461e-01,-1.000000000000000000e+00,9.769962616701377556e-15,2.200000000000046363e-01,9.900000000000062084e-01,-3.299999999999958522e-01,7.600000000000051159e-01,-1.000000000000000000e+00,-1.000000000000000000e+00,-1.000000000000000000e+00,-1.000000000000000000e+00,5.700000000000076117e-01,-3.999999999999941380e-01,5.700000000000049472e-01,-8.199999999999971756e-01,-7.699999999999989075e-01,7.300000000000059774e-01,-5.999999999999738876e-02,8.000000000000362377e-02,-1.000000000000000000e+00,-2.099999999999921929e-01,-8.499999999999980904e-01,7.400000000000050981e-01,1.000000000000267342e-02,7.400000000000059863e-01,-4.299999999999950528e-01,-9.999999999997344347e-03,8.000000000000628830e-02,4.300000000000039346e-01,5.900000000000040767e-01,-1.000000000000000000e+00,4.500000000000021760e-01,-3.899999999999985700e-01,-2.399999999999922196e-01,-1.000000000000000000e+00,-4.599999999999933031e-01,-2.399999999999975486e-01,5.700000000000076117e-01,2.700000000000046807e-01,9.300000000000043787e-01,-1.000000000000000000e+00,-5.399999999999969269e-01,-3.099999999999940581e-01,9.500000000000052847e-01,-5.599999999999925038e-01,4.600000000000039613e-01,1.200000000000072120e-01,-1.000000000000000000e+00,-1.000000000000000000e+00,8.800000000000016698e-01,2.000000000000028422e-01,4.100000000000030287e-01,3.100000000000020517e-01,-7.699999999999989075e-01,-9.399999999999990585e-01,-1.000000000000000000e+00,9.000000000000052403e-01,-1.000000000000000000e+00,5.000000000000084377e-01,4.500000000000048406e-01,-8.699999999999954436e-01,-9.999999999996456168e-03,-3.099999999999967226e-01,-9.299999999999990496e-01,4.000000000000039080e-01,2.800000000000046896e-01,9.500000000000017319e-01,1.800000000000037126e-01,-1.000000000000000000e+00,-1.000000000000000000e+00,-9.299999999999990496e-01,-4.599999999999968558e-01,-5.699999999999987299e-01,-1.000000000000000000e+00
-1.000000000000000000e+00,-1.000000000000000000e+00,-1.000000000000000000e+00,-3.899999999999976819e-01,-1.000000000000000000e+00,-3.199999999999985079e-01,-1.000000000000000000e+00,-1.599999999999948130e-01,-1.000000000000000000e+00,-1.000000000000000000e+00,-1.000000000000000000e+00,-1.000000000000000000e+00,-1.599999999999948130e-01,2.200000000000046363e-01,9.900000000000062084e-01,-5.199999999999960210e-01,7.600000000000051159e-01,-1.000000000000000000e+00,-1.000000000000000000e+00,-1.000000000000000000e+00,-1.000000000000000000e+00,5.700000000000076117e-01,-3.999999999999941380e-01,-1.000000000000000000e+00,-1.899999999999966160e-01,-1.000000000000000000e+00,-1.000000000000000000e+00,-5.999999999999738876e-02,-4.599999999999959677e-01,-1.000000000000000000e+00,-2.099999999999921929e-01,-8.499999999999980904e-01,6.700000000000041478e-01,-9.099999999999990319e-01,-4.999999999999560352e-02,2.200000000000046363e-01,6.200000000000041034e-01,-1.000000000000000000e+00,4.300000000000039346e-01,5.900000000000040767e-01,-3.299999999999940758e-01,-1.899999999999975042e-01,-6.399999999999979039e-01,-1.000000000000000000e+00,-3.799999999999950084e-01,-4.599999999999933031e-01,-2.399999999999975486e-01,5.700000000000076117e-01,-4.999999999999649170e-02,1.000000000000356160e-02,-1.000000000000000000e+00,-5.399999999999969269e-01,-1.000000000000000000e+00,2.700000000000055689e-01,-5.199999999999933564e-01,4.600000000000039613e-01,1.200000000000072120e-01,-1.000000000000000000e+00,-3.299999999999985167e-01,2.900000000000020339e-01,7.300000000000042011e-01,4.100000000000030287e-01,5.300000000000040234e-01,-1.000000000000000000e+00,-1.000000000000000000e+00,-1.000000000000000000e+00,9.000000000000052403e-01,-1.000000000000000000e+00,5.000000000000084377e-01,4.500000000000048406e-01,-8.699999999999954436e-01,1.600000000000028066e-01,-2.399999999999984368e-01,-2.099999999999975220e-01,-8.999999999999652722e-02,2.800000000000046896e-01,4.400000000000021672e-01,1.800000000000037126e-01,-1.000000000000000000e+00,-1.000000000000000000e+00,-9.299999999999990496e-01,-4.599999999999968558e-01,4.900000000000039879e-01,-1.000000000000000000e+00
-1.000000000000000000e+00,-1.000000000000000000e+00,-1.000000000000000000e+00,-9.799999999999990941e-01,-1.000000000000000000e+00,-7.699999999999989075e-01,-1.000000000000000000e+00,-6.799999999999970512e-01,5.000000000000537348e-02,-1.199999999999983302e-01,9.500000000000043965e-01,4.000000000000270006e-02,-1.599999999999948130e-01,2.200000000000046363e-01,9.900000000000062084e-01,-5.199999999999960210e-01,7.600000000000051159e-01,-6.799999999999988276e-01,-1.000000000000000000e+00,-1.000000000000000000e+00,-1.000000000000000000e+00,5.700000000000076117e-01,5.300000000000057998e-01,-1.000000000000000000e+00,-8.199999999999971756e-01,-1.000000000000000000e+00,-1.000000000000000000e+00,-4.499999999999968470e-01,8.000000000000362377e-02,-1.000000000000000000e+00,-2.099999999999921929e-01,-2.699999999999984635e-01,7.400000000000050981e-01,-7.799999999999971401e-01,-4.999999999999560352e-02,2.200000000000046363e-01,5.300000000000049116e-01,8.000000000000628830e-02,3.700000000000038813e-01,5.900000000000040767e-01,-3.299999999999940758e-01,1.500000000000036859e-01,-3.899999999999985700e-01,-7.599999999999935696e-01,-1.000000000000000000e+00,-4.599999999999933031e-01,6.600000000000014744e-01,1.800000000000054889e-01,3.000000000000446754e-02,8.500000000000043077e-01,-1.000000000000000000e+00,-5.399999999999969269e-01,-3.099999999999940581e-01,9.500000000000052847e-01,-3.999999999999923617e-01,3.400000000000047429e-01,1.200000000000072120e-01,-1.000000000000000000e+00,-1.000000000000000000e+00,8.800000000000016698e-01,2.000000000000028422e-01,-4.999999999999968914e-01,3.100000000000020517e-01,-3.299999999999985167e-01,-9.399999999999990585e-01,-1.000000000000000000e+00,9.000000000000052403e-01,-1.000000000000000000e+00,5.000000000000084377e-01,4.500000000000048406e-01,-8.699999999999954436e-01,1.600000000000028066e-01,-2.399999999999984368e-01,-3.399999999999985256e-01,-8.699999999999972200e-01,2.800000000000046896e-01,9.500000000000017319e-01,1.800000000000037126e-01,-4.199999999999985967e-01,-1.000000000000000000e+00,-1.000000000000000000e+00,-3.999999999999559464e-02,-5.699999999999987299e-01,-8.999999999999990230e-01
-1.000000000000000000e+00,-8.699999999999989964e-01,-1.000000000000000000e+00,-9.799999999999990941e-01,-1.000000000000000000e+00,-7.699999999999989075e-01,-1.000000000000000000e+00,-6.799999999999970512e-01,-5.199999999999951328e-01,-1.000000000000000000e+00,8.800000000000034461e-01,-9.099999999999990319e-01,-1.599999999999948130e-01,2.200000000000046363e-01,9.900000000000062084e-01,-3.899999999999950173e-01,1.000000000000054179e-01,-6.799999999999988276e-01,-4.899999999999986589e-01,-1.000000000000000000e+00,-1.000000000000000000e+00,-2.199999999999922018e-01,5.300000000000057998e-01,3.600000000000056488e-01,1.300000000000027800e-01,-1.000000000000000000e+00,4.500000000000048406e-01,-4.499999999999968470e-01,8.000000000000362377e-02,-5.899999999999987477e-01,-2.099999999999921929e-01,-2.699999999999984635e-01,7.400000000000050981e-01,-3.499999999999976463e-01,-4.999999999999560352e-02,2.200000000000046363e-01,-9.999999999997344347e-03,6.000000000000449418e-02,5.200000000000049027e-01,5.900000000000040767e-01,-3.299999999999940758e-01,4.500000000000021760e-01,-3.899999999999985700e-01,-1.000000000000000000e+00,-4.699999999999959766e-01,-4.599999999999933031e-01,6.600000000000014744e-01,9.000000000000629718e-02,-4.999999999999649170e-02,8.400000000000042988e-01,-4.899999999999986589e-01,-5.399999999999969269e-01,-3.099999999999940581e-01,1.800000000000054889e-01,-1.000000000000000000e+00,3.400000000000047429e-01,2.700000000000082334e-01,-2.599999999999984546e-01,-1.000000000000000000e+00,8.800000000000016698e-01,2.000000000000028422e-01,4.100000000000030287e-01,3.100000000000020517e-01,-1.000000000000000000e+00,-9.399999999999990585e-01,-1.000000000000000000e+00,9.000000000000052403e-01,-1.000000000000000000e+00,5.000000000000084377e-01,3.400000000000056311e-01,-1.000000000000000000e+00,-9.999999999996456168e-03,-2.399999999999984368e-01,-1.000000000000000000e+00,-2.599999999999975664e-01,2.800000000000046896e-01,9.200000000000025935e-01,2.300000000000046452e-01,-4.199999999999985967e-01,-1.000000000000000000e+00,-1.000000000000000000e+00,-4.599999999999968558e-01,4.900000000000039879e-01,-1.000000000000000000e+00
-1.000000000000000000e+00,-1.000000000000000000e+00,-1.000000000000000000e+00,-9.799999999999990941e-01,-1.000000000000000000e+00,4.600000000000030731e-01,-1.000000000000000000e+00,-1.299999999999956746e-01,-5.199999999999942446e-01,-1.000000000000000000e+00,-1.000000000000000000e+00,-9.099999999999990319e-01,-1.599999999999948130e-01,2.200000000000046363e-01,9.900000000000062084e-01,-3.899999999999950173e-01,1.000000000000054179e-01,-6.799999999999988276e-01,-1.000000000000000000e+00,-1.000000000000000000e+00,-1.000000000000000000e+00,5.700000000000076117e-01,5.300000000000057998e-01,3.600000000000056488e-01,1.300000000000027800e-01,-1.000000000000000000e+00,-1.000000000000000000e+00,-5.999999999999738876e-02,-4.599999999999959677e-01,-5.899999999999987477e-01,2.000000000000889955e-02,-2.699999999999984635e-01,7.800000000000051337e-01,-3.499999999999976463e-01,-4.999999999999560352e-02,2.700000000000055689e-01,-9.999999999997344347e-03,6.000000000000449418e-02,5.200000000000049027e-01,5.900000000000040767e-01,-3.299999999999940758e-01,-3.199999999999976197e-01,-6.899999999999979483e-01,-1.000000000000000000e+00,-4.699999999999959766e-01,3.000000000000082601e-01,6.600000000000014744e-01,1.800000000000054889e-01,-4.999999999999649170e-02,8.400000000000042988e-01,-4.899999999999986589e-01,-5.399999999999969269e-01,-3.099999999999940581e-01,6.500000000000059064e-01,-8.399999999999927525e-01,-1.000000000000000000e+00,2.700000000000082334e-01,-2.599999999999984546e-01,-3.299999999999985167e-01,8.800000000000016698e-01,2.000000000000028422e-01,4.100000000000030287e-01,5.300000000000040234e-01,-1.000000000000000000e+00,-1.000000000000000000e+00,-4.399999999999986144e-01,4.000000000000056843e-01,-1.000000000000000000e+00,5.000000000000084377e-01,3.400000000000056311e-01,-8.699999999999954436e-01,-2.999999999999825029e-02,-2.099999999999975220e-01,-1.000000000000000000e+00,4.600000000000039613e-01,2.900000000000055866e-01,9.200000000000025935e-01,1.800000000000037126e-01,-2.099999999999957456e-01,1.800000000000028244e-01,-9.299999999999990496e-01,-4.599999999999968558e-01,4.900000000000039879e-01,-1.000000000000000000e+00
-1.000000000000000000e+00,-1.999999999999984013e-01,-1.000000000000000000e+00,-9.799999999999990941e-01,-1.000000000000000000e+00,-7.699999999999989075e-01,-1.000000000000000000e+00,-6.799999999999970512e-01,7.000000000000068390e-01,-6.699999999999988187e-01,-3.799999999999985612e-01,-9.099999999999990319e-01,1.400000000000081180e-01,2.200000000000046363e-01,9.900000000000062084e-01,-3.299999999999958522e-01,7.600000000000051159e-01,-1.000000000000000000e+00,-1.000000000000000000e+00,-1.000000000000000000e+00,-1.000000000000000000e+00,5.700000000000076117e-01,5.300000000000057998e-01,-1.000000000000000000e+00,-1.899999999999966160e-01,-1.000000000000000000e+00,-1.000000000000000000e+00,-5.999999999999738876e-02,-4.599999999999959677e-01,-1.000000000000000000e+00,-2.099999999999921929e-01,4.300000000000012701e-01,6.700000000000041478e-01,-3.499999999999976463e-01,-4.999999999999560352e-02,2.700000000000055689e-01,-1.000000000000000000e+00,1.300000000000063327e-01,4.300000000000039346e-01,5.900000000000040767e-01,-3.299999999999940758e-01,4.500000000000021760e-01,-3.899999999999985700e-01,-3.999999999999941380e-01,7.100000000000068479e-01,-4.599999999999933031e-01,2.500000000000019984e-01,9.000000000000629718e-02,8.600000000000052047e-01,-1.000000000000000000e+00,-1.000000000000000000e+00,-8.199999999999962874e-01,-1.000000000000000000e+00,-1.000000000000000000e+00,-5.199999999999933564e-01,-1.000000000000000000e+00,1.200000000000072120e-01,-2.599999999999984546e-01,-3.299999999999985167e-01,9.100000000000025846e-01,2.000000000000028422e-01,7.300000000000042011e-01,5.300000000000040234e-01,-3.299999999999985167e-01,-1.000000000000000000e+00,-1.000000000000000000e+00,1.100000000000054268e-01,-3.199999999999985079e-01,-1.299999999999912337e-01,4.500000000000048406e-01,-8.699999999999954436e-01,-2.999999999999825029e-02,-8.999999999999741540e-02,-3.399999999999985256e-01,-8.699999999999972200e-01,2.800000000000046896e-01,6.000000000000023093e-01,1.800000000000037126e-01,-1.000000000000000000e+00,1.800000000000028244e-01,-9.299999999999990496e-01,-4.599999999999968558e-01,-1.000000000000000000e+00,-7.399999999999988809e-01
