5.600000000000040501e-01,-1.000000000000000000e+00,7.600000000000051159e-01,-1.000000000000000000e+00,6.600000000000085798e-01,-1.000000000000000000e+00,1.500000000000027978e-01,-1.899999999999983924e-01,2.800000000000064659e-01,-2.299999999999984279e-01,-8.499999999999980904e-01,-1.000000000000000000e+00,-2.099999999999975220e-01,2.664535259100375697e-15,-8.499999999999989786e-01,2.000000000000357048e-02,-1.000000000000000000e+00,7.800000000000069100e-01,-5.399999999999987033e-01,1.700000000000054801e-01,3.000000000000269118e-02,3.000000000000269118e-02,8.400000000000105160e-01,1.200000000000045475e-01,-1.000000000000000000e+00,5.500000000000084821e-01,-3.199999999999931788e-01,8.300000000000060663e-01,-1.000000000000000000e+00,3.200000000000029488e-01,-8.199999999999989519e-01,-9.499999999999981792e-01,-9.599999999999955236e-01,-1.000000000000000000e+00,-1.000000000000000000e+00,8.000000000000717648e-02,-1.000000000000000000e+00,-1.000000000000000000e+00,-9.999999999999991118e-01,-1.699999999999894928e-01,-3.199999999999949551e-01,-1.000000000000000000e+00,-3.599999999999949907e-01,-1.000000000000000000e+00,-1.000000000000000000e+00,-1.000000000000000000e+00,-1.000000000000000000e+00,-1.699999999999939337e-01,-1.000000000000000000e+00,-6.999999999999295675e-02,-4.099999999999932587e-01,-1.000000000000000000e+00,-6.999999999999961808e-01,-1.000000000000000000e+00,-6.999999999999988454e-01,3.500000000000038636e-01,-5.199999999999951328e-01,-1.000000000000000000e+00,-1.000000000000000000e+00,1.900000000000072742e-01,2.700000000000073452e-01,-8.099999999999989431e-01,-1.000000000000000000e+00,-1.000000000000000000e+00,-8.299999999999989608e-01,-1.000000000000000000e+00,9.800000000000061995e-01,-1.000000000000000000e+00,-1.000000000000000000e+00,-1.000000000000000000e+00,-1.000000000000000000e+00,-1.000000000000000000e+00,-3.299999999999914113e-01,-6.999999999999828582e-02,3.800000000000109956e-01,-1.000000000000000000e+00,-1.099999999999974332e-01,3.900000000000065636e-01
5.600000000000040501e-01,-1.000000000000000000e+00,7.600000000000051159e-01,-1.000000000000000000e+00,6.600000000000085798e-01,-1.000000000000000000e+00,1.500000000000027978e-01,2.000000000000028422e-01,2.900000000000064748e-01,-2.299999999999984279e-01,-1.000000000000000000e+00,-1.000000000000000000e+00,-2.899999999999975930e-01,-1.799999999999974953e-01,-1.000000000000000000e+00,-9.299999999999954969e-01,-1.000000000000000000e+00,-7.199999999999944222e-01,-5.399999999999987033e-01,-2.199999999999939782e-01,3.000000000000269118e-02,3.000000000000269118e-02,8.200000000000096101e-01,1.200000000000045475e-01,-1.000000000000000000e+00,5.500000000000084821e-01,-3.199999999999931788e-01,8.300000000000060663e-01,-9.699999999999990852e-01,3.200000000000029488e-01,-7.899999999999989253e-01,-9.299999999999990496e-01,-4.699999999999942002e-01,3.100000000000029399e-01,-1.000000000000000000e+00,8.700000000000087663e-01,-1.000000000000000000e+00,-9.299999999999981615e-01,-9.999999999999991118e-01,-1.699999999999894928e-01,-5.099999999999942357e-01,-1.000000000000000000e+00,-6.699999999999952660e-01,-1.000000000000000000e+00,-1.000000000000000000e+00,-1.000000000000000000e+00,-6.199999999999987743e-01,-1.000000000000000000e+00,-1.000000000000000000e+00,-1.999999999999930722e-01,-5.999999999999943157e-01,-6.399999999999952394e-01,-1.000000000000000000e+00,-1.000000000000000000e+00,-6.999999999999988454e-01,-1.000000000000000000e+00,-1.000000000000000000e+00,1.900000000000046096e-01,-1.000000000000000000e+00,4.500000000000066169e-01,-1.000000000000000000e+00,-1.000000000000000000e+00,-1.000000000000000000e+00,-1.000000000000000000e+00,-1.000000000000000000e+00,-1.000000000000000000e+00,9.800000000000061995e-01,-9.999999999999991118e-01,-1.000000000000000000e+00,-1.000000000000000000e+00,-5.299999999999969180e-01,-1.000000000000000000e+00,-8.199999999999900702e-01,-6.999999999999828582e-02,2.200000000000135181e-01,-1.000000000000000000e+00,-1.000000000000000000e+00,3.900000000000065636e-01
5.600000000000040501e-01,-1.000000000000000000e+00,7.600000000000051159e-01,-1.000000000000000000e+00,9.800000000000079758e-01,-1.000000000000000000e+00,1.500000000000027978e-01,2.000000000000028422e-01,2.900000000000064748e-01,-2.299999999999984279e-01,-1.000000000000000000e+00,-1.000000000000000000e+00,-5.799999999999969624e-01,-4.799999999999977618e-01,-1.000000000000000000e+00,2.600000000000055600e-01,-1.000000000000000000e+00,-7.199999999999944222e-01,-1.000000000000000000e+00,1.700000000000054801e-01,3.000000000000269118e-02,3.000000000000269118e-02,8.200000000000096101e-01,1.200000000000045475e-01,-1.000000000000000000e+00,5.500000000000084821e-01,-4.899999999999924416e-01,8.300000000000060663e-01,-1.000000000000000000e+00,3.200000000000029488e-01,-5.899999999999978595e-01,-9.499999999999981792e-01,-9.599999999999955236e-01,3.100000000000029399e-01,-8.899999999999990141e-01,8.000000000000717648e-02,-1.000000000000000000e+00,-6.899999999999979483e-01,-1.000000000000000000e+00,-1.699999999999894928e-01,-5.099999999999942357e-01,-1.199999999999983302e-01,-6.899999999999943956e-01,-1.999999999999984013e-01,-1.000000000000000000e+00,-8.599999999999989875e-01,-1.000000000000000000e+00,-8.099999999999945022e-01,-9.999999999999991118e-01,5.700000000000067235e-01,-6.699999999999952660e-01,-4.799999999999942091e-01,-1.000000000000000000e+00,-1.000000000000000000e+00,-6.999999999999988454e-01,-1.000000000000000000e+00,-1.000000000000000000e+00,1.900000000000046096e-01,-7.199999999999988631e-01,4.500000000000066169e-01,2.700000000000073452e-01,-5.499999999999987121e-01,-1.000000000000000000e+00,-3.999999999999825917e-02,-1.000000000000000000e+00,-1.000000000000000000e+00,9.800000000000061995e-01,-1.000000000000000000e+00,-1.000000000000000000e+00,-1.000000000000000000e+00,-5.299999999999969180e-01,-1.000000000000000000e+00,-8.199999999999900702e-01,6.900000000000032774e-01,3.800000000000109956e-01,-1.000000000000000000e+00,-1.000000000000000000e+00,3.900000000000065636e-01
5.600000000000040501e-01,-1.000000000000000000e+00,7.600000000000051159e-01,-1.000000000000000000e+00,6.600000000000085798e-01,-1.000000000000000000e+00,1.500000000000027978e-01,-9.999999999999742428e-02,2.900000000000064748e-01,-2.299999999999984279e-01,-1.000000000000000000e+00,-1.000000000000000000e+00,-2.899999999999975930e-01,-1.299999999999965627e-01,-1.000000000000000000e+00,-9.299999999999954969e-01,-1.000000000000000000e+00,-3.199999999999931788e-01,-5.399999999999987033e-01,1.700000000000054801e-01,3.000000000000269118e-02,3.000000000000269118e-02,7.900000000000104716e-01,1.200000000000045475e-01,-8.699999999999989964e-01,5.500000000000084821e-01,-3.199999999999931788e-01,5.800000000000058442e-01,-9.699999999999990852e-01,3.200000000000029488e-01,-8.199999999999989519e-01,-1.000000000000000000e+00,-4.699999999999942002e-01,3.100000000000029399e-01,-1.000000000000000000e+00,8.000000000000717648e-02,7.000000000000361489e-02,-6.999999999999988454e-01,-9.999999999999991118e-01,4.200000000000119194e-01,-5.099999999999942357e-01,-3.099999999999984990e-01,-3.599999999999949907e-01,-1.000000000000000000e+00,-1.000000000000000000e+00,-8.599999999999989875e-01,-1.000000000000000000e+00,-5.599999999999978328e-01,-1.000000000000000000e+00,5.700000000000067235e-01,-9.999999999992903454e-03,-6.399999999999952394e-01,-1.000000000000000000e+00,-1.000000000000000000e+00,-6.999999999999988454e-01,-1.000000000000000000e+00,-1.000000000000000000e+00,-4.399999999999950617e-01,-8.299999999999989608e-01,4.500000000000066169e-01,-1.000000000000000000e+00,-2.599999999999975664e-01,-1.000000000000000000e+00,-1.000000000000000000e+00,-1.000000000000000000e+00,-1.000000000000000000e+00,9.800000000000061995e-01,-1.000000000000000000e+00,-1.000000000000000000e+00,-1.000000000000000000e+00,-1.000000000000000000e+00,-1.000000000000000000e+00,-8.699999999999892264e-01,-6.999999999999828582e-02,-3.099999999999878408e-01,-1.000000000000000000e+00,-1.000000000000000000e+00,6.700000000000077005e-01
5.600000000000040501e-01,-1.000000000000000000e+00,7.600000000000051159e-01,-1.000000000000000000e+00,9.800000000000079758e-01,-1.000000000000000000e+00,1.500000000000027978e-01,-1.899999999999983924e-01,2.900000000000064748e-01,-2.299999999999984279e-01,-8.499999999999980904e-01,-1.000000000000000000e+00,-2.099999999999975220e-01,-4.799999999999977618e-01,-1.000000000000000000e+00,2.000000000000357048e-02,-1.000000000000000000e+00,-7.199999999999944222e-01,-5.399999999999987033e-01,9.000000000000629718e-02,3.000000000000269118e-02,3.000000000000269118e-02,8.400000000000105160e-01,1.200000000000045475e-01,-1.000000000000000000e+00,5.500000000000084821e-01,-3.199999999999931788e-01,1.900000000000046096e-01,-1.000000000000000000e+00,3.200000000000029488e-01,-8.199999999999989519e-01,-1.000000000000000000e+00,-9.599999999999955236e-01,-1.000000000000000000e+00,-1.000000000000000000e+00,8.000000000000717648e-02,-1.000000000000000000e+00,-9.299999999999981615e-01,-1.000000000000000000e+00,-1.699999999999894928e-01,-5.099999999999942357e-01,-8.599999999999989875e-01,-1.000000000000000000e+00,-1.999999999999984013e-01,-1.000000000000000000e+00,-1.000000000000000000e+00,-1.000000000000000000e+00,-1.000000000000000000e+00,-1.000000000000000000e+00,7.100000000000086242e-01,-3.399999999999940847e-01,-4.799999999999942091e-01,-6.999999999999961808e-01,-1.000000000000000000e+00,-6.999999999999988454e-01,3.500000000000038636e-01,-7.099999999999988542e-01,1.900000000000046096e-01,-1.000000000000000000e+00,4.500000000000066169e-01,2.700000000000073452e-01,-8.099999999999989431e-01,-1.000000000000000000e+00,-1.000000000000000000e+00,-8.299999999999989608e-01,-1.000000000000000000e+00,9.800000000000061995e-01,-1.000000000000000000e+00,-2.099999999999984102e-01,-1.000000000000000000e+00,-5.299999999999969180e-01,-1.000000000000000000e+00,-8.199999999999900702e-01,-6.999999999999828582e-02,2.200000000000117417e-01,-1.000000000000000000e+00,-1.099999999999974332e-01,3.900000000000065636e-01
5.600000000000040501e-01,-1.000000000000000000e+00,3.000000000000055955e-01,-1.000000000000000000e+00,6.600000000000085798e-01,-1.000000000000000000e+00,1.500000000000027978e-01,2.000000000000028422e-01,2.900000000000064748e-01,-2.299999999999984279e-01,-1.000000000000000000e+00,-1.000000000000000000e+00,-2.899999999999975930e-01,-7.199999999999988631e-01,-1.000000000000000000e+00,-9.299999999999954969e-01,-1.000000000000000000e+00,-2.099999999999939693e-01,-5.399999999999987033e-01,1.700000000000054801e-01,3.000000000000269118e-02,3.000000000000269118e-02,7.300000000000104183e-01,1.200000000000045475e-01,-8.699999999999989964e-01,5.500000000000084821e-01,-3.199999999999931788e-01,5.800000000000058442e-01,-9.699999999999990852e-01,3.200000000000029488e-01,-7.899999999999989253e-01,-1.000000000000000000e+00,-4.699999999999942002e-01,3.100000000000029399e-01,-1.000000000000000000e+00,8.000000000000717648e-02,-1.000000000000000000e+00,-6.999999999999988454e-01,-9.999999999999991118e-01,4.200000000000119194e-01,-5.099999999999942357e-01,-1.000000000000000000e+00,-3.599999999999949907e-01,-1.000000000000000000e+00,-1.000000000000000000e+00,-1.000000000000000000e+00,-1.000000000000000000e+00,-5.599999999999978328e-01,-1.000000000000000000e+00,-1.999999999999930722e-01,-5.999999999999943157e-01,-6.399999999999952394e-01,-8.199999999999971756e-01,-5.499999999999987121e-01,-6.999999999999988454e-01,-1.000000000000000000e+00,-1.000000000000000000e+00,1.900000000000046096e-01,-1.000000000000000000e+00,4.500000000000066169e-01,-1.000000000000000000e+00,-5.499999999999987121e-01,-1.000000000000000000e+00,-1.000000000000000000e+00,-1.000000000000000000e+00,-1.000000000000000000e+00,9.800000000000061995e-01,-9.999999999999991118e-01,-1.000000000000000000e+00,-1.000000000000000000e+00,-5.299999999999969180e-01,-1.000000000000000000e+00,-1.000000000000000000e+00,-6.999999999999828582e-02,-3.099999999999878408e-01,-1.000000000000000000e+00,-1.000000000000000000e+00,3.900000000000065636e-01
5.600000000000040501e-01,-1.000000000000000000e+00,7.600000000000051159e-01,-1.000000000000000000e+00,9.800000000000079758e-01,-1.000000000000000000e+00,1.500000000000027978e-01,-1.899999999999983924e-01,2.900000000000064748e-01,-2.299999999999984279e-01,-5.799999999999969624e-01,-4.599999999999986322e-01,-2.099999999999975220e-01,2.664535259100375697e-15,-1.000000000000000000e+00,2.600000000000055600e-01,-7.599999999999988987e-01,7.800000000000069100e-01,-5.399999999999987033e-01,4.000000000000625278e-02,3.000000000000269118e-02,3.000000000000269118e-02,8.400000000000105160e-01,1.200000000000045475e-01,-1.000000000000000000e+00,5.500000000000084821e-01,-1.000000000000000000e+00,1.900000000000046096e-01,-1.000000000000000000e+00,3.200000000000029488e-01,-9.499999999999981792e-01,-1.000000000000000000e+00,-9.599999999999955236e-01,-1.000000000000000000e+00,-1.000000000000000000e+00,3.900000000000083400e-01,-1.000000000000000000e+00,1.000000000000267342e-02,-1.000000000000000000e+00,-8.899999999999892442e-01,-4.699999999999942002e-01,-8.599999999999989875e-01,-6.899999999999943956e-01,-1.000000000000000000e+00,-1.000000000000000000e+00,-8.599999999999989875e-01,-1.000000000000000000e+00,-5.999999999999934275e-01,-1.000000000000000000e+00,-6.999999999999295675e-02,-6.699999999999952660e-01,-6.399999999999952394e-01,-6.999999999999961808e-01,-1.000000000000000000e+00,-6.999999999999988454e-01,3.500000000000038636e-01,-1.000000000000000000e+00,1.900000000000046096e-01,-1.000000000000000000e+00,-4.299999999999932765e-01,-1.000000000000000000e+00,-5.499999999999987121e-01,-1.000000000000000000e+00,-7.599999999999980105e-01,-8.299999999999989608e-01,-1.000000000000000000e+00,9.800000000000061995e-01,-1.000000000000000000e+00,-1.000000000000000000e+00,-1.000000000000000000e+00,-1.000000000000000000e+00,-1.000000000000000000e+00,-3.299999999999914113e-01,-6.999999999999828582e-02,3.800000000000109956e-01,-1.000000000000000000e+00,-1.099999999999974332e-01,3.900000000000065636e-01
5.600000000000040501e-01,-1.000000000000000000e+00,7.600000000000051159e-01,-1.000000000000000000e+00,6.600000000000085798e-01,-1.000000000000000000e+00,1.500000000000027978e-01,-9.999999999999742428e-02,2.800000000000064659e-01,-2.299999999999984279e-01,-8.499999999999980904e-01,-1.000000000000000000e+00,-2.099999999999975220e-01,-7.199999999999988631e-01,-8.499999999999989786e-01,2.000000000000357048e-02,-1.000000000000000000e+00,7.800000000000069100e-01,-5.699999999999978417e-01,1.700000000000054801e-01,3.000000000000269118e-02,3.000000000000269118e-02,8.400000000000105160e-01,1.200000000000045475e-01,-1.000000000000000000e+00,5.500000000000084821e-01,-3.199999999999931788e-01,5.800000000000058442e-01,-9.699999999999990852e-01,3.200000000000029488e-01,-8.199999999999989519e-01,-9.499999999999981792e-01,-1.000000000000000000e+00,3.100000000000029399e-01,-1.000000000000000000e+00,8.000000000000717648e-02,-1.000000000000000000e+00,-6.999999999999988454e-01,-1.000000000000000000e+00,-1.699999999999894928e-01,-3.199999999999949551e-01,-1.000000000000000000e+00,-3.099999999999940581e-01,-2.699999999999984635e-01,-1.000000000000000000e+00,-1.000000000000000000e+00,-1.000000000000000000e+00,-1.699999999999939337e-01,-1.000000000000000000e+00,5.700000000000067235e-01,-6.699999999999952660e-01,-6.399999999999952394e-01,-6.999999999999961808e-01,-1.000000000000000000e+00,-6.999999999999988454e-01,-1.000000000000000000e+00,-5.199999999999951328e-01,-1.000000000000000000e+00,-1.000000000000000000e+00,1.900000000000072742e-01,-1.000000000000000000e+00,-8.099999999999989431e-01,-1.000000000000000000e+00,-1.000000000000000000e+00,-8.299999999999989608e-01,-1.000000000000000000e+00,9.800000000000061995e-01,-1.000000000000000000e+00,-1.000000000000000000e+00,-1.000000000000000000e+00,-4.799999999999986500e-01,-1.000000000000000000e+00,-1.000000000000000000e+00,-6.999999999999828582e-02,3.800000000000109956e-01,-1.000000000000000000e+00,-1.099999999999974332e-01,3.900000000000065636e-01
5.600000000000040501e-01,-1.000000000000000000e+00,7.600000000000051159e-01,-1.000000000000000000e+00,9.800000000000079758e-01,-1.000000000000000000e+00,1.500000000000027978e-01,2.000000000000028422e-01,2.900000000000064748e-01,-2.299999999999984279e-01,-1.000000000000000000e+00,-1.899999999999975042e-01,-2.899999999999975930e-01,-7.199999999999988631e-01,-5.999999999999827693e-02,2.600000000000055600e-01,-1.000000000000000000e+00,-7.199999999999944222e-01,-5.399999999999987033e-01,1.700000000000054801e-01,3.000000000000269118e-02,3.000000000000269118e-02,8.200000000000096101e-01,1.200000000000045475e-01,-1.000000000000000000e+00,5.500000000000084821e-01,-3.199999999999931788e-01,8.300000000000060663e-01,-9.699999999999990852e-01,3.200000000000029488e-01,-8.199999999999989519e-01,-1.000000000000000000e+00,-1.000000000000000000e+00,3.100000000000029399e-01,-8.899999999999990141e-01,8.700000000000087663e-01,-8.999999999999981348e-01,-6.999999999999988454e-01,-1.000000000000000000e+00,4.200000000000119194e-01,-5.099999999999942357e-01,-1.000000000000000000e+00,-6.699999999999952660e-01,-1.000000000000000000e+00,-3.999999999999825917e-02,-8.599999999999989875e-01,-1.000000000000000000e+00,-1.399999999999983480e-01,-1.000000000000000000e+00,5.700000000000067235e-01,-5.999999999999943157e-01,-4.799999999999942091e-01,-1.000000000000000000e+00,-1.000000000000000000e+00,-6.999999999999988454e-01,-1.000000000000000000e+00,-1.000000000000000000e+00,-1.000000000000000000e+00,-1.000000000000000000e+00,4.500000000000066169e-01,-1.000000000000000000e+00,-2.999999999999976019e-01,-1.000000000000000000e+00,-1.000000000000000000e+00,-1.000000000000000000e+00,-1.000000000000000000e+00,9.800000000000061995e-01,-9.999999999999991118e-01,-1.000000000000000000e+00,-1.000000000000000000e+00,9.000000000000274447e-02,-1.000000000000000000e+00,-1.000000000000000000e+00,-6.999999999999828582e-02,3.800000000000109956e-01,-1.000000000000000000e+00,-1.000000000000000000e+00,4.700000000000075229e-01
5.600000000000040501e-01,-1.000000000000000000e+00,7.600000000000051159e-01,-9.099999999999990319e-01,6.600000000000085798e-01,-1.000000000000000000e+00,1.500000000000027978e-01,-1.899999999999983924e-01,2.800000000000064659e-01,-2.299999999999984279e-01,-8.499999999999980904e-01,-1.000000000000000000e+00,-2.099999999999975220e-01,2.664535259100375697e-15,-1.000000000000000000e+00,2.000000000000357048e-02,-1.000000000000000000e+00,7.800000000000069100e-01,-5.399999999999987033e-01,1.700000000000054801e-01,3.000000000000269118e-02,3.000000000000269118e-02,8.400000000000105160e-01,1.200000000000045475e-01,-1.000000000000000000e+00,5.500000000000084821e-01,-3.199999999999931788e-01,1.900000000000046096e-01,-1.000000000000000000e+00,3.200000000000029488e-01,-8.199999999999989519e-01,-3.199999999999967315e-01,-9.599999999999955236e-01,-1.000000000000000000e+00,-1.000000000000000000e+00,8.000000000000717648e-02,-1.000000000000000000e+00,-1.000000000000000000e+00,-9.999999999999991118e-01,-1.699999999999894928e-01,-3.199999999999949551e-01,-8.599999999999989875e-01,-3.599999999999949907e-01,-1.000000000000000000e+00,-1.000000000000000000e+00,-1.000000000000000000e+00,-1.000000000000000000e+00,-1.699999999999939337e-01,-1.000000000000000000e+00,-6.999999999999295675e-02,-4.099999999999932587e-01,-1.000000000000000000e+00,-6.999999999999961808e-01,-1.000000000000000000e+00,-6.999999999999988454e-01,3.500000000000038636e-01,-5.199999999999951328e-01,-1.000000000000000000e+00,-2.799999999999984723e-01,-4.299999999999932765e-01,-1.000000000000000000e+00,-8.099999999999989431e-01,-1.000000000000000000e+00,-1.000000000000000000e+00,-8.299999999999989608e-01,-1.000000000000000000e+00,9.400000000000070521e-01,-1.000000000000000000e+00,-2.099999999999984102e-01,-1.000000000000000000e+00,-1.000000000000000000e+00,-1.000000000000000000e+00,-3.299999999999914113e-01,6.000000000000271783e-02,3.800000000000109956e-01,-1.000000000000000000e+00,-1.099999999999974332e-01,3.900000000000065636e-01
5.600000000000040501e-01,-1.000000000000000000e+00,7.100000000000068479e-01,-1.000000000000000000e+00,-1.000000000000000000e+00,-1.000000000000000000e+00,1.500000000000027978e-01,-1.899999999999983924e-01,2.800000000000064659e-01,-2.299999999999984279e-01,-8.499999999999980904e-01,-1.000000000000000000e+00,-2.899999999999975930e-01,2.664535259100375697e-15,-8.499999999999989786e-01,-9.299999999999954969e-01,-1.000000000000000000e+00,7.800000000000069100e-01,-5.399999999999987033e-01,1.700000000000054801e-01,3.000000000000269118e-02,3.000000000000269118e-02,8.400000000000105160e-01,1.200000000000045475e-01,-1.000000000000000000e+00,5.500000000000084821e-01,-3.199999999999931788e-01,8.300000000000060663e-01,-9.699999999999990852e-01,3.200000000000029488e-01,-8.599999999999980993e-01,-9.499999999999981792e-01,-9.599999999999955236e-01,3.100000000000029399e-01,-1.000000000000000000e+00,8.000000000000717648e-02,-1.000000000000000000e+00,-6.999999999999988454e-01,-9.999999999999991118e-01,4.200000000000119194e-01,-5.099999999999942357e-01,-1.000000000000000000e+00,-3.599999999999949907e-01,-1.000000000000000000e+00,-1.000000000000000000e+00,-1.000000000000000000e+00,-5.299999999999986944e-01,-1.699999999999939337e-01,-1.000000000000000000e+00,-1.999999999999930722e-01,-5.999999999999943157e-01,-1.000000000000000000e+00,-8.199999999999971756e-01,-5.499999999999987121e-01,-6.999999999999988454e-01,3.500000000000038636e-01,-5.199999999999951328e-01,1.900000000000046096e-01,-1.000000000000000000e+00,1.900000000000072742e-01,2.700000000000073452e-01,-5.499999999999987121e-01,-1.000000000000000000e+00,-1.000000000000000000e+00,-1.000000000000000000e+00,-1.000000000000000000e+00,9.800000000000061995e-01,-1.000000000000000000e+00,-1.000000000000000000e+00,-1.000000000000000000e+00,-1.000000000000000000e+00,-1.000000000000000000e+00,-1.000000000000000000e+00,-6.999999999999828582e-02,-3.099999999999878408e-01,-1.000000000000000000e+00,-1.000000000000000000e+00,3.900000000000065636e-01
5.600000000000040501e-01,-1.000000000000000000e+00,5.700000000000058353e-01,-1.000000000000000000e+00,6.600000000000085798e-01,-1.000000000000000000e+00,1.500000000000027978e-01,-9.999999999999742428e-02,2.800000000000064659e-01,-2.299999999999984279e-01,-8.499999999999980904e-01,-1.000000000000000000e+00,-1.499999999999965805e-01,-4.799999999999977618e-01,4.000000000000270006e-02,2.000000000000357048e-02,-1.000000000000000000e+00,7.800000000000069100e-01,-5.399999999999987033e-01,1.700000000000054801e-01,3.000000000000269118e-02,-4.799999999999968736e-01,8.400000000000105160e-01,-5.899999999999951950e-01,-6.299999999999987832e-01,5.500000000000084821e-01,-3.199999999999931788e-01,5.800000000000058442e-01,-1.000000000000000000e+00,3.200000000000029488e-01,-8.199999999999989519e-01,-1.000000000000000000e+00,-1.000000000000000000e+00,3.100000000000029399e-01,-1.000000000000000000e+00,8.000000000000717648e-02,-1.000000000000000000e+00,-9.299999999999981615e-01,-1.000000000000000000e+00,-1.699999999999894928e-01,-3.199999999999949551e-01,-8.599999999999989875e-01,-1.000000000000000000e+00,-1.999999999999984013e-01,-1.000000000000000000e+00,-1.000000000000000000e+00,-1.000000000000000000e+00,-8.399999999999989697e-01,-1.000000000000000000e+00,-1.000000000000000000e+00,-6.699999999999952660e-01,-4.799999999999942091e-01,-6.999999999999961808e-01,-1.000000000000000000e+00,-6.999999999999988454e-01,3.500000000000038636e-01,-7.099999999999988542e-01,-1.000000000000000000e+00,-1.000000000000000000e+00,4.500000000000066169e-01,-4.799999999999986500e-01,-6.999999999999739764e-02,-1.000000000000000000e+00,-1.000000000000000000e+00,-8.299999999999989608e-01,-1.000000000000000000e+00,9.800000000000061995e-01,-1.000000000000000000e+00,-1.000000000000000000e+00,-1.000000000000000000e+00,-5.299999999999969180e-01,-1.000000000000000000e+00,-1.000000000000000000e+00,-6.999999999999828582e-02,2.200000000000117417e-01,-1.000000000000000000e+00,-7.799999999999971401e-01,-5.599999999999933920e-01
5.600000000000040501e-01,-1.000000000000000000e+00,7.600000000000051159e-01,-1.000000000000000000e+00,6.600000000000085798e-01,-1.000000000000000000e+00,7.000000000000361489e-02,2.000000000000028422e-01,-1.000000000000000000e+00,-2.299999999999984279e-01,-1.000000000000000000e+00,-1.000000000000000000e+00,-2.099999999999975220e-01,-3.099999999999967226e-01,-1.000000000000000000e+00,2.600000000000055600e-01,-1.000000000000000000e+00,7.800000000000069100e-01,-5.399999999999987033e-01,1.700000000000054801e-01,3.000000000000269118e-02,3.000000000000269118e-02,8.200000000000096101e-01,1.200000000000045475e-01,-1.000000000000000000e+00,5.500000000000084821e-01,-7.599999999999926814e-01,8.300000000000060663e-01,-1.000000000000000000e+00,3.200000000000029488e-01,-1.000000000000000000e+00,-9.199999999999972644e-01,-9.599999999999955236e-01,-1.000000000000000000e+00,-1.000000000000000000e+00,8.000000000000717648e-02,-1.000000000000000000e+00,-6.899999999999979483e-01,-9.999999999999991118e-01,-1.699999999999894928e-01,-5.099999999999942357e-01,-1.199999999999983302e-01,-6.899999999999943956e-01,-3.699999999999985523e-01,-1.000000000000000000e+00,-1.000000000000000000e+00,-1.000000000000000000e+00,-1.699999999999939337e-01,-1.000000000000000000e+00,5.700000000000067235e-01,-6.699999999999952660e-01,-4.799999999999942091e-01,-6.999999999999961808e-01,-1.000000000000000000e+00,-6.999999999999988454e-01,-1.000000000000000000e+00,-1.000000000000000000e+00,1.900000000000054978e-01,-1.000000000000000000e+00,4.500000000000066169e-01,2.700000000000073452e-01,-5.499999999999987121e-01,-1.000000000000000000e+00,-1.000000000000000000e+00,-1.000000000000000000e+00,-1.000000000000000000e+00,-1.000000000000000000e+00,-1.000000000000000000e+00,-1.000000000000000000e+00,-1.000000000000000000e+00,-5.299999999999969180e-01,-1.000000000000000000e+00,-3.299999999999914113e-01,-6.999999999999828582e-02,3.800000000000109956e-01,-2.099999999999984102e-01,-1.000000000000000000e+00,3.900000000000065636e-01
-3.199999999999958433e-01,-1.000000000000000000e+00,7.600000000000051159e-01,-1.000000000000000000e+00,9.800000000000079758e-01,-1.000000000000000000e+00,1.500000000000027978e-01,2.000000000000028422e-01,2.900000000000064748e-01,-2.299999999999984279e-01,-1.000000000000000000e+00,-1.000000000000000000e+00,-2.099999999999975220e-01,-4.799999999999977618e-01,-1.000000000000000000e+00,2.000000000000357048e-02,-1.000000000000000000e+00,-7.199999999999944222e-01,-1.000000000000000000e+00,9.000000000000629718e-02,3.000000000000269118e-02,3.000000000000269118e-02,8.200000000000096101e-01,1.200000000000045475e-01,-1.000000000000000000e+00,5.500000000000084821e-01,-3.199999999999931788e-01,8.300000000000060663e-01,-1.000000000000000000e+00,3.200000000000029488e-01,-5.899999999999978595e-01,-9.499999999999981792e-01,-1.000000000000000000e+00,3.100000000000029399e-01,-1.000000000000000000e+00,8.000000000000717648e-02,-1.000000000000000000e+00,-6.899999999999979483e-01,-1.000000000000000000e+00,-1.699999999999894928e-01,-5.099999999999942357e-01,-8.599999999999989875e-01,-6.899999999999943956e-01,-1.999999999999984013e-01,-1.000000000000000000e+00,-1.000000000000000000e+00,-1.000000000000000000e+00,-8.099999999999945022e-01,-6.299999999999978950e-01,7.100000000000086242e-01,-3.399999999999940847e-01,-4.799999999999942091e-01,-6.999999999999961808e-01,-1.000000000000000000e+00,-6.999999999999988454e-01,3.500000000000038636e-01,-1.000000000000000000e+00,1.900000000000046096e-01,-7.199999999999988631e-01,4.500000000000066169e-01,2.700000000000073452e-01,-8.099999999999989431e-01,-1.000000000000000000e+00,-1.000000000000000000e+00,-8.299999999999989608e-01,-1.000000000000000000e+00,9.800000000000061995e-01,-1.000000000000000000e+00,-1.000000000000000000e+00,-1.000000000000000000e+00,-5.299999999999969180e-01,-1.000000000000000000e+00,-8.199999999999900702e-01,-6.999999999999828582e-02,3.800000000000109956e-01,-1.000000000000000000e+00,-1.099999999999974332e-01,3.900000000000065636e-01
5.600000000000040501e-01,-1.000000000000000000e+00,7.600000000000051159e-01,-9.099999999999990319e-01,-1.000000000000000000e+00,-1.000000000000000000e+00,1.500000000000027978e-01,-8.899999999999972378e-01,2.800000000000064659e-01,-2.299999999999984279e-01,-8.499999999999980904e-01,-1.000000000000000000e+00,-2.099999999999975220e-01,2.664535259100375697e-15,-8.499999999999989786e-01,2.000000000000357048e-02,-1.000000000000000000e+00,7.800000000000069100e-01,-5.699999999999978417e-01,1.700000000000054801e-01,3.000000000000269118e-02,3.000000000000269118e-02,8.400000000000105160e-01,1.200000000000045475e-01,-1.000000000000000000e+00,5.500000000000084821e-01,-1.000000000000000000e+00,1.900000000000046096e-01,-5.399999999999987033e-01,5.000000000000359712e-02,-8.199999999999989519e-01,-3.199999999999967315e-01,-9.599999999999955236e-01,-1.000000000000000000e+00,-1.000000000000000000e+00,8.000000000000717648e-02,-1.000000000000000000e+00,-1.000000000000000000e+00,-1.000000000000000000e+00,-1.000000000000000000e+00,-3.199999999999949551e-01,-1.000000000000000000e+00,-3.099999999999940581e-01,-1.000000000000000000e+00,-1.000000000000000000e+00,-1.000000000000000000e+00,-1.000000000000000000e+00,-1.699999999999939337e-01,-1.000000000000000000e+00,-6.999999999999295675e-02,-4.099999999999932587e-01,-6.399999999999952394e-01,-6.999999999999961808e-01,-1.000000000000000000e+00,-6.999999999999988454e-01,-1.000000000000000000e+00,-5.199999999999951328e-01,-1.000000000000000000e+00,-2.799999999999984723e-01,1.900000000000072742e-01,-1.000000000000000000e+00,-8.099999999999989431e-01,-1.000000000000000000e+00,-1.000000000000000000e+00,-8.299999999999989608e-01,-1.000000000000000000e+00,9.800000000000061995e-01,-1.000000000000000000e+00,-2.099999999999984102e-01,-1.000000000000000000e+00,-1.000000000000000000e+00,-1.000000000000000000e+00,-1.000000000000000000e+00,6.000000000000271783e-02,-1.000000000000000000e+00,-1.000000000000000000e+00,-1.099999999999974332e-01,3.900000000000065636e-01
1.800000000000046008e-01,-1.000000000000000000e+00,2.800000000000055778e-01,-1.000000000000000000e+00,9.800000000000079758e-01,-1.000000000000000000e+00,1.500000000000027978e-01,2.000000000000028422e-01,2.900000000000064748e-01,-2.299999999999984279e-01,-1.000000000000000000e+00,-1.899999999999975042e-01,-5.799999999999969624e-01,-7.199999999999988631e-01,-1.000000000000000000e+00,2.600000000000055600e-01,-1.000000000000000000e+00,-7.199999999999944222e-01,-1.000000000000000000e+00,1.700000000000054801e-01,3.000000000000269118e-02,3.000000000000269118e-02,8.200000000000096101e-01,1.200000000000045475e-01,-1.000000000000000000e+00,5.500000000000084821e-01,-3.199999999999931788e-01,8.300000000000060663e-01,-9.699999999999990852e-01,3.200000000000029488e-01,-8.199999999999989519e-01,-1.000000000000000000e+00,-1.000000000000000000e+00,3.100000000000029399e-01,-8.899999999999990141e-01,-1.000000000000000000e+00,-8.999999999999981348e-01,-6.899999999999979483e-01,-1.000000000000000000e+00,-1.699999999999894928e-01,-5.099999999999942357e-01,-1.000000000000000000e+00,-6.199999999999934452e-01,-1.000000000000000000e+00,-1.000000000000000000e+00,-1.000000000000000000e+00,-1.000000000000000000e+00,-8.099999999999945022e-01,-1.000000000000000000e+00,5.700000000000067235e-01,-5.999999999999943157e-01,-4.799999999999942091e-01,-1.000000000000000000e+00,-1.000000000000000000e+00,-9.999999999999982236e-01,-7.999999999999989342e-01,-1.000000000000000000e+00,-1.000000000000000000e+00,-6.299999999999987832e-01,4.500000000000066169e-01,2.700000000000073452e-01,-5.499999999999987121e-01,-1.000000000000000000e+00,-3.999999999999825917e-02,-1.000000000000000000e+00,-1.000000000000000000e+00,9.800000000000061995e-01,-1.000000000000000000e+00,-1.000000000000000000e+00,-1.000000000000000000e+00,-5.299999999999969180e-01,-1.000000000000000000e+00,-1.000000000000000000e+00,-6.999999999999828582e-02,3.800000000000109956e-01,-1.000000000000000000e+00,-1.000000000000000000e+00,8.000000000000806466e-02
5.600000000000040501e-01,-1.000000000000000000e+00,3.000000000000055955e-01,-1.000000000000000000e+00,6.600000000000085798e-01,-1.000000000000000000e+00,1.500000000000027978e-01,8.500000000000043077e-01,2.900000000000064748e-01,-2.299999999999984279e-01,-1.000000000000000000e+00,-1.000000000000000000e+00,-2.899999999999975930e-01,-7.199999999999988631e-01,-1.000000000000000000e+00,-9.299999999999954969e-01,-1.000000000000000000e+00,-2.099999999999939693e-01,-5.399999999999987033e-01,2.200000000000064126e-01,3.000000000000269118e-02,3.000000000000269118e-02,8.200000000000096101e-01,1.200000000000045475e-01,-1.000000000000000000e+00,5.500000000000084821e-01,-3.199999999999931788e-01,8.300000000000060663e-01,-9.699999999999990852e-01,3.200000000000029488e-01,-7.899999999999989253e-01,-1.000000000000000000e+00,-4.699999999999942002e-01,3.100000000000029399e-01,-1.000000000000000000e+00,8.700000000000087663e-01,-1.000000000000000000e+00,-9.299999999999981615e-01,-9.999999999999991118e-01,4.200000000000119194e-01,3.000000000000073719e-01,-1.000000000000000000e+00,-6.699999999999952660e-01,-1.000000000000000000e+00,-1.000000000000000000e+00,-1.000000000000000000e+00,-1.000000000000000000e+00,-1.000000000000000000e+00,-1.000000000000000000e+00,-1.999999999999930722e-01,-5.999999999999943157e-01,-6.399999999999952394e-01,-3.999999999999825917e-02,-1.000000000000000000e+00,-6.999999999999988454e-01,-1.000000000000000000e+00,-1.000000000000000000e+00,1.900000000000046096e-01,-1.000000000000000000e+00,4.500000000000066169e-01,-1.000000000000000000e+00,-5.499999999999987121e-01,-1.000000000000000000e+00,-1.000000000000000000e+00,-1.000000000000000000e+00,-1.000000000000000000e+00,9.800000000000061995e-01,-9.999999999999991118e-01,-1.000000000000000000e+00,-6.199999999999987743e-01,-5.299999999999969180e-01,-1.000000000000000000e+00,-8.199999999999900702e-01,-6.999999999999828582e-02,2.200000000000135181e-01,-1.000000000000000000e+00,-1.000000000000000000e+00,3.900000000000065636e-01
3.300000000000047340e-01,-1.000000000000000000e+00,7.600000000000051159e-01,-1.000000000000000000e+00,6.600000000000085798e-01,-1.000000000000000000e+00,1.500000000000027978e-01,-9.999999999999742428e-02,2.800000000000064659e-01,-2.299999999999984279e-01,-8.499999999999980904e-01,-1.000000000000000000e+00,-2.099999999999975220e-01,-7.199999999999988631e-01,-8.499999999999989786e-01,2.000000000000357048e-02,-1.000000000000000000e+00,7.800000000000069100e-01,-5.399999999999987033e-01,1.700000000000054801e-01,3.000000000000269118e-02,3.000000000000269118e-02,8.400000000000105160e-01,1.200000000000045475e-01,-1.000000000000000000e+00,5.500000000000084821e-01,-3.199999999999931788e-01,-1.000000000000000000e+00,-1.000000000000000000e+00,3.200000000000029488e-01,-8.199999999999989519e-01,-9.499999999999981792e-01,-1.000000000000000000e+00,3.100000000000029399e-01,-1.000000000000000000e+00,8.000000000000717648e-02,-1.000000000000000000e+00,-6.999999999999988454e-01,-5.799999999999978506e-01,-1.699999999999894928e-01,-3.199999999999949551e-01,-1.000000000000000000e+00,-3.099999999999940581e-01,-2.699999999999984635e-01,-1.000000000000000000e+00,-1.000000000000000000e+00,-1.000000000000000000e+00,-1.699999999999939337e-01,-1.000000000000000000e+00,5.000000000000075495e-01,-4.099999999999932587e-01,-1.000000000000000000e+00,-1.000000000000000000e+00,-1.000000000000000000e+00,-6.999999999999988454e-01,3.500000000000038636e-01,-5.199999999999951328e-01,-1.000000000000000000e+00,-1.000000000000000000e+00,1.900000000000072742e-01,2.700000000000073452e-01,-8.099999999999989431e-01,-6.899999999999988365e-01,-1.000000000000000000e+00,-8.299999999999989608e-01,-3.499999999999985345e-01,9.800000000000061995e-01,-1.000000000000000000e+00,-1.000000000000000000e+00,-1.000000000000000000e+00,-4.799999999999986500e-01,-8.399999999999989697e-01,-3.299999999999914113e-01,-6.999999999999828582e-02,3.800000000000109956e-01,-1.000000000000000000e+00,6.300000000000041123e-01,3.900000000000065636e-01
-1.899999999999957279e-01,-1.000000000000000000e+00,7.600000000000051159e-01,-1.000000000000000000e+00,6.600000000000085798e-01,-1.000000000000000000e+00,1.500000000000027978e-01,-9.999999999999742428e-02,1.900000000000072742e-01,-2.299999999999984279e-01,-1.000000000000000000e+00,-1.000000000000000000e+00,-2.899999999999975930e-01,-1.299999999999965627e-01,-5.999999999999827693e-02,-9.299999999999954969e-01,-1.000000000000000000e+00,-3.199999999999931788e-01,-5.399999999999987033e-01,1.700000000000054801e-01,3.000000000000269118e-02,3.000000000000269118e-02,8.200000000000096101e-01,1.200000000000045475e-01,-8.699999999999989964e-01,5.500000000000084821e-01,-3.199999999999931788e-01,5.800000000000058442e-01,-9.699999999999990852e-01,4.000000000000039080e-01,-8.199999999999989519e-01,-1.000000000000000000e+00,-4.699999999999942002e-01,3.100000000000029399e-01,-1.000000000000000000e+00,8.700000000000087663e-01,-8.999999999999981348e-01,-6.999999999999988454e-01,-1.000000000000000000e+00,4.200000000000119194e-01,-5.099999999999942357e-01,-3.099999999999984990e-01,-6.699999999999952660e-01,-1.000000000000000000e+00,-1.000000000000000000e+00,-8.599999999999989875e-01,-1.000000000000000000e+00,-1.399999999999983480e-01,-1.000000000000000000e+00,5.700000000000067235e-01,-9.999999999992903454e-03,-4.799999999999942091e-01,-1.000000000000000000e+00,-1.000000000000000000e+00,-6.999999999999988454e-01,-6.499999999999988010e-01,-1.000000000000000000e+00,-1.000000000000000000e+00,-1.000000000000000000e+00,4.500000000000066169e-01,-1.000000000000000000e+00,-2.599999999999975664e-01,-1.000000000000000000e+00,-1.000000000000000000e+00,-1.000000000000000000e+00,-1.000000000000000000e+00,9.800000000000061995e-01,-9.999999999999991118e-01,-1.000000000000000000e+00,-1.000000000000000000e+00,9.000000000000274447e-02,-1.000000000000000000e+00,-8.699999999999892264e-01,-6.999999999999828582e-02,3.800000000000109956e-01,-1.000000000000000000e+00,-1.000000000000000000e+00,4.700000000000075229e-01
5.600000000000040501e-01,-1.000000000000000000e+00,7.600000000000051159e-01,-6.499999999999988010e-01,9.900000000000088729e-01,-1.000000000000000000e+00,1.500000000000027978e-01,-9.999999999999742428e-02,2.800000000000064659e-01,-2.299999999999984279e-01,-5.799999999999969624e-01,-4.599999999999986322e-01,-2.099999999999975220e-01,-7.199999999999988631e-01,-1.000000000000000000e+00,2.000000000000357048e-02,-7.599999999999988987e-01,-1.000000000000000000e+00,-6.099999999999978773e-01,4.000000000000625278e-02,3.000000000000269118e-02,3.000000000000269118e-02,8.400000000000105160e-01,1.200000000000045475e-01,-1.000000000000000000e+00,5.500000000000084821e-01,-3.199999999999931788e-01,5.800000000000058442e-01,-1.000000000000000000e+00,3.200000000000029488e-01,-9.499999999999981792e-01,-9.499999999999981792e-01,-1.000000000000000000e+00,3.100000000000029399e-01,-1.000000000000000000e+00,8.000000000000717648e-02,-1.000000000000000000e+00,1.000000000000267342e-02,-1.000000000000000000e+00,-1.699999999999894928e-01,-4.699999999999942002e-01,-1.000000000000000000e+00,-6.899999999999943956e-01,-1.000000000000000000e+00,-1.000000000000000000e+00,-8.599999999999989875e-01,-1.000000000000000000e+00,-5.999999999999934275e-01,-1.000000000000000000e+00,-6.999999999999295675e-02,-6.699999999999952660e-01,-6.399999999999952394e-01,-6.999999999999961808e-01,-1.000000000000000000e+00,-6.999999999999988454e-01,-1.000000000000000000e+00,-5.199999999999951328e-01,1.900000000000046096e-01,-1.000000000000000000e+00,1.900000000000072742e-01,-1.000000000000000000e+00,-8.099999999999989431e-01,-1.000000000000000000e+00,-1.000000000000000000e+00,-8.299999999999989608e-01,-1.000000000000000000e+00,9.800000000000061995e-01,-1.000000000000000000e+00,-1.000000000000000000e+00,-1.000000000000000000e+00,-1.000000000000000000e+00,-1.000000000000000000e+00,-1.000000000000000000e+00,-6.999999999999828582e-02,3.800000000000109956e-01,-1.000000000000000000e+00,-5.599999999999969447e-01,3.900000000000065636e-01
5.600000000000040501e-01,-1.000000000000000000e+00,-1.000000000000000000e+00,-1.000000000000000000e+00,6.600000000000085798e-01,-1.000000000000000000e+00,1.500000000000027978e-01,-8.199999999999980638e-01,2.900000000000064748e-01,-1.000000000000000000e+00,-1.000000000000000000e+00,-1.000000000000000000e+00,-2.899999999999975930e-01,-1.299999999999965627e-01,-1.000000000000000000e+00,2.000000000000357048e-02,-1.000000000000000000e+00,7.800000000000069100e-01,-5.399999999999987033e-01,1.700000000000054801e-01,3.000000000000269118e-02,3.000000000000269118e-02,7.900000000000104716e-01,1.200000000000045475e-01,-8.699999999999989964e-01,5.500000000000084821e-01,5.200000000000084555e-01,1.900000000000046096e-01,-1.000000000000000000e+00,3.200000000000029488e-01,-8.199999999999989519e-01,-1.000000000000000000e+00,-9.599999999999955236e-01,-1.000000000000000000e+00,-1.000000000000000000e+00,8.000000000000717648e-02,-1.000000000000000000e+00,-1.000000000000000000e+00,-9.999999999999991118e-01,-1.699999999999894928e-01,-3.199999999999949551e-01,-3.099999999999984990e-01,-3.599999999999949907e-01,-1.000000000000000000e+00,-6.599999999999988098e-01,-8.599999999999989875e-01,-1.000000000000000000e+00,-5.599999999999978328e-01,-3.899999999999985700e-01,5.700000000000067235e-01,-4.099999999999932587e-01,-1.000000000000000000e+00,-6.999999999999961808e-01,-1.000000000000000000e+00,-6.999999999999988454e-01,-1.000000000000000000e+00,-5.199999999999951328e-01,-1.000000000000000000e+00,-2.799999999999984723e-01,-4.299999999999932765e-01,-1.000000000000000000e+00,-2.599999999999975664e-01,-1.000000000000000000e+00,-1.000000000000000000e+00,-8.299999999999989608e-01,-9.499999999999990674e-01,9.800000000000061995e-01,-1.000000000000000000e+00,-1.000000000000000000e+00,-1.000000000000000000e+00,-1.000000000000000000e+00,-1.000000000000000000e+00,-8.699999999999892264e-01,-6.999999999999828582e-02,-3.099999999999878408e-01,-1.000000000000000000e+00,-1.099999999999974332e-01,3.900000000000065636e-01
5.600000000000040501e-01,-1.000000000000000000e+00,7.600000000000051159e-01,-9.099999999999990319e-01,6.600000000000085798e-01,-1.000000000000000000e+00,1.500000000000027978e-01,-1.899999999999983924e-01,2.800000000000064659e-01,-2.299999999999984279e-01,-8.499999999999980904e-01,-4.699999999999986411e-01,-2.099999999999975220e-01,2.664535259100375697e-15,-1.000000000000000000e+00,2.000000000000357048e-02,-1.000000000000000000e+00,-7.199999999999944222e-01,-5.399999999999987033e-01,9.000000000000629718e-02,3.000000000000269118e-02,3.000000000000269118e-02,8.400000000000105160e-01,1.200000000000045475e-01,-1.000000000000000000e+00,5.500000000000084821e-01,-8.999999999999208633e-02,1.900000000000046096e-01,-1.000000000000000000e+00,3.200000000000029488e-01,-3.299999999999976286e-01,-1.000000000000000000e+00,-9.599999999999955236e-01,-1.000000000000000000e+00,-1.000000000000000000e+00,8.000000000000717648e-02,-1.000000000000000000e+00,-1.000000000000000000e+00,-9.999999999999991118e-01,-1.699999999999894928e-01,-5.099999999999942357e-01,-8.599999999999989875e-01,-3.599999999999949907e-01,-1.999999999999984013e-01,-1.000000000000000000e+00,-1.000000000000000000e+00,-1.000000000000000000e+00,-1.000000000000000000e+00,-1.000000000000000000e+00,-6.999999999999295675e-02,-3.399999999999940847e-01,-4.799999999999942091e-01,-6.999999999999961808e-01,-1.000000000000000000e+00,-6.999999999999988454e-01,3.500000000000038636e-01,-5.199999999999951328e-01,1.900000000000046096e-01,-2.799999999999984723e-01,4.500000000000066169e-01,2.700000000000073452e-01,-8.099999999999989431e-01,-1.000000000000000000e+00,-1.000000000000000000e+00,-8.299999999999989608e-01,-1.000000000000000000e+00,9.400000000000070521e-01,-1.000000000000000000e+00,-2.099999999999984102e-01,-1.000000000000000000e+00,-5.299999999999969180e-01,-1.000000000000000000e+00,-8.199999999999900702e-01,6.000000000000271783e-02,3.800000000000109956e-01,-1.000000000000000000e+00,-1.099999999999974332e-01,-1.999999999999930722e-01
5.600000000000040501e-01,-1.000000000000000000e+00,7.600000000000051159e-01,-1.000000000000000000e+00,6.600000000000085798e-01,-1.000000000000000000e+00,6.900000000000041656e-01,-1.899999999999983924e-01,2.800000000000064659e-01,-2.299999999999984279e-01,-1.000000000000000000e+00,-1.000000000000000000e+00,-2.899999999999975930e-01,9.500000000000043965e-01,-8.499999999999989786e-01,-7.599999999999962341e-01,-1.000000000000000000e+00,6.600000000000076916e-01,-5.399999999999987033e-01,-2.199999999999939782e-01,3.000000000000269118e-02,3.000000000000269118e-02,6.200000000000112088e-01,1.200000000000045475e-01,-1.000000000000000000e+00,5.500000000000084821e-01,-3.199999999999931788e-01,8.300000000000060663e-01,-1.000000000000000000e+00,3.200000000000029488e-01,-8.199999999999989519e-01,-9.299999999999990496e-01,-4.699999999999942002e-01,-1.000000000000000000e+00,-1.000000000000000000e+00,8.000000000000717648e-02,-1.000000000000000000e+00,-1.000000000000000000e+00,-9.399999999999981704e-01,-1.699999999999894928e-01,-3.199999999999949551e-01,-1.000000000000000000e+00,-6.699999999999952660e-01,-1.000000000000000000e+00,-1.000000000000000000e+00,-1.000000000000000000e+00,-1.000000000000000000e+00,-1.000000000000000000e+00,-1.000000000000000000e+00,-7.999999999999927169e-01,-4.099999999999932587e-01,-6.399999999999952394e-01,-2.299999999999948752e-01,-1.000000000000000000e+00,-6.999999999999988454e-01,-1.000000000000000000e+00,-5.199999999999951328e-01,1.900000000000046096e-01,-1.000000000000000000e+00,4.500000000000066169e-01,-1.000000000000000000e+00,-1.000000000000000000e+00,-1.000000000000000000e+00,-1.000000000000000000e+00,-8.299999999999989608e-01,-1.000000000000000000e+00,9.800000000000061995e-01,-9.999999999999991118e-01,-1.000000000000000000e+00,-1.000000000000000000e+00,-1.000000000000000000e+00,-1.000000000000000000e+00,-8.199999999999900702e-01,-6.999999999999828582e-02,2.200000000000135181e-01,-1.000000000000000000e+00,-1.000000000000000000e+00,3.900000000000065636e-01
5.600000000000040501e-01,-1.000000000000000000e+00,7.600000000000051159e-01,-1.000000000000000000e+00,6.600000000000085798e-01,-1.000000000000000000e+00,-3.499999999999967581e-01,-2.799999999999966960e-01,2.900000000000064748e-01,-2.299999999999984279e-01,-8.499999999999980904e-01,-1.000000000000000000e+00,-2.099999999999975220e-01,-4.799999999999977618e-01,-8.499999999999989786e-01,2.000000000000357048e-02,-1.000000000000000000e+00,7.800000000000069100e-01,-5.699999999999978417e-01,9.000000000000629718e-02,3.000000000000269118e-02,3.000000000000269118e-02,8.400000000000105160e-01,1.200000000000045475e-01,-1.000000000000000000e+00,5.500000000000084821e-01,-3.199999999999931788e-01,1.900000000000046096e-01,-1.000000000000000000e+00,3.200000000000029488e-01,-8.199999999999989519e-01,-9.499999999999981792e-01,-1.000000000000000000e+00,-1.000000000000000000e+00,-1.000000000000000000e+00,8.000000000000717648e-02,-1.000000000000000000e+00,-6.999999999999988454e-01,-1.000000000000000000e+00,-1.699999999999894928e-01,-5.099999999999942357e-01,-3.199999999999976197e-01,-3.099999999999940581e-01,-2.699999999999984635e-01,-9.199999999999990408e-01,-1.000000000000000000e+00,-1.000000000000000000e+00,-1.000000000000000000e+00,-1.000000000000000000e+00,5.700000000000067235e-01,-3.399999999999940847e-01,-6.399999999999952394e-01,-6.999999999999961808e-01,-3.399999999999985256e-01,-6.999999999999988454e-01,3.500000000000038636e-01,-7.099999999999988542e-01,1.900000000000046096e-01,-1.000000000000000000e+00,1.900000000000072742e-01,2.700000000000073452e-01,-8.099999999999989431e-01,-1.000000000000000000e+00,-1.000000000000000000e+00,-8.299999999999989608e-01,-1.000000000000000000e+00,9.800000000000061995e-01,-1.000000000000000000e+00,-1.000000000000000000e+00,-1.000000000000000000e+00,-4.799999999999986500e-01,-1.000000000000000000e+00,-1.000000000000000000e+00,-6.999999999999828582e-02,2.200000000000117417e-01,-1.000000000000000000e+00,-1.099999999999974332e-01,3.900000000000065636e-01
5.600000000000040501e-01,-1.000000000000000000e+00,7.600000000000051159e-01,-1.000000000000000000e+00,9.800000000000079758e-01,-1.000000000000000000e+00,1.500000000000027978e-01,-1.899999999999983924e-01,2.800000000000064659e-01,-2.299999999999984279e-01,-8.499999999999980904e-01,-1.000000000000000000e+00,-2.099999999999975220e-01,-4.799999999999977618e-01,-7.399999999999988809e-01,2.000000000000357048e-02,-1.000000000000000000e+00,-7.199999999999944222e-01,-5.399999999999987033e-01,9.000000000000629718e-02,3.000000000000269118e-02,3.000000000000269118e-02,-1.599999999999894840e-01,1.200000000000045475e-01,-1.000000000000000000e+00,5.500000000000084821e-01,-3.199999999999931788e-01,1.900000000000046096e-01,-7.399999999999988809e-01,3.200000000000029488e-01,-8.199999999999989519e-01,-3.199999999999967315e-01,-9.599999999999955236e-01,-1.000000000000000000e+00,-1.000000000000000000e+00,8.000000000000717648e-02,-1.000000000000000000e+00,-9.299999999999981615e-01,-9.999999999999991118e-01,-1.699999999999894928e-01,-6.999999999999384492e-02,-8.599999999999989875e-01,-1.000000000000000000e+00,-1.000000000000000000e+00,-1.000000000000000000e+00,-1.000000000000000000e+00,-2.199999999999984190e-01,-1.699999999999939337e-01,-1.000000000000000000e+00,7.100000000000086242e-01,-4.099999999999932587e-01,-1.000000000000000000e+00,-6.999999999999961808e-01,-1.000000000000000000e+00,-6.999999999999988454e-01,3.500000000000038636e-01,-5.199999999999951328e-01,-1.000000000000000000e+00,-2.799999999999984723e-01,-2.099999999999921929e-01,1.200000000000081002e-01,-8.099999999999989431e-01,-1.000000000000000000e+00,-1.000000000000000000e+00,-8.299999999999989608e-01,-1.000000000000000000e+00,9.800000000000061995e-01,-1.000000000000000000e+00,-2.099999999999984102e-01,-4.199999999999985967e-01,-1.000000000000000000e+00,-3.999999999999825917e-02,-3.299999999999914113e-01,6.000000000000271783e-02,5.100000000000128875e-01,-1.000000000000000000e+00,-1.099999999999974332e-01,3.900000000000065636e-01
5.600000000000040501e-01,-1.000000000000000000e+00,2.300000000000055334e-01,-8.299999999999989608e-01,6.600000000000085798e-01,-1.000000000000000000e+00,1.500000000000027978e-01,-9.999999999999742428e-02,2.900000000000064748e-01,-2.299999999999984279e-01,-1.000000000000000000e+00,-1.000000000000000000e+00,-2.899999999999975930e-01,-1.299999999999965627e-01,-1.000000000000000000e+00,-9.299999999999954969e-01,-1.000000000000000000e+00,-3.199999999999931788e-01,-5.399999999999987033e-01,-2.199999999999939782e-01,8.200000000000042810e-01,3.000000000000269118e-02,8.200000000000096101e-01,7.900000000000060307e-01,-1.000000000000000000e+00,5.500000000000084821e-01,-3.199999999999931788e-01,5.800000000000058442e-01,-1.000000000000000000e+00,3.200000000000029488e-01,-8.199999999999989519e-01,-1.000000000000000000e+00,-4.699999999999942002e-01,3.100000000000029399e-01,-1.000000000000000000e+00,8.000000000000717648e-02,-1.000000000000000000e+00,-6.999999999999988454e-01,-9.999999999999991118e-01,-6.999999999999890754e-01,-5.099999999999942357e-01,-1.000000000000000000e+00,-3.599999999999949907e-01,-1.000000000000000000e+00,-1.000000000000000000e+00,-1.000000000000000000e+00,-1.000000000000000000e+00,-5.599999999999978328e-01,-1.000000000000000000e+00,-1.999999999999930722e-01,-5.999999999999943157e-01,-6.399999999999952394e-01,-1.000000000000000000e+00,-1.000000000000000000e+00,-6.999999999999988454e-01,-1.000000000000000000e+00,-1.000000000000000000e+00,-4.399999999999950617e-01,-1.000000000000000000e+00,4.500000000000066169e-01,-1.000000000000000000e+00,-2.599999999999975664e-01,-1.000000000000000000e+00,-1.000000000000000000e+00,-1.000000000000000000e+00,-1.000000000000000000e+00,9.800000000000061995e-01,-9.999999999999991118e-01,-1.000000000000000000e+00,-1.000000000000000000e+00,-1.000000000000000000e+00,-1.000000000000000000e+00,-8.699999999999892264e-01,-6.999999999999828582e-02,2.200000000000135181e-01,-1.000000000000000000e+00,-1.000000000000000000e+00,6.700000000000077005e-01
5.600000000000040501e-01,-1.000000000000000000e+00,7.600000000000051159e-01,-1.000000000000000000e+00,9.800000000000079758e-01,-1.000000000000000000e+00,1.500000000000027978e-01,-1.899999999999983924e-01,2.900000000000064748e-01,-2.299999999999984279e-01,-8.499999999999980904e-01,-1.000000000000000000e+00,-2.899999999999975930e-01,-1.799999999999974953e-01,-1.000000000000000000e+00,2.000000000000357048e-02,-1.000000000000000000e+00,-7.199999999999944222e-01,-5.399999999999987033e-01,-2.199999999999939782e-01,3.000000000000269118e-02,3.000000000000269118e-02,8.200000000000096101e-01,1.200000000000045475e-01,-1.000000000000000000e+00,5.500000000000084821e-01,-3.199999999999931788e-01,8.300000000000060663e-01,-9.699999999999990852e-01,3.200000000000029488e-01,-8.199999999999989519e-01,-1.000000000000000000e+00,-9.599999999999955236e-01,3.100000000000029399e-01,-1.000000000000000000e+00,8.000000000000717648e-02,-1.000000000000000000e+00,-9.299999999999981615e-01,-1.000000000000000000e+00,-1.699999999999894928e-01,-5.099999999999942357e-01,-1.000000000000000000e+00,-9.999999999998232525e-03,-1.999999999999984013e-01,-1.000000000000000000e+00,-1.000000000000000000e+00,-1.000000000000000000e+00,-1.000000000000000000e+00,-1.000000000000000000e+00,7.100000000000086242e-01,-5.999999999999943157e-01,-6.399999999999952394e-01,-6.999999999999961808e-01,-1.000000000000000000e+00,-6.999999999999988454e-01,-1.000000000000000000e+00,-1.000000000000000000e+00,1.900000000000046096e-01,-1.000000000000000000e+00,4.500000000000066169e-01,9.200000000000088107e-01,-8.099999999999989431e-01,-1.000000000000000000e+00,-1.000000000000000000e+00,-1.000000000000000000e+00,-1.000000000000000000e+00,9.800000000000061995e-01,-1.000000000000000000e+00,-1.000000000000000000e+00,-1.000000000000000000e+00,-5.299999999999969180e-01,-1.000000000000000000e+00,-8.199999999999900702e-01,-6.999999999999828582e-02,2.200000000000117417e-01,-1.000000000000000000e+00,-1.000000000000000000e+00,3.900000000000065636e-01
5.600000000000040501e-01,-1.000000000000000000e+00,7.600000000000051159e-01,-1.000000000000000000e+00,6.600000000000085798e-01,-1.000000000000000000e+00,1.500000000000027978e-01,-1.899999999999983924e-01,1.000000000000071942e-01,-2.299999999999984279e-01,-8.499999999999980904e-01,-4.099999999999985878e-01,-2.099999999999975220e-01,2.664535259100375697e-15,-1.000000000000000000e+00,-9.299999999999954969e-01,-1.000000000000000000e+00,-3.199999999999931788e-01,-5.399999999999987033e-01,9.200000000000070344e-01,3.000000000000269118e-02,-1.899999999999966160e-01,7.900000000000104716e-01,1.200000000000045475e-01,1.100000000000027622e-01,5.500000000000084821e-01,-3.199999999999931788e-01,8.300000000000060663e-01,-9.699999999999990852e-01,3.200000000000029488e-01,-8.199999999999989519e-01,-9.499999999999981792e-01,-4.699999999999942002e-01,-1.000000000000000000e+00,-1.000000000000000000e+00,8.000000000000717648e-02,7.000000000000361489e-02,-6.999999999999988454e-01,-9.999999999999991118e-01,4.200000000000119194e-01,-3.199999999999949551e-01,-1.000000000000000000e+00,-3.599999999999949907e-01,-1.000000000000000000e+00,-1.000000000000000000e+00,-8.599999999999989875e-01,-1.000000000000000000e+00,-1.699999999999939337e-01,-1.000000000000000000e+00,-6.999999999999295675e-02,-4.099999999999932587e-01,-1.000000000000000000e+00,-1.000000000000000000e+00,-1.000000000000000000e+00,-1.000000000000000000e+00,3.500000000000038636e-01,-5.199999999999951328e-01,-1.000000000000000000e+00,-1.000000000000000000e+00,4.500000000000066169e-01,2.700000000000073452e-01,-8.099999999999989431e-01,-1.000000000000000000e+00,-1.000000000000000000e+00,-1.000000000000000000e+00,-1.000000000000000000e+00,9.800000000000061995e-01,-1.000000000000000000e+00,-1.000000000000000000e+00,-1.000000000000000000e+00,-1.000000000000000000e+00,-1.000000000000000000e+00,-3.299999999999914113e-01,-6.999999999999828582e-02,-3.099999999999878408e-01,-1.000000000000000000e+00,-1.099999999999974332e-01,6.700000000000077005e-01
5.600000000000040501e-01,-1.000000000000000000e+00,7.600000000000051159e-01,-1.000000000000000000e+00,9.800000000000079758e-01,-1.000000000000000000e+00,1.500000000000027978e-01,-1.899999999999983924e-01,2.900000000000064748e-01,-2.299999999999984279e-01,-8.499999999999980904e-01,-1.000000000000000000e+00,-2.899999999999975930e-01,-1.799999999999974953e-01,-1.000000000000000000e+00,-9.299999999999954969e-01,-1.000000000000000000e+00,-7.199999999999944222e-01,-5.399999999999987033e-01,-2.199999999999939782e-01,3.000000000000269118e-02,3.000000000000269118e-02,8.200000000000096101e-01,1.200000000000045475e-01,-1.000000000000000000e+00,5.500000000000084821e-01,-3.199999999999931788e-01,1.900000000000046096e-01,-1.000000000000000000e+00,3.200000000000029488e-01,-8.199999999999989519e-01,-1.000000000000000000e+00,-9.599999999999955236e-01,3.100000000000029399e-01,-1.000000000000000000e+00,8.000000000000717648e-02,-1.000000000000000000e+00,-9.299999999999981615e-01,-9.999999999999991118e-01,-1.699999999999894928e-01,-5.099999999999942357e-01,-8.599999999999989875e-01,-1.000000000000000000e+00,-1.000000000000000000e+00,-1.000000000000000000e+00,-1.000000000000000000e+00,-6.199999999999987743e-01,-1.000000000000000000e+00,-1.000000000000000000e+00,7.100000000000086242e-01,-5.999999999999943157e-01,-4.799999999999942091e-01,-6.999999999999961808e-01,-1.000000000000000000e+00,-6.999999999999988454e-01,-1.000000000000000000e+00,-7.099999999999988542e-01,1.900000000000046096e-01,-4.599999999999986322e-01,4.500000000000066169e-01,2.700000000000073452e-01,-8.099999999999989431e-01,-1.000000000000000000e+00,-1.000000000000000000e+00,-8.299999999999989608e-01,-1.000000000000000000e+00,9.800000000000061995e-01,-9.999999999999991118e-01,-2.099999999999984102e-01,-1.000000000000000000e+00,-5.299999999999969180e-01,-1.000000000000000000e+00,-1.000000000000000000e+00,-6.999999999999828582e-02,2.200000000000117417e-01,-1.000000000000000000e+00,-1.000000000000000000e+00,3.900000000000065636e-01
5.600000000000040501e-01,-1.000000000000000000e+00,1.300000000000054445e-01,-1.000000000000000000e+00,3.000000000000802025e-02,-1.000000000000000000e+00,1.500000000000027978e-01,2.000000000000028422e-01,2.900000000000064748e-01,-2.299999999999984279e-01,-1.000000000000000000e+00,-1.000000000000000000e+00,-2.899999999999975930e-01,-4.799999999999977618e-01,-1.000000000000000000e+00,6.217248937900876626e-15,-1.000000000000000000e+00,-4.199999999999932676e-01,-5.399999999999987033e-01,1.700000000000054801e-01,3.000000000000269118e-02,3.000000000000269118e-02,8.200000000000096101e-01,1.200000000000045475e-01,-1.000000000000000000e+00,5.500000000000084821e-01,-3.199999999999931788e-01,7.000000000000627942e-02,-1.000000000000000000e+00,3.200000000000029488e-01,-8.199999999999989519e-01,-1.000000000000000000e+00,-9.599999999999955236e-01,3.100000000000029399e-01,-5.199999999999977973e-01,8.000000000000717648e-02,-1.000000000000000000e+00,-6.999999999999988454e-01,-1.000000000000000000e+00,3.100000000000118217e-01,-5.099999999999942357e-01,-8.599999999999989875e-01,-1.000000000000000000e+00,-1.999999999999984013e-01,-3.999999999999825917e-02,-1.000000000000000000e+00,-1.000000000000000000e+00,-1.000000000000000000e+00,-1.000000000000000000e+00,5.700000000000067235e-01,-5.999999999999943157e-01,-4.799999999999942091e-01,-6.999999999999961808e-01,-1.000000000000000000e+00,-6.999999999999988454e-01,3.500000000000038636e-01,-7.099999999999988542e-01,-1.000000000000000000e+00,-1.000000000000000000e+00,4.500000000000066169e-01,-1.000000000000000000e+00,-8.099999999999989431e-01,-1.000000000000000000e+00,-1.000000000000000000e+00,-1.000000000000000000e+00,-1.000000000000000000e+00,9.800000000000061995e-01,-9.999999999999991118e-01,-2.099999999999984102e-01,-1.000000000000000000e+00,9.000000000000274447e-02,-1.000000000000000000e+00,-1.000000000000000000e+00,-6.999999999999828582e-02,1.600000000000116884e-01,-1.000000000000000000e+00,-1.099999999999974332e-01,4.700000000000075229e-01
5.600000000000040501e-01,-1.000000000000000000e+00,-1.000000000000000000e+00,-1.000000000000000000e+00,6.600000000000085798e-01,-1.000000000000000000e+00,1.500000000000027978e-01,-9.999999999999742428e-02,5.100000000000075584e-01,-2.299999999999984279e-01,-1.000000000000000000e+00,-1.000000000000000000e+00,-2.899999999999975930e-01,-7.199999999999988631e-01,-1.000000000000000000e+00,-9.299999999999954969e-01,-1.000000000000000000e+00,-3.199999999999931788e-01,-5.399999999999987033e-01,1.700000000000054801e-01,3.000000000000269118e-02,3.000000000000269118e-02,7.900000000000104716e-01,1.200000000000045475e-01,-8.699999999999989964e-01,5.500000000000084821e-01,-3.199999999999931788e-01,5.800000000000058442e-01,-9.699999999999990852e-01,3.200000000000029488e-01,-7.899999999999989253e-01,-1.000000000000000000e+00,-4.699999999999942002e-01,3.100000000000029399e-01,-1.000000000000000000e+00,8.000000000000717648e-02,7.000000000000361489e-02,-6.999999999999988454e-01,-9.999999999999991118e-01,4.200000000000119194e-01,-5.099999999999942357e-01,-1.000000000000000000e+00,-3.599999999999949907e-01,-1.000000000000000000e+00,-1.000000000000000000e+00,-1.000000000000000000e+00,-1.000000000000000000e+00,-5.599999999999978328e-01,-1.000000000000000000e+00,5.700000000000067235e-01,-5.999999999999943157e-01,-6.399999999999952394e-01,-8.199999999999971756e-01,-5.499999999999987121e-01,-6.999999999999988454e-01,-1.000000000000000000e+00,-1.000000000000000000e+00,-4.399999999999950617e-01,-1.000000000000000000e+00,4.500000000000066169e-01,-1.000000000000000000e+00,-2.599999999999975664e-01,-1.000000000000000000e+00,-1.000000000000000000e+00,-1.000000000000000000e+00,-1.000000000000000000e+00,9.800000000000061995e-01,-9.999999999999991118e-01,-4.899999999999986589e-01,-1.000000000000000000e+00,-1.000000000000000000e+00,-1.000000000000000000e+00,-8.699999999999892264e-01,-6.999999999999828582e-02,-3.099999999999878408e-01,-1.000000000000000000e+00,-1.000000000000000000e+00,-1.599999999999921485e-01
5.600000000000040501e-01,-1.000000000000000000e+00,-2.999999999999469757e-02,-1.000000000000000000e+00,6.600000000000085798e-01,-1.000000000000000000e+00,1.500000000000027978e-01,2.000000000000028422e-01,2.900000000000064748e-01,-1.899999999999975042e-01,-1.000000000000000000e+00,-1.000000000000000000e+00,-5.799999999999969624e-01,-4.799999999999977618e-01,-1.000000000000000000e+00,2.600000000000055600e-01,-1.000000000000000000e+00,-1.000000000000000000e+00,-5.399999999999987033e-01,-4.999999999999942268e-01,3.000000000000269118e-02,3.000000000000269118e-02,7.900000000000104716e-01,1.200000000000045475e-01,-1.299999999999974509e-01,5.500000000000084821e-01,-4.899999999999924416e-01,8.300000000000060663e-01,-9.699999999999990852e-01,3.200000000000029488e-01,-5.899999999999978595e-01,-9.499999999999981792e-01,-4.699999999999942002e-01,9.000000000000363265e-02,-1.000000000000000000e+00,8.000000000000717648e-02,7.000000000000361489e-02,-6.899999999999979483e-01,-9.999999999999991118e-01,4.200000000000119194e-01,-1.000000000000000000e+00,-1.199999999999983302e-01,-6.899999999999943956e-01,-1.000000000000000000e+00,-1.000000000000000000e+00,-8.599999999999989875e-01,-1.000000000000000000e+00,-8.099999999999945022e-01,-1.000000000000000000e+00,5.700000000000067235e-01,-6.699999999999952660e-01,-1.199999999999938893e-01,-1.000000000000000000e+00,-1.000000000000000000e+00,-6.999999999999988454e-01,-1.000000000000000000e+00,-1.000000000000000000e+00,-4.399999999999950617e-01,-8.299999999999989608e-01,4.500000000000066169e-01,-1.000000000000000000e+00,-2.599999999999975664e-01,-1.000000000000000000e+00,-3.999999999999825917e-02,-1.000000000000000000e+00,-1.000000000000000000e+00,9.800000000000061995e-01,-1.000000000000000000e+00,-5.499999999999987121e-01,-1.000000000000000000e+00,-5.299999999999969180e-01,-1.000000000000000000e+00,-8.199999999999900702e-01,6.900000000000032774e-01,3.800000000000109956e-01,-1.000000000000000000e+00,-1.000000000000000000e+00,3.900000000000065636e-01
5.600000000000040501e-01,-1.000000000000000000e+00,7.600000000000051159e-01,-1.000000000000000000e+00,6.600000000000085798e-01,-1.000000000000000000e+00,1.500000000000027978e-01,-9.999999999999742428e-02,2.800000000000064659e-01,-2.299999999999984279e-01,-1.000000000000000000e+00,-1.000000000000000000e+00,-2.899999999999975930e-01,-1.799999999999974953e-01,-8.499999999999989786e-01,2.000000000000357048e-02,-1.000000000000000000e+00,7.800000000000069100e-01,-5.399999999999987033e-01,1.700000000000054801e-01,3.000000000000269118e-02,3.000000000000269118e-02,-1.000000000000000000e+00,1.200000000000045475e-01,-1.000000000000000000e+00,5.500000000000084821e-01,-3.199999999999931788e-01,8.300000000000060663e-01,-9.699999999999990852e-01,3.200000000000029488e-01,-8.199999999999989519e-01,-1.000000000000000000e+00,-1.000000000000000000e+00,3.100000000000029399e-01,-1.000000000000000000e+00,8.000000000000717648e-02,-1.000000000000000000e+00,-6.999999999999988454e-01,-9.999999999999991118e-01,-1.699999999999894928e-01,-3.199999999999949551e-01,-1.000000000000000000e+00,-6.699999999999952660e-01,-3.499999999999976463e-01,-1.000000000000000000e+00,-1.000000000000000000e+00,-1.000000000000000000e+00,-1.699999999999939337e-01,-1.000000000000000000e+00,-1.999999999999930722e-01,-1.899999999999930633e-01,3.000000000000624389e-02,-6.999999999999961808e-01,-1.000000000000000000e+00,-6.999999999999988454e-01,-1.000000000000000000e+00,-1.000000000000000000e+00,-1.000000000000000000e+00,-1.000000000000000000e+00,1.900000000000072742e-01,-1.000000000000000000e+00,-8.099999999999989431e-01,-1.000000000000000000e+00,-1.000000000000000000e+00,-1.000000000000000000e+00,-1.000000000000000000e+00,9.800000000000061995e-01,-9.999999999999991118e-01,-1.000000000000000000e+00,-1.000000000000000000e+00,-5.299999999999969180e-01,-1.000000000000000000e+00,-8.199999999999900702e-01,-6.999999999999828582e-02,5.800000000000120615e-01,-1.000000000000000000e+00,-1.099999999999974332e-01,3.900000000000065636e-01
2.900000000000046985e-01,-1.000000000000000000e+00,7.600000000000051159e-01,-9.099999999999990319e-01,9.800000000000079758e-01,-1.000000000000000000e+00,7.200000000000041922e-01,2.000000000000028422e-01,2.900000000000064748e-01,-2.299999999999984279e-01,-8.499999999999980904e-01,-1.000000000000000000e+00,-2.899999999999975930e-01,-7.199999999999988631e-01,-1.000000000000000000e+00,2.000000000000357048e-02,-1.000000000000000000e+00,7.800000000000069100e-01,-5.399999999999987033e-01,1.700000000000054801e-01,3.000000000000269118e-02,3.000000000000269118e-02,8.200000000000096101e-01,3.800000000000056666e-01,-1.000000000000000000e+00,5.500000000000084821e-01,-3.199999999999931788e-01,1.900000000000046096e-01,-9.699999999999990852e-01,3.200000000000029488e-01,-8.199999999999989519e-01,-1.000000000000000000e+00,-1.000000000000000000e+00,3.100000000000029399e-01,-1.000000000000000000e+00,8.000000000000717648e-02,-8.999999999999981348e-01,-6.999999999999988454e-01,-1.000000000000000000e+00,4.200000000000119194e-01,-5.099999999999942357e-01,-1.000000000000000000e+00,-6.699999999999952660e-01,-1.000000000000000000e+00,-3.999999999999825917e-02,-1.000000000000000000e+00,-1.000000000000000000e+00,-1.699999999999939337e-01,-1.000000000000000000e+00,-6.999999999999295675e-02,-4.099999999999932587e-01,-4.799999999999942091e-01,-1.000000000000000000e+00,-1.000000000000000000e+00,-6.999999999999988454e-01,3.500000000000038636e-01,-1.000000000000000000e+00,-1.000000000000000000e+00,-2.799999999999984723e-01,1.300000000000081091e-01,-1.000000000000000000e+00,-8.099999999999989431e-01,-1.000000000000000000e+00,-1.000000000000000000e+00,-1.000000000000000000e+00,-1.000000000000000000e+00,9.800000000000061995e-01,-1.000000000000000000e+00,-1.000000000000000000e+00,-1.000000000000000000e+00,9.000000000000274447e-02,-1.000000000000000000e+00,-3.299999999999914113e-01,-6.999999999999828582e-02,-3.199999999999887379e-01,-1.000000000000000000e+00,-1.000000000000000000e+00,4.700000000000075229e-01
5.600000000000040501e-01,-1.000000000000000000e+00,7.600000000000051159e-01,-1.000000000000000000e+00,6.600000000000085798e-01,-1.000000000000000000e+00,1.500000000000027978e-01,-7.799999999999971401e-01,5.800000000000076206e-01,-5.799999999999978506e-01,-1.000000000000000000e+00,-1.000000000000000000e+00,-2.899999999999975930e-01,-7.199999999999988631e-01,-1.000000000000000000e+00,2.000000000000357048e-02,-1.000000000000000000e+00,7.800000000000069100e-01,-5.699999999999978417e-01,1.700000000000054801e-01,3.900000000000038991e-01,3.000000000000269118e-02,7.300000000000104183e-01,1.200000000000045475e-01,-8.699999999999989964e-01,5.500000000000084821e-01,-3.199999999999931788e-01,5.800000000000058442e-01,-9.699999999999990852e-01,3.200000000000029488e-01,-1.000000000000000000e+00,-5.299999999999969180e-01,-1.000000000000000000e+00,3.100000000000029399e-01,-1.000000000000000000e+00,8.000000000000717648e-02,-1.000000000000000000e+00,-6.999999999999988454e-01,-1.000000000000000000e+00,-1.699999999999894928e-01,-5.099999999999942357e-01,-1.000000000000000000e+00,-3.099999999999940581e-01,-2.699999999999984635e-01,-1.000000000000000000e+00,-1.000000000000000000e+00,-1.000000000000000000e+00,-5.599999999999978328e-01,-1.000000000000000000e+00,5.700000000000067235e-01,-5.999999999999943157e-01,-6.399999999999952394e-01,-8.199999999999971756e-01,-1.000000000000000000e+00,-6.999999999999988454e-01,-1.000000000000000000e+00,-5.199999999999951328e-01,-1.000000000000000000e+00,-1.000000000000000000e+00,4.500000000000066169e-01,-1.000000000000000000e+00,-5.499999999999987121e-01,-1.000000000000000000e+00,-1.000000000000000000e+00,-8.299999999999989608e-01,-8.099999999999989431e-01,9.800000000000061995e-01,-1.000000000000000000e+00,-1.000000000000000000e+00,-1.000000000000000000e+00,7.000000000000272671e-02,-1.000000000000000000e+00,-1.000000000000000000e+00,-6.999999999999828582e-02,3.800000000000109956e-01,-1.000000000000000000e+00,-8.299999999999971845e-01,3.900000000000065636e-01
5.600000000000040501e-01,-1.000000000000000000e+00,7.600000000000051159e-01,-1.000000000000000000e+00,9.800000000000079758e-01,-1.000000000000000000e+00,1.500000000000027978e-01,2.000000000000028422e-01,2.900000000000064748e-01,-2.299999999999984279e-01,-8.499999999999980904e-01,-1.899999999999975042e-01,-8.599999999999972111e-01,-7.199999999999988631e-01,-1.000000000000000000e+00,2.000000000000357048e-02,-1.000000000000000000e+00,-7.199999999999944222e-01,-5.399999999999987033e-01,1.700000000000054801e-01,3.000000000000269118e-02,3.000000000000269118e-02,8.400000000000105160e-01,1.200000000000045475e-01,-1.000000000000000000e+00,5.500000000000084821e-01,-3.199999999999931788e-01,8.300000000000060663e-01,-1.000000000000000000e+00,3.200000000000029488e-01,-8.199999999999989519e-01,-1.000000000000000000e+00,-9.599999999999955236e-01,3.100000000000029399e-01,-1.000000000000000000e+00,7.000000000000095035e-01,-8.999999999999981348e-01,-6.999999999999988454e-01,-1.000000000000000000e+00,4.200000000000119194e-01,-5.099999999999942357e-01,-8.599999999999989875e-01,-1.000000000000000000e+00,-1.999999999999984013e-01,-3.999999999999825917e-02,-8.599999999999989875e-01,-1.000000000000000000e+00,-1.399999999999983480e-01,-1.000000000000000000e+00,7.100000000000086242e-01,-5.999999999999943157e-01,-4.799999999999942091e-01,-1.000000000000000000e+00,-1.000000000000000000e+00,-6.999999999999988454e-01,3.500000000000038636e-01,-7.099999999999988542e-01,-1.000000000000000000e+00,-1.000000000000000000e+00,-1.000000000000000000e+00,2.700000000000073452e-01,-2.999999999999976019e-01,-1.000000000000000000e+00,-1.000000000000000000e+00,-1.000000000000000000e+00,-1.000000000000000000e+00,9.800000000000061995e-01,-1.000000000000000000e+00,-2.099999999999984102e-01,-1.000000000000000000e+00,9.000000000000274447e-02,-1.000000000000000000e+00,-1.000000000000000000e+00,-6.999999999999828582e-02,2.200000000000117417e-01,-1.000000000000000000e+00,-1.000000000000000000e+00,3.900000000000065636e-01
5.600000000000040501e-01,-1.000000000000000000e+00,7.600000000000051159e-01,-1.000000000000000000e+00,6.600000000000085798e-01,-1.000000000000000000e+00,-7.999999999999971578e-01,-1.899999999999983924e-01,2.900000000000064748e-01,-2.299999999999984279e-01,-8.499999999999980904e-01,-1.000000000000000000e+00,-6.799999999999970512e-01,2.664535259100375697e-15,-1.000000000000000000e+00,-8.199999999999945111e-01,-1.000000000000000000e+00,-7.199999999999944222e-01,-5.399999999999987033e-01,1.700000000000054801e-01,3.100000000000038280e-01,3.000000000000269118e-02,8.200000000000096101e-01,1.200000000000045475e-01,-1.000000000000000000e+00,5.500000000000084821e-01,-7.099999999999926370e-01,8.300000000000060663e-01,-1.000000000000000000e+00,3.200000000000029488e-01,-7.899999999999989253e-01,-9.299999999999990496e-01,-9.599999999999955236e-01,-1.000000000000000000e+00,-1.000000000000000000e+00,8.000000000000717648e-02,-1.000000000000000000e+00,-1.000000000000000000e+00,-9.999999999999991118e-01,-1.699999999999894928e-01,-3.199999999999949551e-01,-1.000000000000000000e+00,-6.699999999999952660e-01,-1.000000000000000000e+00,-1.000000000000000000e+00,-1.000000000000000000e+00,-1.000000000000000000e+00,-1.000000000000000000e+00,-1.000000000000000000e+00,-6.999999999999295675e-02,-5.999999999999943157e-01,-6.399999999999952394e-01,-6.999999999999473310e-02,-1.000000000000000000e+00,-9.099999999999981437e-01,3.500000000000038636e-01,-5.199999999999951328e-01,1.900000000000046096e-01,-1.000000000000000000e+00,4.500000000000066169e-01,-1.000000000000000000e+00,-8.099999999999989431e-01,-1.000000000000000000e+00,-3.999999999999825917e-02,-8.299999999999989608e-01,-1.000000000000000000e+00,9.800000000000061995e-01,-1.000000000000000000e+00,-1.000000000000000000e+00,-1.000000000000000000e+00,-1.000000000000000000e+00,-1.000000000000000000e+00,-3.299999999999914113e-01,-6.999999999999828582e-02,2.200000000000135181e-01,-1.000000000000000000e+00,-1.099999999999974332e-01,3.900000000000065636e-01
6.000000000000449418e-02,-1.000000000000000000e+00,7.600000000000051159e-01,-1.000000000000000000e+00,9.800000000000079758e-01,-1.000000000000000000e+00,1.500000000000027978e-01,2.000000000000028422e-01,2.900000000000064748e-01,-2.299999999999984279e-01,-8.499999999999980904e-01,-1.000000000000000000e+00,-2.099999999999975220e-01,-7.199999999999988631e-01,-5.999999999999827693e-02,2.000000000000357048e-02,-1.000000000000000000e+00,-1.000000000000000000e+00,-5.399999999999987033e-01,1.700000000000054801e-01,3.000000000000269118e-02,3.000000000000269118e-02,8.400000000000105160e-01,1.200000000000045475e-01,-1.000000000000000000e+00,5.500000000000084821e-01,-3.199999999999931788e-01,1.900000000000046096e-01,-1.000000000000000000e+00,3.200000000000029488e-01,-8.099999999999980549e-01,-1.000000000000000000e+00,-9.599999999999955236e-01,3.100000000000029399e-01,-1.000000000000000000e+00,8.700000000000087663e-01,-1.000000000000000000e+00,-1.000000000000000000e+00,-1.000000000000000000e+00,4.200000000000119194e-01,-3.199999999999949551e-01,-1.099999999999974332e-01,-3.599999999999949907e-01,-1.000000000000000000e+00,-1.000000000000000000e+00,-1.000000000000000000e+00,-1.000000000000000000e+00,-1.399999999999983480e-01,-1.000000000000000000e+00,9.300000000000079314e-01,-4.099999999999932587e-01,-4.799999999999942091e-01,-6.999999999999961808e-01,-1.000000000000000000e+00,-6.999999999999988454e-01,3.500000000000038636e-01,-5.199999999999951328e-01,-1.000000000000000000e+00,-1.000000000000000000e+00,-4.299999999999932765e-01,-1.000000000000000000e+00,-8.099999999999989431e-01,-1.000000000000000000e+00,-1.000000000000000000e+00,-1.000000000000000000e+00,-1.000000000000000000e+00,9.400000000000070521e-01,-1.000000000000000000e+00,-3.399999999999985256e-01,-1.000000000000000000e+00,9.000000000000274447e-02,-1.000000000000000000e+00,-1.000000000000000000e+00,6.000000000000271783e-02,3.800000000000109956e-01,-8.999999999999830358e-02,-1.000000000000000000e+00,-1.000000000000000000e+00
5.600000000000040501e-01,-1.000000000000000000e+00,7.600000000000051159e-01,-1.000000000000000000e+00,6.600000000000085798e-01,-1.000000000000000000e+00,1.500000000000027978e-01,2.000000000000028422e-01,2.800000000000064659e-01,-2.299999999999984279e-01,-1.000000000000000000e+00,-1.000000000000000000e+00,-5.799999999999969624e-01,-7.199999999999988631e-01,-1.000000000000000000e+00,2.000000000000357048e-02,-1.000000000000000000e+00,-7.199999999999944222e-01,-1.000000000000000000e+00,1.700000000000054801e-01,3.000000000000269118e-02,3.000000000000269118e-02,8.400000000000105160e-01,1.200000000000045475e-01,-1.000000000000000000e+00,5.500000000000084821e-01,-3.199999999999931788e-01,7.000000000000627942e-02,-9.699999999999990852e-01,3.200000000000029488e-01,-5.899999999999978595e-01,-9.499999999999981792e-01,-1.000000000000000000e+00,-3.499999999999967581e-01,-1.000000000000000000e+00,8.000000000000717648e-02,-1.000000000000000000e+00,-6.999999999999988454e-01,-1.000000000000000000e+00,3.400000000000118483e-01,-5.099999999999942357e-01,-1.000000000000000000e+00,-6.899999999999943956e-01,-1.999999999999984013e-01,-1.000000000000000000e+00,-1.000000000000000000e+00,-1.000000000000000000e+00,-8.099999999999945022e-01,-1.000000000000000000e+00,5.700000000000067235e-01,-6.699999999999952660e-01,-6.399999999999952394e-01,-1.000000000000000000e+00,-1.000000000000000000e+00,-9.299999999999981615e-01,-1.000000000000000000e+00,-1.000000000000000000e+00,1.900000000000046096e-01,-7.199999999999988631e-01,4.500000000000066169e-01,-1.000000000000000000e+00,-5.499999999999987121e-01,-1.000000000000000000e+00,-3.999999999999825917e-02,-1.000000000000000000e+00,-1.000000000000000000e+00,9.800000000000061995e-01,-1.000000000000000000e+00,-1.000000000000000000e+00,-1.000000000000000000e+00,-4.799999999999986500e-01,-1.000000000000000000e+00,-1.000000000000000000e+00,-6.999999999999828582e-02,3.800000000000109956e-01,-1.000000000000000000e+00,-1.099999999999974332e-01,3.900000000000065636e-01
5.600000000000040501e-01,-1.000000000000000000e+00,7.600000000000051159e-01,-1.000000000000000000e+00,6.600000000000085798e-01,-1.000000000000000000e+00,1.500000000000027978e-01,-1.899999999999983924e-01,2.800000000000064659e-01,-2.299999999999984279e-01,-8.499999999999980904e-01,-1.000000000000000000e+00,-2.099999999999975220e-01,-4.799999999999977618e-01,-8.499999999999989786e-01,8.200000000000051692e-01,-1.000000000000000000e+00,7.800000000000069100e-01,-5.399999999999987033e-01,1.700000000000054801e-01,3.000000000000269118e-02,3.000000000000269118e-02,8.400000000000105160e-01,9.900000000000062084e-01,-1.000000000000000000e+00,5.500000000000084821e-01,-3.199999999999931788e-01,1.900000000000046096e-01,-1.000000000000000000e+00,3.200000000000029488e-01,-8.199999999999989519e-01,-9.499999999999981792e-01,-9.599999999999955236e-01,-1.000000000000000000e+00,-1.000000000000000000e+00,8.000000000000717648e-02,-1.000000000000000000e+00,-1.000000000000000000e+00,-9.999999999999991118e-01,-1.699999999999894928e-01,-5.099999999999942357e-01,-1.000000000000000000e+00,-1.000000000000000000e+00,-1.000000000000000000e+00,-1.000000000000000000e+00,-1.000000000000000000e+00,-1.000000000000000000e+00,-1.000000000000000000e+00,-1.000000000000000000e+00,-6.999999999999295675e-02,4.700000000000084110e-01,-4.799999999999942091e-01,-6.999999999999961808e-01,-1.000000000000000000e+00,-6.999999999999988454e-01,3.500000000000038636e-01,-5.199999999999951328e-01,-1.000000000000000000e+00,-1.000000000000000000e+00,1.900000000000072742e-01,-1.000000000000000000e+00,-8.099999999999989431e-01,-1.000000000000000000e+00,-1.000000000000000000e+00,-8.299999999999989608e-01,-1.000000000000000000e+00,1.200000000000063238e-01,-1.000000000000000000e+00,-2.099999999999984102e-01,-1.000000000000000000e+00,-1.000000000000000000e+00,-1.000000000000000000e+00,-3.299999999999914113e-01,-6.999999999999828582e-02,3.800000000000109956e-01,-1.000000000000000000e+00,-1.099999999999974332e-01,3.900000000000065636e-01
5.600000000000040501e-01,-1.000000000000000000e+00,7.600000000000051159e-01,-1.000000000000000000e+00,9.800000000000079758e-01,-1.000000000000000000e+00,1.500000000000027978e-01,2.000000000000028422e-01,2.800000000000064659e-01,-2.299999999999984279e-01,-1.000000000000000000e+00,-1.000000000000000000e+00,-5.799999999999969624e-01,-4.799999999999977618e-01,-8.499999999999989786e-01,2.000000000000357048e-02,-9.299999999999990496e-01,-7.199999999999944222e-01,-5.699999999999978417e-01,1.700000000000054801e-01,3.000000000000269118e-02,3.000000000000269118e-02,8.200000000000096101e-01,9.700000000000061906e-01,-1.000000000000000000e+00,5.500000000000084821e-01,-3.199999999999931788e-01,8.300000000000060663e-01,-9.699999999999990852e-01,3.200000000000029488e-01,-5.899999999999978595e-01,-9.499999999999981792e-01,-1.000000000000000000e+00,3.100000000000029399e-01,-8.899999999999990141e-01,8.000000000000717648e-02,-1.000000000000000000e+00,-6.999999999999988454e-01,-3.399999999999985256e-01,-1.699999999999894928e-01,-3.199999999999949551e-01,-1.000000000000000000e+00,-3.099999999999940581e-01,-2.699999999999984635e-01,-1.000000000000000000e+00,-8.599999999999989875e-01,-1.000000000000000000e+00,-1.699999999999939337e-01,-1.000000000000000000e+00,5.700000000000067235e-01,-2.399999999999939959e-01,-4.799999999999942091e-01,-6.999999999999961808e-01,-1.000000000000000000e+00,-6.999999999999988454e-01,-1.000000000000000000e+00,-5.199999999999951328e-01,-1.000000000000000000e+00,-1.000000000000000000e+00,4.500000000000066169e-01,-1.000000000000000000e+00,-8.099999999999989431e-01,-1.000000000000000000e+00,-4.199999999999977085e-01,-8.299999999999989608e-01,-1.000000000000000000e+00,9.800000000000061995e-01,-1.000000000000000000e+00,-1.000000000000000000e+00,-1.000000000000000000e+00,-4.799999999999986500e-01,-1.000000000000000000e+00,-8.199999999999900702e-01,6.900000000000032774e-01,3.800000000000109956e-01,-1.000000000000000000e+00,-1.099999999999974332e-01,3.900000000000065636e-01
5.600000000000040501e-01,-1.000000000000000000e+00,7.600000000000051159e-01,-1.000000000000000000e+00,6.600000000000085798e-01,-1.000000000000000000e+00,6.600000000000041389e-01,7.000000000000361489e-02,2.800000000000064659e-01,-2.299999999999984279e-01,-8.499999999999980904e-01,-1.000000000000000000e+00,-2.899999999999975930e-01,-7.199999999999988631e-01,-1.000000000000000000e+00,2.000000000000357048e-02,-1.000000000000000000e+00,-2.099999999999939693e-01,-5.699999999999978417e-01,1.700000000000054801e-01,3.000000000000269118e-02,3.000000000000269118e-02,7.300000000000104183e-01,1.200000000000045475e-01,-8.699999999999989964e-01,5.500000000000084821e-01,-3.199999999999931788e-01,5.800000000000058442e-01,-9.699999999999990852e-01,3.200000000000029488e-01,-8.199999999999989519e-01,-9.499999999999981792e-01,-4.699999999999942002e-01,3.100000000000029399e-01,-1.000000000000000000e+00,8.000000000000717648e-02,-1.000000000000000000e+00,-6.999999999999988454e-01,-9.999999999999991118e-01,4.200000000000119194e-01,-3.199999999999949551e-01,-1.000000000000000000e+00,-3.099999999999940581e-01,-4.999999999999977796e-01,-1.000000000000000000e+00,-1.000000000000000000e+00,-1.000000000000000000e+00,-1.699999999999939337e-01,-1.000000000000000000e+00,5.700000000000067235e-01,-6.699999999999952660e-01,-6.399999999999952394e-01,-8.199999999999971756e-01,-5.499999999999987121e-01,-6.999999999999988454e-01,-1.000000000000000000e+00,-5.199999999999951328e-01,-1.000000000000000000e+00,-8.899999999999990141e-01,4.500000000000066169e-01,-1.000000000000000000e+00,-8.099999999999989431e-01,-1.000000000000000000e+00,-1.000000000000000000e+00,-1.000000000000000000e+00,-1.000000000000000000e+00,9.800000000000061995e-01,-9.999999999999991118e-01,-1.000000000000000000e+00,-1.000000000000000000e+00,-5.299999999999969180e-01,-1.000000000000000000e+00,-1.099999999999983213e-01,-6.999999999999828582e-02,3.800000000000109956e-01,-1.000000000000000000e+00,-1.099999999999974332e-01,3.900000000000065636e-01
5.600000000000040501e-01,-8.899999999999990141e-01,7.600000000000051159e-01,-1.000000000000000000e+00,6.600000000000085798e-01,-1.000000000000000000e+00,1.500000000000027978e-01,-9.999999999999742428e-02,2.900000000000064748e-01,-1.000000000000000000e+00,-1.000000000000000000e+00,-1.000000000000000000e+00,-2.099999999999975220e-01,-7.199999999999988631e-01,-9.699999999999981970e-01,2.000000000000357048e-02,-1.999999999999824141e-02,-7.199999999999944222e-01,-5.399999999999987033e-01,1.700000000000054801e-01,3.000000000000269118e-02,3.000000000000269118e-02,8.400000000000105160e-01,1.200000000000045475e-01,-1.000000000000000000e+00,5.500000000000084821e-01,-3.199999999999931788e-01,5.800000000000058442e-01,-9.699999999999990852e-01,3.200000000000029488e-01,-8.199999999999989519e-01,-1.000000000000000000e+00,-1.000000000000000000e+00,3.100000000000029399e-01,-1.000000000000000000e+00,8.700000000000087663e-01,-8.999999999999981348e-01,2.664535259100375697e-15,-1.000000000000000000e+00,-1.699999999999894928e-01,-5.099999999999942357e-01,-1.000000000000000000e+00,-5.599999999999942801e-01,-1.000000000000000000e+00,-3.999999999999825917e-02,-1.000000000000000000e+00,-1.000000000000000000e+00,-1.399999999999983480e-01,-1.000000000000000000e+00,5.700000000000067235e-01,-5.999999999999943157e-01,-4.799999999999942091e-01,-1.000000000000000000e+00,-1.000000000000000000e+00,-6.899999999999979483e-01,-1.000000000000000000e+00,-5.199999999999951328e-01,-1.000000000000000000e+00,-4.299999999999986056e-01,1.900000000000072742e-01,-1.000000000000000000e+00,-2.999999999999976019e-01,-1.000000000000000000e+00,-1.000000000000000000e+00,-1.000000000000000000e+00,-1.000000000000000000e+00,-1.000000000000000000e+00,-1.000000000000000000e+00,-1.000000000000000000e+00,-1.000000000000000000e+00,9.000000000000274447e-02,-1.000000000000000000e+00,-1.000000000000000000e+00,-6.999999999999828582e-02,3.800000000000109956e-01,-1.000000000000000000e+00,-1.000000000000000000e+00,3.900000000000065636e-01
5.600000000000040501e-01,-1.000000000000000000e+00,-1.000000000000000000e+00,-1.000000000000000000e+00,9.800000000000079758e-01,-1.000000000000000000e+00,1.500000000000027978e-01,2.000000000000028422e-01,2.900000000000064748e-01,1.900000000000028333e-01,-1.000000000000000000e+00,-1.000000000000000000e+00,-2.899999999999975930e-01,-7.199999999999988631e-01,-5.999999999999827693e-02,2.600000000000055600e-01,-1.000000000000000000e+00,-2.099999999999939693e-01,-5.399999999999987033e-01,1.700000000000054801e-01,3.000000000000269118e-02,3.000000000000269118e-02,9.100000000000105782e-01,1.200000000000045475e-01,-8.499999999999989786e-01,5.500000000000084821e-01,-7.399999999999926636e-01,6.500000000000067946e-01,-9.699999999999990852e-01,3.200000000000029488e-01,-7.899999999999989253e-01,-1.000000000000000000e+00,-4.699999999999942002e-01,3.100000000000029399e-01,-1.000000000000000000e+00,8.700000000000087663e-01,-8.999999999999981348e-01,-6.999999999999988454e-01,-9.999999999999991118e-01,4.200000000000119194e-01,-5.099999999999942357e-01,-1.000000000000000000e+00,-3.599999999999949907e-01,-1.000000000000000000e+00,-3.999999999999825917e-02,-8.599999999999989875e-01,-1.000000000000000000e+00,-5.599999999999978328e-01,-1.000000000000000000e+00,5.700000000000067235e-01,-5.999999999999943157e-01,-6.399999999999952394e-01,-8.199999999999971756e-01,-1.000000000000000000e+00,6.000000000000271783e-02,-1.000000000000000000e+00,-1.000000000000000000e+00,1.900000000000046096e-01,-1.000000000000000000e+00,4.500000000000066169e-01,-1.000000000000000000e+00,-5.499999999999987121e-01,-1.000000000000000000e+00,-1.000000000000000000e+00,-1.000000000000000000e+00,-1.000000000000000000e+00,9.800000000000061995e-01,-9.999999999999991118e-01,-1.000000000000000000e+00,-2.399999999999984368e-01,9.000000000000274447e-02,-1.000000000000000000e+00,-1.000000000000000000e+00,-6.999999999999828582e-02,-3.099999999999878408e-01,-1.000000000000000000e+00,-1.000000000000000000e+00,4.700000000000075229e-01
5.600000000000040501e-01,-1.000000000000000000e+00,7.600000000000051159e-01,-1.000000000000000000e+00,6.600000000000085798e-01,-1.000000000000000000e+00,6.900000000000041656e-01,-9.999999999999742428e-02,2.900000000000064748e-01,-2.299999999999984279e-01,-1.000000000000000000e+00,-1.000000000000000000e+00,-2.899999999999975930e-01,-1.299999999999965627e-01,-1.000000000000000000e+00,-9.299999999999954969e-01,-1.000000000000000000e+00,-7.199999999999944222e-01,-5.399999999999987033e-01,-2.199999999999939782e-01,3.500000000000038636e-01,3.000000000000269118e-02,8.200000000000096101e-01,-3.899999999999950173e-01,-8.699999999999989964e-01,5.500000000000084821e-01,-4.099999999999923705e-01,8.300000000000060663e-01,-9.699999999999990852e-01,3.200000000000029488e-01,-3.699999999999976641e-01,-9.299999999999990496e-01,-4.699999999999942002e-01,3.100000000000029399e-01,-1.000000000000000000e+00,8.700000000000087663e-01,-1.000000000000000000e+00,-9.299999999999981615e-01,-9.999999999999991118e-01,4.200000000000119194e-01,-5.099999999999942357e-01,-1.000000000000000000e+00,-6.699999999999952660e-01,-1.000000000000000000e+00,-1.000000000000000000e+00,-8.599999999999989875e-01,-6.199999999999987743e-01,-1.000000000000000000e+00,-1.000000000000000000e+00,5.700000000000067235e-01,-5.999999999999943157e-01,-6.399999999999952394e-01,-1.000000000000000000e+00,-1.000000000000000000e+00,-6.999999999999988454e-01,-1.000000000000000000e+00,-1.000000000000000000e+00,1.900000000000046096e-01,-8.299999999999989608e-01,4.500000000000066169e-01,-1.000000000000000000e+00,-3.899999999999985700e-01,-1.000000000000000000e+00,-1.000000000000000000e+00,-1.000000000000000000e+00,-1.000000000000000000e+00,9.800000000000061995e-01,-1.000000000000000000e+00,-1.000000000000000000e+00,-1.000000000000000000e+00,-5.299999999999969180e-01,-1.000000000000000000e+00,-8.199999999999900702e-01,-6.999999999999828582e-02,3.500000000000136335e-01,-1.000000000000000000e+00,-1.000000000000000000e+00,3.900000000000065636e-01
3.000000000000446754e-02,-1.000000000000000000e+00,7.600000000000051159e-01,-1.000000000000000000e+00,6.600000000000085798e-01,-1.000000000000000000e+00,1.500000000000027978e-01,-9.999999999999742428e-02,6.500000000000076827e-01,-2.299999999999984279e-01,-8.499999999999980904e-01,-1.000000000000000000e+00,-2.099999999999975220e-01,4.100000000000048050e-01,-1.000000000000000000e+00,-9.299999999999954969e-01,-1.000000000000000000e+00,7.800000000000069100e-01,-5.699999999999978417e-01,1.700000000000054801e-01,3.000000000000269118e-02,3.000000000000269118e-02,8.400000000000105160e-01,1.200000000000045475e-01,-1.000000000000000000e+00,5.500000000000084821e-01,-4.099999999999923705e-01,5.800000000000058442e-01,-9.699999999999990852e-01,3.200000000000029488e-01,-8.199999999999989519e-01,-9.499999999999981792e-01,-1.000000000000000000e+00,3.100000000000029399e-01,-1.000000000000000000e+00,8.000000000000717648e-02,7.000000000000361489e-02,-6.999999999999988454e-01,-9.999999999999991118e-01,4.200000000000119194e-01,-5.099999999999942357e-01,-1.000000000000000000e+00,-1.000000000000000000e+00,-2.699999999999984635e-01,-1.000000000000000000e+00,-1.000000000000000000e+00,-1.000000000000000000e+00,-1.699999999999939337e-01,-1.000000000000000000e+00,5.700000000000067235e-01,-9.999999999992903454e-03,4.000000000000625278e-02,-1.000000000000000000e+00,-1.000000000000000000e+00,-6.999999999999988454e-01,-1.000000000000000000e+00,-5.199999999999951328e-01,-1.000000000000000000e+00,-8.299999999999989608e-01,4.500000000000066169e-01,-1.000000000000000000e+00,-2.599999999999975664e-01,-1.000000000000000000e+00,-1.000000000000000000e+00,-4.899999999999986589e-01,-1.000000000000000000e+00,-1.000000000000000000e+00,-1.000000000000000000e+00,-1.000000000000000000e+00,-1.000000000000000000e+00,-4.799999999999986500e-01,-1.000000000000000000e+00,-8.699999999999892264e-01,-6.999999999999828582e-02,3.800000000000109956e-01,-1.000000000000000000e+00,-1.000000000000000000e+00,6.700000000000077005e-01
-1.000000000000000000e+00,-1.000000000000000000e+00,7.600000000000051159e-01,-1.899999999999983924e-01,9.800000000000079758e-01,-1.000000000000000000e+00,1.500000000000027978e-01,2.000000000000028422e-01,2.800000000000064659e-01,-2.299999999999984279e-01,-1.000000000000000000e+00,-1.000000000000000000e+00,-2.099999999999975220e-01,-7.199999999999988631e-01,-5.999999999999827693e-02,2.000000000000357048e-02,-1.000000000000000000e+00,-1.000000000000000000e+00,-5.399999999999987033e-01,1.700000000000054801e-01,3.000000000000269118e-02,3.000000000000269118e-02,8.400000000000105160e-01,1.200000000000045475e-01,-1.000000000000000000e+00,5.500000000000084821e-01,-3.199999999999931788e-01,8.300000000000060663e-01,-9.699999999999990852e-01,3.200000000000029488e-01,-8.199999999999989519e-01,-1.000000000000000000e+00,-9.599999999999955236e-01,3.100000000000029399e-01,-8.899999999999990141e-01,8.700000000000087663e-01,-1.000000000000000000e+00,-6.999999999999988454e-01,-9.999999999999991118e-01,4.200000000000119194e-01,-3.199999999999949551e-01,-1.000000000000000000e+00,-3.599999999999949907e-01,-8.499999999999989786e-01,-9.199999999999990408e-01,-1.000000000000000000e+00,-1.000000000000000000e+00,-1.699999999999939337e-01,-1.000000000000000000e+00,5.700000000000067235e-01,-4.099999999999932587e-01,-4.799999999999942091e-01,-6.999999999999961808e-01,-1.000000000000000000e+00,-6.999999999999988454e-01,3.500000000000038636e-01,-5.199999999999951328e-01,-1.000000000000000000e+00,-1.000000000000000000e+00,1.900000000000072742e-01,2.700000000000073452e-01,-8.099999999999989431e-01,-1.000000000000000000e+00,-1.000000000000000000e+00,-1.000000000000000000e+00,-9.799999999999990941e-01,7.700000000000069011e-01,-9.999999999999991118e-01,-1.000000000000000000e+00,-1.000000000000000000e+00,9.000000000000274447e-02,-4.399999999999986144e-01,-1.000000000000000000e+00,-6.999999999999828582e-02,3.800000000000109956e-01,-1.000000000000000000e+00,-1.000000000000000000e+00,3.900000000000065636e-01
5.600000000000040501e-01,-1.000000000000000000e+00,7.600000000000051159e-01,-1.000000000000000000e+00,9.800000000000079758e-01,-1.000000000000000000e+00,1.500000000000027978e-01,-1.899999999999983924e-01,-1.000000000000000000e+00,-2.299999999999984279e-01,-1.000000000000000000e+00,-1.000000000000000000e+00,-2.099999999999975220e-01,-3.199999999999967315e-01,-1.000000000000000000e+00,2.600000000000055600e-01,-1.000000000000000000e+00,7.800000000000069100e-01,-5.399999999999987033e-01,1.700000000000054801e-01,3.000000000000269118e-02,3.000000000000269118e-02,8.400000000000105160e-01,1.200000000000045475e-01,-1.000000000000000000e+00,5.500000000000084821e-01,-3.199999999999931788e-01,1.900000000000046096e-01,-1.000000000000000000e+00,3.200000000000029488e-01,-5.899999999999978595e-01,-9.499999999999981792e-01,-9.599999999999955236e-01,-1.000000000000000000e+00,-1.000000000000000000e+00,8.000000000000717648e-02,-1.000000000000000000e+00,-6.899999999999979483e-01,-7.599999999999980105e-01,-1.699999999999894928e-01,-5.099999999999942357e-01,-1.199999999999983302e-01,-5.899999999999943068e-01,-1.000000000000000000e+00,-1.000000000000000000e+00,-1.000000000000000000e+00,-1.000000000000000000e+00,-8.099999999999945022e-01,-1.000000000000000000e+00,-6.999999999999295675e-02,-4.099999999999932587e-01,-4.799999999999942091e-01,-6.999999999999961808e-01,-1.000000000000000000e+00,-6.999999999999988454e-01,3.500000000000038636e-01,-5.199999999999951328e-01,-1.000000000000000000e+00,-7.199999999999988631e-01,-4.299999999999932765e-01,2.700000000000073452e-01,-5.499999999999987121e-01,-1.000000000000000000e+00,-1.000000000000000000e+00,-1.000000000000000000e+00,-1.000000000000000000e+00,9.400000000000070521e-01,-1.000000000000000000e+00,-1.000000000000000000e+00,-1.000000000000000000e+00,-5.299999999999969180e-01,-1.000000000000000000e+00,-3.299999999999914113e-01,6.900000000000032774e-01,3.800000000000109956e-01,-1.000000000000000000e+00,-1.000000000000000000e+00,3.900000000000065636e-01
5.600000000000040501e-01,-1.000000000000000000e+00,7.600000000000051159e-01,-1.000000000000000000e+00,6.600000000000085798e-01,-1.000000000000000000e+00,-6.599999999999970335e-01,-1.899999999999983924e-01,2.800000000000064659e-01,-2.299999999999984279e-01,-1.000000000000000000e+00,-1.000000000000000000e+00,-2.899999999999975930e-01,2.664535259100375697e-15,-1.000000000000000000e+00,2.000000000000357048e-02,-1.000000000000000000e+00,-1.399999999999930189e-01,-5.399999999999987033e-01,1.700000000000054801e-01,3.000000000000269118e-02,3.000000000000269118e-02,-1.000000000000000000e+00,1.200000000000045475e-01,-8.699999999999989964e-01,5.500000000000084821e-01,-3.199999999999931788e-01,5.800000000000058442e-01,-9.699999999999990852e-01,3.200000000000029488e-01,-8.199999999999989519e-01,-9.499999999999981792e-01,-4.699999999999942002e-01,3.100000000000029399e-01,-1.000000000000000000e+00,8.000000000000717648e-02,-1.000000000000000000e+00,-6.999999999999988454e-01,-9.999999999999991118e-01,4.200000000000119194e-01,-5.099999999999942357e-01,-1.000000000000000000e+00,-3.599999999999949907e-01,-1.000000000000000000e+00,-1.000000000000000000e+00,-1.000000000000000000e+00,-1.000000000000000000e+00,-4.499999999999932943e-01,-1.000000000000000000e+00,-6.999999999999295675e-02,-4.099999999999932587e-01,-6.399999999999952394e-01,-6.999999999999961808e-01,-5.499999999999987121e-01,-6.999999999999988454e-01,2.900000000000046985e-01,-1.000000000000000000e+00,1.900000000000046096e-01,-1.000000000000000000e+00,4.500000000000066169e-01,-1.000000000000000000e+00,-8.099999999999989431e-01,-1.000000000000000000e+00,-1.000000000000000000e+00,-1.000000000000000000e+00,-1.000000000000000000e+00,9.800000000000061995e-01,-9.999999999999991118e-01,-1.000000000000000000e+00,-1.000000000000000000e+00,-5.299999999999969180e-01,-1.000000000000000000e+00,-1.000000000000000000e+00,-6.999999999999828582e-02,3.800000000000109956e-01,-1.000000000000000000e+00,-1.000000000000000000e+00,3.900000000000065636e-01
