5.600000000000040501e-01,-1.000000000000000000e+00,7.600000000000051159e-01,-1.000000000000000000e+00,7.600000000000095568e-01,-1.000000000000000000e+00,1.500000000000027978e-01,-4.999999999999942268e-01,5.000000000000093259e-01,-2.299999999999984279e-01,-1.000000000000000000e+00,-3.699999999999985523e-01,-9.999999999999973355e-01,-9.699999999999955325e-01,2.100000000000028511e-01,-1.000000000000000000e+00,-1.000000000000000000e+00,-7.799999999999980282e-01,1.600000000000036948e-01,2.900000000000064748e-01,-2.999999999999647393e-02,-3.399999999999949729e-01,6.300000000000112177e-01,1.200000000000045475e-01,-7.899999999999989253e-01,5.500000000000084821e-01,-4.899999999999924416e-01,5.800000000000058442e-01,-9.699999999999990852e-01,2.700000000000037925e-01,-4.999999999999471534e-02,-5.199999999999986855e-01,-1.000000000000000000e+00,8.100000000000042721e-01,-9.799999999999990941e-01,-7.499999999999926725e-01,-1.000000000000000000e+00,-1.000000000000000000e+00,2.600000000000028955e-01,-1.699999999999894928e-01,-2.199999999999922018e-01,-1.000000000000000000e+00,-8.299999999999927436e-01,1.100000000000036504e-01,-1.000000000000000000e+00,-5.899999999999969713e-01,-6.799999999999979394e-01,-5.899999999999987477e-01,-1.000000000000000000e+00,-1.699999999999894928e-01,-1.000000000000000000e+00,-1.000000000000000000e+00,-1.299999999999983391e-01,-1.000000000000000000e+00,-1.000000000000000000e+00,-8.999999999999741540e-02,-1.000000000000000000e+00,-1.000000000000000000e+00,-1.000000000000000000e+00,4.500000000000066169e-01,-1.000000000000000000e+00,-8.099999999999989431e-01,-3.099999999999976108e-01,4.800000000000057554e-01,-9.599999999999981881e-01,-8.699999999999989964e-01,7.100000000000068479e-01,-1.000000000000000000e+00,-9.599999999999990763e-01,-1.000000000000000000e+00,-1.000000000000000000e+00,-5.199999999999986855e-01,-3.499999999999985345e-01,-4.399999999999977263e-01,3.800000000000109956e-01,-1.000000000000000000e+00,-1.000000000000000000e+00,-1.000000000000000000e+00
5.600000000000040501e-01,-1.000000000000000000e+00,7.600000000000051159e-01,-1.000000000000000000e+00,7.600000000000095568e-01,-1.000000000000000000e+00,1.500000000000027978e-01,4.400000000000048317e-01,5.000000000000093259e-01,-2.299999999999984279e-01,-1.000000000000000000e+00,-1.000000000000000000e+00,-8.899999999999981259e-01,-9.699999999999955325e-01,8.600000000000034284e-01,1.800000000000081535e-01,-1.000000000000000000e+00,-8.399999999999989697e-01,1.600000000000036948e-01,-8.599999999999989875e-01,-2.999999999999647393e-02,-3.399999999999949729e-01,7.900000000000113598e-01,3.200000000000065015e-01,-9.699999999999990852e-01,6.200000000000094325e-01,-4.899999999999924416e-01,8.400000000000069633e-01,-9.699999999999990852e-01,2.700000000000037925e-01,-1.000000000000000000e+00,-5.199999999999986855e-01,-1.000000000000000000e+00,8.100000000000042721e-01,-9.799999999999990941e-01,-5.499999999999924949e-01,-1.000000000000000000e+00,-1.000000000000000000e+00,-7.499999999999971134e-01,-1.699999999999894928e-01,5.600000000000093792e-01,-1.000000000000000000e+00,-1.000000000000000000e+00,-3.499999999999976463e-01,-1.000000000000000000e+00,-1.099999999999965450e-01,-5.699999999999987299e-01,-2.399999999999984368e-01,-1.000000000000000000e+00,-1.699999999999894928e-01,-7.099999999999988542e-01,-8.999999999999119815e-02,-1.299999999999983391e-01,-1.000000000000000000e+00,-1.000000000000000000e+00,1.100000000000027622e-01,-6.999999999999828582e-02,-1.000000000000000000e+00,-1.000000000000000000e+00,-1.799999999999930544e-01,-1.000000000000000000e+00,-8.099999999999989431e-01,2.100000000000037392e-01,4.200000000000048139e-01,-1.000000000000000000e+00,-1.000000000000000000e+00,7.100000000000068479e-01,-1.000000000000000000e+00,-9.599999999999990763e-01,-1.000000000000000000e+00,-1.000000000000000000e+00,-1.000000000000000000e+00,-1.000000000000000000e+00,-1.000000000000000000e+00,4.200000000000145839e-01,-1.000000000000000000e+00,-1.000000000000000000e+00,-1.000000000000000000e+00
5.600000000000040501e-01,-1.000000000000000000e+00,7.600000000000051159e-01,-1.000000000000000000e+00,9.200000000000105871e-01,-1.000000000000000000e+00,1.500000000000027978e-01,-4.599999999999959677e-01,5.000000000000093259e-01,-2.299999999999984279e-01,-1.000000000000000000e+00,-1.699999999999983746e-01,-8.899999999999981259e-01,-9.299999999999946088e-01,-1.000000000000000000e+00,-1.000000000000000000e+00,-9.299999999999990496e-01,1.900000000000037215e-01,-5.399999999999987033e-01,-6.099999999999969891e-01,-2.999999999999647393e-02,-4.099999999999950351e-01,8.400000000000105160e-01,3.200000000000065015e-01,-1.000000000000000000e+00,1.600000000000108002e-01,-4.899999999999924416e-01,8.400000000000069633e-01,-9.699999999999990852e-01,3.200000000000029488e-01,-1.000000000000000000e+00,-1.000000000000000000e+00,-1.000000000000000000e+00,8.100000000000042721e-01,1.400000000000027889e-01,-5.499999999999924949e-01,-1.000000000000000000e+00,-1.999999999999824141e-02,-7.199999999999988631e-01,-1.699999999999894928e-01,2.800000000000073541e-01,-1.000000000000000000e+00,6.000000000000893507e-02,-3.499999999999976463e-01,2.600000000000037836e-01,-1.799999999999966072e-01,-6.799999999999979394e-01,3.600000000000029843e-01,-1.000000000000000000e+00,-1.699999999999894928e-01,-1.000000000000000000e+00,-1.000000000000000000e+00,1.100000000000027622e-01,-1.000000000000000000e+00,-1.000000000000000000e+00,3.400000000000029665e-01,-1.000000000000000000e+00,-9.699999999999990852e-01,-1.000000000000000000e+00,4.500000000000066169e-01,-1.000000000000000000e+00,-8.099999999999989431e-01,-6.299999999999952305e-01,1.400000000000063416e-01,-1.000000000000000000e+00,-8.699999999999989964e-01,4.300000000000074873e-01,-1.000000000000000000e+00,-1.000000000000000000e+00,-1.000000000000000000e+00,-9.999999999997344347e-03,-8.799999999999981171e-01,-1.000000000000000000e+00,-1.000000000000000000e+00,4.200000000000145839e-01,-6.999999999999988454e-01,-1.000000000000000000e+00,-1.000000000000000000e+00
5.600000000000040501e-01,-1.000000000000000000e+00,7.600000000000051159e-01,-1.000000000000000000e+00,7.600000000000095568e-01,-8.899999999999990141e-01,1.500000000000027978e-01,-4.599999999999959677e-01,5.000000000000093259e-01,-2.299999999999984279e-01,-1.000000000000000000e+00,-3.699999999999985523e-01,-8.899999999999981259e-01,-1.000000000000000000e+00,-1.099999999999983213e-01,1.800000000000081535e-01,-1.000000000000000000e+00,1.900000000000037215e-01,1.600000000000036948e-01,2.900000000000064748e-01,4.900000000000048761e-01,-3.399999999999949729e-01,8.400000000000105160e-01,1.200000000000045475e-01,-1.000000000000000000e+00,5.500000000000084821e-01,-4.899999999999924416e-01,5.800000000000058442e-01,-1.000000000000000000e+00,2.700000000000037925e-01,-4.999999999999471534e-02,-5.199999999999986855e-01,-1.000000000000000000e+00,8.100000000000042721e-01,-9.799999999999990941e-01,-3.899999999999914646e-01,-1.000000000000000000e+00,-1.000000000000000000e+00,-7.199999999999988631e-01,-1.699999999999894928e-01,-2.199999999999922018e-01,-1.000000000000000000e+00,-1.000000000000000000e+00,5.700000000000040590e-01,-2.699999999999966871e-01,-1.099999999999965450e-01,-5.699999999999987299e-01,-9.399999999999981704e-01,-1.000000000000000000e+00,-1.699999999999894928e-01,-7.099999999999988542e-01,-1.299999999999903455e-01,-1.000000000000000000e+00,-1.000000000000000000e+00,-1.000000000000000000e+00,-3.099999999999984990e-01,-1.000000000000000000e+00,-2.999999999999647393e-02,-1.000000000000000000e+00,4.500000000000066169e-01,-1.000000000000000000e+00,-1.000000000000000000e+00,2.100000000000037392e-01,4.800000000000057554e-01,-2.999999999999984901e-01,-8.699999999999989964e-01,7.100000000000068479e-01,-1.000000000000000000e+00,-9.599999999999990763e-01,-6.499999999999988010e-01,-1.000000000000000000e+00,-1.000000000000000000e+00,-3.499999999999985345e-01,-1.000000000000000000e+00,3.800000000000109956e-01,-1.000000000000000000e+00,-1.000000000000000000e+00,-1.000000000000000000e+00
2.300000000000046452e-01,-1.000000000000000000e+00,7.600000000000051159e-01,-1.000000000000000000e+00,7.600000000000095568e-01,-1.000000000000000000e+00,5.000000000000359712e-02,-4.599999999999959677e-01,5.000000000000093259e-01,-2.299999999999984279e-01,-1.000000000000000000e+00,-1.000000000000000000e+00,-8.899999999999981259e-01,-9.699999999999955325e-01,-1.000000000000000000e+00,-7.899999999999918199e-01,-1.000000000000000000e+00,1.900000000000037215e-01,-5.399999999999987033e-01,-8.599999999999989875e-01,-2.999999999999647393e-02,-2.999999999999949374e-01,7.900000000000113598e-01,3.200000000000065015e-01,-9.699999999999990852e-01,6.200000000000094325e-01,-4.899999999999924416e-01,5.800000000000058442e-01,-9.699999999999990852e-01,2.700000000000037925e-01,-1.000000000000000000e+00,2.700000000000029043e-01,-6.399999999999987921e-01,8.100000000000042721e-01,-9.399999999999990585e-01,-5.499999999999924949e-01,-1.000000000000000000e+00,-1.000000000000000000e+00,-1.999999999999735323e-02,-1.699999999999894928e-01,-3.699999999999923350e-01,-1.000000000000000000e+00,-1.000000000000000000e+00,-3.499999999999976463e-01,-1.000000000000000000e+00,-1.999999999999975131e-01,-6.799999999999979394e-01,-2.399999999999984368e-01,-1.000000000000000000e+00,-1.699999999999894928e-01,-1.000000000000000000e+00,-1.000000000000000000e+00,8.700000000000043254e-01,-1.000000000000000000e+00,-1.000000000000000000e+00,-3.099999999999984990e-01,-1.000000000000000000e+00,-1.000000000000000000e+00,2.500000000000055511e-01,4.500000000000066169e-01,-1.000000000000000000e+00,-8.099999999999989431e-01,2.100000000000037392e-01,4.800000000000057554e-01,-1.000000000000000000e+00,-8.699999999999989964e-01,7.100000000000068479e-01,-1.000000000000000000e+00,-1.000000000000000000e+00,-1.000000000000000000e+00,-5.599999999999987210e-01,-1.000000000000000000e+00,-1.000000000000000000e+00,-1.000000000000000000e+00,3.800000000000109956e-01,-7.799999999999989164e-01,-1.000000000000000000e+00,-1.000000000000000000e+00
5.600000000000040501e-01,-1.000000000000000000e+00,7.600000000000051159e-01,-1.000000000000000000e+00,9.200000000000105871e-01,-1.000000000000000000e+00,1.500000000000027978e-01,-4.599999999999959677e-01,7.400000000000095390e-01,-2.299999999999984279e-01,-1.000000000000000000e+00,-1.699999999999983746e-01,-8.899999999999981259e-01,-9.299999999999946088e-01,-1.000000000000000000e+00,1.800000000000081535e-01,-9.299999999999990496e-01,1.900000000000037215e-01,-5.399999999999987033e-01,6.700000000000077005e-01,-2.999999999999647393e-02,-4.099999999999950351e-01,8.400000000000105160e-01,3.200000000000065015e-01,-1.000000000000000000e+00,6.200000000000094325e-01,-4.899999999999924416e-01,5.800000000000058442e-01,-9.699999999999990852e-01,2.700000000000037925e-01,-1.000000000000000000e+00,-1.000000000000000000e+00,-1.000000000000000000e+00,8.100000000000042721e-01,1.400000000000027889e-01,-5.499999999999924949e-01,-1.000000000000000000e+00,-1.000000000000000000e+00,-7.199999999999988631e-01,-1.699999999999894928e-01,6.000000000000085265e-01,-1.000000000000000000e+00,6.000000000000893507e-02,-3.499999999999976463e-01,-1.000000000000000000e+00,-1.999999999999975131e-01,-6.799999999999979394e-01,3.600000000000029843e-01,-1.000000000000000000e+00,-1.699999999999894928e-01,-1.000000000000000000e+00,-2.699999999999984635e-01,1.100000000000027622e-01,-1.000000000000000000e+00,-1.000000000000000000e+00,3.400000000000029665e-01,-1.000000000000000000e+00,-1.000000000000000000e+00,1.300000000000054445e-01,4.500000000000066169e-01,-1.000000000000000000e+00,-8.099999999999989431e-01,2.100000000000037392e-01,9.200000000000096989e-01,-1.000000000000000000e+00,-8.699999999999989964e-01,7.100000000000068479e-01,-1.000000000000000000e+00,-1.000000000000000000e+00,-1.000000000000000000e+00,-1.000000000000000000e+00,-8.799999999999981171e-01,-3.899999999999985700e-01,-3.999999999999648281e-02,4.200000000000145839e-01,-1.000000000000000000e+00,-1.000000000000000000e+00,-1.000000000000000000e+00
5.600000000000040501e-01,-9.399999999999990585e-01,7.600000000000051159e-01,-1.000000000000000000e+00,7.600000000000095568e-01,-1.000000000000000000e+00,1.500000000000027978e-01,-4.599999999999959677e-01,5.000000000000093259e-01,-2.299999999999984279e-01,-1.000000000000000000e+00,-1.000000000000000000e+00,-6.799999999999970512e-01,-1.000000000000000000e+00,-1.000000000000000000e+00,1.800000000000081535e-01,-1.000000000000000000e+00,-8.399999999999989697e-01,-5.399999999999987033e-01,-1.000000000000000000e+00,-2.999999999999647393e-02,-3.399999999999949729e-01,8.400000000000105160e-01,3.200000000000065015e-01,-1.000000000000000000e+00,6.200000000000094325e-01,-4.899999999999924416e-01,5.800000000000058442e-01,-9.699999999999990852e-01,2.700000000000037925e-01,7.200000000000068567e-01,-2.499999999999975575e-01,-1.000000000000000000e+00,8.100000000000042721e-01,-9.399999999999990585e-01,-1.000000000000000000e+00,-1.000000000000000000e+00,-1.000000000000000000e+00,-7.199999999999988631e-01,-1.699999999999894928e-01,-2.199999999999922018e-01,-8.099999999999989431e-01,-1.000000000000000000e+00,-3.499999999999976463e-01,-1.000000000000000000e+00,-1.000000000000000000e+00,-6.799999999999979394e-01,-2.399999999999984368e-01,-1.000000000000000000e+00,-1.699999999999894928e-01,-1.000000000000000000e+00,5.600000000000102673e-01,-1.299999999999983391e-01,-1.000000000000000000e+00,-1.000000000000000000e+00,1.100000000000027622e-01,-1.000000000000000000e+00,-1.000000000000000000e+00,1.700000000000045919e-01,4.500000000000066169e-01,-1.000000000000000000e+00,-8.099999999999989431e-01,2.100000000000037392e-01,4.200000000000048139e-01,-2.999999999999984901e-01,-1.000000000000000000e+00,7.100000000000068479e-01,-1.000000000000000000e+00,-1.000000000000000000e+00,-1.000000000000000000e+00,-5.999999999999827693e-02,-1.000000000000000000e+00,-1.000000000000000000e+00,-1.000000000000000000e+00,3.800000000000109956e-01,-1.000000000000000000e+00,-9.499999999999990674e-01,-1.000000000000000000e+00
-3.599999999999958789e-01,-1.000000000000000000e+00,7.600000000000051159e-01,-1.000000000000000000e+00,7.600000000000095568e-01,-1.000000000000000000e+00,1.500000000000027978e-01,-4.599999999999959677e-01,5.000000000000093259e-01,-2.299999999999984279e-01,-1.000000000000000000e+00,-1.000000000000000000e+00,-8.899999999999981259e-01,-9.299999999999946088e-01,-9.299999999999990496e-01,-7.899999999999918199e-01,-1.000000000000000000e+00,1.900000000000037215e-01,-5.399999999999987033e-01,6.700000000000077005e-01,-2.999999999999647393e-02,-3.399999999999949729e-01,8.400000000000105160e-01,3.200000000000065015e-01,-1.000000000000000000e+00,6.200000000000094325e-01,-4.899999999999924416e-01,9.500000000000079492e-01,-9.699999999999990852e-01,2.700000000000037925e-01,-1.000000000000000000e+00,-3.699999999999985523e-01,-1.000000000000000000e+00,8.100000000000042721e-01,-9.799999999999990941e-01,2.600000000000082245e-01,-1.000000000000000000e+00,-1.000000000000000000e+00,-7.199999999999988631e-01,-1.699999999999894928e-01,6.000000000000085265e-01,-9.999999999999982236e-01,-8.299999999999927436e-01,-3.499999999999976463e-01,-1.000000000000000000e+00,-1.999999999999975131e-01,-6.799999999999979394e-01,3.600000000000029843e-01,-1.000000000000000000e+00,8.200000000000122746e-01,-1.000000000000000000e+00,-1.899999999999895106e-01,-1.299999999999983391e-01,-1.000000000000000000e+00,-1.000000000000000000e+00,-3.099999999999984990e-01,-1.000000000000000000e+00,-1.000000000000000000e+00,-3.099999999999958344e-01,4.500000000000066169e-01,-1.000000000000000000e+00,-8.099999999999989431e-01,2.100000000000037392e-01,4.800000000000057554e-01,-1.000000000000000000e+00,-8.699999999999989964e-01,2.700000000000073452e-01,-1.000000000000000000e+00,-1.000000000000000000e+00,-5.799999999999987388e-01,-1.000000000000000000e+00,-1.000000000000000000e+00,-1.000000000000000000e+00,-3.999999999999648281e-02,3.800000000000109956e-01,-1.000000000000000000e+00,-1.000000000000000000e+00,-1.000000000000000000e+00
5.600000000000040501e-01,-1.000000000000000000e+00,7.600000000000051159e-01,-1.000000000000000000e+00,7.600000000000095568e-01,-1.000000000000000000e+00,1.500000000000027978e-01,4.400000000000048317e-01,5.000000000000093259e-01,-2.299999999999984279e-01,-1.000000000000000000e+00,-1.000000000000000000e+00,-1.000000000000000000e+00,-9.699999999999955325e-01,-1.000000000000000000e+00,-1.000000000000000000e+00,-1.000000000000000000e+00,-8.399999999999989697e-01,-5.399999999999987033e-01,-7.099999999999979661e-01,-2.999999999999647393e-02,-3.399999999999949729e-01,8.400000000000105160e-01,3.200000000000065015e-01,-8.499999999999989786e-01,1.600000000000108002e-01,-1.000000000000000000e+00,8.400000000000069633e-01,-1.000000000000000000e+00,2.700000000000037925e-01,-7.999999999999989342e-01,-5.199999999999986855e-01,-1.000000000000000000e+00,8.100000000000042721e-01,-1.000000000000000000e+00,2.400000000000090949e-01,-1.000000000000000000e+00,-1.000000000000000000e+00,-7.199999999999988631e-01,-1.699999999999894928e-01,2.800000000000073541e-01,-1.000000000000000000e+00,-1.000000000000000000e+00,8.000000000000362377e-02,-6.599999999999979217e-01,-1.799999999999966072e-01,-1.000000000000000000e+00,-9.399999999999981704e-01,-9.699999999999981970e-01,-1.699999999999894928e-01,-1.000000000000000000e+00,5.600000000000102673e-01,-1.299999999999983391e-01,-1.299999999999983391e-01,-1.000000000000000000e+00,-3.099999999999984990e-01,-1.000000000000000000e+00,-1.000000000000000000e+00,-8.899999999999954614e-01,-1.799999999999930544e-01,-1.000000000000000000e+00,-1.000000000000000000e+00,2.100000000000037392e-01,1.400000000000063416e-01,-1.000000000000000000e+00,-8.699999999999989964e-01,7.100000000000068479e-01,-1.000000000000000000e+00,-9.599999999999990763e-01,-1.000000000000000000e+00,-5.999999999999827693e-02,-5.199999999999986855e-01,-1.000000000000000000e+00,-1.000000000000000000e+00,3.800000000000109956e-01,-1.000000000000000000e+00,-1.000000000000000000e+00,-1.000000000000000000e+00
5.600000000000040501e-01,-1.000000000000000000e+00,7.600000000000051159e-01,-1.000000000000000000e+00,7.600000000000095568e-01,-1.000000000000000000e+00,1.500000000000027978e-01,4.600000000000066258e-01,4.900000000000102052e-01,-2.299999999999984279e-01,-1.000000000000000000e+00,-3.699999999999985523e-01,-1.000000000000000000e+00,-1.000000000000000000e+00,-1.099999999999983213e-01,-1.000000000000000000e+00,-1.000000000000000000e+00,-7.799999999999980282e-01,1.600000000000036948e-01,2.900000000000064748e-01,-2.999999999999647393e-02,-3.399999999999949729e-01,8.400000000000105160e-01,1.200000000000045475e-01,-7.899999999999989253e-01,5.500000000000084821e-01,-4.899999999999924416e-01,8.400000000000069633e-01,-1.000000000000000000e+00,2.700000000000037925e-01,-4.999999999999471534e-02,-5.199999999999986855e-01,-1.000000000000000000e+00,8.100000000000042721e-01,-1.000000000000000000e+00,-3.899999999999914646e-01,-1.000000000000000000e+00,-1.000000000000000000e+00,-7.199999999999988631e-01,-1.699999999999894928e-01,-2.199999999999922018e-01,-1.000000000000000000e+00,-1.000000000000000000e+00,1.100000000000036504e-01,-2.699999999999966871e-01,-1.000000000000000000e+00,-9.999999999999742428e-02,-5.899999999999987477e-01,-1.000000000000000000e+00,-1.699999999999894928e-01,-1.000000000000000000e+00,6.000000000000103029e-01,-1.000000000000000000e+00,-7.399999999999988809e-01,-1.000000000000000000e+00,-3.099999999999984990e-01,-1.000000000000000000e+00,1.600000000000036948e-01,-1.000000000000000000e+00,4.500000000000066169e-01,-1.000000000000000000e+00,-8.099999999999989431e-01,2.100000000000037392e-01,4.800000000000057554e-01,-2.999999999999984901e-01,-8.699999999999989964e-01,7.100000000000068479e-01,-1.000000000000000000e+00,-9.599999999999990763e-01,-1.000000000000000000e+00,-1.000000000000000000e+00,-5.199999999999986855e-01,-3.499999999999985345e-01,-1.000000000000000000e+00,3.800000000000109956e-01,-1.000000000000000000e+00,-6.699999999999988187e-01,-1.000000000000000000e+00
5.600000000000040501e-01,-1.000000000000000000e+00,7.600000000000051159e-01,-1.000000000000000000e+00,9.200000000000105871e-01,-1.000000000000000000e+00,1.500000000000027978e-01,-4.599999999999959677e-01,7.400000000000095390e-01,-2.299999999999984279e-01,-1.000000000000000000e+00,-1.699999999999983746e-01,-1.000000000000000000e+00,-9.699999999999955325e-01,-1.000000000000000000e+00,-1.000000000000000000e+00,-1.000000000000000000e+00,-8.399999999999989697e-01,-5.399999999999987033e-01,-7.099999999999979661e-01,-2.999999999999647393e-02,-4.099999999999950351e-01,8.400000000000105160e-01,-5.499999999999933831e-01,-1.000000000000000000e+00,6.200000000000094325e-01,-1.000000000000000000e+00,8.400000000000069633e-01,-9.699999999999990852e-01,-6.099999999999961009e-01,-7.999999999999989342e-01,-5.199999999999986855e-01,-1.000000000000000000e+00,8.100000000000042721e-01,1.400000000000027889e-01,2.400000000000090949e-01,-1.000000000000000000e+00,-1.000000000000000000e+00,-7.199999999999988631e-01,-1.699999999999894928e-01,2.800000000000073541e-01,-1.000000000000000000e+00,-1.000000000000000000e+00,8.000000000000362377e-02,-1.000000000000000000e+00,-1.799999999999966072e-01,-1.000000000000000000e+00,-9.399999999999981704e-01,-1.000000000000000000e+00,-1.699999999999894928e-01,-1.000000000000000000e+00,5.600000000000102673e-01,-1.299999999999983391e-01,-1.000000000000000000e+00,-1.000000000000000000e+00,2.200000000000028599e-01,-1.000000000000000000e+00,-1.000000000000000000e+00,-8.899999999999954614e-01,-1.799999999999930544e-01,-1.000000000000000000e+00,-8.099999999999989431e-01,2.100000000000037392e-01,9.200000000000096989e-01,-1.000000000000000000e+00,-8.699999999999989964e-01,7.100000000000068479e-01,-1.000000000000000000e+00,-9.599999999999990763e-01,-1.000000000000000000e+00,-1.000000000000000000e+00,-5.199999999999986855e-01,-1.000000000000000000e+00,-3.999999999999648281e-02,3.800000000000109956e-01,-1.000000000000000000e+00,-1.000000000000000000e+00,-1.000000000000000000e+00
-1.000000000000000000e+00,-4.299999999999986056e-01,7.600000000000051159e-01,-1.000000000000000000e+00,9.200000000000105871e-01,-1.000000000000000000e+00,1.500000000000027978e-01,-1.000000000000000000e+00,7.400000000000095390e-01,-2.299999999999984279e-01,-1.000000000000000000e+00,-1.699999999999983746e-01,-8.899999999999981259e-01,-9.299999999999946088e-01,-1.000000000000000000e+00,-1.000000000000000000e+00,-9.299999999999990496e-01,1.900000000000037215e-01,-5.399999999999987033e-01,6.700000000000077005e-01,-2.999999999999647393e-02,-4.099999999999950351e-01,8.400000000000105160e-01,3.200000000000065015e-01,-1.000000000000000000e+00,6.200000000000094325e-01,-4.899999999999924416e-01,-1.000000000000000000e+00,-9.699999999999990852e-01,5.400000000000049205e-01,-1.000000000000000000e+00,-4.799999999999986500e-01,-1.000000000000000000e+00,8.100000000000042721e-01,1.400000000000027889e-01,-5.499999999999924949e-01,-1.000000000000000000e+00,-1.999999999999824141e-02,-7.199999999999988631e-01,-1.699999999999894928e-01,6.000000000000085265e-01,-1.000000000000000000e+00,6.000000000000893507e-02,-3.499999999999976463e-01,2.600000000000037836e-01,-1.799999999999966072e-01,-6.799999999999979394e-01,3.600000000000029843e-01,-1.000000000000000000e+00,2.200000000000117417e-01,-1.000000000000000000e+00,-1.000000000000000000e+00,1.100000000000027622e-01,-1.000000000000000000e+00,-1.000000000000000000e+00,3.400000000000029665e-01,-1.000000000000000000e+00,-9.699999999999990852e-01,-1.000000000000000000e+00,4.500000000000066169e-01,-1.000000000000000000e+00,-4.099999999999976996e-01,2.100000000000037392e-01,1.400000000000063416e-01,-1.000000000000000000e+00,-8.699999999999989964e-01,4.300000000000074873e-01,-1.000000000000000000e+00,-1.000000000000000000e+00,-1.000000000000000000e+00,-1.000000000000000000e+00,-8.799999999999981171e-01,-1.000000000000000000e+00,-3.999999999999648281e-02,4.200000000000145839e-01,-6.999999999999988454e-01,-1.000000000000000000e+00,-1.000000000000000000e+00
-3.599999999999958789e-01,-1.000000000000000000e+00,7.600000000000051159e-01,-1.000000000000000000e+00,7.600000000000095568e-01,-1.000000000000000000e+00,1.500000000000027978e-01,1.100000000000054268e-01,7.400000000000095390e-01,-2.299999999999984279e-01,-1.000000000000000000e+00,-1.699999999999983746e-01,-1.000000000000000000e+00,-9.299999999999946088e-01,-1.000000000000000000e+00,-7.899999999999918199e-01,-1.000000000000000000e+00,1.900000000000037215e-01,-5.399999999999987033e-01,6.700000000000077005e-01,-2.999999999999647393e-02,-4.099999999999950351e-01,8.400000000000105160e-01,3.200000000000065015e-01,-1.000000000000000000e+00,6.200000000000094325e-01,-4.899999999999924416e-01,9.500000000000079492e-01,-9.699999999999990852e-01,2.700000000000037925e-01,-1.000000000000000000e+00,-1.000000000000000000e+00,-9.999999999999831246e-02,8.100000000000042721e-01,-9.799999999999990941e-01,2.600000000000082245e-01,-1.000000000000000000e+00,-1.000000000000000000e+00,-7.199999999999988631e-01,-1.699999999999894928e-01,6.000000000000085265e-01,-9.999999999999982236e-01,-8.299999999999927436e-01,1.000000000000356160e-02,-1.000000000000000000e+00,-1.999999999999975131e-01,-6.799999999999979394e-01,3.600000000000029843e-01,-1.000000000000000000e+00,8.200000000000122746e-01,-1.000000000000000000e+00,-2.699999999999984635e-01,1.100000000000027622e-01,-1.000000000000000000e+00,-1.000000000000000000e+00,-3.099999999999984990e-01,-1.000000000000000000e+00,-1.000000000000000000e+00,-3.099999999999958344e-01,4.500000000000066169e-01,-1.000000000000000000e+00,-8.099999999999989431e-01,2.100000000000037392e-01,9.200000000000096989e-01,-1.000000000000000000e+00,-1.000000000000000000e+00,7.100000000000068479e-01,-1.000000000000000000e+00,-1.000000000000000000e+00,-1.000000000000000000e+00,-1.000000000000000000e+00,-8.799999999999981171e-01,-3.899999999999985700e-01,-3.999999999999648281e-02,3.800000000000109956e-01,-1.000000000000000000e+00,-1.000000000000000000e+00,-6.299999999999987832e-01
3.000000000000047073e-01,-1.000000000000000000e+00,7.600000000000051159e-01,-1.000000000000000000e+00,7.600000000000095568e-01,-1.000000000000000000e+00,1.500000000000027978e-01,4.400000000000048317e-01,5.000000000000093259e-01,-2.299999999999984279e-01,-2.099999999999984102e-01,-1.000000000000000000e+00,-1.000000000000000000e+00,-1.000000000000000000e+00,-1.000000000000000000e+00,1.800000000000081535e-01,-1.000000000000000000e+00,-8.399999999999989697e-01,-5.399999999999987033e-01,-1.000000000000000000e+00,-2.999999999999647393e-02,-3.399999999999949729e-01,8.400000000000105160e-01,3.200000000000065015e-01,-8.499999999999989786e-01,1.600000000000108002e-01,-4.899999999999924416e-01,8.400000000000069633e-01,-9.699999999999990852e-01,2.700000000000037925e-01,7.200000000000068567e-01,-2.499999999999975575e-01,-1.000000000000000000e+00,8.100000000000042721e-01,-1.000000000000000000e+00,-1.000000000000000000e+00,-1.000000000000000000e+00,-1.000000000000000000e+00,-7.199999999999988631e-01,2.100000000000117328e-01,-2.199999999999922018e-01,-8.099999999999989431e-01,-1.000000000000000000e+00,8.000000000000362377e-02,-6.599999999999979217e-01,-1.000000000000000000e+00,-6.799999999999979394e-01,-9.399999999999981704e-01,-9.699999999999981970e-01,3.300000000000118394e-01,-1.000000000000000000e+00,5.600000000000102673e-01,-1.299999999999983391e-01,-1.000000000000000000e+00,-1.000000000000000000e+00,-3.099999999999984990e-01,-1.000000000000000000e+00,-1.000000000000000000e+00,-8.899999999999954614e-01,4.500000000000066169e-01,-1.000000000000000000e+00,-1.000000000000000000e+00,2.100000000000037392e-01,-1.000000000000000000e+00,-2.999999999999984901e-01,-1.000000000000000000e+00,-1.000000000000000000e+00,-1.000000000000000000e+00,-1.000000000000000000e+00,-1.000000000000000000e+00,-5.999999999999827693e-02,-1.000000000000000000e+00,-1.000000000000000000e+00,-1.000000000000000000e+00,3.800000000000109956e-01,-1.000000000000000000e+00,-1.000000000000000000e+00,-1.000000000000000000e+00
5.600000000000040501e-01,-9.399999999999990585e-01,7.600000000000051159e-01,-1.000000000000000000e+00,2.100000000000108447e-01,-1.000000000000000000e+00,1.500000000000027978e-01,-4.599999999999959677e-01,5.000000000000093259e-01,-2.299999999999984279e-01,-1.000000000000000000e+00,-1.699999999999983746e-01,-8.899999999999981259e-01,-1.000000000000000000e+00,-1.000000000000000000e+00,-1.000000000000000000e+00,-1.000000000000000000e+00,-8.399999999999989697e-01,-5.399999999999987033e-01,-1.000000000000000000e+00,-2.999999999999647393e-02,-3.399999999999949729e-01,8.400000000000105160e-01,3.200000000000065015e-01,-1.000000000000000000e+00,6.200000000000094325e-01,-4.899999999999924416e-01,5.800000000000058442e-01,-9.699999999999990852e-01,3.200000000000029488e-01,-1.000000000000000000e+00,-1.000000000000000000e+00,-6.999999999999988454e-01,8.100000000000042721e-01,1.400000000000027889e-01,-1.000000000000000000e+00,-1.000000000000000000e+00,-1.999999999999824141e-02,-7.199999999999988631e-01,-1.699999999999894928e-01,2.800000000000073541e-01,-8.099999999999989431e-01,6.000000000000893507e-02,-3.499999999999976463e-01,2.600000000000037836e-01,-1.000000000000000000e+00,-6.799999999999979394e-01,-2.399999999999984368e-01,-1.000000000000000000e+00,-1.699999999999894928e-01,-1.000000000000000000e+00,5.600000000000102673e-01,-1.299999999999983391e-01,-1.000000000000000000e+00,-1.000000000000000000e+00,1.100000000000027622e-01,-1.000000000000000000e+00,-1.000000000000000000e+00,7.000000000000059508e-01,4.500000000000066169e-01,-1.000000000000000000e+00,-8.099999999999989431e-01,2.100000000000037392e-01,1.400000000000063416e-01,-2.999999999999984901e-01,-1.000000000000000000e+00,7.100000000000068479e-01,-1.000000000000000000e+00,-1.000000000000000000e+00,-1.000000000000000000e+00,-5.999999999999827693e-02,-8.799999999999981171e-01,-1.000000000000000000e+00,-5.499999999999987121e-01,3.800000000000109956e-01,-1.000000000000000000e+00,-1.000000000000000000e+00,-1.000000000000000000e+00
5.600000000000040501e-01,-9.399999999999990585e-01,7.600000000000051159e-01,-1.000000000000000000e+00,7.600000000000095568e-01,-1.000000000000000000e+00,1.500000000000027978e-01,-4.599999999999959677e-01,5.000000000000093259e-01,-2.299999999999984279e-01,-1.000000000000000000e+00,-1.000000000000000000e+00,-6.799999999999970512e-01,-9.699999999999955325e-01,2.100000000000028511e-01,1.800000000000081535e-01,-1.000000000000000000e+00,-8.399999999999989697e-01,1.600000000000036948e-01,-1.000000000000000000e+00,-2.999999999999647393e-02,-3.399999999999949729e-01,6.300000000000112177e-01,3.200000000000065015e-01,-1.000000000000000000e+00,6.200000000000094325e-01,-4.899999999999924416e-01,5.800000000000058442e-01,-9.699999999999990852e-01,2.700000000000037925e-01,7.200000000000068567e-01,-5.199999999999986855e-01,-1.000000000000000000e+00,8.100000000000042721e-01,-9.799999999999990941e-01,-1.000000000000000000e+00,-8.099999999999989431e-01,-1.000000000000000000e+00,2.600000000000028955e-01,-1.699999999999894928e-01,-2.199999999999922018e-01,-8.099999999999989431e-01,-8.299999999999927436e-01,1.100000000000036504e-01,-1.000000000000000000e+00,-1.000000000000000000e+00,-6.799999999999979394e-01,-2.399999999999984368e-01,-1.000000000000000000e+00,-1.699999999999894928e-01,-1.000000000000000000e+00,-1.000000000000000000e+00,-1.299999999999983391e-01,-1.000000000000000000e+00,-1.000000000000000000e+00,1.100000000000027622e-01,-1.000000000000000000e+00,-1.000000000000000000e+00,-1.000000000000000000e+00,4.500000000000066169e-01,-1.000000000000000000e+00,-8.099999999999989431e-01,2.100000000000037392e-01,4.200000000000048139e-01,-9.599999999999981881e-01,-8.699999999999989964e-01,7.100000000000068479e-01,-1.000000000000000000e+00,-9.599999999999990763e-01,-1.000000000000000000e+00,-1.000000000000000000e+00,-5.199999999999986855e-01,-1.000000000000000000e+00,-4.399999999999977263e-01,3.800000000000109956e-01,-1.000000000000000000e+00,-9.499999999999990674e-01,-1.000000000000000000e+00
5.600000000000040501e-01,-1.000000000000000000e+00,7.600000000000051159e-01,-1.000000000000000000e+00,7.600000000000095568e-01,-1.000000000000000000e+00,1.500000000000027978e-01,-4.599999999999959677e-01,5.000000000000093259e-01,-2.299999999999984279e-01,-1.000000000000000000e+00,-1.699999999999983746e-01,-8.899999999999981259e-01,-9.299999999999946088e-01,-9.299999999999990496e-01,1.800000000000081535e-01,-9.299999999999990496e-01,1.900000000000037215e-01,-5.399999999999987033e-01,6.700000000000077005e-01,-2.999999999999647393e-02,-3.399999999999949729e-01,8.400000000000105160e-01,3.200000000000065015e-01,-1.000000000000000000e+00,6.200000000000094325e-01,-4.899999999999924416e-01,9.500000000000079492e-01,-9.699999999999990852e-01,3.700000000000047695e-01,-1.000000000000000000e+00,-1.000000000000000000e+00,-1.000000000000000000e+00,8.100000000000042721e-01,1.400000000000027889e-01,2.600000000000082245e-01,-1.000000000000000000e+00,-1.000000000000000000e+00,-7.199999999999988631e-01,-1.699999999999894928e-01,6.000000000000085265e-01,-9.999999999999982236e-01,-8.299999999999927436e-01,-3.499999999999976463e-01,-1.000000000000000000e+00,-1.999999999999975131e-01,-6.799999999999979394e-01,3.600000000000029843e-01,-1.000000000000000000e+00,8.200000000000122746e-01,-1.000000000000000000e+00,-2.699999999999984635e-01,1.100000000000027622e-01,-1.000000000000000000e+00,-1.999999999999984013e-01,3.400000000000029665e-01,-1.000000000000000000e+00,-1.000000000000000000e+00,1.300000000000054445e-01,4.500000000000066169e-01,-1.000000000000000000e+00,-8.099999999999989431e-01,2.100000000000037392e-01,4.800000000000057554e-01,-1.000000000000000000e+00,-5.599999999999978328e-01,1.600000000000072475e-01,-1.000000000000000000e+00,-1.000000000000000000e+00,-1.000000000000000000e+00,-1.000000000000000000e+00,-1.000000000000000000e+00,-1.000000000000000000e+00,-3.999999999999648281e-02,4.200000000000145839e-01,-1.000000000000000000e+00,-1.000000000000000000e+00,-1.000000000000000000e+00
5.600000000000040501e-01,-1.000000000000000000e+00,-1.000000000000000000e+00,-1.000000000000000000e+00,9.200000000000105871e-01,-1.000000000000000000e+00,-6.299999999999970068e-01,4.400000000000048317e-01,7.400000000000095390e-01,-2.299999999999984279e-01,-1.000000000000000000e+00,-1.699999999999983746e-01,-1.000000000000000000e+00,-9.699999999999955325e-01,-1.000000000000000000e+00,1.800000000000081535e-01,-1.000000000000000000e+00,-8.399999999999989697e-01,-5.399999999999987033e-01,-7.099999999999979661e-01,-2.999999999999647393e-02,-4.099999999999950351e-01,-9.999999999998943068e-02,3.200000000000065015e-01,-1.000000000000000000e+00,6.200000000000094325e-01,-1.000000000000000000e+00,5.800000000000058442e-01,-9.699999999999990852e-01,2.700000000000037925e-01,-1.000000000000000000e+00,-4.299999999999977174e-01,-1.000000000000000000e+00,8.100000000000042721e-01,1.400000000000027889e-01,2.400000000000090949e-01,-1.000000000000000000e+00,-1.000000000000000000e+00,-7.199999999999988631e-01,-1.699999999999894928e-01,2.800000000000073541e-01,-1.000000000000000000e+00,6.000000000000893507e-02,8.000000000000362377e-02,-1.000000000000000000e+00,-1.999999999999975131e-01,-1.000000000000000000e+00,3.600000000000029843e-01,-1.000000000000000000e+00,-1.699999999999894928e-01,-1.000000000000000000e+00,5.600000000000102673e-01,4.800000000000030909e-01,-1.000000000000000000e+00,-1.000000000000000000e+00,3.400000000000029665e-01,-1.000000000000000000e+00,-1.000000000000000000e+00,-8.899999999999954614e-01,4.500000000000066169e-01,-1.000000000000000000e+00,-1.000000000000000000e+00,1.800000000000046008e-01,9.200000000000096989e-01,-1.000000000000000000e+00,-8.699999999999989964e-01,7.100000000000068479e-01,-1.000000000000000000e+00,-9.599999999999990763e-01,-1.000000000000000000e+00,-1.000000000000000000e+00,-8.799999999999981171e-01,-1.000000000000000000e+00,-3.999999999999648281e-02,3.800000000000109956e-01,-1.000000000000000000e+00,-1.000000000000000000e+00,-8.299999999999989608e-01
-3.099999999999958344e-01,-1.000000000000000000e+00,7.600000000000051159e-01,-1.000000000000000000e+00,7.600000000000095568e-01,-1.000000000000000000e+00,1.500000000000027978e-01,4.600000000000066258e-01,5.000000000000093259e-01,-2.299999999999984279e-01,-1.000000000000000000e+00,-3.699999999999985523e-01,-8.899999999999981259e-01,-9.299999999999946088e-01,-1.099999999999983213e-01,-1.000000000000000000e+00,-1.000000000000000000e+00,-7.799999999999980282e-01,1.600000000000036948e-01,-4.199999999999959321e-01,-2.999999999999647393e-02,-3.399999999999949729e-01,8.400000000000105160e-01,3.200000000000065015e-01,-1.000000000000000000e+00,1.600000000000108002e-01,-4.899999999999924416e-01,8.400000000000069633e-01,-1.000000000000000000e+00,2.000000000000445866e-02,-4.999999999999471534e-02,-1.000000000000000000e+00,-1.000000000000000000e+00,8.100000000000042721e-01,-1.000000000000000000e+00,-5.499999999999924949e-01,-1.000000000000000000e+00,-1.000000000000000000e+00,-7.199999999999988631e-01,-1.699999999999894928e-01,-2.199999999999922018e-01,-1.000000000000000000e+00,6.000000000000893507e-02,-3.499999999999976463e-01,-2.699999999999966871e-01,-1.799999999999966072e-01,-6.799999999999979394e-01,3.600000000000029843e-01,-1.000000000000000000e+00,-1.699999999999894928e-01,-1.000000000000000000e+00,-5.499999999999987121e-01,1.100000000000027622e-01,-7.399999999999988809e-01,-1.000000000000000000e+00,3.400000000000029665e-01,-1.000000000000000000e+00,1.600000000000036948e-01,-1.000000000000000000e+00,4.500000000000066169e-01,-1.000000000000000000e+00,-8.099999999999989431e-01,-6.299999999999952305e-01,4.800000000000057554e-01,-1.000000000000000000e+00,-8.699999999999989964e-01,4.300000000000074873e-01,-1.000000000000000000e+00,-1.000000000000000000e+00,-1.000000000000000000e+00,-9.999999999997344347e-03,-5.199999999999986855e-01,-1.000000000000000000e+00,-1.000000000000000000e+00,3.800000000000109956e-01,-6.999999999999988454e-01,-6.699999999999988187e-01,-1.000000000000000000e+00
5.600000000000040501e-01,-1.000000000000000000e+00,7.600000000000051159e-01,-1.000000000000000000e+00,7.600000000000095568e-01,-1.000000000000000000e+00,1.500000000000027978e-01,4.600000000000057376e-01,5.000000000000093259e-01,4.500000000000030642e-01,-1.000000000000000000e+00,-3.699999999999985523e-01,-1.000000000000000000e+00,-1.000000000000000000e+00,-1.000000000000000000e+00,1.800000000000081535e-01,-1.000000000000000000e+00,-3.899999999999959055e-01,1.000000000000444977e-02,2.900000000000064748e-01,-2.999999999999647393e-02,-4.099999999999950351e-01,7.500000000000113243e-01,1.200000000000045475e-01,-1.000000000000000000e+00,5.500000000000084821e-01,-4.899999999999924416e-01,5.800000000000058442e-01,-9.699999999999990852e-01,3.200000000000029488e-01,-4.999999999999471534e-02,-1.000000000000000000e+00,-1.000000000000000000e+00,-1.000000000000000000e+00,9.600000000000044054e-01,-5.499999999999924949e-01,-1.000000000000000000e+00,-1.000000000000000000e+00,-7.199999999999988631e-01,-1.699999999999894928e-01,-2.199999999999922018e-01,-1.000000000000000000e+00,-1.000000000000000000e+00,-3.499999999999976463e-01,-2.699999999999966871e-01,-1.799999999999966072e-01,-5.699999999999987299e-01,-9.399999999999981704e-01,-1.000000000000000000e+00,-1.699999999999894928e-01,-7.099999999999988542e-01,-1.000000000000000000e+00,1.100000000000027622e-01,-1.000000000000000000e+00,-1.000000000000000000e+00,3.400000000000029665e-01,-1.000000000000000000e+00,-9.699999999999990852e-01,-1.000000000000000000e+00,4.500000000000066169e-01,-1.000000000000000000e+00,-1.000000000000000000e+00,-6.299999999999952305e-01,1.400000000000063416e-01,-1.000000000000000000e+00,-8.699999999999989964e-01,3.600000000000074252e-01,-1.000000000000000000e+00,-1.000000000000000000e+00,-6.499999999999988010e-01,-9.999999999997344347e-03,-8.799999999999981171e-01,-3.499999999999985345e-01,-1.000000000000000000e+00,4.200000000000145839e-01,-6.999999999999988454e-01,-1.000000000000000000e+00,-1.000000000000000000e+00
5.600000000000040501e-01,-1.000000000000000000e+00,7.600000000000051159e-01,-1.000000000000000000e+00,7.600000000000095568e-01,-1.000000000000000000e+00,1.500000000000027978e-01,-4.999999999999942268e-01,5.000000000000093259e-01,-2.299999999999984279e-01,-1.000000000000000000e+00,-1.000000000000000000e+00,-8.899999999999981259e-01,-9.699999999999955325e-01,2.100000000000028511e-01,1.800000000000081535e-01,-1.000000000000000000e+00,-1.000000000000000000e+00,1.600000000000036948e-01,2.900000000000064748e-01,-2.999999999999647393e-02,-3.399999999999949729e-01,7.900000000000113598e-01,1.200000000000045475e-01,-1.000000000000000000e+00,5.500000000000084821e-01,-4.899999999999924416e-01,8.400000000000069633e-01,-9.699999999999990852e-01,2.700000000000037925e-01,-4.999999999999471534e-02,-5.199999999999986855e-01,-1.000000000000000000e+00,-1.000000000000000000e+00,-1.000000000000000000e+00,-5.499999999999924949e-01,-1.000000000000000000e+00,-1.000000000000000000e+00,-7.499999999999971134e-01,-1.699999999999894928e-01,-2.199999999999922018e-01,-1.000000000000000000e+00,-3.999999999999985789e-01,1.100000000000036504e-01,-1.000000000000000000e+00,-1.099999999999965450e-01,-6.799999999999979394e-01,-2.399999999999984368e-01,-1.000000000000000000e+00,-1.699999999999894928e-01,-7.099999999999988542e-01,-8.999999999999119815e-02,-1.299999999999983391e-01,-1.000000000000000000e+00,-1.000000000000000000e+00,-9.699999999999973088e-01,-1.000000000000000000e+00,-1.000000000000000000e+00,-1.000000000000000000e+00,4.500000000000066169e-01,-1.000000000000000000e+00,-8.099999999999989431e-01,-3.099999999999976108e-01,4.800000000000057554e-01,-1.000000000000000000e+00,-1.000000000000000000e+00,-1.000000000000000000e+00,-1.000000000000000000e+00,-1.000000000000000000e+00,-1.000000000000000000e+00,-1.000000000000000000e+00,-1.099999999999974332e-01,-1.000000000000000000e+00,-4.399999999999977263e-01,4.200000000000145839e-01,-1.000000000000000000e+00,-1.000000000000000000e+00,-1.000000000000000000e+00
5.600000000000040501e-01,-1.000000000000000000e+00,7.600000000000051159e-01,-2.199999999999984190e-01,7.600000000000095568e-01,-1.000000000000000000e+00,5.000000000000359712e-02,-4.599999999999959677e-01,5.000000000000093259e-01,-2.299999999999984279e-01,-1.000000000000000000e+00,-1.000000000000000000e+00,-1.000000000000000000e+00,-1.000000000000000000e+00,-1.000000000000000000e+00,-7.899999999999918199e-01,-1.000000000000000000e+00,1.900000000000037215e-01,-5.399999999999987033e-01,-1.000000000000000000e+00,-2.999999999999647393e-02,-3.399999999999949729e-01,7.900000000000113598e-01,3.200000000000065015e-01,-9.699999999999990852e-01,6.200000000000094325e-01,-4.899999999999924416e-01,5.800000000000058442e-01,-9.699999999999990852e-01,2.700000000000037925e-01,7.200000000000068567e-01,-2.499999999999975575e-01,-1.000000000000000000e+00,8.100000000000042721e-01,-9.399999999999990585e-01,-1.000000000000000000e+00,-7.999999999999829470e-02,-1.000000000000000000e+00,-7.199999999999988631e-01,7.600000000000122213e-01,-3.699999999999923350e-01,-8.099999999999989431e-01,-1.000000000000000000e+00,-3.499999999999976463e-01,-7.199999999999988631e-01,-1.000000000000000000e+00,-6.799999999999979394e-01,-2.399999999999984368e-01,-1.000000000000000000e+00,-1.699999999999894928e-01,-8.799999999999990052e-01,-7.299999999999988720e-01,-1.299999999999983391e-01,-1.000000000000000000e+00,-1.000000000000000000e+00,-3.099999999999984990e-01,-1.000000000000000000e+00,-1.000000000000000000e+00,-2.599999999999940137e-01,4.500000000000066169e-01,-1.000000000000000000e+00,-8.099999999999989431e-01,-1.000000000000000000e+00,4.800000000000057554e-01,-1.000000000000000000e+00,-1.000000000000000000e+00,7.100000000000068479e-01,-1.000000000000000000e+00,-3.999999999999985789e-01,-1.000000000000000000e+00,-5.999999999999827693e-02,-1.000000000000000000e+00,-1.000000000000000000e+00,-1.000000000000000000e+00,3.800000000000109956e-01,-7.799999999999989164e-01,-8.299999999999989608e-01,-1.000000000000000000e+00
2.300000000000046452e-01,-1.000000000000000000e+00,7.600000000000051159e-01,-1.000000000000000000e+00,7.600000000000095568e-01,-1.000000000000000000e+00,1.500000000000027978e-01,-4.599999999999959677e-01,5.000000000000093259e-01,-2.299999999999984279e-01,-1.000000000000000000e+00,-1.000000000000000000e+00,-1.000000000000000000e+00,-9.699999999999955325e-01,-1.000000000000000000e+00,-7.899999999999918199e-01,-1.000000000000000000e+00,-8.399999999999989697e-01,-1.000000000000000000e+00,-1.000000000000000000e+00,-2.999999999999647393e-02,-3.399999999999949729e-01,7.900000000000113598e-01,3.200000000000065015e-01,-9.699999999999990852e-01,6.200000000000094325e-01,-4.899999999999924416e-01,5.800000000000058442e-01,-9.699999999999990852e-01,2.700000000000037925e-01,7.200000000000068567e-01,-2.499999999999975575e-01,-6.399999999999987921e-01,-1.000000000000000000e+00,-9.399999999999990585e-01,-1.000000000000000000e+00,-1.000000000000000000e+00,-1.000000000000000000e+00,-7.199999999999988631e-01,-1.699999999999894928e-01,-2.199999999999922018e-01,-1.000000000000000000e+00,-1.000000000000000000e+00,-3.499999999999976463e-01,-1.000000000000000000e+00,-1.999999999999975131e-01,-6.799999999999979394e-01,-2.399999999999984368e-01,-1.000000000000000000e+00,-1.699999999999894928e-01,-1.000000000000000000e+00,5.600000000000102673e-01,-1.299999999999983391e-01,-1.000000000000000000e+00,-4.499999999999986233e-01,1.100000000000027622e-01,-8.099999999999989431e-01,-1.000000000000000000e+00,1.700000000000045919e-01,4.500000000000066169e-01,-1.000000000000000000e+00,-8.099999999999989431e-01,2.100000000000037392e-01,4.800000000000057554e-01,-2.999999999999984901e-01,-8.699999999999989964e-01,7.100000000000068479e-01,-1.000000000000000000e+00,-1.000000000000000000e+00,-1.000000000000000000e+00,-5.999999999999827693e-02,-1.000000000000000000e+00,-1.000000000000000000e+00,-1.000000000000000000e+00,3.800000000000109956e-01,-7.799999999999989164e-01,-1.000000000000000000e+00,-1.000000000000000000e+00
5.600000000000040501e-01,-1.000000000000000000e+00,7.600000000000051159e-01,-1.000000000000000000e+00,7.600000000000095568e-01,-1.000000000000000000e+00,1.500000000000027978e-01,4.400000000000048317e-01,5.000000000000093259e-01,-2.299999999999984279e-01,-1.000000000000000000e+00,-3.699999999999985523e-01,-8.899999999999981259e-01,-8.299999999999945199e-01,8.600000000000034284e-01,1.800000000000081535e-01,-1.000000000000000000e+00,-7.799999999999980282e-01,-1.000000000000000000e+00,2.900000000000064748e-01,-2.999999999999647393e-02,-3.399999999999949729e-01,7.900000000000113598e-01,3.200000000000065015e-01,-9.699999999999990852e-01,6.200000000000094325e-01,-4.899999999999924416e-01,5.800000000000058442e-01,-9.699999999999990852e-01,2.700000000000037925e-01,-1.000000000000000000e+00,-5.199999999999986855e-01,-1.000000000000000000e+00,8.100000000000042721e-01,-9.799999999999990941e-01,-7.499999999999926725e-01,-1.000000000000000000e+00,-1.000000000000000000e+00,2.600000000000028955e-01,-1.699999999999894928e-01,5.600000000000093792e-01,-1.000000000000000000e+00,-1.000000000000000000e+00,-1.000000000000000000e+00,-1.000000000000000000e+00,-5.899999999999969713e-01,-6.799999999999979394e-01,-5.899999999999987477e-01,-1.000000000000000000e+00,-1.699999999999894928e-01,-7.099999999999988542e-01,-1.000000000000000000e+00,-1.299999999999983391e-01,-1.000000000000000000e+00,-1.000000000000000000e+00,1.100000000000027622e-01,-1.000000000000000000e+00,-1.999999999999824141e-02,-1.000000000000000000e+00,4.500000000000066169e-01,-1.000000000000000000e+00,-8.099999999999989431e-01,2.100000000000037392e-01,4.200000000000048139e-01,-9.599999999999981881e-01,-1.000000000000000000e+00,7.100000000000068479e-01,-1.000000000000000000e+00,-9.599999999999990763e-01,-1.000000000000000000e+00,-1.000000000000000000e+00,-1.000000000000000000e+00,-1.000000000000000000e+00,-1.000000000000000000e+00,4.200000000000145839e-01,-1.000000000000000000e+00,-1.000000000000000000e+00,-1.000000000000000000e+00
5.600000000000040501e-01,-1.000000000000000000e+00,7.600000000000051159e-01,-1.000000000000000000e+00,-1.000000000000000000e+00,-8.899999999999990141e-01,5.000000000000359712e-02,-4.599999999999959677e-01,5.000000000000093259e-01,-2.299999999999984279e-01,-1.000000000000000000e+00,-1.000000000000000000e+00,-8.899999999999981259e-01,-1.000000000000000000e+00,-1.099999999999983213e-01,-7.899999999999918199e-01,-1.000000000000000000e+00,1.900000000000037215e-01,-5.399999999999987033e-01,2.900000000000064748e-01,-2.999999999999647393e-02,-2.999999999999949374e-01,7.900000000000113598e-01,1.200000000000045475e-01,-1.000000000000000000e+00,5.500000000000084821e-01,-4.899999999999924416e-01,5.800000000000058442e-01,-1.000000000000000000e+00,2.700000000000037925e-01,-1.000000000000000000e+00,2.700000000000029043e-01,-1.000000000000000000e+00,9.600000000000052935e-01,-9.799999999999990941e-01,-5.499999999999924949e-01,-1.000000000000000000e+00,-1.000000000000000000e+00,-7.199999999999988631e-01,-1.699999999999894928e-01,-2.199999999999922018e-01,-1.000000000000000000e+00,-1.000000000000000000e+00,5.700000000000040590e-01,-1.000000000000000000e+00,-1.999999999999975131e-01,-1.000000000000000000e+00,-2.399999999999984368e-01,-1.000000000000000000e+00,-1.699999999999894928e-01,-1.000000000000000000e+00,-1.299999999999903455e-01,-1.000000000000000000e+00,-1.000000000000000000e+00,-1.000000000000000000e+00,-3.099999999999984990e-01,-1.000000000000000000e+00,-1.000000000000000000e+00,2.500000000000055511e-01,4.500000000000066169e-01,-5.699999999999987299e-01,-8.099999999999989431e-01,2.100000000000037392e-01,4.800000000000057554e-01,-2.999999999999984901e-01,-8.699999999999989964e-01,7.100000000000068479e-01,-5.099999999999986766e-01,-9.599999999999990763e-01,-1.000000000000000000e+00,-1.000000000000000000e+00,-1.000000000000000000e+00,-1.000000000000000000e+00,-1.000000000000000000e+00,3.800000000000109956e-01,-1.000000000000000000e+00,-1.000000000000000000e+00,-1.000000000000000000e+00
5.600000000000040501e-01,-1.000000000000000000e+00,7.600000000000051159e-01,-1.000000000000000000e+00,7.600000000000095568e-01,-1.000000000000000000e+00,1.500000000000027978e-01,-4.999999999999942268e-01,5.000000000000093259e-01,-2.299999999999984279e-01,-1.000000000000000000e+00,-3.699999999999985523e-01,-9.999999999999973355e-01,-9.699999999999955325e-01,2.100000000000028511e-01,-1.000000000000000000e+00,-1.000000000000000000e+00,-1.000000000000000000e+00,1.600000000000036948e-01,2.900000000000064748e-01,-2.999999999999647393e-02,-3.399999999999949729e-01,7.900000000000113598e-01,3.200000000000065015e-01,-9.699999999999990852e-01,5.500000000000084821e-01,-4.899999999999924416e-01,5.800000000000058442e-01,-9.699999999999990852e-01,2.700000000000037925e-01,-4.999999999999471534e-02,-5.199999999999986855e-01,-1.000000000000000000e+00,8.100000000000042721e-01,-9.799999999999990941e-01,-7.499999999999926725e-01,-1.000000000000000000e+00,-1.000000000000000000e+00,-7.499999999999971134e-01,-1.699999999999894928e-01,-2.199999999999922018e-01,-1.000000000000000000e+00,-8.299999999999927436e-01,-3.499999999999976463e-01,-1.000000000000000000e+00,-1.099999999999965450e-01,-1.000000000000000000e+00,-2.399999999999984368e-01,-1.000000000000000000e+00,-1.699999999999894928e-01,-7.099999999999988542e-01,-8.999999999999119815e-02,-1.299999999999983391e-01,-1.000000000000000000e+00,-1.000000000000000000e+00,1.100000000000027622e-01,-6.999999999999828582e-02,-1.000000000000000000e+00,-1.000000000000000000e+00,4.500000000000066169e-01,-1.000000000000000000e+00,-8.099999999999989431e-01,-3.099999999999976108e-01,4.200000000000048139e-01,-9.599999999999981881e-01,-1.000000000000000000e+00,7.100000000000068479e-01,-1.000000000000000000e+00,-9.599999999999990763e-01,-1.000000000000000000e+00,-1.000000000000000000e+00,-1.000000000000000000e+00,-1.000000000000000000e+00,-1.000000000000000000e+00,3.800000000000109956e-01,-1.000000000000000000e+00,-1.000000000000000000e+00,-1.000000000000000000e+00
2.300000000000046452e-01,-1.000000000000000000e+00,7.600000000000051159e-01,-1.000000000000000000e+00,9.200000000000105871e-01,-1.000000000000000000e+00,1.500000000000027978e-01,-4.599999999999959677e-01,5.000000000000093259e-01,-6.699999999999979305e-01,-1.000000000000000000e+00,-1.000000000000000000e+00,-8.899999999999981259e-01,-9.299999999999946088e-01,-1.000000000000000000e+00,-7.899999999999918199e-01,-1.000000000000000000e+00,1.900000000000037215e-01,-5.399999999999987033e-01,-6.099999999999969891e-01,-2.999999999999647393e-02,-2.999999999999949374e-01,7.900000000000113598e-01,3.200000000000065015e-01,-1.000000000000000000e+00,5.100000000000119993e-01,-4.899999999999924416e-01,5.800000000000058442e-01,-9.699999999999990852e-01,3.200000000000029488e-01,-1.000000000000000000e+00,-1.000000000000000000e+00,-6.399999999999987921e-01,8.100000000000042721e-01,-9.399999999999990585e-01,-1.000000000000000000e+00,-1.000000000000000000e+00,-1.999999999999824141e-02,-7.199999999999988631e-01,-1.699999999999894928e-01,2.800000000000073541e-01,-1.000000000000000000e+00,-1.000000000000000000e+00,7.000000000000361489e-02,2.600000000000037836e-01,-1.799999999999966072e-01,-6.799999999999979394e-01,3.600000000000029843e-01,-1.000000000000000000e+00,-1.699999999999894928e-01,-1.000000000000000000e+00,-1.000000000000000000e+00,1.100000000000027622e-01,-1.000000000000000000e+00,-1.000000000000000000e+00,-3.099999999999984990e-01,-1.000000000000000000e+00,-1.000000000000000000e+00,2.500000000000055511e-01,6.600000000000076916e-01,-1.000000000000000000e+00,-8.099999999999989431e-01,2.100000000000037392e-01,4.800000000000057554e-01,-1.000000000000000000e+00,-1.000000000000000000e+00,7.100000000000068479e-01,-1.000000000000000000e+00,-1.000000000000000000e+00,-1.000000000000000000e+00,-9.999999999997344347e-03,-8.799999999999981171e-01,-1.000000000000000000e+00,-1.000000000000000000e+00,4.200000000000145839e-01,-1.499999999999974687e-01,-1.000000000000000000e+00,-1.000000000000000000e+00
5.600000000000040501e-01,-1.000000000000000000e+00,7.600000000000051159e-01,-1.000000000000000000e+00,7.600000000000095568e-01,-8.899999999999990141e-01,5.000000000000359712e-02,-1.000000000000000000e+00,5.000000000000093259e-01,-2.299999999999984279e-01,-1.000000000000000000e+00,-3.699999999999985523e-01,-8.899999999999981259e-01,-9.699999999999955325e-01,-1.099999999999983213e-01,-9.099999999999910383e-01,-1.000000000000000000e+00,1.900000000000037215e-01,-5.399999999999987033e-01,2.900000000000064748e-01,4.900000000000048761e-01,-3.399999999999949729e-01,8.400000000000105160e-01,3.200000000000065015e-01,-5.199999999999986855e-01,6.200000000000094325e-01,-4.899999999999924416e-01,5.800000000000058442e-01,-9.699999999999990852e-01,2.700000000000037925e-01,-4.999999999999471534e-02,-5.199999999999986855e-01,-6.399999999999987921e-01,8.100000000000042721e-01,-9.399999999999990585e-01,-3.899999999999914646e-01,-1.000000000000000000e+00,-1.000000000000000000e+00,-1.999999999999735323e-02,-1.699999999999894928e-01,-2.199999999999922018e-01,-1.000000000000000000e+00,-1.000000000000000000e+00,-3.499999999999976463e-01,-2.699999999999966871e-01,-1.999999999999975131e-01,-5.699999999999987299e-01,-2.399999999999984368e-01,-1.000000000000000000e+00,-1.699999999999894928e-01,-7.099999999999988542e-01,-1.299999999999903455e-01,8.700000000000043254e-01,-1.000000000000000000e+00,-1.000000000000000000e+00,5.300000000000031353e-01,-1.000000000000000000e+00,-2.999999999999647393e-02,-1.000000000000000000e+00,4.500000000000066169e-01,-1.000000000000000000e+00,-8.099999999999989431e-01,-7.099999999999961897e-01,2.300000000000064215e-01,-1.000000000000000000e+00,-8.699999999999989964e-01,7.100000000000068479e-01,-1.000000000000000000e+00,-1.000000000000000000e+00,-6.499999999999988010e-01,-5.599999999999987210e-01,-1.000000000000000000e+00,-1.000000000000000000e+00,-1.000000000000000000e+00,3.800000000000109956e-01,-1.000000000000000000e+00,-1.000000000000000000e+00,-1.000000000000000000e+00
4.100000000000048050e-01,-9.999999999998232525e-03,7.600000000000051159e-01,-1.000000000000000000e+00,9.200000000000105871e-01,-1.000000000000000000e+00,1.500000000000027978e-01,-4.599999999999959677e-01,7.400000000000095390e-01,-2.299999999999984279e-01,-1.000000000000000000e+00,-1.000000000000000000e+00,-8.899999999999981259e-01,-9.699999999999955325e-01,8.600000000000034284e-01,1.800000000000081535e-01,-1.000000000000000000e+00,-8.399999999999989697e-01,-5.399999999999987033e-01,-1.000000000000000000e+00,-2.999999999999647393e-02,-4.099999999999950351e-01,7.900000000000113598e-01,3.200000000000065015e-01,-1.000000000000000000e+00,6.200000000000094325e-01,-4.899999999999924416e-01,8.400000000000069633e-01,-9.699999999999990852e-01,2.700000000000037925e-01,-1.000000000000000000e+00,-1.000000000000000000e+00,-1.000000000000000000e+00,8.100000000000042721e-01,-9.799999999999990941e-01,-5.499999999999924949e-01,-1.000000000000000000e+00,-1.000000000000000000e+00,-7.199999999999988631e-01,-1.699999999999894928e-01,-1.000000000000000000e+00,-1.000000000000000000e+00,-1.000000000000000000e+00,-3.499999999999976463e-01,-1.000000000000000000e+00,-1.999999999999975131e-01,-5.699999999999987299e-01,2.500000000000028866e-01,-1.000000000000000000e+00,-6.799999999999890576e-01,-7.099999999999988542e-01,5.200000000000102318e-01,-1.299999999999983391e-01,-1.000000000000000000e+00,-1.000000000000000000e+00,3.400000000000029665e-01,-6.999999999999828582e-02,-1.000000000000000000e+00,1.300000000000054445e-01,4.500000000000066169e-01,-2.999999999999984901e-01,-8.099999999999989431e-01,2.900000000000046985e-01,4.200000000000048139e-01,-1.000000000000000000e+00,-7.699999999999989075e-01,7.100000000000068479e-01,-1.000000000000000000e+00,-9.599999999999990763e-01,-1.000000000000000000e+00,-1.000000000000000000e+00,-8.799999999999981171e-01,-3.899999999999985700e-01,-1.000000000000000000e+00,-1.000000000000000000e+00,-1.000000000000000000e+00,-1.000000000000000000e+00,-1.000000000000000000e+00
2.300000000000046452e-01,-1.000000000000000000e+00,7.600000000000051159e-01,-1.000000000000000000e+00,7.600000000000095568e-01,-1.000000000000000000e+00,1.500000000000027978e-01,-4.599999999999959677e-01,5.000000000000093259e-01,-2.299999999999984279e-01,-1.000000000000000000e+00,-1.000000000000000000e+00,-6.799999999999970512e-01,-1.000000000000000000e+00,-1.000000000000000000e+00,-7.899999999999918199e-01,-1.000000000000000000e+00,-8.399999999999989697e-01,4.300000000000030465e-01,-8.599999999999989875e-01,-2.999999999999647393e-02,-2.999999999999949374e-01,7.900000000000113598e-01,3.200000000000065015e-01,-9.699999999999990852e-01,6.200000000000094325e-01,-2.699999999999913580e-01,5.800000000000058442e-01,-9.699999999999990852e-01,2.700000000000037925e-01,-1.000000000000000000e+00,-2.499999999999975575e-01,-1.000000000000000000e+00,8.100000000000042721e-01,-9.399999999999990585e-01,-5.499999999999924949e-01,-1.000000000000000000e+00,-1.000000000000000000e+00,-7.199999999999988631e-01,-1.699999999999894928e-01,-3.699999999999923350e-01,-1.000000000000000000e+00,-1.000000000000000000e+00,-3.499999999999976463e-01,-1.000000000000000000e+00,-1.000000000000000000e+00,-6.799999999999979394e-01,-2.399999999999984368e-01,-1.000000000000000000e+00,-1.699999999999894928e-01,-1.000000000000000000e+00,-1.000000000000000000e+00,8.700000000000043254e-01,-1.000000000000000000e+00,-1.000000000000000000e+00,-3.099999999999984990e-01,-1.000000000000000000e+00,-1.000000000000000000e+00,9.700000000000061906e-01,4.500000000000066169e-01,-1.000000000000000000e+00,-9.999999999999742428e-02,2.100000000000037392e-01,4.800000000000057554e-01,-1.000000000000000000e+00,-1.000000000000000000e+00,7.100000000000068479e-01,-1.000000000000000000e+00,-1.000000000000000000e+00,-1.000000000000000000e+00,-5.599999999999987210e-01,-1.000000000000000000e+00,-1.000000000000000000e+00,-1.000000000000000000e+00,3.800000000000109956e-01,-1.000000000000000000e+00,-1.000000000000000000e+00,-1.000000000000000000e+00
5.600000000000040501e-01,-1.000000000000000000e+00,7.600000000000051159e-01,-1.000000000000000000e+00,7.600000000000095568e-01,-1.000000000000000000e+00,1.500000000000027978e-01,-4.999999999999942268e-01,5.000000000000093259e-01,-2.299999999999984279e-01,-1.000000000000000000e+00,-1.000000000000000000e+00,-1.000000000000000000e+00,-9.699999999999955325e-01,-1.000000000000000000e+00,-1.000000000000000000e+00,-1.000000000000000000e+00,-7.799999999999980282e-01,1.600000000000036948e-01,2.900000000000064748e-01,-2.999999999999647393e-02,-3.399999999999949729e-01,6.300000000000112177e-01,1.200000000000045475e-01,-8.499999999999989786e-01,5.500000000000084821e-01,-2.599999999999984546e-01,5.800000000000058442e-01,-1.000000000000000000e+00,5.800000000000049560e-01,-4.999999999999471534e-02,-5.199999999999986855e-01,-1.000000000000000000e+00,8.100000000000042721e-01,-1.000000000000000000e+00,-1.999999999999904077e-01,-1.000000000000000000e+00,-8.199999999999989519e-01,2.600000000000028955e-01,-5.999999999999889866e-01,2.800000000000073541e-01,-1.000000000000000000e+00,-8.299999999999927436e-01,1.100000000000036504e-01,-6.599999999999979217e-01,-1.799999999999966072e-01,-1.000000000000000000e+00,-1.000000000000000000e+00,-1.000000000000000000e+00,-1.699999999999894928e-01,-1.000000000000000000e+00,5.600000000000102673e-01,-1.299999999999983391e-01,-1.299999999999983391e-01,-1.000000000000000000e+00,6.400000000000032330e-01,-1.000000000000000000e+00,-1.000000000000000000e+00,-8.099999999999989431e-01,-1.799999999999930544e-01,-1.000000000000000000e+00,-1.000000000000000000e+00,2.100000000000037392e-01,1.400000000000063416e-01,-1.000000000000000000e+00,-8.699999999999989964e-01,7.100000000000068479e-01,-1.000000000000000000e+00,-9.599999999999990763e-01,-1.000000000000000000e+00,-1.000000000000000000e+00,-5.199999999999986855e-01,-3.499999999999985345e-01,-1.000000000000000000e+00,3.800000000000109956e-01,-1.000000000000000000e+00,-1.000000000000000000e+00,-1.000000000000000000e+00
5.600000000000040501e-01,-1.000000000000000000e+00,7.600000000000051159e-01,-1.000000000000000000e+00,7.600000000000095568e-01,-8.899999999999990141e-01,1.500000000000027978e-01,-4.599999999999959677e-01,9.500000000000106137e-01,-2.299999999999984279e-01,-1.000000000000000000e+00,-3.699999999999985523e-01,-8.899999999999981259e-01,-1.000000000000000000e+00,-1.099999999999983213e-01,1.800000000000081535e-01,-1.000000000000000000e+00,-7.999999999999740652e-02,3.600000000000029843e-01,-2.699999999999931344e-01,4.900000000000048761e-01,-3.399999999999949729e-01,8.400000000000105160e-01,1.200000000000045475e-01,-1.000000000000000000e+00,6.200000000000094325e-01,-4.899999999999924416e-01,5.800000000000058442e-01,-9.699999999999990852e-01,2.700000000000037925e-01,-4.999999999999471534e-02,-2.499999999999975575e-01,-1.000000000000000000e+00,8.100000000000042721e-01,-9.399999999999990585e-01,-1.000000000000000000e+00,-1.000000000000000000e+00,-1.000000000000000000e+00,-7.199999999999988631e-01,-1.699999999999894928e-01,-2.199999999999922018e-01,-8.099999999999989431e-01,-1.000000000000000000e+00,5.700000000000040590e-01,-1.000000000000000000e+00,-1.000000000000000000e+00,-6.799999999999979394e-01,-2.399999999999984368e-01,-1.000000000000000000e+00,-1.699999999999894928e-01,-1.000000000000000000e+00,-1.299999999999903455e-01,-1.299999999999983391e-01,-1.000000000000000000e+00,-1.000000000000000000e+00,-3.099999999999984990e-01,-1.000000000000000000e+00,-2.999999999999647393e-02,1.700000000000045919e-01,4.500000000000066169e-01,-1.000000000000000000e+00,-1.000000000000000000e+00,2.100000000000037392e-01,4.800000000000057554e-01,-4.499999999999977351e-01,-8.699999999999989964e-01,7.100000000000068479e-01,-1.000000000000000000e+00,-1.000000000000000000e+00,-1.000000000000000000e+00,-1.000000000000000000e+00,-1.000000000000000000e+00,-1.000000000000000000e+00,-1.000000000000000000e+00,3.800000000000109956e-01,-1.000000000000000000e+00,-1.000000000000000000e+00,-1.000000000000000000e+00
5.600000000000040501e-01,-1.000000000000000000e+00,7.600000000000051159e-01,-1.000000000000000000e+00,9.200000000000105871e-01,-1.000000000000000000e+00,1.500000000000027978e-01,-4.599999999999959677e-01,5.000000000000093259e-01,-2.299999999999984279e-01,-1.000000000000000000e+00,-1.699999999999983746e-01,-8.899999999999981259e-01,-9.299999999999946088e-01,-1.000000000000000000e+00,-1.000000000000000000e+00,-1.000000000000000000e+00,1.900000000000037215e-01,-5.399999999999987033e-01,-7.099999999999979661e-01,-2.999999999999647393e-02,-4.099999999999950351e-01,8.400000000000105160e-01,3.200000000000065015e-01,-8.499999999999989786e-01,1.600000000000108002e-01,-1.000000000000000000e+00,8.400000000000069633e-01,-9.699999999999990852e-01,2.700000000000037925e-01,-7.999999999999989342e-01,-1.000000000000000000e+00,-1.000000000000000000e+00,8.100000000000042721e-01,-1.000000000000000000e+00,2.400000000000090949e-01,-1.000000000000000000e+00,-1.999999999999824141e-02,-7.199999999999988631e-01,-3.999999999998848921e-02,2.800000000000073541e-01,-1.000000000000000000e+00,-1.000000000000000000e+00,-3.499999999999976463e-01,-6.599999999999979217e-01,-1.799999999999966072e-01,-1.000000000000000000e+00,-9.399999999999981704e-01,-9.699999999999981970e-01,3.600000000000118661e-01,-1.000000000000000000e+00,-1.000000000000000000e+00,1.100000000000027622e-01,-1.000000000000000000e+00,-1.000000000000000000e+00,2.900000000000029221e-01,-1.000000000000000000e+00,-1.000000000000000000e+00,-1.000000000000000000e+00,4.500000000000066169e-01,-1.000000000000000000e+00,-1.000000000000000000e+00,2.100000000000037392e-01,1.400000000000063416e-01,-1.000000000000000000e+00,-8.699999999999989964e-01,4.300000000000074873e-01,-1.000000000000000000e+00,-1.000000000000000000e+00,-1.000000000000000000e+00,-5.999999999999827693e-02,-5.199999999999986855e-01,-1.000000000000000000e+00,-1.000000000000000000e+00,3.800000000000109956e-01,-1.000000000000000000e+00,-1.000000000000000000e+00,-1.000000000000000000e+00
5.600000000000040501e-01,-9.399999999999990585e-01,7.600000000000051159e-01,-1.000000000000000000e+00,7.600000000000095568e-01,-1.000000000000000000e+00,1.500000000000027978e-01,-4.599999999999959677e-01,5.000000000000093259e-01,-2.299999999999984279e-01,-1.000000000000000000e+00,-1.000000000000000000e+00,-8.899999999999981259e-01,-1.000000000000000000e+00,-1.000000000000000000e+00,1.800000000000081535e-01,-1.000000000000000000e+00,-8.399999999999989697e-01,-5.399999999999987033e-01,-1.000000000000000000e+00,-2.999999999999647393e-02,-3.399999999999949729e-01,8.400000000000105160e-01,3.200000000000065015e-01,-9.699999999999990852e-01,6.200000000000094325e-01,-4.899999999999924416e-01,5.800000000000058442e-01,-9.699999999999990852e-01,2.700000000000037925e-01,7.200000000000068567e-01,-2.499999999999975575e-01,-1.000000000000000000e+00,8.100000000000042721e-01,-9.399999999999990585e-01,-1.000000000000000000e+00,-1.000000000000000000e+00,-1.000000000000000000e+00,-7.199999999999988631e-01,3.500000000000118572e-01,-2.199999999999922018e-01,-1.000000000000000000e+00,-1.000000000000000000e+00,-3.499999999999976463e-01,-9.199999999999990408e-01,-1.099999999999965450e-01,-5.699999999999987299e-01,-2.399999999999984368e-01,-1.000000000000000000e+00,-1.699999999999894928e-01,-7.099999999999988542e-01,1.400000000000107825e-01,-1.299999999999983391e-01,-1.000000000000000000e+00,-1.000000000000000000e+00,1.100000000000027622e-01,-6.999999999999828582e-02,-1.000000000000000000e+00,-1.000000000000000000e+00,4.500000000000066169e-01,-1.199999999999983302e-01,-8.099999999999989431e-01,2.100000000000037392e-01,4.200000000000048139e-01,-1.000000000000000000e+00,-5.499999999999987121e-01,7.100000000000068479e-01,-1.000000000000000000e+00,-9.599999999999990763e-01,-1.000000000000000000e+00,-1.000000000000000000e+00,-1.000000000000000000e+00,-1.000000000000000000e+00,-1.000000000000000000e+00,3.800000000000109956e-01,-1.000000000000000000e+00,-9.499999999999990674e-01,-1.000000000000000000e+00
5.600000000000040501e-01,-1.000000000000000000e+00,7.600000000000051159e-01,-1.000000000000000000e+00,7.600000000000095568e-01,-1.000000000000000000e+00,-3.999999999999968026e-01,4.600000000000066258e-01,5.000000000000093259e-01,-2.299999999999984279e-01,-1.000000000000000000e+00,-1.299999999999974509e-01,-8.899999999999981259e-01,-9.299999999999946088e-01,-1.000000000000000000e+00,-1.000000000000000000e+00,-1.000000000000000000e+00,-7.799999999999980282e-01,-5.399999999999987033e-01,-6.099999999999969891e-01,-2.999999999999647393e-02,-3.399999999999949729e-01,3.400000000000109601e-01,3.200000000000065015e-01,-1.000000000000000000e+00,1.600000000000108002e-01,-4.899999999999924416e-01,-1.000000000000000000e+00,-9.699999999999990852e-01,3.200000000000029488e-01,-4.599999999999986322e-01,-1.000000000000000000e+00,-1.000000000000000000e+00,8.100000000000042721e-01,1.400000000000027889e-01,-5.499999999999924949e-01,-1.000000000000000000e+00,-1.999999999999824141e-02,-7.199999999999988631e-01,-1.699999999999894928e-01,-2.199999999999922018e-01,-1.000000000000000000e+00,-1.000000000000000000e+00,1.100000000000036504e-01,2.600000000000037836e-01,-1.799999999999966072e-01,-6.799999999999979394e-01,-5.899999999999987477e-01,-1.000000000000000000e+00,-1.699999999999894928e-01,-7.899999999999989253e-01,6.000000000000103029e-01,-1.000000000000000000e+00,-1.000000000000000000e+00,-1.000000000000000000e+00,3.400000000000029665e-01,-1.000000000000000000e+00,-9.699999999999990852e-01,-1.000000000000000000e+00,4.500000000000066169e-01,-1.000000000000000000e+00,-8.099999999999989431e-01,-6.299999999999952305e-01,4.800000000000057554e-01,-1.000000000000000000e+00,-8.699999999999989964e-01,4.300000000000074873e-01,-1.000000000000000000e+00,-1.000000000000000000e+00,-1.000000000000000000e+00,-9.999999999997344347e-03,-5.199999999999986855e-01,-1.000000000000000000e+00,-1.000000000000000000e+00,3.800000000000109956e-01,-1.000000000000000000e+00,-6.699999999999988187e-01,-1.000000000000000000e+00
5.600000000000040501e-01,-1.000000000000000000e+00,7.600000000000051159e-01,-1.000000000000000000e+00,7.600000000000095568e-01,-1.000000000000000000e+00,1.500000000000027978e-01,-4.599999999999959677e-01,5.000000000000093259e-01,-2.299999999999984279e-01,-1.000000000000000000e+00,-1.699999999999983746e-01,-9.999999999999973355e-01,-9.299999999999946088e-01,-1.000000000000000000e+00,-1.000000000000000000e+00,-1.000000000000000000e+00,-7.799999999999980282e-01,-5.399999999999987033e-01,2.900000000000064748e-01,-2.999999999999647393e-02,-3.399999999999949729e-01,6.300000000000112177e-01,1.200000000000045475e-01,-1.000000000000000000e+00,1.600000000000108002e-01,-4.899999999999924416e-01,8.400000000000069633e-01,-9.699999999999990852e-01,2.700000000000037925e-01,-1.000000000000000000e+00,-5.199999999999986855e-01,-1.000000000000000000e+00,8.100000000000042721e-01,1.400000000000027889e-01,-7.499999999999926725e-01,-1.000000000000000000e+00,-1.999999999999824141e-02,2.600000000000028955e-01,-1.699999999999894928e-01,-2.199999999999922018e-01,-1.000000000000000000e+00,6.000000000000893507e-02,1.100000000000036504e-01,2.600000000000037836e-01,-1.799999999999966072e-01,-6.799999999999979394e-01,3.600000000000029843e-01,-1.000000000000000000e+00,-1.699999999999894928e-01,-1.000000000000000000e+00,-1.000000000000000000e+00,-1.299999999999983391e-01,-1.000000000000000000e+00,-1.000000000000000000e+00,-8.999999999999741540e-02,-1.000000000000000000e+00,-1.000000000000000000e+00,-1.000000000000000000e+00,4.500000000000066169e-01,-1.000000000000000000e+00,-8.099999999999989431e-01,-3.099999999999976108e-01,4.800000000000057554e-01,-1.000000000000000000e+00,-8.699999999999989964e-01,7.100000000000068479e-01,-1.000000000000000000e+00,-9.599999999999990763e-01,-1.000000000000000000e+00,-9.999999999997344347e-03,-5.199999999999986855e-01,-1.000000000000000000e+00,-4.399999999999977263e-01,3.800000000000109956e-01,-1.000000000000000000e+00,-1.000000000000000000e+00,-1.000000000000000000e+00
5.600000000000040501e-01,-1.000000000000000000e+00,-1.000000000000000000e+00,-1.000000000000000000e+00,9.200000000000105871e-01,-1.000000000000000000e+00,1.500000000000027978e-01,-4.599999999999959677e-01,5.000000000000093259e-01,-2.299999999999984279e-01,-1.000000000000000000e+00,-1.000000000000000000e+00,-8.899999999999981259e-01,-9.299999999999946088e-01,-1.000000000000000000e+00,1.800000000000081535e-01,-9.299999999999990496e-01,1.900000000000037215e-01,-5.399999999999987033e-01,6.700000000000077005e-01,-2.999999999999647393e-02,-3.399999999999949729e-01,8.400000000000105160e-01,3.200000000000065015e-01,-1.000000000000000000e+00,6.200000000000094325e-01,-4.899999999999924416e-01,9.500000000000079492e-01,-9.699999999999990852e-01,2.700000000000037925e-01,-1.000000000000000000e+00,-3.699999999999985523e-01,-1.000000000000000000e+00,4.000000000000047962e-01,1.400000000000027889e-01,-5.499999999999924949e-01,-1.000000000000000000e+00,-1.000000000000000000e+00,-7.199999999999988631e-01,-1.699999999999894928e-01,6.000000000000085265e-01,-1.000000000000000000e+00,6.000000000000893507e-02,-3.499999999999976463e-01,-1.000000000000000000e+00,-1.999999999999975131e-01,-6.799999999999979394e-01,3.600000000000029843e-01,-1.000000000000000000e+00,8.200000000000122746e-01,-1.000000000000000000e+00,-2.699999999999984635e-01,1.100000000000027622e-01,-1.000000000000000000e+00,-1.000000000000000000e+00,-3.099999999999984990e-01,-1.000000000000000000e+00,-1.000000000000000000e+00,1.300000000000054445e-01,4.500000000000066169e-01,-1.000000000000000000e+00,-8.099999999999989431e-01,2.500000000000046629e-01,4.800000000000057554e-01,-1.000000000000000000e+00,-8.699999999999989964e-01,-1.599999999999930367e-01,-1.000000000000000000e+00,-1.000000000000000000e+00,-9.999999999999991118e-01,-1.000000000000000000e+00,-8.799999999999981171e-01,-3.899999999999985700e-01,-3.999999999999648281e-02,4.200000000000145839e-01,-7.999999999999989342e-01,-1.000000000000000000e+00,-5.599999999999987210e-01
5.600000000000040501e-01,-1.000000000000000000e+00,7.600000000000051159e-01,-1.000000000000000000e+00,9.200000000000105871e-01,-1.000000000000000000e+00,-6.799999999999970512e-01,-4.599999999999959677e-01,7.400000000000095390e-01,-2.299999999999984279e-01,-1.000000000000000000e+00,-3.699999999999985523e-01,-9.999999999999973355e-01,-9.699999999999955325e-01,2.100000000000028511e-01,-1.000000000000000000e+00,-1.000000000000000000e+00,1.900000000000037215e-01,2.800000000000046896e-01,2.900000000000064748e-01,-2.999999999999647393e-02,-4.099999999999950351e-01,8.400000000000105160e-01,-3.099999999999931699e-01,-4.599999999999977440e-01,5.500000000000084821e-01,-4.899999999999924416e-01,5.800000000000058442e-01,-9.699999999999990852e-01,2.700000000000037925e-01,-4.999999999999471534e-02,-1.000000000000000000e+00,-1.000000000000000000e+00,8.100000000000042721e-01,-2.299999999999966516e-01,-5.499999999999924949e-01,-1.000000000000000000e+00,-1.000000000000000000e+00,-7.199999999999988631e-01,-1.699999999999894928e-01,-2.199999999999922018e-01,-1.000000000000000000e+00,-8.299999999999927436e-01,-3.499999999999976463e-01,-1.000000000000000000e+00,-5.899999999999969713e-01,-6.799999999999979394e-01,3.600000000000029843e-01,-1.799999999999983835e-01,-1.699999999999894928e-01,-1.000000000000000000e+00,-1.000000000000000000e+00,1.100000000000027622e-01,-1.000000000000000000e+00,-1.000000000000000000e+00,3.400000000000029665e-01,-1.000000000000000000e+00,-1.000000000000000000e+00,-1.000000000000000000e+00,4.500000000000066169e-01,-1.000000000000000000e+00,-8.099999999999989431e-01,2.100000000000037392e-01,9.200000000000096989e-01,-9.599999999999981881e-01,-8.699999999999989964e-01,7.100000000000068479e-01,-1.000000000000000000e+00,-9.599999999999990763e-01,-7.099999999999988542e-01,-1.000000000000000000e+00,-5.199999999999986855e-01,-3.499999999999985345e-01,-3.999999999999648281e-02,3.800000000000109956e-01,-1.000000000000000000e+00,-1.000000000000000000e+00,-8.999999999999990230e-01
-3.599999999999958789e-01,-1.000000000000000000e+00,7.600000000000051159e-01,-1.000000000000000000e+00,7.600000000000095568e-01,-1.000000000000000000e+00,1.500000000000027978e-01,-4.599999999999959677e-01,5.000000000000093259e-01,-2.299999999999984279e-01,-1.000000000000000000e+00,-1.000000000000000000e+00,-8.899999999999981259e-01,-9.699999999999955325e-01,8.600000000000034284e-01,1.800000000000081535e-01,-1.000000000000000000e+00,-8.399999999999989697e-01,-5.399999999999987033e-01,6.700000000000077005e-01,-2.999999999999647393e-02,-3.399999999999949729e-01,7.900000000000113598e-01,3.200000000000065015e-01,-1.000000000000000000e+00,6.200000000000094325e-01,4.400000000000092726e-01,9.500000000000079492e-01,-9.699999999999990852e-01,2.700000000000037925e-01,-8.799999999999990052e-01,-5.199999999999986855e-01,-1.000000000000000000e+00,8.100000000000042721e-01,-9.799999999999990941e-01,-5.499999999999924949e-01,-7.099999999999988542e-01,-1.000000000000000000e+00,-7.499999999999971134e-01,-1.699999999999894928e-01,9.700000000000106315e-01,-1.000000000000000000e+00,-1.000000000000000000e+00,-3.499999999999976463e-01,-1.000000000000000000e+00,-1.099999999999965450e-01,-5.699999999999987299e-01,3.600000000000029843e-01,-1.000000000000000000e+00,-1.699999999999894928e-01,-7.099999999999988542e-01,-8.999999999999119815e-02,-1.299999999999983391e-01,-1.000000000000000000e+00,-1.000000000000000000e+00,1.100000000000027622e-01,-4.399999999999986144e-01,-1.000000000000000000e+00,-1.000000000000000000e+00,-1.799999999999930544e-01,-1.000000000000000000e+00,-8.099999999999989431e-01,2.100000000000037392e-01,4.200000000000048139e-01,-1.000000000000000000e+00,-8.699999999999989964e-01,-1.000000000000000000e+00,-1.000000000000000000e+00,-9.599999999999990763e-01,-5.799999999999987388e-01,-1.000000000000000000e+00,-1.000000000000000000e+00,-1.000000000000000000e+00,-3.999999999999648281e-02,4.200000000000145839e-01,-1.000000000000000000e+00,-1.000000000000000000e+00,-1.000000000000000000e+00
-3.599999999999958789e-01,-1.000000000000000000e+00,7.600000000000051159e-01,-1.499999999999983569e-01,7.600000000000095568e-01,-1.000000000000000000e+00,5.000000000000359712e-02,-4.599999999999959677e-01,5.000000000000093259e-01,-1.000000000000000000e+00,-1.000000000000000000e+00,-1.000000000000000000e+00,-8.899999999999981259e-01,-9.299999999999946088e-01,-1.000000000000000000e+00,-7.899999999999918199e-01,-1.000000000000000000e+00,1.900000000000037215e-01,-5.399999999999987033e-01,6.700000000000077005e-01,-2.999999999999647393e-02,-3.399999999999949729e-01,8.400000000000105160e-01,3.200000000000065015e-01,-9.699999999999990852e-01,2.900000000000100275e-01,-4.899999999999924416e-01,9.500000000000079492e-01,-9.699999999999990852e-01,2.700000000000037925e-01,-1.000000000000000000e+00,2.700000000000029043e-01,-1.000000000000000000e+00,8.100000000000042721e-01,-9.399999999999990585e-01,2.600000000000082245e-01,-1.000000000000000000e+00,-1.000000000000000000e+00,-7.199999999999988631e-01,-1.699999999999894928e-01,6.000000000000085265e-01,-1.000000000000000000e+00,-8.299999999999927436e-01,-3.499999999999976463e-01,-1.000000000000000000e+00,-1.999999999999975131e-01,-5.499999999999969358e-01,3.600000000000029843e-01,-1.000000000000000000e+00,8.200000000000122746e-01,-1.000000000000000000e+00,-1.899999999999895106e-01,-1.299999999999983391e-01,-1.000000000000000000e+00,-1.000000000000000000e+00,-3.099999999999984990e-01,-1.000000000000000000e+00,-1.000000000000000000e+00,2.500000000000055511e-01,4.500000000000066169e-01,-1.000000000000000000e+00,-8.099999999999989431e-01,1.000000000000444977e-02,-8.999999999999386269e-02,-1.000000000000000000e+00,-8.699999999999989964e-01,7.100000000000068479e-01,-1.000000000000000000e+00,-1.000000000000000000e+00,-5.799999999999987388e-01,-5.599999999999987210e-01,-1.000000000000000000e+00,-1.000000000000000000e+00,-3.999999999999648281e-02,3.800000000000109956e-01,-1.000000000000000000e+00,-1.000000000000000000e+00,-1.000000000000000000e+00
5.600000000000040501e-01,-1.000000000000000000e+00,7.600000000000051159e-01,-1.000000000000000000e+00,7.600000000000095568e-01,-1.000000000000000000e+00,1.500000000000027978e-01,4.400000000000048317e-01,5.000000000000093259e-01,-3.399999999999976374e-01,-1.000000000000000000e+00,-1.000000000000000000e+00,-9.999999999999973355e-01,-9.699999999999955325e-01,-1.000000000000000000e+00,-1.000000000000000000e+00,-1.000000000000000000e+00,-8.399999999999989697e-01,-5.399999999999987033e-01,-7.099999999999979661e-01,-2.999999999999647393e-02,-3.399999999999949729e-01,6.300000000000112177e-01,3.200000000000065015e-01,-8.499999999999989786e-01,1.600000000000108002e-01,-4.899999999999924416e-01,8.400000000000069633e-01,-9.699999999999990852e-01,2.700000000000037925e-01,-4.999999999999471534e-02,-5.199999999999986855e-01,-1.000000000000000000e+00,8.100000000000042721e-01,-1.000000000000000000e+00,2.400000000000090949e-01,-1.000000000000000000e+00,-1.000000000000000000e+00,2.600000000000028955e-01,-1.699999999999894928e-01,-2.199999999999922018e-01,-1.000000000000000000e+00,-1.000000000000000000e+00,1.100000000000036504e-01,-6.599999999999979217e-01,-5.899999999999969713e-01,-1.000000000000000000e+00,-5.899999999999987477e-01,-1.000000000000000000e+00,-1.699999999999894928e-01,-1.000000000000000000e+00,-1.000000000000000000e+00,-1.299999999999983391e-01,-1.299999999999983391e-01,-1.000000000000000000e+00,-8.999999999999741540e-02,-6.799999999999988276e-01,-1.000000000000000000e+00,-8.899999999999954614e-01,-2.699999999999931344e-01,-1.000000000000000000e+00,-8.099999999999989431e-01,2.100000000000037392e-01,4.800000000000057554e-01,-9.599999999999981881e-01,-8.699999999999989964e-01,-1.000000000000000000e+00,-1.000000000000000000e+00,-9.599999999999990763e-01,-1.000000000000000000e+00,-5.999999999999827693e-02,-5.199999999999986855e-01,-1.000000000000000000e+00,-4.399999999999977263e-01,3.800000000000109956e-01,-1.000000000000000000e+00,-1.000000000000000000e+00,-1.000000000000000000e+00
5.600000000000040501e-01,-9.399999999999990585e-01,7.600000000000051159e-01,-1.000000000000000000e+00,7.600000000000095568e-01,-1.000000000000000000e+00,1.500000000000027978e-01,-3.599999999999949907e-01,5.000000000000093259e-01,-2.299999999999984279e-01,-1.000000000000000000e+00,-1.000000000000000000e+00,-1.000000000000000000e+00,-9.299999999999946088e-01,-1.000000000000000000e+00,-1.000000000000000000e+00,-1.000000000000000000e+00,-8.399999999999989697e-01,-5.399999999999987033e-01,-6.099999999999969891e-01,-2.999999999999647393e-02,-4.099999999999950351e-01,-1.000000000000000000e+00,3.200000000000065015e-01,-1.000000000000000000e+00,1.600000000000108002e-01,-4.899999999999924416e-01,8.400000000000069633e-01,-9.699999999999990852e-01,3.200000000000029488e-01,-1.000000000000000000e+00,-2.499999999999975575e-01,-1.000000000000000000e+00,8.100000000000042721e-01,1.400000000000027889e-01,-1.000000000000000000e+00,-1.000000000000000000e+00,-1.000000000000000000e+00,-7.199999999999988631e-01,-1.699999999999894928e-01,2.800000000000073541e-01,-8.099999999999989431e-01,-1.599999999999903721e-01,-3.499999999999976463e-01,2.600000000000037836e-01,-1.000000000000000000e+00,-6.799999999999979394e-01,3.600000000000029843e-01,-1.000000000000000000e+00,-1.699999999999894928e-01,-1.000000000000000000e+00,5.600000000000102673e-01,1.100000000000027622e-01,-1.000000000000000000e+00,-1.000000000000000000e+00,-3.399999999999967493e-01,-1.000000000000000000e+00,-1.000000000000000000e+00,1.700000000000045919e-01,4.500000000000066169e-01,-1.000000000000000000e+00,-8.099999999999989431e-01,2.100000000000037392e-01,4.200000000000048139e-01,-2.999999999999984901e-01,-8.699999999999989964e-01,7.100000000000068479e-01,-1.000000000000000000e+00,-1.000000000000000000e+00,-1.000000000000000000e+00,-9.999999999997344347e-03,-1.000000000000000000e+00,-5.999999999999827693e-02,-5.899999999999987477e-01,4.200000000000145839e-01,-6.999999999999988454e-01,-9.499999999999990674e-01,-1.000000000000000000e+00
5.600000000000040501e-01,-1.000000000000000000e+00,2.000000000000055067e-01,-1.000000000000000000e+00,9.200000000000105871e-01,-1.000000000000000000e+00,1.500000000000027978e-01,-4.599999999999959677e-01,7.400000000000095390e-01,-2.299999999999984279e-01,-1.000000000000000000e+00,-1.699999999999983746e-01,-8.899999999999981259e-01,-9.299999999999946088e-01,-1.000000000000000000e+00,1.800000000000081535e-01,-9.299999999999990496e-01,1.900000000000037215e-01,-5.399999999999987033e-01,6.700000000000077005e-01,-2.999999999999647393e-02,-4.099999999999950351e-01,9.000000000001073808e-02,3.200000000000065015e-01,-1.000000000000000000e+00,6.200000000000094325e-01,-4.899999999999924416e-01,1.200000000000063238e-01,-5.599999999999978328e-01,3.200000000000029488e-01,-1.000000000000000000e+00,-1.000000000000000000e+00,-1.000000000000000000e+00,8.100000000000042721e-01,1.400000000000027889e-01,-5.499999999999924949e-01,-1.000000000000000000e+00,-1.000000000000000000e+00,-7.199999999999988631e-01,-1.699999999999894928e-01,2.800000000000073541e-01,-1.000000000000000000e+00,6.000000000000893507e-02,-3.499999999999976463e-01,2.600000000000037836e-01,-1.999999999999975131e-01,-6.799999999999979394e-01,3.600000000000029843e-01,-1.000000000000000000e+00,-1.699999999999894928e-01,-1.000000000000000000e+00,-2.699999999999984635e-01,1.100000000000027622e-01,-1.000000000000000000e+00,-1.000000000000000000e+00,3.400000000000029665e-01,-1.000000000000000000e+00,-1.000000000000000000e+00,1.300000000000054445e-01,4.500000000000066169e-01,-1.000000000000000000e+00,-8.099999999999989431e-01,-6.299999999999952305e-01,1.400000000000063416e-01,-1.000000000000000000e+00,-8.699999999999989964e-01,4.300000000000074873e-01,-1.000000000000000000e+00,-1.000000000000000000e+00,-1.000000000000000000e+00,-9.999999999997344347e-03,-8.799999999999981171e-01,-3.899999999999985700e-01,-1.000000000000000000e+00,4.200000000000145839e-01,-6.999999999999988454e-01,-1.000000000000000000e+00,-1.000000000000000000e+00
-1.000000000000000000e+00,-1.000000000000000000e+00,7.600000000000051159e-01,-1.000000000000000000e+00,9.200000000000105871e-01,-1.000000000000000000e+00,1.500000000000027978e-01,-4.599999999999959677e-01,7.400000000000095390e-01,-2.299999999999984279e-01,-1.000000000000000000e+00,-1.000000000000000000e+00,-8.899999999999981259e-01,-9.299999999999946088e-01,-1.000000000000000000e+00,1.800000000000081535e-01,-9.299999999999990496e-01,-8.399999999999989697e-01,1.600000000000036948e-01,-8.599999999999989875e-01,-2.999999999999647393e-02,-5.999999999999383604e-02,-1.899999999999886224e-01,3.200000000000065015e-01,-1.000000000000000000e+00,6.200000000000094325e-01,-4.899999999999924416e-01,4.200000000000074785e-01,-9.699999999999990852e-01,2.700000000000037925e-01,-1.000000000000000000e+00,-6.199999999999978861e-01,-1.000000000000000000e+00,8.100000000000042721e-01,-9.799999999999990941e-01,-3.199999999999914024e-01,-1.000000000000000000e+00,-1.000000000000000000e+00,-7.499999999999971134e-01,-1.699999999999894928e-01,5.600000000000093792e-01,-1.000000000000000000e+00,6.000000000000893507e-02,-3.499999999999976463e-01,-1.000000000000000000e+00,-1.999999999999975131e-01,2.000000000000268230e-02,-2.399999999999984368e-01,-1.000000000000000000e+00,-1.699999999999894928e-01,-7.099999999999988542e-01,-8.999999999999119815e-02,1.100000000000027622e-01,-1.000000000000000000e+00,-4.199999999999985967e-01,-9.999999999999653610e-02,-1.000000000000000000e+00,-1.000000000000000000e+00,-1.000000000000000000e+00,-1.799999999999930544e-01,-1.000000000000000000e+00,-8.099999999999989431e-01,2.100000000000037392e-01,4.200000000000048139e-01,-1.000000000000000000e+00,-1.000000000000000000e+00,7.100000000000068479e-01,-1.000000000000000000e+00,-1.000000000000000000e+00,-1.000000000000000000e+00,-1.000000000000000000e+00,-8.799999999999981171e-01,-3.899999999999985700e-01,-1.000000000000000000e+00,4.200000000000145839e-01,-1.000000000000000000e+00,-1.000000000000000000e+00,-1.000000000000000000e+00
5.600000000000040501e-01,-1.000000000000000000e+00,7.600000000000051159e-01,-1.000000000000000000e+00,7.600000000000095568e-01,-1.000000000000000000e+00,1.500000000000027978e-01,-4.599999999999959677e-01,5.000000000000093259e-01,-2.299999999999984279e-01,-1.000000000000000000e+00,-3.699999999999985523e-01,-8.699999999999972200e-01,-9.699999999999955325e-01,-1.099999999999983213e-01,1.800000000000081535e-01,-1.000000000000000000e+00,1.900000000000037215e-01,1.600000000000036948e-01,2.900000000000064748e-01,-2.999999999999647393e-02,-3.399999999999949729e-01,-1.000000000000000000e+00,3.200000000000065015e-01,-8.499999999999989786e-01,1.600000000000108002e-01,-1.000000000000000000e+00,8.400000000000069633e-01,-9.299999999999990496e-01,2.700000000000037925e-01,-4.999999999999471534e-02,-5.199999999999986855e-01,-1.000000000000000000e+00,5.400000000000049205e-01,-9.799999999999990941e-01,9.800000000000106404e-01,-3.699999999999985523e-01,-1.000000000000000000e+00,-7.199999999999988631e-01,-1.699999999999894928e-01,2.800000000000073541e-01,-1.000000000000000000e+00,-1.000000000000000000e+00,3.600000000000047606e-01,-2.699999999999966871e-01,-1.799999999999966072e-01,-3.499999999999985345e-01,-9.399999999999981704e-01,-1.000000000000000000e+00,-1.699999999999894928e-01,-7.099999999999988542e-01,5.600000000000102673e-01,-1.000000000000000000e+00,-1.299999999999983391e-01,-1.000000000000000000e+00,-3.099999999999984990e-01,-1.000000000000000000e+00,4.200000000000048139e-01,-8.899999999999954614e-01,-1.799999999999930544e-01,-1.000000000000000000e+00,-1.000000000000000000e+00,2.100000000000037392e-01,-4.599999999999941913e-01,-1.000000000000000000e+00,-8.699999999999989964e-01,7.100000000000068479e-01,-1.000000000000000000e+00,-9.599999999999990763e-01,-6.499999999999988010e-01,-5.999999999999827693e-02,-1.000000000000000000e+00,-1.000000000000000000e+00,-1.000000000000000000e+00,3.800000000000109956e-01,-1.000000000000000000e+00,-1.000000000000000000e+00,-1.000000000000000000e+00
5.600000000000040501e-01,-1.000000000000000000e+00,7.600000000000051159e-01,-1.000000000000000000e+00,7.600000000000095568e-01,-1.000000000000000000e+00,1.500000000000027978e-01,-4.599999999999959677e-01,5.000000000000093259e-01,-2.299999999999984279e-01,-1.000000000000000000e+00,-1.699999999999983746e-01,-1.000000000000000000e+00,-9.699999999999955325e-01,-1.000000000000000000e+00,1.800000000000081535e-01,-9.299999999999990496e-01,-1.699999999999957101e-01,-5.399999999999987033e-01,-7.099999999999979661e-01,-7.399999999999962164e-01,-4.099999999999950351e-01,8.400000000000105160e-01,3.200000000000065015e-01,-1.000000000000000000e+00,1.600000000000108002e-01,-4.899999999999924416e-01,5.800000000000058442e-01,-9.699999999999990852e-01,2.700000000000037925e-01,-7.999999999999989342e-01,-1.000000000000000000e+00,-1.000000000000000000e+00,1.000000000000444977e-02,-1.000000000000000000e+00,-5.499999999999924949e-01,-1.000000000000000000e+00,-1.000000000000000000e+00,-7.199999999999988631e-01,-1.699999999999894928e-01,2.800000000000073541e-01,-1.000000000000000000e+00,6.000000000000893507e-02,8.000000000000362377e-02,-1.000000000000000000e+00,-1.799999999999966072e-01,-1.000000000000000000e+00,3.600000000000029843e-01,-1.000000000000000000e+00,-1.699999999999894928e-01,-1.000000000000000000e+00,5.600000000000102673e-01,-1.299999999999983391e-01,-1.000000000000000000e+00,-9.399999999999990585e-01,-3.099999999999984990e-01,-1.000000000000000000e+00,-1.000000000000000000e+00,1.300000000000054445e-01,-1.799999999999930544e-01,-1.000000000000000000e+00,-8.099999999999989431e-01,2.100000000000037392e-01,1.400000000000063416e-01,-1.000000000000000000e+00,-8.699999999999989964e-01,7.100000000000068479e-01,-1.000000000000000000e+00,-9.599999999999990763e-01,-1.000000000000000000e+00,-5.999999999999827693e-02,-8.799999999999981171e-01,-1.000000000000000000e+00,-1.000000000000000000e+00,4.200000000000145839e-01,-3.199999999999985079e-01,-1.000000000000000000e+00,-1.000000000000000000e+00
-3.599999999999958789e-01,-1.000000000000000000e+00,7.600000000000051159e-01,-1.000000000000000000e+00,7.600000000000095568e-01,-1.000000000000000000e+00,1.500000000000027978e-01,-4.599999999999959677e-01,5.000000000000093259e-01,-2.299999999999984279e-01,-1.000000000000000000e+00,-1.000000000000000000e+00,-8.899999999999981259e-01,-1.000000000000000000e+00,8.600000000000034284e-01,-7.899999999999918199e-01,-1.000000000000000000e+00,1.900000000000037215e-01,-2.099999999999975220e-01,6.700000000000077005e-01,-2.999999999999647393e-02,-3.399999999999949729e-01,8.400000000000105160e-01,3.200000000000065015e-01,-9.699999999999990852e-01,6.200000000000094325e-01,-4.899999999999924416e-01,8.400000000000069633e-01,-9.699999999999990852e-01,2.700000000000037925e-01,-1.000000000000000000e+00,-5.199999999999986855e-01,-1.000000000000000000e+00,8.100000000000042721e-01,-9.799999999999990941e-01,2.600000000000082245e-01,-1.000000000000000000e+00,-1.000000000000000000e+00,-7.499999999999971134e-01,-1.699999999999894928e-01,5.600000000000093792e-01,-9.999999999999982236e-01,-1.199999999999983302e-01,-3.499999999999976463e-01,-1.000000000000000000e+00,-1.999999999999975131e-01,-6.799999999999979394e-01,3.600000000000029843e-01,-1.000000000000000000e+00,8.200000000000122746e-01,-1.000000000000000000e+00,-1.899999999999895106e-01,-1.299999999999983391e-01,-1.000000000000000000e+00,-1.000000000000000000e+00,1.100000000000027622e-01,-6.999999999999828582e-02,-1.000000000000000000e+00,-3.099999999999958344e-01,4.500000000000066169e-01,-1.000000000000000000e+00,-8.099999999999989431e-01,-6.399999999999961275e-01,4.800000000000057554e-01,-1.000000000000000000e+00,-8.699999999999989964e-01,2.700000000000073452e-01,-1.000000000000000000e+00,-9.599999999999990763e-01,-5.799999999999987388e-01,-1.000000000000000000e+00,-1.000000000000000000e+00,-1.000000000000000000e+00,-3.999999999999648281e-02,3.000000000001157296e-02,-1.000000000000000000e+00,-1.000000000000000000e+00,-1.000000000000000000e+00
5.600000000000040501e-01,-1.000000000000000000e+00,-1.000000000000000000e+00,-1.000000000000000000e+00,9.200000000000105871e-01,-1.000000000000000000e+00,1.500000000000027978e-01,4.400000000000048317e-01,5.000000000000093259e-01,-2.299999999999984279e-01,-1.000000000000000000e+00,-4.499999999999977351e-01,-8.899999999999981259e-01,-9.299999999999946088e-01,-1.000000000000000000e+00,-1.000000000000000000e+00,-1.000000000000000000e+00,1.900000000000037215e-01,2.500000000000028866e-01,-8.599999999999989875e-01,-4.299999999999959410e-01,-3.399999999999949729e-01,8.400000000000105160e-01,3.200000000000065015e-01,-9.699999999999990852e-01,-1.699999999999903810e-01,-4.899999999999924416e-01,8.400000000000069633e-01,-9.699999999999990852e-01,2.700000000000037925e-01,-1.000000000000000000e+00,-5.199999999999986855e-01,-1.000000000000000000e+00,8.100000000000042721e-01,1.400000000000027889e-01,-5.499999999999924949e-01,-1.000000000000000000e+00,-1.000000000000000000e+00,-7.199999999999988631e-01,-1.699999999999894928e-01,2.800000000000073541e-01,-1.000000000000000000e+00,-1.000000000000000000e+00,-3.499999999999976463e-01,2.600000000000037836e-01,-1.799999999999966072e-01,-6.799999999999979394e-01,3.600000000000029843e-01,-1.000000000000000000e+00,-1.699999999999894928e-01,-1.000000000000000000e+00,-1.000000000000000000e+00,1.100000000000027622e-01,-1.000000000000000000e+00,-1.000000000000000000e+00,1.100000000000027622e-01,-6.999999999999828582e-02,-9.699999999999990852e-01,-1.000000000000000000e+00,4.500000000000066169e-01,-1.000000000000000000e+00,-8.099999999999989431e-01,-6.299999999999952305e-01,4.200000000000048139e-01,-1.000000000000000000e+00,-1.000000000000000000e+00,7.100000000000068479e-01,-1.000000000000000000e+00,-6.899999999999988365e-01,-1.000000000000000000e+00,-1.000000000000000000e+00,-8.799999999999981171e-01,-1.000000000000000000e+00,-1.000000000000000000e+00,4.200000000000145839e-01,-1.000000000000000000e+00,-1.000000000000000000e+00,-1.000000000000000000e+00
5.600000000000040501e-01,-1.000000000000000000e+00,7.600000000000051159e-01,-1.000000000000000000e+00,9.200000000000105871e-01,-1.000000000000000000e+00,1.500000000000027978e-01,-4.999999999999942268e-01,5.000000000000093259e-01,-2.299999999999984279e-01,-1.000000000000000000e+00,-1.699999999999983746e-01,-9.999999999999973355e-01,-9.699999999999955325e-01,-1.000000000000000000e+00,-7.399999999999988809e-01,-1.000000000000000000e+00,1.900000000000037215e-01,1.600000000000036948e-01,2.900000000000064748e-01,-2.999999999999647393e-02,-4.099999999999950351e-01,6.300000000000112177e-01,3.200000000000065015e-01,-1.000000000000000000e+00,6.200000000000094325e-01,-4.899999999999924416e-01,5.800000000000058442e-01,-9.699999999999990852e-01,2.700000000000037925e-01,-1.000000000000000000e+00,2.400000000000028777e-01,-1.000000000000000000e+00,-1.000000000000000000e+00,1.400000000000027889e-01,-7.499999999999926725e-01,-1.000000000000000000e+00,-1.000000000000000000e+00,-7.199999999999988631e-01,-7.899999999999891553e-01,6.000000000000085265e-01,-1.000000000000000000e+00,-8.299999999999927436e-01,-3.499999999999976463e-01,-1.000000000000000000e+00,-5.899999999999969713e-01,-6.799999999999979394e-01,3.600000000000029843e-01,-1.000000000000000000e+00,-1.699999999999894928e-01,-1.000000000000000000e+00,-2.699999999999984635e-01,1.100000000000027622e-01,-1.000000000000000000e+00,-1.000000000000000000e+00,-8.999999999999741540e-02,-1.000000000000000000e+00,-1.000000000000000000e+00,1.300000000000054445e-01,4.500000000000066169e-01,-1.000000000000000000e+00,-8.099999999999989431e-01,-3.099999999999976108e-01,2.000000000000978773e-02,-1.000000000000000000e+00,-8.699999999999989964e-01,7.100000000000068479e-01,-1.000000000000000000e+00,-1.000000000000000000e+00,-1.000000000000000000e+00,-1.699999999999983746e-01,-5.199999999999986855e-01,-3.899999999999985700e-01,-3.999999999999648281e-02,3.800000000000109956e-01,-1.000000000000000000e+00,-1.000000000000000000e+00,-1.000000000000000000e+00
