-1.000000000000000000e+00,-1.000000000000000000e+00,-1.000000000000000000e+00,-9.799999999999990941e-01,-1.000000000000000000e+00,-3.199999999999985079e-01,-9.999999999998232525e-03,-4.199999999999977085e-01,3.400000000000047429e-01,-1.000000000000000000e+00,8.800000000000034461e-01,-1.099999999999983213e-01,1.400000000000081180e-01,2.200000000000046363e-01,-1.000000000000000000e+00,-3.299999999999958522e-01,3.400000000000047429e-01,-1.000000000000000000e+00,-1.000000000000000000e+00,-1.000000000000000000e+00,-1.000000000000000000e+00,5.700000000000076117e-01,-3.999999999999941380e-01,5.700000000000049472e-01,1.300000000000027800e-01,-1.000000000000000000e+00,-1.000000000000000000e+00,-2.499999999999984457e-01,8.000000000000362377e-02,-3.799999999999985612e-01,-2.099999999999921929e-01,4.300000000000012701e-01,6.700000000000041478e-01,-1.000000000000000000e+00,-4.999999999999560352e-02,2.200000000000046363e-01,-9.999999999997344347e-03,2.400000000000046541e-01,4.300000000000039346e-01,4.700000000000048583e-01,-3.299999999999940758e-01,-1.899999999999975042e-01,-6.899999999999979483e-01,-7.499999999999944489e-01,-4.699999999999959766e-01,-4.599999999999933031e-01,6.600000000000014744e-01,6.900000000000077183e-01,-4.999999999999649170e-02,8.400000000000042988e-01,-1.000000000000000000e+00,-1.999999999999557687e-02,5.329070518200751394e-15,9.500000000000052847e-01,-1.000000000000000000e+00,8.000000000000451195e-02,-4.299999999999915001e-01,-1.000000000000000000e+00,-3.299999999999985167e-01,8.800000000000016698e-01,2.000000000000028422e-01,4.100000000000030287e-01,1.000000000000267342e-02,-1.000000000000000000e+00,-2.199999999999984190e-01,-1.000000000000000000e+00,9.000000000000052403e-01,-6.199999999999969980e-01,5.000000000000084377e-01,8.800000000000052225e-01,-1.000000000000000000e+00,-2.999999999999825029e-02,-2.399999999999984368e-01,-5.599999999999978328e-01,4.000000000000039080e-01,2.800000000000046896e-01,9.500000000000017319e-01,1.800000000000037126e-01,3.500000000000029754e-01,-1.000000000000000000e+00,-1.000000000000000000e+00,-4.599999999999968558e-01,-1.000000000000000000e+00,-2.999999999999984901e-01
-1.000000000000000000e+00,-1.000000000000000000e+00,-9.599999999999990763e-01,-9.799999999999990941e-01,-1.000000000000000000e+00,-4.399999999999977263e-01,-1.000000000000000000e+00,-4.199999999999977085e-01,3.400000000000047429e-01,-1.000000000000000000e+00,8.800000000000034461e-01,-9.099999999999990319e-01,1.400000000000081180e-01,2.200000000000046363e-01,4.000000000000625278e-02,-3.299999999999958522e-01,7.600000000000051159e-01,-6.799999999999988276e-01,-1.000000000000000000e+00,-1.000000000000000000e+00,-1.000000000000000000e+00,9.400000000000088285e-01,5.300000000000057998e-01,3.600000000000056488e-01,1.300000000000027800e-01,-1.000000000000000000e+00,4.500000000000048406e-01,-5.999999999999738876e-02,8.000000000000362377e-02,-1.000000000000000000e+00,-1.899999999999912870e-01,-3.299999999999976286e-01,6.700000000000041478e-01,-9.999999999999831246e-02,-4.999999999999560352e-02,2.200000000000046363e-01,-4.999999999999968914e-01,-2.999999999999958256e-01,3.700000000000038813e-01,5.900000000000040767e-01,-3.299999999999940758e-01,-1.899999999999975042e-01,-3.899999999999985700e-01,-3.999999999999941380e-01,-1.000000000000000000e+00,-4.599999999999933031e-01,2.500000000000019984e-01,1.800000000000054889e-01,-4.999999999999649170e-02,8.400000000000042988e-01,-1.000000000000000000e+00,-4.599999999999959677e-01,-3.099999999999940581e-01,9.500000000000052847e-01,-5.199999999999933564e-01,3.400000000000047429e-01,5.000000000000803801e-02,-1.000000000000000000e+00,-1.000000000000000000e+00,8.800000000000016698e-01,2.000000000000028422e-01,4.100000000000030287e-01,4.500000000000030642e-01,-7.699999999999989075e-01,-1.000000000000000000e+00,-1.000000000000000000e+00,9.000000000000052403e-01,-8.999999999999954703e-01,5.000000000000084377e-01,4.500000000000048406e-01,-8.699999999999954436e-01,-2.999999999999825029e-02,-2.399999999999984368e-01,-1.000000000000000000e+00,4.000000000000039080e-01,2.800000000000046896e-01,9.500000000000017319e-01,1.800000000000037126e-01,-1.000000000000000000e+00,1.200000000000027711e-01,-1.000000000000000000e+00,-4.599999999999968558e-01,6.700000000000032596e-01,-1.000000000000000000e+00
-1.000000000000000000e+00,-1.000000000000000000e+00,-1.000000000000000000e+00,-9.799999999999990941e-01,-1.000000000000000000e+00,-3.199999999999985079e-01,-1.000000000000000000e+00,-6.799999999999970512e-01,-5.099999999999951239e-01,-7.599999999999988987e-01,8.800000000000034461e-01,-1.099999999999983213e-01,-5.999999999999916511e-01,2.200000000000046363e-01,9.900000000000062084e-01,-5.199999999999960210e-01,7.600000000000051159e-01,-6.799999999999988276e-01,-1.000000000000000000e+00,-1.000000000000000000e+00,-1.000000000000000000e+00,5.700000000000076117e-01,-3.999999999999941380e-01,5.700000000000049472e-01,1.300000000000027800e-01,-7.699999999999989075e-01,-1.000000000000000000e+00,-5.999999999999738876e-02,8.000000000000362377e-02,-1.000000000000000000e+00,-2.099999999999921929e-01,-2.699999999999984635e-01,6.700000000000041478e-01,-6.999999999999988454e-01,-4.999999999999560352e-02,2.200000000000046363e-01,-9.999999999997344347e-03,6.000000000000449418e-02,4.300000000000039346e-01,5.900000000000040767e-01,-3.299999999999940758e-01,4.500000000000021760e-01,-6.899999999999979483e-01,-7.499999999999944489e-01,-4.699999999999959766e-01,-4.599999999999933031e-01,6.600000000000014744e-01,6.900000000000077183e-01,-4.999999999999649170e-02,9.500000000000035083e-01,-1.000000000000000000e+00,-5.399999999999969269e-01,5.329070518200751394e-15,9.500000000000052847e-01,-5.199999999999933564e-01,4.600000000000039613e-01,2.700000000000082334e-01,-1.000000000000000000e+00,-1.000000000000000000e+00,-1.899999999999975042e-01,2.000000000000028422e-01,4.100000000000030287e-01,1.000000000000267342e-02,-1.000000000000000000e+00,-1.000000000000000000e+00,-1.000000000000000000e+00,9.000000000000363265e-02,-1.000000000000000000e+00,5.000000000000084377e-01,8.800000000000052225e-01,-8.699999999999954436e-01,-2.999999999999825029e-02,2.400000000000037659e-01,-1.000000000000000000e+00,-2.599999999999975664e-01,2.900000000000055866e-01,9.500000000000017319e-01,1.800000000000037126e-01,9.900000000000044320e-01,-1.000000000000000000e+00,-9.299999999999990496e-01,-4.599999999999968558e-01,-1.000000000000000000e+00,-2.999999999999984901e-01
-1.000000000000000000e+00,-1.000000000000000000e+00,-1.000000000000000000e+00,-9.799999999999990941e-01,-1.000000000000000000e+00,-3.199999999999985079e-01,-1.000000000000000000e+00,-6.799999999999970512e-01,-5.099999999999951239e-01,-1.000000000000000000e+00,8.800000000000034461e-01,-1.099999999999983213e-01,-5.999999999999916511e-01,6.800000000000041567e-01,9.900000000000062084e-01,-7.999999999999563016e-02,3.400000000000047429e-01,-1.000000000000000000e+00,-1.000000000000000000e+00,-1.000000000000000000e+00,-1.000000000000000000e+00,5.700000000000076117e-01,-3.999999999999941380e-01,5.700000000000049472e-01,1.300000000000027800e-01,-1.000000000000000000e+00,-1.000000000000000000e+00,-2.499999999999984457e-01,8.000000000000362377e-02,-3.799999999999985612e-01,-2.099999999999921929e-01,-2.699999999999984635e-01,6.700000000000041478e-01,-1.000000000000000000e+00,-4.999999999999560352e-02,2.200000000000046363e-01,-9.999999999997344347e-03,-1.299999999999965627e-01,4.300000000000039346e-01,5.900000000000040767e-01,-3.299999999999940758e-01,4.500000000000021760e-01,-6.899999999999979483e-01,-7.499999999999944489e-01,-4.699999999999959766e-01,-1.000000000000000000e+00,6.600000000000014744e-01,6.900000000000077183e-01,-4.999999999999649170e-02,9.500000000000035083e-01,-1.000000000000000000e+00,-1.999999999999557687e-02,5.329070518200751394e-15,9.500000000000052847e-01,-2.999999999999825029e-02,4.600000000000039613e-01,-4.299999999999915001e-01,-1.000000000000000000e+00,-1.000000000000000000e+00,-1.899999999999975042e-01,2.000000000000028422e-01,4.100000000000030287e-01,1.000000000000267342e-02,-1.000000000000000000e+00,-2.199999999999984190e-01,-1.000000000000000000e+00,9.000000000000363265e-02,-6.199999999999969980e-01,5.000000000000084377e-01,8.800000000000052225e-01,-8.699999999999954436e-01,-2.999999999999825029e-02,5.200000000000031264e-01,-1.000000000000000000e+00,-2.599999999999975664e-01,7.500000000000059952e-01,9.500000000000017319e-01,1.800000000000037126e-01,3.500000000000029754e-01,-1.799999999999974953e-01,-1.000000000000000000e+00,-4.599999999999968558e-01,-1.000000000000000000e+00,-1.000000000000000000e+00
-8.199999999999989519e-01,-1.000000000000000000e+00,-7.099999999999988542e-01,-8.999999999999741540e-02,-9.999999999998232525e-03,-3.199999999999985079e-01,-1.000000000000000000e+00,-4.199999999999977085e-01,3.800000000000056666e-01,-7.599999999999988987e-01,8.800000000000034461e-01,-1.099999999999983213e-01,-1.599999999999948130e-01,2.200000000000046363e-01,4.000000000000625278e-02,-5.199999999999960210e-01,6.600000000000059153e-01,-6.799999999999988276e-01,-1.000000000000000000e+00,-1.000000000000000000e+00,-1.000000000000000000e+00,5.700000000000076117e-01,-3.999999999999941380e-01,5.700000000000049472e-01,-1.799999999999966072e-01,-5.399999999999987033e-01,4.500000000000048406e-01,-5.999999999999738876e-02,8.000000000000362377e-02,-1.000000000000000000e+00,-2.099999999999921929e-01,4.300000000000012701e-01,6.700000000000041478e-01,-6.999999999999988454e-01,-4.999999999999560352e-02,2.200000000000046363e-01,-9.999999999997344347e-03,-1.299999999999965627e-01,6.500000000000050182e-01,5.900000000000040767e-01,-3.299999999999940758e-01,-1.899999999999975042e-01,-6.899999999999979483e-01,-7.499999999999944489e-01,-2.499999999999948930e-01,-4.599999999999933031e-01,6.600000000000014744e-01,6.900000000000077183e-01,-4.999999999999649170e-02,8.400000000000042988e-01,-8.399999999999989697e-01,-4.599999999999959677e-01,5.329070518200751394e-15,9.500000000000052847e-01,-5.199999999999933564e-01,4.600000000000039613e-01,2.700000000000082334e-01,-8.899999999999990141e-01,-3.299999999999985167e-01,8.800000000000016698e-01,-5.499999999999987121e-01,4.100000000000030287e-01,-5.399999999999969269e-01,-7.699999999999989075e-01,-3.199999999999976197e-01,-1.000000000000000000e+00,9.000000000000363265e-02,-1.000000000000000000e+00,6.100000000000094236e-01,4.500000000000048406e-01,-1.000000000000000000e+00,-2.999999999999825029e-02,5.200000000000031264e-01,-1.000000000000000000e+00,5.000000000000359712e-02,2.800000000000046896e-01,9.500000000000017319e-01,1.800000000000037126e-01,3.500000000000029754e-01,-1.000000000000000000e+00,-9.299999999999990496e-01,-4.599999999999968558e-01,6.700000000000032596e-01,-1.000000000000000000e+00
-1.000000000000000000e+00,-1.000000000000000000e+00,-2.599999999999984546e-01,-9.799999999999990941e-01,-1.000000000000000000e+00,-7.699999999999989075e-01,-1.000000000000000000e+00,-4.199999999999977085e-01,3.400000000000047429e-01,-1.000000000000000000e+00,8.800000000000034461e-01,-3.599999999999976552e-01,-1.599999999999948130e-01,-5.099999999999951239e-01,9.900000000000062084e-01,-1.000000000000000000e+00,7.600000000000051159e-01,-1.000000000000000000e+00,-1.000000000000000000e+00,-1.000000000000000000e+00,-1.000000000000000000e+00,5.700000000000076117e-01,5.300000000000057998e-01,5.700000000000049472e-01,1.300000000000027800e-01,-9.999999999999991118e-01,-1.000000000000000000e+00,-5.999999999999738876e-02,8.000000000000362377e-02,-1.000000000000000000e+00,-2.099999999999921929e-01,4.300000000000012701e-01,2.600000000000055600e-01,-3.499999999999976463e-01,3.600000000000038725e-01,2.700000000000055689e-01,-6.399999999999961275e-01,9.300000000000061551e-01,4.300000000000039346e-01,5.900000000000040767e-01,-3.299999999999940758e-01,4.500000000000021760e-01,-6.899999999999979483e-01,-3.999999999999941380e-01,9.000000000000540901e-02,-4.599999999999933031e-01,6.600000000000014744e-01,1.800000000000054889e-01,-4.999999999999649170e-02,8.400000000000042988e-01,-1.000000000000000000e+00,-2.599999999999949019e-01,-3.099999999999940581e-01,9.500000000000052847e-01,-8.399999999999927525e-01,3.400000000000047429e-01,-3.199999999999922906e-01,-1.000000000000000000e+00,-1.000000000000000000e+00,8.700000000000034373e-01,-5.499999999999987121e-01,4.100000000000030287e-01,1.000000000000267342e-02,-1.000000000000000000e+00,-1.000000000000000000e+00,-1.000000000000000000e+00,9.000000000000052403e-01,-3.199999999999985079e-01,5.000000000000084377e-01,5.100000000000057820e-01,-8.699999999999954436e-01,2.200000000000028599e-01,5.200000000000031264e-01,-1.000000000000000000e+00,-2.599999999999975664e-01,2.800000000000046896e-01,9.500000000000017319e-01,1.800000000000037126e-01,-1.000000000000000000e+00,1.200000000000027711e-01,-1.000000000000000000e+00,-4.599999999999968558e-01,6.700000000000032596e-01,-1.000000000000000000e+00
-1.000000000000000000e+00,-1.000000000000000000e+00,-1.000000000000000000e+00,-9.799999999999990941e-01,-1.000000000000000000e+00,-4.399999999999977263e-01,-1.000000000000000000e+00,-4.199999999999977085e-01,5.000000000000537348e-02,-1.000000000000000000e+00,8.800000000000034461e-01,-9.099999999999990319e-01,1.400000000000081180e-01,-7.699999999999953548e-01,4.000000000000625278e-02,-3.299999999999958522e-01,7.600000000000051159e-01,-1.000000000000000000e+00,-1.000000000000000000e+00,-1.000000000000000000e+00,-1.000000000000000000e+00,5.700000000000076117e-01,1.200000000000036593e-01,3.600000000000056488e-01,1.300000000000027800e-01,-1.000000000000000000e+00,4.500000000000048406e-01,-5.999999999999738876e-02,8.000000000000362377e-02,-1.000000000000000000e+00,-1.899999999999912870e-01,4.300000000000012701e-01,6.700000000000041478e-01,-1.000000000000000000e+00,-4.999999999999560352e-02,2.200000000000046363e-01,-9.999999999997344347e-03,2.400000000000046541e-01,3.700000000000038813e-01,5.900000000000040767e-01,-3.299999999999940758e-01,-1.899999999999975042e-01,-3.899999999999985700e-01,-3.999999999999941380e-01,-4.499999999999950706e-01,-4.599999999999933031e-01,2.500000000000019984e-01,1.800000000000054889e-01,-4.999999999999649170e-02,8.400000000000042988e-01,-1.000000000000000000e+00,-8.799999999999963407e-01,-3.099999999999940581e-01,9.500000000000052847e-01,-5.199999999999933564e-01,4.600000000000039613e-01,1.200000000000072120e-01,-1.000000000000000000e+00,-1.000000000000000000e+00,8.800000000000016698e-01,2.000000000000028422e-01,4.100000000000030287e-01,4.500000000000030642e-01,-2.399999999999984368e-01,-7.399999999999979927e-01,-1.000000000000000000e+00,9.000000000000052403e-01,-8.999999999999954703e-01,6.100000000000094236e-01,4.500000000000048406e-01,-1.000000000000000000e+00,-2.999999999999825029e-02,-2.399999999999984368e-01,-1.000000000000000000e+00,-2.599999999999975664e-01,2.800000000000046896e-01,9.500000000000017319e-01,1.800000000000037126e-01,-1.000000000000000000e+00,1.800000000000028244e-01,-1.000000000000000000e+00,-4.599999999999968558e-01,6.700000000000032596e-01,-1.000000000000000000e+00
-1.000000000000000000e+00,-1.999999999999984013e-01,-1.000000000000000000e+00,-9.799999999999990941e-01,-1.000000000000000000e+00,-9.999999999997344347e-03,-1.000000000000000000e+00,-4.199999999999977085e-01,3.400000000000047429e-01,-1.000000000000000000e+00,8.800000000000034461e-01,-9.099999999999990319e-01,-1.599999999999948130e-01,2.200000000000046363e-01,4.000000000000625278e-02,-3.299999999999958522e-01,8.000000000000051514e-01,4.200000000000039257e-01,-4.199999999999985967e-01,-1.000000000000000000e+00,-1.000000000000000000e+00,5.700000000000076117e-01,-3.999999999999941380e-01,5.700000000000049472e-01,1.300000000000027800e-01,-1.000000000000000000e+00,-1.000000000000000000e+00,-5.999999999999738876e-02,8.000000000000362377e-02,-1.000000000000000000e+00,1.800000000000090417e-01,4.300000000000012701e-01,6.700000000000041478e-01,-6.999999999999988454e-01,-4.999999999999560352e-02,2.200000000000046363e-01,-9.999999999997344347e-03,-1.299999999999965627e-01,5.700000000000049472e-01,4.700000000000048583e-01,-3.299999999999940758e-01,-1.899999999999975042e-01,-3.899999999999985700e-01,-3.999999999999941380e-01,-4.699999999999959766e-01,-4.599999999999933031e-01,6.600000000000014744e-01,6.900000000000077183e-01,-4.999999999999649170e-02,9.500000000000035083e-01,-1.000000000000000000e+00,-1.999999999999557687e-02,5.329070518200751394e-15,7.500000000000059952e-01,-5.199999999999933564e-01,3.400000000000047429e-01,-1.000000000000000000e+00,-1.000000000000000000e+00,-3.299999999999985167e-01,8.800000000000016698e-01,-5.499999999999987121e-01,4.100000000000030287e-01,3.100000000000020517e-01,-1.000000000000000000e+00,-2.199999999999984190e-01,-1.000000000000000000e+00,9.000000000000052403e-01,-1.000000000000000000e+00,3.500000000000091926e-01,4.500000000000048406e-01,-8.699999999999954436e-01,-2.999999999999825029e-02,-2.399999999999984368e-01,-3.399999999999985256e-01,4.000000000000039080e-01,2.800000000000046896e-01,9.500000000000017319e-01,1.800000000000037126e-01,3.500000000000029754e-01,-1.799999999999974953e-01,-1.000000000000000000e+00,-4.599999999999968558e-01,6.700000000000032596e-01,-3.399999999999985256e-01
-9.299999999999990496e-01,-1.000000000000000000e+00,-1.000000000000000000e+00,-9.799999999999990941e-01,-1.000000000000000000e+00,-7.699999999999989075e-01,-1.000000000000000000e+00,-4.199999999999977085e-01,-5.199999999999951328e-01,-1.000000000000000000e+00,-1.000000000000000000e+00,-9.099999999999990319e-01,-1.599999999999948130e-01,2.200000000000046363e-01,4.000000000000625278e-02,-5.199999999999960210e-01,7.600000000000051159e-01,-6.799999999999988276e-01,-1.000000000000000000e+00,-1.000000000000000000e+00,-9.899999999999991029e-01,5.700000000000076117e-01,5.300000000000057998e-01,-3.499999999999949818e-01,-7.799999999999989164e-01,-1.000000000000000000e+00,4.500000000000048406e-01,-5.999999999999738876e-02,8.000000000000362377e-02,-1.000000000000000000e+00,-2.099999999999921929e-01,4.300000000000012701e-01,6.700000000000041478e-01,-3.499999999999976463e-01,3.600000000000038725e-01,2.700000000000055689e-01,-8.899999999999963496e-01,-5.599999999999951683e-01,4.300000000000039346e-01,5.900000000000040767e-01,-3.299999999999940758e-01,-1.899999999999975042e-01,-3.899999999999985700e-01,-2.699999999999931344e-01,9.000000000000540901e-02,-4.599999999999933031e-01,6.600000000000014744e-01,9.000000000000629718e-02,-4.999999999999649170e-02,8.400000000000042988e-01,-1.000000000000000000e+00,-5.399999999999969269e-01,-3.099999999999940581e-01,9.500000000000052847e-01,-5.199999999999933564e-01,3.400000000000047429e-01,1.200000000000072120e-01,-1.000000000000000000e+00,-3.299999999999985167e-01,8.800000000000016698e-01,-5.199999999999977973e-01,4.100000000000030287e-01,3.100000000000020517e-01,-7.699999999999989075e-01,-1.000000000000000000e+00,-1.000000000000000000e+00,9.000000000000052403e-01,-3.199999999999985079e-01,-1.299999999999912337e-01,4.500000000000048406e-01,-1.000000000000000000e+00,-2.999999999999825029e-02,5.200000000000031264e-01,-1.000000000000000000e+00,-2.599999999999975664e-01,2.800000000000046896e-01,9.200000000000025935e-01,1.800000000000037126e-01,-1.000000000000000000e+00,-2.599999999999966782e-01,-9.299999999999990496e-01,-4.599999999999968558e-01,-1.000000000000000000e+00,-1.000000000000000000e+00
-1.000000000000000000e+00,-1.000000000000000000e+00,-1.000000000000000000e+00,4.800000000000039790e-01,-3.699999999999985523e-01,-3.199999999999985079e-01,-1.000000000000000000e+00,-6.799999999999970512e-01,-2.699999999999949107e-01,-1.000000000000000000e+00,8.800000000000034461e-01,-1.099999999999983213e-01,-1.599999999999948130e-01,8.100000000000060485e-01,9.900000000000062084e-01,1.000000000000356160e-02,6.100000000000040945e-01,-6.799999999999988276e-01,-1.000000000000000000e+00,-1.000000000000000000e+00,-1.000000000000000000e+00,5.700000000000076117e-01,-6.399999999999970157e-01,5.700000000000049472e-01,-6.899999999999979483e-01,-5.399999999999987033e-01,4.500000000000048406e-01,1.400000000000054534e-01,8.000000000000362377e-02,-1.000000000000000000e+00,2.500000000000091038e-01,4.300000000000012701e-01,6.700000000000041478e-01,-1.000000000000000000e+00,-4.999999999999560352e-02,5.600000000000040501e-01,-9.999999999997344347e-03,-1.299999999999965627e-01,4.300000000000039346e-01,5.900000000000040767e-01,-3.299999999999940758e-01,4.500000000000021760e-01,-6.899999999999979483e-01,-7.499999999999944489e-01,-2.499999999999948930e-01,-4.599999999999933031e-01,6.600000000000014744e-01,6.900000000000077183e-01,-4.999999999999649170e-02,8.400000000000042988e-01,-1.000000000000000000e+00,-4.599999999999959677e-01,4.300000000000083755e-01,9.500000000000052847e-01,-5.199999999999933564e-01,4.600000000000039613e-01,2.700000000000082334e-01,-1.000000000000000000e+00,-1.000000000000000000e+00,8.800000000000016698e-01,-5.499999999999987121e-01,4.100000000000030287e-01,4.500000000000030642e-01,-7.699999999999989075e-01,-3.199999999999976197e-01,-5.399999999999969269e-01,-6.899999999999952838e-01,-6.199999999999969980e-01,-3.099999999999896172e-01,4.500000000000048406e-01,-8.699999999999954436e-01,-2.999999999999825029e-02,-1.000000000000000000e+00,-9.099999999999981437e-01,2.900000000000046985e-01,7.000000000000627942e-02,9.500000000000017319e-01,1.800000000000037126e-01,-1.000000000000000000e+00,-7.799999999999971401e-01,-3.499999999999985345e-01,-4.599999999999968558e-01,6.700000000000032596e-01,-1.000000000000000000e+00
-1.000000000000000000e+00,-1.000000000000000000e+00,-1.000000000000000000e+00,-9.799999999999990941e-01,-1.000000000000000000e+00,-4.399999999999977263e-01,-1.000000000000000000e+00,3.300000000000038458e-01,-1.099999999999947686e-01,-1.000000000000000000e+00,8.800000000000034461e-01,-9.099999999999990319e-01,1.400000000000081180e-01,2.200000000000046363e-01,4.000000000000625278e-02,-3.299999999999958522e-01,7.600000000000051159e-01,-1.000000000000000000e+00,-1.000000000000000000e+00,-1.000000000000000000e+00,-1.000000000000000000e+00,5.700000000000076117e-01,1.200000000000036593e-01,3.600000000000056488e-01,1.300000000000027800e-01,-1.000000000000000000e+00,4.500000000000048406e-01,-5.999999999999738876e-02,8.000000000000362377e-02,-1.000000000000000000e+00,-1.899999999999912870e-01,4.300000000000012701e-01,6.700000000000041478e-01,-9.999999999999831246e-02,-4.999999999999560352e-02,2.200000000000046363e-01,-9.999999999997344347e-03,-2.999999999999958256e-01,3.700000000000038813e-01,5.900000000000040767e-01,-3.299999999999940758e-01,-1.899999999999975042e-01,-3.899999999999985700e-01,-3.999999999999941380e-01,-4.499999999999950706e-01,-4.599999999999933031e-01,9.000000000000034639e-01,1.800000000000054889e-01,-4.999999999999649170e-02,8.400000000000042988e-01,-1.000000000000000000e+00,-4.599999999999959677e-01,-3.099999999999940581e-01,9.500000000000052847e-01,-5.199999999999933564e-01,4.600000000000039613e-01,1.200000000000072120e-01,-1.000000000000000000e+00,-1.000000000000000000e+00,8.800000000000016698e-01,2.000000000000028422e-01,4.100000000000030287e-01,4.500000000000030642e-01,-7.699999999999989075e-01,-7.399999999999979927e-01,-1.000000000000000000e+00,9.000000000000052403e-01,-8.999999999999954703e-01,6.100000000000094236e-01,4.500000000000048406e-01,-1.000000000000000000e+00,-2.999999999999825029e-02,-2.399999999999984368e-01,-1.000000000000000000e+00,4.000000000000039080e-01,2.800000000000046896e-01,9.500000000000017319e-01,1.800000000000037126e-01,-1.000000000000000000e+00,1.800000000000028244e-01,-1.000000000000000000e+00,-4.599999999999968558e-01,6.700000000000032596e-01,-1.000000000000000000e+00
-1.000000000000000000e+00,-5.199999999999977973e-01,-1.000000000000000000e+00,-9.799999999999990941e-01,-1.000000000000000000e+00,-9.999999999997344347e-03,-3.999999999999825917e-02,-4.199999999999977085e-01,-2.699999999999949107e-01,-1.000000000000000000e+00,8.800000000000034461e-01,-1.099999999999983213e-01,-1.599999999999948130e-01,2.200000000000046363e-01,4.000000000000625278e-02,-1.499999999999956923e-01,-1.000000000000000000e+00,-6.799999999999988276e-01,-4.199999999999985967e-01,-1.000000000000000000e+00,-1.000000000000000000e+00,5.700000000000076117e-01,-6.399999999999970157e-01,5.700000000000049472e-01,-6.899999999999979483e-01,-5.399999999999987033e-01,-1.000000000000000000e+00,1.400000000000054534e-01,8.000000000000362377e-02,-1.000000000000000000e+00,1.800000000000090417e-01,4.300000000000012701e-01,6.700000000000041478e-01,-3.099999999999984990e-01,-4.999999999999560352e-02,2.200000000000046363e-01,-9.999999999997344347e-03,-1.299999999999965627e-01,5.700000000000049472e-01,5.900000000000040767e-01,-3.299999999999940758e-01,4.500000000000021760e-01,-8.099999999999980549e-01,-7.499999999999944489e-01,-4.699999999999959766e-01,-4.599999999999933031e-01,6.600000000000014744e-01,6.900000000000077183e-01,-3.999999999999559464e-02,9.500000000000035083e-01,-1.000000000000000000e+00,-4.599999999999959677e-01,4.300000000000083755e-01,9.500000000000052847e-01,-5.199999999999933564e-01,9.400000000000061640e-01,-1.000000000000000000e+00,-1.000000000000000000e+00,-1.000000000000000000e+00,8.800000000000016698e-01,-5.499999999999987121e-01,6.900000000000041656e-01,3.100000000000020517e-01,-1.000000000000000000e+00,-2.199999999999984190e-01,-5.399999999999969269e-01,9.000000000000052403e-01,-6.199999999999969980e-01,-3.099999999999896172e-01,4.500000000000048406e-01,1.200000000000063238e-01,-2.999999999999825029e-02,-2.399999999999984368e-01,-9.099999999999981437e-01,-1.499999999999948042e-01,2.800000000000046896e-01,1.000000000000178524e-02,1.800000000000037126e-01,3.500000000000029754e-01,-7.799999999999971401e-01,-9.999999999997344347e-03,-4.599999999999968558e-01,-1.999999999999646505e-02,-2.999999999999984901e-01
-1.000000000000000000e+00,-1.000000000000000000e+00,-1.000000000000000000e+00,-9.799999999999990941e-01,-1.000000000000000000e+00,-3.199999999999985079e-01,-9.999999999998232525e-03,-6.799999999999970512e-01,-5.099999999999951239e-01,-1.999999999999824141e-02,8.800000000000034461e-01,-1.099999999999983213e-01,1.400000000000081180e-01,2.200000000000046363e-01,-1.000000000000000000e+00,-5.199999999999960210e-01,3.400000000000047429e-01,-1.000000000000000000e+00,-1.000000000000000000e+00,-9.999999999999831246e-02,-1.000000000000000000e+00,5.700000000000076117e-01,-3.999999999999941380e-01,5.700000000000049472e-01,1.300000000000027800e-01,-7.699999999999989075e-01,-1.000000000000000000e+00,-2.499999999999984457e-01,8.000000000000362377e-02,-3.799999999999985612e-01,6.500000000000094591e-01,-1.599999999999974776e-01,6.700000000000041478e-01,-1.000000000000000000e+00,-4.999999999999560352e-02,2.200000000000046363e-01,-9.999999999997344347e-03,2.400000000000046541e-01,4.300000000000039346e-01,4.700000000000048583e-01,-3.299999999999940758e-01,-1.899999999999975042e-01,-6.899999999999979483e-01,-7.499999999999944489e-01,-4.699999999999959766e-01,-4.599999999999933031e-01,6.600000000000014744e-01,6.900000000000077183e-01,-4.999999999999649170e-02,8.400000000000042988e-01,-1.000000000000000000e+00,2.400000000000055422e-01,5.329070518200751394e-15,5.000000000000537348e-02,-3.399999999999923084e-01,4.600000000000039613e-01,2.700000000000082334e-01,-1.000000000000000000e+00,-1.000000000000000000e+00,8.800000000000016698e-01,2.000000000000028422e-01,4.100000000000030287e-01,1.000000000000267342e-02,-1.000000000000000000e+00,-1.000000000000000000e+00,-1.000000000000000000e+00,-1.000000000000000000e+00,-1.000000000000000000e+00,1.500000000000090150e-01,8.800000000000052225e-01,-1.000000000000000000e+00,-2.999999999999825029e-02,-2.399999999999984368e-01,-5.599999999999978328e-01,-1.499999999999965805e-01,2.800000000000046896e-01,9.500000000000017319e-01,-7.799999999999962519e-01,9.900000000000044320e-01,-1.000000000000000000e+00,-1.000000000000000000e+00,-4.599999999999968558e-01,-1.000000000000000000e+00,-2.999999999999984901e-01
-1.000000000000000000e+00,-1.000000000000000000e+00,-9.599999999999990763e-01,-9.799999999999990941e-01,-5.999999999999987566e-01,-4.399999999999977263e-01,-1.000000000000000000e+00,-4.199999999999977085e-01,-5.099999999999951239e-01,-1.000000000000000000e+00,8.800000000000034461e-01,-9.099999999999990319e-01,-5.999999999999916511e-01,6.800000000000041567e-01,9.900000000000062084e-01,7.600000000000060041e-01,7.600000000000051159e-01,-6.799999999999988276e-01,-1.000000000000000000e+00,-1.000000000000000000e+00,-1.000000000000000000e+00,5.700000000000076117e-01,-3.999999999999941380e-01,5.700000000000049472e-01,1.300000000000027800e-01,-1.000000000000000000e+00,4.500000000000048406e-01,-5.999999999999738876e-02,8.000000000000362377e-02,-1.000000000000000000e+00,-1.899999999999912870e-01,-3.299999999999976286e-01,6.700000000000041478e-01,-1.000000000000000000e+00,-4.999999999999560352e-02,2.200000000000046363e-01,4.000000000000047962e-01,-2.999999999999958256e-01,3.700000000000038813e-01,5.900000000000040767e-01,-3.299999999999940758e-01,-1.899999999999975042e-01,-3.899999999999985700e-01,-7.499999999999944489e-01,-1.000000000000000000e+00,-1.000000000000000000e+00,6.600000000000014744e-01,6.900000000000077183e-01,-4.999999999999649170e-02,9.500000000000035083e-01,-1.000000000000000000e+00,-2.699999999999949107e-01,-3.099999999999940581e-01,9.500000000000052847e-01,-2.999999999999825029e-02,4.600000000000039613e-01,-4.299999999999915001e-01,-1.000000000000000000e+00,-1.000000000000000000e+00,-1.899999999999975042e-01,-5.499999999999969358e-01,4.100000000000030287e-01,4.500000000000030642e-01,-1.000000000000000000e+00,-1.000000000000000000e+00,-1.000000000000000000e+00,9.000000000000052403e-01,-8.999999999999954703e-01,5.000000000000084377e-01,8.800000000000052225e-01,-8.699999999999954436e-01,-2.999999999999825029e-02,-2.399999999999984368e-01,-1.000000000000000000e+00,4.000000000000039080e-01,-2.999999999999469757e-02,9.500000000000017319e-01,1.800000000000037126e-01,-1.000000000000000000e+00,1.200000000000027711e-01,-1.000000000000000000e+00,-4.599999999999968558e-01,-1.000000000000000000e+00,-3.999999999999985789e-01
-1.000000000000000000e+00,-1.000000000000000000e+00,-1.000000000000000000e+00,-9.799999999999990941e-01,-1.000000000000000000e+00,-4.399999999999977263e-01,-1.000000000000000000e+00,-5.099999999999969003e-01,5.000000000000537348e-02,-7.599999999999988987e-01,8.800000000000034461e-01,-9.099999999999990319e-01,-5.999999999999916511e-01,-7.699999999999953548e-01,4.000000000000625278e-02,-3.299999999999958522e-01,7.600000000000051159e-01,-1.000000000000000000e+00,-1.000000000000000000e+00,-1.000000000000000000e+00,-1.000000000000000000e+00,5.700000000000076117e-01,1.200000000000036593e-01,5.700000000000049472e-01,1.300000000000027800e-01,-1.000000000000000000e+00,4.500000000000048406e-01,-5.999999999999738876e-02,8.000000000000362377e-02,-1.000000000000000000e+00,-2.099999999999921929e-01,4.300000000000012701e-01,6.700000000000041478e-01,-6.999999999999988454e-01,-4.999999999999560352e-02,2.200000000000046363e-01,-9.999999999997344347e-03,6.000000000000449418e-02,4.300000000000039346e-01,5.900000000000040767e-01,-3.299999999999940758e-01,-1.899999999999975042e-01,-6.899999999999979483e-01,-7.499999999999944489e-01,-1.000000000000000000e+00,-4.599999999999933031e-01,2.500000000000019984e-01,6.900000000000077183e-01,-4.999999999999649170e-02,9.500000000000035083e-01,-1.000000000000000000e+00,-8.799999999999963407e-01,5.329070518200751394e-15,9.500000000000052847e-01,-5.199999999999933564e-01,-1.000000000000000000e+00,-6.699999999999917133e-01,-1.000000000000000000e+00,-1.000000000000000000e+00,-1.899999999999975042e-01,2.000000000000028422e-01,4.100000000000030287e-01,1.000000000000267342e-02,-2.399999999999984368e-01,-7.399999999999979927e-01,-1.000000000000000000e+00,9.000000000000052403e-01,-8.999999999999954703e-01,5.000000000000084377e-01,4.500000000000048406e-01,-1.000000000000000000e+00,-2.999999999999825029e-02,2.400000000000037659e-01,-1.000000000000000000e+00,-2.599999999999975664e-01,2.900000000000055866e-01,9.500000000000017319e-01,1.800000000000037126e-01,-1.000000000000000000e+00,1.800000000000028244e-01,-1.000000000000000000e+00,-4.599999999999968558e-01,6.700000000000032596e-01,-4.999999999999826805e-02
-1.000000000000000000e+00,-1.000000000000000000e+00,-1.000000000000000000e+00,-9.799999999999990941e-01,-1.000000000000000000e+00,-3.199999999999985079e-01,-1.000000000000000000e+00,-4.199999999999977085e-01,3.400000000000047429e-01,-1.000000000000000000e+00,8.800000000000034461e-01,-3.599999999999976552e-01,1.400000000000081180e-01,2.200000000000046363e-01,9.900000000000062084e-01,-1.000000000000000000e+00,-1.000000000000000000e+00,-1.000000000000000000e+00,-1.000000000000000000e+00,-1.000000000000000000e+00,-1.000000000000000000e+00,5.700000000000076117e-01,8.000000000000717648e-02,5.700000000000049472e-01,1.300000000000027800e-01,-9.999999999999991118e-01,-1.000000000000000000e+00,-2.499999999999984457e-01,8.000000000000362377e-02,-1.000000000000000000e+00,-2.099999999999921929e-01,4.300000000000012701e-01,6.700000000000041478e-01,-3.499999999999976463e-01,3.600000000000038725e-01,2.500000000000064393e-01,-9.999999999997344347e-03,2.400000000000046541e-01,4.300000000000039346e-01,4.700000000000048583e-01,-3.299999999999940758e-01,4.500000000000021760e-01,-6.899999999999979483e-01,-3.999999999999941380e-01,-4.699999999999959766e-01,-3.599999999999923261e-01,6.600000000000014744e-01,6.900000000000077183e-01,-4.999999999999649170e-02,8.400000000000042988e-01,-1.000000000000000000e+00,-2.599999999999949019e-01,5.329070518200751394e-15,9.500000000000052847e-01,-1.000000000000000000e+00,-2.999999999999949374e-01,-4.299999999999915001e-01,-1.000000000000000000e+00,-3.299999999999985167e-01,8.700000000000034373e-01,2.000000000000028422e-01,4.100000000000030287e-01,1.000000000000267342e-02,-1.000000000000000000e+00,-1.000000000000000000e+00,-1.000000000000000000e+00,-1.000000000000000000e+00,-3.199999999999985079e-01,5.000000000000084377e-01,5.100000000000057820e-01,-6.699999999999988187e-01,-2.999999999999825029e-02,-2.399999999999984368e-01,-2.499999999999966693e-01,4.000000000000039080e-01,2.800000000000046896e-01,9.500000000000017319e-01,1.800000000000037126e-01,-1.000000000000000000e+00,1.200000000000027711e-01,-1.000000000000000000e+00,-4.599999999999968558e-01,-1.000000000000000000e+00,-2.999999999999984901e-01
-1.000000000000000000e+00,-1.000000000000000000e+00,-1.000000000000000000e+00,-9.799999999999990941e-01,-1.000000000000000000e+00,-4.699999999999977529e-01,-1.000000000000000000e+00,-4.199999999999977085e-01,-5.099999999999951239e-01,-1.000000000000000000e+00,8.800000000000034461e-01,-1.099999999999983213e-01,-5.999999999999916511e-01,6.800000000000041567e-01,9.900000000000062084e-01,-7.999999999999563016e-02,7.600000000000051159e-01,-1.000000000000000000e+00,-1.000000000000000000e+00,-1.000000000000000000e+00,-9.899999999999991029e-01,5.700000000000076117e-01,-3.999999999999941380e-01,5.700000000000049472e-01,-7.799999999999989164e-01,-1.000000000000000000e+00,4.500000000000048406e-01,-5.999999999999738876e-02,8.000000000000362377e-02,-3.799999999999985612e-01,-2.099999999999921929e-01,-2.699999999999984635e-01,6.700000000000041478e-01,-1.000000000000000000e+00,3.600000000000038725e-01,2.200000000000046363e-01,-9.999999999997344347e-03,-1.299999999999965627e-01,4.300000000000039346e-01,5.900000000000040767e-01,-3.299999999999940758e-01,-1.899999999999975042e-01,-6.899999999999979483e-01,-2.699999999999931344e-01,-4.699999999999959766e-01,-4.599999999999933031e-01,6.600000000000014744e-01,9.000000000000629718e-02,-4.999999999999649170e-02,8.400000000000042988e-01,-1.000000000000000000e+00,8.000000000000451195e-02,5.329070518200751394e-15,9.500000000000052847e-01,-5.199999999999933564e-01,4.600000000000039613e-01,-4.299999999999915001e-01,-1.000000000000000000e+00,-3.299999999999985167e-01,8.800000000000016698e-01,-5.199999999999977973e-01,4.100000000000030287e-01,3.100000000000020517e-01,-7.699999999999989075e-01,-8.199999999999989519e-01,-1.000000000000000000e+00,9.000000000000363265e-02,-3.199999999999985079e-01,-1.299999999999912337e-01,4.500000000000048406e-01,-1.000000000000000000e+00,-2.999999999999825029e-02,5.200000000000031264e-01,-1.000000000000000000e+00,-2.599999999999975664e-01,2.800000000000046896e-01,9.500000000000017319e-01,1.800000000000037126e-01,3.500000000000029754e-01,-2.599999999999966782e-01,-1.000000000000000000e+00,-4.599999999999968558e-01,-1.000000000000000000e+00,-1.000000000000000000e+00
-1.000000000000000000e+00,-1.000000000000000000e+00,-1.000000000000000000e+00,-9.799999999999990941e-01,-1.000000000000000000e+00,-3.199999999999985079e-01,-9.999999999998232525e-03,-4.199999999999977085e-01,5.000000000000537348e-02,-1.000000000000000000e+00,8.800000000000034461e-01,-1.099999999999983213e-01,1.400000000000081180e-01,-2.099999999999939693e-01,-1.000000000000000000e+00,-3.299999999999958522e-01,-1.000000000000000000e+00,-1.999999999999824141e-02,-1.000000000000000000e+00,-1.000000000000000000e+00,-1.000000000000000000e+00,5.700000000000076117e-01,-3.999999999999941380e-01,3.600000000000056488e-01,1.300000000000027800e-01,-1.000000000000000000e+00,-1.000000000000000000e+00,-2.499999999999984457e-01,8.000000000000362377e-02,-3.799999999999985612e-01,-1.899999999999912870e-01,4.300000000000012701e-01,6.700000000000041478e-01,-1.000000000000000000e+00,-4.999999999999560352e-02,2.200000000000046363e-01,-9.999999999997344347e-03,2.400000000000046541e-01,3.700000000000038813e-01,1.700000000000054801e-01,-3.299999999999940758e-01,-1.899999999999975042e-01,-3.899999999999985700e-01,-3.999999999999941380e-01,-4.499999999999950706e-01,-4.599999999999933031e-01,6.600000000000014744e-01,6.900000000000077183e-01,-4.999999999999649170e-02,8.400000000000042988e-01,-1.000000000000000000e+00,-8.799999999999963407e-01,5.329070518200751394e-15,9.500000000000052847e-01,-5.199999999999933564e-01,4.600000000000039613e-01,1.200000000000072120e-01,-1.000000000000000000e+00,-1.000000000000000000e+00,8.800000000000016698e-01,2.000000000000028422e-01,4.100000000000030287e-01,4.500000000000030642e-01,-1.000000000000000000e+00,-2.199999999999984190e-01,-1.000000000000000000e+00,9.000000000000052403e-01,-6.199999999999969980e-01,6.100000000000094236e-01,8.800000000000052225e-01,-1.000000000000000000e+00,-2.999999999999825029e-02,-2.399999999999984368e-01,-1.000000000000000000e+00,4.000000000000039080e-01,2.800000000000046896e-01,9.500000000000017319e-01,1.800000000000037126e-01,-1.000000000000000000e+00,1.800000000000028244e-01,-1.000000000000000000e+00,-4.599999999999968558e-01,-1.000000000000000000e+00,-1.000000000000000000e+00
-1.000000000000000000e+00,-1.000000000000000000e+00,-1.000000000000000000e+00,-9.799999999999990941e-01,-1.000000000000000000e+00,-3.199999999999985079e-01,-9.999999999998232525e-03,-6.799999999999970512e-01,-1.000000000000000000e+00,-1.000000000000000000e+00,8.800000000000034461e-01,-1.099999999999983213e-01,-5.999999999999916511e-01,2.200000000000046363e-01,-1.000000000000000000e+00,-5.199999999999960210e-01,3.400000000000047429e-01,-1.000000000000000000e+00,-1.000000000000000000e+00,-1.000000000000000000e+00,-1.000000000000000000e+00,5.700000000000076117e-01,-3.999999999999941380e-01,5.700000000000049472e-01,1.300000000000027800e-01,-3.999999999999825917e-02,-1.000000000000000000e+00,-2.499999999999984457e-01,8.000000000000362377e-02,-3.799999999999985612e-01,-2.099999999999921929e-01,-1.799999999999983835e-01,6.700000000000041478e-01,-1.000000000000000000e+00,5.329070518200751394e-15,2.200000000000046363e-01,-9.999999999997344347e-03,6.000000000000449418e-02,4.300000000000039346e-01,4.700000000000048583e-01,-3.299999999999940758e-01,-1.899999999999975042e-01,-6.899999999999979483e-01,-7.499999999999944489e-01,-4.699999999999959766e-01,-4.599999999999933031e-01,6.600000000000014744e-01,6.900000000000077183e-01,-4.999999999999649170e-02,8.400000000000042988e-01,-2.799999999999984723e-01,-5.399999999999969269e-01,5.329070518200751394e-15,9.500000000000052847e-01,-5.199999999999933564e-01,8.000000000000451195e-02,2.700000000000082334e-01,-9.799999999999990941e-01,-1.000000000000000000e+00,-1.899999999999975042e-01,2.000000000000028422e-01,4.100000000000030287e-01,1.000000000000267342e-02,-6.999999999999828582e-02,-1.000000000000000000e+00,-1.000000000000000000e+00,9.000000000000052403e-01,-6.199999999999969980e-01,5.000000000000084377e-01,8.800000000000052225e-01,-8.699999999999954436e-01,-2.999999999999825029e-02,2.400000000000037659e-01,-5.599999999999978328e-01,4.000000000000039080e-01,2.900000000000055866e-01,9.500000000000017319e-01,1.800000000000037126e-01,3.500000000000029754e-01,-1.000000000000000000e+00,-1.000000000000000000e+00,-4.599999999999968558e-01,-1.000000000000000000e+00,-2.999999999999984901e-01
-1.000000000000000000e+00,-1.999999999999984013e-01,-1.000000000000000000e+00,-9.799999999999990941e-01,-1.000000000000000000e+00,-9.999999999997344347e-03,-1.000000000000000000e+00,-4.199999999999977085e-01,3.400000000000047429e-01,-1.000000000000000000e+00,8.800000000000034461e-01,-1.099999999999983213e-01,-5.999999999999916511e-01,2.200000000000046363e-01,4.000000000000625278e-02,-3.299999999999958522e-01,7.600000000000051159e-01,4.200000000000039257e-01,-4.199999999999985967e-01,-2.299999999999984279e-01,-1.000000000000000000e+00,5.700000000000076117e-01,-3.999999999999941380e-01,5.700000000000049472e-01,1.300000000000027800e-01,-1.000000000000000000e+00,-1.000000000000000000e+00,-5.999999999999738876e-02,8.000000000000362377e-02,-1.000000000000000000e+00,-2.099999999999921929e-01,4.300000000000012701e-01,6.700000000000041478e-01,-6.999999999999988454e-01,-4.999999999999560352e-02,2.200000000000046363e-01,-9.999999999997344347e-03,6.000000000000449418e-02,5.700000000000049472e-01,-6.999999999999473310e-02,-3.299999999999940758e-01,4.500000000000021760e-01,-6.899999999999979483e-01,-7.499999999999944489e-01,-6.899999999999952838e-01,-3.699999999999923350e-01,-1.000000000000000000e+00,6.900000000000077183e-01,-4.999999999999649170e-02,9.500000000000035083e-01,-1.000000000000000000e+00,-5.399999999999969269e-01,5.329070518200751394e-15,7.500000000000059952e-01,-5.199999999999933564e-01,-1.599999999999957012e-01,2.700000000000082334e-01,-1.000000000000000000e+00,-1.000000000000000000e+00,-1.899999999999975042e-01,2.000000000000028422e-01,4.100000000000030287e-01,1.000000000000267342e-02,-1.000000000000000000e+00,2.000000000000268230e-02,-9.399999999999990585e-01,9.000000000000363265e-02,-1.000000000000000000e+00,5.000000000000084377e-01,4.500000000000048406e-01,-1.699999999999939337e-01,-2.999999999999825029e-02,-2.399999999999984368e-01,-1.000000000000000000e+00,4.000000000000039080e-01,2.800000000000046896e-01,-1.000000000000000000e+00,1.800000000000037126e-01,3.500000000000029754e-01,-1.799999999999974953e-01,-1.000000000000000000e+00,-4.599999999999968558e-01,6.700000000000032596e-01,-2.999999999999984901e-01
-1.000000000000000000e+00,-1.000000000000000000e+00,-1.000000000000000000e+00,-9.799999999999990941e-01,-3.699999999999985523e-01,-4.399999999999977263e-01,-1.000000000000000000e+00,-4.199999999999977085e-01,3.400000000000047429e-01,-1.000000000000000000e+00,8.800000000000034461e-01,-1.099999999999983213e-01,-1.599999999999948130e-01,2.200000000000046363e-01,4.000000000000625278e-02,1.000000000000356160e-02,6.100000000000040945e-01,-6.799999999999988276e-01,-1.000000000000000000e+00,-1.000000000000000000e+00,-1.000000000000000000e+00,5.700000000000076117e-01,5.300000000000057998e-01,3.600000000000056488e-01,1.300000000000027800e-01,-5.399999999999987033e-01,-2.199999999999948663e-01,-5.999999999999738876e-02,8.000000000000362377e-02,-1.000000000000000000e+00,2.500000000000091038e-01,4.300000000000012701e-01,6.700000000000041478e-01,-3.099999999999984990e-01,-4.999999999999560352e-02,2.200000000000046363e-01,-4.999999999999968914e-01,-1.299999999999965627e-01,3.700000000000038813e-01,5.900000000000040767e-01,-3.299999999999940758e-01,4.500000000000021760e-01,-6.899999999999979483e-01,-3.999999999999941380e-01,-2.499999999999948930e-01,-4.599999999999933031e-01,6.600000000000014744e-01,6.900000000000077183e-01,-4.999999999999649170e-02,8.400000000000042988e-01,-1.000000000000000000e+00,-4.599999999999959677e-01,-3.099999999999940581e-01,8.800000000000061107e-01,-5.199999999999933564e-01,4.600000000000039613e-01,5.000000000000803801e-02,-1.000000000000000000e+00,-1.000000000000000000e+00,8.800000000000016698e-01,-5.499999999999987121e-01,4.100000000000030287e-01,4.500000000000030642e-01,-7.699999999999989075e-01,-1.000000000000000000e+00,-8.799999999999963407e-01,7.400000000000059863e-01,-8.999999999999954703e-01,-3.099999999999896172e-01,4.500000000000048406e-01,-8.699999999999954436e-01,-2.999999999999825029e-02,6.000000000000031974e-01,-1.000000000000000000e+00,7.600000000000051159e-01,7.000000000000627942e-02,9.500000000000017319e-01,1.800000000000037126e-01,-1.000000000000000000e+00,-7.799999999999971401e-01,-1.000000000000000000e+00,-4.599999999999968558e-01,6.700000000000032596e-01,-1.000000000000000000e+00
-1.000000000000000000e+00,-1.000000000000000000e+00,-2.599999999999984546e-01,4.800000000000039790e-01,-1.000000000000000000e+00,-3.199999999999985079e-01,-1.000000000000000000e+00,-4.199999999999977085e-01,1.000000000000054179e-01,-2.599999999999984546e-01,8.800000000000034461e-01,-3.599999999999976552e-01,-1.599999999999948130e-01,-5.099999999999951239e-01,-1.000000000000000000e+00,1.000000000000356160e-02,7.600000000000051159e-01,-6.799999999999988276e-01,-1.000000000000000000e+00,-1.000000000000000000e+00,-1.000000000000000000e+00,5.700000000000076117e-01,6.500000000000067946e-01,5.700000000000049472e-01,-6.899999999999979483e-01,-5.399999999999987033e-01,-1.000000000000000000e+00,-5.999999999999738876e-02,8.000000000000362377e-02,-1.000000000000000000e+00,-7.999999999999918288e-01,4.300000000000012701e-01,6.700000000000041478e-01,-3.499999999999976463e-01,-4.999999999999560352e-02,5.600000000000040501e-01,-6.399999999999961275e-01,-3.799999999999958966e-01,4.300000000000039346e-01,5.900000000000040767e-01,-3.299999999999940758e-01,4.500000000000021760e-01,-6.899999999999979483e-01,-7.499999999999944489e-01,9.000000000000540901e-02,-4.599999999999933031e-01,-1.999999999999824141e-02,7.700000000000069011e-01,-4.999999999999649170e-02,8.400000000000042988e-01,-1.000000000000000000e+00,-4.599999999999959677e-01,4.300000000000083755e-01,9.500000000000052847e-01,-8.399999999999927525e-01,3.400000000000047429e-01,2.700000000000082334e-01,-1.000000000000000000e+00,-1.000000000000000000e+00,8.700000000000034373e-01,-5.499999999999987121e-01,4.100000000000030287e-01,4.500000000000030642e-01,-7.699999999999989075e-01,-1.000000000000000000e+00,-5.399999999999969269e-01,3.200000000000056133e-01,-6.199999999999969980e-01,5.000000000000084377e-01,5.100000000000057820e-01,-8.699999999999954436e-01,2.200000000000028599e-01,-1.000000000000000000e+00,-1.000000000000000000e+00,-2.599999999999975664e-01,2.800000000000046896e-01,9.500000000000017319e-01,1.800000000000037126e-01,-1.000000000000000000e+00,-7.799999999999971401e-01,-3.499999999999985345e-01,-4.599999999999968558e-01,6.700000000000032596e-01,-1.000000000000000000e+00
-1.000000000000000000e+00,-8.999999999999990230e-01,-1.000000000000000000e+00,-9.799999999999990941e-01,-1.000000000000000000e+00,-3.199999999999985079e-01,-1.000000000000000000e+00,-4.199999999999977085e-01,-5.099999999999951239e-01,-7.599999999999988987e-01,8.800000000000034461e-01,-1.099999999999983213e-01,-5.999999999999916511e-01,-7.699999999999953548e-01,9.900000000000062084e-01,-3.299999999999958522e-01,7.600000000000051159e-01,-1.000000000000000000e+00,-1.000000000000000000e+00,-1.000000000000000000e+00,-1.000000000000000000e+00,5.700000000000076117e-01,-3.999999999999941380e-01,5.700000000000049472e-01,1.300000000000027800e-01,-1.000000000000000000e+00,-1.000000000000000000e+00,-5.999999999999738876e-02,8.000000000000362377e-02,-1.000000000000000000e+00,-1.899999999999912870e-01,-2.699999999999984635e-01,6.700000000000041478e-01,-6.999999999999988454e-01,-4.999999999999560352e-02,2.200000000000046363e-01,-9.999999999997344347e-03,2.400000000000046541e-01,3.700000000000038813e-01,5.900000000000040767e-01,-3.299999999999940758e-01,4.500000000000021760e-01,-3.899999999999985700e-01,-7.499999999999944489e-01,-4.699999999999959766e-01,-4.599999999999933031e-01,6.600000000000014744e-01,1.800000000000054889e-01,9.100000000000052491e-01,8.400000000000042988e-01,-1.000000000000000000e+00,-5.399999999999969269e-01,5.329070518200751394e-15,9.500000000000052847e-01,-5.199999999999933564e-01,4.600000000000039613e-01,1.200000000000072120e-01,-4.199999999999985967e-01,-1.000000000000000000e+00,-2.799999999999966960e-01,2.000000000000028422e-01,4.100000000000030287e-01,1.000000000000267342e-02,-1.000000000000000000e+00,-1.000000000000000000e+00,-1.000000000000000000e+00,-2.899999999999958167e-01,-1.000000000000000000e+00,5.000000000000084377e-01,4.500000000000048406e-01,-8.699999999999954436e-01,-2.999999999999825029e-02,2.400000000000037659e-01,-1.000000000000000000e+00,-2.599999999999975664e-01,2.800000000000046896e-01,9.500000000000017319e-01,2.200000000000046363e-01,-1.000000000000000000e+00,1.800000000000028244e-01,-9.299999999999990496e-01,-4.599999999999968558e-01,6.700000000000032596e-01,-2.999999999999984901e-01
-1.000000000000000000e+00,-1.000000000000000000e+00,-1.000000000000000000e+00,-9.799999999999990941e-01,-1.000000000000000000e+00,-4.399999999999977263e-01,-9.999999999998232525e-03,-4.199999999999977085e-01,5.000000000000537348e-02,-1.000000000000000000e+00,8.800000000000034461e-01,-1.099999999999983213e-01,1.400000000000081180e-01,2.200000000000046363e-01,4.000000000000625278e-02,-3.299999999999958522e-01,4.900000000000057643e-01,-1.000000000000000000e+00,-1.000000000000000000e+00,-1.000000000000000000e+00,-1.000000000000000000e+00,5.700000000000076117e-01,1.200000000000036593e-01,5.700000000000049472e-01,-6.999999999999970690e-01,-1.000000000000000000e+00,-1.000000000000000000e+00,-5.999999999999738876e-02,2.100000000000046274e-01,-1.000000000000000000e+00,-2.099999999999921929e-01,4.300000000000012701e-01,6.700000000000041478e-01,-1.000000000000000000e+00,-4.999999999999560352e-02,2.200000000000046363e-01,-9.999999999997344347e-03,2.400000000000046541e-01,4.300000000000039346e-01,4.700000000000048583e-01,-3.299999999999940758e-01,-1.899999999999975042e-01,-3.899999999999985700e-01,-1.000000000000000000e+00,-4.499999999999950706e-01,-4.599999999999933031e-01,2.500000000000019984e-01,6.900000000000077183e-01,1.000000000000444977e-02,8.400000000000042988e-01,-1.000000000000000000e+00,-1.999999999999557687e-02,-3.099999999999940581e-01,9.500000000000052847e-01,-5.199999999999933564e-01,8.000000000000451195e-02,1.200000000000072120e-01,-1.000000000000000000e+00,-1.000000000000000000e+00,8.800000000000016698e-01,2.000000000000028422e-01,4.100000000000030287e-01,1.000000000000267342e-02,-2.399999999999984368e-01,-7.399999999999979927e-01,-1.000000000000000000e+00,9.000000000000052403e-01,-8.999999999999954703e-01,6.100000000000094236e-01,8.800000000000052225e-01,-1.000000000000000000e+00,-2.999999999999825029e-02,-2.399999999999984368e-01,-5.599999999999978328e-01,9.700000000000053024e-01,2.800000000000046896e-01,9.500000000000017319e-01,1.800000000000037126e-01,-1.000000000000000000e+00,1.800000000000028244e-01,-1.000000000000000000e+00,-4.599999999999968558e-01,4.300000000000039346e-01,-1.000000000000000000e+00
-1.000000000000000000e+00,-1.000000000000000000e+00,-1.000000000000000000e+00,-1.000000000000000000e+00,-1.000000000000000000e+00,-3.199999999999985079e-01,-9.999999999998232525e-03,-6.799999999999970512e-01,3.400000000000047429e-01,-7.599999999999988987e-01,8.800000000000034461e-01,-1.099999999999983213e-01,-5.999999999999916511e-01,2.200000000000046363e-01,-1.000000000000000000e+00,-5.199999999999960210e-01,7.600000000000051159e-01,-6.799999999999988276e-01,-1.000000000000000000e+00,-1.000000000000000000e+00,-1.000000000000000000e+00,5.700000000000076117e-01,-3.999999999999941380e-01,5.700000000000049472e-01,1.300000000000027800e-01,-1.000000000000000000e+00,-1.000000000000000000e+00,-5.999999999999738876e-02,8.000000000000362377e-02,-1.000000000000000000e+00,-2.099999999999921929e-01,-4.699999999999986411e-01,-1.000000000000000000e+00,-6.999999999999988454e-01,-4.999999999999560352e-02,2.200000000000046363e-01,-9.999999999997344347e-03,6.000000000000449418e-02,6.100000000000049827e-01,4.700000000000048583e-01,-3.299999999999940758e-01,-1.000000000000000000e+00,-6.899999999999979483e-01,-7.499999999999944489e-01,-4.699999999999959766e-01,-4.599999999999933031e-01,6.600000000000014744e-01,6.900000000000077183e-01,-4.999999999999649170e-02,9.500000000000035083e-01,-1.000000000000000000e+00,-1.999999999999557687e-02,5.329070518200751394e-15,9.500000000000052847e-01,-1.000000000000000000e+00,-6.199999999999952216e-01,2.700000000000082334e-01,-1.000000000000000000e+00,-3.299999999999985167e-01,-1.899999999999975042e-01,2.000000000000028422e-01,7.000000000000361489e-02,1.000000000000267342e-02,-1.000000000000000000e+00,-1.000000000000000000e+00,-1.000000000000000000e+00,9.000000000000363265e-02,-6.199999999999969980e-01,5.000000000000084377e-01,8.800000000000052225e-01,-1.000000000000000000e+00,-2.999999999999825029e-02,4.500000000000048406e-01,-5.599999999999978328e-01,4.000000000000039080e-01,2.900000000000055866e-01,9.500000000000017319e-01,1.800000000000037126e-01,9.900000000000044320e-01,-1.000000000000000000e+00,-1.000000000000000000e+00,-4.599999999999968558e-01,-1.000000000000000000e+00,-2.999999999999984901e-01
-1.000000000000000000e+00,-1.000000000000000000e+00,-1.000000000000000000e+00,-9.799999999999990941e-01,-1.000000000000000000e+00,-9.099999999999972555e-01,-1.000000000000000000e+00,-4.199999999999977085e-01,3.400000000000047429e-01,-1.999999999999824141e-02,8.800000000000034461e-01,-1.099999999999983213e-01,-1.599999999999948130e-01,2.200000000000046363e-01,9.900000000000062084e-01,-3.299999999999958522e-01,8.000000000000051514e-01,-1.000000000000000000e+00,-1.000000000000000000e+00,-1.000000000000000000e+00,-1.000000000000000000e+00,-3.399999999999923084e-01,-3.999999999999941380e-01,5.700000000000049472e-01,1.300000000000027800e-01,-1.000000000000000000e+00,-1.000000000000000000e+00,-5.999999999999738876e-02,8.000000000000362377e-02,-1.000000000000000000e+00,1.800000000000090417e-01,-1.000000000000000000e+00,6.700000000000041478e-01,-1.000000000000000000e+00,-4.999999999999560352e-02,2.200000000000046363e-01,-9.999999999997344347e-03,-1.299999999999965627e-01,5.700000000000049472e-01,4.700000000000048583e-01,-3.299999999999940758e-01,-1.899999999999975042e-01,-1.000000000000000000e+00,-3.999999999999941380e-01,-4.699999999999959766e-01,-1.000000000000000000e+00,6.600000000000014744e-01,6.900000000000077183e-01,-4.999999999999649170e-02,9.500000000000035083e-01,-1.000000000000000000e+00,-1.999999999999557687e-02,5.329070518200751394e-15,7.500000000000059952e-01,-5.199999999999933564e-01,4.600000000000039613e-01,-4.299999999999915001e-01,-1.000000000000000000e+00,-1.199999999999974420e-01,-1.899999999999975042e-01,2.000000000000028422e-01,4.200000000000039257e-01,-4.899999999999968825e-01,-1.000000000000000000e+00,-2.199999999999984190e-01,-1.000000000000000000e+00,-3.999999999999470646e-02,-1.000000000000000000e+00,3.500000000000091926e-01,4.500000000000048406e-01,-8.699999999999954436e-01,1.000000000000267342e-02,-2.399999999999984368e-01,-1.000000000000000000e+00,4.000000000000039080e-01,7.500000000000059952e-01,9.500000000000017319e-01,1.800000000000037126e-01,3.500000000000029754e-01,-1.799999999999974953e-01,-1.000000000000000000e+00,-4.599999999999968558e-01,6.700000000000032596e-01,-1.000000000000000000e+00
-1.000000000000000000e+00,-1.000000000000000000e+00,-1.000000000000000000e+00,4.800000000000039790e-01,-1.000000000000000000e+00,-3.199999999999985079e-01,-1.000000000000000000e+00,-4.199999999999977085e-01,3.400000000000047429e-01,-1.000000000000000000e+00,8.800000000000034461e-01,-1.099999999999983213e-01,-1.599999999999948130e-01,8.100000000000060485e-01,9.900000000000062084e-01,-1.000000000000000000e+00,7.600000000000051159e-01,-6.799999999999988276e-01,-1.000000000000000000e+00,-1.000000000000000000e+00,-1.000000000000000000e+00,5.700000000000076117e-01,-6.399999999999970157e-01,5.700000000000049472e-01,-6.899999999999979483e-01,-5.399999999999987033e-01,-1.000000000000000000e+00,1.400000000000054534e-01,8.000000000000362377e-02,-1.000000000000000000e+00,2.500000000000091038e-01,2.700000000000020162e-01,6.700000000000041478e-01,-1.000000000000000000e+00,3.600000000000038725e-01,5.600000000000040501e-01,-9.999999999997344347e-03,9.300000000000061551e-01,4.300000000000039346e-01,5.900000000000040767e-01,-3.299999999999940758e-01,4.500000000000021760e-01,-6.899999999999979483e-01,-7.499999999999944489e-01,9.000000000000540901e-02,-1.599999999999921485e-01,6.600000000000014744e-01,6.900000000000077183e-01,-4.999999999999649170e-02,8.400000000000042988e-01,-1.000000000000000000e+00,-2.599999999999949019e-01,4.300000000000083755e-01,9.500000000000052847e-01,-5.199999999999933564e-01,4.600000000000039613e-01,2.700000000000082334e-01,-1.000000000000000000e+00,-1.000000000000000000e+00,8.700000000000034373e-01,-5.499999999999987121e-01,4.100000000000030287e-01,1.000000000000267342e-02,-7.699999999999989075e-01,-1.000000000000000000e+00,-5.399999999999969269e-01,-6.899999999999952838e-01,-6.199999999999969980e-01,5.400000000000093614e-01,5.100000000000057820e-01,-8.699999999999954436e-01,2.200000000000028599e-01,5.200000000000031264e-01,-9.099999999999981437e-01,2.900000000000046985e-01,2.800000000000046896e-01,9.500000000000017319e-01,1.800000000000037126e-01,-1.000000000000000000e+00,-7.799999999999971401e-01,-3.499999999999985345e-01,-7.899999999999962608e-01,6.700000000000032596e-01,-1.999999999999984013e-01
-7.599999999999980105e-01,-1.000000000000000000e+00,-7.099999999999988542e-01,-1.899999999999966160e-01,-1.000000000000000000e+00,-3.199999999999985079e-01,-1.000000000000000000e+00,-4.199999999999977085e-01,3.800000000000056666e-01,-7.599999999999988987e-01,8.800000000000034461e-01,-1.099999999999983213e-01,-1.599999999999948130e-01,8.100000000000060485e-01,-1.000000000000000000e+00,-5.199999999999960210e-01,-1.000000000000000000e+00,-6.799999999999988276e-01,-1.000000000000000000e+00,-1.000000000000000000e+00,-1.000000000000000000e+00,5.700000000000076117e-01,-3.999999999999941380e-01,5.700000000000049472e-01,-6.899999999999979483e-01,-5.399999999999987033e-01,4.500000000000048406e-01,-5.999999999999738876e-02,8.000000000000362377e-02,-1.000000000000000000e+00,2.100000000000090683e-01,4.300000000000012701e-01,6.700000000000041478e-01,-1.000000000000000000e+00,-4.999999999999560352e-02,2.200000000000046363e-01,-9.999999999997344347e-03,-1.299999999999965627e-01,6.500000000000050182e-01,5.900000000000040767e-01,-3.299999999999940758e-01,4.500000000000021760e-01,-6.899999999999979483e-01,-7.499999999999944489e-01,-2.499999999999948930e-01,5.300000000000084643e-01,6.600000000000014744e-01,6.900000000000077183e-01,-4.999999999999649170e-02,8.400000000000042988e-01,-1.000000000000000000e+00,-4.599999999999959677e-01,5.329070518200751394e-15,9.500000000000052847e-01,-5.199999999999933564e-01,4.600000000000039613e-01,2.700000000000082334e-01,-3.099999999999976108e-01,-1.000000000000000000e+00,8.800000000000016698e-01,-5.499999999999987121e-01,4.100000000000030287e-01,-5.399999999999969269e-01,-7.699999999999989075e-01,-3.199999999999976197e-01,-5.399999999999969269e-01,9.000000000000363265e-02,-1.000000000000000000e+00,6.100000000000094236e-01,4.500000000000048406e-01,-8.699999999999954436e-01,-2.999999999999825029e-02,-1.000000000000000000e+00,-5.299999999999986944e-01,2.900000000000046985e-01,7.000000000000627942e-02,9.500000000000017319e-01,1.800000000000037126e-01,-1.000000000000000000e+00,-7.799999999999971401e-01,5.300000000000031353e-01,-4.599999999999968558e-01,6.700000000000032596e-01,-9.999999999998232525e-03
-1.000000000000000000e+00,-1.999999999999984013e-01,-1.000000000000000000e+00,-9.799999999999990941e-01,-1.000000000000000000e+00,-7.699999999999989075e-01,-6.499999999999988010e-01,-4.199999999999977085e-01,3.400000000000047429e-01,-1.000000000000000000e+00,8.800000000000034461e-01,-3.599999999999976552e-01,-1.599999999999948130e-01,2.200000000000046363e-01,9.900000000000062084e-01,-1.000000000000000000e+00,7.600000000000051159e-01,4.200000000000039257e-01,-4.199999999999985967e-01,-1.000000000000000000e+00,-1.000000000000000000e+00,5.700000000000076117e-01,-3.999999999999941380e-01,5.700000000000049472e-01,1.300000000000027800e-01,-1.000000000000000000e+00,-1.000000000000000000e+00,8.200000000000042810e-01,8.000000000000362377e-02,-8.899999999999990141e-01,-2.099999999999921929e-01,4.300000000000012701e-01,6.700000000000041478e-01,-1.000000000000000000e+00,-4.999999999999560352e-02,2.200000000000046363e-01,-9.999999999997344347e-03,-1.299999999999965627e-01,5.700000000000049472e-01,5.900000000000040767e-01,-3.299999999999940758e-01,4.500000000000021760e-01,-3.899999999999985700e-01,-3.999999999999941380e-01,-4.699999999999959766e-01,-4.599999999999933031e-01,6.600000000000014744e-01,1.800000000000054889e-01,-4.999999999999649170e-02,8.400000000000042988e-01,-1.000000000000000000e+00,-2.599999999999949019e-01,-3.099999999999940581e-01,7.500000000000059952e-01,-8.399999999999927525e-01,3.400000000000047429e-01,-1.000000000000000000e+00,-1.000000000000000000e+00,-1.000000000000000000e+00,8.800000000000016698e-01,-5.499999999999987121e-01,4.100000000000030287e-01,3.100000000000020517e-01,-1.000000000000000000e+00,-2.199999999999984190e-01,-1.000000000000000000e+00,9.000000000000052403e-01,-1.000000000000000000e+00,5.000000000000084377e-01,4.500000000000048406e-01,-8.699999999999954436e-01,-2.999999999999825029e-02,-2.399999999999984368e-01,-3.399999999999985256e-01,3.900000000000047873e-01,2.800000000000046896e-01,9.500000000000017319e-01,-5.799999999999960743e-01,-1.000000000000000000e+00,-1.799999999999974953e-01,-1.000000000000000000e+00,-4.599999999999968558e-01,6.700000000000032596e-01,-3.399999999999985256e-01
-1.000000000000000000e+00,-1.000000000000000000e+00,-3.599999999999976552e-01,-9.799999999999990941e-01,-1.000000000000000000e+00,-4.399999999999977263e-01,-1.000000000000000000e+00,-4.199999999999977085e-01,3.400000000000047429e-01,-1.000000000000000000e+00,8.800000000000034461e-01,-9.099999999999990319e-01,1.400000000000081180e-01,2.200000000000046363e-01,4.000000000000625278e-02,-3.299999999999958522e-01,7.600000000000051159e-01,-6.799999999999988276e-01,-1.000000000000000000e+00,-1.000000000000000000e+00,-1.000000000000000000e+00,9.400000000000088285e-01,-3.999999999999941380e-01,5.700000000000049472e-01,1.300000000000027800e-01,-1.000000000000000000e+00,-1.000000000000000000e+00,-2.499999999999984457e-01,8.000000000000362377e-02,-1.000000000000000000e+00,-2.099999999999921929e-01,-3.299999999999976286e-01,6.700000000000041478e-01,-1.000000000000000000e+00,-4.999999999999560352e-02,2.200000000000046363e-01,-4.999999999999968914e-01,-2.999999999999958256e-01,3.700000000000038813e-01,4.700000000000048583e-01,-3.299999999999940758e-01,-1.899999999999975042e-01,-3.899999999999985700e-01,-3.999999999999941380e-01,-4.699999999999959766e-01,-4.599999999999933031e-01,3.100000000000020517e-01,1.800000000000054889e-01,-4.999999999999649170e-02,8.400000000000042988e-01,-1.000000000000000000e+00,2.000000000000055067e-01,5.329070518200751394e-15,9.500000000000052847e-01,-5.199999999999933564e-01,3.400000000000047429e-01,-4.299999999999915001e-01,-1.000000000000000000e+00,-1.000000000000000000e+00,8.800000000000016698e-01,2.000000000000028422e-01,4.100000000000030287e-01,4.500000000000030642e-01,-7.699999999999989075e-01,-2.199999999999984190e-01,-1.000000000000000000e+00,9.000000000000052403e-01,-8.999999999999954703e-01,5.000000000000084377e-01,8.800000000000052225e-01,-8.699999999999954436e-01,7.000000000000272671e-02,-2.399999999999984368e-01,-1.000000000000000000e+00,4.000000000000039080e-01,2.800000000000046896e-01,9.500000000000017319e-01,1.800000000000037126e-01,3.500000000000029754e-01,1.200000000000027711e-01,-1.000000000000000000e+00,-4.599999999999968558e-01,6.700000000000032596e-01,-1.000000000000000000e+00
-1.000000000000000000e+00,-1.000000000000000000e+00,-1.000000000000000000e+00,-9.799999999999990941e-01,-1.000000000000000000e+00,-3.199999999999985079e-01,-1.000000000000000000e+00,-5.199999999999969091e-01,5.000000000000537348e-02,-1.000000000000000000e+00,8.800000000000034461e-01,-9.099999999999990319e-01,-5.999999999999916511e-01,6.800000000000041567e-01,4.000000000000625278e-02,-3.299999999999958522e-01,7.600000000000051159e-01,-1.000000000000000000e+00,-1.000000000000000000e+00,-1.000000000000000000e+00,-1.000000000000000000e+00,2.000000000000081712e-01,4.000000000000714095e-02,3.600000000000056488e-01,-1.899999999999966160e-01,-1.000000000000000000e+00,4.500000000000048406e-01,-2.499999999999984457e-01,8.000000000000362377e-02,-1.000000000000000000e+00,1.700000000000099210e-01,-2.699999999999984635e-01,6.700000000000041478e-01,-1.000000000000000000e+00,-4.999999999999560352e-02,2.200000000000046363e-01,-9.999999999997344347e-03,2.400000000000046541e-01,4.300000000000039346e-01,5.900000000000040767e-01,-3.299999999999940758e-01,4.500000000000021760e-01,-3.899999999999985700e-01,-3.999999999999941380e-01,-4.499999999999950706e-01,-4.599999999999933031e-01,2.500000000000019984e-01,1.800000000000054889e-01,-4.999999999999649170e-02,9.500000000000035083e-01,-1.000000000000000000e+00,-8.799999999999963407e-01,-3.099999999999940581e-01,9.500000000000052847e-01,-5.199999999999933564e-01,4.600000000000039613e-01,1.200000000000072120e-01,-1.000000000000000000e+00,-1.000000000000000000e+00,8.800000000000016698e-01,2.000000000000028422e-01,4.100000000000030287e-01,1.000000000000267342e-02,-1.000000000000000000e+00,-2.199999999999984190e-01,-1.000000000000000000e+00,-7.599999999999962341e-01,-6.199999999999969980e-01,5.000000000000084377e-01,3.400000000000056311e-01,-4.999999999999382716e-02,-8.999999999999741540e-02,-2.399999999999984368e-01,-1.000000000000000000e+00,-2.599999999999975664e-01,2.800000000000046896e-01,9.500000000000017319e-01,1.800000000000037126e-01,-1.000000000000000000e+00,1.800000000000028244e-01,-1.000000000000000000e+00,-4.599999999999968558e-01,-1.000000000000000000e+00,-1.000000000000000000e+00
-1.000000000000000000e+00,-1.000000000000000000e+00,-9.599999999999990763e-01,-9.799999999999990941e-01,-3.699999999999985523e-01,-4.399999999999977263e-01,-1.000000000000000000e+00,-4.199999999999977085e-01,-2.699999999999949107e-01,-1.000000000000000000e+00,8.800000000000034461e-01,5.400000000000031442e-01,-1.599999999999948130e-01,8.100000000000060485e-01,9.900000000000062084e-01,-3.299999999999958522e-01,6.100000000000040945e-01,-6.799999999999988276e-01,-1.000000000000000000e+00,-1.000000000000000000e+00,-1.000000000000000000e+00,5.700000000000076117e-01,-6.399999999999970157e-01,5.700000000000049472e-01,-7.299999999999970957e-01,-1.000000000000000000e+00,4.500000000000048406e-01,-5.999999999999738876e-02,8.000000000000362377e-02,-1.000000000000000000e+00,2.500000000000091038e-01,-3.299999999999976286e-01,6.700000000000041478e-01,-1.000000000000000000e+00,-4.999999999999560352e-02,2.200000000000046363e-01,-4.999999999999968914e-01,-2.999999999999958256e-01,4.300000000000039346e-01,5.900000000000040767e-01,-4.999999999999933387e-01,4.500000000000021760e-01,-3.899999999999985700e-01,-1.000000000000000000e+00,-1.000000000000000000e+00,-3.099999999999922817e-01,6.600000000000014744e-01,1.800000000000054889e-01,-4.999999999999649170e-02,8.400000000000042988e-01,-1.000000000000000000e+00,-4.599999999999959677e-01,-3.099999999999940581e-01,2.800000000000055778e-01,-5.199999999999933564e-01,4.600000000000039613e-01,2.700000000000082334e-01,-1.000000000000000000e+00,-1.000000000000000000e+00,8.800000000000016698e-01,2.000000000000028422e-01,4.100000000000030287e-01,4.500000000000030642e-01,-7.699999999999989075e-01,-1.000000000000000000e+00,-1.000000000000000000e+00,-6.899999999999952838e-01,-8.999999999999954703e-01,5.000000000000084377e-01,4.500000000000048406e-01,-1.000000000000000000e+00,-2.999999999999825029e-02,-2.399999999999984368e-01,-9.099999999999981437e-01,4.000000000000039080e-01,7.000000000000627942e-02,-1.000000000000000000e+00,1.800000000000037126e-01,-1.000000000000000000e+00,1.200000000000027711e-01,-1.000000000000000000e+00,-4.599999999999968558e-01,6.700000000000032596e-01,-1.000000000000000000e+00
-1.000000000000000000e+00,-1.000000000000000000e+00,-1.000000000000000000e+00,-9.799999999999990941e-01,-1.000000000000000000e+00,-3.199999999999985079e-01,-1.000000000000000000e+00,-4.199999999999977085e-01,3.400000000000047429e-01,-1.000000000000000000e+00,8.800000000000034461e-01,-1.099999999999983213e-01,-1.599999999999948130e-01,2.200000000000046363e-01,-1.000000000000000000e+00,-3.299999999999958522e-01,3.400000000000047429e-01,4.200000000000039257e-01,-1.000000000000000000e+00,-1.000000000000000000e+00,-1.000000000000000000e+00,5.700000000000076117e-01,-3.999999999999941380e-01,-3.199999999999949551e-01,1.300000000000027800e-01,-1.000000000000000000e+00,-1.000000000000000000e+00,-2.499999999999984457e-01,8.000000000000362377e-02,-1.000000000000000000e+00,-2.099999999999921929e-01,4.300000000000012701e-01,-1.000000000000000000e+00,-1.000000000000000000e+00,-4.999999999999560352e-02,-2.199999999999948663e-01,-9.999999999997344347e-03,-1.299999999999965627e-01,4.300000000000039346e-01,4.700000000000048583e-01,-3.299999999999940758e-01,-1.899999999999975042e-01,-6.899999999999979483e-01,-7.499999999999944489e-01,-4.699999999999959766e-01,-4.599999999999933031e-01,6.600000000000014744e-01,6.900000000000077183e-01,-4.999999999999649170e-02,9.500000000000035083e-01,-1.000000000000000000e+00,8.700000000000061018e-01,5.329070518200751394e-15,7.500000000000059952e-01,-5.199999999999933564e-01,3.400000000000047429e-01,-1.000000000000000000e+00,-1.000000000000000000e+00,-3.299999999999985167e-01,8.800000000000016698e-01,2.000000000000028422e-01,4.100000000000030287e-01,1.000000000000267342e-02,-1.000000000000000000e+00,-2.199999999999984190e-01,-1.000000000000000000e+00,9.000000000000052403e-01,-6.199999999999969980e-01,3.500000000000091926e-01,4.500000000000048406e-01,-1.000000000000000000e+00,-2.999999999999825029e-02,-2.399999999999984368e-01,-3.399999999999985256e-01,4.000000000000039080e-01,2.800000000000046896e-01,9.500000000000017319e-01,1.800000000000037126e-01,3.500000000000029754e-01,-1.799999999999974953e-01,-1.000000000000000000e+00,-4.599999999999968558e-01,6.700000000000032596e-01,-2.999999999999984901e-01
-1.000000000000000000e+00,-1.000000000000000000e+00,-1.000000000000000000e+00,-9.799999999999990941e-01,-1.000000000000000000e+00,-4.399999999999977263e-01,-1.000000000000000000e+00,-7.699999999999962430e-01,-5.099999999999951239e-01,-7.599999999999988987e-01,8.800000000000034461e-01,-1.099999999999983213e-01,3.400000000000091838e-01,-7.699999999999953548e-01,4.000000000000625278e-02,-5.199999999999960210e-01,7.600000000000051159e-01,-1.000000000000000000e+00,-1.000000000000000000e+00,-1.000000000000000000e+00,-1.000000000000000000e+00,5.700000000000076117e-01,1.000000000000444977e-02,6.600000000000068034e-01,1.300000000000027800e-01,-7.699999999999989075e-01,-1.000000000000000000e+00,-5.999999999999738876e-02,8.000000000000362377e-02,-1.000000000000000000e+00,2.700000000000100098e-01,4.300000000000012701e-01,6.700000000000041478e-01,-1.000000000000000000e+00,6.900000000000059419e-01,2.200000000000046363e-01,-9.999999999997344347e-03,2.400000000000046541e-01,3.700000000000038813e-01,5.900000000000040767e-01,-3.299999999999940758e-01,4.300000000000030465e-01,-3.899999999999985700e-01,-3.999999999999941380e-01,-7.499999999999953371e-01,-4.599999999999933031e-01,6.600000000000014744e-01,6.900000000000077183e-01,-4.699999999999959766e-01,9.500000000000035083e-01,-1.000000000000000000e+00,-5.399999999999969269e-01,-3.099999999999940581e-01,9.500000000000052847e-01,-5.199999999999933564e-01,4.600000000000039613e-01,2.700000000000082334e-01,-1.000000000000000000e+00,-1.000000000000000000e+00,8.800000000000016698e-01,2.000000000000028422e-01,4.100000000000030287e-01,1.000000000000267342e-02,-1.000000000000000000e+00,-7.399999999999979927e-01,-1.000000000000000000e+00,9.000000000000052403e-01,-8.999999999999954703e-01,5.000000000000084377e-01,4.500000000000048406e-01,-7.099999999999944134e-01,-2.999999999999825029e-02,2.400000000000037659e-01,-1.000000000000000000e+00,-2.599999999999975664e-01,2.800000000000046896e-01,1.400000000000019007e-01,1.800000000000037126e-01,9.900000000000044320e-01,1.800000000000028244e-01,-9.299999999999990496e-01,-4.599999999999968558e-01,6.700000000000032596e-01,1.400000000000027889e-01
-1.000000000000000000e+00,-1.999999999999984013e-01,-7.099999999999988542e-01,-8.999999999999741540e-02,-9.999999999998232525e-03,-3.199999999999985079e-01,-1.000000000000000000e+00,-4.199999999999977085e-01,3.400000000000047429e-01,-1.000000000000000000e+00,8.800000000000034461e-01,-1.099999999999983213e-01,-5.099999999999942357e-01,-5.899999999999951950e-01,1.200000000000072120e-01,-3.299999999999958522e-01,6.600000000000059153e-01,-6.799999999999988276e-01,-1.000000000000000000e+00,-1.000000000000000000e+00,-1.000000000000000000e+00,5.700000000000076117e-01,-3.999999999999941380e-01,5.700000000000049472e-01,-1.799999999999966072e-01,-5.399999999999987033e-01,-1.000000000000000000e+00,-5.999999999999738876e-02,8.000000000000362377e-02,-1.000000000000000000e+00,-2.099999999999921929e-01,4.300000000000012701e-01,3.600000000000047606e-01,-6.999999999999988454e-01,-4.999999999999560352e-02,2.200000000000046363e-01,-9.999999999997344347e-03,1.100000000000045386e-01,6.500000000000050182e-01,5.900000000000040767e-01,-3.299999999999940758e-01,-1.899999999999975042e-01,-3.899999999999985700e-01,-7.499999999999944489e-01,-4.699999999999959766e-01,-4.599999999999933031e-01,6.600000000000014744e-01,6.900000000000077183e-01,-4.999999999999649170e-02,8.400000000000042988e-01,-8.399999999999989697e-01,-1.999999999999557687e-02,5.329070518200751394e-15,7.500000000000059952e-01,-5.199999999999933564e-01,1.600000000000045830e-01,-1.000000000000000000e+00,-8.899999999999990141e-01,-3.299999999999985167e-01,8.800000000000016698e-01,-5.499999999999987121e-01,-5.099999999999969003e-01,3.100000000000020517e-01,-7.699999999999989075e-01,-3.199999999999976197e-01,-1.000000000000000000e+00,9.000000000000052403e-01,-5.899999999999987477e-01,-1.000000000000000000e+00,4.500000000000048406e-01,-8.699999999999954436e-01,-2.999999999999825029e-02,5.200000000000031264e-01,-1.000000000000000000e+00,5.000000000000359712e-02,2.800000000000046896e-01,9.500000000000017319e-01,1.800000000000037126e-01,3.500000000000029754e-01,-1.000000000000000000e+00,-1.000000000000000000e+00,-4.599999999999968558e-01,6.700000000000032596e-01,-1.000000000000000000e+00
-1.000000000000000000e+00,-1.000000000000000000e+00,-2.599999999999984546e-01,-9.799999999999990941e-01,-1.000000000000000000e+00,-7.699999999999989075e-01,-2.299999999999984279e-01,-4.199999999999977085e-01,3.400000000000047429e-01,-2.299999999999984279e-01,8.800000000000034461e-01,-3.599999999999976552e-01,-1.599999999999948130e-01,2.200000000000046363e-01,4.000000000000625278e-02,-3.299999999999958522e-01,7.600000000000051159e-01,-1.000000000000000000e+00,-1.000000000000000000e+00,-1.000000000000000000e+00,-1.000000000000000000e+00,-1.000000000000000000e+00,5.300000000000057998e-01,3.600000000000056488e-01,1.300000000000027800e-01,-1.000000000000000000e+00,-1.000000000000000000e+00,-5.999999999999738876e-02,-8.799999999999963407e-01,-1.000000000000000000e+00,-1.899999999999912870e-01,4.300000000000012701e-01,6.700000000000041478e-01,-3.499999999999976463e-01,-1.599999999999957012e-01,2.700000000000055689e-01,-6.399999999999961275e-01,-2.999999999999958256e-01,3.700000000000038813e-01,5.900000000000040767e-01,-3.299999999999940758e-01,4.500000000000021760e-01,-6.899999999999979483e-01,-3.999999999999941380e-01,-1.000000000000000000e+00,-4.599999999999933031e-01,-2.299999999999984279e-01,1.800000000000054889e-01,-4.999999999999649170e-02,8.400000000000042988e-01,-1.000000000000000000e+00,-4.599999999999959677e-01,-3.099999999999940581e-01,9.500000000000052847e-01,-8.399999999999927525e-01,3.400000000000047429e-01,-3.199999999999922906e-01,-1.000000000000000000e+00,-1.000000000000000000e+00,8.800000000000016698e-01,-5.499999999999987121e-01,4.100000000000030287e-01,4.500000000000030642e-01,-1.000000000000000000e+00,-1.000000000000000000e+00,-1.000000000000000000e+00,9.000000000000052403e-01,-3.199999999999985079e-01,5.000000000000084377e-01,4.500000000000048406e-01,-8.699999999999954436e-01,2.200000000000028599e-01,-2.399999999999984368e-01,-1.000000000000000000e+00,-2.599999999999975664e-01,2.800000000000046896e-01,9.500000000000017319e-01,1.800000000000037126e-01,-1.000000000000000000e+00,1.200000000000027711e-01,-1.000000000000000000e+00,-4.599999999999968558e-01,6.700000000000032596e-01,-1.000000000000000000e+00
-1.000000000000000000e+00,-1.000000000000000000e+00,-9.599999999999990763e-01,-9.799999999999990941e-01,-1.000000000000000000e+00,-4.399999999999977263e-01,-1.000000000000000000e+00,-4.199999999999977085e-01,5.000000000000537348e-02,-1.000000000000000000e+00,8.800000000000034461e-01,-9.099999999999990319e-01,1.400000000000081180e-01,-9.499999999999946265e-01,4.000000000000625278e-02,-3.299999999999958522e-01,7.600000000000051159e-01,-1.000000000000000000e+00,-1.000000000000000000e+00,-1.000000000000000000e+00,-1.000000000000000000e+00,9.400000000000088285e-01,1.200000000000036593e-01,3.600000000000056488e-01,1.300000000000027800e-01,-1.000000000000000000e+00,4.500000000000048406e-01,-5.999999999999738876e-02,8.000000000000362377e-02,-1.000000000000000000e+00,-1.899999999999912870e-01,-3.299999999999976286e-01,6.700000000000041478e-01,-1.000000000000000000e+00,-4.999999999999560352e-02,2.200000000000046363e-01,-4.999999999999968914e-01,-2.999999999999958256e-01,3.700000000000038813e-01,5.900000000000040767e-01,-3.299999999999940758e-01,-1.899999999999975042e-01,-3.899999999999985700e-01,-3.999999999999941380e-01,-3.199999999999940670e-01,-4.599999999999933031e-01,2.500000000000019984e-01,1.800000000000054889e-01,-4.999999999999649170e-02,8.400000000000042988e-01,-1.000000000000000000e+00,-8.799999999999963407e-01,-3.099999999999940581e-01,9.500000000000052847e-01,-5.199999999999933564e-01,4.600000000000039613e-01,1.200000000000072120e-01,-1.000000000000000000e+00,-1.000000000000000000e+00,8.800000000000016698e-01,2.000000000000028422e-01,4.100000000000030287e-01,4.500000000000030642e-01,-7.699999999999989075e-01,-1.000000000000000000e+00,-1.000000000000000000e+00,9.000000000000052403e-01,-8.999999999999954703e-01,6.100000000000094236e-01,4.500000000000048406e-01,-1.000000000000000000e+00,-2.999999999999825029e-02,-2.399999999999984368e-01,-1.000000000000000000e+00,4.000000000000039080e-01,2.800000000000046896e-01,9.500000000000017319e-01,-5.099999999999960121e-01,-1.000000000000000000e+00,1.200000000000027711e-01,-1.000000000000000000e+00,-4.599999999999968558e-01,6.700000000000032596e-01,-1.000000000000000000e+00
-1.000000000000000000e+00,-1.000000000000000000e+00,-1.000000000000000000e+00,-9.799999999999990941e-01,-1.000000000000000000e+00,-4.399999999999977263e-01,-7.399999999999988809e-01,-4.199999999999977085e-01,3.400000000000047429e-01,-1.000000000000000000e+00,8.800000000000034461e-01,-9.099999999999990319e-01,3.800000000000065548e-01,-7.699999999999953548e-01,4.000000000000625278e-02,-3.299999999999958522e-01,7.600000000000051159e-01,-1.000000000000000000e+00,-1.000000000000000000e+00,-1.000000000000000000e+00,-1.000000000000000000e+00,1.100000000000080913e-01,5.300000000000057998e-01,5.700000000000049472e-01,1.300000000000027800e-01,-1.000000000000000000e+00,-1.000000000000000000e+00,-5.999999999999738876e-02,8.000000000000362377e-02,-1.000000000000000000e+00,-2.099999999999921929e-01,4.300000000000012701e-01,2.600000000000055600e-01,-1.000000000000000000e+00,-4.999999999999560352e-02,2.200000000000046363e-01,-9.999999999997344347e-03,2.400000000000046541e-01,3.700000000000038813e-01,5.900000000000040767e-01,-3.299999999999940758e-01,-1.899999999999975042e-01,-6.899999999999979483e-01,-3.999999999999941380e-01,-4.499999999999950706e-01,-4.599999999999933031e-01,2.500000000000019984e-01,1.800000000000054889e-01,7.800000000000051337e-01,8.400000000000042988e-01,-1.000000000000000000e+00,-8.799999999999963407e-01,-3.099999999999940581e-01,9.500000000000052847e-01,-5.199999999999933564e-01,5.800000000000058442e-01,1.200000000000072120e-01,-1.000000000000000000e+00,-1.000000000000000000e+00,8.700000000000034373e-01,-1.000000000000000000e+00,4.100000000000030287e-01,1.000000000000267342e-02,-2.399999999999984368e-01,-1.000000000000000000e+00,-1.000000000000000000e+00,9.000000000000052403e-01,-3.199999999999985079e-01,6.100000000000094236e-01,-1.000000000000000000e+00,-1.000000000000000000e+00,-2.999999999999825029e-02,-2.399999999999984368e-01,-1.000000000000000000e+00,-2.599999999999975664e-01,2.800000000000046896e-01,9.500000000000017319e-01,1.800000000000037126e-01,-1.000000000000000000e+00,9.000000000000363265e-02,-1.000000000000000000e+00,-4.599999999999968558e-01,6.700000000000032596e-01,-1.000000000000000000e+00
-1.000000000000000000e+00,-1.000000000000000000e+00,-1.000000000000000000e+00,-9.799999999999990941e-01,-3.699999999999985523e-01,-7.699999999999989075e-01,-1.000000000000000000e+00,-4.199999999999977085e-01,-2.699999999999949107e-01,-1.000000000000000000e+00,-1.000000000000000000e+00,-1.099999999999983213e-01,-1.599999999999948130e-01,2.200000000000046363e-01,4.000000000000625278e-02,1.000000000000356160e-02,2.200000000000055245e-01,-6.799999999999988276e-01,-1.000000000000000000e+00,-1.000000000000000000e+00,-9.899999999999991029e-01,5.700000000000076117e-01,-6.399999999999970157e-01,-3.499999999999949818e-01,-7.799999999999989164e-01,-5.399999999999987033e-01,4.500000000000048406e-01,1.400000000000054534e-01,8.000000000000362377e-02,-1.000000000000000000e+00,2.500000000000091038e-01,4.300000000000012701e-01,7.700000000000051248e-01,-1.000000000000000000e+00,3.600000000000038725e-01,5.600000000000040501e-01,-8.899999999999963496e-01,-5.599999999999951683e-01,4.300000000000039346e-01,5.900000000000040767e-01,-3.299999999999940758e-01,-1.899999999999975042e-01,-6.899999999999979483e-01,-7.499999999999944489e-01,9.000000000000540901e-02,-4.599999999999933031e-01,6.600000000000014744e-01,6.900000000000077183e-01,-4.999999999999649170e-02,8.400000000000042988e-01,-1.000000000000000000e+00,-4.599999999999959677e-01,-3.099999999999940581e-01,-1.000000000000000000e+00,-5.199999999999933564e-01,3.400000000000047429e-01,1.200000000000072120e-01,-1.000000000000000000e+00,-3.299999999999985167e-01,2.000000000000019540e-01,-5.499999999999987121e-01,4.100000000000030287e-01,4.500000000000030642e-01,-7.699999999999989075e-01,-1.000000000000000000e+00,-5.399999999999969269e-01,-1.000000000000000000e+00,-3.199999999999985079e-01,-1.299999999999912337e-01,4.500000000000048406e-01,-8.699999999999954436e-01,-2.999999999999825029e-02,5.200000000000031264e-01,-9.099999999999981437e-01,-2.599999999999975664e-01,7.000000000000627942e-02,9.200000000000025935e-01,1.800000000000037126e-01,-1.000000000000000000e+00,-2.599999999999966782e-01,-9.299999999999990496e-01,-2.199999999999957545e-01,6.700000000000032596e-01,-1.000000000000000000e+00
-1.000000000000000000e+00,-9.399999999999990585e-01,-1.000000000000000000e+00,-9.799999999999990941e-01,-3.699999999999985523e-01,-4.399999999999977263e-01,-1.000000000000000000e+00,-6.799999999999970512e-01,-2.699999999999949107e-01,-1.000000000000000000e+00,8.800000000000034461e-01,-9.099999999999990319e-01,1.400000000000081180e-01,8.100000000000060485e-01,9.900000000000062084e-01,-3.299999999999958522e-01,6.100000000000040945e-01,-6.799999999999988276e-01,-1.000000000000000000e+00,-1.000000000000000000e+00,-1.000000000000000000e+00,5.700000000000076117e-01,-6.399999999999970157e-01,3.600000000000056488e-01,1.300000000000027800e-01,-8.999999999999741540e-02,4.500000000000048406e-01,1.400000000000054534e-01,8.000000000000362377e-02,-1.000000000000000000e+00,-1.899999999999912870e-01,4.300000000000012701e-01,6.700000000000041478e-01,-1.000000000000000000e+00,-4.999999999999560352e-02,5.600000000000040501e-01,9.300000000000043787e-01,-1.299999999999965627e-01,4.300000000000039346e-01,-1.000000000000000000e+00,-3.299999999999940758e-01,4.500000000000021760e-01,-6.899999999999979483e-01,-7.499999999999944489e-01,-2.499999999999948930e-01,-4.599999999999933031e-01,6.600000000000014744e-01,1.800000000000054889e-01,-4.999999999999649170e-02,8.400000000000042988e-01,-1.000000000000000000e+00,-8.799999999999963407e-01,-9.999999999992903454e-03,9.500000000000052847e-01,-5.199999999999933564e-01,8.900000000000052314e-01,1.200000000000072120e-01,-1.000000000000000000e+00,-1.000000000000000000e+00,8.800000000000016698e-01,2.000000000000028422e-01,4.100000000000030287e-01,4.500000000000030642e-01,-3.599999999999976552e-01,-7.399999999999979927e-01,-1.000000000000000000e+00,9.000000000000052403e-01,-6.199999999999969980e-01,-3.099999999999896172e-01,4.500000000000048406e-01,-1.000000000000000000e+00,-9.699999999999981970e-01,-2.399999999999984368e-01,-9.099999999999981437e-01,1.200000000000054357e-01,7.000000000000627942e-02,9.500000000000017319e-01,1.800000000000037126e-01,-1.000000000000000000e+00,-7.799999999999971401e-01,-1.000000000000000000e+00,-4.599999999999968558e-01,6.700000000000032596e-01,-1.000000000000000000e+00
-1.000000000000000000e+00,-1.000000000000000000e+00,-2.599999999999984546e-01,4.800000000000039790e-01,-3.699999999999985523e-01,-3.199999999999985079e-01,-1.000000000000000000e+00,-4.199999999999977085e-01,3.400000000000047429e-01,-1.000000000000000000e+00,8.800000000000034461e-01,-1.099999999999983213e-01,-1.599999999999948130e-01,1.100000000000063149e-01,9.900000000000062084e-01,1.000000000000356160e-02,7.600000000000051159e-01,-1.000000000000000000e+00,-1.000000000000000000e+00,-1.000000000000000000e+00,-1.000000000000000000e+00,5.700000000000076117e-01,5.300000000000057998e-01,5.700000000000049472e-01,1.300000000000027800e-01,-9.999999999999991118e-01,-1.000000000000000000e+00,1.400000000000054534e-01,8.000000000000362377e-02,-1.000000000000000000e+00,-2.099999999999921929e-01,4.300000000000012701e-01,2.600000000000055600e-01,-3.499999999999976463e-01,-4.999999999999560352e-02,2.700000000000055689e-01,-9.999999999997344347e-03,-1.299999999999965627e-01,-2.999999999999958256e-01,-1.000000000000000000e+00,-3.299999999999940758e-01,4.500000000000021760e-01,-6.899999999999979483e-01,-3.999999999999941380e-01,9.000000000000540901e-02,-4.599999999999933031e-01,6.600000000000014744e-01,6.900000000000077183e-01,-4.999999999999649170e-02,8.400000000000042988e-01,-1.000000000000000000e+00,-2.599999999999949019e-01,-3.099999999999940581e-01,9.500000000000052847e-01,-8.399999999999927525e-01,4.600000000000039613e-01,-3.199999999999922906e-01,-1.000000000000000000e+00,-1.000000000000000000e+00,8.800000000000016698e-01,-5.499999999999987121e-01,4.100000000000030287e-01,1.000000000000267342e-02,-7.699999999999989075e-01,-3.199999999999976197e-01,-5.399999999999969269e-01,9.000000000000052403e-01,-6.199999999999969980e-01,5.000000000000084377e-01,5.100000000000057820e-01,-8.699999999999954436e-01,2.200000000000028599e-01,-1.000000000000000000e+00,-9.099999999999981437e-01,-2.599999999999975664e-01,7.800000000000077982e-01,9.500000000000017319e-01,1.800000000000037126e-01,-1.000000000000000000e+00,-7.799999999999971401e-01,-1.000000000000000000e+00,-4.599999999999968558e-01,6.700000000000032596e-01,-1.000000000000000000e+00
-1.000000000000000000e+00,-1.000000000000000000e+00,-1.000000000000000000e+00,-1.000000000000000000e+00,-1.000000000000000000e+00,-4.399999999999977263e-01,-1.000000000000000000e+00,-6.799999999999970512e-01,-2.699999999999949107e-01,-1.000000000000000000e+00,8.800000000000034461e-01,-1.099999999999983213e-01,1.400000000000081180e-01,8.100000000000060485e-01,9.900000000000062084e-01,1.000000000000356160e-02,7.600000000000051159e-01,-6.799999999999988276e-01,-1.000000000000000000e+00,-1.000000000000000000e+00,-1.000000000000000000e+00,9.400000000000088285e-01,-6.399999999999970157e-01,3.600000000000056488e-01,-6.899999999999979483e-01,-1.000000000000000000e+00,4.500000000000048406e-01,1.400000000000054534e-01,8.000000000000362377e-02,-1.000000000000000000e+00,2.500000000000091038e-01,4.300000000000012701e-01,6.700000000000041478e-01,-1.000000000000000000e+00,-4.999999999999560352e-02,-7.499999999999953371e-01,-9.999999999997344347e-03,-1.299999999999965627e-01,4.300000000000039346e-01,5.900000000000040767e-01,-3.299999999999940758e-01,4.500000000000021760e-01,-3.899999999999985700e-01,-7.499999999999944489e-01,-1.000000000000000000e+00,-4.599999999999933031e-01,2.500000000000019984e-01,6.900000000000077183e-01,-4.999999999999649170e-02,8.400000000000042988e-01,-1.000000000000000000e+00,-4.599999999999959677e-01,-3.099999999999940581e-01,-1.000000000000000000e+00,-5.199999999999933564e-01,3.400000000000047429e-01,2.700000000000082334e-01,-1.000000000000000000e+00,-1.000000000000000000e+00,8.800000000000016698e-01,-5.499999999999987121e-01,4.100000000000030287e-01,4.500000000000030642e-01,-7.699999999999989075e-01,-1.000000000000000000e+00,1.000000000000045297e-01,2.000000000000534683e-02,-6.199999999999969980e-01,-3.099999999999896172e-01,4.500000000000048406e-01,-8.699999999999954436e-01,-2.999999999999825029e-02,3.300000000000029576e-01,-9.099999999999981437e-01,2.900000000000046985e-01,2.800000000000046896e-01,9.500000000000017319e-01,1.800000000000037126e-01,-1.000000000000000000e+00,-7.799999999999971401e-01,-1.000000000000000000e+00,-4.599999999999968558e-01,6.700000000000032596e-01,-1.000000000000000000e+00
-1.000000000000000000e+00,-1.000000000000000000e+00,-1.000000000000000000e+00,-9.799999999999990941e-01,-1.000000000000000000e+00,-2.499999999999975575e-01,-1.000000000000000000e+00,-6.799999999999970512e-01,-5.099999999999951239e-01,-7.599999999999988987e-01,8.800000000000034461e-01,-9.099999999999990319e-01,-5.999999999999916511e-01,2.200000000000046363e-01,9.900000000000062084e-01,-3.299999999999958522e-01,7.600000000000051159e-01,-6.799999999999988276e-01,-8.599999999999989875e-01,-1.000000000000000000e+00,-1.000000000000000000e+00,9.400000000000088285e-01,5.300000000000057998e-01,3.600000000000056488e-01,1.300000000000027800e-01,-7.699999999999989075e-01,-1.000000000000000000e+00,-5.999999999999738876e-02,8.000000000000362377e-02,-1.000000000000000000e+00,-3.699999999999914468e-01,-3.299999999999976286e-01,6.700000000000041478e-01,-9.999999999999831246e-02,-4.999999999999560352e-02,2.200000000000046363e-01,-9.999999999997344347e-03,6.000000000000449418e-02,4.300000000000039346e-01,5.900000000000040767e-01,-3.299999999999940758e-01,4.500000000000021760e-01,-6.899999999999979483e-01,-3.999999999999941380e-01,-1.000000000000000000e+00,-4.599999999999933031e-01,2.500000000000019984e-01,1.800000000000054889e-01,-4.999999999999649170e-02,9.500000000000035083e-01,-1.000000000000000000e+00,-5.399999999999969269e-01,-3.099999999999940581e-01,9.500000000000052847e-01,-5.199999999999933564e-01,4.600000000000039613e-01,2.700000000000082334e-01,-1.000000000000000000e+00,-1.000000000000000000e+00,8.800000000000016698e-01,2.000000000000028422e-01,4.100000000000030287e-01,4.500000000000030642e-01,-1.000000000000000000e+00,-1.000000000000000000e+00,-1.000000000000000000e+00,9.000000000000363265e-02,-1.000000000000000000e+00,5.000000000000084377e-01,8.800000000000052225e-01,-8.699999999999954436e-01,-9.099999999999981437e-01,2.400000000000037659e-01,-1.799999999999983835e-01,-2.599999999999975664e-01,2.800000000000046896e-01,9.500000000000017319e-01,1.800000000000037126e-01,-1.000000000000000000e+00,-1.000000000000000000e+00,-1.000000000000000000e+00,-4.599999999999968558e-01,6.700000000000032596e-01,-1.000000000000000000e+00
-1.000000000000000000e+00,-1.000000000000000000e+00,-1.000000000000000000e+00,-9.799999999999990941e-01,-1.000000000000000000e+00,-3.199999999999985079e-01,-9.999999999998232525e-03,-4.199999999999977085e-01,-5.099999999999951239e-01,-1.000000000000000000e+00,8.800000000000034461e-01,-1.099999999999983213e-01,-5.999999999999916511e-01,2.200000000000046363e-01,9.900000000000062084e-01,-3.299999999999958522e-01,3.400000000000047429e-01,-1.000000000000000000e+00,-1.000000000000000000e+00,-1.000000000000000000e+00,-1.000000000000000000e+00,5.700000000000076117e-01,-3.999999999999941380e-01,5.700000000000049472e-01,7.900000000000042544e-01,-1.000000000000000000e+00,-1.000000000000000000e+00,-2.499999999999984457e-01,8.000000000000362377e-02,-3.799999999999985612e-01,-2.099999999999921929e-01,4.300000000000012701e-01,6.700000000000041478e-01,-1.000000000000000000e+00,-1.699999999999948219e-01,2.200000000000046363e-01,-9.999999999997344347e-03,2.400000000000046541e-01,4.300000000000039346e-01,4.700000000000048583e-01,-3.299999999999940758e-01,-1.899999999999975042e-01,-1.000000000000000000e+00,-7.499999999999944489e-01,-4.699999999999959766e-01,-1.000000000000000000e+00,-1.000000000000000000e+00,6.900000000000077183e-01,4.800000000000048672e-01,8.400000000000042988e-01,-1.000000000000000000e+00,-1.999999999999557687e-02,5.329070518200751394e-15,9.500000000000052847e-01,-2.999999999999825029e-02,8.000000000000451195e-02,-4.299999999999915001e-01,-1.000000000000000000e+00,-1.000000000000000000e+00,8.800000000000016698e-01,2.000000000000028422e-01,6.100000000000040945e-01,6.300000000000041123e-01,-1.000000000000000000e+00,-2.199999999999984190e-01,-1.000000000000000000e+00,9.000000000000363265e-02,-6.199999999999969980e-01,5.000000000000084377e-01,8.800000000000052225e-01,-1.000000000000000000e+00,-2.999999999999825029e-02,5.200000000000031264e-01,-1.000000000000000000e+00,-7.999999999999971578e-01,7.500000000000059952e-01,9.500000000000017319e-01,1.800000000000037126e-01,3.500000000000029754e-01,-1.000000000000000000e+00,-1.000000000000000000e+00,-4.599999999999968558e-01,-1.000000000000000000e+00,-2.999999999999984901e-01
-6.099999999999987654e-01,-1.000000000000000000e+00,-1.000000000000000000e+00,-9.799999999999990941e-01,-1.000000000000000000e+00,-9.999999999997344347e-03,-1.000000000000000000e+00,-3.799999999999967848e-01,-8.699999999999945555e-01,-1.000000000000000000e+00,8.800000000000034461e-01,-1.099999999999983213e-01,-5.999999999999916511e-01,6.800000000000041567e-01,4.000000000000625278e-02,-3.299999999999958522e-01,3.400000000000047429e-01,-1.000000000000000000e+00,-1.000000000000000000e+00,-1.000000000000000000e+00,-1.000000000000000000e+00,5.700000000000076117e-01,-3.999999999999941380e-01,5.700000000000049472e-01,1.300000000000027800e-01,-1.000000000000000000e+00,-1.000000000000000000e+00,-5.999999999999738876e-02,8.000000000000362377e-02,-3.799999999999985612e-01,1.800000000000090417e-01,-2.699999999999984635e-01,6.700000000000041478e-01,2.400000000000028777e-01,-4.999999999999560352e-02,2.200000000000046363e-01,-9.999999999997344347e-03,-1.299999999999965627e-01,5.700000000000049472e-01,5.900000000000040767e-01,-3.299999999999940758e-01,-9.799999999999973177e-01,-6.899999999999979483e-01,-3.999999999999941380e-01,-4.699999999999959766e-01,-4.599999999999933031e-01,6.600000000000014744e-01,6.900000000000077183e-01,-4.999999999999649170e-02,9.500000000000035083e-01,-1.000000000000000000e+00,-1.999999999999557687e-02,5.329070518200751394e-15,9.500000000000052847e-01,-2.999999999999825029e-02,3.400000000000047429e-01,-4.299999999999915001e-01,-1.000000000000000000e+00,-3.299999999999985167e-01,8.800000000000016698e-01,2.000000000000028422e-01,4.100000000000030287e-01,1.000000000000267342e-02,-7.999999999999989342e-01,-2.199999999999984190e-01,-1.000000000000000000e+00,1.100000000000045386e-01,-1.000000000000000000e+00,5.000000000000084377e-01,8.800000000000052225e-01,-9.799999999999946532e-01,-2.999999999999825029e-02,5.200000000000031264e-01,-3.399999999999985256e-01,4.000000000000039080e-01,7.500000000000059952e-01,9.500000000000017319e-01,1.800000000000037126e-01,3.500000000000029754e-01,-1.799999999999974953e-01,-1.000000000000000000e+00,-4.599999999999968558e-01,-1.000000000000000000e+00,-1.000000000000000000e+00
-1.000000000000000000e+00,-1.999999999999984013e-01,-2.599999999999984546e-01,-9.799999999999990941e-01,-1.000000000000000000e+00,-7.699999999999989075e-01,-1.000000000000000000e+00,-4.199999999999977085e-01,3.400000000000047429e-01,-1.000000000000000000e+00,8.800000000000034461e-01,-3.599999999999976552e-01,-1.599999999999948130e-01,-5.099999999999951239e-01,5.600000000000067146e-01,-3.299999999999958522e-01,8.000000000000051514e-01,4.200000000000039257e-01,-3.199999999999976197e-01,-1.000000000000000000e+00,-8.799999999999990052e-01,5.700000000000076117e-01,-3.999999999999941380e-01,5.700000000000049472e-01,1.300000000000027800e-01,-1.000000000000000000e+00,-1.000000000000000000e+00,-1.000000000000000000e+00,6.300000000000050004e-01,-1.000000000000000000e+00,-2.099999999999921929e-01,4.300000000000012701e-01,2.600000000000055600e-01,-3.499999999999976463e-01,-4.999999999999560352e-02,2.200000000000046363e-01,-9.999999999997344347e-03,9.300000000000061551e-01,5.700000000000049472e-01,4.700000000000048583e-01,-3.299999999999940758e-01,4.500000000000021760e-01,-6.899999999999979483e-01,-3.999999999999941380e-01,9.000000000000540901e-02,-4.599999999999933031e-01,6.600000000000014744e-01,1.800000000000054889e-01,-4.999999999999649170e-02,9.500000000000035083e-01,-1.000000000000000000e+00,-2.599999999999949019e-01,5.329070518200751394e-15,7.500000000000059952e-01,-5.199999999999933564e-01,3.400000000000047429e-01,-3.199999999999922906e-01,-1.000000000000000000e+00,-1.000000000000000000e+00,8.800000000000016698e-01,-5.499999999999987121e-01,4.100000000000030287e-01,-5.899999999999969713e-01,-1.000000000000000000e+00,-1.000000000000000000e+00,-1.000000000000000000e+00,9.000000000000052403e-01,-3.199999999999985079e-01,5.000000000000084377e-01,4.500000000000048406e-01,-8.699999999999954436e-01,2.200000000000028599e-01,5.200000000000031264e-01,-1.000000000000000000e+00,4.000000000000039080e-01,2.800000000000046896e-01,9.500000000000017319e-01,1.800000000000037126e-01,3.500000000000029754e-01,1.200000000000027711e-01,-6.399999999999987921e-01,-4.599999999999968558e-01,6.700000000000032596e-01,-7.999999999999829470e-02
