5.600000000000040501e-01,-1.000000000000000000e+00,7.600000000000051159e-01,-1.000000000000000000e+00,9.800000000000079758e-01,-1.000000000000000000e+00,1.500000000000027978e-01,-1.000000000000000000e+00,7.400000000000068745e-01,-2.299999999999984279e-01,-1.000000000000000000e+00,-1.000000000000000000e+00,-2.899999999999958167e-01,-4.199999999999968203e-01,1.200000000000027711e-01,-2.399999999999975486e-01,-8.199999999999971756e-01,7.000000000000050626e-01,-1.000000000000000000e+00,1.700000000000054801e-01,3.000000000000269118e-02,3.000000000000269118e-02,8.200000000000096101e-01,1.200000000000045475e-01,-1.000000000000000000e+00,5.500000000000084821e-01,-4.599999999999941913e-01,9.100000000000043610e-01,-1.000000000000000000e+00,3.200000000000029488e-01,-4.699999999999986411e-01,-1.000000000000000000e+00,-9.299999999999963851e-01,-5.699999999999987299e-01,-1.000000000000000000e+00,1.400000000000063416e-01,-1.000000000000000000e+00,-6.199999999999987743e-01,-2.399999999999984368e-01,-2.199999999999904254e-01,-1.199999999999956657e-01,-3.999999999999985789e-01,-5.499999999999960476e-01,-1.000000000000000000e+00,-1.000000000000000000e+00,-1.000000000000000000e+00,-4.199999999999968203e-01,-6.199999999999952216e-01,-1.000000000000000000e+00,8.000000000000628830e-02,-8.799999999999963407e-01,-1.000000000000000000e+00,9.900000000000044320e-01,-1.000000000000000000e+00,-4.999999999999826805e-02,-3.799999999999967848e-01,-1.000000000000000000e+00,-8.999999999999830358e-02,-4.299999999999977174e-01,-2.499999999999957812e-01,4.900000000000066525e-01,-7.299999999999979838e-01,-1.000000000000000000e+00,-1.000000000000000000e+00,-1.000000000000000000e+00,-1.000000000000000000e+00,9.800000000000061995e-01,-1.000000000000000000e+00,-2.099999999999984102e-01,-8.899999999999990141e-01,-1.000000000000000000e+00,-1.799999999999983835e-01,-3.299999999999914113e-01,-5.199999999999977973e-01,2.100000000000099565e-01,5.800000000000085087e-01,-1.000000000000000000e+00,1.400000000000036771e-01
5.600000000000040501e-01,-1.000000000000000000e+00,7.600000000000051159e-01,-1.000000000000000000e+00,9.800000000000079758e-01,-1.000000000000000000e+00,1.500000000000027978e-01,-1.000000000000000000e+00,2.000000000000055067e-01,-2.299999999999984279e-01,-1.000000000000000000e+00,-1.000000000000000000e+00,-2.899999999999958167e-01,-4.199999999999968203e-01,2.800000000000038014e-01,-2.399999999999975486e-01,-1.000000000000000000e+00,7.000000000000050626e-01,-1.000000000000000000e+00,1.700000000000054801e-01,-9.999999999998232525e-03,3.000000000000269118e-02,8.200000000000096101e-01,1.200000000000045475e-01,-5.399999999999933742e-01,5.500000000000084821e-01,-1.199999999999938893e-01,9.100000000000043610e-01,-1.000000000000000000e+00,3.200000000000029488e-01,-1.000000000000000000e+00,-1.000000000000000000e+00,-9.299999999999963851e-01,-1.000000000000000000e+00,-1.000000000000000000e+00,1.400000000000063416e-01,-7.499999999999988898e-01,-8.099999999999989431e-01,-1.000000000000000000e+00,3.100000000000082689e-01,-1.199999999999956657e-01,4.800000000000030909e-01,-5.499999999999960476e-01,-1.000000000000000000e+00,-1.000000000000000000e+00,-1.000000000000000000e+00,-4.199999999999968203e-01,-3.999999999999470646e-02,-1.000000000000000000e+00,5.700000000000067235e-01,-8.799999999999963407e-01,4.200000000000039257e-01,1.000000000000027534e-01,-1.000000000000000000e+00,-8.499999999999989786e-01,-2.799999999999975842e-01,-8.299999999999962963e-01,-8.999999999999830358e-02,-4.299999999999977174e-01,-2.499999999999957812e-01,-3.199999999999949551e-01,-5.499999999999987121e-01,-1.000000000000000000e+00,-7.599999999999980105e-01,-1.000000000000000000e+00,-1.000000000000000000e+00,9.800000000000061995e-01,-6.399999999999943512e-01,-3.399999999999985256e-01,-1.000000000000000000e+00,-5.599999999999987210e-01,-1.000000000000000000e+00,-3.299999999999914113e-01,-5.199999999999977973e-01,2.100000000000099565e-01,5.800000000000085087e-01,-1.000000000000000000e+00,-9.999999999997344347e-03
5.600000000000040501e-01,-1.000000000000000000e+00,1.900000000000054978e-01,-1.000000000000000000e+00,9.900000000000079847e-01,-1.000000000000000000e+00,1.500000000000027978e-01,-7.699999999999989075e-01,2.000000000000055067e-01,-2.299999999999984279e-01,-3.199999999999985079e-01,-1.000000000000000000e+00,-2.899999999999958167e-01,-4.199999999999968203e-01,-9.999999999997344347e-03,-1.000000000000000000e+00,-8.499999999999989786e-01,-1.199999999999974420e-01,-1.000000000000000000e+00,-1.999999999999939604e-01,7.000000000000272671e-02,3.000000000000269118e-02,8.200000000000096101e-01,1.200000000000045475e-01,-5.399999999999933742e-01,5.500000000000084821e-01,-8.299999999999962963e-01,9.100000000000043610e-01,-1.000000000000000000e+00,3.200000000000029488e-01,-5.899999999999969713e-01,-2.999999999999984901e-01,-9.299999999999963851e-01,-1.000000000000000000e+00,-1.000000000000000000e+00,1.400000000000063416e-01,-7.499999999999988898e-01,-8.099999999999989431e-01,-1.000000000000000000e+00,-2.499999999999913403e-01,-7.199999999999979750e-01,-1.000000000000000000e+00,-5.499999999999960476e-01,-1.000000000000000000e+00,-1.000000000000000000e+00,-1.000000000000000000e+00,-8.199999999999962874e-01,3.400000000000047429e-01,9.000000000000274447e-02,8.200000000000078337e-01,-8.799999999999963407e-01,-2.399999999999939959e-01,1.000000000000027534e-01,-1.000000000000000000e+00,-9.299999999999990496e-01,-3.799999999999967848e-01,-1.000000000000000000e+00,1.100000000000027622e-01,-1.000000000000000000e+00,-2.499999999999957812e-01,4.900000000000066525e-01,-5.499999999999987121e-01,-1.000000000000000000e+00,-7.899999999999971489e-01,-1.000000000000000000e+00,-1.000000000000000000e+00,9.800000000000061995e-01,-6.499999999999934719e-01,-1.000000000000000000e+00,-7.499999999999988898e-01,-1.000000000000000000e+00,-1.000000000000000000e+00,-3.299999999999914113e-01,-5.199999999999977973e-01,2.100000000000099565e-01,-1.099999999999912159e-01,-1.000000000000000000e+00,-7.499999999999971134e-01
5.600000000000040501e-01,-1.000000000000000000e+00,7.600000000000051159e-01,-1.000000000000000000e+00,9.800000000000079758e-01,-1.000000000000000000e+00,1.500000000000027978e-01,-1.000000000000000000e+00,7.400000000000068745e-01,-2.299999999999984279e-01,-6.599999999999979217e-01,-1.000000000000000000e+00,-2.899999999999958167e-01,-1.000000000000000000e+00,1.200000000000027711e-01,-2.399999999999975486e-01,-1.000000000000000000e+00,1.000000000000356160e-02,-1.000000000000000000e+00,1.700000000000054801e-01,3.000000000000269118e-02,-4.599999999999977440e-01,8.200000000000096101e-01,1.200000000000045475e-01,-1.000000000000000000e+00,5.500000000000084821e-01,-3.199999999999931788e-01,2.600000000000046718e-01,-1.000000000000000000e+00,3.200000000000029488e-01,-7.499999999999988898e-01,-1.000000000000000000e+00,-9.299999999999963851e-01,-2.899999999999984812e-01,-1.000000000000000000e+00,1.400000000000063416e-01,-1.000000000000000000e+00,-1.000000000000000000e+00,-1.000000000000000000e+00,3.100000000000082689e-01,8.000000000000362377e-02,-3.999999999999985789e-01,-5.499999999999960476e-01,-1.000000000000000000e+00,-1.000000000000000000e+00,-1.000000000000000000e+00,-8.199999999999962874e-01,-6.199999999999952216e-01,9.700000000000044142e-01,8.000000000000628830e-02,-8.799999999999963407e-01,-7.099999999999970779e-01,-4.699999999999986411e-01,-1.000000000000000000e+00,-8.499999999999989786e-01,-3.799999999999967848e-01,-1.000000000000000000e+00,-8.999999999999830358e-02,-1.000000000000000000e+00,-1.099999999999947686e-01,-3.199999999999949551e-01,3.600000000000029843e-01,-1.000000000000000000e+00,-7.599999999999980105e-01,-1.000000000000000000e+00,-5.699999999999987299e-01,9.800000000000061995e-01,-1.000000000000000000e+00,-2.099999999999984102e-01,-8.899999999999990141e-01,-1.000000000000000000e+00,-1.000000000000000000e+00,-3.299999999999914113e-01,-6.999999999999828582e-02,2.100000000000099565e-01,1.600000000000099121e-01,-1.000000000000000000e+00,1.400000000000036771e-01
5.600000000000040501e-01,-1.000000000000000000e+00,7.600000000000051159e-01,-1.000000000000000000e+00,5.300000000000084643e-01,-1.000000000000000000e+00,1.500000000000027978e-01,-1.000000000000000000e+00,4.300000000000030465e-01,-2.299999999999984279e-01,-1.000000000000000000e+00,-1.000000000000000000e+00,1.800000000000046008e-01,-4.199999999999968203e-01,1.200000000000027711e-01,-2.399999999999975486e-01,-8.199999999999971756e-01,7.000000000000050626e-01,-1.000000000000000000e+00,1.700000000000054801e-01,-9.999999999998232525e-03,3.000000000000269118e-02,8.200000000000096101e-01,1.200000000000045475e-01,-1.000000000000000000e+00,5.500000000000084821e-01,-4.599999999999941913e-01,9.100000000000043610e-01,-1.000000000000000000e+00,3.200000000000029488e-01,-6.999999999999988454e-01,-1.000000000000000000e+00,-9.299999999999963851e-01,-1.000000000000000000e+00,-1.000000000000000000e+00,1.400000000000063416e-01,-1.000000000000000000e+00,-8.099999999999989431e-01,-2.399999999999984368e-01,-2.199999999999904254e-01,-1.199999999999956657e-01,-1.000000000000000000e+00,-5.499999999999960476e-01,-1.000000000000000000e+00,-1.000000000000000000e+00,-1.000000000000000000e+00,-4.199999999999968203e-01,-6.199999999999952216e-01,-1.000000000000000000e+00,1.000000000000622613e-02,-8.799999999999963407e-01,4.200000000000039257e-01,-4.699999999999986411e-01,-1.000000000000000000e+00,-8.499999999999989786e-01,-2.799999999999975842e-01,-1.000000000000000000e+00,-8.999999999999830358e-02,-4.299999999999977174e-01,-2.499999999999957812e-01,-3.199999999999949551e-01,-7.299999999999979838e-01,-1.000000000000000000e+00,-7.599999999999980105e-01,-1.000000000000000000e+00,-1.000000000000000000e+00,9.800000000000061995e-01,-9.899999999999991029e-01,-1.000000000000000000e+00,-1.000000000000000000e+00,-5.599999999999987210e-01,-1.000000000000000000e+00,-3.299999999999914113e-01,-5.199999999999977973e-01,2.100000000000099565e-01,5.800000000000085087e-01,-1.000000000000000000e+00,1.400000000000036771e-01
5.600000000000040501e-01,-1.000000000000000000e+00,7.600000000000051159e-01,-1.000000000000000000e+00,9.800000000000079758e-01,-6.199999999999987743e-01,1.500000000000027978e-01,-1.599999999999983658e-01,2.000000000000055067e-01,-2.299999999999984279e-01,-1.000000000000000000e+00,-1.000000000000000000e+00,-2.899999999999958167e-01,-4.199999999999968203e-01,1.200000000000027711e-01,8.100000000000033840e-01,-1.000000000000000000e+00,1.000000000000356160e-02,-1.000000000000000000e+00,1.700000000000054801e-01,3.000000000000269118e-02,-4.599999999999977440e-01,8.200000000000096101e-01,1.200000000000045475e-01,-1.000000000000000000e+00,5.500000000000084821e-01,-4.599999999999941913e-01,9.100000000000043610e-01,-1.000000000000000000e+00,3.200000000000029488e-01,-1.000000000000000000e+00,-1.000000000000000000e+00,-9.299999999999963851e-01,-4.799999999999986500e-01,-1.000000000000000000e+00,1.400000000000063416e-01,-7.499999999999988898e-01,-8.099999999999989431e-01,-1.000000000000000000e+00,3.100000000000082689e-01,-7.199999999999979750e-01,-3.999999999999985789e-01,-5.499999999999960476e-01,-1.000000000000000000e+00,-1.000000000000000000e+00,-5.399999999999987033e-01,-8.199999999999962874e-01,-3.999999999999470646e-02,9.000000000000274447e-02,5.700000000000067235e-01,-1.399999999999947953e-01,-4.499999999999977351e-01,9.900000000000044320e-01,-1.000000000000000000e+00,-4.999999999999826805e-02,-3.799999999999967848e-01,-8.299999999999962963e-01,-8.999999999999830358e-02,-1.000000000000000000e+00,-2.499999999999957812e-01,-3.199999999999949551e-01,-5.499999999999987121e-01,-1.000000000000000000e+00,-8.699999999999954436e-01,-1.000000000000000000e+00,-1.000000000000000000e+00,9.800000000000061995e-01,-6.399999999999943512e-01,-3.399999999999985256e-01,-8.899999999999990141e-01,-1.000000000000000000e+00,3.400000000000029665e-01,-3.299999999999914113e-01,-5.199999999999977973e-01,2.100000000000099565e-01,-1.099999999999912159e-01,-1.000000000000000000e+00,-9.999999999997344347e-03
5.600000000000040501e-01,-1.000000000000000000e+00,7.600000000000051159e-01,-1.000000000000000000e+00,1.900000000000081624e-01,-1.000000000000000000e+00,1.500000000000027978e-01,-1.599999999999983658e-01,2.000000000000055067e-01,-2.299999999999984279e-01,-3.199999999999985079e-01,-1.000000000000000000e+00,-2.899999999999958167e-01,-4.199999999999968203e-01,-5.599999999999987210e-01,8.100000000000033840e-01,-1.000000000000000000e+00,1.000000000000356160e-02,-5.599999999999987210e-01,1.700000000000054801e-01,-9.999999999998232525e-03,-4.599999999999977440e-01,3.200000000000100542e-01,1.200000000000045475e-01,-5.399999999999933742e-01,5.500000000000084821e-01,-1.199999999999938893e-01,9.100000000000043610e-01,-1.000000000000000000e+00,3.200000000000029488e-01,-1.000000000000000000e+00,-1.000000000000000000e+00,-9.299999999999963851e-01,-1.000000000000000000e+00,-2.199999999999984190e-01,1.400000000000063416e-01,-1.000000000000000000e+00,-1.099999999999974332e-01,-1.000000000000000000e+00,3.100000000000082689e-01,-1.199999999999956657e-01,4.800000000000030909e-01,-5.499999999999960476e-01,-1.000000000000000000e+00,-1.000000000000000000e+00,-1.000000000000000000e+00,-4.199999999999968203e-01,-3.999999999999470646e-02,9.000000000000274447e-02,8.000000000000628830e-02,-8.799999999999963407e-01,-1.000000000000000000e+00,1.000000000000027534e-01,-1.000000000000000000e+00,-4.999999999999826805e-02,3.700000000000047695e-01,-8.299999999999962963e-01,-8.999999999999830358e-02,-1.000000000000000000e+00,-2.499999999999957812e-01,-1.000000000000000000e+00,-5.499999999999987121e-01,-1.000000000000000000e+00,-8.699999999999954436e-01,-1.000000000000000000e+00,-1.000000000000000000e+00,9.800000000000061995e-01,-1.000000000000000000e+00,-3.399999999999985256e-01,-8.899999999999990141e-01,-1.000000000000000000e+00,3.400000000000029665e-01,-3.299999999999914113e-01,-1.000000000000000000e+00,2.100000000000099565e-01,-1.099999999999912159e-01,-1.000000000000000000e+00,-9.999999999997344347e-03
5.600000000000040501e-01,-1.000000000000000000e+00,8.200000000000042810e-01,-1.000000000000000000e+00,9.800000000000079758e-01,-1.000000000000000000e+00,1.500000000000027978e-01,-1.000000000000000000e+00,2.000000000000055067e-01,-2.299999999999984279e-01,-7.499999999999980016e-01,-1.000000000000000000e+00,-2.899999999999958167e-01,-1.000000000000000000e+00,1.200000000000027711e-01,-2.399999999999975486e-01,-1.000000000000000000e+00,1.000000000000356160e-02,-1.000000000000000000e+00,1.700000000000054801e-01,3.000000000000269118e-02,3.000000000000269118e-02,8.200000000000096101e-01,1.200000000000045475e-01,-5.399999999999933742e-01,5.500000000000084821e-01,-4.599999999999941913e-01,9.100000000000043610e-01,-1.000000000000000000e+00,3.200000000000029488e-01,-8.199999999999980638e-01,-2.999999999999984901e-01,-2.599999999999949019e-01,-2.899999999999984812e-01,-1.000000000000000000e+00,1.400000000000063416e-01,-1.000000000000000000e+00,-1.000000000000000000e+00,-1.000000000000000000e+00,3.100000000000082689e-01,8.000000000000362377e-02,-3.999999999999985789e-01,-5.499999999999960476e-01,-1.000000000000000000e+00,-1.000000000000000000e+00,-1.000000000000000000e+00,-4.199999999999968203e-01,-6.199999999999952216e-01,9.700000000000044142e-01,-9.999999999994679811e-03,-8.799999999999963407e-01,-7.099999999999970779e-01,-4.699999999999986411e-01,-1.000000000000000000e+00,-8.499999999999989786e-01,-3.799999999999967848e-01,-1.000000000000000000e+00,-8.999999999999830358e-02,-1.000000000000000000e+00,-1.099999999999947686e-01,-3.199999999999949551e-01,3.600000000000029843e-01,-1.000000000000000000e+00,-7.899999999999971489e-01,-1.000000000000000000e+00,-5.699999999999987299e-01,9.800000000000061995e-01,-6.399999999999943512e-01,-2.099999999999984102e-01,-8.899999999999990141e-01,-5.599999999999987210e-01,-1.000000000000000000e+00,-3.299999999999914113e-01,-6.999999999999828582e-02,2.100000000000099565e-01,1.600000000000099121e-01,-1.000000000000000000e+00,-3.599999999999958789e-01
5.600000000000040501e-01,-1.000000000000000000e+00,1.900000000000054978e-01,-1.000000000000000000e+00,7.700000000000086775e-01,-1.000000000000000000e+00,1.500000000000027978e-01,-1.000000000000000000e+00,2.000000000000055067e-01,-2.299999999999984279e-01,-3.199999999999985079e-01,-1.000000000000000000e+00,-2.899999999999958167e-01,-4.199999999999968203e-01,1.200000000000027711e-01,-1.000000000000000000e+00,-1.000000000000000000e+00,-1.199999999999974420e-01,-5.699999999999987299e-01,1.700000000000054801e-01,-1.199999999999965539e-01,3.000000000000269118e-02,8.200000000000096101e-01,1.200000000000045475e-01,-5.399999999999933742e-01,5.500000000000084821e-01,-4.599999999999941913e-01,9.100000000000043610e-01,-1.000000000000000000e+00,3.200000000000029488e-01,-1.000000000000000000e+00,-2.999999999999984901e-01,-9.299999999999963851e-01,-1.899999999999983924e-01,-6.899999999999988365e-01,1.400000000000063416e-01,-7.499999999999988898e-01,-1.000000000000000000e+00,-1.000000000000000000e+00,3.100000000000082689e-01,-7.199999999999979750e-01,-3.999999999999985789e-01,-5.499999999999960476e-01,-1.000000000000000000e+00,-1.000000000000000000e+00,-1.000000000000000000e+00,-8.199999999999962874e-01,3.400000000000047429e-01,9.000000000000274447e-02,8.000000000000628830e-02,-8.799999999999963407e-01,-9.399999999999972822e-01,-4.699999999999986411e-01,-1.000000000000000000e+00,-4.999999999999826805e-02,-3.799999999999967848e-01,-1.099999999999965450e-01,-1.499999999999965805e-01,-5.799999999999978506e-01,-2.499999999999957812e-01,6.217248937900876626e-15,-5.499999999999987121e-01,-1.000000000000000000e+00,-7.899999999999971489e-01,-1.000000000000000000e+00,-1.000000000000000000e+00,9.800000000000061995e-01,-6.399999999999943512e-01,-1.000000000000000000e+00,-1.000000000000000000e+00,-1.000000000000000000e+00,-1.000000000000000000e+00,-3.299999999999914113e-01,-1.000000000000000000e+00,2.100000000000099565e-01,5.800000000000085087e-01,-1.000000000000000000e+00,-7.499999999999971134e-01
5.600000000000040501e-01,-1.000000000000000000e+00,1.900000000000054978e-01,-1.000000000000000000e+00,9.800000000000079758e-01,-1.000000000000000000e+00,1.500000000000027978e-01,-1.599999999999983658e-01,2.000000000000055067e-01,-2.299999999999984279e-01,-3.199999999999985079e-01,-1.000000000000000000e+00,-2.899999999999958167e-01,-4.199999999999968203e-01,1.200000000000027711e-01,-1.000000000000000000e+00,-1.000000000000000000e+00,1.000000000000356160e-02,-7.299999999999988720e-01,-2.299999999999939870e-01,3.000000000000269118e-02,-4.599999999999977440e-01,8.200000000000096101e-01,1.200000000000045475e-01,-5.399999999999933742e-01,5.500000000000084821e-01,-8.299999999999962963e-01,9.100000000000043610e-01,-1.000000000000000000e+00,3.200000000000029488e-01,-6.999999999999988454e-01,-2.999999999999984901e-01,-9.299999999999963851e-01,-1.000000000000000000e+00,-1.000000000000000000e+00,1.400000000000063416e-01,-7.499999999999988898e-01,-8.099999999999989431e-01,-1.000000000000000000e+00,3.100000000000082689e-01,-1.199999999999956657e-01,4.800000000000030909e-01,-1.000000000000000000e+00,-1.000000000000000000e+00,-1.000000000000000000e+00,-1.000000000000000000e+00,-8.199999999999962874e-01,3.400000000000047429e-01,-1.000000000000000000e+00,8.000000000000628830e-02,-4.599999999999950795e-01,-4.499999999999977351e-01,1.000000000000027534e-01,-1.000000000000000000e+00,-4.999999999999826805e-02,3.700000000000047695e-01,-8.299999999999962963e-01,-8.999999999999830358e-02,-1.000000000000000000e+00,-2.499999999999957812e-01,-1.000000000000000000e+00,-5.499999999999987121e-01,-1.000000000000000000e+00,-8.399999999999963052e-01,-1.000000000000000000e+00,-6.999999999999739764e-02,9.800000000000061995e-01,-1.000000000000000000e+00,-2.099999999999984102e-01,-8.899999999999990141e-01,-1.000000000000000000e+00,-1.000000000000000000e+00,-3.299999999999914113e-01,-1.000000000000000000e+00,2.100000000000099565e-01,-1.099999999999912159e-01,-1.000000000000000000e+00,-7.499999999999971134e-01
5.600000000000040501e-01,-1.000000000000000000e+00,7.600000000000051159e-01,-1.000000000000000000e+00,9.800000000000079758e-01,-1.000000000000000000e+00,1.500000000000027978e-01,-1.000000000000000000e+00,2.000000000000055067e-01,-3.199999999999976197e-01,-1.000000000000000000e+00,-1.000000000000000000e+00,-2.899999999999958167e-01,-4.199999999999968203e-01,2.800000000000038014e-01,-2.399999999999975486e-01,-1.000000000000000000e+00,7.000000000000050626e-01,-1.000000000000000000e+00,1.700000000000054801e-01,3.000000000000269118e-02,3.000000000000269118e-02,8.200000000000096101e-01,1.200000000000045475e-01,-5.399999999999933742e-01,5.500000000000084821e-01,-1.199999999999938893e-01,9.100000000000043610e-01,-1.000000000000000000e+00,3.200000000000029488e-01,-1.000000000000000000e+00,-1.000000000000000000e+00,-8.999999999999954703e-01,-2.899999999999984812e-01,-1.000000000000000000e+00,1.400000000000063416e-01,-1.000000000000000000e+00,-8.099999999999989431e-01,-1.000000000000000000e+00,3.100000000000082689e-01,8.000000000000362377e-02,-3.999999999999985789e-01,-5.499999999999960476e-01,-1.000000000000000000e+00,-1.000000000000000000e+00,-1.000000000000000000e+00,-4.199999999999968203e-01,-3.999999999999470646e-02,4.600000000000048495e-01,1.900000000000063860e-01,-8.799999999999963407e-01,4.200000000000039257e-01,1.000000000000027534e-01,-1.000000000000000000e+00,-8.499999999999989786e-01,-2.799999999999975842e-01,-1.000000000000000000e+00,-8.999999999999830358e-02,-4.299999999999977174e-01,-1.099999999999947686e-01,-3.199999999999949551e-01,3.600000000000029843e-01,-1.000000000000000000e+00,-7.599999999999980105e-01,-1.000000000000000000e+00,-1.000000000000000000e+00,9.800000000000061995e-01,-6.399999999999943512e-01,-3.399999999999985256e-01,-8.899999999999990141e-01,-5.599999999999987210e-01,-1.000000000000000000e+00,-3.299999999999914113e-01,-5.199999999999977973e-01,2.100000000000099565e-01,5.800000000000085087e-01,-1.000000000000000000e+00,-3.599999999999958789e-01
5.600000000000040501e-01,-1.000000000000000000e+00,7.600000000000051159e-01,-1.000000000000000000e+00,5.300000000000084643e-01,-1.000000000000000000e+00,1.500000000000027978e-01,-1.000000000000000000e+00,7.400000000000068745e-01,-2.299999999999984279e-01,-1.000000000000000000e+00,-1.000000000000000000e+00,-2.899999999999958167e-01,-1.000000000000000000e+00,1.200000000000027711e-01,-2.399999999999975486e-01,-9.999999999999991118e-01,7.000000000000050626e-01,-1.000000000000000000e+00,1.700000000000054801e-01,-9.999999999998232525e-03,3.000000000000269118e-02,8.200000000000096101e-01,1.200000000000045475e-01,-1.000000000000000000e+00,5.500000000000084821e-01,-6.399999999999934630e-01,9.100000000000043610e-01,-1.000000000000000000e+00,3.200000000000029488e-01,-7.499999999999988898e-01,-1.000000000000000000e+00,-2.999999999999949374e-01,2.800000000000029132e-01,-1.000000000000000000e+00,1.400000000000063416e-01,-1.000000000000000000e+00,-9.099999999999981437e-01,-1.999999999999984013e-01,3.100000000000082689e-01,7.000000000000059508e-01,-1.000000000000000000e+00,-5.499999999999960476e-01,-1.000000000000000000e+00,-1.000000000000000000e+00,-1.000000000000000000e+00,-8.199999999999962874e-01,-6.199999999999952216e-01,-1.000000000000000000e+00,8.000000000000628830e-02,-8.799999999999963407e-01,-1.000000000000000000e+00,-4.699999999999986411e-01,-1.000000000000000000e+00,-8.499999999999989786e-01,-2.799999999999975842e-01,-1.000000000000000000e+00,-8.999999999999830358e-02,-1.000000000000000000e+00,-1.099999999999947686e-01,-3.199999999999949551e-01,-7.299999999999979838e-01,-1.000000000000000000e+00,-1.000000000000000000e+00,-1.000000000000000000e+00,-5.699999999999987299e-01,9.800000000000061995e-01,-9.899999999999991029e-01,-1.000000000000000000e+00,-4.499999999999986233e-01,-1.000000000000000000e+00,-1.000000000000000000e+00,3.600000000000100897e-01,-6.999999999999828582e-02,2.100000000000099565e-01,-1.000000000000000000e+00,-1.000000000000000000e+00,1.400000000000036771e-01
5.600000000000040501e-01,-1.000000000000000000e+00,8.200000000000042810e-01,-1.000000000000000000e+00,9.800000000000079758e-01,-1.000000000000000000e+00,-8.099999999999971667e-01,-1.599999999999983658e-01,2.000000000000055067e-01,-2.299999999999984279e-01,-7.499999999999980016e-01,-1.000000000000000000e+00,6.000000000000538236e-02,-1.000000000000000000e+00,1.200000000000027711e-01,8.100000000000033840e-01,-1.000000000000000000e+00,1.000000000000356160e-02,-1.000000000000000000e+00,1.700000000000054801e-01,3.000000000000269118e-02,3.000000000000269118e-02,8.200000000000096101e-01,1.200000000000045475e-01,-5.399999999999933742e-01,5.500000000000084821e-01,-4.599999999999941913e-01,9.100000000000043610e-01,-1.000000000000000000e+00,3.200000000000029488e-01,-1.000000000000000000e+00,-1.000000000000000000e+00,-2.599999999999949019e-01,-4.799999999999986500e-01,-1.000000000000000000e+00,1.400000000000063416e-01,-7.499999999999988898e-01,-8.099999999999989431e-01,-1.000000000000000000e+00,3.100000000000082689e-01,8.000000000000362377e-02,-3.999999999999985789e-01,1.200000000000054357e-01,-1.000000000000000000e+00,-1.000000000000000000e+00,-1.000000000000000000e+00,-4.199999999999968203e-01,-3.999999999999470646e-02,9.000000000000274447e-02,-9.999999999994679811e-03,-1.399999999999947953e-01,-1.000000000000000000e+00,9.900000000000044320e-01,-1.000000000000000000e+00,-4.999999999999826805e-02,-3.799999999999967848e-01,-1.000000000000000000e+00,-8.999999999999830358e-02,-1.000000000000000000e+00,-2.499999999999957812e-01,-3.199999999999949551e-01,-5.499999999999987121e-01,-1.000000000000000000e+00,-7.899999999999971489e-01,-1.000000000000000000e+00,-1.000000000000000000e+00,9.800000000000061995e-01,-6.399999999999943512e-01,-3.399999999999985256e-01,-8.899999999999990141e-01,-5.599999999999987210e-01,-1.000000000000000000e+00,-3.299999999999914113e-01,-6.999999999999828582e-02,2.100000000000099565e-01,1.600000000000099121e-01,-1.000000000000000000e+00,-9.999999999997344347e-03
5.600000000000040501e-01,-1.000000000000000000e+00,7.600000000000051159e-01,-1.000000000000000000e+00,1.900000000000081624e-01,-1.000000000000000000e+00,1.500000000000027978e-01,-7.699999999999989075e-01,2.000000000000055067e-01,-2.299999999999984279e-01,-3.199999999999985079e-01,-1.000000000000000000e+00,-2.899999999999958167e-01,-4.199999999999968203e-01,-5.599999999999987210e-01,8.100000000000033840e-01,-1.000000000000000000e+00,-3.999999999999959144e-01,-1.000000000000000000e+00,1.700000000000054801e-01,7.000000000000272671e-02,3.000000000000269118e-02,8.200000000000096101e-01,-6.999999999999952927e-01,-5.399999999999933742e-01,5.500000000000084821e-01,-1.199999999999938893e-01,9.100000000000043610e-01,-1.000000000000000000e+00,3.200000000000029488e-01,-9.599999999999990763e-01,-9.999999999999742428e-02,-9.299999999999963851e-01,-1.000000000000000000e+00,-1.000000000000000000e+00,-7.999999999999936051e-01,-7.499999999999988898e-01,-1.099999999999974332e-01,-1.000000000000000000e+00,-2.499999999999913403e-01,-7.199999999999979750e-01,-1.000000000000000000e+00,-5.499999999999960476e-01,-1.000000000000000000e+00,-1.000000000000000000e+00,-1.000000000000000000e+00,-4.199999999999968203e-01,3.400000000000047429e-01,4.500000000000039524e-01,8.000000000000628830e-02,-8.799999999999963407e-01,-2.399999999999939959e-01,1.000000000000027534e-01,-1.000000000000000000e+00,-9.299999999999990496e-01,3.700000000000047695e-01,-8.299999999999962963e-01,1.100000000000027622e-01,-8.699999999999989964e-01,-2.499999999999957812e-01,-1.000000000000000000e+00,-5.499999999999987121e-01,-1.000000000000000000e+00,-7.899999999999971489e-01,-1.000000000000000000e+00,-1.000000000000000000e+00,9.800000000000061995e-01,-6.499999999999934719e-01,-3.399999999999985256e-01,-8.899999999999990141e-01,-1.000000000000000000e+00,3.400000000000029665e-01,-3.299999999999914113e-01,-5.199999999999977973e-01,2.100000000000099565e-01,-1.099999999999912159e-01,-1.000000000000000000e+00,-7.499999999999971134e-01
5.600000000000040501e-01,-1.000000000000000000e+00,7.600000000000051159e-01,-1.000000000000000000e+00,9.800000000000079758e-01,-1.000000000000000000e+00,1.500000000000027978e-01,-1.000000000000000000e+00,7.400000000000068745e-01,-2.299999999999984279e-01,-6.599999999999979217e-01,-1.000000000000000000e+00,2.800000000000055778e-01,-4.199999999999968203e-01,1.200000000000027711e-01,-6.199999999999969980e-01,-1.000000000000000000e+00,1.000000000000356160e-02,-1.000000000000000000e+00,1.700000000000054801e-01,3.000000000000269118e-02,3.000000000000269118e-02,-1.000000000000000000e+00,-2.299999999999948752e-01,-1.000000000000000000e+00,5.500000000000084821e-01,-4.599999999999941913e-01,9.100000000000043610e-01,-1.000000000000000000e+00,3.200000000000029488e-01,-7.499999999999988898e-01,-1.000000000000000000e+00,-9.299999999999963851e-01,-2.899999999999984812e-01,-1.000000000000000000e+00,1.400000000000063416e-01,-1.000000000000000000e+00,-6.199999999999987743e-01,-1.000000000000000000e+00,-2.199999999999904254e-01,8.000000000000362377e-02,-3.999999999999985789e-01,-9.799999999999955413e-01,-1.000000000000000000e+00,-1.000000000000000000e+00,-3.399999999999985256e-01,-4.199999999999968203e-01,-6.199999999999952216e-01,-1.000000000000000000e+00,8.000000000000628830e-02,-8.799999999999963407e-01,-1.000000000000000000e+00,9.900000000000044320e-01,-1.000000000000000000e+00,-8.499999999999989786e-01,-3.799999999999967848e-01,-1.000000000000000000e+00,-8.999999999999830358e-02,-4.299999999999977174e-01,6.300000000000058886e-01,4.900000000000066525e-01,3.600000000000029843e-01,-1.000000000000000000e+00,-1.000000000000000000e+00,-1.000000000000000000e+00,-5.699999999999987299e-01,9.800000000000061995e-01,-1.000000000000000000e+00,-2.099999999999984102e-01,-8.899999999999990141e-01,-1.000000000000000000e+00,-1.000000000000000000e+00,-3.299999999999914113e-01,-6.999999999999828582e-02,2.100000000000099565e-01,-6.399999999999899103e-01,-1.000000000000000000e+00,1.400000000000036771e-01
9.800000000000053113e-01,-1.000000000000000000e+00,7.600000000000051159e-01,-1.000000000000000000e+00,9.800000000000079758e-01,-1.000000000000000000e+00,1.500000000000027978e-01,-1.000000000000000000e+00,2.000000000000055067e-01,-2.299999999999984279e-01,-1.000000000000000000e+00,-1.000000000000000000e+00,5.700000000000058353e-01,-1.000000000000000000e+00,1.200000000000027711e-01,1.000000000000036415e-01,-1.000000000000000000e+00,1.000000000000356160e-02,-1.000000000000000000e+00,1.700000000000054801e-01,3.000000000000269118e-02,-4.599999999999977440e-01,-1.000000000000000000e+00,1.200000000000045475e-01,-1.000000000000000000e+00,5.500000000000084821e-01,-3.199999999999931788e-01,9.100000000000043610e-01,-1.000000000000000000e+00,3.200000000000029488e-01,-1.000000000000000000e+00,-1.000000000000000000e+00,-9.299999999999963851e-01,-4.799999999999986500e-01,-1.000000000000000000e+00,1.400000000000063416e-01,-7.499999999999988898e-01,-1.000000000000000000e+00,-1.000000000000000000e+00,-4.099999999999914824e-01,8.000000000000362377e-02,-3.999999999999985789e-01,-5.499999999999960476e-01,-1.000000000000000000e+00,-1.000000000000000000e+00,-1.000000000000000000e+00,-8.199999999999962874e-01,-3.999999999999470646e-02,9.000000000000274447e-02,8.000000000000628830e-02,-1.399999999999947953e-01,-7.099999999999970779e-01,9.900000000000044320e-01,-1.000000000000000000e+00,-8.499999999999989786e-01,-3.799999999999967848e-01,-8.299999999999962963e-01,-8.999999999999830358e-02,-1.000000000000000000e+00,-1.099999999999947686e-01,-3.199999999999949551e-01,3.600000000000029843e-01,-1.000000000000000000e+00,-8.699999999999954436e-01,-1.000000000000000000e+00,-5.699999999999987299e-01,9.800000000000061995e-01,-1.000000000000000000e+00,-3.399999999999985256e-01,-8.899999999999990141e-01,-1.000000000000000000e+00,-1.000000000000000000e+00,-3.299999999999914113e-01,-5.199999999999977973e-01,2.100000000000099565e-01,1.600000000000099121e-01,-1.000000000000000000e+00,1.400000000000036771e-01
5.600000000000040501e-01,-1.000000000000000000e+00,1.900000000000054978e-01,-1.000000000000000000e+00,9.800000000000079758e-01,-1.000000000000000000e+00,2.100000000000037392e-01,-1.599999999999983658e-01,2.000000000000055067e-01,-2.299999999999984279e-01,-3.199999999999985079e-01,-7.599999999999988987e-01,-2.899999999999958167e-01,-4.199999999999968203e-01,1.200000000000027711e-01,-1.000000000000000000e+00,-8.199999999999971756e-01,1.000000000000356160e-02,-1.000000000000000000e+00,-2.299999999999939870e-01,3.000000000000269118e-02,3.000000000000269118e-02,-1.000000000000000000e+00,1.200000000000045475e-01,-1.000000000000000000e+00,5.500000000000084821e-01,-8.299999999999962963e-01,9.100000000000043610e-01,-1.000000000000000000e+00,3.200000000000029488e-01,-4.699999999999986411e-01,-2.999999999999984901e-01,-9.299999999999963851e-01,-5.699999999999987299e-01,-1.000000000000000000e+00,1.400000000000063416e-01,-7.499999999999988898e-01,-6.199999999999987743e-01,-2.399999999999984368e-01,-2.199999999999904254e-01,-1.199999999999956657e-01,5.700000000000031708e-01,-1.000000000000000000e+00,-1.000000000000000000e+00,-1.000000000000000000e+00,-1.000000000000000000e+00,-4.199999999999968203e-01,-6.199999999999952216e-01,-1.000000000000000000e+00,8.000000000000628830e-02,-4.599999999999950795e-01,-7.599999999999988987e-01,1.000000000000027534e-01,-1.000000000000000000e+00,-4.999999999999826805e-02,-3.799999999999967848e-01,-1.000000000000000000e+00,-8.999999999999830358e-02,-4.299999999999977174e-01,1.600000000000054712e-01,-1.000000000000000000e+00,-7.299999999999979838e-01,-3.099999999999984990e-01,-8.399999999999963052e-01,-1.000000000000000000e+00,-1.000000000000000000e+00,9.800000000000061995e-01,-1.000000000000000000e+00,-2.099999999999984102e-01,-8.899999999999990141e-01,-1.000000000000000000e+00,-1.000000000000000000e+00,-3.299999999999914113e-01,-5.199999999999977973e-01,2.100000000000099565e-01,-1.099999999999912159e-01,-1.000000000000000000e+00,-7.499999999999971134e-01
5.600000000000040501e-01,-1.000000000000000000e+00,8.200000000000042810e-01,-1.000000000000000000e+00,-1.000000000000000000e+00,-1.000000000000000000e+00,-6.099999999999969891e-01,-1.000000000000000000e+00,2.000000000000055067e-01,-2.299999999999984279e-01,-7.499999999999980016e-01,-1.000000000000000000e+00,-2.899999999999958167e-01,-1.000000000000000000e+00,-9.999999999997344347e-03,-2.399999999999975486e-01,-8.499999999999989786e-01,-1.199999999999974420e-01,-1.000000000000000000e+00,1.700000000000054801e-01,7.000000000000272671e-02,3.000000000000269118e-02,8.200000000000096101e-01,1.200000000000045475e-01,-1.000000000000000000e+00,5.500000000000084821e-01,-8.299999999999962963e-01,9.100000000000043610e-01,-1.000000000000000000e+00,3.200000000000029488e-01,-5.899999999999969713e-01,-2.999999999999984901e-01,-9.299999999999963851e-01,-2.899999999999984812e-01,-1.000000000000000000e+00,1.400000000000063416e-01,-1.000000000000000000e+00,-1.000000000000000000e+00,-1.000000000000000000e+00,-2.499999999999913403e-01,-7.199999999999979750e-01,-1.000000000000000000e+00,-5.499999999999960476e-01,-1.000000000000000000e+00,-1.000000000000000000e+00,-1.000000000000000000e+00,-4.199999999999968203e-01,3.400000000000047429e-01,9.700000000000044142e-01,8.200000000000078337e-01,-1.000000000000000000e+00,-2.399999999999939959e-01,1.000000000000027534e-01,-1.000000000000000000e+00,-9.299999999999990496e-01,-3.799999999999967848e-01,-1.000000000000000000e+00,1.100000000000027622e-01,-1.000000000000000000e+00,-1.099999999999947686e-01,4.900000000000066525e-01,3.600000000000029843e-01,-1.000000000000000000e+00,-7.899999999999971489e-01,-5.799999999999987388e-01,-5.699999999999987299e-01,-1.000000000000000000e+00,-6.399999999999943512e-01,-2.099999999999984102e-01,-7.499999999999988898e-01,1.000000000000027534e-01,-1.000000000000000000e+00,-3.299999999999914113e-01,-6.999999999999828582e-02,2.100000000000099565e-01,1.600000000000099121e-01,-1.000000000000000000e+00,-3.599999999999958789e-01
5.600000000000040501e-01,-1.000000000000000000e+00,7.600000000000051159e-01,-1.000000000000000000e+00,9.800000000000079758e-01,-1.000000000000000000e+00,1.500000000000027978e-01,-1.000000000000000000e+00,4.100000000000039169e-01,-2.299999999999984279e-01,-6.599999999999979217e-01,-1.000000000000000000e+00,1.800000000000046008e-01,-4.199999999999968203e-01,1.200000000000027711e-01,-2.399999999999975486e-01,-1.000000000000000000e+00,7.000000000000050626e-01,-1.000000000000000000e+00,1.700000000000054801e-01,3.000000000000269118e-02,-4.599999999999977440e-01,8.900000000000105604e-01,1.200000000000045475e-01,-1.000000000000000000e+00,5.500000000000084821e-01,-3.199999999999931788e-01,9.100000000000043610e-01,-1.000000000000000000e+00,3.200000000000029488e-01,-6.999999999999988454e-01,-1.000000000000000000e+00,-9.299999999999963851e-01,-7.799999999999980282e-01,-1.000000000000000000e+00,1.400000000000063416e-01,-1.000000000000000000e+00,-8.099999999999989431e-01,-1.000000000000000000e+00,3.100000000000082689e-01,-1.199999999999956657e-01,-1.000000000000000000e+00,-5.499999999999960476e-01,-1.000000000000000000e+00,-1.000000000000000000e+00,-1.000000000000000000e+00,-4.199999999999968203e-01,2.800000000000064659e-01,9.700000000000044142e-01,1.200000000000072120e-01,-8.799999999999963407e-01,1.900000000000046096e-01,-4.699999999999986411e-01,-1.000000000000000000e+00,-8.499999999999989786e-01,-3.799999999999967848e-01,-1.000000000000000000e+00,-5.899999999999978595e-01,-4.299999999999977174e-01,-1.099999999999947686e-01,-3.199999999999949551e-01,-7.299999999999979838e-01,-1.000000000000000000e+00,-7.599999999999980105e-01,-1.000000000000000000e+00,-1.000000000000000000e+00,9.800000000000061995e-01,-1.000000000000000000e+00,-2.099999999999984102e-01,-8.899999999999990141e-01,-5.599999999999987210e-01,-1.000000000000000000e+00,-3.299999999999914113e-01,-5.199999999999977973e-01,2.100000000000099565e-01,1.600000000000099121e-01,-1.000000000000000000e+00,1.400000000000036771e-01
5.600000000000040501e-01,-1.000000000000000000e+00,7.600000000000051159e-01,-1.000000000000000000e+00,9.800000000000079758e-01,-1.000000000000000000e+00,1.500000000000027978e-01,-1.000000000000000000e+00,4.300000000000030465e-01,-2.299999999999984279e-01,-1.000000000000000000e+00,-1.000000000000000000e+00,1.800000000000046008e-01,-4.199999999999968203e-01,1.200000000000027711e-01,-2.399999999999975486e-01,-1.000000000000000000e+00,7.000000000000050626e-01,-1.000000000000000000e+00,1.700000000000054801e-01,-9.999999999998232525e-03,3.000000000000269118e-02,8.200000000000096101e-01,1.200000000000045475e-01,-1.000000000000000000e+00,5.500000000000084821e-01,-1.199999999999938893e-01,9.100000000000043610e-01,-1.000000000000000000e+00,3.200000000000029488e-01,-1.000000000000000000e+00,-1.000000000000000000e+00,-9.299999999999963851e-01,-1.000000000000000000e+00,-1.000000000000000000e+00,-2.599999999999931255e-01,-7.499999999999988898e-01,-8.099999999999989431e-01,-1.000000000000000000e+00,4.800000000000093081e-01,-1.199999999999956657e-01,-1.000000000000000000e+00,-5.499999999999960476e-01,-1.000000000000000000e+00,-1.000000000000000000e+00,-1.000000000000000000e+00,-4.199999999999968203e-01,-3.999999999999470646e-02,-7.499999999999988898e-01,1.000000000000622613e-02,-8.799999999999963407e-01,4.200000000000039257e-01,1.000000000000027534e-01,-1.000000000000000000e+00,1.000000000000267342e-02,-2.799999999999975842e-01,-8.299999999999962963e-01,-8.999999999999830358e-02,-4.299999999999977174e-01,-4.699999999999950884e-01,-3.199999999999949551e-01,-7.299999999999979838e-01,-1.000000000000000000e+00,-7.599999999999980105e-01,-4.999999999999986677e-01,-2.499999999999984457e-01,9.800000000000061995e-01,-9.899999999999991029e-01,-6.299999999999978950e-01,-1.000000000000000000e+00,6.000000000000271783e-02,-2.999999999999825029e-02,-3.299999999999914113e-01,-5.199999999999977973e-01,2.100000000000099565e-01,5.800000000000085087e-01,-1.000000000000000000e+00,1.400000000000036771e-01
5.600000000000040501e-01,-1.000000000000000000e+00,-1.000000000000000000e+00,-4.499999999999986233e-01,9.800000000000079758e-01,-1.000000000000000000e+00,1.500000000000027978e-01,-1.599999999999983658e-01,7.400000000000068745e-01,-2.299999999999984279e-01,-1.000000000000000000e+00,-1.000000000000000000e+00,-2.899999999999958167e-01,-4.199999999999968203e-01,1.200000000000027711e-01,-2.399999999999975486e-01,-8.199999999999971756e-01,1.000000000000356160e-02,-1.000000000000000000e+00,1.700000000000054801e-01,3.000000000000269118e-02,3.000000000000269118e-02,8.200000000000096101e-01,-1.799999999999948308e-01,-1.000000000000000000e+00,5.500000000000084821e-01,-4.599999999999941913e-01,9.100000000000043610e-01,-1.000000000000000000e+00,3.200000000000029488e-01,-4.699999999999986411e-01,-1.000000000000000000e+00,-9.299999999999963851e-01,-4.799999999999986500e-01,-1.000000000000000000e+00,1.400000000000063416e-01,-1.000000000000000000e+00,-8.099999999999989431e-01,-1.000000000000000000e+00,3.100000000000082689e-01,-7.199999999999979750e-01,-3.999999999999985789e-01,-5.499999999999960476e-01,-1.000000000000000000e+00,-1.000000000000000000e+00,-5.599999999999978328e-01,-8.199999999999962874e-01,-3.999999999999470646e-02,-1.000000000000000000e+00,8.000000000000628830e-02,-8.799999999999963407e-01,-4.499999999999977351e-01,9.900000000000044320e-01,-1.000000000000000000e+00,-4.999999999999826805e-02,-3.799999999999967848e-01,-1.000000000000000000e+00,-8.999999999999830358e-02,-4.299999999999977174e-01,-2.499999999999957812e-01,4.900000000000066525e-01,-7.299999999999979838e-01,-1.000000000000000000e+00,-1.000000000000000000e+00,-1.000000000000000000e+00,-1.000000000000000000e+00,9.800000000000061995e-01,-6.399999999999943512e-01,-3.399999999999985256e-01,-8.899999999999990141e-01,-1.000000000000000000e+00,3.400000000000029665e-01,-3.299999999999914113e-01,-5.199999999999977973e-01,2.100000000000099565e-01,8.200000000000096101e-01,-1.000000000000000000e+00,1.400000000000036771e-01
5.600000000000040501e-01,-1.000000000000000000e+00,7.600000000000051159e-01,-1.000000000000000000e+00,9.800000000000079758e-01,-1.000000000000000000e+00,1.500000000000027978e-01,-1.000000000000000000e+00,2.000000000000055067e-01,-2.299999999999984279e-01,-3.199999999999985079e-01,-1.000000000000000000e+00,-2.899999999999958167e-01,-1.000000000000000000e+00,1.200000000000027711e-01,-2.399999999999975486e-01,-1.000000000000000000e+00,1.000000000000356160e-02,-1.000000000000000000e+00,1.700000000000054801e-01,3.000000000000269118e-02,3.000000000000269118e-02,8.200000000000096101e-01,1.200000000000045475e-01,-5.399999999999933742e-01,5.500000000000084821e-01,-4.599999999999941913e-01,-4.499999999999950706e-01,-1.000000000000000000e+00,5.700000000000040590e-01,-7.499999999999988898e-01,-2.999999999999984901e-01,-9.299999999999963851e-01,-1.899999999999983924e-01,-1.000000000000000000e+00,1.400000000000063416e-01,-1.000000000000000000e+00,-1.000000000000000000e+00,-1.000000000000000000e+00,3.100000000000082689e-01,-2.999999999999647393e-02,-3.999999999999985789e-01,-5.499999999999960476e-01,-1.000000000000000000e+00,-1.000000000000000000e+00,-1.000000000000000000e+00,-8.199999999999962874e-01,-6.199999999999952216e-01,9.700000000000044142e-01,8.000000000000628830e-02,-8.799999999999963407e-01,-9.399999999999972822e-01,-4.699999999999986411e-01,-1.000000000000000000e+00,-4.999999999999826805e-02,-3.799999999999967848e-01,2.300000000000046452e-01,-8.999999999999830358e-02,-1.000000000000000000e+00,-1.099999999999947686e-01,-3.199999999999949551e-01,3.600000000000029843e-01,-1.000000000000000000e+00,-7.899999999999971489e-01,-1.000000000000000000e+00,-5.699999999999987299e-01,9.800000000000061995e-01,-6.399999999999943512e-01,-1.000000000000000000e+00,-1.000000000000000000e+00,-1.000000000000000000e+00,-1.000000000000000000e+00,-3.299999999999914113e-01,-6.999999999999828582e-02,2.100000000000099565e-01,1.600000000000099121e-01,-1.000000000000000000e+00,-7.499999999999971134e-01
5.600000000000040501e-01,-1.000000000000000000e+00,7.600000000000051159e-01,-1.000000000000000000e+00,9.800000000000079758e-01,-1.000000000000000000e+00,1.500000000000027978e-01,-1.599999999999983658e-01,7.400000000000068745e-01,-2.299999999999984279e-01,-3.199999999999985079e-01,-1.000000000000000000e+00,-2.899999999999958167e-01,-4.199999999999968203e-01,1.200000000000027711e-01,-2.399999999999975486e-01,-1.000000000000000000e+00,7.000000000000050626e-01,-1.000000000000000000e+00,1.700000000000054801e-01,3.000000000000269118e-02,-4.599999999999977440e-01,8.200000000000096101e-01,1.200000000000045475e-01,-1.000000000000000000e+00,5.500000000000084821e-01,-4.599999999999941913e-01,9.100000000000043610e-01,-1.000000000000000000e+00,6.000000000000360600e-02,-4.699999999999986411e-01,-1.000000000000000000e+00,-9.299999999999963851e-01,-5.699999999999987299e-01,-1.000000000000000000e+00,1.400000000000063416e-01,-7.499999999999988898e-01,-6.199999999999987743e-01,-1.000000000000000000e+00,-2.199999999999904254e-01,-1.199999999999956657e-01,-3.999999999999985789e-01,-5.499999999999960476e-01,-1.000000000000000000e+00,-1.000000000000000000e+00,-1.000000000000000000e+00,-8.199999999999962874e-01,-6.199999999999952216e-01,-1.000000000000000000e+00,8.000000000000628830e-02,-4.599999999999950795e-01,-1.000000000000000000e+00,1.000000000000027534e-01,-1.000000000000000000e+00,-4.999999999999826805e-02,-3.799999999999967848e-01,-1.000000000000000000e+00,-8.999999999999830358e-02,-4.299999999999977174e-01,-2.499999999999957812e-01,-4.999999999999986677e-01,-5.499999999999987121e-01,-1.000000000000000000e+00,-5.999999999999987566e-01,-1.000000000000000000e+00,-6.999999999999739764e-02,9.800000000000061995e-01,-1.000000000000000000e+00,-2.099999999999984102e-01,-8.899999999999990141e-01,-1.000000000000000000e+00,-1.000000000000000000e+00,2.000000000000099476e-01,-5.199999999999977973e-01,2.100000000000099565e-01,5.800000000000085087e-01,-1.000000000000000000e+00,-7.499999999999971134e-01
5.600000000000040501e-01,-1.000000000000000000e+00,8.300000000000051781e-01,-1.000000000000000000e+00,9.800000000000079758e-01,-1.000000000000000000e+00,1.500000000000027978e-01,-1.599999999999983658e-01,-9.999999999999387157e-02,-2.299999999999984279e-01,-1.000000000000000000e+00,-1.000000000000000000e+00,-2.899999999999958167e-01,-4.199999999999968203e-01,1.200000000000027711e-01,-2.399999999999975486e-01,-1.000000000000000000e+00,1.000000000000356160e-02,-1.000000000000000000e+00,1.700000000000054801e-01,2.900000000000038103e-01,-4.599999999999977440e-01,8.200000000000096101e-01,1.200000000000045475e-01,-5.399999999999933742e-01,4.300000000000092637e-01,-4.599999999999941913e-01,7.900000000000051426e-01,-1.000000000000000000e+00,3.200000000000029488e-01,-1.000000000000000000e+00,-1.000000000000000000e+00,-9.299999999999963851e-01,-2.899999999999984812e-01,-1.000000000000000000e+00,1.400000000000063416e-01,-2.499999999999975575e-01,-1.000000000000000000e+00,-1.000000000000000000e+00,3.100000000000082689e-01,-7.799999999999971401e-01,-3.999999999999985789e-01,-5.499999999999960476e-01,-1.000000000000000000e+00,-1.000000000000000000e+00,-5.399999999999987033e-01,-4.199999999999968203e-01,-3.999999999999470646e-02,9.000000000000274447e-02,-9.999999999994679811e-03,-8.799999999999963407e-01,-7.099999999999970779e-01,9.900000000000044320e-01,-1.000000000000000000e+00,-8.499999999999989786e-01,-3.799999999999967848e-01,-8.299999999999962963e-01,-8.999999999999830358e-02,-1.000000000000000000e+00,-1.099999999999947686e-01,-3.199999999999949551e-01,3.600000000000029843e-01,-1.000000000000000000e+00,-7.899999999999971489e-01,-4.299999999999986056e-01,-1.000000000000000000e+00,9.800000000000061995e-01,-6.399999999999943512e-01,-3.399999999999985256e-01,-8.899999999999990141e-01,-5.599999999999987210e-01,3.400000000000029665e-01,-3.299999999999914113e-01,-5.199999999999977973e-01,2.100000000000099565e-01,-1.099999999999912159e-01,-1.000000000000000000e+00,-9.999999999997344347e-03
5.600000000000040501e-01,-1.000000000000000000e+00,7.600000000000051159e-01,-1.000000000000000000e+00,9.800000000000079758e-01,-1.000000000000000000e+00,1.500000000000027978e-01,-7.699999999999989075e-01,2.000000000000055067e-01,-2.299999999999984279e-01,-1.000000000000000000e+00,-1.000000000000000000e+00,-2.899999999999958167e-01,-4.199999999999968203e-01,1.200000000000027711e-01,-1.000000000000000000e+00,-8.499999999999989786e-01,-1.199999999999974420e-01,-1.000000000000000000e+00,-1.999999999999939604e-01,7.000000000000272671e-02,3.000000000000269118e-02,8.200000000000096101e-01,1.200000000000045475e-01,-5.399999999999933742e-01,5.500000000000084821e-01,-4.599999999999941913e-01,9.100000000000043610e-01,-2.799999999999984723e-01,3.200000000000029488e-01,-5.899999999999969713e-01,-2.999999999999984901e-01,-9.299999999999963851e-01,-1.000000000000000000e+00,-1.000000000000000000e+00,-1.999999999999291234e-02,-1.000000000000000000e+00,-6.199999999999987743e-01,-1.000000000000000000e+00,-2.199999999999904254e-01,-7.199999999999979750e-01,-3.999999999999985789e-01,-1.000000000000000000e+00,-1.000000000000000000e+00,-1.000000000000000000e+00,-1.000000000000000000e+00,-8.199999999999962874e-01,3.400000000000047429e-01,-1.000000000000000000e+00,8.200000000000078337e-01,-8.799999999999963407e-01,-2.399999999999939959e-01,9.900000000000044320e-01,-1.000000000000000000e+00,-9.299999999999990496e-01,-3.799999999999967848e-01,-1.000000000000000000e+00,-8.999999999999830358e-02,-1.000000000000000000e+00,-2.499999999999957812e-01,4.900000000000066525e-01,-7.299999999999979838e-01,-1.000000000000000000e+00,-1.000000000000000000e+00,-1.000000000000000000e+00,-1.000000000000000000e+00,9.800000000000061995e-01,9.000000000000807354e-02,-1.000000000000000000e+00,-7.499999999999988898e-01,-1.000000000000000000e+00,-1.799999999999983835e-01,-3.299999999999914113e-01,-5.199999999999977973e-01,2.100000000000099565e-01,5.800000000000085087e-01,-1.000000000000000000e+00,-7.499999999999971134e-01
5.600000000000040501e-01,-1.000000000000000000e+00,-1.000000000000000000e+00,-1.000000000000000000e+00,1.900000000000081624e-01,-1.000000000000000000e+00,1.500000000000027978e-01,-1.599999999999983658e-01,7.400000000000068745e-01,-2.299999999999984279e-01,-3.199999999999985079e-01,-1.000000000000000000e+00,-2.899999999999958167e-01,-4.199999999999968203e-01,-5.599999999999987210e-01,-2.399999999999975486e-01,-1.000000000000000000e+00,1.000000000000356160e-02,-5.599999999999987210e-01,1.700000000000054801e-01,3.000000000000269118e-02,-4.599999999999977440e-01,3.200000000000100542e-01,1.200000000000045475e-01,-1.000000000000000000e+00,5.500000000000084821e-01,-3.199999999999931788e-01,2.600000000000046718e-01,-1.000000000000000000e+00,3.200000000000029488e-01,-7.499999999999988898e-01,-1.000000000000000000e+00,-9.299999999999963851e-01,-1.000000000000000000e+00,-1.000000000000000000e+00,1.400000000000063416e-01,-1.000000000000000000e+00,-1.000000000000000000e+00,-1.000000000000000000e+00,3.100000000000082689e-01,-1.199999999999956657e-01,4.800000000000030909e-01,-5.499999999999960476e-01,-1.000000000000000000e+00,-1.000000000000000000e+00,-1.000000000000000000e+00,-8.199999999999962874e-01,-6.199999999999952216e-01,9.700000000000044142e-01,8.000000000000628830e-02,-8.799999999999963407e-01,-1.000000000000000000e+00,-4.699999999999986411e-01,-1.000000000000000000e+00,-8.499999999999989786e-01,-3.799999999999967848e-01,-1.000000000000000000e+00,-8.999999999999830358e-02,-1.000000000000000000e+00,-1.099999999999947686e-01,-1.000000000000000000e+00,3.600000000000029843e-01,-1.000000000000000000e+00,-7.599999999999980105e-01,-1.000000000000000000e+00,-1.000000000000000000e+00,9.800000000000061995e-01,-1.000000000000000000e+00,-6.799999999999979394e-01,-8.899999999999990141e-01,-1.000000000000000000e+00,-1.000000000000000000e+00,-3.299999999999914113e-01,-1.000000000000000000e+00,2.100000000000099565e-01,-1.099999999999912159e-01,-1.000000000000000000e+00,1.400000000000036771e-01
5.600000000000040501e-01,-1.000000000000000000e+00,8.200000000000042810e-01,-7.799999999999989164e-01,9.800000000000079758e-01,-1.000000000000000000e+00,1.500000000000027978e-01,-1.000000000000000000e+00,2.000000000000055067e-01,-2.299999999999984279e-01,-4.899999999999968825e-01,-1.000000000000000000e+00,-2.899999999999958167e-01,-1.000000000000000000e+00,2.800000000000038014e-01,-2.399999999999975486e-01,-1.000000000000000000e+00,7.000000000000050626e-01,-8.199999999999989519e-01,4.200000000000065903e-01,-9.999999999998232525e-03,3.000000000000269118e-02,8.200000000000096101e-01,1.200000000000045475e-01,-5.399999999999933742e-01,5.500000000000084821e-01,8.000000000000717648e-02,9.100000000000043610e-01,-1.000000000000000000e+00,3.200000000000029488e-01,-8.199999999999980638e-01,-2.999999999999984901e-01,-1.000000000000000000e+00,-1.000000000000000000e+00,-1.000000000000000000e+00,-6.199999999999934452e-01,-1.000000000000000000e+00,-1.000000000000000000e+00,-1.000000000000000000e+00,3.100000000000082689e-01,-1.199999999999956657e-01,4.800000000000030909e-01,-5.499999999999960476e-01,-1.000000000000000000e+00,-1.000000000000000000e+00,-1.000000000000000000e+00,-4.199999999999968203e-01,-3.999999999999470646e-02,9.700000000000044142e-01,5.000000000000626166e-02,-8.799999999999963407e-01,5.900000000000049649e-01,-4.699999999999986411e-01,-1.000000000000000000e+00,-8.499999999999989786e-01,-3.799999999999967848e-01,-8.299999999999962963e-01,5.000000000000031086e-01,-1.000000000000000000e+00,-2.499999999999957812e-01,-3.199999999999949551e-01,1.800000000000028244e-01,-1.000000000000000000e+00,-7.599999999999980105e-01,-1.000000000000000000e+00,-7.799999999999980282e-01,9.800000000000061995e-01,-6.399999999999943512e-01,-3.399999999999985256e-01,-8.899999999999990141e-01,-5.599999999999987210e-01,-1.000000000000000000e+00,-3.299999999999914113e-01,-5.199999999999977973e-01,2.100000000000099565e-01,1.600000000000099121e-01,-1.000000000000000000e+00,-3.599999999999958789e-01
5.600000000000040501e-01,-1.000000000000000000e+00,7.600000000000051159e-01,-1.000000000000000000e+00,6.600000000000085798e-01,-1.000000000000000000e+00,1.500000000000027978e-01,-1.000000000000000000e+00,7.400000000000068745e-01,-2.299999999999984279e-01,-6.599999999999979217e-01,-1.000000000000000000e+00,-2.899999999999958167e-01,-4.199999999999968203e-01,1.200000000000027711e-01,-2.399999999999975486e-01,-1.000000000000000000e+00,1.000000000000356160e-02,-1.000000000000000000e+00,1.700000000000054801e-01,-1.299999999999965627e-01,3.000000000000269118e-02,8.200000000000096101e-01,1.200000000000045475e-01,-1.000000000000000000e+00,-1.399999999999912426e-01,-1.199999999999938893e-01,9.100000000000043610e-01,-1.000000000000000000e+00,3.200000000000029488e-01,-1.000000000000000000e+00,-9.699999999999990852e-01,-9.299999999999963851e-01,-1.000000000000000000e+00,-1.000000000000000000e+00,1.400000000000063416e-01,-7.499999999999988898e-01,-1.000000000000000000e+00,-1.000000000000000000e+00,3.100000000000082689e-01,8.000000000000362377e-02,4.800000000000030909e-01,-5.499999999999960476e-01,-1.000000000000000000e+00,-1.000000000000000000e+00,-1.000000000000000000e+00,-8.199999999999962874e-01,-6.199999999999952216e-01,9.700000000000044142e-01,5.700000000000067235e-01,-8.799999999999963407e-01,-7.099999999999970779e-01,-4.699999999999986411e-01,-1.000000000000000000e+00,-8.499999999999989786e-01,-2.799999999999975842e-01,-1.000000000000000000e+00,-8.999999999999830358e-02,-1.000000000000000000e+00,-1.099999999999947686e-01,-3.199999999999949551e-01,3.600000000000029843e-01,-1.000000000000000000e+00,-7.599999999999980105e-01,-1.000000000000000000e+00,-4.399999999999986144e-01,-1.000000000000000000e+00,-6.399999999999943512e-01,-3.399999999999985256e-01,-1.000000000000000000e+00,-5.599999999999987210e-01,-1.000000000000000000e+00,-3.299999999999914113e-01,-5.199999999999977973e-01,2.100000000000099565e-01,5.800000000000085087e-01,-1.000000000000000000e+00,1.400000000000036771e-01
5.600000000000040501e-01,-1.000000000000000000e+00,1.900000000000054978e-01,-1.000000000000000000e+00,9.800000000000079758e-01,-1.000000000000000000e+00,1.500000000000027978e-01,-7.699999999999989075e-01,2.000000000000055067e-01,-2.299999999999984279e-01,-3.199999999999985079e-01,-1.000000000000000000e+00,-2.899999999999958167e-01,-1.000000000000000000e+00,-4.099999999999968114e-01,-1.000000000000000000e+00,-1.000000000000000000e+00,-1.199999999999974420e-01,-1.000000000000000000e+00,-1.999999999999939604e-01,3.000000000000269118e-02,-4.599999999999977440e-01,8.200000000000096101e-01,1.200000000000045475e-01,-9.199999999999928235e-01,5.500000000000084821e-01,-4.599999999999941913e-01,9.100000000000043610e-01,-1.000000000000000000e+00,3.200000000000029488e-01,7.000000000000450306e-02,-2.999999999999984901e-01,-9.299999999999963851e-01,-1.000000000000000000e+00,-1.000000000000000000e+00,1.400000000000063416e-01,-7.499999999999988898e-01,-8.099999999999989431e-01,-1.000000000000000000e+00,-2.499999999999913403e-01,-7.199999999999979750e-01,-1.000000000000000000e+00,-5.499999999999960476e-01,-1.000000000000000000e+00,-1.000000000000000000e+00,-1.000000000000000000e+00,-8.199999999999962874e-01,3.400000000000047429e-01,-2.399999999999966604e-01,5.700000000000067235e-01,-8.799999999999963407e-01,-7.999999999999971578e-01,-1.000000000000000000e+00,-1.000000000000000000e+00,-9.299999999999990496e-01,-3.799999999999967848e-01,-8.299999999999962963e-01,1.100000000000027622e-01,-1.000000000000000000e+00,-4.999999999999951150e-01,-1.899999999999930633e-01,-5.499999999999987121e-01,-1.000000000000000000e+00,-8.699999999999954436e-01,-5.599999999999987210e-01,-1.000000000000000000e+00,9.800000000000061995e-01,-6.499999999999934719e-01,-3.399999999999985256e-01,-8.899999999999990141e-01,-1.000000000000000000e+00,-1.000000000000000000e+00,3.000000000000100364e-01,-5.199999999999977973e-01,3.400000000000109601e-01,-1.099999999999912159e-01,-1.000000000000000000e+00,-9.999999999997344347e-03
5.600000000000040501e-01,-1.000000000000000000e+00,7.600000000000051159e-01,-1.000000000000000000e+00,9.900000000000079847e-01,-1.000000000000000000e+00,1.500000000000027978e-01,-1.000000000000000000e+00,4.300000000000030465e-01,-2.299999999999984279e-01,-3.199999999999985079e-01,-1.000000000000000000e+00,1.800000000000046008e-01,-8.299999999999962963e-01,-9.999999999997344347e-03,-1.000000000000000000e+00,-8.499999999999989786e-01,7.000000000000050626e-01,-1.000000000000000000e+00,-1.999999999999939604e-01,-9.999999999998232525e-03,3.000000000000269118e-02,8.100000000000104894e-01,1.200000000000045475e-01,3.700000000000083222e-01,5.500000000000084821e-01,-8.299999999999962963e-01,9.100000000000043610e-01,-7.499999999999988898e-01,3.200000000000029488e-01,1.400000000000045652e-01,-1.000000000000000000e+00,-9.299999999999963851e-01,-1.000000000000000000e+00,-1.000000000000000000e+00,1.400000000000063416e-01,-7.499999999999988898e-01,-1.000000000000000000e+00,-1.000000000000000000e+00,-2.499999999999913403e-01,-7.199999999999979750e-01,-1.000000000000000000e+00,-5.499999999999960476e-01,-1.000000000000000000e+00,-1.000000000000000000e+00,-1.000000000000000000e+00,-4.199999999999968203e-01,-6.199999999999952216e-01,-1.000000000000000000e+00,1.000000000000622613e-02,-8.799999999999963407e-01,4.200000000000039257e-01,-1.000000000000000000e+00,-1.000000000000000000e+00,-8.499999999999989786e-01,-3.799999999999967848e-01,-1.000000000000000000e+00,1.100000000000027622e-01,-1.000000000000000000e+00,-2.499999999999957812e-01,-3.199999999999949551e-01,-5.499999999999987121e-01,-1.000000000000000000e+00,-7.599999999999980105e-01,-1.000000000000000000e+00,-1.000000000000000000e+00,9.800000000000061995e-01,-6.499999999999934719e-01,-1.000000000000000000e+00,-1.000000000000000000e+00,-1.000000000000000000e+00,-1.000000000000000000e+00,-3.299999999999914113e-01,-5.199999999999977973e-01,2.100000000000099565e-01,-1.099999999999912159e-01,-1.000000000000000000e+00,-7.499999999999971134e-01
5.600000000000040501e-01,-1.000000000000000000e+00,7.600000000000051159e-01,-1.000000000000000000e+00,9.800000000000079758e-01,-1.000000000000000000e+00,1.500000000000027978e-01,-1.599999999999983658e-01,4.300000000000030465e-01,-2.299999999999984279e-01,-3.199999999999985079e-01,-1.000000000000000000e+00,1.800000000000046008e-01,-4.199999999999968203e-01,1.200000000000027711e-01,-1.000000000000000000e+00,-8.199999999999971756e-01,7.000000000000050626e-01,-7.299999999999988720e-01,1.700000000000054801e-01,-9.999999999998232525e-03,3.000000000000269118e-02,8.200000000000096101e-01,1.200000000000045475e-01,-1.000000000000000000e+00,5.500000000000084821e-01,-1.899999999999930633e-01,9.100000000000043610e-01,-1.000000000000000000e+00,-4.199999999999968203e-01,-6.999999999999988454e-01,-2.999999999999984901e-01,-9.299999999999963851e-01,-1.000000000000000000e+00,-1.000000000000000000e+00,1.400000000000063416e-01,-7.499999999999988898e-01,-8.099999999999989431e-01,-1.000000000000000000e+00,-2.199999999999904254e-01,7.900000000000060307e-01,-1.000000000000000000e+00,-5.499999999999960476e-01,-6.299999999999987832e-01,-1.000000000000000000e+00,-1.000000000000000000e+00,-4.199999999999968203e-01,-7.599999999999944578e-01,-1.000000000000000000e+00,1.000000000000622613e-02,-8.799999999999963407e-01,-4.499999999999977351e-01,-6.699999999999970424e-01,-1.000000000000000000e+00,-8.499999999999989786e-01,3.700000000000047695e-01,-8.299999999999962963e-01,-8.999999999999830358e-02,-4.299999999999977174e-01,-2.499999999999957812e-01,-1.000000000000000000e+00,-7.299999999999979838e-01,-1.000000000000000000e+00,-8.399999999999963052e-01,-1.000000000000000000e+00,-1.000000000000000000e+00,9.800000000000061995e-01,-1.000000000000000000e+00,-2.099999999999984102e-01,-8.899999999999990141e-01,-5.599999999999987210e-01,-1.000000000000000000e+00,-3.299999999999914113e-01,-5.199999999999977973e-01,2.100000000000099565e-01,5.800000000000085087e-01,-1.000000000000000000e+00,-7.499999999999971134e-01
8.300000000000051781e-01,-1.000000000000000000e+00,7.600000000000051159e-01,-2.999999999999984901e-01,1.900000000000081624e-01,-1.000000000000000000e+00,1.500000000000027978e-01,-1.599999999999983658e-01,2.000000000000055067e-01,-2.299999999999984279e-01,-9.199999999999981526e-01,-1.000000000000000000e+00,-5.299999999999951417e-01,-4.199999999999968203e-01,2.800000000000038014e-01,8.100000000000033840e-01,-1.000000000000000000e+00,1.000000000000356160e-02,-5.599999999999987210e-01,1.700000000000054801e-01,-9.999999999998232525e-03,3.000000000000269118e-02,3.200000000000100542e-01,1.200000000000045475e-01,-5.399999999999933742e-01,5.500000000000084821e-01,-1.199999999999938893e-01,9.100000000000043610e-01,-1.000000000000000000e+00,3.200000000000029488e-01,-1.000000000000000000e+00,-1.000000000000000000e+00,-9.299999999999963851e-01,-1.000000000000000000e+00,-1.000000000000000000e+00,1.400000000000063416e-01,-1.000000000000000000e+00,-8.099999999999989431e-01,-1.000000000000000000e+00,-6.499999999999916955e-01,-1.199999999999956657e-01,4.800000000000030909e-01,-5.499999999999960476e-01,-1.000000000000000000e+00,-1.299999999999983391e-01,-1.000000000000000000e+00,-4.199999999999968203e-01,-3.999999999999470646e-02,9.000000000000274447e-02,8.000000000000628830e-02,-8.799999999999963407e-01,4.200000000000039257e-01,1.000000000000027534e-01,-1.000000000000000000e+00,-4.999999999999826805e-02,3.700000000000047695e-01,-8.299999999999962963e-01,-8.999999999999830358e-02,-3.499999999999985345e-01,-2.499999999999957812e-01,-3.199999999999949551e-01,-5.499999999999987121e-01,-1.000000000000000000e+00,-8.699999999999954436e-01,-1.000000000000000000e+00,-1.000000000000000000e+00,9.800000000000061995e-01,-6.399999999999943512e-01,-3.399999999999985256e-01,-8.899999999999990141e-01,-1.000000000000000000e+00,3.400000000000029665e-01,-3.299999999999914113e-01,-1.000000000000000000e+00,-1.000000000000000000e+00,5.800000000000085087e-01,-1.000000000000000000e+00,6.800000000000041567e-01
5.600000000000040501e-01,-7.499999999999988898e-01,7.600000000000051159e-01,-1.000000000000000000e+00,9.800000000000079758e-01,-6.199999999999987743e-01,1.500000000000027978e-01,-1.000000000000000000e+00,7.400000000000068745e-01,-2.299999999999984279e-01,-1.000000000000000000e+00,-1.000000000000000000e+00,-2.899999999999958167e-01,-4.199999999999968203e-01,1.200000000000027711e-01,8.100000000000033840e-01,-1.000000000000000000e+00,7.000000000000050626e-01,-1.000000000000000000e+00,1.700000000000054801e-01,3.000000000000269118e-02,-4.599999999999977440e-01,8.200000000000096101e-01,1.200000000000045475e-01,-1.000000000000000000e+00,5.500000000000084821e-01,-4.599999999999941913e-01,9.100000000000043610e-01,-1.000000000000000000e+00,3.200000000000029488e-01,-4.699999999999986411e-01,-1.000000000000000000e+00,-9.299999999999963851e-01,-5.699999999999987299e-01,-3.299999999999985167e-01,1.400000000000063416e-01,-7.499999999999988898e-01,-8.099999999999989431e-01,-2.399999999999984368e-01,-8.999999999999119815e-02,-7.199999999999979750e-01,-3.999999999999985789e-01,7.000000000000539124e-02,-1.000000000000000000e+00,-3.099999999999984990e-01,-1.000000000000000000e+00,-8.199999999999962874e-01,-6.199999999999952216e-01,-1.000000000000000000e+00,5.700000000000067235e-01,-8.799999999999963407e-01,-4.499999999999977351e-01,9.900000000000044320e-01,-1.000000000000000000e+00,-4.999999999999826805e-02,-3.799999999999967848e-01,-1.000000000000000000e+00,-8.999999999999830358e-02,-1.000000000000000000e+00,-2.499999999999957812e-01,-3.199999999999949551e-01,-7.299999999999979838e-01,-1.000000000000000000e+00,-8.699999999999954436e-01,-1.000000000000000000e+00,-1.000000000000000000e+00,9.800000000000061995e-01,-6.399999999999943512e-01,-1.000000000000000000e+00,-8.899999999999990141e-01,-1.000000000000000000e+00,-1.799999999999983835e-01,-3.299999999999914113e-01,-5.199999999999977973e-01,2.100000000000099565e-01,5.800000000000085087e-01,-1.000000000000000000e+00,1.400000000000036771e-01
-2.599999999999957900e-01,-1.000000000000000000e+00,7.600000000000051159e-01,-2.699999999999984635e-01,9.800000000000079758e-01,-1.000000000000000000e+00,1.500000000000027978e-01,-1.599999999999983658e-01,2.000000000000055067e-01,-2.299999999999984279e-01,-6.599999999999979217e-01,-1.000000000000000000e+00,-2.899999999999958167e-01,-4.199999999999968203e-01,1.200000000000027711e-01,8.100000000000033840e-01,-1.000000000000000000e+00,1.000000000000356160e-02,-1.000000000000000000e+00,1.700000000000054801e-01,3.000000000000269118e-02,-4.599999999999977440e-01,8.200000000000096101e-01,1.200000000000045475e-01,-6.999999999999828582e-02,5.500000000000084821e-01,-4.599999999999941913e-01,-1.000000000000000000e+00,-1.000000000000000000e+00,3.200000000000029488e-01,-1.000000000000000000e+00,-1.000000000000000000e+00,-9.299999999999963851e-01,-2.899999999999984812e-01,-1.000000000000000000e+00,1.400000000000063416e-01,-1.000000000000000000e+00,-1.000000000000000000e+00,-1.000000000000000000e+00,3.100000000000082689e-01,-7.199999999999979750e-01,-3.999999999999985789e-01,-5.499999999999960476e-01,-1.000000000000000000e+00,-1.000000000000000000e+00,-1.000000000000000000e+00,-1.000000000000000000e+00,2.300000000000064215e-01,9.000000000000274447e-02,8.000000000000628830e-02,-8.799999999999963407e-01,-4.499999999999977351e-01,9.900000000000044320e-01,-1.000000000000000000e+00,-1.000000000000000000e+00,-3.799999999999967848e-01,-4.599999999999950795e-01,-8.999999999999830358e-02,-1.000000000000000000e+00,-1.099999999999947686e-01,6.300000000000067768e-01,3.600000000000029843e-01,-2.099999999999984102e-01,-7.599999999999980105e-01,-1.000000000000000000e+00,-1.000000000000000000e+00,9.800000000000061995e-01,-6.399999999999943512e-01,-2.099999999999984102e-01,-8.899999999999990141e-01,-1.000000000000000000e+00,-1.000000000000000000e+00,-3.299999999999914113e-01,-5.199999999999977973e-01,2.100000000000099565e-01,-7.199999999999899813e-01,-1.000000000000000000e+00,1.400000000000036771e-01
5.600000000000040501e-01,-1.000000000000000000e+00,7.600000000000051159e-01,-1.000000000000000000e+00,9.800000000000079758e-01,-1.000000000000000000e+00,2.100000000000037392e-01,-1.000000000000000000e+00,3.500000000000065281e-01,-2.299999999999984279e-01,-1.000000000000000000e+00,-1.000000000000000000e+00,1.800000000000046008e-01,-4.199999999999968203e-01,2.800000000000038014e-01,-2.399999999999975486e-01,-8.199999999999971756e-01,7.000000000000050626e-01,-1.000000000000000000e+00,1.700000000000054801e-01,-9.999999999998232525e-03,3.000000000000269118e-02,8.200000000000096101e-01,1.200000000000045475e-01,-1.000000000000000000e+00,2.000000000000090594e-01,-4.599999999999941913e-01,9.100000000000043610e-01,-1.000000000000000000e+00,3.200000000000029488e-01,-1.000000000000000000e+00,-1.000000000000000000e+00,-9.299999999999963851e-01,-1.000000000000000000e+00,-1.000000000000000000e+00,1.400000000000063416e-01,-7.499999999999988898e-01,-8.099999999999989431e-01,6.200000000000032152e-01,-2.199999999999904254e-01,-1.199999999999956657e-01,-1.000000000000000000e+00,-3.699999999999949996e-01,-1.000000000000000000e+00,-1.000000000000000000e+00,-1.000000000000000000e+00,-4.199999999999968203e-01,-3.999999999999470646e-02,-1.000000000000000000e+00,1.000000000000622613e-02,-8.799999999999963407e-01,4.200000000000039257e-01,5.900000000000040767e-01,-1.000000000000000000e+00,-8.499999999999989786e-01,-2.799999999999975842e-01,-1.000000000000000000e+00,-8.999999999999830358e-02,-1.000000000000000000e+00,-2.499999999999957812e-01,-3.199999999999949551e-01,-5.499999999999987121e-01,-1.000000000000000000e+00,-7.599999999999980105e-01,-1.000000000000000000e+00,-1.000000000000000000e+00,9.800000000000061995e-01,-6.399999999999943512e-01,-1.000000000000000000e+00,-1.000000000000000000e+00,-5.599999999999987210e-01,-1.000000000000000000e+00,-3.299999999999914113e-01,-5.199999999999977973e-01,2.100000000000099565e-01,5.800000000000085087e-01,-1.000000000000000000e+00,-9.999999999997344347e-03
5.600000000000040501e-01,-1.000000000000000000e+00,7.600000000000051159e-01,-1.000000000000000000e+00,9.900000000000079847e-01,-1.000000000000000000e+00,1.500000000000027978e-01,-1.000000000000000000e+00,2.000000000000055067e-01,-2.299999999999984279e-01,-1.000000000000000000e+00,-1.000000000000000000e+00,-2.899999999999958167e-01,-4.199999999999968203e-01,-8.699999999999972200e-01,-1.000000000000000000e+00,-8.199999999999971756e-01,-1.599999999999965894e-01,-1.000000000000000000e+00,-1.999999999999939604e-01,7.000000000000272671e-02,3.000000000000269118e-02,8.200000000000096101e-01,1.200000000000045475e-01,-1.000000000000000000e+00,5.500000000000084821e-01,-8.299999999999962963e-01,9.200000000000052580e-01,-1.000000000000000000e+00,3.200000000000029488e-01,-4.699999999999986411e-01,-2.999999999999984901e-01,-1.000000000000000000e+00,-5.699999999999987299e-01,-1.000000000000000000e+00,1.400000000000063416e-01,-7.499999999999988898e-01,-1.000000000000000000e+00,-1.000000000000000000e+00,-2.499999999999913403e-01,-7.199999999999979750e-01,-1.000000000000000000e+00,-5.499999999999960476e-01,-1.000000000000000000e+00,-1.000000000000000000e+00,-1.000000000000000000e+00,-8.199999999999962874e-01,3.400000000000047429e-01,-1.000000000000000000e+00,8.200000000000078337e-01,-8.799999999999963407e-01,-1.000000000000000000e+00,9.900000000000044320e-01,-1.000000000000000000e+00,-4.999999999999826805e-02,-3.799999999999967848e-01,-1.000000000000000000e+00,-8.999999999999830358e-02,-1.000000000000000000e+00,-2.499999999999957812e-01,4.900000000000066525e-01,-5.499999999999987121e-01,-1.000000000000000000e+00,-1.000000000000000000e+00,-1.000000000000000000e+00,-1.000000000000000000e+00,9.800000000000061995e-01,-6.499999999999934719e-01,-1.000000000000000000e+00,-8.899999999999990141e-01,-1.000000000000000000e+00,-1.799999999999983835e-01,-3.299999999999914113e-01,-5.199999999999977973e-01,2.100000000000099565e-01,-1.099999999999912159e-01,-1.000000000000000000e+00,-5.699999999999960654e-01
5.600000000000040501e-01,-1.000000000000000000e+00,1.900000000000054978e-01,-1.000000000000000000e+00,9.900000000000079847e-01,-1.000000000000000000e+00,8.300000000000042899e-01,-1.000000000000000000e+00,2.000000000000055067e-01,-2.299999999999984279e-01,-3.199999999999985079e-01,-1.000000000000000000e+00,1.800000000000046008e-01,-4.199999999999968203e-01,-3.799999999999967848e-01,-2.399999999999975486e-01,-8.199999999999971756e-01,-1.199999999999974420e-01,-1.000000000000000000e+00,-1.999999999999939604e-01,9.000000000000274447e-02,3.000000000000269118e-02,8.200000000000096101e-01,1.200000000000045475e-01,-5.399999999999933742e-01,5.500000000000084821e-01,-4.599999999999941913e-01,9.100000000000043610e-01,-1.000000000000000000e+00,-1.000000000000000000e+00,-6.999999999999988454e-01,-2.999999999999984901e-01,-9.299999999999963851e-01,-1.000000000000000000e+00,-1.000000000000000000e+00,-8.499999999999936495e-01,-1.000000000000000000e+00,-8.099999999999989431e-01,-2.399999999999984368e-01,-2.499999999999913403e-01,-1.199999999999956657e-01,-1.000000000000000000e+00,-5.499999999999960476e-01,-1.000000000000000000e+00,-1.000000000000000000e+00,-2.799999999999984723e-01,-2.699999999999957989e-01,3.400000000000047429e-01,-1.000000000000000000e+00,1.000000000000622613e-02,-4.899999999999951061e-01,4.200000000000039257e-01,-4.699999999999986411e-01,-1.000000000000000000e+00,-9.299999999999990496e-01,-3.799999999999967848e-01,-1.000000000000000000e+00,1.100000000000027622e-01,-4.299999999999977174e-01,-2.499999999999957812e-01,-1.000000000000000000e+00,-5.499999999999987121e-01,-1.000000000000000000e+00,-7.599999999999980105e-01,-1.000000000000000000e+00,-1.000000000000000000e+00,9.800000000000061995e-01,-6.499999999999934719e-01,-1.000000000000000000e+00,-1.000000000000000000e+00,-5.599999999999987210e-01,-1.000000000000000000e+00,-3.299999999999914113e-01,-5.199999999999977973e-01,2.100000000000099565e-01,5.800000000000085087e-01,-1.000000000000000000e+00,-7.499999999999971134e-01
5.600000000000040501e-01,-1.000000000000000000e+00,7.600000000000051159e-01,-1.000000000000000000e+00,5.300000000000084643e-01,-1.000000000000000000e+00,1.500000000000027978e-01,-1.000000000000000000e+00,2.000000000000055067e-01,-2.299999999999984279e-01,-7.499999999999980016e-01,-1.000000000000000000e+00,-2.899999999999958167e-01,-4.199999999999968203e-01,-8.799999999999972289e-01,-2.399999999999975486e-01,-7.999999999999962697e-01,1.000000000000356160e-02,-1.000000000000000000e+00,1.700000000000054801e-01,-9.999999999998232525e-03,3.000000000000269118e-02,8.200000000000096101e-01,1.200000000000045475e-01,-5.399999999999933742e-01,5.500000000000084821e-01,-4.599999999999941913e-01,9.100000000000043610e-01,-1.000000000000000000e+00,3.200000000000029488e-01,-6.999999999999988454e-01,-1.000000000000000000e+00,-2.599999999999949019e-01,-1.000000000000000000e+00,-1.000000000000000000e+00,1.400000000000063416e-01,-4.799999999999986500e-01,-1.000000000000000000e+00,-1.000000000000000000e+00,3.100000000000082689e-01,-1.199999999999956657e-01,-3.999999999999985789e-01,-5.499999999999960476e-01,-1.000000000000000000e+00,-1.000000000000000000e+00,-1.000000000000000000e+00,-9.999999999999564793e-02,6.000000000000627054e-02,-1.000000000000000000e+00,-9.999999999994679811e-03,-8.799999999999963407e-01,4.200000000000039257e-01,-4.699999999999986411e-01,-1.000000000000000000e+00,-8.499999999999989786e-01,-2.799999999999975842e-01,-1.000000000000000000e+00,-8.999999999999830358e-02,-4.299999999999977174e-01,-2.499999999999957812e-01,-3.199999999999949551e-01,7.600000000000042277e-01,-1.000000000000000000e+00,-7.599999999999980105e-01,-1.000000000000000000e+00,-5.699999999999987299e-01,9.800000000000061995e-01,-6.399999999999943512e-01,-2.099999999999984102e-01,-1.000000000000000000e+00,-5.599999999999987210e-01,-1.000000000000000000e+00,-3.299999999999914113e-01,-5.199999999999977973e-01,2.100000000000099565e-01,1.600000000000099121e-01,-1.000000000000000000e+00,1.400000000000036771e-01
5.600000000000040501e-01,-1.000000000000000000e+00,7.600000000000051159e-01,-1.000000000000000000e+00,5.300000000000084643e-01,-1.000000000000000000e+00,1.500000000000027978e-01,-1.899999999999983924e-01,2.000000000000055067e-01,-2.299999999999984279e-01,-5.899999999999987477e-01,-1.000000000000000000e+00,1.800000000000046008e-01,-4.199999999999968203e-01,1.200000000000027711e-01,-2.399999999999975486e-01,-8.199999999999971756e-01,1.000000000000356160e-02,-1.000000000000000000e+00,-2.299999999999939870e-01,-9.999999999998232525e-03,3.000000000000269118e-02,8.200000000000096101e-01,1.200000000000045475e-01,-1.000000000000000000e+00,5.500000000000084821e-01,-4.599999999999941913e-01,5.500000000000049294e-01,-1.000000000000000000e+00,3.200000000000029488e-01,-6.999999999999988454e-01,-2.999999999999984901e-01,-9.299999999999963851e-01,-1.000000000000000000e+00,-1.000000000000000000e+00,1.400000000000063416e-01,-1.000000000000000000e+00,-8.099999999999989431e-01,-2.399999999999984368e-01,3.100000000000082689e-01,-1.199999999999956657e-01,-1.000000000000000000e+00,-5.499999999999960476e-01,-9.999999999998232525e-03,-1.000000000000000000e+00,-1.000000000000000000e+00,-4.199999999999968203e-01,1.500000000000063505e-01,-1.000000000000000000e+00,1.000000000000622613e-02,-4.599999999999950795e-01,4.200000000000039257e-01,-7.999999999999971578e-01,-1.000000000000000000e+00,-8.499999999999989786e-01,3.700000000000047695e-01,-1.000000000000000000e+00,-8.999999999999830358e-02,-1.000000000000000000e+00,-2.499999999999957812e-01,-3.199999999999949551e-01,-5.499999999999987121e-01,-1.000000000000000000e+00,-5.299999999999969180e-01,-1.000000000000000000e+00,-6.999999999999739764e-02,9.800000000000061995e-01,-9.899999999999991029e-01,-1.000000000000000000e+00,-8.899999999999990141e-01,-5.599999999999987210e-01,-1.000000000000000000e+00,-3.299999999999914113e-01,-1.000000000000000000e+00,2.100000000000099565e-01,-1.099999999999912159e-01,-1.000000000000000000e+00,-7.499999999999971134e-01
5.600000000000040501e-01,-1.000000000000000000e+00,7.600000000000051159e-01,-1.000000000000000000e+00,9.800000000000079758e-01,-1.000000000000000000e+00,1.500000000000027978e-01,-1.599999999999983658e-01,2.000000000000055067e-01,-2.299999999999984279e-01,-3.199999999999985079e-01,-1.000000000000000000e+00,-2.899999999999958167e-01,-4.199999999999968203e-01,-5.599999999999987210e-01,-2.399999999999975486e-01,-1.000000000000000000e+00,1.000000000000356160e-02,-1.000000000000000000e+00,1.700000000000054801e-01,-9.999999999998232525e-03,-4.599999999999977440e-01,8.200000000000096101e-01,1.200000000000045475e-01,-1.000000000000000000e+00,-1.000000000000000000e+00,-3.199999999999931788e-01,2.600000000000046718e-01,-1.000000000000000000e+00,3.200000000000029488e-01,-7.499999999999988898e-01,-1.000000000000000000e+00,-9.299999999999963851e-01,-2.899999999999984812e-01,-3.999999999999737099e-02,2.200000000000073008e-01,-1.000000000000000000e+00,-1.099999999999974332e-01,-1.000000000000000000e+00,3.100000000000082689e-01,-1.199999999999956657e-01,4.800000000000030909e-01,-7.199999999999953104e-01,-1.000000000000000000e+00,-1.000000000000000000e+00,-1.000000000000000000e+00,-8.199999999999962874e-01,-3.999999999999470646e-02,9.000000000000274447e-02,8.000000000000628830e-02,-8.799999999999963407e-01,-1.000000000000000000e+00,1.000000000000027534e-01,-1.000000000000000000e+00,-4.999999999999826805e-02,3.700000000000047695e-01,-8.299999999999962963e-01,-1.899999999999975042e-01,-1.000000000000000000e+00,-2.499999999999957812e-01,-1.000000000000000000e+00,-5.499999999999987121e-01,-1.000000000000000000e+00,-7.599999999999980105e-01,-1.000000000000000000e+00,-1.000000000000000000e+00,9.800000000000061995e-01,-1.000000000000000000e+00,-3.399999999999985256e-01,-8.899999999999990141e-01,-1.000000000000000000e+00,-1.000000000000000000e+00,-3.299999999999914113e-01,-1.000000000000000000e+00,2.100000000000099565e-01,1.600000000000099121e-01,-8.199999999999989519e-01,-9.999999999997344347e-03
5.600000000000040501e-01,-1.000000000000000000e+00,7.600000000000051159e-01,-1.000000000000000000e+00,-1.000000000000000000e+00,-1.000000000000000000e+00,1.500000000000027978e-01,-1.000000000000000000e+00,2.000000000000055067e-01,-2.299999999999984279e-01,-1.000000000000000000e+00,-1.000000000000000000e+00,1.800000000000046008e-01,-4.199999999999968203e-01,1.200000000000027711e-01,8.100000000000033840e-01,-1.000000000000000000e+00,1.000000000000356160e-02,-1.000000000000000000e+00,1.700000000000054801e-01,3.000000000000269118e-02,3.000000000000269118e-02,8.200000000000096101e-01,1.200000000000045475e-01,-1.000000000000000000e+00,5.500000000000084821e-01,-4.599999999999941913e-01,9.100000000000043610e-01,-1.000000000000000000e+00,-3.499999999999967581e-01,-9.999999999998232525e-03,-1.000000000000000000e+00,-9.299999999999963851e-01,-4.799999999999986500e-01,-1.000000000000000000e+00,1.400000000000063416e-01,-7.499999999999988898e-01,-8.099999999999989431e-01,-1.000000000000000000e+00,-2.199999999999904254e-01,-1.199999999999956657e-01,-1.000000000000000000e+00,-5.499999999999960476e-01,-1.000000000000000000e+00,-1.000000000000000000e+00,-1.000000000000000000e+00,-4.199999999999968203e-01,-6.199999999999952216e-01,9.000000000000274447e-02,1.000000000000622613e-02,-1.399999999999947953e-01,4.200000000000039257e-01,-4.699999999999986411e-01,-1.000000000000000000e+00,-4.999999999999826805e-02,-2.799999999999975842e-01,-8.299999999999962963e-01,-8.999999999999830358e-02,-1.000000000000000000e+00,-2.499999999999957812e-01,-3.199999999999949551e-01,-1.999999999999975131e-01,-1.000000000000000000e+00,-7.599999999999980105e-01,-1.000000000000000000e+00,-1.000000000000000000e+00,9.800000000000061995e-01,-6.399999999999943512e-01,-1.000000000000000000e+00,-8.899999999999990141e-01,-8.599999999999980993e-01,3.400000000000029665e-01,-5.599999999999907274e-01,-5.199999999999977973e-01,2.100000000000099565e-01,5.800000000000085087e-01,-1.000000000000000000e+00,-9.999999999997344347e-03
5.600000000000040501e-01,-1.000000000000000000e+00,1.900000000000054978e-01,-1.000000000000000000e+00,7.700000000000086775e-01,-1.000000000000000000e+00,1.500000000000027978e-01,-1.000000000000000000e+00,2.000000000000055067e-01,-2.299999999999984279e-01,5.600000000000031619e-01,-1.000000000000000000e+00,-2.899999999999958167e-01,-4.199999999999968203e-01,-4.999999999999560352e-02,-1.000000000000000000e+00,-1.000000000000000000e+00,-1.199999999999974420e-01,-1.000000000000000000e+00,1.700000000000054801e-01,-4.999999999999560352e-02,3.000000000000269118e-02,8.200000000000096101e-01,1.200000000000045475e-01,-5.399999999999933742e-01,5.500000000000084821e-01,-1.199999999999938893e-01,9.100000000000043610e-01,-1.000000000000000000e+00,3.200000000000029488e-01,-1.000000000000000000e+00,-1.000000000000000000e+00,-9.299999999999963851e-01,-5.999999999999827693e-02,-1.000000000000000000e+00,1.400000000000063416e-01,-7.499999999999988898e-01,-1.000000000000000000e+00,-1.000000000000000000e+00,3.100000000000082689e-01,-1.199999999999956657e-01,-3.999999999999985789e-01,-5.499999999999960476e-01,-1.000000000000000000e+00,-1.000000000000000000e+00,-1.000000000000000000e+00,-8.199999999999962874e-01,-3.999999999999470646e-02,9.000000000000274447e-02,8.000000000000628830e-02,-8.799999999999963407e-01,-9.399999999999972822e-01,-4.699999999999986411e-01,-1.000000000000000000e+00,-4.999999999999826805e-02,-3.799999999999967848e-01,-1.099999999999965450e-01,-8.999999999999830358e-02,-5.799999999999978506e-01,-2.499999999999957812e-01,6.217248937900876626e-15,-5.499999999999987121e-01,-1.000000000000000000e+00,-7.599999999999980105e-01,-1.000000000000000000e+00,-1.000000000000000000e+00,9.800000000000061995e-01,-6.399999999999943512e-01,-3.399999999999985256e-01,-1.000000000000000000e+00,-5.599999999999987210e-01,-1.000000000000000000e+00,-3.299999999999914113e-01,-1.000000000000000000e+00,2.100000000000099565e-01,5.800000000000085087e-01,-1.000000000000000000e+00,-9.999999999997344347e-03
5.600000000000040501e-01,-1.000000000000000000e+00,7.600000000000051159e-01,-1.000000000000000000e+00,9.800000000000079758e-01,-1.000000000000000000e+00,1.500000000000027978e-01,-1.000000000000000000e+00,7.400000000000068745e-01,-2.299999999999984279e-01,-3.199999999999985079e-01,-1.000000000000000000e+00,-2.899999999999958167e-01,-4.199999999999968203e-01,1.200000000000027711e-01,-2.399999999999975486e-01,-1.000000000000000000e+00,-1.199999999999974420e-01,-1.000000000000000000e+00,1.700000000000054801e-01,3.000000000000269118e-02,-4.599999999999977440e-01,8.200000000000096101e-01,3.000000000000055955e-01,-5.399999999999933742e-01,5.500000000000084821e-01,-3.199999999999931788e-01,9.100000000000043610e-01,-1.000000000000000000e+00,-4.799999999999968736e-01,-7.499999999999988898e-01,-2.999999999999984901e-01,-9.299999999999963851e-01,3.000000000000029310e-01,-1.000000000000000000e+00,1.400000000000063416e-01,-1.000000000000000000e+00,-1.000000000000000000e+00,-1.000000000000000000e+00,3.100000000000082689e-01,8.000000000000362377e-02,-3.999999999999985789e-01,4.300000000000057110e-01,-1.000000000000000000e+00,-1.000000000000000000e+00,-1.000000000000000000e+00,-8.199999999999962874e-01,3.400000000000047429e-01,9.000000000000274447e-02,8.000000000000628830e-02,-8.799999999999963407e-01,-9.399999999999972822e-01,-4.699999999999986411e-01,-1.000000000000000000e+00,-8.499999999999989786e-01,-3.799999999999967848e-01,-1.099999999999965450e-01,-8.999999999999830358e-02,-5.799999999999978506e-01,-2.499999999999957812e-01,-3.199999999999949551e-01,-5.499999999999987121e-01,-1.000000000000000000e+00,-7.599999999999980105e-01,-1.000000000000000000e+00,-5.699999999999987299e-01,9.800000000000061995e-01,-1.000000000000000000e+00,-2.099999999999984102e-01,-8.899999999999990141e-01,-4.499999999999986233e-01,-1.000000000000000000e+00,-3.299999999999914113e-01,-1.000000000000000000e+00,2.100000000000099565e-01,8.200000000000113864e-01,-1.000000000000000000e+00,1.400000000000036771e-01
5.600000000000040501e-01,-1.000000000000000000e+00,7.600000000000051159e-01,-1.000000000000000000e+00,1.900000000000081624e-01,-1.000000000000000000e+00,1.500000000000027978e-01,-2.099999999999975220e-01,-6.399999999999943512e-01,-2.299999999999984279e-01,3.300000000000029576e-01,-1.000000000000000000e+00,-2.899999999999958167e-01,-4.199999999999968203e-01,1.200000000000027711e-01,8.100000000000033840e-01,-1.000000000000000000e+00,1.000000000000356160e-02,-5.599999999999987210e-01,-2.299999999999939870e-01,-9.999999999998232525e-03,-3.999999999999648281e-02,3.200000000000100542e-01,-7.899999999999953726e-01,-5.399999999999933742e-01,5.500000000000084821e-01,-8.299999999999962963e-01,9.100000000000043610e-01,-1.000000000000000000e+00,3.200000000000029488e-01,-1.000000000000000000e+00,-1.000000000000000000e+00,-8.699999999999954436e-01,-1.000000000000000000e+00,-2.199999999999984190e-01,1.400000000000063416e-01,-1.000000000000000000e+00,-8.099999999999989431e-01,-1.000000000000000000e+00,3.100000000000082689e-01,-1.199999999999956657e-01,4.800000000000030909e-01,-1.000000000000000000e+00,-1.000000000000000000e+00,-1.000000000000000000e+00,-1.999999999999984013e-01,-4.199999999999968203e-01,3.400000000000047429e-01,-1.000000000000000000e+00,8.000000000000628830e-02,-8.799999999999963407e-01,-1.000000000000000000e+00,2.500000000000037748e-01,-1.000000000000000000e+00,-4.999999999999826805e-02,3.700000000000047695e-01,-8.299999999999962963e-01,-8.999999999999830358e-02,-1.000000000000000000e+00,-2.499999999999957812e-01,-1.000000000000000000e+00,-5.499999999999987121e-01,-1.000000000000000000e+00,-8.399999999999963052e-01,-1.000000000000000000e+00,-1.000000000000000000e+00,9.800000000000061995e-01,-1.000000000000000000e+00,-3.399999999999985256e-01,-8.899999999999990141e-01,-1.000000000000000000e+00,-1.000000000000000000e+00,-3.299999999999914113e-01,-1.000000000000000000e+00,2.100000000000099565e-01,-1.099999999999912159e-01,-1.000000000000000000e+00,-9.999999999997344347e-03
5.600000000000040501e-01,-1.000000000000000000e+00,7.600000000000051159e-01,-1.000000000000000000e+00,9.800000000000079758e-01,-1.000000000000000000e+00,-1.000000000000000000e+00,-1.000000000000000000e+00,7.400000000000068745e-01,-2.299999999999984279e-01,-6.599999999999979217e-01,-1.000000000000000000e+00,-2.899999999999958167e-01,-1.000000000000000000e+00,2.800000000000038014e-01,-2.399999999999975486e-01,-1.000000000000000000e+00,7.000000000000050626e-01,-1.000000000000000000e+00,1.700000000000054801e-01,3.000000000000269118e-02,-4.599999999999977440e-01,8.200000000000096101e-01,-3.399999999999949729e-01,-1.000000000000000000e+00,5.500000000000084821e-01,-3.199999999999931788e-01,9.100000000000043610e-01,-1.000000000000000000e+00,3.200000000000029488e-01,-1.000000000000000000e+00,-1.000000000000000000e+00,-9.299999999999963851e-01,-2.899999999999984812e-01,-1.000000000000000000e+00,1.400000000000063416e-01,-1.000000000000000000e+00,-8.099999999999989431e-01,-1.000000000000000000e+00,3.100000000000082689e-01,8.000000000000362377e-02,4.800000000000030909e-01,-5.499999999999960476e-01,-1.000000000000000000e+00,-1.000000000000000000e+00,-1.000000000000000000e+00,-4.199999999999968203e-01,-6.199999999999952216e-01,9.700000000000044142e-01,5.700000000000067235e-01,-8.799999999999963407e-01,-7.099999999999970779e-01,-9.199999999999981526e-01,-1.000000000000000000e+00,-8.499999999999989786e-01,-3.799999999999967848e-01,-1.000000000000000000e+00,2.664535259100375697e-15,-4.299999999999977174e-01,-1.099999999999947686e-01,-3.199999999999949551e-01,-5.499999999999987121e-01,-1.000000000000000000e+00,-7.599999999999980105e-01,-1.000000000000000000e+00,-1.000000000000000000e+00,9.800000000000061995e-01,3.100000000000073808e-01,-3.399999999999985256e-01,-8.899999999999990141e-01,-1.000000000000000000e+00,-1.000000000000000000e+00,-3.299999999999914113e-01,-5.199999999999977973e-01,2.100000000000099565e-01,5.800000000000085087e-01,-1.000000000000000000e+00,1.400000000000036771e-01
5.600000000000040501e-01,-1.000000000000000000e+00,1.900000000000054978e-01,-1.000000000000000000e+00,9.800000000000079758e-01,-1.000000000000000000e+00,1.500000000000027978e-01,-1.000000000000000000e+00,2.000000000000055067e-01,-2.299999999999984279e-01,-3.199999999999985079e-01,-6.699999999999988187e-01,-2.899999999999958167e-01,-4.199999999999968203e-01,1.200000000000027711e-01,-1.000000000000000000e+00,-1.000000000000000000e+00,-1.199999999999974420e-01,-1.000000000000000000e+00,1.700000000000054801e-01,-9.999999999998232525e-03,3.000000000000269118e-02,-1.000000000000000000e+00,1.200000000000045475e-01,-5.399999999999933742e-01,5.500000000000084821e-01,-1.199999999999938893e-01,-4.999999999999560352e-02,-1.000000000000000000e+00,3.200000000000029488e-01,-1.000000000000000000e+00,-2.999999999999984901e-01,-9.299999999999963851e-01,-1.000000000000000000e+00,-6.899999999999988365e-01,7.100000000000077360e-01,-7.499999999999988898e-01,-1.000000000000000000e+00,-1.000000000000000000e+00,3.100000000000082689e-01,-1.199999999999956657e-01,4.800000000000030909e-01,-5.499999999999960476e-01,-1.000000000000000000e+00,-1.000000000000000000e+00,-1.000000000000000000e+00,-8.199999999999962874e-01,3.400000000000047429e-01,-1.000000000000000000e+00,5.700000000000067235e-01,-8.799999999999963407e-01,-9.399999999999972822e-01,-4.699999999999986411e-01,-1.000000000000000000e+00,-4.999999999999826805e-02,-2.799999999999975842e-01,-8.299999999999962963e-01,-1.499999999999965805e-01,-5.799999999999978506e-01,-2.499999999999957812e-01,-3.199999999999949551e-01,-5.499999999999987121e-01,-1.000000000000000000e+00,-7.599999999999980105e-01,-1.000000000000000000e+00,-1.000000000000000000e+00,9.800000000000061995e-01,-6.399999999999943512e-01,-3.399999999999985256e-01,-1.000000000000000000e+00,-5.599999999999987210e-01,-1.000000000000000000e+00,-3.299999999999914113e-01,-5.199999999999977973e-01,2.100000000000099565e-01,5.800000000000085087e-01,-1.000000000000000000e+00,-9.999999999997344347e-03
5.600000000000040501e-01,-1.000000000000000000e+00,1.900000000000054978e-01,-1.000000000000000000e+00,5.300000000000084643e-01,-1.000000000000000000e+00,1.500000000000027978e-01,-1.000000000000000000e+00,6.800000000000041567e-01,-2.299999999999984279e-01,-1.000000000000000000e+00,-1.000000000000000000e+00,-2.899999999999958167e-01,-4.199999999999968203e-01,1.200000000000027711e-01,-1.000000000000000000e+00,-8.199999999999971756e-01,7.000000000000050626e-01,-5.699999999999987299e-01,1.700000000000054801e-01,-4.399999999999959499e-01,3.000000000000269118e-02,8.200000000000096101e-01,1.200000000000045475e-01,-5.399999999999933742e-01,5.500000000000084821e-01,-4.599999999999941913e-01,9.100000000000043610e-01,-1.000000000000000000e+00,3.200000000000029488e-01,-6.999999999999988454e-01,-1.000000000000000000e+00,-9.299999999999963851e-01,-1.899999999999983924e-01,-6.899999999999988365e-01,1.400000000000063416e-01,-7.499999999999988898e-01,-8.099999999999989431e-01,-2.399999999999984368e-01,-2.199999999999904254e-01,-7.199999999999979750e-01,-3.999999999999985789e-01,-5.499999999999960476e-01,-1.000000000000000000e+00,-1.000000000000000000e+00,-1.000000000000000000e+00,-4.199999999999968203e-01,3.400000000000047429e-01,-1.000000000000000000e+00,8.000000000000628830e-02,-8.799999999999963407e-01,4.200000000000039257e-01,-1.000000000000000000e+00,-1.000000000000000000e+00,-6.399999999999979039e-01,-3.799999999999967848e-01,-1.099999999999965450e-01,-1.499999999999965805e-01,-5.799999999999978506e-01,-2.499999999999957812e-01,-3.199999999999949551e-01,-5.499999999999987121e-01,-1.000000000000000000e+00,-7.599999999999980105e-01,-1.000000000000000000e+00,-6.599999999999988098e-01,9.800000000000061995e-01,-1.000000000000000000e+00,-1.000000000000000000e+00,-1.999999999999984013e-01,-1.000000000000000000e+00,-1.000000000000000000e+00,-3.299999999999914113e-01,-5.199999999999977973e-01,2.100000000000099565e-01,5.800000000000085087e-01,-1.000000000000000000e+00,-7.499999999999971134e-01
1.300000000000045564e-01,-1.000000000000000000e+00,1.900000000000054978e-01,-1.000000000000000000e+00,9.900000000000079847e-01,-1.000000000000000000e+00,1.500000000000027978e-01,-7.699999999999989075e-01,2.000000000000055067e-01,-2.299999999999984279e-01,-3.199999999999985079e-01,-1.000000000000000000e+00,-2.899999999999958167e-01,-4.199999999999968203e-01,1.200000000000027711e-01,-1.000000000000000000e+00,-1.000000000000000000e+00,-1.199999999999974420e-01,-1.000000000000000000e+00,-1.999999999999939604e-01,7.000000000000272671e-02,3.000000000000269118e-02,8.200000000000096101e-01,1.200000000000045475e-01,-5.399999999999933742e-01,5.500000000000084821e-01,-8.299999999999962963e-01,9.100000000000043610e-01,-1.000000000000000000e+00,3.200000000000029488e-01,-5.899999999999969713e-01,-2.999999999999984901e-01,-9.999999999999475975e-02,-1.000000000000000000e+00,-1.000000000000000000e+00,1.400000000000063416e-01,-7.499999999999988898e-01,-8.099999999999989431e-01,-1.999999999999824141e-02,-2.499999999999913403e-01,-7.199999999999979750e-01,4.800000000000030909e-01,-1.000000000000000000e+00,-1.000000000000000000e+00,-1.000000000000000000e+00,-1.000000000000000000e+00,-8.199999999999962874e-01,3.400000000000047429e-01,-1.000000000000000000e+00,8.200000000000078337e-01,-4.599999999999950795e-01,-4.899999999999968825e-01,1.000000000000027534e-01,-1.000000000000000000e+00,-9.299999999999990496e-01,-3.799999999999967848e-01,-8.299999999999962963e-01,4.000000000000270006e-02,-1.000000000000000000e+00,-2.499999999999957812e-01,-1.000000000000000000e+00,-5.499999999999987121e-01,-1.000000000000000000e+00,-8.399999999999963052e-01,-1.000000000000000000e+00,-1.000000000000000000e+00,4.200000000000065903e-01,-6.499999999999934719e-01,-1.000000000000000000e+00,-8.899999999999990141e-01,-1.000000000000000000e+00,-1.000000000000000000e+00,-3.299999999999914113e-01,-1.000000000000000000e+00,2.100000000000099565e-01,-1.099999999999912159e-01,-1.000000000000000000e+00,-7.499999999999971134e-01
5.600000000000040501e-01,-1.000000000000000000e+00,8.200000000000042810e-01,-1.000000000000000000e+00,9.900000000000079847e-01,-1.000000000000000000e+00,9.400000000000043876e-01,-1.000000000000000000e+00,2.000000000000055067e-01,-2.299999999999984279e-01,-3.199999999999985079e-01,-1.000000000000000000e+00,-2.899999999999958167e-01,-4.199999999999968203e-01,-9.999999999997344347e-03,-1.000000000000000000e+00,-8.499999999999989786e-01,1.000000000000356160e-02,-1.000000000000000000e+00,1.700000000000054801e-01,3.000000000000269118e-02,3.000000000000269118e-02,8.200000000000096101e-01,1.200000000000045475e-01,-5.399999999999933742e-01,4.400000000000092726e-01,-4.599999999999941913e-01,9.100000000000043610e-01,-1.000000000000000000e+00,3.200000000000029488e-01,-8.199999999999980638e-01,-2.999999999999984901e-01,-9.299999999999963851e-01,-2.899999999999984812e-01,-1.000000000000000000e+00,1.400000000000063416e-01,-1.000000000000000000e+00,-8.099999999999989431e-01,-1.000000000000000000e+00,3.100000000000082689e-01,8.700000000000052136e-01,-1.000000000000000000e+00,-5.499999999999960476e-01,-1.000000000000000000e+00,-5.699999999999987299e-01,-1.000000000000000000e+00,-4.199999999999968203e-01,-6.199999999999952216e-01,-2.999999999999967137e-01,-9.999999999994679811e-03,-8.799999999999963407e-01,-2.399999999999939959e-01,1.000000000000027534e-01,-1.000000000000000000e+00,-8.499999999999989786e-01,-3.799999999999967848e-01,-1.000000000000000000e+00,8.500000000000043077e-01,-1.000000000000000000e+00,-1.099999999999947686e-01,6.400000000000076739e-01,3.600000000000029843e-01,-1.000000000000000000e+00,-7.899999999999971489e-01,-1.000000000000000000e+00,-1.000000000000000000e+00,9.800000000000061995e-01,-1.000000000000000000e+00,-1.000000000000000000e+00,-8.899999999999990141e-01,-5.599999999999987210e-01,-1.000000000000000000e+00,-3.299999999999914113e-01,-6.999999999999828582e-02,2.100000000000099565e-01,1.600000000000099121e-01,-1.000000000000000000e+00,-3.599999999999958789e-01
