-8.799999999999990052e-01,-1.000000000000000000e+00,-1.000000000000000000e+00,2.400000000000108713e-01,-6.199999999999987743e-01,-4.999999999999960032e-01,-2.399999999999984368e-01,2.900000000000055866e-01,-2.899999999999904876e-01,-7.999999999999944933e-01,8.800000000000034461e-01,1.800000000000063771e-01,5.000000000000892619e-02,-8.399999999999989697e-01,7.900000000000122480e-01,-6.399999999999943512e-01,1.200000000000063238e-01,-3.499999999999932054e-01,-1.000000000000000000e+00,-1.000000000000000000e+00,-1.000000000000000000e+00,8.100000000000113776e-01,1.000000000000098588e-01,4.800000000000057554e-01,-4.699999999999906475e-01,-3.499999999999985345e-01,2.700000000000037925e-01,1.600000000000028066e-01,2.700000000000073452e-01,-2.599999999999984546e-01,-5.899999999999863132e-01,-7.399999999999979927e-01,4.400000000000057199e-01,-7.399999999999953282e-01,-1.199999999999947775e-01,4.800000000000084199e-01,-7.199999999999944222e-01,2.700000000000144507e-01,5.300000000000066880e-01,6.600000000000076916e-01,2.400000000000046541e-01,-2.099999999999913047e-01,-1.000000000000000000e+00,5.900000000000165112e-01,-8.999999999999990230e-01,-3.599999999999905498e-01,6.800000000000032685e-01,-7.299999999999908784e-01,-4.699999999999959766e-01,7.500000000000051070e-01,-5.599999999999907274e-01,-4.499999999999968470e-01,5.100000000000075584e-01,-4.699999999999977529e-01,-9.999999999999031886e-02,-7.999999999999296563e-02,-1.000000000000000000e+00,9.700000000000070788e-01,-3.599999999999967670e-01,9.700000000000026379e-01,7.400000000000104272e-01,2.900000000000046985e-01,3.552713678800500929e-15,-1.899999999999957279e-01,-1.000000000000000000e+00,-2.199999999999948663e-01,-5.899999999999987477e-01,-1.000000000000000000e+00,5.800000000000111733e-01,9.900000000000070965e-01,-1.000000000000000000e+00,1.400000000000081180e-01,-1.000000000000000000e+00,-9.599999999999955236e-01,1.900000000000063860e-01,2.800000000000073541e-01,2.400000000000019895e-01,1.800000000000072653e-01,-6.099999999999969891e-01,-7.699999999999971312e-01,-1.799999999999948308e-01,-1.000000000000000000e+00,-7.399999999999979927e-01,8.700000000000069900e-01
-8.799999999999990052e-01,-1.000000000000000000e+00,-1.000000000000000000e+00,-1.000000000000000000e+00,-1.000000000000000000e+00,-4.999999999999960032e-01,-2.399999999999984368e-01,2.900000000000055866e-01,-9.399999999999919531e-01,2.800000000000064659e-01,8.800000000000034461e-01,-1.000000000000000000e+00,-7.099999999999926370e-01,-8.399999999999989697e-01,-1.000000000000000000e+00,-2.499999999999931166e-01,7.300000000000059774e-01,-3.499999999999932054e-01,-1.000000000000000000e+00,-1.000000000000000000e+00,-1.000000000000000000e+00,8.100000000000113776e-01,1.000000000000098588e-01,8.300000000000060663e-01,-4.699999999999906475e-01,-3.499999999999985345e-01,-2.199999999999975309e-01,1.600000000000028066e-01,2.700000000000073452e-01,-8.999999999999741540e-02,-2.799999999999851497e-01,-7.399999999999979927e-01,5.400000000000066969e-01,-1.000000000000000000e+00,-1.199999999999947775e-01,4.800000000000084199e-01,-3.599999999999941025e-01,5.100000000000155520e-01,5.300000000000066880e-01,6.600000000000076916e-01,2.400000000000046541e-01,1.300000000000081091e-01,-6.899999999999979483e-01,3.100000000000135980e-01,2.000000000000268230e-02,-3.799999999999923439e-01,6.400000000000023448e-01,-4.999999999999906741e-01,-1.399999999999956835e-01,7.500000000000051070e-01,-8.499999999999900968e-01,-7.699999999999962430e-01,5.100000000000075584e-01,-4.699999999999977529e-01,-1.599999999999903721e-01,-7.999999999999296563e-02,-1.000000000000000000e+00,9.700000000000070788e-01,-3.599999999999967670e-01,9.700000000000026379e-01,7.400000000000104272e-01,5.600000000000040501e-01,2.900000000000029221e-01,-5.599999999999951683e-01,-1.000000000000000000e+00,-5.599999999999942801e-01,-1.000000000000000000e+00,-1.000000000000000000e+00,6.400000000000103384e-01,9.900000000000070965e-01,-1.000000000000000000e+00,-3.899999999999932410e-01,4.600000000000066258e-01,-1.000000000000000000e+00,-1.899999999999930633e-01,-1.799999999999939426e-01,9.500000000000017319e-01,-4.699999999999942002e-01,-3.499999999999976463e-01,3.000000000000055955e-01,-1.799999999999948308e-01,4.900000000000048761e-01,-2.599999999999984546e-01,8.700000000000069900e-01
-8.799999999999990052e-01,-1.000000000000000000e+00,-1.000000000000000000e+00,6.000000000000982325e-02,-1.000000000000000000e+00,-4.999999999999960032e-01,-7.899999999999980371e-01,-5.599999999999942801e-01,-9.399999999999919531e-01,-1.000000000000000000e+00,3.300000000000038458e-01,-6.799999999999988276e-01,5.000000000000892619e-02,-8.399999999999989697e-01,-5.999999999998939515e-02,-1.000000000000000000e+00,9.700000000000061906e-01,-3.499999999999932054e-01,-1.000000000000000000e+00,-1.000000000000000000e+00,-1.000000000000000000e+00,8.100000000000113776e-01,-8.899999999999990141e-01,2.700000000000064571e-01,-1.000000000000000000e+00,-3.499999999999985345e-01,4.900000000000039879e-01,1.600000000000028066e-01,3.200000000000082778e-01,-8.999999999999741540e-02,-1.000000000000000000e+00,-1.399999999999983480e-01,5.400000000000066969e-01,-7.399999999999953282e-01,-1.199999999999947775e-01,4.800000000000084199e-01,-4.299999999999950528e-01,4.500000000000137224e-01,5.300000000000066880e-01,5.100000000000057820e-01,2.400000000000046541e-01,1.300000000000081091e-01,-6.899999999999979483e-01,-2.999999999999869438e-01,-3.399999999999985256e-01,-8.999999999999119815e-02,6.400000000000023448e-01,-1.299999999999894573e-01,-4.999999999999649170e-02,7.500000000000051070e-01,-8.499999999999900968e-01,-4.499999999999968470e-01,-1.000000000000000000e+00,-1.000000000000000000e+00,-9.999999999999031886e-02,-7.999999999999944933e-01,-4.699999999999986411e-01,-1.000000000000000000e+00,-3.599999999999967670e-01,-1.000000000000000000e+00,1.600000000000108002e-01,4.000000000000056843e-01,-3.999999999999825917e-02,-9.599999999999955236e-01,-1.000000000000000000e+00,-1.000000000000000000e+00,-1.000000000000000000e+00,-7.199999999999988631e-01,5.800000000000111733e-01,9.900000000000070965e-01,-1.000000000000000000e+00,-3.899999999999932410e-01,-6.999999999999926281e-01,-1.000000000000000000e+00,1.900000000000063860e-01,2.800000000000073541e-01,6.100000000000023181e-01,3.000000000000802025e-02,5.600000000000031619e-01,3.000000000000055955e-01,-1.799999999999948308e-01,-4.999999999999649170e-02,-2.599999999999984546e-01,8.700000000000069900e-01
3.100000000000038280e-01,-9.799999999999990941e-01,-1.000000000000000000e+00,-1.000000000000000000e+00,-1.000000000000000000e+00,-4.999999999999960032e-01,-2.399999999999984368e-01,4.800000000000057554e-01,-9.399999999999919531e-01,2.800000000000064659e-01,8.800000000000034461e-01,-1.000000000000000000e+00,5.000000000000892619e-02,-8.399999999999989697e-01,2.900000000000100275e-01,-6.399999999999943512e-01,7.300000000000059774e-01,-3.499999999999932054e-01,-1.000000000000000000e+00,-1.000000000000000000e+00,-1.000000000000000000e+00,3.900000000000118927e-01,-1.000000000000000000e+00,8.300000000000060663e-01,-2.499999999999922284e-01,-3.499999999999985345e-01,-2.199999999999975309e-01,-8.999999999999652722e-02,3.200000000000082778e-01,-8.999999999999741540e-02,-5.899999999999863132e-01,-7.399999999999979927e-01,4.400000000000057199e-01,-2.399999999999984368e-01,-1.199999999999947775e-01,4.800000000000084199e-01,-3.599999999999941025e-01,4.500000000000137224e-01,5.300000000000066880e-01,5.100000000000057820e-01,2.400000000000046541e-01,1.300000000000081091e-01,-6.899999999999979483e-01,-1.699999999999877165e-01,2.000000000000268230e-02,-3.799999999999923439e-01,6.800000000000032685e-01,-1.299999999999894573e-01,-1.399999999999956835e-01,7.500000000000051070e-01,-8.499999999999900968e-01,-4.499999999999968470e-01,5.100000000000075584e-01,-1.000000000000000000e+00,-6.499999999999899192e-01,-7.999999999999296563e-02,-1.000000000000000000e+00,9.700000000000070788e-01,-3.599999999999967670e-01,9.700000000000026379e-01,7.400000000000104272e-01,5.600000000000040501e-01,-3.999999999999825917e-02,-5.599999999999951683e-01,-1.000000000000000000e+00,-5.599999999999942801e-01,-1.000000000000000000e+00,-1.000000000000000000e+00,7.000000000000095035e-01,-4.699999999999986411e-01,-1.000000000000000000e+00,-3.899999999999932410e-01,4.600000000000066258e-01,-1.000000000000000000e+00,-1.899999999999930633e-01,-1.799999999999939426e-01,9.500000000000017319e-01,-4.699999999999942002e-01,-3.499999999999976463e-01,3.000000000000055955e-01,-1.799999999999948308e-01,4.900000000000048761e-01,-5.399999999999969269e-01,8.700000000000069900e-01
-8.799999999999990052e-01,-3.999999999999825917e-02,-1.000000000000000000e+00,9.600000000000097344e-01,-2.099999999999984102e-01,-4.999999999999960032e-01,-2.399999999999984368e-01,4.800000000000057554e-01,-2.899999999999904876e-01,-7.999999999999944933e-01,8.800000000000034461e-01,7.100000000000059597e-01,-6.999999999999935163e-01,-8.399999999999989697e-01,2.900000000000100275e-01,-6.399999999999943512e-01,7.300000000000059774e-01,-3.499999999999932054e-01,-1.000000000000000000e+00,-1.000000000000000000e+00,-1.000000000000000000e+00,3.600000000000118661e-01,-1.000000000000000000e+00,4.800000000000057554e-01,-1.000000000000000000e+00,-7.599999999999988987e-01,2.700000000000037925e-01,1.600000000000028066e-01,3.200000000000082778e-01,-2.599999999999984546e-01,-5.899999999999863132e-01,-7.399999999999979927e-01,8.300000000000069544e-01,-2.999999999999380940e-02,-1.199999999999947775e-01,6.400000000000094502e-01,-4.299999999999950528e-01,-1.000000000000000000e+00,8.400000000000078515e-01,6.600000000000076916e-01,2.400000000000046541e-01,-2.099999999999913047e-01,-6.899999999999979483e-01,-1.699999999999868283e-01,2.000000000000268230e-02,-2.099999999999913047e-01,6.800000000000032685e-01,-1.299999999999894573e-01,-4.999999999999649170e-02,7.500000000000051070e-01,-8.499999999999900968e-01,-4.599999999999959677e-01,5.100000000000075584e-01,-4.699999999999977529e-01,-1.599999999999903721e-01,-7.999999999999296563e-02,-1.000000000000000000e+00,-1.000000000000000000e+00,2.400000000000055422e-01,9.700000000000026379e-01,1.600000000000108002e-01,5.600000000000040501e-01,3.552713678800500929e-15,-1.899999999999957279e-01,-1.000000000000000000e+00,-2.199999999999948663e-01,-5.899999999999987477e-01,-1.000000000000000000e+00,7.600000000000104450e-01,2.800000000000073541e-01,-1.000000000000000000e+00,1.400000000000081180e-01,-8.699999999999989964e-01,-5.499999999999960476e-01,1.900000000000063860e-01,-3.899999999999932410e-01,9.500000000000017319e-01,-7.699999999999935785e-01,-3.499999999999976463e-01,3.000000000000055955e-01,6.217248937900876626e-15,-1.000000000000000000e+00,-7.399999999999979927e-01,8.700000000000069900e-01
3.100000000000038280e-01,-9.799999999999990941e-01,-1.000000000000000000e+00,-1.000000000000000000e+00,-1.000000000000000000e+00,-4.999999999999960032e-01,-2.399999999999984368e-01,4.800000000000057554e-01,-9.399999999999919531e-01,2.800000000000064659e-01,8.800000000000034461e-01,-1.000000000000000000e+00,5.000000000000892619e-02,-1.399999999999939071e-01,2.900000000000100275e-01,-6.399999999999943512e-01,7.300000000000059774e-01,-3.499999999999932054e-01,-1.000000000000000000e+00,-1.000000000000000000e+00,-1.000000000000000000e+00,3.600000000000118661e-01,-1.000000000000000000e+00,8.300000000000060663e-01,-2.499999999999922284e-01,-3.499999999999985345e-01,2.700000000000037925e-01,6.500000000000041300e-01,3.200000000000082778e-01,-2.599999999999984546e-01,3.000000000001512568e-02,-7.399999999999979927e-01,8.300000000000069544e-01,-8.899999999999954614e-01,-1.199999999999947775e-01,4.800000000000084199e-01,-3.599999999999941025e-01,4.500000000000137224e-01,5.300000000000066880e-01,6.600000000000076916e-01,2.400000000000046541e-01,-2.099999999999913047e-01,-6.899999999999979483e-01,-1.699999999999877165e-01,2.000000000000268230e-02,-3.799999999999923439e-01,6.400000000000023448e-01,2.000000000000889955e-02,-1.399999999999956835e-01,7.500000000000051070e-01,-8.499999999999900968e-01,-4.599999999999959677e-01,-1.000000000000000000e+00,-7.599999999999971223e-01,-6.499999999999899192e-01,-7.999999999999296563e-02,-4.699999999999986411e-01,9.700000000000070788e-01,-3.599999999999967670e-01,9.700000000000026379e-01,1.600000000000108002e-01,5.600000000000040501e-01,-3.999999999999825917e-02,-1.000000000000000000e+00,-1.000000000000000000e+00,2.600000000000064482e-01,-6.499999999999979128e-01,-1.000000000000000000e+00,7.000000000000095035e-01,-4.699999999999986411e-01,-1.000000000000000000e+00,1.400000000000081180e-01,4.800000000000048672e-01,-5.499999999999960476e-01,-1.000000000000000000e+00,-1.799999999999939426e-01,9.500000000000017319e-01,-4.699999999999942002e-01,-3.499999999999976463e-01,-7.699999999999971312e-01,-1.000000000000000000e+00,4.900000000000048761e-01,-5.399999999999969269e-01,8.700000000000069900e-01
3.100000000000038280e-01,-9.799999999999990941e-01,-1.000000000000000000e+00,-1.000000000000000000e+00,-1.000000000000000000e+00,-1.000000000000000000e+00,-3.899999999999976819e-01,2.900000000000055866e-01,-3.199999999999896261e-01,-7.999999999999944933e-01,7.300000000000042011e-01,7.100000000000059597e-01,5.000000000000892619e-02,-8.399999999999989697e-01,2.900000000000100275e-01,-6.399999999999943512e-01,1.200000000000063238e-01,-1.999999999999984013e-01,-1.000000000000000000e+00,-1.000000000000000000e+00,-1.000000000000000000e+00,3.900000000000118927e-01,1.000000000000098588e-01,8.300000000000060663e-01,-1.000000000000000000e+00,-3.499999999999985345e-01,-2.199999999999975309e-01,1.600000000000028066e-01,3.200000000000082778e-01,-8.999999999999741540e-02,-5.899999999999863132e-01,-1.000000000000000000e+00,4.400000000000057199e-01,-1.000000000000000000e+00,-1.199999999999947775e-01,4.800000000000084199e-01,-3.599999999999941025e-01,-1.000000000000000000e+00,5.300000000000066880e-01,6.600000000000076916e-01,2.400000000000046541e-01,-2.099999999999913047e-01,-6.899999999999979483e-01,-1.699999999999877165e-01,-1.000000000000000000e+00,-3.799999999999923439e-01,6.800000000000032685e-01,-1.299999999999894573e-01,-4.999999999999649170e-02,7.500000000000051070e-01,-8.499999999999900968e-01,-4.499999999999968470e-01,5.100000000000075584e-01,-4.699999999999977529e-01,-6.499999999999899192e-01,-7.999999999999296563e-02,-1.000000000000000000e+00,9.700000000000070788e-01,-3.599999999999967670e-01,9.700000000000026379e-01,7.400000000000104272e-01,5.600000000000040501e-01,-3.999999999999825917e-02,-5.599999999999951683e-01,-1.000000000000000000e+00,-5.599999999999942801e-01,-5.899999999999987477e-01,-8.599999999999989875e-01,7.000000000000095035e-01,-4.699999999999986411e-01,-1.000000000000000000e+00,-3.899999999999932410e-01,4.600000000000066258e-01,-1.000000000000000000e+00,-1.899999999999930633e-01,-1.799999999999939426e-01,9.500000000000017319e-01,1.800000000000072653e-01,-3.499999999999976463e-01,3.000000000000055955e-01,-1.799999999999948308e-01,4.900000000000048761e-01,-5.399999999999969269e-01,8.700000000000069900e-01
-8.799999999999990052e-01,-1.000000000000000000e+00,-1.000000000000000000e+00,9.600000000000097344e-01,-6.199999999999987743e-01,5.200000000000049027e-01,-2.399999999999984368e-01,4.800000000000057554e-01,-9.399999999999919531e-01,-7.799999999999953637e-01,8.800000000000034461e-01,-1.000000000000000000e+00,-7.099999999999926370e-01,-8.399999999999989697e-01,9.800000000000115286e-01,-6.399999999999943512e-01,7.300000000000059774e-01,-1.799999999999921663e-01,-6.499999999999988010e-01,-1.000000000000000000e+00,-2.999999999999736211e-02,8.100000000000113776e-01,1.000000000000098588e-01,4.800000000000057554e-01,-1.000000000000000000e+00,-7.599999999999988987e-01,2.700000000000037925e-01,1.600000000000028066e-01,2.700000000000073452e-01,-2.599999999999984546e-01,-5.899999999999863132e-01,-1.399999999999983480e-01,5.400000000000066969e-01,-7.399999999999953282e-01,-1.199999999999947775e-01,5.000000000000093259e-01,-4.299999999999950528e-01,4.500000000000137224e-01,8.400000000000078515e-01,6.600000000000076916e-01,2.400000000000046541e-01,3.400000000000100719e-01,-7.099999999999970779e-01,9.800000000000177458e-01,-1.000000000000000000e+00,-4.099999999999914824e-01,6.400000000000023448e-01,-1.299999999999894573e-01,-4.999999999999649170e-02,7.500000000000051070e-01,-5.599999999999907274e-01,-4.499999999999968470e-01,2.600000000000064482e-01,-4.699999999999977529e-01,-1.599999999999903721e-01,9.000000000000087930e-01,-1.000000000000000000e+00,-1.000000000000000000e+00,2.400000000000055422e-01,-5.999999999999827693e-02,1.600000000000108002e-01,5.600000000000040501e-01,-3.999999999999825917e-02,-1.899999999999957279e-01,-1.000000000000000000e+00,-2.199999999999948663e-01,-6.499999999999979128e-01,-1.000000000000000000e+00,5.800000000000111733e-01,9.900000000000070965e-01,-1.000000000000000000e+00,-6.899999999999917311e-01,-9.999999999999920064e-01,-9.599999999999955236e-01,1.900000000000063860e-01,-1.799999999999939426e-01,6.100000000000023181e-01,-7.699999999999935785e-01,-2.499999999999984457e-01,-2.599999999999957900e-01,-1.799999999999948308e-01,8.400000000000042988e-01,-1.000000000000000000e+00,8.700000000000069900e-01
3.100000000000038280e-01,-1.000000000000000000e+00,-1.000000000000000000e+00,6.000000000000982325e-02,-1.000000000000000000e+00,-4.999999999999960032e-01,-7.899999999999980371e-01,2.900000000000055866e-01,-9.399999999999919531e-01,-7.799999999999953637e-01,8.800000000000034461e-01,7.100000000000059597e-01,5.000000000000892619e-02,-8.399999999999989697e-01,2.900000000000100275e-01,-6.399999999999943512e-01,7.300000000000059774e-01,-3.499999999999932054e-01,-1.000000000000000000e+00,-1.000000000000000000e+00,-1.000000000000000000e+00,3.900000000000118927e-01,-1.000000000000000000e+00,4.800000000000057554e-01,-2.499999999999922284e-01,-3.499999999999985345e-01,-2.199999999999975309e-01,1.600000000000028066e-01,3.200000000000082778e-01,-8.999999999999741540e-02,2.600000000000153300e-01,-7.399999999999979927e-01,4.400000000000057199e-01,-8.899999999999954614e-01,-2.599999999999940137e-01,4.800000000000084199e-01,-7.399999999999935518e-01,4.500000000000137224e-01,2.600000000000073364e-01,5.100000000000057820e-01,2.400000000000046541e-01,1.300000000000081091e-01,-6.899999999999979483e-01,-1.699999999999868283e-01,2.000000000000268230e-02,-3.799999999999923439e-01,6.800000000000032685e-01,-1.299999999999894573e-01,-1.399999999999956835e-01,7.500000000000051070e-01,-8.499999999999900968e-01,-4.499999999999968470e-01,5.100000000000075584e-01,-1.000000000000000000e+00,-9.999999999999031886e-02,-7.999999999999296563e-02,-1.000000000000000000e+00,-1.000000000000000000e+00,-3.599999999999967670e-01,9.700000000000026379e-01,1.600000000000108002e-01,5.600000000000040501e-01,-3.999999999999825917e-02,-5.599999999999951683e-01,-1.000000000000000000e+00,6.700000000000077005e-01,-1.000000000000000000e+00,-1.000000000000000000e+00,5.800000000000111733e-01,9.900000000000070965e-01,-1.000000000000000000e+00,1.400000000000081180e-01,4.400000000000057199e-01,-1.000000000000000000e+00,1.900000000000063860e-01,-1.799999999999939426e-01,9.500000000000017319e-01,-7.699999999999935785e-01,-3.499999999999976463e-01,3.000000000000055955e-01,-1.799999999999948308e-01,4.900000000000048761e-01,-8.599999999999972111e-01,8.700000000000069900e-01
-8.799999999999990052e-01,-1.000000000000000000e+00,-1.000000000000000000e+00,9.600000000000097344e-01,-4.999999999999737987e-02,5.200000000000049027e-01,-5.999999999999738876e-02,4.800000000000057554e-01,-9.399999999999919531e-01,-7.799999999999953637e-01,8.800000000000034461e-01,-1.000000000000000000e+00,-7.099999999999926370e-01,-8.399999999999989697e-01,9.800000000000115286e-01,-6.399999999999943512e-01,7.300000000000059774e-01,8.700000000000069900e-01,-1.000000000000000000e+00,-1.000000000000000000e+00,-1.000000000000000000e+00,-1.000000000000000000e+00,1.000000000000098588e-01,4.800000000000057554e-01,-4.699999999999906475e-01,-7.499999999999988898e-01,1.300000000000027800e-01,1.600000000000028066e-01,-1.999999999999912959e-01,-2.599999999999984546e-01,-1.000000000000000000e+00,-1.399999999999983480e-01,5.400000000000066969e-01,-7.399999999999953282e-01,-2.599999999999940137e-01,4.800000000000084199e-01,-4.299999999999950528e-01,4.500000000000137224e-01,8.400000000000078515e-01,6.600000000000076916e-01,5.000000000000537348e-02,3.400000000000100719e-01,-6.899999999999979483e-01,5.900000000000165112e-01,-1.000000000000000000e+00,-4.099999999999914824e-01,6.400000000000023448e-01,2.000000000000889955e-02,-4.999999999999649170e-02,7.500000000000051070e-01,-5.599999999999907274e-01,-4.499999999999968470e-01,-1.000000000000000000e+00,-4.699999999999977529e-01,-1.599999999999903721e-01,-7.999999999999944933e-01,-4.699999999999986411e-01,-1.000000000000000000e+00,2.400000000000055422e-01,-1.000000000000000000e+00,7.400000000000104272e-01,4.000000000000056843e-01,-3.999999999999825917e-02,-1.899999999999957279e-01,-1.000000000000000000e+00,-2.199999999999948663e-01,-6.499999999999979128e-01,-1.000000000000000000e+00,7.000000000000095035e-01,9.900000000000070965e-01,-1.000000000000000000e+00,1.400000000000081180e-01,4.800000000000048672e-01,-9.599999999999955236e-01,1.900000000000063860e-01,-1.799999999999939426e-01,6.100000000000023181e-01,-7.699999999999935785e-01,-2.499999999999984457e-01,-7.699999999999971312e-01,-1.799999999999948308e-01,8.400000000000042988e-01,-1.000000000000000000e+00,-1.000000000000000000e+00
-8.799999999999990052e-01,-3.999999999999825917e-02,-1.000000000000000000e+00,9.600000000000097344e-01,-2.099999999999984102e-01,-4.999999999999960032e-01,-2.399999999999984368e-01,-1.000000000000000000e+00,-2.899999999999904876e-01,-7.999999999999944933e-01,8.800000000000034461e-01,7.100000000000059597e-01,5.000000000000892619e-02,-8.399999999999989697e-01,-4.699999999999897593e-01,-6.399999999999943512e-01,7.300000000000059774e-01,-3.499999999999932054e-01,-1.000000000000000000e+00,-1.000000000000000000e+00,-5.999999999999987566e-01,3.600000000000118661e-01,-1.000000000000000000e+00,4.800000000000057554e-01,-1.000000000000000000e+00,-7.599999999999988987e-01,-2.199999999999975309e-01,1.600000000000028066e-01,3.200000000000082778e-01,-2.599999999999984546e-01,-5.899999999999863132e-01,-7.399999999999979927e-01,8.300000000000069544e-01,-2.399999999999984368e-01,-1.199999999999947775e-01,6.400000000000094502e-01,-3.599999999999941025e-01,4.500000000000137224e-01,8.400000000000078515e-01,5.100000000000057820e-01,-4.899999999999951061e-01,1.300000000000081091e-01,-6.899999999999979483e-01,-1.699999999999868283e-01,2.000000000000268230e-02,-3.799999999999923439e-01,6.800000000000032685e-01,-1.299999999999894573e-01,-4.999999999999649170e-02,3.000000000000535572e-02,-8.499999999999900968e-01,-4.499999999999968470e-01,5.100000000000075584e-01,-1.000000000000000000e+00,-6.499999999999899192e-01,-7.999999999999296563e-02,-1.000000000000000000e+00,-1.000000000000000000e+00,-3.599999999999967670e-01,9.700000000000026379e-01,7.400000000000104272e-01,5.600000000000040501e-01,-3.999999999999825917e-02,-5.599999999999951683e-01,-8.899999999999990141e-01,-2.199999999999948663e-01,-5.899999999999987477e-01,-1.000000000000000000e+00,-1.000000000000000000e+00,-4.699999999999986411e-01,-4.999999999999826805e-02,-3.899999999999932410e-01,2.600000000000073364e-01,-1.000000000000000000e+00,-1.899999999999930633e-01,-1.799999999999939426e-01,-1.000000000000000000e+00,-7.699999999999935785e-01,-3.499999999999976463e-01,3.000000000000055955e-01,6.217248937900876626e-15,4.900000000000048761e-01,-5.399999999999969269e-01,8.700000000000069900e-01
3.100000000000038280e-01,-9.799999999999990941e-01,-1.000000000000000000e+00,-1.000000000000000000e+00,-1.000000000000000000e+00,-4.999999999999960032e-01,-2.399999999999984368e-01,2.900000000000055866e-01,-3.199999999999896261e-01,-7.999999999999944933e-01,7.300000000000042011e-01,-1.000000000000000000e+00,5.000000000000892619e-02,-8.399999999999989697e-01,9.000000000000114575e-01,-6.399999999999943512e-01,7.300000000000059774e-01,-1.999999999999984013e-01,-1.000000000000000000e+00,-1.000000000000000000e+00,-1.000000000000000000e+00,3.600000000000118661e-01,1.000000000000098588e-01,8.300000000000060663e-01,-2.499999999999922284e-01,-3.499999999999985345e-01,-2.199999999999975309e-01,1.600000000000028066e-01,3.200000000000082778e-01,-8.999999999999741540e-02,-5.599999999999853983e-01,-7.399999999999979927e-01,8.300000000000069544e-01,-4.299999999999986056e-01,-1.199999999999947775e-01,-1.000000000000000000e+00,-3.599999999999941025e-01,-6.999999999998585132e-02,5.300000000000066880e-01,6.600000000000076916e-01,-1.000000000000000000e+00,-2.099999999999913047e-01,-6.899999999999979483e-01,-1.699999999999877165e-01,-1.000000000000000000e+00,-3.799999999999923439e-01,6.400000000000023448e-01,-1.299999999999894573e-01,-1.399999999999956835e-01,7.500000000000051070e-01,-8.499999999999900968e-01,-4.599999999999959677e-01,5.100000000000075584e-01,-7.599999999999971223e-01,-6.499999999999899192e-01,-7.999999999999296563e-02,-1.000000000000000000e+00,9.700000000000070788e-01,-1.000000000000000000e+00,9.700000000000026379e-01,1.600000000000108002e-01,4.900000000000048761e-01,7.000000000000032863e-01,-5.599999999999951683e-01,-5.399999999999987033e-01,-5.599999999999942801e-01,-6.499999999999979128e-01,-8.599999999999989875e-01,7.000000000000095035e-01,-1.000000000000000000e+00,-1.000000000000000000e+00,-3.899999999999932410e-01,4.800000000000048672e-01,-5.499999999999960476e-01,-1.000000000000000000e+00,-1.799999999999939426e-01,9.500000000000017319e-01,-9.799999999999937650e-01,-3.499999999999976463e-01,3.000000000000055955e-01,-1.000000000000000000e+00,4.900000000000048761e-01,-5.399999999999969269e-01,8.700000000000069900e-01
3.100000000000038280e-01,-1.000000000000000000e+00,-1.000000000000000000e+00,2.400000000000108713e-01,-1.000000000000000000e+00,-4.999999999999960032e-01,-2.399999999999984368e-01,2.900000000000055866e-01,-9.399999999999919531e-01,-7.799999999999953637e-01,2.500000000000037748e-01,7.100000000000059597e-01,5.000000000000892619e-02,-8.399999999999989697e-01,8.600000000000131983e-01,-6.399999999999943512e-01,7.300000000000059774e-01,-3.499999999999932054e-01,-1.000000000000000000e+00,-1.000000000000000000e+00,-1.000000000000000000e+00,3.900000000000118927e-01,-1.000000000000000000e+00,4.800000000000057554e-01,-4.699999999999906475e-01,-9.499999999999981792e-01,-2.199999999999975309e-01,1.600000000000028066e-01,3.200000000000082778e-01,-2.599999999999984546e-01,2.600000000000153300e-01,-4.399999999999968381e-01,4.400000000000057199e-01,-7.399999999999953282e-01,-2.599999999999940137e-01,4.800000000000084199e-01,-7.399999999999935518e-01,4.500000000000137224e-01,5.300000000000066880e-01,5.100000000000057820e-01,2.400000000000046541e-01,-5.999999999999907629e-01,-1.000000000000000000e+00,-1.699999999999868283e-01,2.000000000000268230e-02,-3.799999999999923439e-01,6.800000000000032685e-01,-7.299999999999908784e-01,-4.699999999999959766e-01,7.500000000000051070e-01,-8.499999999999900968e-01,-4.499999999999968470e-01,5.100000000000075584e-01,-4.699999999999977529e-01,4.000000000000110134e-01,-7.999999999999296563e-02,-1.000000000000000000e+00,-1.000000000000000000e+00,-3.599999999999967670e-01,8.600000000000034284e-01,1.600000000000108002e-01,5.600000000000040501e-01,-3.999999999999825917e-02,-1.899999999999957279e-01,-1.000000000000000000e+00,6.700000000000077005e-01,-1.000000000000000000e+00,-1.000000000000000000e+00,5.800000000000111733e-01,9.900000000000070965e-01,-1.000000000000000000e+00,1.400000000000081180e-01,-5.499999999999987121e-01,-9.599999999999955236e-01,1.900000000000063860e-01,2.000000000000712319e-02,9.500000000000017319e-01,-1.000000000000000000e+00,-6.099999999999969891e-01,-1.000000000000000000e+00,-1.799999999999948308e-01,-1.000000000000000000e+00,-8.599999999999972111e-01,8.700000000000069900e-01
3.100000000000038280e-01,-9.799999999999990941e-01,-1.000000000000000000e+00,6.000000000000982325e-02,-1.000000000000000000e+00,-4.999999999999960032e-01,-2.399999999999984368e-01,4.800000000000057554e-01,-9.399999999999919531e-01,2.800000000000064659e-01,8.800000000000034461e-01,-1.000000000000000000e+00,5.000000000000892619e-02,-6.999999999999739764e-02,2.900000000000100275e-01,-6.399999999999943512e-01,-1.000000000000000000e+00,-3.499999999999932054e-01,-1.000000000000000000e+00,-1.000000000000000000e+00,-1.000000000000000000e+00,3.900000000000118927e-01,-1.000000000000000000e+00,8.300000000000060663e-01,-2.499999999999922284e-01,-3.499999999999985345e-01,-9.599999999999972999e-01,-8.999999999999652722e-02,3.200000000000082778e-01,8.300000000000042899e-01,-5.899999999999863132e-01,-7.399999999999979927e-01,4.400000000000057199e-01,-8.899999999999954614e-01,-5.499999999999942712e-01,4.800000000000084199e-01,-7.399999999999935518e-01,4.500000000000137224e-01,5.300000000000066880e-01,5.100000000000057820e-01,2.400000000000046541e-01,1.300000000000081091e-01,-6.899999999999979483e-01,-1.699999999999868283e-01,2.000000000000268230e-02,-3.799999999999923439e-01,6.800000000000032685e-01,7.400000000000122036e-01,-1.399999999999956835e-01,7.500000000000051070e-01,-8.499999999999900968e-01,-4.499999999999968470e-01,5.100000000000075584e-01,-1.000000000000000000e+00,-6.499999999999899192e-01,-7.999999999999296563e-02,-1.000000000000000000e+00,9.700000000000070788e-01,-3.599999999999967670e-01,-1.000000000000000000e+00,-3.899999999999888001e-01,5.600000000000040501e-01,-3.999999999999825917e-02,-5.599999999999951683e-01,-1.000000000000000000e+00,6.700000000000077005e-01,-1.000000000000000000e+00,-1.000000000000000000e+00,5.800000000000111733e-01,-4.699999999999986411e-01,-3.299999999999985167e-01,-5.799999999999925215e-01,4.400000000000057199e-01,-1.000000000000000000e+00,1.900000000000063860e-01,-1.799999999999939426e-01,9.500000000000017319e-01,-4.699999999999942002e-01,-3.499999999999976463e-01,3.000000000000055955e-01,-7.899999999999944844e-01,4.900000000000048761e-01,-5.399999999999969269e-01,8.700000000000069900e-01
-8.799999999999990052e-01,-1.000000000000000000e+00,-1.000000000000000000e+00,-1.000000000000000000e+00,-6.199999999999987743e-01,-4.999999999999960032e-01,-2.399999999999984368e-01,2.900000000000055866e-01,-2.899999999999904876e-01,-7.999999999999944933e-01,8.800000000000034461e-01,1.800000000000063771e-01,5.000000000000892619e-02,-3.399999999999976374e-01,-1.000000000000000000e+00,-2.499999999999931166e-01,1.200000000000063238e-01,-3.499999999999932054e-01,-1.000000000000000000e+00,-1.000000000000000000e+00,-1.000000000000000000e+00,2.700000000000117861e-01,1.000000000000098588e-01,4.800000000000057554e-01,-4.699999999999906475e-01,-3.499999999999985345e-01,-2.199999999999975309e-01,1.600000000000028066e-01,2.700000000000073452e-01,-2.599999999999984546e-01,-2.799999999999851497e-01,-7.399999999999979927e-01,7.300000000000068656e-01,-7.399999999999953282e-01,-1.199999999999947775e-01,4.000000000000891731e-02,-7.199999999999944222e-01,2.700000000000144507e-01,5.300000000000066880e-01,6.600000000000076916e-01,2.400000000000046541e-01,-2.099999999999913047e-01,-1.000000000000000000e+00,3.100000000000135980e-01,-8.999999999999990230e-01,-3.599999999999905498e-01,6.800000000000032685e-01,-4.999999999999906741e-01,-1.399999999999956835e-01,7.500000000000051070e-01,-8.499999999999900968e-01,-7.699999999999962430e-01,5.100000000000075584e-01,-4.699999999999977529e-01,-1.599999999999903721e-01,-7.999999999999296563e-02,-1.000000000000000000e+00,9.700000000000070788e-01,-3.599999999999967670e-01,9.700000000000026379e-01,7.400000000000104272e-01,2.900000000000046985e-01,2.900000000000029221e-01,-5.599999999999951683e-01,-1.000000000000000000e+00,-5.599999999999942801e-01,-1.000000000000000000e+00,-1.000000000000000000e+00,1.154631945610162802e-14,9.900000000000070965e-01,-1.000000000000000000e+00,-3.899999999999932410e-01,-7.899999999999989253e-01,-1.000000000000000000e+00,1.900000000000063860e-01,2.800000000000073541e-01,9.500000000000017319e-01,-9.099999999999937028e-01,-3.499999999999976463e-01,3.000000000000055955e-01,-1.799999999999948308e-01,4.900000000000048761e-01,-2.599999999999984546e-01,8.700000000000069900e-01
-8.799999999999990052e-01,-1.000000000000000000e+00,-1.000000000000000000e+00,6.000000000000982325e-02,-1.000000000000000000e+00,-4.999999999999960032e-01,-7.899999999999980371e-01,2.900000000000055866e-01,-9.399999999999919531e-01,-1.000000000000000000e+00,3.300000000000038458e-01,2.200000000000064126e-01,5.000000000000892619e-02,-8.399999999999989697e-01,-5.999999999998939515e-02,-1.000000000000000000e+00,7.300000000000059774e-01,-3.499999999999932054e-01,-1.000000000000000000e+00,-1.000000000000000000e+00,-1.000000000000000000e+00,3.900000000000118927e-01,-8.899999999999990141e-01,2.700000000000064571e-01,-1.000000000000000000e+00,-3.499999999999985345e-01,4.900000000000039879e-01,1.600000000000028066e-01,3.200000000000082778e-01,-8.999999999999741540e-02,2.600000000000153300e-01,-1.399999999999983480e-01,5.400000000000066969e-01,-8.899999999999954614e-01,-2.599999999999940137e-01,4.800000000000084199e-01,-4.299999999999950528e-01,4.500000000000137224e-01,2.600000000000073364e-01,5.100000000000057820e-01,2.400000000000046541e-01,-3.799999999999914557e-01,-6.899999999999979483e-01,-1.000000000000000000e+00,3.100000000000038280e-01,-3.799999999999923439e-01,6.400000000000023448e-01,-1.299999999999894573e-01,-1.399999999999956835e-01,7.500000000000051070e-01,-8.499999999999900968e-01,-4.499999999999968470e-01,-1.000000000000000000e+00,-1.000000000000000000e+00,-9.999999999999031886e-02,-7.999999999999296563e-02,-4.699999999999986411e-01,-1.000000000000000000e+00,-3.599999999999967670e-01,9.700000000000026379e-01,1.600000000000108002e-01,5.600000000000040501e-01,-3.999999999999825917e-02,-9.599999999999955236e-01,-1.000000000000000000e+00,-1.000000000000000000e+00,-1.000000000000000000e+00,-7.199999999999988631e-01,5.800000000000111733e-01,9.900000000000070965e-01,-1.000000000000000000e+00,1.400000000000081180e-01,4.400000000000057199e-01,-1.000000000000000000e+00,-2.299999999999930989e-01,-1.799999999999939426e-01,9.500000000000017319e-01,3.000000000000802025e-02,5.600000000000031619e-01,3.000000000000055955e-01,-1.799999999999948308e-01,-4.999999999999649170e-02,-2.599999999999984546e-01,8.700000000000069900e-01
3.100000000000038280e-01,-9.799999999999990941e-01,-1.000000000000000000e+00,-1.000000000000000000e+00,-1.000000000000000000e+00,-4.999999999999960032e-01,-2.399999999999984368e-01,4.800000000000057554e-01,-9.399999999999919531e-01,2.800000000000064659e-01,8.800000000000034461e-01,-1.000000000000000000e+00,-7.099999999999926370e-01,-8.399999999999989697e-01,2.900000000000100275e-01,-2.499999999999931166e-01,7.300000000000059774e-01,-3.499999999999932054e-01,-1.000000000000000000e+00,-1.000000000000000000e+00,-1.000000000000000000e+00,8.100000000000113776e-01,1.000000000000098588e-01,7.000000000000627942e-02,-4.699999999999906475e-01,-3.499999999999985345e-01,-2.199999999999975309e-01,1.600000000000028066e-01,2.700000000000073452e-01,-8.999999999999741540e-02,1.300000000000161027e-01,-7.399999999999979927e-01,4.400000000000057199e-01,-2.399999999999984368e-01,-1.199999999999947775e-01,4.800000000000084199e-01,-3.599999999999941025e-01,-9.999999999985798027e-03,5.300000000000066880e-01,5.100000000000057820e-01,2.400000000000046541e-01,1.300000000000081091e-01,-6.899999999999979483e-01,-1.699999999999877165e-01,2.000000000000268230e-02,-3.799999999999923439e-01,6.400000000000023448e-01,-4.999999999999906741e-01,-1.399999999999956835e-01,7.500000000000051070e-01,-8.499999999999900968e-01,-4.499999999999968470e-01,5.100000000000075584e-01,-4.699999999999977529e-01,-1.599999999999903721e-01,-7.999999999999296563e-02,-1.000000000000000000e+00,9.700000000000070788e-01,-3.599999999999967670e-01,6.400000000000032330e-01,7.400000000000104272e-01,5.600000000000040501e-01,8.700000000000034373e-01,-5.599999999999951683e-01,-1.000000000000000000e+00,3.800000000000074429e-01,-1.000000000000000000e+00,-1.000000000000000000e+00,7.000000000000095035e-01,9.900000000000070965e-01,-1.000000000000000000e+00,-3.899999999999932410e-01,4.600000000000066258e-01,-1.000000000000000000e+00,-1.899999999999930633e-01,-1.799999999999939426e-01,9.500000000000017319e-01,-4.699999999999942002e-01,-3.499999999999976463e-01,3.100000000000064926e-01,1.700000000000063682e-01,4.900000000000048761e-01,-5.399999999999969269e-01,8.700000000000069900e-01
-8.799999999999990052e-01,-3.999999999999825917e-02,-1.000000000000000000e+00,9.600000000000097344e-01,7.600000000000033396e-01,-1.000000000000000000e+00,2.100000000000028511e-01,4.800000000000057554e-01,-9.399999999999919531e-01,-7.799999999999953637e-01,8.800000000000034461e-01,-1.000000000000000000e+00,-7.099999999999926370e-01,-8.399999999999989697e-01,2.900000000000100275e-01,-6.399999999999943512e-01,7.300000000000059774e-01,-1.799999999999921663e-01,-6.499999999999988010e-01,-1.000000000000000000e+00,-2.999999999999736211e-02,8.100000000000113776e-01,-1.000000000000000000e+00,4.800000000000057554e-01,-1.000000000000000000e+00,-7.599999999999988987e-01,2.700000000000037925e-01,1.600000000000028066e-01,2.700000000000073452e-01,-2.599999999999984546e-01,-5.899999999999863132e-01,-1.399999999999983480e-01,8.300000000000069544e-01,-7.399999999999953282e-01,-1.199999999999947775e-01,5.000000000000093259e-01,-4.299999999999950528e-01,-1.000000000000000000e+00,8.400000000000078515e-01,6.600000000000076916e-01,2.400000000000046541e-01,3.400000000000100719e-01,-6.899999999999979483e-01,-1.699999999999868283e-01,2.000000000000268230e-02,-4.099999999999914824e-01,6.400000000000023448e-01,-1.299999999999894573e-01,-7.999999999999563016e-02,7.500000000000051070e-01,-8.499999999999900968e-01,-4.499999999999968470e-01,2.600000000000064482e-01,-4.699999999999977529e-01,-1.599999999999903721e-01,9.000000000000087930e-01,-1.000000000000000000e+00,-1.000000000000000000e+00,2.400000000000055422e-01,9.700000000000026379e-01,1.600000000000108002e-01,5.600000000000040501e-01,3.552713678800500929e-15,-1.899999999999957279e-01,-1.000000000000000000e+00,-2.199999999999948663e-01,-6.499999999999979128e-01,-1.000000000000000000e+00,7.600000000000104450e-01,9.900000000000070965e-01,-1.000000000000000000e+00,-6.899999999999917311e-01,5.000000000000270894e-02,-5.499999999999960476e-01,9.000000000000079048e-01,-3.899999999999932410e-01,9.500000000000017319e-01,-7.699999999999935785e-01,-2.599999999999975664e-01,-2.599999999999957900e-01,6.217248937900876626e-15,8.400000000000042988e-01,-1.000000000000000000e+00,8.700000000000069900e-01
8.500000000000051958e-01,-1.000000000000000000e+00,-6.199999999999987743e-01,-1.000000000000000000e+00,-1.000000000000000000e+00,-4.999999999999960032e-01,-2.399999999999984368e-01,4.800000000000057554e-01,-9.399999999999919531e-01,2.800000000000064659e-01,8.800000000000034461e-01,-7.699999999999989075e-01,-7.099999999999926370e-01,-1.399999999999939071e-01,-1.000000000000000000e+00,-2.499999999999931166e-01,7.300000000000059774e-01,-3.499999999999932054e-01,-1.000000000000000000e+00,-1.000000000000000000e+00,-1.000000000000000000e+00,8.100000000000113776e-01,-1.000000000000000000e+00,8.300000000000060663e-01,-4.699999999999906475e-01,-3.499999999999985345e-01,2.700000000000037925e-01,6.500000000000041300e-01,3.200000000000082778e-01,-2.599999999999984546e-01,-2.799999999999851497e-01,-7.399999999999979927e-01,5.400000000000066969e-01,-8.899999999999954614e-01,-1.199999999999947775e-01,4.800000000000084199e-01,-3.599999999999941025e-01,4.500000000000137224e-01,5.300000000000066880e-01,6.600000000000076916e-01,2.400000000000046541e-01,-2.099999999999913047e-01,-6.899999999999979483e-01,-1.699999999999877165e-01,2.000000000000268230e-02,-3.799999999999923439e-01,6.400000000000023448e-01,2.000000000000889955e-02,-1.399999999999956835e-01,7.500000000000051070e-01,-8.499999999999900968e-01,-4.599999999999959677e-01,-1.000000000000000000e+00,-7.599999999999971223e-01,-6.499999999999899192e-01,-7.999999999999296563e-02,-4.699999999999986411e-01,9.700000000000070788e-01,-3.599999999999967670e-01,9.700000000000026379e-01,1.600000000000108002e-01,5.600000000000040501e-01,-3.999999999999825917e-02,-5.599999999999951683e-01,-1.000000000000000000e+00,-5.999999999999294786e-02,-1.000000000000000000e+00,-1.000000000000000000e+00,7.000000000000095035e-01,9.900000000000070965e-01,-1.000000000000000000e+00,1.400000000000081180e-01,-1.000000000000000000e+00,-1.000000000000000000e+00,-1.899999999999930633e-01,-1.799999999999939426e-01,9.500000000000017319e-01,-4.699999999999942002e-01,-3.499999999999976463e-01,3.000000000000055955e-01,-1.000000000000000000e+00,4.900000000000048761e-01,-5.399999999999969269e-01,8.700000000000069900e-01
-8.799999999999990052e-01,-1.000000000000000000e+00,-1.000000000000000000e+00,6.000000000000982325e-02,-1.000000000000000000e+00,-4.999999999999960032e-01,-7.899999999999980371e-01,2.900000000000055866e-01,-9.399999999999919531e-01,-7.799999999999953637e-01,8.800000000000034461e-01,1.800000000000063771e-01,5.000000000000892619e-02,-8.399999999999989697e-01,-5.599999999999898392e-01,-6.399999999999943512e-01,7.300000000000059774e-01,-3.499999999999932054e-01,-1.000000000000000000e+00,-1.000000000000000000e+00,-1.000000000000000000e+00,8.100000000000113776e-01,1.000000000000098588e-01,4.800000000000057554e-01,-4.699999999999906475e-01,-3.499999999999985345e-01,2.700000000000037925e-01,-1.000000000000000000e+00,3.200000000000082778e-01,-8.999999999999741540e-02,-5.899999999999863132e-01,-7.399999999999979927e-01,-1.000000000000000000e+00,-8.899999999999954614e-01,-1.199999999999947775e-01,4.800000000000084199e-01,-7.399999999999935518e-01,2.700000000000144507e-01,5.300000000000066880e-01,6.600000000000076916e-01,2.400000000000046541e-01,1.300000000000081091e-01,-6.899999999999979483e-01,5.900000000000165112e-01,2.000000000000268230e-02,-3.599999999999905498e-01,6.800000000000032685e-01,-1.299999999999894573e-01,-9.999999999994679811e-03,7.500000000000051070e-01,-1.599999999999894840e-01,-4.499999999999968470e-01,5.100000000000075584e-01,-4.699999999999977529e-01,-9.999999999999031886e-02,-7.999999999999296563e-02,-1.000000000000000000e+00,9.700000000000070788e-01,-3.599999999999967670e-01,6.700000000000032596e-01,1.600000000000108002e-01,5.600000000000040501e-01,3.552713678800500929e-15,-1.899999999999957279e-01,-1.000000000000000000e+00,6.700000000000077005e-01,-1.000000000000000000e+00,-1.000000000000000000e+00,5.800000000000111733e-01,9.900000000000070965e-01,-1.000000000000000000e+00,7.000000000000095035e-01,-1.000000000000000000e+00,-1.000000000000000000e+00,1.900000000000063860e-01,-1.799999999999939426e-01,9.500000000000017319e-01,1.800000000000072653e-01,-6.099999999999969891e-01,-7.699999999999971312e-01,-2.899999999999940403e-01,-1.000000000000000000e+00,-7.399999999999979927e-01,-1.000000000000000000e+00
-8.799999999999990052e-01,-3.999999999999825917e-02,-1.000000000000000000e+00,9.600000000000097344e-01,-6.199999999999987743e-01,-4.999999999999960032e-01,-2.399999999999984368e-01,2.900000000000055866e-01,-2.899999999999904876e-01,-7.999999999999944933e-01,8.800000000000034461e-01,7.100000000000059597e-01,-6.999999999999935163e-01,-8.399999999999989697e-01,7.900000000000122480e-01,-6.399999999999943512e-01,7.300000000000059774e-01,-3.499999999999932054e-01,-1.000000000000000000e+00,-1.000000000000000000e+00,-1.000000000000000000e+00,8.100000000000113776e-01,1.000000000000098588e-01,4.800000000000057554e-01,-4.699999999999906475e-01,-3.499999999999985345e-01,2.700000000000037925e-01,1.600000000000028066e-01,-1.000000000000000000e+00,-2.599999999999984546e-01,-5.899999999999863132e-01,-7.399999999999979927e-01,8.300000000000069544e-01,-7.399999999999953282e-01,-1.199999999999947775e-01,6.300000000000103295e-01,-7.899999999999935962e-01,-1.000000000000000000e+00,5.300000000000066880e-01,6.600000000000076916e-01,2.400000000000046541e-01,-2.099999999999913047e-01,-6.899999999999979483e-01,-3.999999999998582467e-02,-8.999999999999990230e-01,-2.099999999999913047e-01,6.800000000000032685e-01,-1.299999999999894573e-01,-4.999999999999649170e-02,-1.999999999999468869e-02,-5.599999999999907274e-01,1.000000000000045297e-01,5.100000000000075584e-01,-4.699999999999977529e-01,-1.599999999999903721e-01,-7.999999999999296563e-02,-1.000000000000000000e+00,9.700000000000070788e-01,-3.599999999999967670e-01,9.700000000000026379e-01,1.600000000000108002e-01,5.600000000000040501e-01,3.552713678800500929e-15,-1.899999999999957279e-01,-1.000000000000000000e+00,-9.999999999999387157e-02,-1.399999999999974598e-01,-1.000000000000000000e+00,-1.000000000000000000e+00,6.800000000000077094e-01,-1.000000000000000000e+00,1.400000000000081180e-01,-8.699999999999989964e-01,-1.000000000000000000e+00,1.900000000000063860e-01,-3.899999999999932410e-01,2.400000000000019895e-01,-7.699999999999935785e-01,-6.099999999999969891e-01,3.000000000000055955e-01,6.217248937900876626e-15,-1.000000000000000000e+00,-7.399999999999979927e-01,8.700000000000069900e-01
-1.000000000000000000e+00,-9.799999999999990941e-01,-1.000000000000000000e+00,-1.000000000000000000e+00,-1.000000000000000000e+00,-4.999999999999960032e-01,-2.399999999999984368e-01,4.800000000000057554e-01,-9.399999999999919531e-01,2.800000000000064659e-01,8.800000000000034461e-01,-1.000000000000000000e+00,5.000000000000892619e-02,-1.399999999999939071e-01,2.900000000000100275e-01,-6.399999999999943512e-01,7.300000000000059774e-01,-3.499999999999932054e-01,-1.000000000000000000e+00,-1.000000000000000000e+00,-1.000000000000000000e+00,3.900000000000118927e-01,-3.099999999999984990e-01,8.300000000000060663e-01,-2.499999999999922284e-01,-5.399999999999978151e-01,2.700000000000037925e-01,-8.999999999999652722e-02,5.100000000000093348e-01,-2.599999999999984546e-01,3.000000000001512568e-02,-7.399999999999979927e-01,4.400000000000057199e-01,-8.899999999999954614e-01,-1.199999999999947775e-01,4.800000000000084199e-01,-3.599999999999941025e-01,3.000000000001423750e-02,5.300000000000066880e-01,5.100000000000057820e-01,2.400000000000046541e-01,-1.999999999999912959e-01,-6.899999999999979483e-01,-1.699999999999877165e-01,2.000000000000268230e-02,-3.799999999999923439e-01,-2.799999999999966960e-01,2.000000000000889955e-02,-1.399999999999956835e-01,7.500000000000051070e-01,-8.499999999999900968e-01,-4.599999999999959677e-01,-1.000000000000000000e+00,-1.000000000000000000e+00,-6.499999999999899192e-01,-7.999999999999296563e-02,-4.699999999999986411e-01,9.700000000000070788e-01,-3.599999999999967670e-01,9.700000000000026379e-01,1.600000000000108002e-01,5.600000000000040501e-01,-3.999999999999825917e-02,-1.000000000000000000e+00,-1.000000000000000000e+00,2.600000000000064482e-01,-6.499999999999979128e-01,-1.000000000000000000e+00,7.000000000000095035e-01,-4.699999999999986411e-01,-1.000000000000000000e+00,-3.899999999999932410e-01,4.600000000000066258e-01,-8.099999999999989431e-01,-1.000000000000000000e+00,-1.799999999999939426e-01,9.500000000000017319e-01,-4.699999999999942002e-01,-3.499999999999976463e-01,-7.699999999999971312e-01,-1.799999999999948308e-01,-4.999999999999471534e-02,-5.399999999999969269e-01,8.700000000000069900e-01
-8.799999999999990052e-01,-1.000000000000000000e+00,-1.000000000000000000e+00,2.400000000000108713e-01,-6.199999999999987743e-01,-4.999999999999960032e-01,-2.399999999999984368e-01,4.800000000000057554e-01,-9.399999999999919531e-01,-7.999999999999944933e-01,8.800000000000034461e-01,1.800000000000063771e-01,-7.099999999999926370e-01,-8.399999999999989697e-01,9.800000000000115286e-01,-6.399999999999943512e-01,1.200000000000063238e-01,-1.799999999999921663e-01,-6.499999999999988010e-01,-1.000000000000000000e+00,-2.999999999999736211e-02,8.100000000000113776e-01,1.000000000000098588e-01,4.800000000000057554e-01,-1.000000000000000000e+00,-4.999999999999737987e-02,2.700000000000037925e-01,1.600000000000028066e-01,2.700000000000073452e-01,-2.599999999999984546e-01,-5.899999999999863132e-01,-7.399999999999979927e-01,4.400000000000057199e-01,2.000000000000063949e-01,-1.199999999999947775e-01,5.000000000000093259e-01,-7.199999999999944222e-01,4.500000000000137224e-01,5.300000000000066880e-01,6.600000000000076916e-01,2.400000000000046541e-01,-3.099999999999896172e-01,-7.099999999999970779e-01,9.800000000000177458e-01,-8.999999999999990230e-01,-3.599999999999905498e-01,6.400000000000023448e-01,-7.299999999999908784e-01,-4.999999999999649170e-02,7.500000000000051070e-01,-5.599999999999907274e-01,-4.499999999999968470e-01,-1.499999999999930278e-01,-4.699999999999977529e-01,-1.599999999999903721e-01,-7.999999999999296563e-02,-1.000000000000000000e+00,-1.000000000000000000e+00,2.400000000000055422e-01,9.700000000000026379e-01,7.400000000000104272e-01,2.900000000000046985e-01,3.552713678800500929e-15,-1.899999999999957279e-01,-1.000000000000000000e+00,-2.199999999999948663e-01,-5.899999999999987477e-01,-7.899999999999989253e-01,5.800000000000111733e-01,9.900000000000070965e-01,-1.000000000000000000e+00,-6.899999999999917311e-01,-1.000000000000000000e+00,-9.599999999999955236e-01,1.900000000000063860e-01,2.800000000000073541e-01,2.400000000000019895e-01,-7.699999999999935785e-01,-2.499999999999984457e-01,-7.699999999999971312e-01,-1.799999999999948308e-01,8.400000000000042988e-01,-7.399999999999979927e-01,-1.000000000000000000e+00
-1.000000000000000000e+00,-4.099999999999985878e-01,-1.000000000000000000e+00,9.600000000000097344e-01,-6.199999999999987743e-01,3.600000000000056488e-01,-2.399999999999984368e-01,4.800000000000057554e-01,-7.099999999999908606e-01,-7.999999999999944933e-01,8.800000000000034461e-01,7.100000000000059597e-01,-6.999999999999935163e-01,-8.399999999999989697e-01,2.900000000000100275e-01,-6.399999999999943512e-01,-1.000000000000000000e+00,-3.499999999999932054e-01,-1.000000000000000000e+00,-1.000000000000000000e+00,-2.999999999999736211e-02,3.600000000000118661e-01,-1.000000000000000000e+00,8.400000000000069633e-01,-1.000000000000000000e+00,-7.599999999999988987e-01,2.700000000000037925e-01,1.600000000000028066e-01,2.700000000000073452e-01,-2.599999999999984546e-01,-5.899999999999863132e-01,-1.000000000000000000e+00,8.300000000000069544e-01,-7.399999999999953282e-01,-1.199999999999947775e-01,5.000000000000093259e-01,-4.299999999999950528e-01,-1.000000000000000000e+00,8.400000000000078515e-01,6.600000000000076916e-01,2.400000000000046541e-01,3.400000000000100719e-01,-7.099999999999970779e-01,-1.699999999999868283e-01,-1.000000000000000000e+00,-2.099999999999913047e-01,6.400000000000023448e-01,-1.299999999999894573e-01,-4.999999999999649170e-02,7.500000000000051070e-01,-5.599999999999907274e-01,-4.599999999999959677e-01,5.100000000000075584e-01,-4.699999999999977529e-01,6.000000000000111910e-01,-7.999999999999296563e-02,-1.000000000000000000e+00,-1.000000000000000000e+00,2.400000000000055422e-01,-5.999999999999827693e-02,1.600000000000108002e-01,5.600000000000040501e-01,3.552713678800500929e-15,-1.899999999999957279e-01,-1.000000000000000000e+00,-2.199999999999948663e-01,-6.499999999999979128e-01,-1.000000000000000000e+00,7.600000000000104450e-01,9.900000000000070965e-01,-1.000000000000000000e+00,-6.899999999999917311e-01,-8.699999999999989964e-01,-9.599999999999955236e-01,1.900000000000063860e-01,-1.000000000000000000e+00,6.100000000000023181e-01,-7.699999999999935785e-01,-2.499999999999984457e-01,-2.599999999999957900e-01,-1.799999999999948308e-01,8.400000000000042988e-01,-7.399999999999979927e-01,8.700000000000069900e-01
-8.799999999999990052e-01,-9.799999999999990941e-01,-1.000000000000000000e+00,-5.699999999999987299e-01,-1.000000000000000000e+00,-4.999999999999960032e-01,-2.399999999999984368e-01,4.800000000000057554e-01,-8.799999999999910116e-01,2.800000000000064659e-01,8.800000000000034461e-01,-9.799999999999990941e-01,5.000000000000892619e-02,-8.399999999999989697e-01,2.900000000000100275e-01,-6.399999999999943512e-01,7.300000000000059774e-01,-3.499999999999932054e-01,-1.000000000000000000e+00,-1.000000000000000000e+00,-1.000000000000000000e+00,-1.000000000000000000e+00,-1.000000000000000000e+00,4.800000000000057554e-01,1.000000000000089706e-01,-7.499999999999988898e-01,1.300000000000027800e-01,1.600000000000028066e-01,-1.999999999999912959e-01,-2.599999999999984546e-01,-1.000000000000000000e+00,-7.399999999999979927e-01,8.900000000000078959e-01,-2.399999999999984368e-01,-1.199999999999947775e-01,4.800000000000084199e-01,-3.999999999999941380e-01,4.500000000000137224e-01,8.400000000000078515e-01,5.100000000000057820e-01,5.000000000000537348e-02,3.400000000000100719e-01,-6.899999999999979483e-01,-1.699999999999877165e-01,2.000000000000268230e-02,-3.799999999999923439e-01,-1.000000000000000000e+00,3.900000000000101164e-01,7.200000000000050804e-01,7.500000000000051070e-01,-5.599999999999907274e-01,-4.499999999999968470e-01,-1.000000000000000000e+00,-1.000000000000000000e+00,-1.599999999999903721e-01,-7.999999999999296563e-02,-1.000000000000000000e+00,9.700000000000070788e-01,-3.599999999999967670e-01,9.700000000000026379e-01,7.400000000000104272e-01,4.000000000000056843e-01,-3.999999999999825917e-02,-9.199999999999945999e-01,-1.000000000000000000e+00,-2.199999999999948663e-01,-6.499999999999979128e-01,-1.000000000000000000e+00,7.000000000000095035e-01,-4.699999999999986411e-01,-1.000000000000000000e+00,-3.399999999999914202e-01,4.800000000000048672e-01,-9.599999999999955236e-01,-1.899999999999930633e-01,-1.799999999999939426e-01,9.500000000000017319e-01,-7.699999999999935785e-01,-2.499999999999984457e-01,-7.699999999999971312e-01,-1.799999999999948308e-01,-1.000000000000000000e+00,-1.000000000000000000e+00,8.700000000000069900e-01
4.440892098500626162e-15,-1.000000000000000000e+00,-1.000000000000000000e+00,-1.000000000000000000e+00,-1.000000000000000000e+00,-4.999999999999960032e-01,-2.399999999999984368e-01,2.900000000000055866e-01,-9.399999999999919531e-01,2.800000000000064659e-01,1.300000000000036682e-01,-1.000000000000000000e+00,-7.099999999999926370e-01,-8.399999999999989697e-01,7.000000000000112799e-01,-1.000000000000000000e+00,7.300000000000059774e-01,-3.499999999999932054e-01,-1.000000000000000000e+00,-1.000000000000000000e+00,-1.000000000000000000e+00,8.100000000000113776e-01,-1.000000000000000000e+00,4.800000000000057554e-01,-4.699999999999906475e-01,-3.499999999999985345e-01,-2.199999999999975309e-01,1.600000000000028066e-01,3.200000000000082778e-01,-8.999999999999741540e-02,2.600000000000153300e-01,-7.399999999999979927e-01,-5.399999999999942624e-01,-8.899999999999954614e-01,-1.199999999999947775e-01,4.800000000000084199e-01,-3.599999999999941025e-01,4.500000000000137224e-01,5.300000000000066880e-01,5.100000000000057820e-01,2.400000000000046541e-01,1.300000000000081091e-01,-6.899999999999979483e-01,-3.099999999999860645e-01,2.000000000000268230e-02,-3.799999999999923439e-01,6.800000000000032685e-01,-4.999999999999906741e-01,-1.399999999999956835e-01,7.500000000000051070e-01,-8.499999999999900968e-01,-7.699999999999962430e-01,5.100000000000075584e-01,-4.699999999999977529e-01,-1.599999999999903721e-01,-8.999999999999928058e-01,-1.000000000000000000e+00,-1.000000000000000000e+00,-3.599999999999967670e-01,9.700000000000026379e-01,7.700000000000122302e-01,5.600000000000040501e-01,-3.999999999999825917e-02,1.000000000000063061e-01,-1.000000000000000000e+00,6.700000000000077005e-01,-1.000000000000000000e+00,-1.000000000000000000e+00,6.400000000000103384e-01,9.900000000000070965e-01,-1.000000000000000000e+00,-3.899999999999932410e-01,4.600000000000066258e-01,-1.000000000000000000e+00,-1.899999999999930633e-01,-1.799999999999939426e-01,4.400000000000021672e-01,-4.699999999999942002e-01,-3.499999999999976463e-01,3.000000000000055955e-01,-1.799999999999948308e-01,4.900000000000048761e-01,-8.599999999999972111e-01,8.700000000000069900e-01
3.100000000000038280e-01,-9.799999999999990941e-01,-1.000000000000000000e+00,-1.000000000000000000e+00,-1.000000000000000000e+00,-1.000000000000000000e+00,-2.399999999999984368e-01,2.900000000000055866e-01,-3.199999999999896261e-01,-7.999999999999944933e-01,8.800000000000034461e-01,-1.000000000000000000e+00,5.000000000000892619e-02,-2.999999999999736211e-02,-1.000000000000000000e+00,-6.399999999999943512e-01,1.200000000000063238e-01,-3.499999999999932054e-01,-1.000000000000000000e+00,-1.000000000000000000e+00,-1.000000000000000000e+00,-1.000000000000000000e+00,1.000000000000098588e-01,8.300000000000060663e-01,-4.699999999999906475e-01,-3.499999999999985345e-01,-2.199999999999975309e-01,1.600000000000028066e-01,3.200000000000082778e-01,-8.999999999999741540e-02,-2.799999999999851497e-01,-7.399999999999979927e-01,4.400000000000057199e-01,-1.000000000000000000e+00,4.600000000000066258e-01,4.800000000000084199e-01,-3.599999999999941025e-01,5.100000000000155520e-01,8.000000000000717648e-02,6.600000000000076916e-01,2.400000000000046541e-01,1.300000000000081091e-01,-6.899999999999979483e-01,3.100000000000135980e-01,-1.000000000000000000e+00,-3.799999999999923439e-01,6.800000000000032685e-01,-4.999999999999906741e-01,-1.399999999999956835e-01,7.500000000000051070e-01,-8.499999999999900968e-01,-7.699999999999962430e-01,5.100000000000075584e-01,-4.699999999999977529e-01,-3.799999999999896794e-01,-7.999999999999296563e-02,-1.000000000000000000e+00,9.700000000000070788e-01,-3.599999999999967670e-01,9.700000000000026379e-01,7.400000000000104272e-01,5.600000000000040501e-01,2.900000000000029221e-01,-5.599999999999951683e-01,-1.000000000000000000e+00,-5.599999999999942801e-01,-5.899999999999987477e-01,-8.599999999999989875e-01,6.400000000000103384e-01,9.900000000000070965e-01,-1.000000000000000000e+00,-3.899999999999932410e-01,4.600000000000066258e-01,-1.000000000000000000e+00,-1.899999999999930633e-01,-1.799999999999939426e-01,9.500000000000017319e-01,-4.699999999999942002e-01,-3.499999999999976463e-01,3.000000000000055955e-01,-1.799999999999948308e-01,-1.599999999999948130e-01,-2.599999999999984546e-01,8.700000000000069900e-01
-8.799999999999990052e-01,-1.000000000000000000e+00,-1.000000000000000000e+00,6.000000000000982325e-02,-1.000000000000000000e+00,5.200000000000049027e-01,-7.899999999999980371e-01,4.800000000000057554e-01,-9.399999999999919531e-01,-1.000000000000000000e+00,8.800000000000034461e-01,-1.699999999999983746e-01,5.000000000000892619e-02,-8.199999999999980638e-01,9.800000000000115286e-01,-6.399999999999943512e-01,6.400000000000067857e-01,-3.499999999999932054e-01,-1.000000000000000000e+00,-1.000000000000000000e+00,-1.000000000000000000e+00,-1.000000000000000000e+00,-8.899999999999990141e-01,2.700000000000064571e-01,-7.699999999999900258e-01,-3.499999999999985345e-01,4.900000000000039879e-01,1.600000000000028066e-01,-1.999999999999912959e-01,-2.599999999999984546e-01,-1.000000000000000000e+00,-1.399999999999983480e-01,5.400000000000066969e-01,-7.399999999999953282e-01,-1.199999999999947775e-01,9.000000000000896172e-02,-4.299999999999950528e-01,4.500000000000137224e-01,8.400000000000078515e-01,6.600000000000076916e-01,2.400000000000046541e-01,3.400000000000100719e-01,-6.899999999999979483e-01,-2.999999999999869438e-01,-1.000000000000000000e+00,-8.999999999999119815e-02,6.400000000000023448e-01,-1.299999999999894573e-01,-4.999999999999649170e-02,-1.000000000000000000e+00,-8.499999999999900968e-01,-1.899999999999957279e-01,-1.000000000000000000e+00,-1.000000000000000000e+00,-1.599999999999903721e-01,-7.999999999999944933e-01,-4.699999999999986411e-01,-1.000000000000000000e+00,2.400000000000055422e-01,-1.000000000000000000e+00,7.400000000000104272e-01,4.000000000000056843e-01,-3.999999999999825917e-02,-9.599999999999955236e-01,-1.000000000000000000e+00,-1.000000000000000000e+00,-6.499999999999979128e-01,-7.199999999999988631e-01,7.000000000000095035e-01,9.900000000000070965e-01,-1.000000000000000000e+00,1.400000000000081180e-01,4.800000000000048672e-01,-1.000000000000000000e+00,1.900000000000063860e-01,-1.799999999999939426e-01,6.100000000000023181e-01,-7.699999999999935785e-01,-2.499999999999984457e-01,-7.699999999999971312e-01,-1.799999999999948308e-01,-3.999999999999559464e-02,-2.599999999999984546e-01,8.700000000000069900e-01
-8.799999999999990052e-01,-1.000000000000000000e+00,-1.000000000000000000e+00,-1.000000000000000000e+00,-2.099999999999984102e-01,-4.999999999999960032e-01,-2.399999999999984368e-01,4.800000000000057554e-01,-2.899999999999904876e-01,2.800000000000064659e-01,8.800000000000034461e-01,-2.099999999999939693e-01,-6.999999999999935163e-01,-8.399999999999989697e-01,-6.399999999999987921e-01,-6.399999999999943512e-01,7.300000000000059774e-01,1.500000000000081268e-01,-1.000000000000000000e+00,-1.000000000000000000e+00,-1.000000000000000000e+00,8.100000000000113776e-01,1.000000000000098588e-01,8.300000000000060663e-01,-1.000000000000000000e+00,-7.599999999999988987e-01,-2.199999999999975309e-01,1.600000000000028066e-01,2.700000000000073452e-01,-8.999999999999741540e-02,-2.799999999999851497e-01,-7.399999999999979927e-01,5.400000000000066969e-01,-1.000000000000000000e+00,-1.199999999999947775e-01,6.400000000000094502e-01,-3.599999999999941025e-01,-1.000000000000000000e+00,8.400000000000078515e-01,6.600000000000076916e-01,2.400000000000046541e-01,1.300000000000081091e-01,-6.899999999999979483e-01,8.200000000000149392e-01,2.000000000000268230e-02,-2.099999999999913047e-01,6.400000000000023448e-01,-1.299999999999894573e-01,-4.999999999999649170e-02,7.500000000000051070e-01,-8.499999999999900968e-01,-7.699999999999962430e-01,5.100000000000075584e-01,-4.699999999999977529e-01,-2.999999999998936850e-02,-9.499999999999928502e-01,-1.000000000000000000e+00,-1.000000000000000000e+00,-3.599999999999967670e-01,9.700000000000026379e-01,1.600000000000108002e-01,5.600000000000040501e-01,3.552713678800500929e-15,-5.599999999999951683e-01,-1.000000000000000000e+00,-2.199999999999948663e-01,-1.000000000000000000e+00,-1.000000000000000000e+00,6.400000000000103384e-01,9.900000000000070965e-01,-1.000000000000000000e+00,-3.899999999999932410e-01,-8.699999999999989964e-01,-1.000000000000000000e+00,-1.899999999999930633e-01,-3.899999999999932410e-01,9.500000000000017319e-01,-7.699999999999935785e-01,4.300000000000039346e-01,3.000000000000055955e-01,-1.799999999999948308e-01,-1.000000000000000000e+00,-7.399999999999979927e-01,-1.000000000000000000e+00
-8.799999999999990052e-01,-1.000000000000000000e+00,-1.000000000000000000e+00,9.600000000000097344e-01,-4.999999999999737987e-02,5.200000000000049027e-01,-5.999999999999738876e-02,-5.599999999999942801e-01,-9.399999999999919531e-01,-1.000000000000000000e+00,3.300000000000038458e-01,-6.799999999999988276e-01,-7.099999999999926370e-01,-8.399999999999989697e-01,-5.999999999998939515e-02,-1.000000000000000000e+00,7.300000000000059774e-01,-1.000000000000000000e+00,-1.000000000000000000e+00,-1.000000000000000000e+00,-1.000000000000000000e+00,8.100000000000113776e-01,1.000000000000098588e-01,4.800000000000057554e-01,-1.000000000000000000e+00,-3.499999999999985345e-01,4.900000000000039879e-01,1.600000000000028066e-01,-1.999999999999912959e-01,-8.999999999999741540e-02,-1.000000000000000000e+00,-1.399999999999983480e-01,5.400000000000066969e-01,-7.399999999999953282e-01,-2.599999999999940137e-01,4.800000000000084199e-01,-4.299999999999950528e-01,-3.599999999999861089e-01,5.300000000000066880e-01,6.600000000000076916e-01,2.400000000000046541e-01,3.400000000000100719e-01,-6.899999999999979483e-01,-2.999999999999869438e-01,-1.000000000000000000e+00,-4.099999999999914824e-01,6.400000000000023448e-01,-1.299999999999894573e-01,-4.999999999999649170e-02,7.500000000000051070e-01,-5.599999999999907274e-01,-4.499999999999968470e-01,-1.000000000000000000e+00,-1.000000000000000000e+00,-1.599999999999903721e-01,-7.999999999999944933e-01,-4.699999999999986411e-01,-1.000000000000000000e+00,-3.599999999999967670e-01,-1.000000000000000000e+00,7.400000000000104272e-01,4.000000000000056843e-01,-3.999999999999825917e-02,-1.899999999999957279e-01,-1.000000000000000000e+00,-1.000000000000000000e+00,-1.000000000000000000e+00,-7.199999999999988631e-01,5.800000000000111733e-01,9.900000000000070965e-01,-1.000000000000000000e+00,1.400000000000081180e-01,-6.999999999999926281e-01,-1.000000000000000000e+00,1.900000000000063860e-01,2.800000000000073541e-01,6.100000000000023181e-01,-7.699999999999935785e-01,-2.499999999999984457e-01,-7.699999999999971312e-01,-7.199999999999944222e-01,-1.000000000000000000e+00,-1.000000000000000000e+00,-1.000000000000000000e+00
7.100000000000050715e-01,-1.000000000000000000e+00,-1.000000000000000000e+00,-1.000000000000000000e+00,-9.999999999999991118e-01,-4.999999999999960032e-01,-2.399999999999984368e-01,2.900000000000055866e-01,-9.399999999999919531e-01,2.800000000000064659e-01,8.800000000000034461e-01,-1.000000000000000000e+00,-7.099999999999926370e-01,-8.099999999999980549e-01,2.900000000000100275e-01,-6.399999999999943512e-01,7.300000000000059774e-01,-3.499999999999932054e-01,-1.000000000000000000e+00,-1.000000000000000000e+00,-1.000000000000000000e+00,3.900000000000118927e-01,1.000000000000098588e-01,8.300000000000060663e-01,-4.699999999999906475e-01,-3.499999999999985345e-01,-2.199999999999975309e-01,-8.999999999999652722e-02,2.700000000000073452e-01,-8.999999999999741540e-02,-2.799999999999851497e-01,-7.399999999999979927e-01,5.400000000000066969e-01,-2.399999999999984368e-01,-1.199999999999947775e-01,4.800000000000084199e-01,-3.599999999999941025e-01,5.100000000000155520e-01,5.300000000000066880e-01,-1.000000000000000000e+00,2.400000000000046541e-01,1.300000000000081091e-01,-6.899999999999979483e-01,-1.699999999999877165e-01,2.000000000000268230e-02,-2.099999999999913047e-01,6.400000000000023448e-01,-4.999999999999906741e-01,-1.399999999999956835e-01,7.500000000000051070e-01,-8.499999999999900968e-01,-7.699999999999962430e-01,5.100000000000075584e-01,-4.699999999999977529e-01,-1.599999999999903721e-01,-7.499999999999926725e-01,-1.000000000000000000e+00,9.700000000000070788e-01,-3.599999999999967670e-01,9.700000000000026379e-01,7.400000000000104272e-01,5.600000000000040501e-01,2.300000000000037570e-01,-5.599999999999951683e-01,-1.000000000000000000e+00,-5.599999999999942801e-01,-8.399999999999989697e-01,-1.000000000000000000e+00,6.400000000000103384e-01,9.900000000000070965e-01,-1.000000000000000000e+00,-3.899999999999932410e-01,4.600000000000066258e-01,-1.000000000000000000e+00,-1.899999999999930633e-01,-1.799999999999939426e-01,1.500000000000019096e-01,-4.699999999999942002e-01,-3.499999999999976463e-01,3.000000000000055955e-01,-1.799999999999948308e-01,4.900000000000048761e-01,-2.599999999999984546e-01,8.700000000000069900e-01
3.100000000000038280e-01,-9.799999999999990941e-01,-1.000000000000000000e+00,-1.000000000000000000e+00,-1.000000000000000000e+00,-4.999999999999960032e-01,-2.399999999999984368e-01,4.800000000000057554e-01,-9.399999999999919531e-01,-4.599999999999933031e-01,-1.000000000000000000e+00,-1.000000000000000000e+00,-7.099999999999926370e-01,-1.399999999999939071e-01,9.800000000000115286e-01,-6.399999999999943512e-01,7.300000000000059774e-01,-3.499999999999932054e-01,-1.000000000000000000e+00,-1.000000000000000000e+00,-1.000000000000000000e+00,8.100000000000113776e-01,1.000000000000098588e-01,8.300000000000060663e-01,-1.000000000000000000e+00,-7.599999999999988987e-01,2.700000000000037925e-01,6.500000000000041300e-01,3.200000000000082778e-01,-2.599999999999984546e-01,-5.899999999999863132e-01,-3.599999999999976552e-01,8.300000000000069544e-01,-7.399999999999953282e-01,-1.199999999999947775e-01,4.800000000000084199e-01,-3.599999999999941025e-01,4.500000000000137224e-01,5.300000000000066880e-01,6.600000000000076916e-01,7.100000000000059597e-01,-2.099999999999913047e-01,-6.899999999999979483e-01,9.800000000000177458e-01,-1.000000000000000000e+00,-3.799999999999923439e-01,6.400000000000023448e-01,2.000000000000889955e-02,-4.999999999999649170e-02,9.700000000000061906e-01,-3.299999999999896350e-01,-4.499999999999968470e-01,2.600000000000064482e-01,-4.699999999999977529e-01,-6.499999999999899192e-01,9.000000000000087930e-01,-1.000000000000000000e+00,5.600000000000076028e-01,2.400000000000055422e-01,9.700000000000026379e-01,1.600000000000108002e-01,5.600000000000040501e-01,-3.999999999999825917e-02,-1.899999999999957279e-01,-7.799999999999989164e-01,-2.199999999999948663e-01,-6.499999999999979128e-01,-1.000000000000000000e+00,5.800000000000111733e-01,9.900000000000070965e-01,-1.000000000000000000e+00,1.400000000000081180e-01,4.800000000000048672e-01,-9.599999999999955236e-01,-1.000000000000000000e+00,-1.799999999999939426e-01,9.500000000000017319e-01,-4.699999999999942002e-01,-3.499999999999976463e-01,-7.699999999999971312e-01,-1.799999999999948308e-01,8.400000000000042988e-01,-5.399999999999969269e-01,8.700000000000069900e-01
-8.799999999999990052e-01,-9.799999999999990941e-01,-1.000000000000000000e+00,9.600000000000097344e-01,-4.999999999999737987e-02,-4.999999999999960032e-01,5.100000000000031175e-01,4.800000000000057554e-01,-9.399999999999919531e-01,2.800000000000064659e-01,-6.999999999999650946e-02,-1.000000000000000000e+00,-7.099999999999926370e-01,-1.399999999999939071e-01,9.600000000000115108e-01,-6.399999999999943512e-01,7.300000000000059774e-01,-3.499999999999932054e-01,-1.000000000000000000e+00,-1.000000000000000000e+00,-1.000000000000000000e+00,-1.000000000000000000e+00,1.000000000000098588e-01,8.300000000000060663e-01,-4.699999999999906475e-01,-3.499999999999985345e-01,2.700000000000037925e-01,6.500000000000041300e-01,-1.999999999999912959e-01,-2.599999999999984546e-01,-1.000000000000000000e+00,-7.399999999999979927e-01,5.400000000000066969e-01,-8.899999999999954614e-01,-1.199999999999947775e-01,4.800000000000084199e-01,-4.299999999999950528e-01,4.500000000000137224e-01,8.400000000000078515e-01,6.800000000000085976e-01,5.000000000000537348e-02,-2.099999999999913047e-01,-6.899999999999979483e-01,5.900000000000165112e-01,-1.000000000000000000e+00,-4.099999999999914824e-01,6.400000000000023448e-01,2.000000000000889955e-02,-4.999999999999649170e-02,7.500000000000051070e-01,-5.599999999999907274e-01,-4.599999999999959677e-01,-1.000000000000000000e+00,-4.699999999999977529e-01,-1.599999999999903721e-01,-3.599999999999923261e-01,-4.699999999999986411e-01,9.700000000000070788e-01,-3.599999999999967670e-01,-1.000000000000000000e+00,1.600000000000108002e-01,4.000000000000056843e-01,-3.999999999999825917e-02,-1.000000000000000000e+00,-1.000000000000000000e+00,2.600000000000064482e-01,-6.499999999999979128e-01,-1.000000000000000000e+00,7.000000000000095035e-01,-4.699999999999986411e-01,-1.000000000000000000e+00,1.400000000000081180e-01,4.800000000000048672e-01,-5.499999999999960476e-01,-1.000000000000000000e+00,-1.799999999999939426e-01,9.500000000000017319e-01,-7.699999999999935785e-01,-3.499999999999976463e-01,-7.699999999999971312e-01,-1.799999999999948308e-01,-1.000000000000000000e+00,-1.000000000000000000e+00,-1.000000000000000000e+00
3.100000000000038280e-01,-9.799999999999990941e-01,-5.499999999999987121e-01,-1.000000000000000000e+00,-1.000000000000000000e+00,-4.999999999999960032e-01,5.200000000000031264e-01,4.800000000000057554e-01,-9.399999999999919531e-01,-1.000000000000000000e+00,3.300000000000038458e-01,-1.000000000000000000e+00,5.000000000000892619e-02,-8.399999999999989697e-01,-5.999999999998939515e-02,-6.399999999999934630e-01,7.300000000000059774e-01,-3.499999999999932054e-01,-1.000000000000000000e+00,-1.000000000000000000e+00,-1.000000000000000000e+00,3.600000000000118661e-01,-1.000000000000000000e+00,2.700000000000064571e-01,-2.499999999999922284e-01,-3.499999999999985345e-01,6.400000000000050093e-01,6.500000000000041300e-01,3.200000000000082778e-01,1.700000000000037037e-01,3.000000000001512568e-02,-7.399999999999979927e-01,8.300000000000069544e-01,-7.399999999999953282e-01,-1.199999999999947775e-01,4.800000000000084199e-01,-4.299999999999950528e-01,4.500000000000137224e-01,5.300000000000066880e-01,6.600000000000076916e-01,2.400000000000046541e-01,-2.099999999999913047e-01,-6.899999999999979483e-01,-1.699999999999877165e-01,-3.399999999999985256e-01,-8.999999999999119815e-02,6.400000000000023448e-01,-1.299999999999894573e-01,-4.999999999999649170e-02,7.500000000000051070e-01,-8.499999999999900968e-01,-1.000000000000000000e+00,-1.000000000000000000e+00,-1.000000000000000000e+00,-9.999999999999031886e-02,-7.999999999999944933e-01,-4.699999999999986411e-01,9.700000000000070788e-01,-3.599999999999967670e-01,-1.000000000000000000e+00,1.600000000000108002e-01,5.600000000000040501e-01,-3.999999999999825917e-02,-9.599999999999955236e-01,-1.000000000000000000e+00,2.600000000000064482e-01,-1.000000000000000000e+00,-7.199999999999988631e-01,5.800000000000111733e-01,9.900000000000070965e-01,-1.000000000000000000e+00,-3.899999999999932410e-01,4.800000000000048672e-01,-1.000000000000000000e+00,1.900000000000063860e-01,2.800000000000073541e-01,6.100000000000023181e-01,-4.699999999999942002e-01,3.100000000000038280e-01,3.000000000000055955e-01,-1.000000000000000000e+00,4.900000000000048761e-01,-5.399999999999969269e-01,8.700000000000069900e-01
-8.799999999999990052e-01,-1.000000000000000000e+00,-1.000000000000000000e+00,2.400000000000108713e-01,-6.199999999999987743e-01,-4.999999999999960032e-01,-2.399999999999984368e-01,2.900000000000055866e-01,-9.399999999999919531e-01,-7.999999999999944933e-01,8.800000000000034461e-01,1.800000000000063771e-01,5.000000000000892619e-02,-8.399999999999989697e-01,7.900000000000122480e-01,-6.399999999999943512e-01,1.200000000000063238e-01,-3.499999999999932054e-01,-5.799999999999987388e-01,-1.000000000000000000e+00,-1.000000000000000000e+00,5.400000000000120259e-01,1.000000000000098588e-01,8.300000000000060663e-01,-4.699999999999906475e-01,3.200000000000029488e-01,-2.199999999999975309e-01,1.600000000000028066e-01,2.700000000000073452e-01,-2.599999999999984546e-01,-5.899999999999863132e-01,-7.399999999999979927e-01,4.400000000000057199e-01,-7.399999999999953282e-01,-1.199999999999947775e-01,4.800000000000084199e-01,-7.199999999999944222e-01,2.700000000000144507e-01,5.300000000000066880e-01,6.600000000000076916e-01,2.400000000000046541e-01,-2.099999999999913047e-01,-1.000000000000000000e+00,5.900000000000165112e-01,-8.999999999999990230e-01,-3.599999999999905498e-01,6.400000000000023448e-01,-4.999999999999906741e-01,-4.699999999999959766e-01,7.500000000000051070e-01,-8.499999999999900968e-01,-7.699999999999962430e-01,4.900000000000084288e-01,-4.699999999999977529e-01,-9.999999999999031886e-02,-7.999999999999296563e-02,-1.000000000000000000e+00,9.700000000000070788e-01,-3.599999999999967670e-01,9.700000000000026379e-01,7.400000000000104272e-01,5.600000000000040501e-01,2.900000000000029221e-01,-5.599999999999951683e-01,-9.799999999999990941e-01,-2.199999999999948663e-01,-1.000000000000000000e+00,-1.000000000000000000e+00,6.400000000000103384e-01,9.900000000000070965e-01,-9.999999999998232525e-03,1.400000000000081180e-01,4.600000000000066258e-01,-9.599999999999955236e-01,6.500000000000076827e-01,2.800000000000073541e-01,2.400000000000019895e-01,-4.699999999999942002e-01,-3.499999999999976463e-01,-7.699999999999971312e-01,-1.799999999999948308e-01,-1.000000000000000000e+00,-2.599999999999984546e-01,8.700000000000069900e-01
-8.799999999999990052e-01,-1.000000000000000000e+00,-1.000000000000000000e+00,-3.799999999999985612e-01,-6.199999999999987743e-01,5.200000000000049027e-01,-2.399999999999984368e-01,2.900000000000055866e-01,-9.399999999999919531e-01,-7.799999999999953637e-01,8.800000000000034461e-01,-1.000000000000000000e+00,-7.099999999999926370e-01,-8.399999999999989697e-01,9.800000000000115286e-01,-6.399999999999943512e-01,7.300000000000059774e-01,-1.799999999999921663e-01,-5.299999999999986944e-01,-1.000000000000000000e+00,-1.000000000000000000e+00,8.100000000000113776e-01,1.000000000000098588e-01,4.800000000000057554e-01,-4.699999999999906475e-01,-7.599999999999988987e-01,2.700000000000037925e-01,1.600000000000028066e-01,2.700000000000073452e-01,-2.599999999999984546e-01,-2.799999999999851497e-01,-1.399999999999983480e-01,5.400000000000066969e-01,-7.399999999999953282e-01,-1.199999999999947775e-01,4.800000000000084199e-01,-4.299999999999950528e-01,4.500000000000137224e-01,9.200000000000079226e-01,6.600000000000076916e-01,2.400000000000046541e-01,1.300000000000081091e-01,-6.899999999999979483e-01,3.100000000000135980e-01,-2.899999999999984812e-01,-3.799999999999923439e-01,-1.000000000000000000e+00,-4.999999999999906741e-01,-4.999999999999649170e-02,7.500000000000051070e-01,-8.499999999999900968e-01,-4.499999999999968470e-01,2.600000000000064482e-01,-4.699999999999977529e-01,-1.599999999999903721e-01,1.800000000000081535e-01,-1.000000000000000000e+00,-1.000000000000000000e+00,-3.599999999999967670e-01,-5.999999999999827693e-02,-2.599999999999886846e-01,5.600000000000040501e-01,-3.999999999999825917e-02,-1.899999999999957279e-01,-1.000000000000000000e+00,-2.199999999999948663e-01,-1.000000000000000000e+00,-1.000000000000000000e+00,5.800000000000111733e-01,9.900000000000070965e-01,-1.000000000000000000e+00,-6.899999999999917311e-01,4.600000000000066258e-01,-1.000000000000000000e+00,-1.899999999999930633e-01,-1.799999999999939426e-01,-1.399999999999974598e-01,-4.699999999999942002e-01,-3.499999999999976463e-01,3.000000000000055955e-01,-1.799999999999948308e-01,4.900000000000048761e-01,-1.000000000000000000e+00,8.700000000000069900e-01
-8.799999999999990052e-01,-1.000000000000000000e+00,-1.000000000000000000e+00,-1.000000000000000000e+00,-1.000000000000000000e+00,-4.999999999999960032e-01,-2.399999999999984368e-01,2.900000000000055866e-01,-9.399999999999919531e-01,2.800000000000064659e-01,1.100000000000036504e-01,-1.000000000000000000e+00,-7.099999999999926370e-01,-8.399999999999989697e-01,-1.000000000000000000e+00,5.000000000000084377e-01,7.300000000000059774e-01,-3.499999999999932054e-01,-1.000000000000000000e+00,-1.000000000000000000e+00,-1.000000000000000000e+00,3.600000000000118661e-01,-1.599999999999894840e-01,8.300000000000060663e-01,-2.499999999999922284e-01,-3.499999999999985345e-01,1.700000000000037037e-01,6.500000000000041300e-01,2.700000000000073452e-01,-8.999999999999741540e-02,-2.799999999999851497e-01,-7.399999999999979927e-01,5.400000000000066969e-01,-1.000000000000000000e+00,-1.199999999999947775e-01,4.800000000000084199e-01,-3.599999999999941025e-01,5.100000000000155520e-01,5.300000000000066880e-01,6.600000000000076916e-01,2.400000000000046541e-01,-2.099999999999913047e-01,-6.899999999999979483e-01,-1.699999999999877165e-01,2.000000000000268230e-02,-3.799999999999923439e-01,6.400000000000023448e-01,-4.999999999999906741e-01,-1.399999999999956835e-01,7.500000000000051070e-01,-8.499999999999900968e-01,-7.699999999999962430e-01,5.100000000000075584e-01,-7.599999999999971223e-01,-1.599999999999903721e-01,-7.999999999999296563e-02,-1.000000000000000000e+00,9.700000000000070788e-01,-1.000000000000000000e+00,9.700000000000026379e-01,7.400000000000104272e-01,5.600000000000040501e-01,-3.999999999999825917e-02,-5.599999999999951683e-01,-1.000000000000000000e+00,-5.599999999999942801e-01,-2.399999999999966604e-01,-6.899999999999988365e-01,6.400000000000103384e-01,9.900000000000070965e-01,-1.000000000000000000e+00,1.400000000000081180e-01,4.800000000000048672e-01,-1.000000000000000000e+00,-1.000000000000000000e+00,-1.799999999999939426e-01,9.500000000000017319e-01,-4.699999999999942002e-01,-3.499999999999976463e-01,3.000000000000055955e-01,-1.000000000000000000e+00,3.900000000000056755e-01,-2.599999999999984546e-01,8.700000000000069900e-01
-8.799999999999990052e-01,-3.999999999999825917e-02,-1.000000000000000000e+00,8.100000000000104894e-01,2.400000000000037659e-01,5.200000000000049027e-01,-5.999999999999738876e-02,4.800000000000057554e-01,-9.399999999999919531e-01,-7.799999999999953637e-01,8.800000000000034461e-01,-1.000000000000000000e+00,-7.099999999999926370e-01,-8.399999999999989697e-01,9.800000000000115286e-01,-6.399999999999943512e-01,7.300000000000059774e-01,-3.499999999999932054e-01,-1.000000000000000000e+00,-1.000000000000000000e+00,-1.000000000000000000e+00,-1.000000000000000000e+00,-1.000000000000000000e+00,4.800000000000057554e-01,-1.000000000000000000e+00,-7.599999999999988987e-01,1.300000000000027800e-01,1.600000000000028066e-01,-3.899999999999914646e-01,-2.599999999999984546e-01,-1.000000000000000000e+00,-7.399999999999979927e-01,8.300000000000069544e-01,-2.999999999999380940e-02,-2.599999999999940137e-01,4.800000000000084199e-01,-4.299999999999950528e-01,4.500000000000137224e-01,8.400000000000078515e-01,6.600000000000076916e-01,2.400000000000046541e-01,3.400000000000100719e-01,-6.899999999999979483e-01,-1.699999999999868283e-01,-1.000000000000000000e+00,-4.099999999999914824e-01,6.800000000000032685e-01,-1.299999999999894573e-01,-4.999999999999649170e-02,7.500000000000051070e-01,-5.599999999999907274e-01,-6.199999999999961098e-01,5.100000000000075584e-01,-4.699999999999977529e-01,-1.599999999999903721e-01,-7.999999999999944933e-01,-4.699999999999986411e-01,-1.000000000000000000e+00,2.400000000000055422e-01,-1.000000000000000000e+00,7.400000000000104272e-01,5.600000000000040501e-01,-3.999999999999825917e-02,-1.899999999999957279e-01,-1.000000000000000000e+00,-2.199999999999948663e-01,-6.499999999999979128e-01,-1.000000000000000000e+00,7.600000000000104450e-01,9.900000000000070965e-01,-1.000000000000000000e+00,1.400000000000081180e-01,-8.699999999999989964e-01,-9.599999999999955236e-01,1.900000000000063860e-01,-1.799999999999939426e-01,9.500000000000017319e-01,-1.000000000000000000e+00,-3.499999999999976463e-01,-7.699999999999971312e-01,6.217248937900876626e-15,-1.000000000000000000e+00,-1.000000000000000000e+00,-1.000000000000000000e+00
3.100000000000038280e-01,-1.000000000000000000e+00,-1.000000000000000000e+00,9.600000000000097344e-01,-1.000000000000000000e+00,-4.999999999999960032e-01,-7.899999999999980371e-01,4.800000000000057554e-01,-2.899999999999904876e-01,-7.999999999999944933e-01,8.800000000000034461e-01,6.200000000000067679e-01,5.000000000000892619e-02,-8.399999999999989697e-01,2.900000000000100275e-01,-6.399999999999943512e-01,7.300000000000059774e-01,-3.499999999999932054e-01,-1.000000000000000000e+00,-1.000000000000000000e+00,-1.000000000000000000e+00,3.900000000000118927e-01,-1.000000000000000000e+00,4.800000000000057554e-01,-2.499999999999922284e-01,-7.599999999999988987e-01,-2.199999999999975309e-01,1.600000000000028066e-01,3.200000000000082778e-01,-2.599999999999984546e-01,2.600000000000153300e-01,-7.399999999999979927e-01,-5.599999999999942801e-01,-2.999999999999380940e-02,-1.199999999999947775e-01,4.800000000000084199e-01,-8.999999999999386269e-02,-1.000000000000000000e+00,8.400000000000078515e-01,5.100000000000057820e-01,2.400000000000046541e-01,-2.099999999999913047e-01,-6.899999999999979483e-01,-1.699999999999868283e-01,2.000000000000268230e-02,-2.099999999999913047e-01,6.800000000000032685e-01,-1.299999999999894573e-01,-1.399999999999956835e-01,7.500000000000051070e-01,-8.499999999999900968e-01,-4.599999999999959677e-01,5.100000000000075584e-01,-1.000000000000000000e+00,-1.599999999999903721e-01,-7.999999999999296563e-02,-1.000000000000000000e+00,-1.000000000000000000e+00,2.400000000000055422e-01,9.700000000000026379e-01,1.000000000001155520e-02,9.000000000000452083e-02,-3.999999999999825917e-02,-5.599999999999951683e-01,-1.000000000000000000e+00,-2.199999999999948663e-01,-5.899999999999987477e-01,-1.000000000000000000e+00,5.800000000000111733e-01,9.900000000000070965e-01,-1.000000000000000000e+00,1.400000000000081180e-01,-8.699999999999989964e-01,-5.499999999999960476e-01,1.900000000000063860e-01,-3.899999999999932410e-01,9.500000000000017319e-01,-7.699999999999935785e-01,-3.499999999999976463e-01,3.000000000000055955e-01,6.217248937900876626e-15,4.900000000000048761e-01,-8.599999999999972111e-01,8.700000000000069900e-01
-8.799999999999990052e-01,-1.000000000000000000e+00,-1.000000000000000000e+00,6.000000000000982325e-02,-1.000000000000000000e+00,-4.999999999999960032e-01,-7.899999999999980371e-01,2.900000000000055866e-01,-9.399999999999919531e-01,-1.000000000000000000e+00,3.300000000000038458e-01,-6.799999999999988276e-01,5.000000000000892619e-02,-8.399999999999989697e-01,2.900000000000100275e-01,-1.000000000000000000e+00,7.300000000000059774e-01,-3.499999999999932054e-01,-1.000000000000000000e+00,-1.000000000000000000e+00,-6.999999999999988454e-01,3.900000000000118927e-01,-8.899999999999990141e-01,4.800000000000057554e-01,-1.000000000000000000e+00,-3.499999999999985345e-01,-2.199999999999975309e-01,1.600000000000028066e-01,3.200000000000082778e-01,1.400000000000036771e-01,2.600000000000153300e-01,-7.399999999999979927e-01,4.400000000000057199e-01,-8.899999999999954614e-01,-1.199999999999947775e-01,7.200000000000095213e-01,-4.299999999999950528e-01,4.500000000000137224e-01,5.300000000000066880e-01,5.100000000000057820e-01,2.400000000000046541e-01,1.300000000000081091e-01,-6.899999999999979483e-01,-1.699999999999868283e-01,-3.399999999999985256e-01,-8.999999999999119815e-02,6.800000000000032685e-01,-1.299999999999894573e-01,3.400000000000047429e-01,7.500000000000051070e-01,-8.499999999999900968e-01,4.200000000000048139e-01,5.100000000000075584e-01,-1.000000000000000000e+00,-9.999999999999031886e-02,-7.999999999999944933e-01,-4.699999999999986411e-01,-1.000000000000000000e+00,-3.599999999999967670e-01,-1.000000000000000000e+00,1.600000000000108002e-01,5.600000000000040501e-01,-3.699999999999976641e-01,-9.599999999999955236e-01,-1.000000000000000000e+00,-1.000000000000000000e+00,-1.000000000000000000e+00,-1.000000000000000000e+00,-4.099999999999888178e-01,9.900000000000070965e-01,-1.000000000000000000e+00,1.400000000000081180e-01,-6.999999999999926281e-01,-1.000000000000000000e+00,1.900000000000063860e-01,-1.799999999999939426e-01,-1.000000000000000000e+00,-7.699999999999935785e-01,-3.499999999999976463e-01,3.000000000000055955e-01,-1.799999999999948308e-01,-4.999999999999649170e-02,-8.599999999999972111e-01,8.700000000000069900e-01
-8.799999999999990052e-01,-1.000000000000000000e+00,-1.000000000000000000e+00,-1.000000000000000000e+00,-7.999999999999740652e-02,-4.999999999999960032e-01,-3.899999999999976819e-01,2.900000000000055866e-01,-2.899999999999904876e-01,-7.999999999999944933e-01,7.300000000000042011e-01,7.100000000000059597e-01,5.000000000000892619e-02,-8.399999999999989697e-01,8.000000000001072920e-02,-6.399999999999943512e-01,1.200000000000063238e-01,-1.999999999999984013e-01,-1.000000000000000000e+00,-1.000000000000000000e+00,-1.000000000000000000e+00,8.100000000000113776e-01,1.000000000000098588e-01,8.300000000000060663e-01,-1.000000000000000000e+00,-3.499999999999985345e-01,-1.000000000000000000e+00,1.600000000000028066e-01,-1.000000000000000000e+00,-8.999999999999741540e-02,-5.899999999999863132e-01,-1.000000000000000000e+00,4.500000000000066169e-01,-7.399999999999953282e-01,7.300000000000068656e-01,4.800000000000084199e-01,-3.599999999999941025e-01,-1.000000000000000000e+00,5.300000000000066880e-01,6.600000000000076916e-01,2.400000000000046541e-01,-2.099999999999913047e-01,-1.000000000000000000e+00,4.900000000000173106e-01,-8.999999999999990230e-01,-3.799999999999923439e-01,6.800000000000032685e-01,-1.299999999999894573e-01,-4.699999999999959766e-01,-1.000000000000000000e+00,-8.499999999999900968e-01,-4.499999999999968470e-01,5.100000000000075584e-01,-4.699999999999977529e-01,-6.499999999999899192e-01,-7.399999999999926636e-01,-1.000000000000000000e+00,9.700000000000070788e-01,-3.599999999999967670e-01,9.700000000000026379e-01,7.400000000000104272e-01,5.600000000000040501e-01,-3.999999999999825917e-02,-5.599999999999951683e-01,-1.000000000000000000e+00,-2.199999999999948663e-01,-5.899999999999987477e-01,-8.599999999999989875e-01,5.800000000000111733e-01,9.900000000000070965e-01,-1.000000000000000000e+00,1.400000000000081180e-01,4.600000000000066258e-01,-1.000000000000000000e+00,1.900000000000063860e-01,-1.799999999999939426e-01,2.400000000000019895e-01,1.800000000000072653e-01,-3.499999999999976463e-01,-7.699999999999971312e-01,-1.799999999999948308e-01,4.900000000000048761e-01,-5.399999999999969269e-01,8.700000000000069900e-01
-8.799999999999990052e-01,-4.999999999999986677e-01,-1.000000000000000000e+00,2.400000000000108713e-01,-1.000000000000000000e+00,-4.999999999999960032e-01,-2.399999999999984368e-01,2.900000000000055866e-01,-2.899999999999904876e-01,-7.999999999999944933e-01,8.800000000000034461e-01,-1.000000000000000000e+00,5.000000000000892619e-02,-1.399999999999939071e-01,2.900000000000100275e-01,-6.399999999999943512e-01,1.200000000000063238e-01,-3.499999999999932054e-01,-1.000000000000000000e+00,-1.000000000000000000e+00,-1.000000000000000000e+00,4.200000000000119194e-01,-1.000000000000000000e+00,4.800000000000057554e-01,-2.499999999999922284e-01,-3.499999999999985345e-01,2.700000000000037925e-01,1.600000000000028066e-01,3.200000000000082778e-01,-2.599999999999984546e-01,-5.899999999999863132e-01,-7.399999999999979927e-01,8.300000000000069544e-01,-7.399999999999953282e-01,-1.199999999999947775e-01,4.800000000000084199e-01,-3.599999999999941025e-01,2.700000000000144507e-01,5.300000000000066880e-01,6.600000000000076916e-01,2.400000000000046541e-01,-2.099999999999913047e-01,-6.899999999999979483e-01,-1.999999999998314237e-02,2.000000000000268230e-02,-3.799999999999923439e-01,6.400000000000023448e-01,-9.099999999999910383e-01,-4.699999999999959766e-01,7.500000000000051070e-01,-8.499999999999900968e-01,-4.599999999999959677e-01,3.300000000000082867e-01,-7.599999999999971223e-01,-6.499999999999899192e-01,3.100000000000082689e-01,-1.000000000000000000e+00,9.700000000000070788e-01,-7.699999999999962430e-01,9.700000000000026379e-01,7.400000000000104272e-01,-1.699999999999948219e-01,3.552713678800500929e-15,-1.899999999999957279e-01,-1.000000000000000000e+00,-2.199999999999948663e-01,-6.499999999999979128e-01,-1.000000000000000000e+00,7.000000000000095035e-01,9.900000000000070965e-01,-1.000000000000000000e+00,1.400000000000081180e-01,4.800000000000048672e-01,-5.499999999999960476e-01,-1.000000000000000000e+00,-1.799999999999939426e-01,2.400000000000019895e-01,7.200000000000086331e-01,5.200000000000040146e-01,-7.699999999999971312e-01,-1.000000000000000000e+00,-1.000000000000000000e+00,-5.399999999999969269e-01,8.700000000000069900e-01
-8.799999999999990052e-01,-1.000000000000000000e+00,-1.000000000000000000e+00,6.000000000000982325e-02,-1.000000000000000000e+00,-4.999999999999960032e-01,-7.899999999999980371e-01,2.900000000000055866e-01,-9.399999999999919531e-01,-7.999999999999944933e-01,3.300000000000038458e-01,-1.000000000000000000e+00,5.000000000000892619e-02,-8.399999999999989697e-01,7.900000000000122480e-01,-6.399999999999943512e-01,9.700000000000061906e-01,-3.499999999999932054e-01,-1.000000000000000000e+00,-6.999999999999828582e-02,-1.000000000000000000e+00,8.100000000000113776e-01,-8.899999999999990141e-01,2.700000000000064571e-01,-4.699999999999906475e-01,-3.499999999999985345e-01,4.900000000000039879e-01,1.600000000000028066e-01,3.200000000000082778e-01,-8.999999999999741540e-02,-1.000000000000000000e+00,-1.399999999999983480e-01,4.400000000000057199e-01,-7.399999999999953282e-01,-1.199999999999947775e-01,4.800000000000084199e-01,-4.299999999999950528e-01,2.700000000000144507e-01,5.300000000000066880e-01,6.600000000000076916e-01,2.400000000000046541e-01,-2.299999999999904343e-01,-6.899999999999979483e-01,5.900000000000165112e-01,-8.999999999999990230e-01,-8.999999999999119815e-02,6.400000000000023448e-01,-7.299999999999908784e-01,-4.699999999999959766e-01,7.500000000000051070e-01,-8.499999999999900968e-01,-4.499999999999968470e-01,-1.000000000000000000e+00,-4.699999999999977529e-01,-9.999999999999031886e-02,-7.999999999999296563e-02,-1.000000000000000000e+00,9.700000000000070788e-01,-3.599999999999967670e-01,9.700000000000026379e-01,1.600000000000108002e-01,2.900000000000046985e-01,3.552713678800500929e-15,-1.000000000000000000e+00,-1.000000000000000000e+00,-1.000000000000000000e+00,-1.000000000000000000e+00,-1.000000000000000000e+00,5.800000000000111733e-01,9.900000000000070965e-01,-1.000000000000000000e+00,-3.899999999999932410e-01,-1.000000000000000000e+00,-9.599999999999955236e-01,2.900000000000073630e-01,2.800000000000073541e-01,2.400000000000019895e-01,1.800000000000072653e-01,-6.099999999999969891e-01,-7.699999999999971312e-01,-1.799999999999948308e-01,-1.000000000000000000e+00,-6.499999999999979128e-01,8.700000000000069900e-01
3.100000000000038280e-01,-1.000000000000000000e+00,-1.000000000000000000e+00,-1.000000000000000000e+00,-1.000000000000000000e+00,-4.999999999999960032e-01,-2.399999999999984368e-01,2.900000000000055866e-01,-9.399999999999919531e-01,-8.899999999999936851e-01,8.800000000000034461e-01,7.100000000000059597e-01,2.000000000000090594e-01,-8.399999999999989697e-01,-1.000000000000000000e+00,-6.399999999999943512e-01,1.200000000000063238e-01,-1.999999999999984013e-01,-1.000000000000000000e+00,-1.000000000000000000e+00,-1.000000000000000000e+00,3.900000000000118927e-01,1.000000000000098588e-01,8.300000000000060663e-01,-1.000000000000000000e+00,-3.499999999999985345e-01,-2.199999999999975309e-01,1.600000000000028066e-01,2.700000000000073452e-01,7.000000000000041744e-01,-5.899999999999863132e-01,-1.000000000000000000e+00,5.400000000000066969e-01,-1.000000000000000000e+00,-1.199999999999947775e-01,4.800000000000084199e-01,-3.599999999999941025e-01,5.100000000000155520e-01,5.300000000000066880e-01,6.600000000000076916e-01,2.400000000000046541e-01,-2.099999999999913047e-01,-1.000000000000000000e+00,3.100000000000135980e-01,-1.000000000000000000e+00,-3.799999999999923439e-01,6.800000000000032685e-01,-4.999999999999906741e-01,-4.999999999999649170e-02,7.500000000000051070e-01,-8.499999999999900968e-01,-7.699999999999962430e-01,8.700000000000087663e-01,-4.699999999999977529e-01,-5.399999999999898215e-01,-7.999999999999296563e-02,-1.000000000000000000e+00,9.700000000000070788e-01,-3.599999999999967670e-01,9.700000000000026379e-01,7.400000000000104272e-01,5.600000000000040501e-01,-3.999999999999825917e-02,-5.599999999999951683e-01,-1.000000000000000000e+00,-5.599999999999942801e-01,-1.000000000000000000e+00,-8.599999999999989875e-01,6.400000000000103384e-01,9.900000000000070965e-01,-1.000000000000000000e+00,-3.899999999999932410e-01,4.600000000000066258e-01,-5.199999999999986855e-01,-7.599999999999926814e-01,-1.799999999999939426e-01,9.500000000000017319e-01,-4.699999999999942002e-01,5.600000000000040501e-01,3.000000000000055955e-01,-1.799999999999948308e-01,4.900000000000048761e-01,-5.399999999999969269e-01,8.700000000000069900e-01
3.100000000000038280e-01,-1.000000000000000000e+00,-1.000000000000000000e+00,6.000000000000982325e-02,-1.000000000000000000e+00,-1.000000000000000000e+00,-3.899999999999976819e-01,2.900000000000055866e-01,-3.199999999999896261e-01,-7.799999999999953637e-01,7.300000000000042011e-01,7.100000000000059597e-01,5.000000000000892619e-02,-6.899999999999979483e-01,2.900000000000100275e-01,-6.399999999999943512e-01,1.200000000000063238e-01,5.700000000000084999e-01,-1.000000000000000000e+00,-1.000000000000000000e+00,-1.000000000000000000e+00,3.900000000000118927e-01,1.000000000000098588e-01,8.300000000000060663e-01,-1.000000000000000000e+00,-3.499999999999985345e-01,-2.199999999999975309e-01,1.600000000000028066e-01,3.200000000000082778e-01,7.700000000000042366e-01,-5.899999999999863132e-01,-7.399999999999979927e-01,4.400000000000057199e-01,-8.899999999999954614e-01,-1.199999999999947775e-01,4.800000000000084199e-01,-3.599999999999941025e-01,-1.000000000000000000e+00,5.300000000000066880e-01,5.100000000000057820e-01,2.400000000000046541e-01,1.300000000000081091e-01,-6.899999999999979483e-01,-1.699999999999868283e-01,2.000000000000268230e-02,-3.799999999999923439e-01,6.800000000000032685e-01,-1.299999999999894573e-01,-4.999999999999649170e-02,7.500000000000051070e-01,-8.499999999999900968e-01,-4.499999999999968470e-01,5.100000000000075584e-01,-4.699999999999977529e-01,-6.499999999999899192e-01,-7.999999999999296563e-02,-1.000000000000000000e+00,-2.299999999999984279e-01,-9.599999999999964118e-01,-1.000000000000000000e+00,5.200000000000120082e-01,5.600000000000040501e-01,-3.999999999999825917e-02,-5.599999999999951683e-01,-1.000000000000000000e+00,6.700000000000077005e-01,-5.899999999999987477e-01,-1.000000000000000000e+00,7.000000000000095035e-01,9.900000000000070965e-01,-1.000000000000000000e+00,1.400000000000081180e-01,4.600000000000066258e-01,-1.000000000000000000e+00,-1.899999999999930633e-01,-1.799999999999939426e-01,9.500000000000017319e-01,1.800000000000072653e-01,-3.499999999999976463e-01,3.000000000000055955e-01,-1.799999999999948308e-01,4.900000000000048761e-01,-8.599999999999972111e-01,8.700000000000069900e-01
-8.799999999999990052e-01,-2.299999999999984279e-01,-1.000000000000000000e+00,-1.000000000000000000e+00,-1.000000000000000000e+00,-4.999999999999960032e-01,-2.399999999999984368e-01,2.900000000000055866e-01,-9.399999999999919531e-01,2.800000000000064659e-01,3.300000000000038458e-01,-6.799999999999988276e-01,-7.099999999999926370e-01,-8.399999999999989697e-01,-1.000000000000000000e+00,-2.499999999999931166e-01,9.700000000000061906e-01,-9.199999999999928235e-01,-1.000000000000000000e+00,-1.000000000000000000e+00,-1.000000000000000000e+00,8.100000000000113776e-01,1.000000000000098588e-01,2.700000000000064571e-01,-4.699999999999906475e-01,-3.499999999999985345e-01,4.900000000000039879e-01,1.600000000000028066e-01,5.600000000000084910e-01,-8.999999999999741540e-02,-2.799999999999851497e-01,-1.399999999999983480e-01,5.400000000000066969e-01,-7.399999999999953282e-01,-1.199999999999947775e-01,-1.000000000000000000e+00,-4.299999999999950528e-01,5.100000000000155520e-01,5.300000000000066880e-01,5.100000000000057820e-01,2.400000000000046541e-01,1.300000000000081091e-01,-6.899999999999979483e-01,-2.999999999999869438e-01,2.000000000000268230e-02,-3.799999999999923439e-01,6.400000000000023448e-01,-4.999999999999906741e-01,-4.999999999999649170e-02,7.500000000000051070e-01,-8.499999999999900968e-01,-4.499999999999968470e-01,5.100000000000075584e-01,-1.000000000000000000e+00,-9.999999999999031886e-02,-7.999999999999296563e-02,-1.000000000000000000e+00,9.700000000000070788e-01,-3.599999999999967670e-01,9.700000000000026379e-01,4.800000000000119726e-01,4.000000000000056843e-01,-3.999999999999825917e-02,-9.599999999999955236e-01,-1.000000000000000000e+00,-5.599999999999942801e-01,-1.000000000000000000e+00,-7.199999999999988631e-01,6.400000000000103384e-01,9.900000000000070965e-01,-1.000000000000000000e+00,-3.899999999999932410e-01,-6.999999999999926281e-01,-1.000000000000000000e+00,1.900000000000072742e-01,-1.799999999999939426e-01,9.500000000000017319e-01,3.000000000000802025e-02,5.600000000000031619e-01,3.000000000000055955e-01,-1.799999999999948308e-01,4.900000000000048761e-01,-2.599999999999984546e-01,8.700000000000069900e-01
