2.300000000000028688e-01,-1.000000000000000000e+00,-1.000000000000000000e+00,-2.199999999999984190e-01,-2.799999999999984723e-01,-7.699999999999989075e-01,-3.999999999999825917e-02,-1.000000000000000000e+00,-6.399999999999987921e-01,-4.499999999999968470e-01,8.800000000000034461e-01,8.000000000000362377e-02,-1.599999999999948130e-01,-4.399999999999950617e-01,9.900000000000062084e-01,-7.599999999999953459e-01,7.600000000000051159e-01,-9.499999999999990674e-01,-1.000000000000000000e+00,-1.000000000000000000e+00,-1.000000000000000000e+00,5.700000000000076117e-01,2.000000000000623501e-02,-1.299999999999947864e-01,6.000000000000040856e-01,-7.599999999999980105e-01,3.500000000000065281e-01,-9.999999999995567990e-03,3.700000000000047695e-01,-1.000000000000000000e+00,-6.599999999999917044e-01,8.000000000000033751e-01,7.400000000000050981e-01,-4.999999999999960032e-01,-1.000000000000000000e+00,2.700000000000055689e-01,-1.000000000000000000e+00,3.700000000000083222e-01,9.700000000000061906e-01,7.200000000000033040e-01,-9.999999999999831246e-02,-4.599999999999950795e-01,-1.000000000000000000e+00,-1.000000000000000000e+00,-1.000000000000000000e+00,-4.599999999999933031e-01,6.600000000000014744e-01,9.000000000000629718e-02,-4.999999999999649170e-02,8.500000000000043077e-01,-1.000000000000000000e+00,6.400000000000067857e-01,-1.999999999999984013e-01,1.000000000000622613e-02,-6.599999999999925926e-01,3.400000000000047429e-01,1.200000000000072120e-01,-6.999999999999828582e-02,-3.299999999999985167e-01,9.700000000000026379e-01,-5.199999999999977973e-01,-1.899999999999966160e-01,1.500000000000045741e-01,-2.499999999999966693e-01,-2.799999999999966960e-01,-5.599999999999987210e-01,-1.000000000000000000e+00,-1.000000000000000000e+00,5.000000000000084377e-01,4.500000000000048406e-01,-1.000000000000000000e+00,-9.999999999996456168e-03,-2.399999999999984368e-01,-1.000000000000000000e+00,-1.000000000000000000e+00,3.500000000000056399e-01,9.500000000000017319e-01,1.800000000000037126e-01,8.000000000000069278e-01,-1.000000000000000000e+00,2.000000000000268230e-02,1.600000000000045830e-01,-5.699999999999987299e-01,-8.999999999999990230e-01
3.000000000000029310e-01,-1.000000000000000000e+00,-1.000000000000000000e+00,-2.099999999999975220e-01,-9.099999999999981437e-01,-7.699999999999989075e-01,-1.000000000000000000e+00,-4.999999999999293898e-02,-9.399999999999946176e-01,-4.499999999999968470e-01,8.800000000000034461e-01,4.000000000000270006e-02,-1.599999999999948130e-01,-4.399999999999950617e-01,9.900000000000062084e-01,-6.499999999999943601e-01,7.600000000000051159e-01,-5.399999999999987033e-01,-1.000000000000000000e+00,-7.099999999999988542e-01,-1.000000000000000000e+00,5.700000000000076117e-01,3.000000000000073719e-01,5.700000000000049472e-01,6.000000000000040856e-01,9.000000000000363265e-02,3.500000000000065281e-01,-9.999999999995567990e-03,3.700000000000047695e-01,-1.000000000000000000e+00,1.900000000000099387e-01,4.300000000000012701e-01,7.400000000000050981e-01,6.000000000000360600e-02,3.600000000000038725e-01,2.700000000000055689e-01,-4.299999999999968292e-01,-6.099999999999934364e-01,3.700000000000038813e-01,7.200000000000033040e-01,-9.999999999999831246e-02,-4.599999999999950795e-01,-1.000000000000000000e+00,3.600000000000074252e-01,-1.000000000000000000e+00,-1.000000000000000000e+00,6.600000000000014744e-01,9.000000000000629718e-02,-4.999999999999649170e-02,8.400000000000042988e-01,-6.699999999999988187e-01,6.400000000000067857e-01,-1.000000000000000000e+00,-1.299999999999921219e-01,-6.599999999999925926e-01,3.400000000000047429e-01,-1.000000000000000000e+00,-1.000000000000000000e+00,-3.299999999999985167e-01,9.700000000000026379e-01,-4.099999999999968114e-01,4.100000000000030287e-01,1.500000000000045741e-01,-4.899999999999977707e-01,-1.000000000000000000e+00,-7.099999999999988542e-01,9.000000000000052403e-01,-1.000000000000000000e+00,2.600000000000091127e-01,4.500000000000048406e-01,-1.000000000000000000e+00,-9.999999999996456168e-03,-5.999999999999738876e-02,-1.000000000000000000e+00,-1.000000000000000000e+00,3.500000000000056399e-01,9.500000000000017319e-01,1.800000000000037126e-01,7.200000000000059686e-01,-9.399999999999990585e-01,-1.000000000000000000e+00,-4.599999999999968558e-01,-5.699999999999987299e-01,-1.299999999999974509e-01
-1.000000000000000000e+00,-1.000000000000000000e+00,-1.000000000000000000e+00,2.600000000000037836e-01,4.400000000000030553e-01,-7.699999999999989075e-01,-3.999999999999825917e-02,-4.999999999999293898e-02,-3.899999999999985700e-01,-1.000000000000000000e+00,8.800000000000034461e-01,4.000000000000270006e-02,-1.599999999999948130e-01,-4.399999999999950617e-01,9.900000000000062084e-01,-5.199999999999960210e-01,7.600000000000051159e-01,-5.399999999999987033e-01,-1.000000000000000000e+00,-1.000000000000000000e+00,-1.000000000000000000e+00,5.700000000000076117e-01,2.000000000000623501e-02,-1.599999999999948130e-01,-7.499999999999971134e-01,-7.599999999999980105e-01,3.500000000000065281e-01,-9.999999999995567990e-03,3.700000000000047695e-01,-1.000000000000000000e+00,-2.099999999999921929e-01,-1.399999999999983480e-01,7.400000000000050981e-01,-6.999999999999988454e-01,8.000000000000069278e-01,2.700000000000055689e-01,-7.599999999999971223e-01,-3.399999999999914202e-01,3.700000000000038813e-01,7.200000000000033040e-01,-9.999999999999831246e-02,-1.299999999999965627e-01,-6.899999999999979483e-01,3.600000000000074252e-01,-1.000000000000000000e+00,-4.399999999999915090e-01,6.600000000000014744e-01,9.000000000000629718e-02,-4.999999999999649170e-02,8.500000000000043077e-01,-1.099999999999983213e-01,6.400000000000067857e-01,-1.000000000000000000e+00,-1.299999999999921219e-01,-5.199999999999933564e-01,-1.999999999999468869e-02,1.200000000000072120e-01,-1.000000000000000000e+00,-3.299999999999985167e-01,7.000000000000032863e-01,2.000000000000028422e-01,4.100000000000030287e-01,1.500000000000045741e-01,-3.899999999999985700e-01,-1.000000000000000000e+00,-5.599999999999987210e-01,-1.000000000000000000e+00,-1.000000000000000000e+00,5.000000000000084377e-01,4.500000000000048406e-01,-1.000000000000000000e+00,-9.999999999996456168e-03,-2.399999999999984368e-01,-1.000000000000000000e+00,-2.899999999999984812e-01,3.500000000000056399e-01,8.000000000000184741e-02,1.800000000000037126e-01,-1.000000000000000000e+00,-1.000000000000000000e+00,2.000000000000268230e-02,-4.599999999999968558e-01,-5.699999999999987299e-01,-6.999999999999979572e-01
-1.000000000000000000e+00,-1.000000000000000000e+00,-1.000000000000000000e+00,7.000000000000272671e-02,-3.999999999999976907e-01,-7.699999999999989075e-01,-7.899999999999980371e-01,-1.000000000000000000e+00,-3.899999999999985700e-01,-1.000000000000000000e+00,8.800000000000034461e-01,8.000000000000362377e-02,9.769962616701377556e-15,9.500000000000061728e-01,3.600000000000065370e-01,-6.499999999999943601e-01,1.000000000000533795e-02,-2.099999999999975220e-01,-1.000000000000000000e+00,-1.000000000000000000e+00,-1.000000000000000000e+00,5.700000000000076117e-01,-2.399999999999931077e-01,5.700000000000049472e-01,-4.699999999999959766e-01,-7.599999999999980105e-01,3.500000000000065281e-01,-1.000000000000000000e+00,3.700000000000047695e-01,-1.000000000000000000e+00,-6.599999999999917044e-01,-1.399999999999983480e-01,7.400000000000050981e-01,-1.000000000000000000e+00,3.600000000000038725e-01,3.000000000000064837e-01,6.000000000000449418e-02,3.700000000000083222e-01,3.700000000000038813e-01,7.200000000000033040e-01,-9.999999999999831246e-02,-1.299999999999965627e-01,-6.899999999999979483e-01,6.200000000000085443e-01,-1.000000000000000000e+00,-4.999999999999924505e-01,6.600000000000014744e-01,9.000000000000629718e-02,-4.999999999999649170e-02,8.500000000000043077e-01,-6.699999999999988187e-01,6.400000000000067857e-01,-1.000000000000000000e+00,-1.000000000000000000e+00,2.700000000000091216e-01,3.400000000000047429e-01,-1.000000000000000000e+00,5.000000000000270894e-02,3.700000000000029932e-01,9.700000000000026379e-01,2.000000000000028422e-01,4.100000000000030287e-01,9.000000000000540901e-02,-1.000000000000000000e+00,-9.899999999999982148e-01,-7.099999999999988542e-01,-1.000000000000000000e+00,-1.000000000000000000e+00,7.000000000000095035e-01,4.500000000000048406e-01,-1.000000000000000000e+00,-9.999999999996456168e-03,-2.399999999999984368e-01,-1.000000000000000000e+00,-2.899999999999984812e-01,-1.799999999999939426e-01,3.800000000000030020e-01,1.800000000000037126e-01,-6.099999999999987654e-01,-1.000000000000000000e+00,-1.799999999999974953e-01,-4.599999999999968558e-01,-5.699999999999987299e-01,-1.000000000000000000e+00
-1.899999999999983924e-01,-1.000000000000000000e+00,-1.000000000000000000e+00,-4.099999999999976996e-01,-2.799999999999984723e-01,-7.699999999999989075e-01,-3.999999999999825917e-02,4.700000000000066347e-01,-7.399999999999935518e-01,-4.499999999999968470e-01,6.200000000000041034e-01,4.000000000000270006e-02,9.769962616701377556e-15,-4.399999999999950617e-01,9.900000000000062084e-01,-5.199999999999960210e-01,7.600000000000051159e-01,-1.000000000000000000e+00,-1.000000000000000000e+00,-1.000000000000000000e+00,-1.000000000000000000e+00,5.700000000000076117e-01,2.000000000000623501e-02,-1.599999999999948130e-01,6.000000000000040856e-01,-7.599999999999980105e-01,3.500000000000065281e-01,-1.000000000000000000e+00,3.700000000000047695e-01,-1.000000000000000000e+00,1.900000000000099387e-01,-1.399999999999983480e-01,7.400000000000050981e-01,6.000000000000360600e-02,9.200000000000061462e-01,2.700000000000055689e-01,-9.999999999997344347e-03,-3.099999999999931699e-01,3.700000000000038813e-01,7.200000000000033040e-01,-9.999999999999831246e-02,-4.599999999999950795e-01,-6.899999999999979483e-01,3.600000000000074252e-01,-6.099999999999952127e-01,-4.599999999999933031e-01,6.600000000000014744e-01,9.000000000000629718e-02,-4.999999999999649170e-02,1.900000000000046096e-01,-1.000000000000000000e+00,-5.399999999999969269e-01,-1.999999999999984013e-01,-3.999999999999470646e-02,-5.199999999999933564e-01,3.400000000000047429e-01,1.200000000000072120e-01,-6.999999999999828582e-02,-3.299999999999985167e-01,2.000000000000179412e-02,2.000000000000028422e-01,4.100000000000030287e-01,1.500000000000045741e-01,-3.899999999999985700e-01,-9.899999999999982148e-01,-5.599999999999987210e-01,9.000000000000052403e-01,-1.000000000000000000e+00,5.000000000000084377e-01,4.500000000000048406e-01,-1.000000000000000000e+00,-9.999999999996456168e-03,-5.999999999999738876e-02,-1.000000000000000000e+00,-1.000000000000000000e+00,2.800000000000046896e-01,9.500000000000017319e-01,1.800000000000037126e-01,7.200000000000059686e-01,-9.399999999999990585e-01,-1.000000000000000000e+00,-4.599999999999968558e-01,-7.399999999999979927e-01,-4.699999999999977529e-01
3.000000000000029310e-01,-6.299999999999987832e-01,-1.000000000000000000e+00,-4.099999999999976996e-01,-2.799999999999984723e-01,-7.699999999999989075e-01,7.900000000000042544e-01,4.700000000000066347e-01,-7.399999999999935518e-01,-4.499999999999968470e-01,8.800000000000034461e-01,8.000000000000362377e-02,9.769962616701377556e-15,2.200000000000046363e-01,9.900000000000062084e-01,-6.499999999999943601e-01,1.000000000000533795e-02,-8.599999999999989875e-01,-1.000000000000000000e+00,-1.000000000000000000e+00,-1.000000000000000000e+00,7.500000000000086597e-01,2.000000000000623501e-02,5.700000000000049472e-01,6.000000000000040856e-01,-7.599999999999980105e-01,3.500000000000065281e-01,-1.000000000000000000e+00,3.700000000000047695e-01,-1.000000000000000000e+00,1.900000000000099387e-01,-1.399999999999983480e-01,7.400000000000050981e-01,5.000000000000448530e-02,9.200000000000061462e-01,2.700000000000055689e-01,-9.999999999997344347e-03,-6.099999999999934364e-01,3.700000000000038813e-01,3.000000000000038192e-01,-1.000000000000000000e+00,-4.599999999999950795e-01,-6.899999999999979483e-01,5.200000000000075673e-01,-6.099999999999952127e-01,-4.999999999999924505e-01,6.600000000000014744e-01,9.000000000000629718e-02,-4.999999999999649170e-02,8.400000000000042988e-01,-6.699999999999988187e-01,-5.399999999999969269e-01,-1.000000000000000000e+00,-3.999999999999470646e-02,-6.599999999999925926e-01,3.400000000000047429e-01,1.200000000000072120e-01,-3.999999999999470646e-02,-3.299999999999985167e-01,9.700000000000026379e-01,2.000000000000028422e-01,4.100000000000030287e-01,2.500000000000055511e-01,-3.899999999999985700e-01,-1.000000000000000000e+00,-5.599999999999987210e-01,-1.000000000000000000e+00,-1.000000000000000000e+00,5.000000000000084377e-01,4.500000000000048406e-01,-1.000000000000000000e+00,1.000000000000444977e-02,-5.999999999999738876e-02,-1.000000000000000000e+00,-5.999999999999960920e-01,2.800000000000046896e-01,9.500000000000017319e-01,1.800000000000037126e-01,4.300000000000065992e-01,-9.399999999999990585e-01,-1.000000000000000000e+00,-4.599999999999968558e-01,-7.399999999999979927e-01,-1.299999999999974509e-01
-1.899999999999983924e-01,-1.000000000000000000e+00,-1.399999999999983480e-01,5.300000000000040234e-01,-9.099999999999981437e-01,-7.699999999999989075e-01,5.100000000000031175e-01,-1.000000000000000000e+00,-1.000000000000000000e+00,1.200000000000045475e-01,8.800000000000034461e-01,8.000000000000362377e-02,-7.899999999999900435e-01,2.200000000000046363e-01,9.900000000000062084e-01,1.000000000000063061e-01,1.000000000000533795e-02,-4.299999999999968292e-01,-1.000000000000000000e+00,-1.000000000000000000e+00,-1.000000000000000000e+00,5.700000000000076117e-01,2.000000000000623501e-02,5.700000000000049472e-01,-3.999999999999959144e-01,9.000000000000363265e-02,3.500000000000065281e-01,-1.000000000000000000e+00,3.700000000000047695e-01,-1.000000000000000000e+00,1.900000000000099387e-01,-1.399999999999983480e-01,7.400000000000050981e-01,6.000000000000360600e-02,3.600000000000038725e-01,2.000000000000623501e-02,-4.299999999999968292e-01,3.700000000000083222e-01,-3.999999999999959144e-01,1.200000000000036593e-01,-9.999999999999831246e-02,-1.000000000000000000e+00,-1.000000000000000000e+00,3.600000000000074252e-01,-1.000000000000000000e+00,-4.599999999999933031e-01,6.600000000000014744e-01,9.000000000000629718e-02,-4.999999999999649170e-02,8.400000000000042988e-01,-1.000000000000000000e+00,3.500000000000047518e-01,-1.999999999999984013e-01,1.000000000000622613e-02,-5.199999999999933564e-01,3.400000000000047429e-01,1.200000000000072120e-01,-4.599999999999959677e-01,5.000000000000359712e-02,2.000000000000179412e-02,1.300000000000036682e-01,4.100000000000030287e-01,1.500000000000045741e-01,-3.899999999999985700e-01,-1.000000000000000000e+00,-7.099999999999988542e-01,-1.000000000000000000e+00,-5.399999999999987033e-01,2.600000000000091127e-01,9.700000000000061906e-01,-7.199999999999988631e-01,-9.999999999996456168e-03,-5.999999999999738876e-02,-3.999999999999976907e-01,-1.000000000000000000e+00,-1.799999999999939426e-01,9.500000000000017319e-01,1.800000000000037126e-01,7.200000000000059686e-01,-9.399999999999990585e-01,-1.000000000000000000e+00,-6.099999999999952127e-01,-5.699999999999987299e-01,-1.299999999999974509e-01
3.000000000000029310e-01,-1.000000000000000000e+00,-4.499999999999986233e-01,2.600000000000037836e-01,-2.799999999999984723e-01,-7.699999999999989075e-01,-3.999999999999825917e-02,-1.000000000000000000e+00,-9.399999999999946176e-01,-1.000000000000000000e+00,4.600000000000039613e-01,-6.399999999999970157e-01,-2.999999999999940492e-01,-4.399999999999950617e-01,5.000000000000626166e-02,-5.199999999999960210e-01,9.900000000000070965e-01,-5.399999999999987033e-01,-1.000000000000000000e+00,-1.000000000000000000e+00,-1.000000000000000000e+00,5.700000000000076117e-01,-7.199999999999979750e-01,5.000000000000066613e-01,-4.699999999999959766e-01,-6.199999999999969980e-01,3.500000000000065281e-01,-9.999999999995567990e-03,3.700000000000047695e-01,-1.000000000000000000e+00,1.900000000000099387e-01,4.300000000000012701e-01,7.400000000000050981e-01,-6.999999999999988454e-01,4.800000000000048672e-01,-9.999999999993791633e-03,-1.000000000000000000e+00,-3.399999999999914202e-01,5.000000000000048850e-01,7.200000000000033040e-01,-9.999999999999831246e-02,-1.299999999999965627e-01,-6.899999999999979483e-01,3.600000000000074252e-01,-1.000000000000000000e+00,-4.999999999999924505e-01,6.600000000000014744e-01,1.800000000000054889e-01,-4.999999999999649170e-02,8.400000000000042988e-01,-1.099999999999983213e-01,-1.000000000000000000e+00,-1.000000000000000000e+00,-1.000000000000000000e+00,-1.099999999999912159e-01,3.400000000000047429e-01,1.000000000000080824e-01,6.000000000000271783e-02,-3.299999999999985167e-01,8.800000000000016698e-01,2.000000000000028422e-01,-4.999999999999649170e-02,1.500000000000045741e-01,-4.899999999999977707e-01,-5.499999999999969358e-01,-7.099999999999988542e-01,-1.000000000000000000e+00,-1.000000000000000000e+00,7.000000000000095035e-01,9.700000000000061906e-01,-8.699999999999954436e-01,-9.999999999996456168e-03,-2.399999999999984368e-01,-1.000000000000000000e+00,-2.899999999999984812e-01,2.300000000000055334e-01,8.000000000000184741e-02,1.800000000000037126e-01,-3.999999999999985789e-01,-1.000000000000000000e+00,-8.099999999999971667e-01,-3.999999999999559464e-02,-1.000000000000000000e+00,-8.999999999999990230e-01
-1.899999999999983924e-01,-1.000000000000000000e+00,-1.000000000000000000e+00,-4.099999999999976996e-01,-3.999999999999976907e-01,-7.699999999999989075e-01,-3.999999999999825917e-02,-1.000000000000000000e+00,-7.399999999999935518e-01,-4.499999999999968470e-01,6.200000000000041034e-01,8.000000000000362377e-02,9.769962616701377556e-15,9.500000000000061728e-01,3.600000000000065370e-01,-6.499999999999943601e-01,7.600000000000051159e-01,-1.000000000000000000e+00,-1.000000000000000000e+00,-1.000000000000000000e+00,-1.000000000000000000e+00,5.700000000000076117e-01,-2.399999999999931077e-01,-1.599999999999948130e-01,-1.499999999999948042e-01,-7.599999999999980105e-01,3.500000000000065281e-01,-1.000000000000000000e+00,3.700000000000047695e-01,-1.000000000000000000e+00,1.900000000000099387e-01,-1.399999999999983480e-01,7.400000000000050981e-01,-1.000000000000000000e+00,3.600000000000038725e-01,2.700000000000055689e-01,6.000000000000449418e-02,3.700000000000083222e-01,3.700000000000038813e-01,2.800000000000038014e-01,-9.999999999999831246e-02,-5.099999999999942357e-01,-6.899999999999979483e-01,6.200000000000085443e-01,-1.000000000000000000e+00,-4.999999999999924505e-01,6.600000000000014744e-01,9.000000000000629718e-02,-4.999999999999649170e-02,1.900000000000046096e-01,-6.699999999999988187e-01,-5.399999999999969269e-01,-1.999999999999984013e-01,-3.299999999999940758e-01,-5.199999999999933564e-01,3.400000000000047429e-01,1.200000000000072120e-01,-6.999999999999828582e-02,-3.299999999999985167e-01,9.700000000000026379e-01,2.000000000000028422e-01,4.100000000000030287e-01,9.000000000000540901e-02,-1.000000000000000000e+00,-1.000000000000000000e+00,-4.499999999999977351e-01,9.000000000000052403e-01,-1.000000000000000000e+00,7.000000000000095035e-01,4.500000000000048406e-01,-1.000000000000000000e+00,-9.999999999996456168e-03,-5.999999999999738876e-02,-1.000000000000000000e+00,-2.899999999999984812e-01,2.800000000000046896e-01,9.500000000000017319e-01,1.800000000000037126e-01,-6.099999999999987654e-01,-1.000000000000000000e+00,-1.000000000000000000e+00,-4.599999999999968558e-01,-7.399999999999979927e-01,-4.699999999999977529e-01
-1.000000000000000000e+00,-1.000000000000000000e+00,-1.000000000000000000e+00,1.700000000000037037e-01,-2.799999999999984723e-01,-7.699999999999989075e-01,-3.999999999999825917e-02,-1.000000000000000000e+00,-3.899999999999985700e-01,-1.000000000000000000e+00,8.800000000000034461e-01,8.000000000000362377e-02,-1.599999999999948130e-01,-4.399999999999950617e-01,3.600000000000065370e-01,-5.199999999999960210e-01,1.000000000000533795e-02,-2.099999999999975220e-01,-1.000000000000000000e+00,-1.000000000000000000e+00,-1.000000000000000000e+00,5.700000000000076117e-01,5.200000000000075673e-01,-1.599999999999948130e-01,-4.699999999999959766e-01,-7.599999999999980105e-01,3.500000000000065281e-01,-9.999999999995567990e-03,-1.000000000000000000e+00,-1.000000000000000000e+00,-6.599999999999917044e-01,-1.399999999999983480e-01,7.400000000000050981e-01,-1.000000000000000000e+00,4.800000000000048672e-01,-9.999999999993791633e-03,6.000000000000449418e-02,3.700000000000083222e-01,5.000000000000048850e-01,7.200000000000033040e-01,-1.000000000000000000e+00,-1.299999999999965627e-01,-6.899999999999979483e-01,3.600000000000074252e-01,-1.000000000000000000e+00,-4.399999999999915090e-01,6.600000000000014744e-01,9.000000000000629718e-02,-4.999999999999649170e-02,8.500000000000043077e-01,-6.699999999999988187e-01,-1.000000000000000000e+00,-1.000000000000000000e+00,-1.000000000000000000e+00,2.700000000000091216e-01,3.400000000000047429e-01,-3.199999999999922906e-01,-9.499999999999972911e-01,-2.799999999999975842e-01,9.700000000000026379e-01,2.000000000000028422e-01,-4.999999999999649170e-02,1.500000000000045741e-01,-1.000000000000000000e+00,-9.899999999999982148e-01,-7.099999999999988542e-01,-1.000000000000000000e+00,-1.000000000000000000e+00,5.000000000000084377e-01,1.500000000000054623e-01,-1.899999999999939515e-01,-9.999999999996456168e-03,-2.399999999999984368e-01,-1.000000000000000000e+00,-2.899999999999984812e-01,3.500000000000056399e-01,3.800000000000030020e-01,1.800000000000037126e-01,-3.999999999999985789e-01,-1.000000000000000000e+00,2.000000000000268230e-02,-1.399999999999956835e-01,-5.699999999999987299e-01,-8.999999999999990230e-01
-1.899999999999983924e-01,-1.000000000000000000e+00,-1.000000000000000000e+00,-4.099999999999976996e-01,-2.799999999999984723e-01,-7.699999999999989075e-01,-3.999999999999825917e-02,4.700000000000066347e-01,-7.399999999999935518e-01,-4.499999999999968470e-01,6.200000000000041034e-01,4.000000000000270006e-02,9.769962616701377556e-15,-4.399999999999950617e-01,3.600000000000065370e-01,-6.499999999999943601e-01,7.600000000000051159e-01,-1.000000000000000000e+00,-1.000000000000000000e+00,-1.000000000000000000e+00,-1.000000000000000000e+00,5.700000000000076117e-01,-2.399999999999931077e-01,-1.599999999999948130e-01,6.000000000000040856e-01,-9.899999999999973266e-01,3.500000000000065281e-01,-1.000000000000000000e+00,4.300000000000057110e-01,-1.000000000000000000e+00,1.900000000000099387e-01,-2.599999999999975664e-01,7.400000000000050981e-01,6.000000000000360600e-02,9.200000000000061462e-01,2.700000000000055689e-01,6.000000000000449418e-02,1.700000000000090328e-01,3.700000000000038813e-01,7.200000000000033040e-01,-9.999999999999831246e-02,-4.599999999999950795e-01,-6.899999999999979483e-01,6.200000000000085443e-01,-6.099999999999952127e-01,-4.599999999999933031e-01,9.800000000000026468e-01,9.000000000000629718e-02,-4.999999999999649170e-02,1.900000000000046096e-01,-1.000000000000000000e+00,-5.399999999999969269e-01,-1.999999999999984013e-01,-3.999999999999470646e-02,-5.199999999999933564e-01,3.400000000000047429e-01,1.200000000000072120e-01,-6.999999999999828582e-02,-3.299999999999985167e-01,2.000000000000179412e-02,2.000000000000028422e-01,4.100000000000030287e-01,7.400000000000068745e-01,-1.000000000000000000e+00,-9.899999999999982148e-01,-5.599999999999987210e-01,9.000000000000052403e-01,-1.000000000000000000e+00,-1.000000000000000000e+00,4.500000000000048406e-01,-1.000000000000000000e+00,-9.999999999996456168e-03,-5.999999999999738876e-02,-1.000000000000000000e+00,-1.000000000000000000e+00,2.800000000000046896e-01,9.500000000000017319e-01,1.800000000000037126e-01,7.200000000000059686e-01,-1.000000000000000000e+00,-1.000000000000000000e+00,-4.599999999999968558e-01,-7.399999999999979927e-01,-4.699999999999977529e-01
-1.899999999999983924e-01,-1.000000000000000000e+00,-4.999999999999826805e-02,-4.099999999999976996e-01,-1.899999999999975042e-01,-7.699999999999989075e-01,-3.999999999999825917e-02,-1.000000000000000000e+00,-7.399999999999935518e-01,-4.499999999999968470e-01,6.200000000000041034e-01,4.000000000000270006e-02,9.769962616701377556e-15,9.500000000000061728e-01,3.600000000000065370e-01,-9.999999999992903454e-03,9.500000000000061728e-01,-1.000000000000000000e+00,-1.000000000000000000e+00,-1.000000000000000000e+00,-1.000000000000000000e+00,5.700000000000076117e-01,-2.399999999999931077e-01,-1.599999999999948130e-01,6.000000000000040856e-01,-7.599999999999980105e-01,3.500000000000065281e-01,-1.000000000000000000e+00,3.700000000000047695e-01,-1.000000000000000000e+00,1.900000000000099387e-01,-1.399999999999983480e-01,7.400000000000050981e-01,6.000000000000360600e-02,3.600000000000038725e-01,2.700000000000055689e-01,6.000000000000449418e-02,3.700000000000083222e-01,-1.000000000000000000e+00,2.800000000000038014e-01,-9.999999999999831246e-02,-5.099999999999942357e-01,-6.899999999999979483e-01,3.600000000000074252e-01,-1.000000000000000000e+00,-4.599999999999933031e-01,6.600000000000014744e-01,9.000000000000629718e-02,-4.999999999999649170e-02,1.900000000000046096e-01,-1.000000000000000000e+00,-5.399999999999969269e-01,6.000000000000031974e-01,-3.999999999999470646e-02,-5.199999999999933564e-01,3.400000000000047429e-01,1.200000000000072120e-01,8.100000000000033840e-01,-3.299999999999985167e-01,2.000000000000179412e-02,2.000000000000028422e-01,4.100000000000030287e-01,9.000000000000540901e-02,-1.000000000000000000e+00,-9.899999999999982148e-01,-5.599999999999987210e-01,4.500000000000057288e-01,-1.000000000000000000e+00,7.000000000000095035e-01,4.500000000000048406e-01,-1.000000000000000000e+00,-9.999999999996456168e-03,-5.999999999999738876e-02,-1.000000000000000000e+00,-1.000000000000000000e+00,2.800000000000046896e-01,9.500000000000017319e-01,7.100000000000050715e-01,-6.099999999999987654e-01,-1.000000000000000000e+00,-1.000000000000000000e+00,-4.599999999999968558e-01,-7.399999999999979927e-01,-4.699999999999977529e-01
-1.000000000000000000e+00,-1.000000000000000000e+00,-1.000000000000000000e+00,7.000000000000272671e-02,4.400000000000030553e-01,-7.699999999999989075e-01,-1.000000000000000000e+00,-1.000000000000000000e+00,-3.899999999999985700e-01,-1.000000000000000000e+00,8.800000000000034461e-01,4.000000000000270006e-02,9.769962616701377556e-15,-4.399999999999950617e-01,9.900000000000062084e-01,-9.899999999999937739e-01,-4.499999999999941824e-01,-2.099999999999975220e-01,-1.000000000000000000e+00,-1.000000000000000000e+00,-4.499999999999986233e-01,5.700000000000076117e-01,-2.399999999999931077e-01,-1.599999999999948130e-01,-4.699999999999959766e-01,-7.599999999999980105e-01,3.500000000000065281e-01,-1.000000000000000000e+00,3.700000000000047695e-01,-1.000000000000000000e+00,-8.099999999999909495e-01,-1.399999999999983480e-01,7.400000000000050981e-01,-1.000000000000000000e+00,8.000000000000069278e-01,3.000000000000064837e-01,-7.599999999999971223e-01,-3.399999999999914202e-01,3.700000000000038813e-01,9.100000000000043610e-01,-9.999999999999831246e-02,-1.299999999999965627e-01,-6.899999999999979483e-01,6.200000000000085443e-01,-1.000000000000000000e+00,-4.999999999999924505e-01,-1.000000000000000000e+00,9.000000000000629718e-02,-4.999999999999649170e-02,8.500000000000043077e-01,-1.099999999999983213e-01,6.400000000000067857e-01,-1.000000000000000000e+00,-1.000000000000000000e+00,-5.199999999999933564e-01,-1.999999999999468869e-02,3.900000000000083400e-01,-1.000000000000000000e+00,3.700000000000029932e-01,7.000000000000032863e-01,2.000000000000028422e-01,4.100000000000030287e-01,3.000000000000055955e-01,-1.000000000000000000e+00,-1.000000000000000000e+00,-7.099999999999988542e-01,-1.000000000000000000e+00,-1.000000000000000000e+00,5.000000000000084377e-01,4.500000000000048406e-01,-1.000000000000000000e+00,-9.999999999996456168e-03,-2.399999999999984368e-01,-1.000000000000000000e+00,-2.899999999999984812e-01,3.500000000000056399e-01,8.000000000000184741e-02,1.800000000000037126e-01,-1.000000000000000000e+00,-1.000000000000000000e+00,-1.799999999999974953e-01,-4.599999999999968558e-01,-5.699999999999987299e-01,-1.000000000000000000e+00
-4.799999999999986500e-01,-6.299999999999987832e-01,-1.000000000000000000e+00,2.600000000000037836e-01,4.400000000000030553e-01,-7.699999999999989075e-01,7.900000000000042544e-01,-4.999999999999293898e-02,-3.899999999999985700e-01,-1.000000000000000000e+00,7.100000000000041833e-01,6.500000000000041300e-01,9.769962616701377556e-15,2.200000000000046363e-01,9.900000000000062084e-01,-1.000000000000000000e+00,1.000000000000533795e-02,-1.000000000000000000e+00,-1.000000000000000000e+00,-1.000000000000000000e+00,-1.000000000000000000e+00,-3.099999999999922817e-01,2.000000000000623501e-02,5.700000000000049472e-01,6.000000000000040856e-01,-8.999999999999652722e-02,3.500000000000065281e-01,-9.999999999995567990e-03,3.700000000000047695e-01,-1.000000000000000000e+00,1.900000000000099387e-01,-1.399999999999983480e-01,7.400000000000050981e-01,2.700000000000055689e-01,8.000000000000069278e-01,4.000000000000065725e-01,-7.599999999999971223e-01,1.300000000000098854e-01,3.700000000000038813e-01,3.000000000000038192e-01,-1.000000000000000000e+00,-1.299999999999965627e-01,-6.899999999999979483e-01,5.200000000000075673e-01,-6.199999999999943334e-01,-4.999999999999924505e-01,6.600000000000014744e-01,9.000000000000629718e-02,-4.999999999999649170e-02,8.500000000000043077e-01,-1.099999999999983213e-01,6.400000000000067857e-01,-1.000000000000000000e+00,-1.299999999999921219e-01,-6.599999999999925926e-01,-1.999999999999468869e-02,1.200000000000072120e-01,-3.999999999999470646e-02,-3.299999999999985167e-01,9.700000000000026379e-01,2.000000000000028422e-01,4.100000000000030287e-01,1.500000000000045741e-01,-3.899999999999985700e-01,-1.000000000000000000e+00,-5.599999999999987210e-01,-1.000000000000000000e+00,-1.000000000000000000e+00,5.000000000000084377e-01,4.500000000000048406e-01,-1.000000000000000000e+00,6.400000000000058975e-01,-7.699999999999971312e-01,-1.000000000000000000e+00,2.100000000000055156e-01,2.800000000000046896e-01,8.000000000000184741e-02,1.800000000000037126e-01,-1.000000000000000000e+00,-1.000000000000000000e+00,2.000000000000268230e-02,-4.599999999999968558e-01,-7.399999999999979927e-01,-1.299999999999974509e-01
3.000000000000029310e-01,-1.000000000000000000e+00,-4.499999999999986233e-01,-2.099999999999975220e-01,-2.799999999999984723e-01,-7.699999999999989075e-01,-1.000000000000000000e+00,-4.999999999999293898e-02,-9.399999999999946176e-01,-4.499999999999968470e-01,8.800000000000034461e-01,-6.399999999999970157e-01,-1.599999999999948130e-01,-4.399999999999950617e-01,5.000000000000626166e-02,-2.099999999999948574e-01,9.900000000000070965e-01,-5.399999999999987033e-01,-1.000000000000000000e+00,-7.099999999999988542e-01,-1.000000000000000000e+00,5.700000000000076117e-01,3.000000000000073719e-01,3.800000000000074429e-01,6.000000000000040856e-01,-6.199999999999969980e-01,3.500000000000065281e-01,-7.699999999999953548e-01,3.700000000000047695e-01,-1.000000000000000000e+00,1.900000000000099387e-01,4.300000000000012701e-01,7.400000000000050981e-01,4.000000000000447642e-02,3.600000000000038725e-01,2.700000000000055689e-01,-4.299999999999968292e-01,-6.099999999999934364e-01,3.700000000000038813e-01,7.200000000000033040e-01,-9.999999999999831246e-02,-4.599999999999950795e-01,-1.000000000000000000e+00,3.600000000000074252e-01,-1.000000000000000000e+00,-1.000000000000000000e+00,6.600000000000014744e-01,9.000000000000629718e-02,-4.999999999999649170e-02,8.400000000000042988e-01,-1.099999999999983213e-01,6.400000000000067857e-01,-1.000000000000000000e+00,-1.000000000000000000e+00,-1.099999999999912159e-01,-2.799999999999949196e-01,-1.000000000000000000e+00,-1.000000000000000000e+00,-3.299999999999985167e-01,8.800000000000016698e-01,-4.099999999999968114e-01,4.100000000000030287e-01,1.400000000000054534e-01,-4.899999999999977707e-01,-1.000000000000000000e+00,-7.099999999999988542e-01,-1.000000000000000000e+00,-1.000000000000000000e+00,7.000000000000095035e-01,4.500000000000048406e-01,-8.699999999999954436e-01,-9.999999999996456168e-03,-5.999999999999738876e-02,-1.000000000000000000e+00,-1.000000000000000000e+00,3.500000000000056399e-01,8.000000000000184741e-02,1.100000000000045386e-01,-3.999999999999985789e-01,-9.399999999999990585e-01,-1.000000000000000000e+00,-3.999999999999559464e-02,-5.699999999999987299e-01,-1.299999999999974509e-01
3.000000000000029310e-01,-1.000000000000000000e+00,-1.000000000000000000e+00,2.600000000000037836e-01,4.400000000000030553e-01,-7.699999999999989075e-01,-1.000000000000000000e+00,-4.999999999999293898e-02,-3.899999999999985700e-01,-8.399999999999989697e-01,8.800000000000034461e-01,4.000000000000270006e-02,-1.599999999999948130e-01,-4.399999999999950617e-01,9.900000000000062084e-01,-6.499999999999943601e-01,7.600000000000051159e-01,-5.399999999999987033e-01,-1.000000000000000000e+00,-1.000000000000000000e+00,-1.000000000000000000e+00,5.700000000000076117e-01,3.000000000000073719e-01,5.700000000000049472e-01,-7.499999999999971134e-01,-7.599999999999980105e-01,3.500000000000065281e-01,-9.999999999995567990e-03,3.700000000000047695e-01,-1.000000000000000000e+00,-2.099999999999921929e-01,4.300000000000012701e-01,7.400000000000050981e-01,-6.999999999999988454e-01,-1.000000000000000000e+00,2.700000000000055689e-01,-4.299999999999968292e-01,-6.099999999999934364e-01,3.700000000000038813e-01,7.200000000000033040e-01,-9.999999999999831246e-02,-1.299999999999965627e-01,-6.899999999999979483e-01,3.600000000000074252e-01,-1.000000000000000000e+00,-1.000000000000000000e+00,6.600000000000014744e-01,9.000000000000629718e-02,-4.999999999999649170e-02,8.400000000000042988e-01,-6.699999999999988187e-01,6.400000000000067857e-01,-1.000000000000000000e+00,-1.299999999999921219e-01,-6.599999999999925926e-01,3.400000000000047429e-01,1.200000000000072120e-01,-1.000000000000000000e+00,-3.299999999999985167e-01,7.000000000000032863e-01,-4.099999999999968114e-01,4.100000000000030287e-01,1.500000000000045741e-01,-3.899999999999985700e-01,-1.000000000000000000e+00,-7.099999999999988542e-01,9.000000000000052403e-01,-1.000000000000000000e+00,5.000000000000084377e-01,4.500000000000048406e-01,-1.000000000000000000e+00,5.000000000000048850e-01,-5.999999999999738876e-02,-1.000000000000000000e+00,-2.899999999999984812e-01,3.500000000000056399e-01,9.500000000000017319e-01,1.800000000000037126e-01,-1.000000000000000000e+00,-9.399999999999990585e-01,2.000000000000268230e-02,-4.599999999999968558e-01,-5.699999999999987299e-01,-1.000000000000000000e+00
-1.000000000000000000e+00,-1.000000000000000000e+00,-1.000000000000000000e+00,2.600000000000037836e-01,4.400000000000030553e-01,-7.699999999999989075e-01,-3.999999999999825917e-02,-4.999999999999293898e-02,-3.899999999999985700e-01,-4.499999999999968470e-01,8.800000000000034461e-01,8.000000000000362377e-02,-1.599999999999948130e-01,-4.399999999999950617e-01,3.600000000000065370e-01,-6.499999999999943601e-01,7.600000000000051159e-01,-5.399999999999987033e-01,-1.000000000000000000e+00,-1.000000000000000000e+00,-1.000000000000000000e+00,5.700000000000076117e-01,-2.399999999999931077e-01,-1.599999999999948130e-01,-7.499999999999971134e-01,-7.599999999999980105e-01,3.500000000000065281e-01,-9.999999999995567990e-03,3.700000000000047695e-01,-1.000000000000000000e+00,1.900000000000099387e-01,-1.399999999999983480e-01,7.400000000000050981e-01,-1.000000000000000000e+00,3.600000000000038725e-01,2.700000000000055689e-01,-8.199999999999953992e-01,-3.399999999999914202e-01,3.700000000000038813e-01,7.200000000000033040e-01,-9.999999999999831246e-02,-1.299999999999965627e-01,-1.000000000000000000e+00,3.600000000000074252e-01,-1.000000000000000000e+00,-4.399999999999915090e-01,6.600000000000014744e-01,9.000000000000629718e-02,-4.999999999999649170e-02,1.900000000000046096e-01,-1.099999999999983213e-01,-5.399999999999969269e-01,-1.000000000000000000e+00,-3.299999999999940758e-01,-5.199999999999933564e-01,3.400000000000047429e-01,1.200000000000072120e-01,-6.999999999999828582e-02,-3.299999999999985167e-01,7.000000000000032863e-01,2.000000000000028422e-01,4.100000000000030287e-01,1.500000000000045741e-01,-1.000000000000000000e+00,-5.899999999999987477e-01,-5.599999999999987210e-01,-1.000000000000000000e+00,-1.000000000000000000e+00,7.000000000000095035e-01,4.500000000000048406e-01,-1.000000000000000000e+00,-9.999999999996456168e-03,-5.999999999999738876e-02,-1.000000000000000000e+00,-2.899999999999984812e-01,3.500000000000056399e-01,8.000000000000184741e-02,1.800000000000037126e-01,-6.099999999999987654e-01,-1.000000000000000000e+00,2.000000000000268230e-02,-7.099999999999961897e-01,-5.699999999999987299e-01,-4.699999999999977529e-01
-1.000000000000000000e+00,-1.000000000000000000e+00,-1.000000000000000000e+00,2.600000000000037836e-01,-2.799999999999984723e-01,-7.699999999999989075e-01,-3.999999999999825917e-02,-1.000000000000000000e+00,-3.899999999999985700e-01,-1.000000000000000000e+00,8.800000000000034461e-01,4.000000000000270006e-02,-1.599999999999948130e-01,-4.399999999999950617e-01,9.900000000000062084e-01,-7.599999999999953459e-01,7.600000000000051159e-01,-9.499999999999990674e-01,-1.000000000000000000e+00,-1.000000000000000000e+00,-1.000000000000000000e+00,5.700000000000076117e-01,2.000000000000623501e-02,-1.599999999999948130e-01,6.000000000000040856e-01,-7.599999999999980105e-01,3.500000000000065281e-01,-9.999999999995567990e-03,3.700000000000047695e-01,-1.000000000000000000e+00,7.600000000000095568e-01,-1.399999999999983480e-01,7.400000000000050981e-01,-4.999999999999960032e-01,8.000000000000069278e-01,2.700000000000055689e-01,-1.000000000000000000e+00,-3.399999999999914202e-01,3.700000000000038813e-01,7.200000000000033040e-01,-9.999999999999831246e-02,-4.599999999999950795e-01,-1.000000000000000000e+00,-1.000000000000000000e+00,-1.000000000000000000e+00,-4.599999999999933031e-01,6.600000000000014744e-01,9.000000000000629718e-02,-4.999999999999649170e-02,8.500000000000043077e-01,-1.000000000000000000e+00,6.400000000000067857e-01,-1.999999999999984013e-01,1.000000000000622613e-02,-6.599999999999925926e-01,-1.999999999999468869e-02,1.200000000000072120e-01,-1.000000000000000000e+00,-3.299999999999985167e-01,9.700000000000026379e-01,2.000000000000028422e-01,4.100000000000030287e-01,1.500000000000045741e-01,-2.499999999999966693e-01,-1.000000000000000000e+00,-4.399999999999977263e-01,-1.000000000000000000e+00,-1.000000000000000000e+00,5.000000000000084377e-01,4.500000000000048406e-01,-1.000000000000000000e+00,-9.999999999996456168e-03,-2.399999999999984368e-01,-1.000000000000000000e+00,2.000000000000268230e-02,3.500000000000065281e-01,9.500000000000017319e-01,-2.799999999999958078e-01,-1.000000000000000000e+00,-1.000000000000000000e+00,2.000000000000268230e-02,1.600000000000045830e-01,-6.999999999999979572e-01,-6.999999999999979572e-01
-1.899999999999983924e-01,-1.000000000000000000e+00,-1.399999999999983480e-01,5.300000000000040234e-01,-2.799999999999984723e-01,-9.399999999999981704e-01,-8.399999999999980815e-01,-1.000000000000000000e+00,-1.000000000000000000e+00,1.200000000000045475e-01,8.800000000000034461e-01,8.000000000000362377e-02,-7.899999999999900435e-01,2.200000000000046363e-01,9.900000000000062084e-01,-7.599999999999953459e-01,1.000000000000533795e-02,-4.299999999999968292e-01,-1.000000000000000000e+00,-1.000000000000000000e+00,-1.000000000000000000e+00,5.700000000000076117e-01,2.000000000000623501e-02,5.700000000000049472e-01,-3.999999999999959144e-01,-7.599999999999980105e-01,3.500000000000065281e-01,-1.000000000000000000e+00,3.700000000000047695e-01,-1.000000000000000000e+00,-6.599999999999917044e-01,-1.399999999999983480e-01,1.800000000000054889e-01,-4.999999999999960032e-01,-1.000000000000000000e+00,2.700000000000055689e-01,-4.299999999999968292e-01,3.700000000000083222e-01,-3.999999999999959144e-01,1.200000000000036593e-01,-9.999999999999831246e-02,-1.000000000000000000e+00,-1.000000000000000000e+00,3.600000000000074252e-01,-1.000000000000000000e+00,5.000000000000084377e-01,6.600000000000014744e-01,9.000000000000629718e-02,-4.999999999999649170e-02,8.400000000000042988e-01,-1.000000000000000000e+00,3.500000000000047518e-01,-1.999999999999984013e-01,5.900000000000076295e-01,-6.599999999999925926e-01,-1.000000000000000000e+00,1.200000000000072120e-01,-6.999999999999828582e-02,5.000000000000359712e-02,9.700000000000026379e-01,1.300000000000036682e-01,4.100000000000030287e-01,1.500000000000045741e-01,-3.899999999999985700e-01,-2.799999999999966960e-01,1.000000000000027534e-01,-1.000000000000000000e+00,-1.000000000000000000e+00,3.200000000000100542e-01,9.700000000000061906e-01,-7.199999999999988631e-01,-9.999999999996456168e-03,-5.999999999999738876e-02,-1.000000000000000000e+00,-5.999999999999827693e-02,-1.799999999999939426e-01,9.500000000000017319e-01,1.800000000000037126e-01,8.000000000000069278e-01,-1.000000000000000000e+00,-7.599999999999988987e-01,1.600000000000045830e-01,-5.699999999999987299e-01,-8.999999999999990230e-01
-1.000000000000000000e+00,-1.000000000000000000e+00,-4.499999999999986233e-01,-6.999999999999970690e-01,-3.999999999999976907e-01,-7.699999999999989075e-01,-3.999999999999825917e-02,-1.000000000000000000e+00,-9.399999999999946176e-01,-1.000000000000000000e+00,8.800000000000034461e-01,9.800000000000053113e-01,-2.999999999999940492e-01,9.500000000000061728e-01,3.600000000000065370e-01,-6.499999999999943601e-01,1.000000000000533795e-02,-5.599999999999978328e-01,-1.000000000000000000e+00,-1.000000000000000000e+00,-1.000000000000000000e+00,5.700000000000076117e-01,-2.399999999999931077e-01,5.000000000000066613e-01,4.800000000000057554e-01,-6.199999999999969980e-01,3.500000000000065281e-01,-9.999999999995567990e-03,3.700000000000047695e-01,-1.000000000000000000e+00,-6.599999999999917044e-01,4.300000000000012701e-01,7.400000000000050981e-01,-6.999999999999988454e-01,4.800000000000048672e-01,3.000000000000064837e-01,-1.000000000000000000e+00,-3.399999999999914202e-01,3.700000000000038813e-01,7.200000000000033040e-01,-9.999999999999831246e-02,-1.299999999999965627e-01,-6.899999999999979483e-01,-1.000000000000000000e+00,-1.000000000000000000e+00,-4.999999999999924505e-01,-2.299999999999984279e-01,3.000000000000624389e-02,-4.999999999999649170e-02,8.400000000000042988e-01,-1.099999999999983213e-01,6.400000000000067857e-01,-1.000000000000000000e+00,-1.000000000000000000e+00,9.100000000000105782e-01,3.400000000000047429e-01,1.000000000000080824e-01,5.000000000000270894e-02,-3.299999999999985167e-01,8.800000000000016698e-01,2.000000000000028422e-01,-4.999999999999649170e-02,9.000000000000540901e-02,-1.000000000000000000e+00,-5.499999999999969358e-01,-7.099999999999988542e-01,-1.000000000000000000e+00,-1.000000000000000000e+00,7.000000000000095035e-01,4.500000000000048406e-01,-8.699999999999954436e-01,-9.999999999996456168e-03,-2.399999999999984368e-01,-1.000000000000000000e+00,-2.899999999999984812e-01,2.300000000000055334e-01,3.800000000000030020e-01,1.800000000000037126e-01,-3.999999999999985789e-01,-1.000000000000000000e+00,-8.099999999999971667e-01,-3.999999999999559464e-02,-1.000000000000000000e+00,-8.999999999999990230e-01
3.000000000000029310e-01,-1.000000000000000000e+00,-4.499999999999986233e-01,7.000000000000272671e-02,-3.999999999999976907e-01,-7.699999999999989075e-01,-7.899999999999980371e-01,-1.000000000000000000e+00,-3.899999999999985700e-01,-1.199999999999983302e-01,1.000000000000356160e-02,8.000000000000362377e-02,-2.999999999999940492e-01,-4.399999999999950617e-01,5.000000000000626166e-02,-6.499999999999943601e-01,9.900000000000070965e-01,-2.099999999999975220e-01,-1.000000000000000000e+00,-1.000000000000000000e+00,-1.000000000000000000e+00,-1.199999999999921130e-01,-2.399999999999931077e-01,5.000000000000066613e-01,-4.699999999999959766e-01,-6.199999999999969980e-01,3.500000000000065281e-01,4.100000000000056932e-01,3.700000000000047695e-01,-1.000000000000000000e+00,1.900000000000099387e-01,4.300000000000012701e-01,7.400000000000050981e-01,-1.000000000000000000e+00,4.800000000000048672e-01,3.000000000000064837e-01,-1.000000000000000000e+00,-3.399999999999914202e-01,3.700000000000038813e-01,7.200000000000033040e-01,-9.999999999999831246e-02,-1.299999999999965627e-01,-6.899999999999979483e-01,6.200000000000085443e-01,-1.000000000000000000e+00,-4.999999999999924505e-01,6.600000000000014744e-01,9.000000000000629718e-02,-4.999999999999649170e-02,1.000000000000444977e-02,-6.699999999999988187e-01,-1.000000000000000000e+00,-1.000000000000000000e+00,-1.000000000000000000e+00,-1.099999999999912159e-01,3.400000000000047429e-01,1.000000000000080824e-01,6.000000000000271783e-02,3.700000000000029932e-01,8.800000000000016698e-01,2.000000000000028422e-01,-4.999999999999649170e-02,9.000000000000540901e-02,-1.000000000000000000e+00,-5.499999999999969358e-01,-7.099999999999988542e-01,-1.000000000000000000e+00,-1.000000000000000000e+00,7.500000000000104361e-01,-1.000000000000000000e+00,-1.000000000000000000e+00,-9.999999999996456168e-03,-2.399999999999984368e-01,-1.000000000000000000e+00,-2.899999999999984812e-01,2.300000000000055334e-01,3.800000000000030020e-01,1.800000000000037126e-01,-7.099999999999979661e-01,-1.000000000000000000e+00,-8.099999999999971667e-01,4.700000000000048583e-01,-5.699999999999987299e-01,-8.999999999999990230e-01
3.000000000000029310e-01,-1.000000000000000000e+00,-1.000000000000000000e+00,2.600000000000037836e-01,4.400000000000030553e-01,-1.000000000000000000e+00,7.900000000000042544e-01,4.700000000000066347e-01,-3.899999999999985700e-01,-1.000000000000000000e+00,8.800000000000034461e-01,4.000000000000270006e-02,-1.599999999999948130e-01,2.200000000000046363e-01,9.900000000000062084e-01,-6.499999999999943601e-01,7.600000000000051159e-01,-5.399999999999987033e-01,-1.000000000000000000e+00,-1.000000000000000000e+00,-1.000000000000000000e+00,5.700000000000076117e-01,2.000000000000623501e-02,-1.599999999999948130e-01,-7.499999999999971134e-01,-7.599999999999980105e-01,3.500000000000065281e-01,-1.000000000000000000e+00,3.700000000000047695e-01,-1.000000000000000000e+00,1.900000000000099387e-01,-1.399999999999983480e-01,7.400000000000050981e-01,-1.499999999999974687e-01,9.200000000000061462e-01,2.700000000000055689e-01,-7.599999999999971223e-01,-6.099999999999934364e-01,3.700000000000038813e-01,7.200000000000033040e-01,-1.000000000000000000e+00,-1.299999999999965627e-01,-6.899999999999979483e-01,2.700000000000082334e-01,-6.099999999999952127e-01,-4.399999999999915090e-01,6.600000000000014744e-01,-1.000000000000000000e+00,-4.999999999999649170e-02,-1.000000000000000000e+00,-6.699999999999988187e-01,-5.399999999999969269e-01,-1.000000000000000000e+00,-3.999999999999470646e-02,-6.599999999999925926e-01,3.400000000000047429e-01,1.200000000000072120e-01,-3.999999999999470646e-02,-3.299999999999985167e-01,7.000000000000032863e-01,2.000000000000028422e-01,4.100000000000030287e-01,2.500000000000055511e-01,-3.899999999999985700e-01,-1.000000000000000000e+00,-5.599999999999987210e-01,-1.000000000000000000e+00,-1.000000000000000000e+00,5.000000000000084377e-01,4.500000000000048406e-01,-1.000000000000000000e+00,-9.999999999996456168e-03,-5.999999999999738876e-02,-1.000000000000000000e+00,-2.899999999999984812e-01,2.800000000000046896e-01,9.500000000000017319e-01,1.800000000000037126e-01,-1.000000000000000000e+00,-1.000000000000000000e+00,-1.000000000000000000e+00,-4.599999999999968558e-01,-7.399999999999979927e-01,-6.999999999999979572e-01
-1.899999999999983924e-01,-1.000000000000000000e+00,-1.000000000000000000e+00,2.600000000000037836e-01,-3.999999999999976907e-01,-7.699999999999989075e-01,-3.999999999999825917e-02,-1.000000000000000000e+00,-3.899999999999985700e-01,-4.999999999999960032e-01,8.800000000000034461e-01,4.000000000000270006e-02,9.769962616701377556e-15,9.500000000000061728e-01,9.900000000000062084e-01,-5.199999999999960210e-01,-1.399999999999947953e-01,-1.000000000000000000e+00,-1.000000000000000000e+00,-1.000000000000000000e+00,-1.000000000000000000e+00,5.700000000000076117e-01,-2.399999999999931077e-01,-1.599999999999948130e-01,-7.499999999999971134e-01,-7.599999999999980105e-01,3.500000000000065281e-01,-9.999999999995567990e-03,3.700000000000047695e-01,-1.000000000000000000e+00,1.900000000000099387e-01,-7.899999999999980371e-01,7.400000000000050981e-01,-1.000000000000000000e+00,3.600000000000038725e-01,2.700000000000055689e-01,6.000000000000449418e-02,-3.399999999999914202e-01,1.000000000000045297e-01,7.200000000000033040e-01,-9.999999999999831246e-02,-1.299999999999965627e-01,-1.000000000000000000e+00,3.600000000000074252e-01,-1.000000000000000000e+00,-4.999999999999924505e-01,6.600000000000014744e-01,9.000000000000629718e-02,-4.999999999999649170e-02,8.500000000000043077e-01,-1.099999999999983213e-01,6.400000000000067857e-01,-1.999999999999984013e-01,-1.299999999999921219e-01,-5.199999999999933564e-01,-1.999999999999468869e-02,1.200000000000072120e-01,-1.000000000000000000e+00,-3.299999999999985167e-01,9.700000000000026379e-01,2.000000000000028422e-01,-1.000000000000000000e+00,1.500000000000045741e-01,-1.000000000000000000e+00,-1.000000000000000000e+00,-5.599999999999987210e-01,-9.599999999999990763e-01,-1.000000000000000000e+00,5.000000000000084377e-01,4.500000000000048406e-01,-1.000000000000000000e+00,-9.999999999996456168e-03,-5.999999999999738876e-02,-1.000000000000000000e+00,-2.899999999999984812e-01,2.800000000000046896e-01,8.000000000000184741e-02,1.800000000000037126e-01,-6.099999999999987654e-01,-1.000000000000000000e+00,-1.000000000000000000e+00,-4.599999999999968558e-01,1.900000000000028333e-01,-4.699999999999977529e-01
2.300000000000028688e-01,-1.000000000000000000e+00,-1.000000000000000000e+00,7.000000000000272671e-02,-3.999999999999976907e-01,-7.699999999999989075e-01,-3.999999999999825917e-02,-1.000000000000000000e+00,-6.399999999999987921e-01,-8.399999999999989697e-01,8.800000000000034461e-01,8.000000000000362377e-02,-1.599999999999948130e-01,2.200000000000064126e-01,3.600000000000065370e-01,-9.099999999999937028e-01,1.000000000000533795e-02,-9.499999999999990674e-01,-1.000000000000000000e+00,-1.000000000000000000e+00,-1.000000000000000000e+00,5.700000000000076117e-01,7.105427357601001859e-15,-1.299999999999947864e-01,6.000000000000040856e-01,-7.599999999999980105e-01,3.500000000000065281e-01,-1.000000000000000000e+00,3.700000000000047695e-01,-1.000000000000000000e+00,-6.599999999999917044e-01,8.000000000000033751e-01,7.400000000000050981e-01,-4.999999999999960032e-01,9.400000000000052758e-01,3.000000000000064837e-01,6.000000000000449418e-02,-3.099999999999913936e-01,3.700000000000038813e-01,7.200000000000033040e-01,-9.999999999999831246e-02,-1.299999999999965627e-01,-6.899999999999979483e-01,-1.000000000000000000e+00,-1.000000000000000000e+00,-4.599999999999933031e-01,6.600000000000014744e-01,9.000000000000629718e-02,-4.999999999999649170e-02,8.500000000000043077e-01,-1.000000000000000000e+00,6.400000000000067857e-01,-1.000000000000000000e+00,1.000000000000622613e-02,-6.599999999999925926e-01,5.700000000000058353e-01,-1.000000000000000000e+00,9.000000000000034639e-01,3.700000000000029932e-01,3.400000000000029665e-01,2.000000000000028422e-01,-1.899999999999966160e-01,1.500000000000045741e-01,-1.000000000000000000e+00,-9.899999999999982148e-01,-7.099999999999988542e-01,-1.000000000000000000e+00,-1.000000000000000000e+00,5.000000000000084377e-01,4.500000000000048406e-01,-1.000000000000000000e+00,-9.999999999996456168e-03,-2.199999999999975309e-01,-1.000000000000000000e+00,-2.899999999999984812e-01,-1.799999999999939426e-01,9.500000000000017319e-01,1.800000000000037126e-01,-6.099999999999987654e-01,-1.000000000000000000e+00,-1.799999999999974953e-01,4.800000000000048672e-01,-5.699999999999987299e-01,-1.000000000000000000e+00
-1.000000000000000000e+00,-1.000000000000000000e+00,-1.000000000000000000e+00,2.600000000000037836e-01,-2.799999999999984723e-01,-7.699999999999989075e-01,-3.999999999999825917e-02,-1.000000000000000000e+00,-9.399999999999946176e-01,-1.000000000000000000e+00,8.800000000000034461e-01,-4.399999999999959499e-01,-2.999999999999940492e-01,-4.399999999999950617e-01,5.000000000000626166e-02,-5.199999999999960210e-01,9.900000000000070965e-01,7.200000000000041922e-01,-1.000000000000000000e+00,-1.000000000000000000e+00,-1.000000000000000000e+00,5.700000000000076117e-01,5.200000000000075673e-01,5.000000000000066613e-01,-4.699999999999959766e-01,-7.999999999999563016e-02,-3.299999999999931877e-01,1.500000000000054623e-01,3.700000000000047695e-01,-5.899999999999987477e-01,1.900000000000099387e-01,4.300000000000012701e-01,7.400000000000050981e-01,-1.000000000000000000e+00,4.800000000000048672e-01,-9.999999999993791633e-03,6.000000000000449418e-02,3.700000000000083222e-01,5.000000000000048850e-01,7.200000000000033040e-01,-9.999999999999831246e-02,-1.299999999999965627e-01,-6.899999999999979483e-01,-1.000000000000000000e+00,-1.000000000000000000e+00,-4.999999999999924505e-01,6.600000000000014744e-01,1.800000000000054889e-01,-4.999999999999649170e-02,8.400000000000042988e-01,-6.699999999999988187e-01,-1.000000000000000000e+00,-1.000000000000000000e+00,-1.000000000000000000e+00,-1.099999999999912159e-01,3.400000000000047429e-01,-3.199999999999922906e-01,6.000000000000271783e-02,-2.799999999999975842e-01,8.800000000000016698e-01,2.000000000000028422e-01,-3.599999999999958789e-01,-6.099999999999952127e-01,-4.899999999999977707e-01,-9.899999999999982148e-01,-7.099999999999988542e-01,-1.000000000000000000e+00,-1.000000000000000000e+00,7.000000000000095035e-01,1.500000000000054623e-01,-1.899999999999939515e-01,-9.999999999996456168e-03,-2.399999999999984368e-01,-1.000000000000000000e+00,-2.899999999999984812e-01,3.500000000000056399e-01,8.000000000000184741e-02,1.800000000000037126e-01,-3.999999999999985789e-01,-1.000000000000000000e+00,2.000000000000268230e-02,-1.399999999999956835e-01,-1.000000000000000000e+00,-8.999999999999990230e-01
-4.799999999999968736e-01,-1.000000000000000000e+00,-1.000000000000000000e+00,-2.099999999999975220e-01,-9.099999999999981437e-01,-7.699999999999989075e-01,-7.899999999999980371e-01,-4.999999999999293898e-02,-3.899999999999985700e-01,-1.000000000000000000e+00,8.800000000000034461e-01,8.000000000000362377e-02,9.769962616701377556e-15,-4.399999999999950617e-01,3.600000000000065370e-01,-6.499999999999943601e-01,7.600000000000051159e-01,-1.000000000000000000e+00,-1.000000000000000000e+00,-1.000000000000000000e+00,-1.000000000000000000e+00,5.700000000000076117e-01,-2.399999999999931077e-01,5.700000000000049472e-01,-4.699999999999959766e-01,-7.599999999999980105e-01,3.500000000000065281e-01,-1.000000000000000000e+00,3.700000000000047695e-01,-1.000000000000000000e+00,-7.999999999998941291e-02,-1.399999999999983480e-01,-1.000000000000000000e+00,6.000000000000360600e-02,3.300000000000047340e-01,2.700000000000055689e-01,-4.299999999999968292e-01,3.700000000000083222e-01,3.700000000000038813e-01,7.200000000000033040e-01,-9.999999999999831246e-02,-1.299999999999965627e-01,-6.899999999999979483e-01,6.200000000000085443e-01,-1.000000000000000000e+00,-4.999999999999924505e-01,-1.000000000000000000e+00,9.000000000000629718e-02,-4.999999999999649170e-02,8.400000000000042988e-01,2.300000000000028688e-01,6.400000000000067857e-01,-1.000000000000000000e+00,-1.000000000000000000e+00,-6.599999999999925926e-01,3.400000000000047429e-01,-1.000000000000000000e+00,-1.000000000000000000e+00,3.700000000000029932e-01,9.700000000000026379e-01,2.000000000000028422e-01,4.100000000000030287e-01,1.500000000000045741e-01,-1.000000000000000000e+00,-9.599999999999990763e-01,-7.099999999999988542e-01,-1.000000000000000000e+00,-2.999999999999825029e-02,4.400000000000101608e-01,4.500000000000048406e-01,-1.000000000000000000e+00,-9.999999999996456168e-03,-2.399999999999984368e-01,-1.000000000000000000e+00,-1.000000000000000000e+00,-1.799999999999939426e-01,9.500000000000017319e-01,1.800000000000037126e-01,-6.099999999999987654e-01,-9.399999999999990585e-01,-1.000000000000000000e+00,-4.599999999999968558e-01,-5.699999999999987299e-01,-1.299999999999974509e-01
-1.899999999999983924e-01,-4.399999999999986144e-01,-1.000000000000000000e+00,-4.099999999999976996e-01,4.400000000000030553e-01,-2.799999999999975842e-01,-3.999999999999825917e-02,4.700000000000066347e-01,-8.899999999999927969e-01,-7.199999999999961986e-01,6.200000000000041034e-01,-4.299999999999968292e-01,3.800000000000109956e-01,-4.399999999999950617e-01,9.000000000000629718e-02,-1.499999999999948042e-01,8.100000000000060485e-01,-5.399999999999987033e-01,-1.000000000000000000e+00,-1.000000000000000000e+00,-1.099999999999983213e-01,5.700000000000076117e-01,2.000000000000623501e-02,-5.299999999999942535e-01,-7.499999999999971134e-01,-7.599999999999980105e-01,3.500000000000065281e-01,-1.000000000000000000e+00,5.000000000000057732e-01,-1.000000000000000000e+00,-2.099999999999921929e-01,-1.399999999999983480e-01,7.400000000000050981e-01,6.000000000000360600e-02,8.000000000000069278e-01,2.700000000000055689e-01,-7.599999999999971223e-01,-3.399999999999914202e-01,3.700000000000038813e-01,7.200000000000033040e-01,-9.999999999999831246e-02,4.800000000000048672e-01,-7.299999999999970957e-01,3.600000000000074252e-01,-6.099999999999952127e-01,-4.599999999999933031e-01,7.000000000000023981e-01,9.000000000000629718e-02,-4.999999999999649170e-02,7.700000000000051248e-01,-1.099999999999983213e-01,-5.399999999999969269e-01,-1.000000000000000000e+00,-3.999999999999470646e-02,-5.199999999999933564e-01,3.400000000000047429e-01,1.200000000000072120e-01,-1.000000000000000000e+00,-3.299999999999985167e-01,1.200000000000036593e-01,2.000000000000028422e-01,4.100000000000030287e-01,1.500000000000045741e-01,-3.899999999999985700e-01,-1.000000000000000000e+00,-5.599999999999987210e-01,-1.000000000000000000e+00,-1.000000000000000000e+00,5.000000000000084377e-01,4.500000000000048406e-01,-1.000000000000000000e+00,-9.999999999996456168e-03,-5.999999999999738876e-02,-1.000000000000000000e+00,-2.899999999999984812e-01,2.800000000000046896e-01,8.000000000000184741e-02,1.800000000000037126e-01,7.200000000000059686e-01,-9.399999999999990585e-01,2.000000000000268230e-02,-4.599999999999968558e-01,-7.399999999999979927e-01,-3.699999999999967759e-01
-1.000000000000000000e+00,-1.000000000000000000e+00,-1.000000000000000000e+00,-2.099999999999975220e-01,-9.099999999999981437e-01,-7.699999999999989075e-01,-3.999999999999825917e-02,-4.999999999999293898e-02,-3.899999999999985700e-01,-1.000000000000000000e+00,8.800000000000034461e-01,4.000000000000270006e-02,-1.599999999999948130e-01,-4.399999999999950617e-01,9.900000000000062084e-01,-6.499999999999943601e-01,7.600000000000051159e-01,-5.399999999999987033e-01,-1.000000000000000000e+00,-7.099999999999988542e-01,-1.000000000000000000e+00,5.700000000000076117e-01,3.000000000000073719e-01,5.700000000000049472e-01,6.000000000000040856e-01,9.000000000000363265e-02,3.500000000000065281e-01,-9.999999999995567990e-03,3.700000000000047695e-01,-1.000000000000000000e+00,-2.099999999999921929e-01,4.300000000000012701e-01,-1.000000000000000000e+00,-6.999999999999988454e-01,3.600000000000038725e-01,2.700000000000055689e-01,-4.299999999999968292e-01,-6.099999999999934364e-01,3.700000000000038813e-01,7.200000000000033040e-01,-9.999999999999831246e-02,-4.599999999999950795e-01,-1.000000000000000000e+00,3.600000000000074252e-01,-1.000000000000000000e+00,-1.000000000000000000e+00,6.600000000000014744e-01,9.000000000000629718e-02,-4.999999999999649170e-02,8.400000000000042988e-01,-6.699999999999988187e-01,6.400000000000067857e-01,-1.000000000000000000e+00,-1.299999999999921219e-01,-6.599999999999925926e-01,-1.999999999999468869e-02,-1.000000000000000000e+00,-1.000000000000000000e+00,-3.299999999999985167e-01,7.000000000000032863e-01,-4.099999999999968114e-01,4.100000000000030287e-01,1.500000000000045741e-01,-4.899999999999977707e-01,-1.000000000000000000e+00,-7.099999999999988542e-01,-1.000000000000000000e+00,-1.000000000000000000e+00,5.000000000000084377e-01,4.500000000000048406e-01,-1.000000000000000000e+00,-9.999999999996456168e-03,-8.199999999999980638e-01,-1.000000000000000000e+00,-1.000000000000000000e+00,3.500000000000056399e-01,9.500000000000017319e-01,1.800000000000037126e-01,-1.000000000000000000e+00,-1.000000000000000000e+00,2.000000000000268230e-02,-4.599999999999968558e-01,-5.699999999999987299e-01,-1.299999999999974509e-01
-1.899999999999983924e-01,-1.000000000000000000e+00,-1.000000000000000000e+00,-4.099999999999976996e-01,-3.999999999999976907e-01,-7.699999999999989075e-01,-3.999999999999825917e-02,-1.000000000000000000e+00,-9.399999999999946176e-01,-1.000000000000000000e+00,6.200000000000041034e-01,-6.399999999999970157e-01,-2.999999999999940492e-01,3.600000000000065370e-01,3.600000000000065370e-01,-5.199999999999960210e-01,9.900000000000070965e-01,-5.399999999999987033e-01,-1.000000000000000000e+00,-1.000000000000000000e+00,-7.699999999999989075e-01,5.700000000000076117e-01,-2.399999999999931077e-01,-1.599999999999948130e-01,-1.499999999999948042e-01,-6.199999999999969980e-01,3.500000000000065281e-01,-1.000000000000000000e+00,3.700000000000047695e-01,-1.000000000000000000e+00,1.900000000000099387e-01,-1.399999999999983480e-01,1.800000000000054889e-01,-1.000000000000000000e+00,4.800000000000048672e-01,2.700000000000055689e-01,6.000000000000449418e-02,3.700000000000083222e-01,5.000000000000048850e-01,7.200000000000033040e-01,-8.299999999999980727e-01,-1.299999999999965627e-01,-6.899999999999979483e-01,3.600000000000074252e-01,-1.000000000000000000e+00,-4.999999999999924505e-01,6.600000000000014744e-01,9.000000000000629718e-02,-4.999999999999649170e-02,8.400000000000042988e-01,1.700000000000028155e-01,-1.000000000000000000e+00,-1.999999999999984013e-01,-1.000000000000000000e+00,-1.099999999999912159e-01,3.400000000000047429e-01,1.200000000000072120e-01,6.000000000000271783e-02,-3.299999999999985167e-01,8.800000000000016698e-01,2.000000000000028422e-01,-4.999999999999649170e-02,1.500000000000045741e-01,-1.000000000000000000e+00,-5.499999999999969358e-01,-7.099999999999988542e-01,9.000000000000052403e-01,-1.000000000000000000e+00,7.000000000000095035e-01,-1.000000000000000000e+00,-8.699999999999954436e-01,-9.999999999996456168e-03,-5.999999999999738876e-02,-1.000000000000000000e+00,-2.899999999999984812e-01,2.300000000000055334e-01,9.500000000000017319e-01,1.800000000000037126e-01,-3.999999999999985789e-01,-1.000000000000000000e+00,-1.000000000000000000e+00,-4.599999999999968558e-01,9.000000000000363265e-02,-1.000000000000000000e+00
-1.000000000000000000e+00,-1.000000000000000000e+00,-1.000000000000000000e+00,-2.599999999999966782e-01,-3.999999999999976907e-01,-7.699999999999989075e-01,-3.999999999999825917e-02,-1.000000000000000000e+00,-7.399999999999935518e-01,-2.999999999999558575e-02,3.800000000000047784e-01,8.000000000000362377e-02,9.769962616701377556e-15,9.500000000000061728e-01,3.600000000000065370e-01,-6.499999999999943601e-01,1.000000000000533795e-02,-2.099999999999975220e-01,-1.000000000000000000e+00,-1.000000000000000000e+00,-1.000000000000000000e+00,5.700000000000076117e-01,-2.399999999999931077e-01,5.700000000000049472e-01,-4.699999999999959766e-01,-1.000000000000000000e+00,3.500000000000065281e-01,-1.000000000000000000e+00,3.700000000000047695e-01,-1.000000000000000000e+00,1.900000000000099387e-01,-1.399999999999983480e-01,7.400000000000050981e-01,-1.000000000000000000e+00,3.600000000000038725e-01,3.000000000000064837e-01,6.000000000000449418e-02,3.700000000000083222e-01,3.700000000000038813e-01,7.200000000000033040e-01,-9.999999999999831246e-02,-1.299999999999965627e-01,-6.899999999999979483e-01,6.200000000000085443e-01,-1.000000000000000000e+00,-4.999999999999924505e-01,6.600000000000014744e-01,9.000000000000629718e-02,-4.999999999999649170e-02,1.900000000000046096e-01,-6.699999999999988187e-01,6.400000000000067857e-01,-1.000000000000000000e+00,-3.299999999999940758e-01,2.700000000000091216e-01,3.400000000000047429e-01,-1.000000000000000000e+00,-6.999999999999828582e-02,3.700000000000029932e-01,9.700000000000026379e-01,2.000000000000028422e-01,4.100000000000030287e-01,9.000000000000540901e-02,-1.000000000000000000e+00,-9.899999999999982148e-01,-4.499999999999977351e-01,9.000000000000052403e-01,-1.000000000000000000e+00,7.000000000000095035e-01,4.500000000000048406e-01,-1.000000000000000000e+00,-9.999999999996456168e-03,-5.999999999999738876e-02,-1.000000000000000000e+00,-5.599999999999978328e-01,-1.799999999999939426e-01,3.800000000000030020e-01,1.800000000000037126e-01,-6.099999999999987654e-01,-1.000000000000000000e+00,-1.000000000000000000e+00,-4.599999999999968558e-01,-7.399999999999979927e-01,-4.699999999999977529e-01
3.000000000000029310e-01,-1.000000000000000000e+00,-1.000000000000000000e+00,-4.099999999999976996e-01,-2.799999999999984723e-01,-7.699999999999989075e-01,7.900000000000042544e-01,4.700000000000066347e-01,-7.399999999999935518e-01,-4.499999999999968470e-01,6.200000000000041034e-01,4.000000000000270006e-02,9.769962616701377556e-15,2.200000000000046363e-01,9.900000000000062084e-01,-5.199999999999960210e-01,1.000000000000533795e-02,-8.599999999999989875e-01,-1.000000000000000000e+00,-1.000000000000000000e+00,-1.000000000000000000e+00,5.700000000000076117e-01,2.000000000000623501e-02,5.700000000000049472e-01,6.000000000000040856e-01,-7.599999999999980105e-01,3.500000000000065281e-01,-1.000000000000000000e+00,3.700000000000047695e-01,-1.000000000000000000e+00,1.900000000000099387e-01,-1.399999999999983480e-01,7.400000000000050981e-01,5.000000000000448530e-02,9.200000000000061462e-01,2.700000000000055689e-01,-9.999999999997344347e-03,-3.099999999999931699e-01,3.700000000000038813e-01,-5.099999999999960121e-01,-9.999999999999831246e-02,-4.599999999999950795e-01,-2.499999999999966693e-01,3.100000000000082689e-01,-6.099999999999952127e-01,-4.999999999999924505e-01,6.600000000000014744e-01,9.000000000000629718e-02,-4.999999999999649170e-02,-1.000000000000000000e+00,-6.699999999999988187e-01,-5.399999999999969269e-01,-1.999999999999984013e-01,-3.999999999999470646e-02,-6.599999999999925926e-01,3.400000000000047429e-01,1.200000000000072120e-01,-6.999999999999828582e-02,-3.299999999999985167e-01,2.900000000000029221e-01,2.000000000000028422e-01,4.100000000000030287e-01,1.500000000000045741e-01,-3.899999999999985700e-01,-1.000000000000000000e+00,-1.000000000000000000e+00,-1.000000000000000000e+00,-1.000000000000000000e+00,5.000000000000084377e-01,4.500000000000048406e-01,-1.000000000000000000e+00,1.000000000000444977e-02,3.000000000000357936e-02,-1.000000000000000000e+00,-5.999999999999960920e-01,2.800000000000046896e-01,9.500000000000017319e-01,1.800000000000037126e-01,4.300000000000065992e-01,-9.399999999999990585e-01,-1.299999999999983391e-01,-4.599999999999968558e-01,-1.000000000000000000e+00,-1.299999999999974509e-01
-1.899999999999983924e-01,-1.000000000000000000e+00,-1.000000000000000000e+00,5.300000000000040234e-01,-9.099999999999981437e-01,-7.699999999999989075e-01,-7.899999999999980371e-01,-1.000000000000000000e+00,-3.899999999999985700e-01,1.200000000000045475e-01,8.800000000000034461e-01,8.000000000000362377e-02,-7.899999999999900435e-01,9.500000000000061728e-01,3.600000000000065370e-01,1.000000000000063061e-01,1.000000000000533795e-02,-2.099999999999975220e-01,-1.000000000000000000e+00,-1.000000000000000000e+00,-1.000000000000000000e+00,5.700000000000076117e-01,2.000000000000623501e-02,5.700000000000049472e-01,-4.699999999999959766e-01,-7.599999999999980105e-01,3.500000000000065281e-01,-1.000000000000000000e+00,3.700000000000047695e-01,-1.000000000000000000e+00,-6.599999999999917044e-01,-1.399999999999983480e-01,7.400000000000050981e-01,7.000000000000450306e-02,3.600000000000038725e-01,2.000000000000623501e-02,-4.299999999999968292e-01,3.700000000000083222e-01,-3.999999999999959144e-01,7.200000000000033040e-01,-9.999999999999831246e-02,-1.000000000000000000e+00,-1.000000000000000000e+00,6.200000000000085443e-01,-1.000000000000000000e+00,-4.999999999999924505e-01,6.600000000000014744e-01,9.000000000000629718e-02,-5.899999999999960831e-01,-1.000000000000000000e+00,-1.000000000000000000e+00,3.500000000000047518e-01,-1.000000000000000000e+00,-1.899999999999983924e-01,-5.199999999999933564e-01,3.400000000000047429e-01,-1.000000000000000000e+00,5.000000000000270894e-02,5.000000000000359712e-02,2.000000000000179412e-02,1.300000000000036682e-01,4.100000000000030287e-01,1.500000000000045741e-01,-3.899999999999985700e-01,-1.000000000000000000e+00,-7.099999999999988542e-01,-1.000000000000000000e+00,-1.000000000000000000e+00,7.000000000000095035e-01,4.500000000000048406e-01,-1.000000000000000000e+00,-9.999999999996456168e-03,-5.999999999999738876e-02,-1.000000000000000000e+00,-1.000000000000000000e+00,-1.799999999999939426e-01,9.500000000000017319e-01,1.800000000000037126e-01,-6.099999999999987654e-01,-1.000000000000000000e+00,-1.699999999999983746e-01,-1.899999999999939515e-01,-5.699999999999987299e-01,-1.299999999999974509e-01
-1.000000000000000000e+00,-1.000000000000000000e+00,-4.499999999999986233e-01,2.600000000000037836e-01,-3.999999999999976907e-01,-7.699999999999989075e-01,-7.899999999999980371e-01,-7.899999999999989253e-01,-9.399999999999946176e-01,-1.000000000000000000e+00,4.600000000000039613e-01,3.900000000000047873e-01,-2.999999999999940492e-01,-4.399999999999950617e-01,3.600000000000065370e-01,-6.499999999999943601e-01,9.900000000000070965e-01,-5.399999999999987033e-01,-1.000000000000000000e+00,-1.000000000000000000e+00,-1.000000000000000000e+00,5.700000000000076117e-01,-4.799999999999968736e-01,5.000000000000066613e-01,-4.699999999999959766e-01,-6.199999999999969980e-01,3.500000000000065281e-01,-9.999999999995567990e-03,3.700000000000047695e-01,-1.000000000000000000e+00,-6.599999999999917044e-01,4.300000000000012701e-01,7.400000000000050981e-01,-1.000000000000000000e+00,4.800000000000048672e-01,-9.999999999993791633e-03,-1.000000000000000000e+00,3.700000000000083222e-01,5.000000000000048850e-01,7.200000000000033040e-01,-9.999999999999831246e-02,-1.299999999999965627e-01,-6.899999999999979483e-01,6.200000000000085443e-01,-1.000000000000000000e+00,-4.999999999999924505e-01,6.600000000000014744e-01,9.000000000000629718e-02,-4.999999999999649170e-02,8.400000000000042988e-01,-1.099999999999983213e-01,6.400000000000067857e-01,-1.000000000000000000e+00,-1.000000000000000000e+00,-1.099999999999912159e-01,3.400000000000047429e-01,-1.000000000000000000e+00,8.700000000000043254e-01,3.700000000000029932e-01,8.800000000000016698e-01,2.000000000000028422e-01,4.100000000000030287e-01,-8.399999999999954170e-01,-1.000000000000000000e+00,-5.499999999999969358e-01,-1.000000000000000000e+00,-1.000000000000000000e+00,-1.000000000000000000e+00,7.000000000000095035e-01,4.500000000000048406e-01,-1.000000000000000000e+00,-9.999999999996456168e-03,-2.399999999999984368e-01,-1.000000000000000000e+00,-2.899999999999984812e-01,-7.199999999999944222e-01,3.800000000000030020e-01,1.800000000000037126e-01,-3.999999999999985789e-01,-1.000000000000000000e+00,-8.099999999999971667e-01,-4.599999999999968558e-01,-1.000000000000000000e+00,-1.000000000000000000e+00
3.000000000000029310e-01,-1.000000000000000000e+00,-1.000000000000000000e+00,2.600000000000037836e-01,-2.799999999999984723e-01,-7.699999999999989075e-01,5.800000000000049560e-01,-4.999999999999293898e-02,-7.399999999999935518e-01,-1.000000000000000000e+00,8.800000000000034461e-01,8.000000000000362377e-02,6.600000000000068034e-01,4.100000000000065814e-01,9.900000000000062084e-01,-3.499999999999932054e-01,7.600000000000051159e-01,-8.599999999999989875e-01,-1.000000000000000000e+00,-1.000000000000000000e+00,-1.000000000000000000e+00,7.500000000000086597e-01,2.000000000000623501e-02,4.100000000000056932e-01,6.000000000000040856e-01,-7.599999999999980105e-01,3.500000000000065281e-01,2.600000000000055600e-01,3.700000000000047695e-01,-1.000000000000000000e+00,1.900000000000099387e-01,-1.399999999999983480e-01,7.400000000000050981e-01,-6.999999999999988454e-01,9.200000000000061462e-01,2.300000000000064215e-01,-7.599999999999971223e-01,-6.099999999999934364e-01,3.700000000000038813e-01,7.200000000000033040e-01,-9.999999999999831246e-02,-9.699999999999964206e-01,-6.899999999999979483e-01,3.600000000000074252e-01,-6.099999999999952127e-01,-4.999999999999924505e-01,6.600000000000014744e-01,9.000000000000629718e-02,-4.999999999999649170e-02,4.400000000000048317e-01,-1.099999999999983213e-01,6.400000000000067857e-01,-1.000000000000000000e+00,-1.299999999999921219e-01,3.000000000000890843e-02,3.400000000000047429e-01,1.200000000000072120e-01,-1.000000000000000000e+00,4.400000000000030553e-01,7.000000000000032863e-01,2.000000000000028422e-01,4.100000000000030287e-01,2.500000000000055511e-01,-3.899999999999985700e-01,-1.000000000000000000e+00,-5.599999999999987210e-01,-1.000000000000000000e+00,-1.000000000000000000e+00,5.000000000000084377e-01,4.500000000000048406e-01,-1.000000000000000000e+00,-9.999999999996456168e-03,-2.399999999999984368e-01,-1.599999999999983658e-01,-2.899999999999984812e-01,2.800000000000046896e-01,8.000000000000184741e-02,1.800000000000037126e-01,-1.000000000000000000e+00,-9.399999999999990585e-01,2.000000000000268230e-02,-4.599999999999968558e-01,-5.699999999999987299e-01,-6.999999999999979572e-01
-1.000000000000000000e+00,-1.000000000000000000e+00,-1.000000000000000000e+00,2.600000000000037836e-01,1.500000000000027978e-01,-7.699999999999989075e-01,-3.999999999999825917e-02,-1.000000000000000000e+00,-3.899999999999985700e-01,-1.000000000000000000e+00,8.800000000000034461e-01,8.000000000000362377e-02,-1.599999999999948130e-01,-4.399999999999950617e-01,9.900000000000062084e-01,-5.199999999999960210e-01,7.600000000000051159e-01,-5.399999999999987033e-01,-1.000000000000000000e+00,-1.000000000000000000e+00,-3.899999999999985700e-01,5.700000000000076117e-01,2.000000000000623501e-02,4.000000000000065725e-01,-4.699999999999959766e-01,-7.599999999999980105e-01,3.500000000000065281e-01,-9.999999999995567990e-03,3.700000000000047695e-01,-1.000000000000000000e+00,-6.599999999999917044e-01,-1.399999999999983480e-01,7.400000000000050981e-01,-6.999999999999988454e-01,4.800000000000048672e-01,2.700000000000055689e-01,6.000000000000449418e-02,-3.399999999999914202e-01,3.700000000000038813e-01,7.200000000000033040e-01,-1.000000000000000000e+00,-1.299999999999965627e-01,-6.899999999999979483e-01,3.600000000000074252e-01,-1.000000000000000000e+00,-4.399999999999915090e-01,6.600000000000014744e-01,9.000000000000629718e-02,2.700000000000046807e-01,8.500000000000043077e-01,-1.099999999999983213e-01,6.400000000000067857e-01,-1.000000000000000000e+00,-1.000000000000000000e+00,2.700000000000091216e-01,3.400000000000047429e-01,1.200000000000072120e-01,-9.499999999999972911e-01,-2.799999999999975842e-01,7.000000000000032863e-01,2.000000000000028422e-01,9.300000000000043787e-01,1.500000000000045741e-01,-3.899999999999985700e-01,-1.000000000000000000e+00,-5.599999999999987210e-01,-1.000000000000000000e+00,-1.000000000000000000e+00,5.000000000000084377e-01,1.500000000000054623e-01,-1.000000000000000000e+00,-9.999999999996456168e-03,-2.399999999999984368e-01,-3.699999999999985523e-01,-2.899999999999984812e-01,3.500000000000056399e-01,8.000000000000184741e-02,1.800000000000037126e-01,-3.999999999999985789e-01,-1.000000000000000000e+00,2.000000000000268230e-02,-1.399999999999956835e-01,-5.699999999999987299e-01,-8.999999999999990230e-01
-1.000000000000000000e+00,-1.000000000000000000e+00,-1.000000000000000000e+00,1.700000000000037037e-01,-3.999999999999976907e-01,-7.699999999999989075e-01,2.200000000000028599e-01,-1.000000000000000000e+00,-3.899999999999985700e-01,-1.000000000000000000e+00,-1.000000000000000000e+00,4.600000000000048495e-01,-1.599999999999948130e-01,-4.399999999999950617e-01,3.600000000000065370e-01,-6.499999999999943601e-01,1.000000000000533795e-02,7.000000000000041744e-01,-9.599999999999990763e-01,-1.000000000000000000e+00,-1.000000000000000000e+00,5.700000000000076117e-01,5.200000000000075673e-01,-1.599999999999948130e-01,-3.999999999999470646e-02,-7.599999999999980105e-01,3.500000000000065281e-01,-1.000000000000000000e+00,3.700000000000047695e-01,-1.000000000000000000e+00,-6.599999999999917044e-01,-1.399999999999983480e-01,7.400000000000050981e-01,-1.000000000000000000e+00,4.800000000000048672e-01,3.000000000000064837e-01,6.000000000000449418e-02,3.700000000000083222e-01,3.700000000000038813e-01,7.200000000000033040e-01,-9.999999999999831246e-02,-1.299999999999965627e-01,-6.899999999999979483e-01,3.600000000000074252e-01,-1.000000000000000000e+00,-4.399999999999915090e-01,6.600000000000014744e-01,9.000000000000629718e-02,-4.999999999999649170e-02,7.100000000000050715e-01,-2.999999999999976019e-01,-1.000000000000000000e+00,-1.000000000000000000e+00,-1.000000000000000000e+00,2.700000000000091216e-01,3.400000000000047429e-01,-1.000000000000000000e+00,-9.499999999999972911e-01,-2.799999999999975842e-01,9.700000000000026379e-01,2.000000000000028422e-01,4.100000000000030287e-01,9.000000000000629718e-02,-1.000000000000000000e+00,-9.899999999999982148e-01,-7.099999999999988542e-01,-1.000000000000000000e+00,-1.000000000000000000e+00,5.000000000000084377e-01,1.500000000000054623e-01,-1.000000000000000000e+00,-9.999999999996456168e-03,-2.399999999999984368e-01,-1.000000000000000000e+00,-2.899999999999984812e-01,-1.799999999999939426e-01,3.800000000000030020e-01,1.800000000000037126e-01,-6.099999999999987654e-01,-1.000000000000000000e+00,-1.799999999999974953e-01,-1.399999999999956835e-01,-5.699999999999987299e-01,-1.000000000000000000e+00
2.300000000000028688e-01,-1.000000000000000000e+00,-1.000000000000000000e+00,-2.199999999999984190e-01,3.600000000000029843e-01,-7.699999999999989075e-01,-3.999999999999825917e-02,-4.999999999999293898e-02,-3.899999999999985700e-01,-4.499999999999968470e-01,-1.000000000000000000e+00,8.000000000000362377e-02,-1.599999999999948130e-01,-4.399999999999950617e-01,9.900000000000062084e-01,-5.199999999999960210e-01,-9.999999999994679811e-03,-5.399999999999987033e-01,-1.000000000000000000e+00,-1.000000000000000000e+00,-1.000000000000000000e+00,-1.000000000000000000e+00,2.000000000000623501e-02,-1.599999999999948130e-01,-7.499999999999971134e-01,2.000000000000357048e-02,3.500000000000065281e-01,-9.999999999995567990e-03,-2.699999999999949107e-01,-1.000000000000000000e+00,-2.099999999999921929e-01,8.000000000000033751e-01,7.400000000000050981e-01,-4.999999999999960032e-01,8.000000000000069278e-01,2.700000000000055689e-01,-1.000000000000000000e+00,3.700000000000083222e-01,-1.000000000000000000e+00,7.200000000000033040e-01,-9.999999999999831246e-02,-1.299999999999965627e-01,-6.899999999999979483e-01,3.600000000000074252e-01,-1.000000000000000000e+00,-4.399999999999915090e-01,6.600000000000014744e-01,9.000000000000629718e-02,-4.999999999999649170e-02,8.500000000000043077e-01,-1.000000000000000000e+00,6.400000000000067857e-01,-1.000000000000000000e+00,-3.899999999999914646e-01,-6.599999999999925926e-01,-1.999999999999468869e-02,1.200000000000072120e-01,-1.000000000000000000e+00,-3.299999999999985167e-01,-1.000000000000000000e+00,-5.199999999999977973e-01,4.400000000000039435e-01,1.500000000000045741e-01,-3.899999999999985700e-01,-1.000000000000000000e+00,-5.599999999999987210e-01,-1.000000000000000000e+00,-1.000000000000000000e+00,5.000000000000084377e-01,4.500000000000048406e-01,-1.000000000000000000e+00,-9.999999999996456168e-03,-2.399999999999984368e-01,-1.000000000000000000e+00,-1.000000000000000000e+00,3.500000000000056399e-01,9.500000000000017319e-01,1.800000000000037126e-01,-1.000000000000000000e+00,-1.000000000000000000e+00,2.000000000000268230e-02,1.600000000000045830e-01,-5.699999999999987299e-01,-8.999999999999990230e-01
3.000000000000029310e-01,-6.299999999999987832e-01,-1.000000000000000000e+00,-4.099999999999976996e-01,4.400000000000030553e-01,-7.699999999999989075e-01,4.700000000000030820e-01,4.700000000000066347e-01,-7.399999999999935518e-01,-4.499999999999968470e-01,8.800000000000034461e-01,4.000000000000270006e-02,-1.599999999999948130e-01,2.200000000000046363e-01,9.900000000000062084e-01,-5.199999999999960210e-01,1.000000000000533795e-02,-8.599999999999989875e-01,-1.000000000000000000e+00,-1.000000000000000000e+00,-1.000000000000000000e+00,1.200000000000089884e-01,2.000000000000623501e-02,-1.599999999999948130e-01,6.000000000000040856e-01,-7.599999999999980105e-01,3.500000000000065281e-01,-1.000000000000000000e+00,3.700000000000047695e-01,-1.000000000000000000e+00,4.000000000001069367e-02,-1.399999999999983480e-01,7.400000000000050981e-01,5.000000000000448530e-02,9.200000000000061462e-01,2.700000000000055689e-01,-9.999999999997344347e-03,-3.399999999999914202e-01,3.700000000000038813e-01,7.200000000000033040e-01,-9.999999999999831246e-02,-1.299999999999965627e-01,-6.899999999999979483e-01,5.200000000000075673e-01,-6.099999999999952127e-01,-4.999999999999924505e-01,6.600000000000014744e-01,9.000000000000629718e-02,-4.999999999999649170e-02,8.500000000000043077e-01,-6.699999999999988187e-01,6.400000000000067857e-01,-1.000000000000000000e+00,-1.299999999999921219e-01,-6.599999999999925926e-01,3.400000000000047429e-01,1.200000000000072120e-01,-1.000000000000000000e+00,-3.299999999999985167e-01,9.700000000000026379e-01,-5.499999999999969358e-01,4.100000000000030287e-01,2.500000000000055511e-01,-3.899999999999985700e-01,-1.000000000000000000e+00,-5.599999999999987210e-01,-1.000000000000000000e+00,-1.000000000000000000e+00,5.000000000000084377e-01,4.500000000000048406e-01,-1.000000000000000000e+00,1.000000000000444977e-02,-2.399999999999984368e-01,-1.000000000000000000e+00,-2.899999999999984812e-01,3.500000000000056399e-01,8.000000000000184741e-02,1.800000000000037126e-01,-1.000000000000000000e+00,-9.399999999999990585e-01,-1.000000000000000000e+00,-4.599999999999968558e-01,-7.399999999999979927e-01,-1.299999999999974509e-01
-1.899999999999983924e-01,-1.000000000000000000e+00,-1.399999999999983480e-01,2.600000000000037836e-01,-9.099999999999981437e-01,-7.699999999999989075e-01,5.100000000000031175e-01,-2.599999999999984546e-01,-9.399999999999946176e-01,1.200000000000045475e-01,8.800000000000034461e-01,8.000000000000362377e-02,-2.999999999999940492e-01,-4.399999999999950617e-01,9.900000000000062084e-01,-5.199999999999960210e-01,1.000000000000533795e-02,-4.299999999999968292e-01,-1.000000000000000000e+00,-1.000000000000000000e+00,-1.000000000000000000e+00,5.700000000000076117e-01,-7.199999999999979750e-01,5.700000000000049472e-01,-4.699999999999959766e-01,-6.199999999999969980e-01,3.500000000000065281e-01,-1.000000000000000000e+00,3.700000000000047695e-01,-1.000000000000000000e+00,1.900000000000099387e-01,4.300000000000012701e-01,7.400000000000050981e-01,-6.999999999999988454e-01,3.600000000000038725e-01,2.000000000000623501e-02,-1.000000000000000000e+00,-3.399999999999914202e-01,-3.999999999999959144e-01,-6.999999999999562128e-02,-9.999999999999831246e-02,-1.000000000000000000e+00,-6.899999999999979483e-01,3.600000000000074252e-01,-1.000000000000000000e+00,-4.999999999999924505e-01,6.600000000000014744e-01,9.000000000000629718e-02,-4.999999999999649170e-02,8.400000000000042988e-01,-1.000000000000000000e+00,-1.000000000000000000e+00,-1.999999999999984013e-01,-1.000000000000000000e+00,-5.199999999999933564e-01,3.400000000000047429e-01,1.000000000000080824e-01,-4.599999999999959677e-01,-3.299999999999985167e-01,2.000000000000179412e-02,2.000000000000028422e-01,4.100000000000030287e-01,1.500000000000045741e-01,-3.899999999999985700e-01,-5.499999999999969358e-01,-7.099999999999988542e-01,-1.000000000000000000e+00,-1.000000000000000000e+00,7.000000000000095035e-01,9.700000000000061906e-01,-8.699999999999954436e-01,-9.999999999996456168e-03,-2.399999999999984368e-01,-8.999999999999972466e-01,-1.000000000000000000e+00,-1.799999999999939426e-01,8.000000000000184741e-02,1.800000000000037126e-01,7.200000000000059686e-01,-9.399999999999990585e-01,-1.000000000000000000e+00,-3.999999999999559464e-02,-1.000000000000000000e+00,-1.299999999999974509e-01
-1.000000000000000000e+00,-1.000000000000000000e+00,-1.000000000000000000e+00,-2.199999999999984190e-01,3.800000000000038902e-01,-2.999999999999736211e-02,-3.999999999999825917e-02,-4.999999999999293898e-02,-5.499999999999978240e-01,-1.000000000000000000e+00,8.800000000000034461e-01,8.000000000000362377e-02,-1.599999999999948130e-01,3.800000000000065548e-01,9.900000000000062084e-01,-7.599999999999953459e-01,7.600000000000051159e-01,-5.399999999999987033e-01,-1.000000000000000000e+00,-1.000000000000000000e+00,-1.000000000000000000e+00,5.700000000000076117e-01,2.000000000000623501e-02,-1.299999999999947864e-01,6.000000000000040856e-01,-7.599999999999980105e-01,3.500000000000065281e-01,-9.999999999995567990e-03,3.700000000000047695e-01,-1.000000000000000000e+00,-6.599999999999917044e-01,8.000000000000033751e-01,7.400000000000050981e-01,-4.999999999999960032e-01,8.000000000000069278e-01,2.700000000000055689e-01,-7.599999999999971223e-01,-3.399999999999914202e-01,9.700000000000061906e-01,7.200000000000033040e-01,-9.999999999999831246e-02,-4.599999999999950795e-01,-1.000000000000000000e+00,3.600000000000074252e-01,-1.000000000000000000e+00,-4.399999999999915090e-01,6.600000000000014744e-01,9.000000000000629718e-02,-4.999999999999649170e-02,8.500000000000043077e-01,-1.000000000000000000e+00,6.400000000000067857e-01,-1.000000000000000000e+00,-4.999999999999933387e-01,-5.199999999999933564e-01,-1.999999999999468869e-02,9.700000000000088551e-01,-1.000000000000000000e+00,-3.299999999999985167e-01,9.700000000000026379e-01,-5.199999999999977973e-01,-1.899999999999966160e-01,1.500000000000045741e-01,-3.899999999999985700e-01,-2.799999999999966960e-01,-5.599999999999987210e-01,-1.000000000000000000e+00,-1.000000000000000000e+00,5.000000000000084377e-01,4.500000000000048406e-01,-1.000000000000000000e+00,-9.999999999996456168e-03,-2.399999999999984368e-01,-1.000000000000000000e+00,-1.000000000000000000e+00,3.500000000000056399e-01,8.000000000000184741e-02,1.800000000000037126e-01,-1.000000000000000000e+00,-1.000000000000000000e+00,2.000000000000268230e-02,4.600000000000057376e-01,-5.699999999999987299e-01,-6.999999999999979572e-01
2.300000000000028688e-01,-1.000000000000000000e+00,-1.000000000000000000e+00,-2.199999999999984190e-01,4.200000000000030376e-01,-7.699999999999989075e-01,5.100000000000031175e-01,-1.000000000000000000e+00,-1.000000000000000000e+00,-4.499999999999968470e-01,8.800000000000034461e-01,8.000000000000362377e-02,-1.599999999999948130e-01,-4.399999999999950617e-01,9.900000000000062084e-01,-7.599999999999953459e-01,1.000000000000533795e-02,-4.299999999999968292e-01,-1.000000000000000000e+00,-1.000000000000000000e+00,-1.000000000000000000e+00,5.700000000000076117e-01,2.000000000000623501e-02,-1.299999999999947864e-01,6.000000000000040856e-01,-7.599999999999980105e-01,3.500000000000065281e-01,-1.000000000000000000e+00,3.700000000000047695e-01,-1.000000000000000000e+00,1.900000000000099387e-01,8.000000000000033751e-01,7.400000000000050981e-01,6.000000000000360600e-02,3.600000000000038725e-01,2.700000000000055689e-01,-4.299999999999968292e-01,3.700000000000083222e-01,9.700000000000061906e-01,1.200000000000036593e-01,-9.999999999999831246e-02,-4.599999999999950795e-01,-1.000000000000000000e+00,-1.000000000000000000e+00,-1.000000000000000000e+00,-4.599999999999933031e-01,6.600000000000014744e-01,9.000000000000629718e-02,-4.999999999999649170e-02,-1.000000000000000000e+00,-1.000000000000000000e+00,7.000000000000716760e-02,-1.999999999999984013e-01,1.000000000000622613e-02,-5.199999999999933564e-01,3.400000000000047429e-01,1.200000000000072120e-01,-4.599999999999959677e-01,5.000000000000359712e-02,9.700000000000026379e-01,-5.199999999999977973e-01,-1.899999999999966160e-01,1.500000000000045741e-01,-3.899999999999985700e-01,-2.799999999999966960e-01,-5.599999999999987210e-01,-1.000000000000000000e+00,-1.000000000000000000e+00,2.600000000000091127e-01,4.500000000000048406e-01,-1.000000000000000000e+00,-9.999999999996456168e-03,-2.399999999999984368e-01,-3.999999999999976907e-01,-1.000000000000000000e+00,-1.799999999999939426e-01,9.500000000000017319e-01,1.800000000000037126e-01,8.000000000000069278e-01,-9.399999999999990585e-01,-1.000000000000000000e+00,-6.099999999999952127e-01,-5.699999999999987299e-01,-1.299999999999974509e-01
3.000000000000029310e-01,-1.000000000000000000e+00,2.600000000000028955e-01,2.600000000000037836e-01,-1.000000000000000000e+00,-4.799999999999977618e-01,-3.999999999999825917e-02,-1.000000000000000000e+00,-9.399999999999946176e-01,-1.000000000000000000e+00,4.600000000000039613e-01,-6.399999999999970157e-01,-1.599999999999948130e-01,-2.899999999999940403e-01,5.000000000000626166e-02,-6.499999999999943601e-01,9.900000000000070965e-01,-5.399999999999987033e-01,-1.000000000000000000e+00,-1.000000000000000000e+00,-1.000000000000000000e+00,5.700000000000076117e-01,-7.199999999999979750e-01,5.000000000000066613e-01,6.000000000000040856e-01,9.000000000000363265e-02,3.500000000000065281e-01,-9.999999999999955591e-01,3.700000000000047695e-01,-1.000000000000000000e+00,1.900000000000099387e-01,4.300000000000012701e-01,7.400000000000050981e-01,-6.999999999999988454e-01,3.600000000000038725e-01,2.700000000000055689e-01,-4.299999999999968292e-01,-6.099999999999934364e-01,5.000000000000048850e-01,7.200000000000033040e-01,-9.999999999999831246e-02,-4.599999999999950795e-01,-1.000000000000000000e+00,3.600000000000074252e-01,-1.000000000000000000e+00,-4.999999999999924505e-01,3.000000000000020428e-01,9.000000000000629718e-02,1.100000000000045386e-01,8.400000000000042988e-01,-6.699999999999988187e-01,-1.000000000000000000e+00,-1.000000000000000000e+00,-1.299999999999921219e-01,-1.099999999999912159e-01,3.400000000000047429e-01,-1.000000000000000000e+00,-1.000000000000000000e+00,-3.299999999999985167e-01,8.800000000000016698e-01,-4.099999999999968114e-01,-4.999999999999649170e-02,1.500000000000045741e-01,-4.899999999999977707e-01,-5.499999999999969358e-01,-7.099999999999988542e-01,9.000000000000052403e-01,-1.000000000000000000e+00,7.000000000000095035e-01,4.500000000000048406e-01,-8.699999999999954436e-01,-9.999999999996456168e-03,-5.999999999999738876e-02,-1.000000000000000000e+00,-2.899999999999984812e-01,3.500000000000056399e-01,9.500000000000017319e-01,1.800000000000037126e-01,-3.999999999999985789e-01,-1.000000000000000000e+00,-1.000000000000000000e+00,-3.999999999999559464e-02,-5.699999999999987299e-01,-8.999999999999990230e-01
-1.899999999999983924e-01,-1.000000000000000000e+00,-1.000000000000000000e+00,-4.099999999999976996e-01,-3.999999999999976907e-01,-7.699999999999989075e-01,-3.999999999999825917e-02,6.400000000000076739e-01,-7.399999999999935518e-01,3.300000000000047340e-01,1.600000000000045830e-01,4.000000000000270006e-02,9.769962616701377556e-15,9.500000000000061728e-01,3.600000000000065370e-01,-6.499999999999943601e-01,7.600000000000051159e-01,-1.000000000000000000e+00,-1.000000000000000000e+00,-1.000000000000000000e+00,-1.000000000000000000e+00,3.700000000000083222e-01,2.000000000000623501e-02,-1.599999999999948130e-01,6.000000000000040856e-01,-5.099999999999969003e-01,3.500000000000065281e-01,-1.000000000000000000e+00,3.700000000000047695e-01,-1.000000000000000000e+00,1.900000000000099387e-01,-1.399999999999983480e-01,7.400000000000050981e-01,6.000000000000360600e-02,3.600000000000038725e-01,2.700000000000055689e-01,6.000000000000449418e-02,3.700000000000083222e-01,3.700000000000038813e-01,2.800000000000038014e-01,-9.999999999999831246e-02,-5.099999999999942357e-01,-6.899999999999979483e-01,6.200000000000085443e-01,-1.000000000000000000e+00,-4.599999999999933031e-01,6.600000000000014744e-01,9.000000000000629718e-02,-4.999999999999649170e-02,1.900000000000046096e-01,-1.000000000000000000e+00,-5.399999999999969269e-01,-1.999999999999984013e-01,-3.299999999999940758e-01,-5.199999999999933564e-01,3.400000000000047429e-01,1.200000000000072120e-01,-6.999999999999828582e-02,-3.299999999999985167e-01,9.700000000000026379e-01,2.000000000000028422e-01,4.100000000000030287e-01,9.000000000000540901e-02,-3.899999999999985700e-01,-1.000000000000000000e+00,-4.499999999999977351e-01,9.000000000000052403e-01,-1.000000000000000000e+00,5.000000000000084377e-01,4.500000000000048406e-01,-1.000000000000000000e+00,-9.999999999996456168e-03,-5.999999999999738876e-02,-1.000000000000000000e+00,-1.000000000000000000e+00,2.800000000000046896e-01,6.200000000000023270e-01,1.800000000000037126e-01,-6.099999999999987654e-01,-1.000000000000000000e+00,-1.000000000000000000e+00,-4.599999999999968558e-01,-1.000000000000000000e+00,-4.699999999999977529e-01
3.000000000000029310e-01,-1.000000000000000000e+00,-1.000000000000000000e+00,-4.099999999999976996e-01,-2.799999999999984723e-01,-7.699999999999989075e-01,7.900000000000042544e-01,4.700000000000066347e-01,-7.399999999999935518e-01,-4.499999999999968470e-01,-1.000000000000000000e+00,8.000000000000362377e-02,-1.599999999999948130e-01,2.200000000000046363e-01,9.900000000000062084e-01,-6.499999999999943601e-01,7.600000000000051159e-01,-8.599999999999989875e-01,-1.000000000000000000e+00,-2.399999999999984368e-01,-1.000000000000000000e+00,8.300000000000096190e-01,3.000000000000073719e-01,5.700000000000049472e-01,-1.699999999999957101e-01,9.000000000000363265e-02,3.500000000000065281e-01,-9.999999999995567990e-03,3.700000000000047695e-01,-1.000000000000000000e+00,1.900000000000099387e-01,-2.799999999999975842e-01,7.400000000000050981e-01,5.000000000000448530e-02,3.600000000000038725e-01,2.700000000000055689e-01,-4.299999999999968292e-01,-6.099999999999934364e-01,3.700000000000038813e-01,7.200000000000033040e-01,-1.000000000000000000e+00,-4.599999999999950795e-01,-6.899999999999979483e-01,3.600000000000074252e-01,-1.000000000000000000e+00,-1.000000000000000000e+00,6.600000000000014744e-01,-7.799999999999935874e-01,-4.999999999999649170e-02,8.400000000000042988e-01,2.100000000000028511e-01,6.400000000000067857e-01,-1.000000000000000000e+00,-1.299999999999921219e-01,-6.599999999999925926e-01,3.400000000000047429e-01,1.200000000000072120e-01,-1.000000000000000000e+00,-3.299999999999985167e-01,9.700000000000026379e-01,-4.099999999999968114e-01,4.100000000000030287e-01,1.500000000000045741e-01,-4.899999999999977707e-01,-1.000000000000000000e+00,-5.599999999999987210e-01,-1.000000000000000000e+00,-1.000000000000000000e+00,5.000000000000084377e-01,4.500000000000048406e-01,-1.000000000000000000e+00,-9.799999999999955413e-01,-5.999999999999738876e-02,-1.000000000000000000e+00,-5.999999999999960920e-01,2.800000000000046896e-01,9.500000000000017319e-01,1.800000000000037126e-01,7.200000000000059686e-01,-9.399999999999990585e-01,-1.000000000000000000e+00,-4.599999999999968558e-01,-5.699999999999987299e-01,-1.299999999999974509e-01
-1.899999999999983924e-01,-1.000000000000000000e+00,-1.000000000000000000e+00,5.300000000000040234e-01,-9.099999999999981437e-01,-7.699999999999989075e-01,-3.999999999999825917e-02,-1.000000000000000000e+00,-1.000000000000000000e+00,1.200000000000045475e-01,6.200000000000041034e-01,4.000000000000270006e-02,9.769962616701377556e-15,-4.399999999999950617e-01,-1.000000000000000000e+00,1.000000000000063061e-01,1.000000000000533795e-02,-1.000000000000000000e+00,-1.000000000000000000e+00,-1.000000000000000000e+00,-1.000000000000000000e+00,-1.000000000000000000e+00,2.000000000000623501e-02,5.700000000000049472e-01,6.000000000000040856e-01,-7.599999999999980105e-01,3.500000000000065281e-01,-1.000000000000000000e+00,3.700000000000047695e-01,-1.000000000000000000e+00,1.900000000000099387e-01,-1.399999999999983480e-01,7.400000000000050981e-01,6.000000000000360600e-02,3.600000000000038725e-01,2.700000000000055689e-01,-4.299999999999968292e-01,-3.099999999999931699e-01,-3.999999999999959144e-01,1.200000000000036593e-01,-9.999999999999831246e-02,-4.599999999999950795e-01,-6.899999999999979483e-01,6.900000000000086064e-01,-1.000000000000000000e+00,-4.599999999999933031e-01,6.600000000000014744e-01,9.000000000000718536e-02,-4.999999999999649170e-02,1.900000000000046096e-01,-1.000000000000000000e+00,-5.399999999999969269e-01,4.300000000000030465e-01,1.000000000000622613e-02,3.900000000000083400e-01,3.400000000000047429e-01,1.200000000000072120e-01,-1.000000000000000000e+00,-3.299999999999985167e-01,2.000000000000179412e-02,-4.299999999999959410e-01,4.100000000000030287e-01,1.500000000000045741e-01,-3.899999999999985700e-01,-9.899999999999982148e-01,-1.000000000000000000e+00,9.000000000000052403e-01,-5.399999999999987033e-01,2.600000000000091127e-01,4.500000000000048406e-01,-7.199999999999988631e-01,-9.999999999996456168e-03,-5.999999999999738876e-02,-1.000000000000000000e+00,-1.000000000000000000e+00,-1.799999999999939426e-01,9.500000000000017319e-01,1.800000000000037126e-01,7.200000000000059686e-01,-9.399999999999990585e-01,-1.000000000000000000e+00,-3.299999999999940758e-01,-5.699999999999987299e-01,-4.699999999999977529e-01
3.000000000000269118e-02,-1.000000000000000000e+00,-4.499999999999986233e-01,5.300000000000040234e-01,-2.799999999999984723e-01,-7.699999999999989075e-01,-3.999999999999825917e-02,-1.000000000000000000e+00,-1.000000000000000000e+00,1.200000000000045475e-01,4.600000000000039613e-01,8.000000000000362377e-02,-2.999999999999940492e-01,-4.399999999999950617e-01,9.900000000000062084e-01,1.000000000000063061e-01,9.900000000000070965e-01,-4.299999999999968292e-01,-1.000000000000000000e+00,-1.000000000000000000e+00,-1.000000000000000000e+00,5.700000000000076117e-01,2.000000000000623501e-02,5.700000000000049472e-01,-3.999999999999959144e-01,-6.199999999999969980e-01,7.000000000000077272e-01,-1.000000000000000000e+00,3.700000000000047695e-01,-1.000000000000000000e+00,1.900000000000099387e-01,4.300000000000012701e-01,7.400000000000050981e-01,-6.999999999999988454e-01,-1.000000000000000000e+00,-9.999999999993791633e-03,-1.000000000000000000e+00,-3.399999999999914202e-01,-3.999999999999959144e-01,1.200000000000036593e-01,-9.999999999999831246e-02,-1.000000000000000000e+00,-6.899999999999979483e-01,3.600000000000074252e-01,-1.000000000000000000e+00,-4.999999999999924505e-01,6.600000000000014744e-01,9.000000000000629718e-02,-4.999999999999649170e-02,8.400000000000042988e-01,-1.000000000000000000e+00,-1.000000000000000000e+00,6.400000000000032330e-01,1.000000000000622613e-02,-5.199999999999933564e-01,3.400000000000047429e-01,1.000000000000080824e-01,-4.599999999999959677e-01,-3.299999999999985167e-01,2.000000000000179412e-02,2.000000000000028422e-01,4.100000000000030287e-01,1.500000000000045741e-01,-3.899999999999985700e-01,-9.099999999999963674e-01,-7.099999999999988542e-01,-1.000000000000000000e+00,-1.000000000000000000e+00,2.600000000000091127e-01,9.700000000000061906e-01,-8.699999999999954436e-01,-9.999999999996456168e-03,-5.999999999999738876e-02,-3.999999999999976907e-01,-2.899999999999984812e-01,-1.000000000000000000e+00,9.500000000000017319e-01,6.400000000000050093e-01,-3.999999999999985789e-01,-1.000000000000000000e+00,-8.099999999999971667e-01,1.600000000000063594e-01,-1.000000000000000000e+00,-1.299999999999974509e-01
