-1.000000000000000000e+00,-6.699999999999934897e-01,-1.000000000000000000e+00,9.300000000000043787e-01,1.000000000000027534e-01,1.700000000000028155e-01,-9.699999999999981970e-01,7.000000000000032863e-01,-6.599999999999988098e-01,-1.000000000000000000e+00,-5.099999999999969003e-01,3.000000000000357936e-02,1.000000000000889067e-02,-1.000000000000000000e+00,-1.000000000000000000e+00,3.500000000000029754e-01,-2.799999999999966960e-01,-2.099999999999966338e-01,-1.000000000000000000e+00,1.800000000000108180e-01,4.400000000000057199e-01,-1.000000000000000000e+00,5.100000000000057820e-01,-1.000000000000000000e+00,6.400000000000121148e-01,-1.000000000000000000e+00,3.500000000000047518e-01,3.000000000000357936e-02,3.100000000000064926e-01,-5.999999999999738876e-02,1.600000000000090239e-01,-2.199999999999984190e-01,9.600000000000079581e-01,6.000000000000538236e-02,-1.000000000000000000e+00,1.500000000000045741e-01,-2.999999999999949374e-01,5.700000000000120526e-01,-1.000000000000000000e+00,1.800000000000019362e-01,2.100000000000046274e-01,-6.199999999999987743e-01,6.700000000000059242e-01,-4.599999999999968558e-01,-1.000000000000000000e+00,-1.000000000000000000e+00,-1.000000000000000000e+00,-1.000000000000000000e+00,-3.999999999999985789e-01,-3.999999999999204192e-02,-2.299999999999939870e-01,-9.999999999999298339e-02,-3.099999999999878408e-01,-1.000000000000000000e+00,3.500000000000029754e-01,2.400000000000028777e-01,-6.999999999999739764e-02,-4.699999999999986411e-01,2.200000000000028599e-01,-1.599999999999930367e-01,-5.899999999999987477e-01,-5.699999999999951772e-01,-4.999999999999737987e-02,-6.199999999999952216e-01,-1.000000000000000000e+00,-1.000000000000000000e+00,-1.000000000000000000e+00,-1.000000000000000000e+00,9.000000000000079048e-01,5.700000000000102762e-01,-1.000000000000000000e+00,-1.000000000000000000e+00,-1.000000000000000000e+00,-1.000000000000000000e+00,-3.399999999999976374e-01,9.100000000000034728e-01,-4.999999999999915623e-01,-1.000000000000000000e+00
-1.000000000000000000e+00,-6.699999999999934897e-01,-1.000000000000000000e+00,6.400000000000041211e-01,1.000000000000027534e-01,1.700000000000028155e-01,-1.699999999999974865e-01,-1.000000000000000000e+00,-1.000000000000000000e+00,-3.099999999999922817e-01,-2.799999999999958078e-01,-8.799999999999981171e-01,3.900000000000083400e-01,-2.799999999999949196e-01,-1.000000000000000000e+00,-1.000000000000000000e+00,-9.099999999999981437e-01,-2.099999999999966338e-01,-4.199999999999985967e-01,1.800000000000108180e-01,4.400000000000057199e-01,-1.000000000000000000e+00,5.100000000000057820e-01,-1.000000000000000000e+00,6.400000000000121148e-01,-1.000000000000000000e+00,5.800000000000058442e-01,-1.000000000000000000e+00,3.600000000000056488e-01,-5.999999999999738876e-02,1.600000000000090239e-01,-2.199999999999984190e-01,9.600000000000079581e-01,6.000000000000538236e-02,6.900000000000086064e-01,1.500000000000045741e-01,-2.599999999999957900e-01,5.700000000000120526e-01,-1.000000000000000000e+00,1.800000000000019362e-01,-1.000000000000000000e+00,-6.999999999999739764e-02,6.700000000000059242e-01,-4.599999999999968558e-01,-1.000000000000000000e+00,-1.000000000000000000e+00,-1.000000000000000000e+00,-6.199999999999987743e-01,-1.000000000000000000e+00,-3.999999999999204192e-02,-7.999999999999474198e-02,-9.999999999999298339e-02,-3.099999999999878408e-01,-1.000000000000000000e+00,-3.499999999999985345e-01,2.400000000000028777e-01,-6.999999999999739764e-02,5.200000000000031264e-01,-9.599999999999981881e-01,-1.599999999999930367e-01,-5.899999999999987477e-01,-5.399999999999987033e-01,-4.999999999999737987e-02,-6.199999999999952216e-01,-1.799999999999948308e-01,-4.299999999999986056e-01,-1.000000000000000000e+00,-1.000000000000000000e+00,8.900000000000087841e-01,5.700000000000102762e-01,-1.000000000000000000e+00,-8.999999999999990230e-01,-8.999999999999990230e-01,-1.000000000000000000e+00,-3.399999999999976374e-01,9.100000000000034728e-01,-4.999999999999915623e-01,-1.000000000000000000e+00
-1.000000000000000000e+00,-6.699999999999934897e-01,-1.000000000000000000e+00,9.300000000000043787e-01,1.000000000000027534e-01,1.700000000000028155e-01,-5.799999999999987388e-01,-8.599999999999972111e-01,-6.599999999999988098e-01,-3.099999999999922817e-01,1.900000000000046096e-01,-2.999999999999825029e-02,3.900000000000083400e-01,-7.999999999999980460e-01,-1.000000000000000000e+00,-1.000000000000000000e+00,-1.000000000000000000e+00,-2.099999999999966338e-01,-1.000000000000000000e+00,1.800000000000108180e-01,4.400000000000057199e-01,-1.000000000000000000e+00,5.100000000000057820e-01,-1.000000000000000000e+00,7.600000000000113332e-01,-1.000000000000000000e+00,3.500000000000047518e-01,-1.799999999999983835e-01,3.600000000000056488e-01,-5.999999999999738876e-02,1.600000000000090239e-01,-2.199999999999984190e-01,9.600000000000079581e-01,6.000000000000538236e-02,6.900000000000086064e-01,1.500000000000045741e-01,-2.599999999999957900e-01,5.700000000000120526e-01,-1.000000000000000000e+00,1.800000000000019362e-01,-7.499999999999988898e-01,-6.999999999999739764e-02,-1.000000000000000000e+00,-4.599999999999968558e-01,-1.000000000000000000e+00,-1.000000000000000000e+00,-1.000000000000000000e+00,-1.000000000000000000e+00,-1.000000000000000000e+00,-3.999999999999204192e-02,-7.999999999999474198e-02,-9.999999999999298339e-02,-3.099999999999878408e-01,-1.000000000000000000e+00,-3.499999999999985345e-01,-4.599999999999986322e-01,-6.999999999999739764e-02,-4.699999999999986411e-01,-7.999999999999829470e-02,-1.599999999999930367e-01,-8.999999999999963585e-01,-1.000000000000000000e+00,-4.999999999999737987e-02,-6.199999999999952216e-01,-1.000000000000000000e+00,-1.000000000000000000e+00,-1.000000000000000000e+00,-1.000000000000000000e+00,8.900000000000087841e-01,5.700000000000102762e-01,-1.000000000000000000e+00,-1.000000000000000000e+00,-1.000000000000000000e+00,-1.000000000000000000e+00,-1.000000000000000000e+00,9.100000000000034728e-01,-3.999999999999968026e-01,-1.000000000000000000e+00
-1.000000000000000000e+00,-6.699999999999934897e-01,-1.000000000000000000e+00,-1.000000000000000000e+00,-1.000000000000000000e+00,-6.999999999999828582e-02,-1.699999999999974865e-01,-1.000000000000000000e+00,-1.000000000000000000e+00,-6.499999999999916955e-01,-1.000000000000000000e+00,6.200000000000032152e-01,-1.000000000000000000e+00,-2.799999999999949196e-01,-1.000000000000000000e+00,3.500000000000029754e-01,4.800000000000030909e-01,-2.099999999999966338e-01,-1.000000000000000000e+00,-7.999999999998941291e-02,4.400000000000057199e-01,-1.000000000000000000e+00,5.100000000000057820e-01,-1.000000000000000000e+00,6.300000000000103295e-01,-8.099999999999980549e-01,3.500000000000047518e-01,-1.799999999999983835e-01,3.100000000000064926e-01,-5.999999999999738876e-02,1.600000000000090239e-01,-3.499999999999976463e-01,9.600000000000079581e-01,6.000000000000538236e-02,-7.199999999999988631e-01,-3.999999999999470646e-02,-1.199999999999947775e-01,5.700000000000120526e-01,-1.000000000000000000e+00,1.800000000000019362e-01,-1.899999999999983924e-01,-6.199999999999987743e-01,-1.000000000000000000e+00,-1.000000000000000000e+00,-1.000000000000000000e+00,-1.000000000000000000e+00,-1.000000000000000000e+00,-1.000000000000000000e+00,-1.000000000000000000e+00,-2.199999999999922018e-01,1.800000000000090417e-01,-3.699999999999923350e-01,-3.099999999999878408e-01,-1.000000000000000000e+00,3.500000000000029754e-01,-1.000000000000000000e+00,-1.000000000000000000e+00,-4.699999999999986411e-01,-7.999999999999980460e-01,-1.599999999999930367e-01,-7.799999999999989164e-01,-5.699999999999951772e-01,-4.999999999999737987e-02,5.000000000000537348e-02,-1.000000000000000000e+00,-1.000000000000000000e+00,-1.000000000000000000e+00,-1.000000000000000000e+00,9.000000000000079048e-01,5.700000000000102762e-01,-1.000000000000000000e+00,-1.000000000000000000e+00,-1.000000000000000000e+00,-1.000000000000000000e+00,-9.299999999999990496e-01,9.100000000000034728e-01,-3.699999999999932232e-01,-1.000000000000000000e+00
-1.000000000000000000e+00,-6.699999999999934897e-01,-1.000000000000000000e+00,9.300000000000043787e-01,1.000000000000027534e-01,-6.999999999999828582e-02,-6.199999999999987743e-01,-7.999999999999829470e-02,-1.000000000000000000e+00,-3.099999999999913936e-01,-1.999999999999468869e-02,6.200000000000032152e-01,1.000000000000889067e-02,-7.999999999999980460e-01,-1.000000000000000000e+00,-1.000000000000000000e+00,4.800000000000030909e-01,-2.099999999999966338e-01,-1.000000000000000000e+00,-9.999999999989350741e-03,4.400000000000057199e-01,-1.000000000000000000e+00,5.100000000000057820e-01,-1.000000000000000000e+00,7.600000000000113332e-01,-9.899999999999991029e-01,3.500000000000047518e-01,-8.699999999999981082e-01,3.600000000000056488e-01,-5.999999999999738876e-02,1.600000000000090239e-01,-3.899999999999976819e-01,9.600000000000079581e-01,6.000000000000538236e-02,-1.000000000000000000e+00,1.500000000000045741e-01,-2.599999999999957900e-01,8.900000000000132250e-01,-1.000000000000000000e+00,1.800000000000019362e-01,-1.000000000000000000e+00,-6.199999999999987743e-01,6.700000000000059242e-01,-1.000000000000000000e+00,-1.000000000000000000e+00,-1.000000000000000000e+00,-1.000000000000000000e+00,-2.499999999999975575e-01,-1.000000000000000000e+00,-2.599999999999931255e-01,-7.999999999999474198e-02,-9.999999999999298339e-02,-3.099999999999878408e-01,-1.000000000000000000e+00,3.500000000000029754e-01,-1.000000000000000000e+00,-1.000000000000000000e+00,-5.299999999999969180e-01,-5.199999999999977973e-01,-1.599999999999930367e-01,-8.999999999999963585e-01,-1.000000000000000000e+00,-4.999999999999737987e-02,-6.199999999999952216e-01,-1.000000000000000000e+00,-1.000000000000000000e+00,-1.000000000000000000e+00,-1.000000000000000000e+00,8.900000000000087841e-01,5.700000000000102762e-01,-9.399999999999990585e-01,-1.000000000000000000e+00,-1.000000000000000000e+00,-1.000000000000000000e+00,-7.699999999999989075e-01,9.100000000000034728e-01,-3.999999999999968026e-01,-1.000000000000000000e+00
-1.000000000000000000e+00,-6.699999999999934897e-01,-7.999999999999989342e-01,2.900000000000029221e-01,1.000000000000027534e-01,-3.099999999999967226e-01,-6.199999999999987743e-01,-7.999999999999829470e-02,-1.000000000000000000e+00,-3.099999999999922817e-01,-6.099999999999943245e-01,6.200000000000032152e-01,1.000000000000889067e-02,-1.000000000000000000e+00,-1.000000000000000000e+00,3.500000000000029754e-01,4.800000000000030909e-01,-1.000000000000000000e+00,-1.699999999999983746e-01,1.800000000000108180e-01,4.400000000000057199e-01,-1.000000000000000000e+00,5.100000000000057820e-01,-1.000000000000000000e+00,6.400000000000121148e-01,-8.599999999999980993e-01,3.500000000000047518e-01,-1.799999999999983835e-01,3.600000000000056488e-01,-5.999999999999738876e-02,1.600000000000090239e-01,1.700000000000037037e-01,9.600000000000079581e-01,6.000000000000538236e-02,-1.000000000000000000e+00,1.500000000000045741e-01,-1.399999999999947953e-01,5.700000000000120526e-01,-1.000000000000000000e+00,1.800000000000019362e-01,-1.000000000000000000e+00,-6.999999999999739764e-02,6.700000000000059242e-01,-4.599999999999968558e-01,-1.000000000000000000e+00,-1.000000000000000000e+00,-1.000000000000000000e+00,-1.000000000000000000e+00,-3.999999999999985789e-01,-3.999999999999204192e-02,-7.999999999999474198e-02,-1.000000000000000000e+00,-3.099999999999878408e-01,-1.000000000000000000e+00,-3.499999999999985345e-01,-4.399999999999986144e-01,-1.000000000000000000e+00,-5.299999999999969180e-01,-6.099999999999978773e-01,-1.599999999999930367e-01,-8.999999999999963585e-01,-1.000000000000000000e+00,-4.999999999999737987e-02,-6.199999999999952216e-01,-1.000000000000000000e+00,-1.000000000000000000e+00,-1.000000000000000000e+00,-1.000000000000000000e+00,8.900000000000087841e-01,5.700000000000102762e-01,-9.399999999999990585e-01,-1.000000000000000000e+00,-1.000000000000000000e+00,-1.000000000000000000e+00,-7.699999999999989075e-01,9.100000000000034728e-01,-4.999999999999915623e-01,-1.000000000000000000e+00
-1.000000000000000000e+00,-6.699999999999934897e-01,-1.000000000000000000e+00,-1.000000000000000000e+00,1.000000000000027534e-01,-6.999999999999828582e-02,-6.199999999999987743e-01,7.000000000000032863e-01,-1.000000000000000000e+00,-1.000000000000000000e+00,-1.999999999999468869e-02,6.200000000000032152e-01,6.400000000000103384e-01,-4.599999999999968558e-01,-1.000000000000000000e+00,-1.000000000000000000e+00,-2.799999999999966960e-01,-2.999999999999949374e-01,6.200000000000049916e-01,-9.999999999989350741e-03,4.400000000000057199e-01,-1.000000000000000000e+00,5.100000000000057820e-01,-1.000000000000000000e+00,7.600000000000113332e-01,-9.899999999999991029e-01,3.500000000000047518e-01,3.000000000000357936e-02,3.100000000000064926e-01,-5.999999999999738876e-02,1.600000000000090239e-01,-4.399999999999977263e-01,9.600000000000079581e-01,6.000000000000538236e-02,-1.000000000000000000e+00,-4.399999999999941735e-01,-1.399999999999947953e-01,5.700000000000120526e-01,-1.000000000000000000e+00,1.800000000000019362e-01,2.100000000000046274e-01,-6.199999999999987743e-01,-1.000000000000000000e+00,-4.599999999999968558e-01,-1.000000000000000000e+00,-1.000000000000000000e+00,-1.000000000000000000e+00,-2.499999999999975575e-01,-3.999999999999985789e-01,4.000000000000802913e-02,3.100000000000047162e-01,-9.999999999999298339e-02,-3.099999999999878408e-01,-1.000000000000000000e+00,3.500000000000029754e-01,2.400000000000028777e-01,-1.000000000000000000e+00,-4.699999999999986411e-01,-3.799999999999985612e-01,-1.599999999999930367e-01,-8.999999999999963585e-01,-1.000000000000000000e+00,-4.999999999999737987e-02,-6.199999999999952216e-01,-9.999999999998232525e-03,-1.000000000000000000e+00,-1.000000000000000000e+00,-1.000000000000000000e+00,9.000000000000079048e-01,5.700000000000102762e-01,-9.899999999999982148e-01,-1.000000000000000000e+00,-1.000000000000000000e+00,-1.000000000000000000e+00,-9.299999999999990496e-01,9.100000000000034728e-01,-3.699999999999932232e-01,-1.000000000000000000e+00
-1.000000000000000000e+00,-6.699999999999934897e-01,-1.000000000000000000e+00,9.300000000000043787e-01,1.000000000000027534e-01,-6.999999999999828582e-02,-1.699999999999974865e-01,7.000000000000032863e-01,-1.000000000000000000e+00,-4.399999999999915090e-01,1.900000000000046096e-01,6.200000000000032152e-01,-1.599999999999903721e-01,-7.999999999999829470e-02,-1.000000000000000000e+00,-1.000000000000000000e+00,-1.000000000000000000e+00,7.500000000000051070e-01,-1.000000000000000000e+00,1.800000000000108180e-01,4.400000000000057199e-01,-1.000000000000000000e+00,2.500000000000064393e-01,-1.000000000000000000e+00,2.500000000000108802e-01,-9.899999999999991029e-01,3.500000000000047518e-01,-1.799999999999983835e-01,3.600000000000056488e-01,-5.999999999999738876e-02,1.600000000000090239e-01,-2.199999999999984190e-01,9.600000000000079581e-01,6.000000000000538236e-02,-9.999999999999991118e-01,-3.999999999999470646e-02,-2.599999999999957900e-01,5.700000000000120526e-01,-1.000000000000000000e+00,1.100000000000027622e-01,-1.000000000000000000e+00,-6.999999999999739764e-02,6.700000000000059242e-01,-4.599999999999968558e-01,-1.000000000000000000e+00,-1.000000000000000000e+00,-1.000000000000000000e+00,-2.499999999999966693e-01,-1.000000000000000000e+00,-3.999999999999204192e-02,3.100000000000047162e-01,3.700000000000083222e-01,-3.099999999999878408e-01,-1.000000000000000000e+00,-1.000000000000000000e+00,-4.599999999999986322e-01,-2.099999999999984102e-01,-4.699999999999986411e-01,-9.599999999999981881e-01,-1.599999999999930367e-01,-8.999999999999963585e-01,-1.000000000000000000e+00,-4.999999999999737987e-02,6.217248937900876626e-15,-1.000000000000000000e+00,-1.000000000000000000e+00,-1.000000000000000000e+00,-1.000000000000000000e+00,8.900000000000087841e-01,5.700000000000102762e-01,-1.000000000000000000e+00,-1.000000000000000000e+00,-1.000000000000000000e+00,-1.000000000000000000e+00,-7.699999999999989075e-01,9.100000000000034728e-01,-3.699999999999932232e-01,-1.000000000000000000e+00
-1.000000000000000000e+00,-6.699999999999934897e-01,-1.000000000000000000e+00,9.300000000000043787e-01,1.000000000000027534e-01,1.700000000000028155e-01,-5.799999999999987388e-01,-7.999999999999829470e-02,-6.599999999999988098e-01,-3.099999999999922817e-01,1.900000000000046096e-01,6.200000000000032152e-01,3.900000000000083400e-01,-7.999999999999980460e-01,-1.000000000000000000e+00,-1.000000000000000000e+00,-1.000000000000000000e+00,-2.099999999999966338e-01,-1.000000000000000000e+00,1.800000000000108180e-01,4.400000000000057199e-01,-1.000000000000000000e+00,9.500000000000070610e-01,-1.000000000000000000e+00,7.600000000000113332e-01,-1.000000000000000000e+00,3.500000000000047518e-01,-8.699999999999981082e-01,3.600000000000056488e-01,-5.999999999999738876e-02,1.600000000000090239e-01,-2.199999999999984190e-01,9.600000000000079581e-01,6.000000000000538236e-02,-1.000000000000000000e+00,1.400000000000054534e-01,-1.399999999999947953e-01,5.700000000000120526e-01,-1.000000000000000000e+00,1.800000000000019362e-01,-1.000000000000000000e+00,-6.999999999999739764e-02,6.700000000000059242e-01,-1.000000000000000000e+00,-1.000000000000000000e+00,-8.999999999999830358e-02,-7.099999999999988542e-01,-1.000000000000000000e+00,-1.000000000000000000e+00,-3.999999999999204192e-02,3.100000000000047162e-01,-1.000000000000000000e+00,-3.099999999999878408e-01,-1.000000000000000000e+00,-3.499999999999985345e-01,-4.599999999999986322e-01,-6.999999999999739764e-02,-4.699999999999986411e-01,-4.599999999999977440e-01,-1.599999999999930367e-01,-1.000000000000000000e+00,-1.000000000000000000e+00,-4.999999999999737987e-02,-6.199999999999952216e-01,-1.000000000000000000e+00,-1.000000000000000000e+00,-1.000000000000000000e+00,-1.000000000000000000e+00,8.900000000000087841e-01,5.700000000000102762e-01,-1.000000000000000000e+00,-6.999999999999988454e-01,-1.000000000000000000e+00,-1.000000000000000000e+00,-1.000000000000000000e+00,9.100000000000034728e-01,-4.999999999999915623e-01,-1.000000000000000000e+00
-1.000000000000000000e+00,-6.699999999999934897e-01,-1.000000000000000000e+00,3.900000000000047873e-01,3.200000000000038369e-01,-6.999999999999828582e-02,-6.199999999999987743e-01,-7.999999999999829470e-02,-6.599999999999988098e-01,-3.099999999999913936e-01,1.900000000000046096e-01,6.200000000000032152e-01,3.900000000000083400e-01,-7.999999999999980460e-01,-1.000000000000000000e+00,3.500000000000029754e-01,-1.000000000000000000e+00,-2.099999999999966338e-01,-1.000000000000000000e+00,-9.999999999989350741e-03,4.400000000000057199e-01,-1.000000000000000000e+00,5.100000000000057820e-01,-1.000000000000000000e+00,7.600000000000113332e-01,-9.899999999999991029e-01,3.500000000000047518e-01,-8.699999999999981082e-01,3.600000000000056488e-01,-5.999999999999738876e-02,1.600000000000090239e-01,-2.199999999999984190e-01,9.600000000000079581e-01,6.000000000000538236e-02,-1.000000000000000000e+00,1.500000000000045741e-01,-2.599999999999957900e-01,5.700000000000120526e-01,-1.000000000000000000e+00,1.800000000000019362e-01,-1.000000000000000000e+00,-6.999999999999739764e-02,6.700000000000059242e-01,-1.000000000000000000e+00,-1.000000000000000000e+00,-1.000000000000000000e+00,-1.000000000000000000e+00,-2.499999999999975575e-01,-1.000000000000000000e+00,-2.599999999999931255e-01,3.100000000000047162e-01,-1.000000000000000000e+00,-3.099999999999878408e-01,-1.000000000000000000e+00,-3.499999999999985345e-01,2.400000000000028777e-01,-1.000000000000000000e+00,-4.699999999999986411e-01,-7.999999999999829470e-02,-1.599999999999930367e-01,-8.999999999999963585e-01,-1.000000000000000000e+00,-4.999999999999737987e-02,-6.199999999999952216e-01,-1.000000000000000000e+00,-1.000000000000000000e+00,-1.000000000000000000e+00,-1.000000000000000000e+00,-1.999999999999113598e-02,-2.999999999998936850e-02,-9.899999999999982148e-01,-6.999999999999988454e-01,-1.000000000000000000e+00,-1.000000000000000000e+00,-1.000000000000000000e+00,9.100000000000034728e-01,-3.999999999999968026e-01,-1.000000000000000000e+00
-1.000000000000000000e+00,-6.699999999999934897e-01,-1.000000000000000000e+00,9.300000000000043787e-01,1.800000000000037126e-01,-6.999999999999828582e-02,-1.699999999999974865e-01,-1.000000000000000000e+00,-1.000000000000000000e+00,-4.399999999999915090e-01,1.900000000000046096e-01,6.200000000000032152e-01,-1.599999999999903721e-01,-5.199999999999942446e-01,-1.000000000000000000e+00,-1.000000000000000000e+00,-1.000000000000000000e+00,7.500000000000051070e-01,-1.000000000000000000e+00,-7.999999999998941291e-02,4.400000000000057199e-01,-6.199999999999987743e-01,-1.000000000000000000e+00,-1.000000000000000000e+00,6.300000000000103295e-01,-9.899999999999991029e-01,3.500000000000047518e-01,-1.799999999999983835e-01,3.100000000000064926e-01,-5.999999999999738876e-02,9.400000000000106049e-01,-3.499999999999976463e-01,9.600000000000079581e-01,6.000000000000538236e-02,-9.999999999999991118e-01,-3.999999999999470646e-02,-1.199999999999947775e-01,5.700000000000120526e-01,-1.000000000000000000e+00,1.100000000000027622e-01,-1.000000000000000000e+00,-6.999999999999739764e-02,6.700000000000059242e-01,-4.599999999999968558e-01,-1.000000000000000000e+00,-5.899999999999987477e-01,-1.000000000000000000e+00,-1.000000000000000000e+00,-1.000000000000000000e+00,-3.999999999999204192e-02,1.800000000000090417e-01,3.700000000000083222e-01,-3.099999999999878408e-01,-1.000000000000000000e+00,3.500000000000029754e-01,-1.000000000000000000e+00,-1.000000000000000000e+00,-4.699999999999986411e-01,-7.999999999999980460e-01,-1.599999999999930367e-01,-7.799999999999989164e-01,-1.000000000000000000e+00,-4.099999999999968114e-01,5.000000000000537348e-02,-1.000000000000000000e+00,-1.000000000000000000e+00,-1.000000000000000000e+00,-1.000000000000000000e+00,-1.000000000000000000e+00,5.700000000000102762e-01,-1.000000000000000000e+00,-1.000000000000000000e+00,-1.000000000000000000e+00,-1.000000000000000000e+00,-7.699999999999989075e-01,9.100000000000034728e-01,-3.699999999999932232e-01,-1.000000000000000000e+00
-1.000000000000000000e+00,-6.699999999999934897e-01,-1.000000000000000000e+00,-1.000000000000000000e+00,1.000000000000027534e-01,-6.999999999999828582e-02,-5.799999999999987388e-01,-8.599999999999972111e-01,-6.599999999999988098e-01,-6.499999999999916955e-01,-1.000000000000000000e+00,6.200000000000032152e-01,-1.000000000000000000e+00,-2.799999999999949196e-01,-8.099999999999989431e-01,3.500000000000029754e-01,4.800000000000030909e-01,-2.099999999999966338e-01,-1.000000000000000000e+00,1.800000000000108180e-01,4.800000000000066436e-01,-1.000000000000000000e+00,5.100000000000057820e-01,-1.000000000000000000e+00,6.200000000000112088e-01,1.200000000000036593e-01,3.500000000000047518e-01,-1.799999999999983835e-01,3.100000000000064926e-01,-5.999999999999738876e-02,1.600000000000090239e-01,-2.199999999999984190e-01,9.600000000000079581e-01,6.000000000000538236e-02,6.900000000000086064e-01,2.200000000000055245e-01,5.800000000000058442e-01,5.700000000000120526e-01,-1.000000000000000000e+00,1.800000000000019362e-01,-7.499999999999988898e-01,-6.999999999999739764e-02,-1.000000000000000000e+00,-4.599999999999968558e-01,-1.000000000000000000e+00,-1.000000000000000000e+00,-1.000000000000000000e+00,-1.000000000000000000e+00,-1.000000000000000000e+00,-3.999999999999204192e-02,-7.999999999999474198e-02,-9.999999999999298339e-02,-3.099999999999878408e-01,-1.000000000000000000e+00,3.500000000000029754e-01,-7.399999999999988809e-01,-1.000000000000000000e+00,-4.699999999999986411e-01,-7.999999999999829470e-02,-1.599999999999930367e-01,-8.999999999999963585e-01,-5.699999999999951772e-01,-4.999999999999737987e-02,-6.199999999999952216e-01,-1.000000000000000000e+00,-9.199999999999990408e-01,-1.000000000000000000e+00,-1.000000000000000000e+00,8.900000000000087841e-01,5.700000000000102762e-01,-1.000000000000000000e+00,-1.000000000000000000e+00,-1.000000000000000000e+00,-1.000000000000000000e+00,-1.000000000000000000e+00,9.100000000000034728e-01,-3.999999999999968026e-01,-5.499999999999987121e-01
-1.000000000000000000e+00,-6.699999999999934897e-01,-1.000000000000000000e+00,-1.000000000000000000e+00,1.000000000000027534e-01,-6.999999999999828582e-02,-6.199999999999987743e-01,-7.999999999999829470e-02,-1.000000000000000000e+00,-6.499999999999916955e-01,-1.999999999999468869e-02,6.200000000000032152e-01,1.000000000000889067e-02,-7.999999999999980460e-01,-7.499999999999988898e-01,-9.099999999999990319e-01,4.800000000000030909e-01,-2.099999999999966338e-01,-1.000000000000000000e+00,-9.999999999989350741e-03,-1.000000000000000000e+00,-1.000000000000000000e+00,5.100000000000057820e-01,-1.000000000000000000e+00,6.300000000000103295e-01,-9.899999999999991029e-01,3.500000000000047518e-01,-8.699999999999981082e-01,5.300000000000075762e-01,-5.999999999999738876e-02,1.600000000000090239e-01,-3.899999999999976819e-01,-1.000000000000000000e+00,6.000000000000538236e-02,-1.000000000000000000e+00,-3.999999999999470646e-02,-1.199999999999947775e-01,5.700000000000120526e-01,-1.000000000000000000e+00,1.800000000000019362e-01,-1.000000000000000000e+00,-6.199999999999987743e-01,6.700000000000059242e-01,-1.000000000000000000e+00,-1.000000000000000000e+00,-1.000000000000000000e+00,-1.000000000000000000e+00,-2.499999999999975575e-01,-1.000000000000000000e+00,-2.199999999999922018e-01,1.800000000000090417e-01,-3.699999999999923350e-01,-3.099999999999878408e-01,-1.000000000000000000e+00,3.500000000000029754e-01,-1.000000000000000000e+00,-1.000000000000000000e+00,-5.299999999999969180e-01,-5.199999999999977973e-01,-1.599999999999930367e-01,-8.999999999999963585e-01,-5.699999999999951772e-01,-4.999999999999737987e-02,5.000000000000537348e-02,-1.000000000000000000e+00,-7.499999999999988898e-01,-1.000000000000000000e+00,-1.000000000000000000e+00,9.000000000000079048e-01,5.700000000000102762e-01,-9.399999999999990585e-01,-1.000000000000000000e+00,-1.000000000000000000e+00,-1.000000000000000000e+00,-7.699999999999989075e-01,9.100000000000034728e-01,-3.999999999999968026e-01,-1.000000000000000000e+00
-1.000000000000000000e+00,-1.299999999999921219e-01,-1.000000000000000000e+00,9.300000000000043787e-01,1.000000000000027534e-01,-6.999999999999828582e-02,-6.199999999999987743e-01,-7.999999999999829470e-02,-1.000000000000000000e+00,-3.099999999999922817e-01,-2.799999999999958078e-01,-1.000000000000000000e+00,3.900000000000083400e-01,-7.999999999999980460e-01,-1.599999999999983658e-01,-1.000000000000000000e+00,-1.000000000000000000e+00,-2.099999999999966338e-01,-4.199999999999985967e-01,-9.999999999989350741e-03,4.400000000000057199e-01,-1.000000000000000000e+00,5.100000000000057820e-01,-1.000000000000000000e+00,7.600000000000113332e-01,-1.000000000000000000e+00,5.800000000000058442e-01,-8.699999999999981082e-01,3.600000000000056488e-01,-5.999999999999738876e-02,-4.099999999999905942e-01,-3.899999999999976819e-01,5.200000000000084555e-01,7.300000000000068656e-01,-1.000000000000000000e+00,1.500000000000045741e-01,-2.599999999999957900e-01,5.700000000000120526e-01,-1.000000000000000000e+00,1.800000000000019362e-01,-1.000000000000000000e+00,-6.999999999999739764e-02,6.700000000000059242e-01,-4.599999999999968558e-01,-1.899999999999983924e-01,-1.000000000000000000e+00,-1.000000000000000000e+00,-2.499999999999975575e-01,-1.000000000000000000e+00,-3.999999999999204192e-02,-7.999999999999474198e-02,-9.999999999999298339e-02,-3.099999999999878408e-01,-1.000000000000000000e+00,-3.499999999999985345e-01,-1.000000000000000000e+00,-1.000000000000000000e+00,-5.299999999999969180e-01,-9.599999999999981881e-01,2.000000000000081712e-01,-8.999999999999963585e-01,-5.399999999999987033e-01,-4.999999999999737987e-02,-6.199999999999952216e-01,-1.799999999999948308e-01,4.100000000000030287e-01,-1.000000000000000000e+00,-6.999999999999828582e-02,8.900000000000087841e-01,5.700000000000102762e-01,-1.000000000000000000e+00,-8.999999999999990230e-01,-1.000000000000000000e+00,-1.000000000000000000e+00,-3.799999999999967848e-01,9.100000000000034728e-01,-3.999999999999968026e-01,-1.000000000000000000e+00
-1.000000000000000000e+00,-6.699999999999934897e-01,-1.000000000000000000e+00,-1.000000000000000000e+00,1.000000000000027534e-01,-6.999999999999828582e-02,-1.599999999999974776e-01,-8.599999999999972111e-01,-1.000000000000000000e+00,-1.000000000000000000e+00,-1.999999999999468869e-02,6.200000000000032152e-01,3.900000000000083400e-01,-7.999999999999980460e-01,-1.000000000000000000e+00,-1.000000000000000000e+00,-2.799999999999966960e-01,-2.099999999999966338e-01,6.200000000000049916e-01,-9.999999999989350741e-03,4.400000000000057199e-01,-1.000000000000000000e+00,5.100000000000057820e-01,-1.000000000000000000e+00,7.600000000000113332e-01,-1.000000000000000000e+00,3.500000000000047518e-01,-1.799999999999983835e-01,-1.000000000000000000e+00,-5.999999999999738876e-02,1.600000000000090239e-01,-4.399999999999977263e-01,9.600000000000079581e-01,6.000000000000538236e-02,6.900000000000086064e-01,1.500000000000045741e-01,-2.599999999999957900e-01,5.700000000000120526e-01,-1.000000000000000000e+00,1.800000000000019362e-01,-7.499999999999988898e-01,3.900000000000038991e-01,-1.000000000000000000e+00,-4.599999999999968558e-01,-1.000000000000000000e+00,-1.000000000000000000e+00,-1.000000000000000000e+00,-5.699999999999969535e-01,-3.199999999999985079e-01,9.100000000000096900e-01,-7.999999999999474198e-02,-9.999999999999298339e-02,-3.099999999999878408e-01,-1.000000000000000000e+00,-3.499999999999985345e-01,2.400000000000028777e-01,-6.999999999999739764e-02,-4.699999999999986411e-01,-7.999999999999829470e-02,-1.599999999999930367e-01,-8.999999999999963585e-01,-1.000000000000000000e+00,-4.999999999999737987e-02,-6.199999999999952216e-01,-1.000000000000000000e+00,-1.000000000000000000e+00,-1.000000000000000000e+00,-1.000000000000000000e+00,9.000000000000079048e-01,5.700000000000102762e-01,-9.899999999999982148e-01,-1.000000000000000000e+00,-1.000000000000000000e+00,-1.000000000000000000e+00,-1.000000000000000000e+00,9.100000000000034728e-01,-3.699999999999932232e-01,-1.000000000000000000e+00
-1.000000000000000000e+00,-6.699999999999934897e-01,-1.000000000000000000e+00,-1.000000000000000000e+00,1.000000000000027534e-01,-6.999999999999828582e-02,-6.199999999999987743e-01,-7.999999999999829470e-02,-3.999999999999985789e-01,-3.099999999999913936e-01,-1.999999999999468869e-02,6.200000000000032152e-01,6.400000000000103384e-01,-7.999999999999980460e-01,-1.000000000000000000e+00,-1.000000000000000000e+00,4.800000000000030909e-01,-2.099999999999966338e-01,-1.000000000000000000e+00,-9.999999999989350741e-03,4.400000000000057199e-01,-1.000000000000000000e+00,5.100000000000057820e-01,-1.000000000000000000e+00,7.600000000000113332e-01,-1.000000000000000000e+00,3.500000000000047518e-01,-8.699999999999981082e-01,-2.899999999999931521e-01,-5.999999999999738876e-02,1.600000000000090239e-01,-4.399999999999977263e-01,9.600000000000079581e-01,6.000000000000538236e-02,-1.000000000000000000e+00,-4.399999999999941735e-01,-1.399999999999947953e-01,8.900000000000132250e-01,-1.000000000000000000e+00,1.800000000000019362e-01,-1.000000000000000000e+00,-6.199999999999987743e-01,6.700000000000059242e-01,-4.599999999999968558e-01,-1.000000000000000000e+00,-1.000000000000000000e+00,-1.000000000000000000e+00,-2.499999999999975575e-01,-1.000000000000000000e+00,-2.599999999999931255e-01,3.100000000000047162e-01,5.300000000000084643e-01,-3.099999999999878408e-01,-1.000000000000000000e+00,3.500000000000029754e-01,-1.000000000000000000e+00,-1.000000000000000000e+00,-5.299999999999969180e-01,-3.799999999999985612e-01,-1.599999999999930367e-01,-8.999999999999963585e-01,-1.000000000000000000e+00,-4.999999999999737987e-02,-6.199999999999952216e-01,-9.999999999998232525e-03,-1.000000000000000000e+00,-1.000000000000000000e+00,-1.000000000000000000e+00,9.000000000000079048e-01,5.700000000000102762e-01,-9.899999999999982148e-01,-1.000000000000000000e+00,-1.000000000000000000e+00,-1.000000000000000000e+00,-7.699999999999989075e-01,9.100000000000034728e-01,-1.000000000000000000e+00,-1.000000000000000000e+00
-1.000000000000000000e+00,-6.699999999999934897e-01,-1.000000000000000000e+00,-1.000000000000000000e+00,-1.000000000000000000e+00,-6.999999999999828582e-02,-1.699999999999974865e-01,7.000000000000032863e-01,-1.000000000000000000e+00,-1.000000000000000000e+00,-1.000000000000000000e+00,6.200000000000032152e-01,6.400000000000103384e-01,-4.599999999999968558e-01,-1.000000000000000000e+00,-1.000000000000000000e+00,-2.799999999999966960e-01,-2.099999999999966338e-01,-1.000000000000000000e+00,-9.999999999989350741e-03,4.400000000000057199e-01,-1.000000000000000000e+00,5.100000000000057820e-01,-1.000000000000000000e+00,1.000000000000107470e-01,-9.899999999999991029e-01,3.500000000000047518e-01,-1.799999999999983835e-01,3.100000000000064926e-01,-5.999999999999738876e-02,1.600000000000090239e-01,-4.399999999999977263e-01,9.600000000000079581e-01,6.000000000000538236e-02,-1.000000000000000000e+00,-3.999999999999470646e-02,-1.199999999999947775e-01,5.700000000000120526e-01,-1.000000000000000000e+00,1.800000000000019362e-01,2.100000000000046274e-01,-6.199999999999987743e-01,-1.000000000000000000e+00,-1.000000000000000000e+00,-1.000000000000000000e+00,-1.000000000000000000e+00,-1.000000000000000000e+00,-2.499999999999975575e-01,-3.999999999999985789e-01,4.000000000000802913e-02,1.800000000000090417e-01,-3.699999999999923350e-01,-3.099999999999878408e-01,-1.000000000000000000e+00,3.500000000000029754e-01,2.400000000000028777e-01,-1.000000000000000000e+00,-4.699999999999986411e-01,-3.799999999999985612e-01,-1.599999999999930367e-01,-8.999999999999963585e-01,-1.000000000000000000e+00,-4.999999999999737987e-02,-6.199999999999952216e-01,-1.000000000000000000e+00,-1.000000000000000000e+00,-1.000000000000000000e+00,-1.000000000000000000e+00,9.000000000000079048e-01,5.700000000000102762e-01,-9.899999999999982148e-01,-2.499999999999984457e-01,-1.000000000000000000e+00,-1.000000000000000000e+00,-9.299999999999990496e-01,9.100000000000034728e-01,-3.699999999999932232e-01,-1.000000000000000000e+00
-1.000000000000000000e+00,-6.699999999999934897e-01,-1.000000000000000000e+00,-1.000000000000000000e+00,1.000000000000027534e-01,-6.999999999999828582e-02,-6.199999999999987743e-01,-7.999999999999829470e-02,-1.000000000000000000e+00,-3.099999999999913936e-01,-1.999999999999468869e-02,6.200000000000032152e-01,6.400000000000103384e-01,-7.999999999999980460e-01,-1.000000000000000000e+00,3.500000000000029754e-01,-2.799999999999966960e-01,-2.999999999999949374e-01,-1.000000000000000000e+00,-9.999999999989350741e-03,4.400000000000057199e-01,-1.000000000000000000e+00,5.100000000000057820e-01,-1.000000000000000000e+00,7.600000000000113332e-01,-9.899999999999991029e-01,3.500000000000047518e-01,-1.000000000000000000e+00,3.100000000000064926e-01,-5.999999999999738876e-02,1.600000000000090239e-01,4.700000000000030820e-01,-1.000000000000000000e+00,6.000000000000538236e-02,-1.000000000000000000e+00,1.500000000000045741e-01,-1.399999999999947953e-01,5.700000000000120526e-01,-1.000000000000000000e+00,1.800000000000019362e-01,2.100000000000046274e-01,-6.199999999999987743e-01,-1.000000000000000000e+00,-4.599999999999968558e-01,-1.000000000000000000e+00,-1.000000000000000000e+00,-1.000000000000000000e+00,-2.499999999999975575e-01,-3.999999999999985789e-01,-2.599999999999931255e-01,3.100000000000047162e-01,-1.000000000000000000e+00,-3.099999999999878408e-01,-1.000000000000000000e+00,3.500000000000029754e-01,2.400000000000028777e-01,-1.000000000000000000e+00,-4.699999999999986411e-01,-7.999999999999829470e-02,5.900000000000085176e-01,-8.999999999999963585e-01,-1.000000000000000000e+00,-4.999999999999737987e-02,3.200000000000065015e-01,-9.999999999998232525e-03,-1.000000000000000000e+00,-1.000000000000000000e+00,-1.000000000000000000e+00,9.300000000000105960e-01,5.700000000000102762e-01,-5.299999999999969180e-01,-6.999999999999988454e-01,-1.000000000000000000e+00,-1.000000000000000000e+00,-1.000000000000000000e+00,9.100000000000034728e-01,-3.999999999999968026e-01,-1.000000000000000000e+00
-1.000000000000000000e+00,-6.699999999999934897e-01,-1.000000000000000000e+00,-1.000000000000000000e+00,-1.000000000000000000e+00,-6.999999999999828582e-02,-6.199999999999987743e-01,-1.000000000000000000e+00,-1.000000000000000000e+00,-6.499999999999916955e-01,-1.000000000000000000e+00,6.200000000000032152e-01,6.400000000000103384e-01,-2.799999999999949196e-01,-1.000000000000000000e+00,3.500000000000029754e-01,4.800000000000030909e-01,-2.999999999999949374e-01,-1.000000000000000000e+00,-6.699999999999890488e-01,4.400000000000057199e-01,-1.000000000000000000e+00,5.100000000000057820e-01,-1.000000000000000000e+00,-1.799999999999895017e-01,-8.099999999999980549e-01,3.500000000000047518e-01,3.000000000000357936e-02,3.100000000000064926e-01,-5.999999999999738876e-02,1.600000000000090239e-01,-3.499999999999976463e-01,9.600000000000079581e-01,6.000000000000538236e-02,-7.199999999999988631e-01,-4.399999999999941735e-01,-1.199999999999947775e-01,5.700000000000120526e-01,-1.000000000000000000e+00,1.800000000000019362e-01,2.100000000000046274e-01,-6.199999999999987743e-01,-1.000000000000000000e+00,-1.000000000000000000e+00,-1.000000000000000000e+00,-1.000000000000000000e+00,-1.000000000000000000e+00,-2.499999999999975575e-01,-1.000000000000000000e+00,4.000000000000802913e-02,1.800000000000090417e-01,-6.199999999999916689e-01,-3.099999999999878408e-01,-1.000000000000000000e+00,3.500000000000029754e-01,-6.499999999999970246e-01,-1.000000000000000000e+00,-4.699999999999986411e-01,-7.999999999999980460e-01,-1.599999999999930367e-01,-5.499999999999951594e-01,-7.599999999999944578e-01,-4.999999999999737987e-02,5.000000000000537348e-02,-1.000000000000000000e+00,-1.000000000000000000e+00,-1.000000000000000000e+00,-1.000000000000000000e+00,9.000000000000079048e-01,5.700000000000102762e-01,-1.399999999999965716e-01,-1.000000000000000000e+00,-1.000000000000000000e+00,-1.000000000000000000e+00,-9.299999999999990496e-01,9.100000000000034728e-01,-3.699999999999932232e-01,-1.000000000000000000e+00
-6.599999999999988098e-01,-6.699999999999934897e-01,-1.000000000000000000e+00,9.300000000000043787e-01,1.000000000000027534e-01,-6.999999999999828582e-02,-7.599999999999980105e-01,-7.999999999999829470e-02,-6.599999999999988098e-01,-1.000000000000000000e+00,-5.099999999999969003e-01,6.200000000000032152e-01,1.000000000000889067e-02,-1.000000000000000000e+00,-1.000000000000000000e+00,3.500000000000029754e-01,-2.799999999999966960e-01,-2.099999999999966338e-01,-1.000000000000000000e+00,-9.999999999989350741e-03,4.400000000000057199e-01,-1.000000000000000000e+00,5.100000000000057820e-01,-1.000000000000000000e+00,-1.000000000000000000e+00,-1.000000000000000000e+00,3.500000000000047518e-01,3.000000000000357936e-02,-2.399999999999939959e-01,-5.999999999999738876e-02,1.600000000000090239e-01,-2.199999999999984190e-01,9.600000000000079581e-01,6.000000000000538236e-02,-1.000000000000000000e+00,1.500000000000045741e-01,-2.599999999999957900e-01,5.700000000000120526e-01,-1.000000000000000000e+00,-6.799999999999979394e-01,2.100000000000046274e-01,-6.199999999999987743e-01,6.700000000000059242e-01,-4.599999999999968558e-01,-1.000000000000000000e+00,-1.000000000000000000e+00,-1.000000000000000000e+00,-1.000000000000000000e+00,-3.999999999999985789e-01,-2.599999999999931255e-01,-7.999999999999474198e-02,-9.999999999999298339e-02,-3.099999999999878408e-01,-1.000000000000000000e+00,3.500000000000029754e-01,-1.000000000000000000e+00,-1.000000000000000000e+00,-4.699999999999986411e-01,-3.699999999999967759e-01,-1.599999999999930367e-01,-8.999999999999963585e-01,-5.699999999999951772e-01,-4.999999999999737987e-02,-6.199999999999952216e-01,-1.000000000000000000e+00,-1.000000000000000000e+00,-1.000000000000000000e+00,-1.000000000000000000e+00,8.900000000000087841e-01,5.700000000000102762e-01,-9.399999999999990585e-01,-1.000000000000000000e+00,-1.000000000000000000e+00,-1.000000000000000000e+00,-7.699999999999989075e-01,9.100000000000034728e-01,-3.999999999999968026e-01,-1.000000000000000000e+00
-1.000000000000000000e+00,-6.699999999999934897e-01,-1.000000000000000000e+00,9.300000000000043787e-01,1.000000000000027534e-01,7.800000000000042455e-01,-5.799999999999987388e-01,-7.999999999999829470e-02,-1.000000000000000000e+00,-3.099999999999922817e-01,-1.999999999999468869e-02,6.200000000000032152e-01,1.000000000000889067e-02,-7.999999999999980460e-01,-1.000000000000000000e+00,-1.000000000000000000e+00,-1.000000000000000000e+00,-9.999999999995567990e-03,-1.000000000000000000e+00,1.800000000000108180e-01,4.400000000000057199e-01,-1.000000000000000000e+00,9.500000000000070610e-01,-8.999999999999990230e-01,7.600000000000113332e-01,-9.899999999999991029e-01,3.500000000000047518e-01,-8.699999999999981082e-01,3.600000000000056488e-01,-5.999999999999738876e-02,1.600000000000090239e-01,-3.899999999999976819e-01,9.600000000000079581e-01,6.000000000000538236e-02,-1.000000000000000000e+00,1.500000000000045741e-01,-2.599999999999957900e-01,8.900000000000132250e-01,-1.000000000000000000e+00,1.800000000000019362e-01,-1.000000000000000000e+00,-6.199999999999987743e-01,6.700000000000059242e-01,-1.000000000000000000e+00,-1.000000000000000000e+00,-8.999999999999830358e-02,-1.000000000000000000e+00,-2.499999999999975575e-01,-1.000000000000000000e+00,-2.599999999999931255e-01,3.100000000000047162e-01,-9.999999999999298339e-02,-3.099999999999878408e-01,-1.000000000000000000e+00,-3.499999999999985345e-01,-1.000000000000000000e+00,-1.000000000000000000e+00,-4.699999999999986411e-01,-6.499999999999970246e-01,-1.599999999999930367e-01,-1.000000000000000000e+00,-1.000000000000000000e+00,-4.999999999999737987e-02,-6.199999999999952216e-01,-1.000000000000000000e+00,-1.000000000000000000e+00,-1.000000000000000000e+00,-1.000000000000000000e+00,4.700000000000092992e-01,5.700000000000102762e-01,-1.000000000000000000e+00,-1.000000000000000000e+00,-1.000000000000000000e+00,-1.000000000000000000e+00,-1.000000000000000000e+00,9.100000000000034728e-01,-4.999999999999915623e-01,-1.000000000000000000e+00
-1.999999999999984013e-01,-6.699999999999934897e-01,-7.999999999999989342e-01,-1.000000000000000000e+00,1.000000000000027534e-01,2.800000000000046896e-01,-6.199999999999987743e-01,-8.099999999999980549e-01,-1.000000000000000000e+00,-1.000000000000000000e+00,-1.999999999999468869e-02,6.200000000000032152e-01,1.000000000000889067e-02,-1.000000000000000000e+00,-1.000000000000000000e+00,3.500000000000029754e-01,4.800000000000030909e-01,-1.000000000000000000e+00,-1.699999999999983746e-01,-9.999999999989350741e-03,4.400000000000057199e-01,-1.000000000000000000e+00,3.300000000000065103e-01,-1.000000000000000000e+00,7.600000000000113332e-01,-8.599999999999980993e-01,3.500000000000047518e-01,-1.799999999999983835e-01,3.600000000000056488e-01,-5.999999999999738876e-02,1.600000000000090239e-01,1.700000000000037037e-01,9.600000000000079581e-01,6.000000000000538236e-02,-1.000000000000000000e+00,1.500000000000045741e-01,-9.799999999999946532e-01,5.700000000000120526e-01,-1.000000000000000000e+00,1.800000000000019362e-01,2.100000000000046274e-01,-6.199999999999987743e-01,-1.000000000000000000e+00,-4.599999999999968558e-01,-1.000000000000000000e+00,-1.000000000000000000e+00,-1.000000000000000000e+00,-1.000000000000000000e+00,-3.999999999999985789e-01,4.000000000000802913e-02,3.100000000000047162e-01,-1.000000000000000000e+00,-3.099999999999878408e-01,-1.000000000000000000e+00,3.500000000000029754e-01,2.400000000000028777e-01,-1.000000000000000000e+00,-5.299999999999969180e-01,-3.799999999999985612e-01,-1.599999999999930367e-01,-8.999999999999963585e-01,-1.000000000000000000e+00,-4.999999999999737987e-02,-5.299999999999942535e-01,-9.999999999998232525e-03,-1.000000000000000000e+00,-1.000000000000000000e+00,-1.000000000000000000e+00,8.900000000000087841e-01,-1.000000000000000000e+00,-9.899999999999982148e-01,-1.000000000000000000e+00,-1.000000000000000000e+00,-1.000000000000000000e+00,-7.699999999999989075e-01,9.100000000000034728e-01,-4.999999999999915623e-01,-1.000000000000000000e+00
-1.000000000000000000e+00,-6.699999999999934897e-01,-5.099999999999977884e-01,2.100000000000037392e-01,-1.499999999999965805e-01,-3.099999999999967226e-01,-6.199999999999987743e-01,-7.999999999999829470e-02,-5.399999999999987033e-01,-3.099999999999922817e-01,-1.999999999999468869e-02,6.200000000000032152e-01,3.100000000000100453e-01,-7.999999999999980460e-01,-1.000000000000000000e+00,3.500000000000029754e-01,4.800000000000030909e-01,-1.000000000000000000e+00,-1.699999999999983746e-01,1.800000000000108180e-01,4.400000000000057199e-01,-1.000000000000000000e+00,5.100000000000057820e-01,-1.000000000000000000e+00,7.600000000000113332e-01,-1.000000000000000000e+00,3.500000000000047518e-01,-1.799999999999983835e-01,3.600000000000056488e-01,-5.999999999999738876e-02,1.600000000000090239e-01,1.700000000000037037e-01,9.600000000000079581e-01,6.000000000000538236e-02,-1.000000000000000000e+00,7.900000000000060307e-01,-1.399999999999947953e-01,5.700000000000120526e-01,-1.000000000000000000e+00,1.800000000000019362e-01,-1.000000000000000000e+00,-6.999999999999739764e-02,6.700000000000059242e-01,-4.599999999999968558e-01,-1.000000000000000000e+00,-1.000000000000000000e+00,-1.000000000000000000e+00,-2.499999999999975575e-01,-1.000000000000000000e+00,-2.599999999999931255e-01,-7.999999999999474198e-02,-1.799999999999921663e-01,-3.099999999999878408e-01,-1.000000000000000000e+00,3.500000000000029754e-01,-1.000000000000000000e+00,-1.000000000000000000e+00,-5.299999999999969180e-01,-1.000000000000000000e+00,-1.599999999999930367e-01,-8.999999999999963585e-01,-1.000000000000000000e+00,-4.999999999999737987e-02,-6.199999999999952216e-01,-1.000000000000000000e+00,-1.000000000000000000e+00,-6.999999999999988454e-01,-1.000000000000000000e+00,8.900000000000087841e-01,5.700000000000102762e-01,-9.399999999999990585e-01,-1.000000000000000000e+00,-1.000000000000000000e+00,-1.000000000000000000e+00,-6.999999999999739764e-02,9.100000000000034728e-01,-4.999999999999915623e-01,-1.000000000000000000e+00
-1.000000000000000000e+00,-6.699999999999934897e-01,-1.000000000000000000e+00,9.300000000000043787e-01,1.000000000000027534e-01,1.700000000000028155e-01,-5.799999999999987388e-01,-8.599999999999972111e-01,-6.599999999999988098e-01,-3.099999999999922817e-01,1.900000000000046096e-01,6.200000000000032152e-01,-1.000000000000000000e+00,-7.999999999999980460e-01,-1.000000000000000000e+00,-1.000000000000000000e+00,-1.000000000000000000e+00,-2.099999999999966338e-01,-1.000000000000000000e+00,1.800000000000108180e-01,4.400000000000057199e-01,-1.000000000000000000e+00,5.100000000000057820e-01,-1.000000000000000000e+00,7.600000000000113332e-01,-1.000000000000000000e+00,3.500000000000047518e-01,-8.699999999999981082e-01,3.600000000000056488e-01,-5.999999999999738876e-02,1.600000000000090239e-01,-2.199999999999984190e-01,9.600000000000079581e-01,6.000000000000538236e-02,-1.000000000000000000e+00,1.500000000000045741e-01,-2.599999999999957900e-01,5.700000000000120526e-01,-1.000000000000000000e+00,1.800000000000019362e-01,-1.000000000000000000e+00,-6.999999999999739764e-02,-1.000000000000000000e+00,-1.000000000000000000e+00,-1.000000000000000000e+00,-1.000000000000000000e+00,-7.099999999999988542e-01,-1.000000000000000000e+00,-1.000000000000000000e+00,-3.999999999999204192e-02,1.100000000000063149e-01,-1.000000000000000000e+00,-3.099999999999878408e-01,-1.000000000000000000e+00,-3.499999999999985345e-01,-4.599999999999986322e-01,-6.999999999999739764e-02,-4.699999999999986411e-01,-4.599999999999977440e-01,-1.599999999999930367e-01,-1.000000000000000000e+00,-1.000000000000000000e+00,-4.999999999999737987e-02,-6.199999999999952216e-01,-1.000000000000000000e+00,-1.000000000000000000e+00,-1.000000000000000000e+00,-1.000000000000000000e+00,8.900000000000087841e-01,5.700000000000102762e-01,-1.000000000000000000e+00,-1.000000000000000000e+00,-1.000000000000000000e+00,-1.000000000000000000e+00,-1.000000000000000000e+00,9.100000000000034728e-01,-4.999999999999915623e-01,-1.000000000000000000e+00
-1.000000000000000000e+00,-6.699999999999934897e-01,-1.000000000000000000e+00,9.300000000000043787e-01,1.000000000000027534e-01,-6.999999999999828582e-02,-4.799999999999968736e-01,7.000000000000032863e-01,-6.599999999999988098e-01,-5.799999999999987388e-01,-5.099999999999969003e-01,3.000000000000357936e-02,1.000000000000889067e-02,-1.000000000000000000e+00,-1.000000000000000000e+00,-1.000000000000000000e+00,4.800000000000030909e-01,-2.099999999999966338e-01,-1.000000000000000000e+00,1.800000000000108180e-01,4.400000000000057199e-01,-1.000000000000000000e+00,5.100000000000057820e-01,-1.000000000000000000e+00,6.400000000000121148e-01,-1.000000000000000000e+00,3.500000000000047518e-01,3.000000000000357936e-02,3.600000000000056488e-01,-5.999999999999738876e-02,1.600000000000090239e-01,-3.899999999999976819e-01,9.600000000000079581e-01,6.000000000000538236e-02,-1.000000000000000000e+00,1.500000000000045741e-01,-2.599999999999957900e-01,5.700000000000120526e-01,-1.000000000000000000e+00,1.800000000000019362e-01,2.100000000000046274e-01,-6.199999999999987743e-01,6.700000000000059242e-01,-4.599999999999968558e-01,-1.000000000000000000e+00,-1.000000000000000000e+00,-1.000000000000000000e+00,-2.499999999999975575e-01,-1.000000000000000000e+00,-2.599999999999931255e-01,3.600000000000065370e-01,-9.999999999999298339e-02,-3.099999999999878408e-01,-1.000000000000000000e+00,3.500000000000029754e-01,2.400000000000028777e-01,-1.000000000000000000e+00,-5.299999999999969180e-01,2.200000000000028599e-01,-1.599999999999930367e-01,-8.999999999999963585e-01,-9.599999999999946354e-01,-7.999999999999971578e-01,-9.499999999999946265e-01,-1.000000000000000000e+00,-1.000000000000000000e+00,-1.000000000000000000e+00,-1.000000000000000000e+00,9.000000000000079048e-01,5.700000000000102762e-01,-1.000000000000000000e+00,-1.000000000000000000e+00,-1.000000000000000000e+00,-1.000000000000000000e+00,-3.399999999999976374e-01,9.100000000000034728e-01,-3.999999999999968026e-01,-1.000000000000000000e+00
-9.799999999999990941e-01,-6.699999999999934897e-01,-1.000000000000000000e+00,2.900000000000029221e-01,1.000000000000027534e-01,-3.099999999999967226e-01,-6.199999999999987743e-01,-1.499999999999974687e-01,-6.599999999999988098e-01,-3.099999999999922817e-01,-6.099999999999943245e-01,5.800000000000049560e-01,1.000000000000889067e-02,-1.000000000000000000e+00,-4.499999999999986233e-01,3.500000000000029754e-01,-2.799999999999966960e-01,-1.000000000000000000e+00,-1.000000000000000000e+00,1.800000000000108180e-01,4.400000000000057199e-01,-1.000000000000000000e+00,5.100000000000057820e-01,-1.000000000000000000e+00,6.400000000000121148e-01,-1.000000000000000000e+00,3.500000000000047518e-01,-1.799999999999983835e-01,3.100000000000064926e-01,-5.999999999999738876e-02,1.600000000000090239e-01,-2.199999999999984190e-01,9.600000000000079581e-01,6.000000000000538236e-02,-1.000000000000000000e+00,1.500000000000045741e-01,-1.399999999999947953e-01,5.700000000000120526e-01,-1.000000000000000000e+00,1.800000000000019362e-01,2.100000000000046274e-01,-6.999999999999739764e-02,6.700000000000059242e-01,-4.599999999999968558e-01,-1.000000000000000000e+00,-1.000000000000000000e+00,-1.000000000000000000e+00,-1.000000000000000000e+00,-3.999999999999985789e-01,-3.999999999999204192e-02,-3.799999999999941203e-01,-1.000000000000000000e+00,-3.099999999999878408e-01,-1.000000000000000000e+00,3.500000000000029754e-01,2.400000000000028777e-01,-6.999999999999739764e-02,-5.299999999999969180e-01,2.200000000000028599e-01,-1.599999999999930367e-01,-8.999999999999963585e-01,-5.699999999999951772e-01,-4.999999999999737987e-02,-6.199999999999952216e-01,-1.000000000000000000e+00,-8.699999999999989964e-01,-1.000000000000000000e+00,-1.000000000000000000e+00,8.900000000000087841e-01,5.700000000000102762e-01,-9.399999999999990585e-01,-1.000000000000000000e+00,-1.000000000000000000e+00,-1.000000000000000000e+00,-3.399999999999976374e-01,9.100000000000034728e-01,-4.299999999999906120e-01,-1.000000000000000000e+00
-1.000000000000000000e+00,-6.699999999999934897e-01,-1.000000000000000000e+00,9.300000000000043787e-01,1.000000000000027534e-01,1.100000000000036504e-01,2.000000000000028422e-01,-7.999999999999829470e-02,-6.599999999999988098e-01,-3.099999999999913936e-01,1.900000000000046096e-01,-2.999999999999825029e-02,1.000000000000889067e-02,-4.199999999999968203e-01,-1.000000000000000000e+00,-1.000000000000000000e+00,4.800000000000030909e-01,-2.099999999999966338e-01,-1.000000000000000000e+00,-9.999999999989350741e-03,4.400000000000057199e-01,-1.000000000000000000e+00,5.100000000000057820e-01,-1.000000000000000000e+00,7.600000000000113332e-01,-1.000000000000000000e+00,3.500000000000047518e-01,-1.799999999999983835e-01,7.900000000000069189e-01,-5.999999999999738876e-02,1.600000000000090239e-01,-2.199999999999984190e-01,9.600000000000079581e-01,6.000000000000538236e-02,-1.000000000000000000e+00,1.500000000000045741e-01,-2.599999999999957900e-01,8.900000000000132250e-01,-1.000000000000000000e+00,1.800000000000019362e-01,-7.499999999999988898e-01,-6.999999999999739764e-02,6.700000000000059242e-01,-8.799999999999990052e-01,-1.000000000000000000e+00,-1.000000000000000000e+00,-1.000000000000000000e+00,-1.000000000000000000e+00,-1.000000000000000000e+00,-3.999999999999204192e-02,-7.999999999999474198e-02,-9.999999999999298339e-02,-3.099999999999878408e-01,-1.000000000000000000e+00,3.500000000000029754e-01,-4.599999999999986322e-01,-1.000000000000000000e+00,-4.699999999999986411e-01,-5.199999999999977973e-01,-1.599999999999930367e-01,-8.999999999999963585e-01,-1.000000000000000000e+00,-4.999999999999737987e-02,-5.699999999999942890e-01,-1.000000000000000000e+00,-1.000000000000000000e+00,-1.000000000000000000e+00,-1.000000000000000000e+00,8.900000000000087841e-01,5.700000000000102762e-01,-9.399999999999990585e-01,-1.000000000000000000e+00,-1.000000000000000000e+00,-1.000000000000000000e+00,-7.699999999999989075e-01,9.100000000000034728e-01,-3.999999999999968026e-01,-1.000000000000000000e+00
-1.000000000000000000e+00,-6.699999999999934897e-01,-1.000000000000000000e+00,9.300000000000043787e-01,1.000000000000027534e-01,-6.999999999999828582e-02,-6.199999999999987743e-01,-8.599999999999972111e-01,-5.599999999999987210e-01,-3.099999999999922817e-01,1.900000000000046096e-01,-2.999999999999825029e-02,3.900000000000083400e-01,-7.999999999999980460e-01,-1.000000000000000000e+00,-1.000000000000000000e+00,-1.000000000000000000e+00,-2.099999999999966338e-01,-1.000000000000000000e+00,1.800000000000108180e-01,4.400000000000057199e-01,-1.000000000000000000e+00,5.100000000000057820e-01,-1.000000000000000000e+00,7.600000000000113332e-01,-9.899999999999991029e-01,3.500000000000047518e-01,-8.699999999999981082e-01,4.100000000000065814e-01,-7.299999999999970957e-01,-2.099999999999904166e-01,-2.199999999999984190e-01,9.600000000000079581e-01,6.000000000000538236e-02,6.900000000000086064e-01,1.500000000000045741e-01,-2.599999999999957900e-01,5.700000000000120526e-01,-1.000000000000000000e+00,1.800000000000019362e-01,-7.499999999999988898e-01,7.300000000000042011e-01,-1.000000000000000000e+00,-1.000000000000000000e+00,-1.000000000000000000e+00,-1.000000000000000000e+00,-1.000000000000000000e+00,-2.499999999999975575e-01,-1.000000000000000000e+00,-3.999999999999204192e-02,-7.999999999999474198e-02,-8.099999999999927258e-01,3.700000000000136513e-01,-1.000000000000000000e+00,-3.499999999999985345e-01,-4.599999999999986322e-01,-6.999999999999739764e-02,-4.699999999999986411e-01,-1.000000000000000000e+00,-1.599999999999930367e-01,-8.999999999999963585e-01,-1.000000000000000000e+00,-4.999999999999737987e-02,-6.199999999999952216e-01,-1.799999999999983835e-01,-1.000000000000000000e+00,-1.000000000000000000e+00,-1.000000000000000000e+00,8.900000000000087841e-01,9.800000000000115286e-01,-9.399999999999990585e-01,-4.099999999999985878e-01,-1.000000000000000000e+00,-1.000000000000000000e+00,-7.699999999999989075e-01,9.100000000000034728e-01,-3.999999999999968026e-01,-1.000000000000000000e+00
-1.000000000000000000e+00,-6.699999999999934897e-01,-4.399999999999977263e-01,2.900000000000029221e-01,1.000000000000027534e-01,-3.099999999999967226e-01,-6.199999999999987743e-01,-7.999999999999829470e-02,-1.000000000000000000e+00,-1.000000000000000000e+00,-6.099999999999943245e-01,6.200000000000032152e-01,1.000000000000889067e-02,-1.000000000000000000e+00,-1.000000000000000000e+00,3.500000000000029754e-01,-2.799999999999966960e-01,-3.499999999999985345e-01,-1.699999999999983746e-01,1.800000000000108180e-01,4.400000000000057199e-01,-1.000000000000000000e+00,5.100000000000057820e-01,-1.000000000000000000e+00,6.400000000000121148e-01,-8.599999999999980993e-01,3.500000000000047518e-01,3.000000000000357936e-02,3.100000000000064926e-01,-5.999999999999738876e-02,1.600000000000090239e-01,1.700000000000037037e-01,9.600000000000079581e-01,6.000000000000538236e-02,-1.000000000000000000e+00,1.500000000000045741e-01,-1.399999999999947953e-01,5.700000000000120526e-01,-1.000000000000000000e+00,1.800000000000019362e-01,-1.000000000000000000e+00,-6.999999999999739764e-02,6.700000000000059242e-01,-4.599999999999968558e-01,-1.000000000000000000e+00,-1.000000000000000000e+00,-1.000000000000000000e+00,-2.499999999999975575e-01,-3.999999999999985789e-01,-3.999999999999204192e-02,9.200000000000061462e-01,-9.999999999999298339e-02,-3.099999999999878408e-01,-1.000000000000000000e+00,3.500000000000029754e-01,2.400000000000028777e-01,-1.000000000000000000e+00,-7.599999999999980105e-01,-6.599999999999979217e-01,-1.599999999999930367e-01,-8.999999999999963585e-01,-1.000000000000000000e+00,-4.999999999999737987e-02,-6.199999999999952216e-01,-1.000000000000000000e+00,-1.000000000000000000e+00,-1.000000000000000000e+00,-1.000000000000000000e+00,9.000000000000079048e-01,5.700000000000102762e-01,-9.399999999999990585e-01,-1.000000000000000000e+00,-1.000000000000000000e+00,-1.000000000000000000e+00,-9.299999999999990496e-01,9.100000000000034728e-01,-7.699999999999926903e-01,-1.000000000000000000e+00
-1.000000000000000000e+00,2.000000000000801137e-02,-1.000000000000000000e+00,9.300000000000043787e-01,1.000000000000027534e-01,1.700000000000028155e-01,-5.799999999999987388e-01,-7.999999999999829470e-02,-6.599999999999988098e-01,-1.000000000000000000e+00,-5.099999999999969003e-01,3.000000000000357936e-02,-1.000000000000000000e+00,-8.399999999999989697e-01,-1.000000000000000000e+00,3.500000000000029754e-01,-2.399999999999984368e-01,-2.099999999999966338e-01,-1.000000000000000000e+00,1.800000000000108180e-01,4.400000000000057199e-01,-1.000000000000000000e+00,9.500000000000070610e-01,-1.000000000000000000e+00,7.600000000000113332e-01,-1.000000000000000000e+00,3.500000000000047518e-01,3.000000000000357936e-02,-7.999999999999385381e-02,-5.999999999999738876e-02,1.600000000000090239e-01,-2.199999999999984190e-01,9.600000000000079581e-01,6.000000000000538236e-02,-1.000000000000000000e+00,1.500000000000045741e-01,-1.399999999999947953e-01,5.700000000000120526e-01,-1.000000000000000000e+00,1.800000000000019362e-01,2.100000000000046274e-01,-6.999999999999739764e-02,6.700000000000059242e-01,-1.000000000000000000e+00,-1.000000000000000000e+00,-1.000000000000000000e+00,-1.000000000000000000e+00,-1.000000000000000000e+00,-3.999999999999985789e-01,-3.999999999999204192e-02,3.100000000000047162e-01,-1.000000000000000000e+00,-3.099999999999878408e-01,-1.000000000000000000e+00,-3.499999999999985345e-01,2.400000000000028777e-01,-6.999999999999739764e-02,-4.699999999999986411e-01,-4.599999999999977440e-01,-1.599999999999930367e-01,-5.899999999999987477e-01,-5.699999999999951772e-01,-9.999999999999973355e-01,-6.199999999999952216e-01,-1.000000000000000000e+00,-1.000000000000000000e+00,-1.000000000000000000e+00,-1.000000000000000000e+00,8.900000000000087841e-01,5.700000000000102762e-01,-1.000000000000000000e+00,-6.999999999999988454e-01,-1.000000000000000000e+00,-1.000000000000000000e+00,-3.399999999999976374e-01,9.100000000000034728e-01,-4.999999999999915623e-01,-1.000000000000000000e+00
-1.000000000000000000e+00,-6.699999999999934897e-01,-1.000000000000000000e+00,6.400000000000041211e-01,1.000000000000027534e-01,1.700000000000028155e-01,-1.699999999999974865e-01,-1.000000000000000000e+00,-1.000000000000000000e+00,6.800000000000094857e-01,-2.799999999999958078e-01,-8.799999999999981171e-01,3.900000000000083400e-01,-2.799999999999949196e-01,-1.000000000000000000e+00,-1.000000000000000000e+00,-9.099999999999981437e-01,-2.099999999999966338e-01,-1.699999999999983746e-01,1.800000000000108180e-01,4.400000000000057199e-01,-1.000000000000000000e+00,5.100000000000057820e-01,-1.000000000000000000e+00,6.400000000000121148e-01,-8.599999999999980993e-01,5.800000000000058442e-01,-1.000000000000000000e+00,3.600000000000056488e-01,-5.999999999999738876e-02,1.600000000000090239e-01,-2.199999999999984190e-01,9.600000000000079581e-01,6.000000000000538236e-02,-1.000000000000000000e+00,1.500000000000045741e-01,-2.599999999999957900e-01,5.700000000000120526e-01,-1.000000000000000000e+00,1.800000000000019362e-01,-1.000000000000000000e+00,-6.999999999999739764e-02,6.700000000000059242e-01,-4.599999999999968558e-01,-1.000000000000000000e+00,-1.000000000000000000e+00,-1.000000000000000000e+00,-6.199999999999987743e-01,-3.999999999999985789e-01,-3.999999999999204192e-02,-7.999999999999474198e-02,-1.000000000000000000e+00,-3.099999999999878408e-01,-1.000000000000000000e+00,-3.499999999999985345e-01,-4.399999999999986144e-01,7.300000000000042011e-01,-5.299999999999969180e-01,-6.099999999999978773e-01,-1.599999999999930367e-01,1.000000000000027534e-01,-5.399999999999987033e-01,-4.999999999999737987e-02,-6.199999999999952216e-01,-1.000000000000000000e+00,-1.000000000000000000e+00,-1.000000000000000000e+00,-1.000000000000000000e+00,8.900000000000087841e-01,5.700000000000102762e-01,-2.299999999999984279e-01,-8.999999999999990230e-01,-1.000000000000000000e+00,-1.000000000000000000e+00,-7.699999999999989075e-01,9.100000000000034728e-01,-4.999999999999915623e-01,-1.000000000000000000e+00
-1.000000000000000000e+00,-6.699999999999934897e-01,-1.000000000000000000e+00,9.300000000000043787e-01,-9.999999999999653610e-02,-6.999999999999828582e-02,-1.699999999999974865e-01,-7.999999999999829470e-02,-1.000000000000000000e+00,-3.099999999999913936e-01,-1.999999999999468869e-02,6.200000000000032152e-01,-1.599999999999903721e-01,-7.999999999999829470e-02,-1.000000000000000000e+00,-1.000000000000000000e+00,-1.000000000000000000e+00,-7.999999999999962697e-01,-1.000000000000000000e+00,-9.999999999989350741e-03,4.400000000000057199e-01,-1.000000000000000000e+00,5.100000000000057820e-01,-1.000000000000000000e+00,7.600000000000113332e-01,-9.899999999999991029e-01,3.500000000000047518e-01,-1.799999999999983835e-01,3.600000000000056488e-01,-5.999999999999738876e-02,5.500000000000102585e-01,-4.999999999999649170e-02,5.000000000000084377e-01,6.000000000000538236e-02,-9.999999999999991118e-01,1.500000000000045741e-01,-2.599999999999957900e-01,8.900000000000132250e-01,-1.000000000000000000e+00,1.800000000000019362e-01,-1.000000000000000000e+00,-6.999999999999739764e-02,6.700000000000059242e-01,-4.599999999999968558e-01,-1.000000000000000000e+00,-1.000000000000000000e+00,-1.000000000000000000e+00,-2.499999999999975575e-01,-1.000000000000000000e+00,-3.999999999999204192e-02,3.100000000000047162e-01,-9.999999999999298339e-02,-3.099999999999878408e-01,-9.599999999999990763e-01,3.500000000000029754e-01,-1.000000000000000000e+00,-2.099999999999984102e-01,-5.299999999999969180e-01,-1.000000000000000000e+00,-1.599999999999930367e-01,-8.999999999999963585e-01,-1.000000000000000000e+00,-4.999999999999737987e-02,6.217248937900876626e-15,-1.000000000000000000e+00,-1.000000000000000000e+00,-1.000000000000000000e+00,-1.000000000000000000e+00,8.900000000000087841e-01,5.700000000000102762e-01,-1.000000000000000000e+00,-1.000000000000000000e+00,-1.000000000000000000e+00,-1.000000000000000000e+00,-7.699999999999989075e-01,9.100000000000034728e-01,-3.699999999999932232e-01,-1.000000000000000000e+00
-1.000000000000000000e+00,-6.699999999999934897e-01,-1.000000000000000000e+00,9.300000000000043787e-01,1.000000000000027534e-01,-6.999999999999828582e-02,6.000000000000040856e-01,-1.000000000000000000e+00,-1.000000000000000000e+00,-3.099999999999922817e-01,-2.799999999999958078e-01,6.200000000000032152e-01,1.000000000000889067e-02,-7.999999999999980460e-01,-1.000000000000000000e+00,-1.000000000000000000e+00,-9.099999999999981437e-01,-2.099999999999966338e-01,-1.000000000000000000e+00,1.800000000000108180e-01,4.400000000000057199e-01,-1.000000000000000000e+00,5.100000000000057820e-01,-1.000000000000000000e+00,6.400000000000121148e-01,-9.899999999999982148e-01,3.500000000000047518e-01,-1.000000000000000000e+00,3.600000000000056488e-01,-5.999999999999738876e-02,1.600000000000090239e-01,-3.899999999999976819e-01,9.600000000000079581e-01,6.000000000000538236e-02,-1.000000000000000000e+00,1.500000000000045741e-01,-2.599999999999957900e-01,7.900000000000140243e-01,-1.000000000000000000e+00,1.800000000000019362e-01,-1.000000000000000000e+00,-6.199999999999987743e-01,6.700000000000059242e-01,-4.599999999999968558e-01,-1.000000000000000000e+00,-1.000000000000000000e+00,-1.000000000000000000e+00,-2.499999999999975575e-01,-1.000000000000000000e+00,-2.599999999999931255e-01,-2.199999999999939782e-01,-9.999999999999298339e-02,-3.099999999999878408e-01,-1.000000000000000000e+00,-3.499999999999985345e-01,2.400000000000028777e-01,-1.000000000000000000e+00,5.200000000000031264e-01,-1.000000000000000000e+00,-1.599999999999930367e-01,-8.999999999999963585e-01,-1.000000000000000000e+00,-4.999999999999737987e-02,-6.199999999999952216e-01,-1.000000000000000000e+00,-1.000000000000000000e+00,-1.000000000000000000e+00,-1.000000000000000000e+00,8.900000000000087841e-01,5.700000000000102762e-01,-1.000000000000000000e+00,-8.999999999999990230e-01,-8.999999999999990230e-01,-1.000000000000000000e+00,-7.699999999999989075e-01,9.100000000000034728e-01,-3.999999999999968026e-01,-1.000000000000000000e+00
-1.000000000000000000e+00,-1.999999999999921840e-01,-7.999999999999989342e-01,3.000000000000446754e-02,1.000000000000027534e-01,-3.099999999999967226e-01,-9.699999999999981970e-01,7.200000000000033040e-01,-6.599999999999988098e-01,-3.099999999999922817e-01,-6.099999999999943245e-01,6.200000000000032152e-01,1.000000000000889067e-02,-1.000000000000000000e+00,-1.000000000000000000e+00,3.500000000000029754e-01,4.800000000000030909e-01,-1.000000000000000000e+00,-1.699999999999983746e-01,1.800000000000108180e-01,4.400000000000057199e-01,-1.000000000000000000e+00,5.100000000000057820e-01,-1.000000000000000000e+00,6.400000000000121148e-01,-1.000000000000000000e+00,3.500000000000047518e-01,-1.799999999999983835e-01,3.100000000000064926e-01,-5.999999999999738876e-02,1.600000000000090239e-01,-2.199999999999984190e-01,9.600000000000079581e-01,6.000000000000538236e-02,-1.000000000000000000e+00,1.500000000000045741e-01,-2.999999999999949374e-01,5.700000000000120526e-01,-1.000000000000000000e+00,1.800000000000019362e-01,-1.000000000000000000e+00,-6.999999999999739764e-02,6.700000000000059242e-01,-4.599999999999968558e-01,-1.000000000000000000e+00,-1.000000000000000000e+00,-1.000000000000000000e+00,-1.000000000000000000e+00,-3.999999999999985789e-01,-3.999999999999204192e-02,-7.999999999999474198e-02,-1.000000000000000000e+00,-3.099999999999878408e-01,-1.000000000000000000e+00,-3.499999999999985345e-01,-4.399999999999986144e-01,-1.000000000000000000e+00,-4.699999999999986411e-01,-6.099999999999978773e-01,-1.599999999999930367e-01,-8.999999999999963585e-01,-1.000000000000000000e+00,-4.999999999999737987e-02,-6.199999999999952216e-01,-1.000000000000000000e+00,-1.000000000000000000e+00,-1.000000000000000000e+00,-6.999999999999988454e-01,7.700000000000086775e-01,5.700000000000102762e-01,-9.399999999999990585e-01,-1.000000000000000000e+00,-1.000000000000000000e+00,-1.000000000000000000e+00,-3.399999999999976374e-01,9.100000000000034728e-01,-4.999999999999915623e-01,-1.000000000000000000e+00
-1.000000000000000000e+00,-6.699999999999934897e-01,-1.000000000000000000e+00,-1.000000000000000000e+00,1.000000000000027534e-01,-6.999999999999828582e-02,-1.699999999999974865e-01,7.000000000000032863e-01,-1.000000000000000000e+00,-1.000000000000000000e+00,-9.799999999999946532e-01,6.200000000000032152e-01,6.400000000000103384e-01,-7.999999999999829470e-02,-1.000000000000000000e+00,-1.000000000000000000e+00,-2.799999999999966960e-01,-2.999999999999949374e-01,6.200000000000049916e-01,-9.999999999989350741e-03,4.400000000000057199e-01,-1.000000000000000000e+00,5.100000000000057820e-01,-1.000000000000000000e+00,2.500000000000108802e-01,-9.899999999999991029e-01,3.500000000000047518e-01,3.000000000000357936e-02,3.100000000000064926e-01,-5.999999999999738876e-02,1.600000000000090239e-01,-4.399999999999977263e-01,9.600000000000079581e-01,6.000000000000538236e-02,-8.999999999999990230e-01,-4.399999999999941735e-01,-2.599999999999957900e-01,5.700000000000120526e-01,-1.000000000000000000e+00,1.100000000000027622e-01,-1.000000000000000000e+00,-6.199999999999987743e-01,6.700000000000059242e-01,-4.599999999999968558e-01,-1.000000000000000000e+00,-1.000000000000000000e+00,-1.000000000000000000e+00,-2.499999999999975575e-01,-1.000000000000000000e+00,8.700000000000096545e-01,3.100000000000047162e-01,-9.999999999999298339e-02,-3.099999999999878408e-01,-1.000000000000000000e+00,3.500000000000029754e-01,-4.599999999999986322e-01,-1.000000000000000000e+00,-4.699999999999986411e-01,-3.799999999999985612e-01,-1.599999999999930367e-01,-8.999999999999963585e-01,-1.000000000000000000e+00,-4.999999999999737987e-02,-6.199999999999952216e-01,7.900000000000033662e-01,-1.000000000000000000e+00,-1.000000000000000000e+00,-1.000000000000000000e+00,8.900000000000087841e-01,5.700000000000102762e-01,-9.899999999999982148e-01,-1.000000000000000000e+00,-1.000000000000000000e+00,-1.000000000000000000e+00,-1.000000000000000000e+00,9.100000000000034728e-01,-3.699999999999932232e-01,-1.000000000000000000e+00
-1.000000000000000000e+00,-6.699999999999934897e-01,-1.000000000000000000e+00,9.300000000000043787e-01,1.000000000000027534e-01,9.300000000000043787e-01,-1.699999999999974865e-01,7.000000000000032863e-01,-1.000000000000000000e+00,-4.399999999999915090e-01,1.900000000000046096e-01,6.200000000000032152e-01,6.200000000000112088e-01,-7.999999999999980460e-01,-1.000000000000000000e+00,-1.000000000000000000e+00,-1.000000000000000000e+00,-2.099999999999966338e-01,-1.000000000000000000e+00,4.000000000000119016e-01,4.400000000000057199e-01,-1.000000000000000000e+00,5.100000000000057820e-01,-1.000000000000000000e+00,7.600000000000113332e-01,-9.899999999999991029e-01,3.500000000000047518e-01,-1.799999999999983835e-01,3.600000000000056488e-01,-5.999999999999738876e-02,1.600000000000090239e-01,-2.199999999999984190e-01,9.600000000000079581e-01,6.000000000000538236e-02,-9.999999999999991118e-01,-2.499999999999940048e-01,-2.599999999999957900e-01,5.700000000000120526e-01,-1.000000000000000000e+00,1.800000000000019362e-01,-7.499999999999988898e-01,-6.999999999999739764e-02,6.700000000000059242e-01,-4.599999999999968558e-01,-1.000000000000000000e+00,-1.000000000000000000e+00,-1.000000000000000000e+00,-2.499999999999966693e-01,-1.000000000000000000e+00,-3.999999999999204192e-02,3.100000000000047162e-01,3.100000000000082689e-01,-3.099999999999878408e-01,-1.000000000000000000e+00,-1.000000000000000000e+00,-4.599999999999986322e-01,-8.099999999999971667e-01,-4.699999999999986411e-01,4.200000000000030376e-01,-1.599999999999930367e-01,-8.999999999999963585e-01,-1.000000000000000000e+00,-4.999999999999737987e-02,-6.199999999999952216e-01,-1.000000000000000000e+00,-1.000000000000000000e+00,-1.000000000000000000e+00,-1.000000000000000000e+00,8.900000000000087841e-01,5.700000000000102762e-01,-1.000000000000000000e+00,-1.000000000000000000e+00,-1.000000000000000000e+00,-1.799999999999983835e-01,-7.699999999999989075e-01,9.100000000000034728e-01,-3.699999999999932232e-01,-1.000000000000000000e+00
-1.000000000000000000e+00,-6.699999999999934897e-01,-1.000000000000000000e+00,9.300000000000043787e-01,1.000000000000027534e-01,9.800000000000044231e-01,-9.699999999999981970e-01,7.000000000000032863e-01,-6.599999999999988098e-01,-3.099999999999922817e-01,-5.099999999999969003e-01,3.000000000000357936e-02,1.000000000000889067e-02,-1.000000000000000000e+00,-1.000000000000000000e+00,3.500000000000029754e-01,-7.099999999999961897e-01,6.100000000000049827e-01,-4.199999999999985967e-01,1.800000000000108180e-01,4.400000000000057199e-01,-1.000000000000000000e+00,5.100000000000057820e-01,-1.000000000000000000e+00,6.400000000000121148e-01,-1.000000000000000000e+00,5.800000000000058442e-01,3.000000000000357936e-02,3.100000000000064926e-01,-1.499999999999965805e-01,1.600000000000090239e-01,4.200000000000030376e-01,9.600000000000079581e-01,6.000000000000538236e-02,-1.000000000000000000e+00,-1.000000000000000000e+00,-2.999999999999949374e-01,-4.199999999999879385e-01,-1.000000000000000000e+00,1.800000000000019362e-01,-1.000000000000000000e+00,-6.999999999999739764e-02,6.700000000000059242e-01,-4.599999999999968558e-01,-1.000000000000000000e+00,-1.000000000000000000e+00,-1.000000000000000000e+00,-1.000000000000000000e+00,-3.999999999999985789e-01,-7.599999999999917932e-01,-2.299999999999939870e-01,-9.999999999999298339e-02,-2.699999999999869171e-01,-1.000000000000000000e+00,-3.499999999999985345e-01,2.400000000000028777e-01,-6.999999999999739764e-02,-4.699999999999986411e-01,-1.000000000000000000e+00,-1.599999999999930367e-01,-5.899999999999987477e-01,-5.399999999999987033e-01,-4.999999999999737987e-02,-6.199999999999952216e-01,-1.799999999999948308e-01,-1.000000000000000000e+00,-1.000000000000000000e+00,-1.000000000000000000e+00,8.900000000000087841e-01,5.700000000000102762e-01,-1.000000000000000000e+00,-8.999999999999990230e-01,-1.000000000000000000e+00,-1.000000000000000000e+00,-3.399999999999976374e-01,9.100000000000034728e-01,-4.999999999999915623e-01,-1.000000000000000000e+00
-1.000000000000000000e+00,-6.699999999999934897e-01,-7.999999999999989342e-01,6.400000000000041211e-01,1.000000000000027534e-01,1.700000000000028155e-01,-1.699999999999974865e-01,-7.999999999999829470e-02,-1.000000000000000000e+00,-3.099999999999922817e-01,-2.799999999999958078e-01,-8.799999999999981171e-01,1.000000000000889067e-02,-2.799999999999949196e-01,-1.000000000000000000e+00,-1.000000000000000000e+00,4.800000000000030909e-01,-1.000000000000000000e+00,-4.199999999999985967e-01,1.800000000000108180e-01,-4.099999999999941469e-01,-1.000000000000000000e+00,-1.000000000000000000e+00,-1.000000000000000000e+00,6.400000000000121148e-01,-1.000000000000000000e+00,5.800000000000058442e-01,-1.000000000000000000e+00,3.600000000000056488e-01,-5.999999999999738876e-02,1.600000000000090239e-01,1.700000000000037037e-01,9.600000000000079581e-01,6.000000000000538236e-02,-1.000000000000000000e+00,1.500000000000045741e-01,-1.399999999999947953e-01,5.700000000000120526e-01,-1.000000000000000000e+00,1.800000000000019362e-01,-1.000000000000000000e+00,-1.000000000000000000e+00,-1.000000000000000000e+00,-4.599999999999968558e-01,-1.000000000000000000e+00,-1.000000000000000000e+00,-1.000000000000000000e+00,-6.199999999999987743e-01,-3.999999999999985789e-01,-3.999999999999204192e-02,-7.999999999999474198e-02,-1.000000000000000000e+00,-3.099999999999878408e-01,-1.000000000000000000e+00,-3.499999999999985345e-01,8.100000000000042721e-01,-6.999999999999739764e-02,-5.299999999999969180e-01,-6.099999999999978773e-01,-1.599999999999930367e-01,-5.899999999999987477e-01,-1.000000000000000000e+00,-4.999999999999737987e-02,-6.199999999999952216e-01,-2.499999999999984457e-01,-4.299999999999986056e-01,-1.000000000000000000e+00,-1.000000000000000000e+00,8.900000000000087841e-01,5.700000000000102762e-01,-1.000000000000000000e+00,-8.999999999999990230e-01,-1.000000000000000000e+00,-1.000000000000000000e+00,-3.399999999999976374e-01,9.100000000000034728e-01,-4.999999999999915623e-01,-1.000000000000000000e+00
-5.999999999999827693e-02,-6.699999999999934897e-01,-1.000000000000000000e+00,8.600000000000052047e-01,1.000000000000027534e-01,1.700000000000028155e-01,-6.199999999999987743e-01,-7.999999999999829470e-02,-1.000000000000000000e+00,-3.099999999999913936e-01,1.900000000000046096e-01,6.200000000000032152e-01,1.000000000000889067e-02,-7.999999999999980460e-01,-1.000000000000000000e+00,-1.000000000000000000e+00,-1.000000000000000000e+00,-2.099999999999966338e-01,-1.000000000000000000e+00,-9.999999999989350741e-03,4.400000000000057199e-01,-1.000000000000000000e+00,9.500000000000070610e-01,-1.000000000000000000e+00,7.600000000000113332e-01,-9.899999999999991029e-01,3.500000000000047518e-01,-8.699999999999981082e-01,3.600000000000056488e-01,-5.999999999999738876e-02,1.600000000000090239e-01,-3.899999999999976819e-01,9.600000000000079581e-01,6.000000000000538236e-02,-1.000000000000000000e+00,1.500000000000045741e-01,-2.599999999999957900e-01,5.700000000000120526e-01,-1.000000000000000000e+00,1.800000000000019362e-01,-1.000000000000000000e+00,-6.999999999999739764e-02,6.700000000000059242e-01,-1.000000000000000000e+00,-1.000000000000000000e+00,-1.000000000000000000e+00,-1.000000000000000000e+00,-1.000000000000000000e+00,-1.000000000000000000e+00,-2.599999999999931255e-01,3.100000000000047162e-01,-1.000000000000000000e+00,-3.899999999999870237e-01,-1.000000000000000000e+00,-3.499999999999985345e-01,-4.599999999999986322e-01,-6.999999999999739764e-02,-5.299999999999969180e-01,2.800000000000038014e-01,8.000000000000806466e-02,-8.999999999999963585e-01,-1.000000000000000000e+00,-4.999999999999737987e-02,-6.199999999999952216e-01,-1.000000000000000000e+00,-1.000000000000000000e+00,-8.999999999999990230e-01,-1.000000000000000000e+00,8.900000000000087841e-01,5.700000000000102762e-01,-1.000000000000000000e+00,-1.000000000000000000e+00,-1.000000000000000000e+00,-1.000000000000000000e+00,-1.000000000000000000e+00,9.100000000000034728e-01,-3.999999999999968026e-01,-1.000000000000000000e+00
-1.000000000000000000e+00,-6.699999999999934897e-01,-1.000000000000000000e+00,9.300000000000043787e-01,1.000000000000027534e-01,5.200000000000031264e-01,-6.199999999999987743e-01,-7.999999999999829470e-02,-1.000000000000000000e+00,-1.999999999999904077e-01,1.900000000000046096e-01,6.200000000000032152e-01,-1.599999999999903721e-01,-7.999999999999829470e-02,-1.000000000000000000e+00,-1.000000000000000000e+00,-1.000000000000000000e+00,-2.099999999999966338e-01,-1.000000000000000000e+00,-9.999999999989350741e-03,4.400000000000057199e-01,-1.000000000000000000e+00,5.100000000000057820e-01,-1.000000000000000000e+00,7.600000000000113332e-01,-9.899999999999991029e-01,3.500000000000047518e-01,-1.799999999999983835e-01,3.600000000000056488e-01,-5.999999999999738876e-02,1.600000000000090239e-01,-3.899999999999976819e-01,9.600000000000079581e-01,6.000000000000538236e-02,-1.000000000000000000e+00,-3.999999999999470646e-02,-2.599999999999957900e-01,8.900000000000132250e-01,-1.000000000000000000e+00,1.100000000000027622e-01,-1.000000000000000000e+00,-6.999999999999739764e-02,-1.599999999999939249e-01,-4.599999999999968558e-01,-1.000000000000000000e+00,-1.000000000000000000e+00,-1.000000000000000000e+00,-2.499999999999975575e-01,-1.000000000000000000e+00,-2.599999999999931255e-01,-7.999999999999474198e-02,3.700000000000083222e-01,-3.099999999999878408e-01,-1.000000000000000000e+00,3.500000000000029754e-01,-1.000000000000000000e+00,-2.099999999999984102e-01,-5.299999999999969180e-01,-5.199999999999977973e-01,-1.599999999999930367e-01,-8.999999999999963585e-01,-7.799999999999989164e-01,-4.999999999999737987e-02,-6.199999999999952216e-01,-1.000000000000000000e+00,-1.000000000000000000e+00,-1.000000000000000000e+00,-1.000000000000000000e+00,8.900000000000087841e-01,5.700000000000102762e-01,-1.000000000000000000e+00,-1.000000000000000000e+00,-1.000000000000000000e+00,-1.000000000000000000e+00,-7.699999999999989075e-01,9.100000000000034728e-01,-3.999999999999968026e-01,-1.000000000000000000e+00
-1.000000000000000000e+00,-6.699999999999934897e-01,-1.000000000000000000e+00,9.300000000000043787e-01,1.000000000000027534e-01,-6.999999999999828582e-02,-6.199999999999987743e-01,-7.999999999999829470e-02,-1.000000000000000000e+00,-3.099999999999913936e-01,-1.999999999999468869e-02,6.200000000000032152e-01,1.000000000000889067e-02,-7.999999999999980460e-01,-1.000000000000000000e+00,-1.000000000000000000e+00,4.800000000000030909e-01,-1.000000000000000000e+00,-1.000000000000000000e+00,1.800000000000108180e-01,4.400000000000057199e-01,-1.000000000000000000e+00,5.100000000000057820e-01,-1.000000000000000000e+00,7.600000000000113332e-01,-8.599999999999980993e-01,3.500000000000047518e-01,-8.699999999999981082e-01,3.600000000000056488e-01,-5.999999999999738876e-02,1.600000000000090239e-01,-3.899999999999976819e-01,9.600000000000079581e-01,6.000000000000538236e-02,-1.000000000000000000e+00,1.500000000000045741e-01,-2.599999999999957900e-01,7.000000000000130562e-01,-1.000000000000000000e+00,1.800000000000019362e-01,-1.000000000000000000e+00,-6.999999999999739764e-02,6.700000000000059242e-01,-4.599999999999968558e-01,-1.000000000000000000e+00,-1.000000000000000000e+00,-1.000000000000000000e+00,-2.499999999999975575e-01,-3.999999999999985789e-01,-3.999999999999204192e-02,-7.999999999999474198e-02,-1.000000000000000000e+00,-3.099999999999878408e-01,-1.000000000000000000e+00,3.500000000000029754e-01,-4.399999999999986144e-01,-1.000000000000000000e+00,-5.299999999999969180e-01,-6.099999999999978773e-01,-1.599999999999930367e-01,-8.999999999999963585e-01,-1.000000000000000000e+00,-4.999999999999737987e-02,-1.000000000000000000e+00,-1.000000000000000000e+00,-1.000000000000000000e+00,-1.000000000000000000e+00,-1.000000000000000000e+00,8.900000000000087841e-01,5.700000000000102762e-01,-1.000000000000000000e+00,-1.000000000000000000e+00,-3.399999999999985256e-01,-1.000000000000000000e+00,-7.699999999999989075e-01,9.100000000000034728e-01,-4.999999999999915623e-01,-1.000000000000000000e+00
-1.000000000000000000e+00,-6.699999999999934897e-01,-1.000000000000000000e+00,9.300000000000043787e-01,1.000000000000027534e-01,1.700000000000028155e-01,-5.799999999999987388e-01,-2.999999999999976019e-01,-6.599999999999988098e-01,-3.099999999999922817e-01,-6.099999999999952127e-01,-2.999999999999825029e-02,3.900000000000083400e-01,-7.999999999999980460e-01,-1.000000000000000000e+00,-1.000000000000000000e+00,-1.000000000000000000e+00,-2.099999999999966338e-01,-1.000000000000000000e+00,1.800000000000108180e-01,4.400000000000057199e-01,-1.000000000000000000e+00,5.100000000000057820e-01,-1.000000000000000000e+00,7.600000000000113332e-01,-1.000000000000000000e+00,3.500000000000047518e-01,-8.699999999999981082e-01,3.600000000000056488e-01,-5.999999999999738876e-02,1.600000000000090239e-01,-2.199999999999984190e-01,9.600000000000079581e-01,6.000000000000538236e-02,6.900000000000086064e-01,1.400000000000054534e-01,5.000000000000066613e-01,5.700000000000120526e-01,-2.599999999999984546e-01,1.800000000000019362e-01,-7.499999999999988898e-01,-6.999999999999739764e-02,-1.000000000000000000e+00,-7.699999999999962430e-01,-1.000000000000000000e+00,-1.000000000000000000e+00,-1.000000000000000000e+00,-1.000000000000000000e+00,-1.000000000000000000e+00,-3.999999999999204192e-02,-7.999999999999474198e-02,-9.999999999999298339e-02,-3.099999999999878408e-01,-1.000000000000000000e+00,-3.499999999999985345e-01,-4.599999999999986322e-01,-6.999999999999739764e-02,-4.699999999999986411e-01,-4.599999999999977440e-01,-1.599999999999930367e-01,-1.000000000000000000e+00,-1.000000000000000000e+00,-4.999999999999737987e-02,-6.199999999999952216e-01,-1.000000000000000000e+00,-1.000000000000000000e+00,-1.000000000000000000e+00,-1.000000000000000000e+00,8.900000000000087841e-01,5.700000000000102762e-01,-1.000000000000000000e+00,-6.999999999999988454e-01,-1.000000000000000000e+00,-1.000000000000000000e+00,-1.000000000000000000e+00,9.100000000000034728e-01,-4.999999999999915623e-01,-1.000000000000000000e+00
-1.000000000000000000e+00,-6.699999999999934897e-01,-1.000000000000000000e+00,9.300000000000043787e-01,-1.000000000000000000e+00,-6.999999999999828582e-02,-6.199999999999987743e-01,-7.999999999999829470e-02,-5.099999999999986766e-01,-6.499999999999916955e-01,-1.999999999999468869e-02,6.200000000000032152e-01,1.000000000000889067e-02,-7.999999999999980460e-01,-1.000000000000000000e+00,3.500000000000029754e-01,4.800000000000030909e-01,-2.099999999999966338e-01,-1.000000000000000000e+00,-7.999999999998941291e-02,4.400000000000057199e-01,-1.000000000000000000e+00,-7.999999999999385381e-02,-1.000000000000000000e+00,6.300000000000103295e-01,-9.899999999999991029e-01,3.500000000000047518e-01,-1.799999999999983835e-01,3.600000000000056488e-01,-5.999999999999738876e-02,1.600000000000090239e-01,-3.899999999999976819e-01,9.600000000000079581e-01,6.000000000000538236e-02,-1.000000000000000000e+00,-3.999999999999470646e-02,-2.599999999999957900e-01,8.900000000000132250e-01,-1.000000000000000000e+00,1.800000000000019362e-01,-1.899999999999983924e-01,-6.199999999999987743e-01,-1.000000000000000000e+00,-1.000000000000000000e+00,-1.000000000000000000e+00,-1.000000000000000000e+00,-1.000000000000000000e+00,-1.000000000000000000e+00,-1.000000000000000000e+00,-2.599999999999931255e-01,1.800000000000090417e-01,-3.699999999999923350e-01,-3.099999999999878408e-01,-1.000000000000000000e+00,3.500000000000029754e-01,-1.000000000000000000e+00,-1.000000000000000000e+00,-5.299999999999969180e-01,-7.999999999999980460e-01,-1.599999999999930367e-01,-7.799999999999989164e-01,-5.699999999999951772e-01,-4.999999999999737987e-02,-6.199999999999952216e-01,-1.000000000000000000e+00,-1.000000000000000000e+00,-1.000000000000000000e+00,-1.000000000000000000e+00,9.000000000000079048e-01,5.700000000000102762e-01,-9.399999999999990585e-01,-1.000000000000000000e+00,-1.000000000000000000e+00,-1.000000000000000000e+00,-7.699999999999989075e-01,9.100000000000034728e-01,-3.699999999999932232e-01,-1.000000000000000000e+00
-1.000000000000000000e+00,-6.699999999999934897e-01,-1.000000000000000000e+00,6.400000000000041211e-01,1.000000000000027534e-01,1.700000000000028155e-01,-1.699999999999974865e-01,-1.000000000000000000e+00,-1.000000000000000000e+00,-3.099999999999913936e-01,-1.999999999999468869e-02,-6.599999999999970335e-01,3.900000000000083400e-01,-2.799999999999949196e-01,-1.000000000000000000e+00,-1.000000000000000000e+00,-9.099999999999981437e-01,-2.099999999999966338e-01,-4.199999999999985967e-01,-9.999999999989350741e-03,4.400000000000057199e-01,-1.000000000000000000e+00,5.100000000000057820e-01,-7.499999999999988898e-01,7.600000000000113332e-01,-9.899999999999991029e-01,-9.999999999993791633e-03,-1.000000000000000000e+00,3.600000000000056488e-01,-5.999999999999738876e-02,1.600000000000090239e-01,-3.899999999999976819e-01,9.600000000000079581e-01,6.000000000000538236e-02,6.900000000000086064e-01,1.500000000000045741e-01,-2.599999999999957900e-01,8.900000000000132250e-01,-1.000000000000000000e+00,1.800000000000019362e-01,-2.999999999999984901e-01,-6.999999999999739764e-02,6.700000000000059242e-01,-4.599999999999968558e-01,-1.000000000000000000e+00,-1.000000000000000000e+00,-1.000000000000000000e+00,-1.299999999999974509e-01,-1.000000000000000000e+00,-2.599999999999931255e-01,-7.999999999999474198e-02,-9.999999999999298339e-02,-3.099999999999878408e-01,-1.000000000000000000e+00,-3.499999999999985345e-01,2.400000000000028777e-01,-1.000000000000000000e+00,5.200000000000031264e-01,-5.199999999999977973e-01,-1.599999999999930367e-01,-5.899999999999987477e-01,-1.000000000000000000e+00,-4.999999999999737987e-02,-6.199999999999952216e-01,-1.000000000000000000e+00,-1.000000000000000000e+00,-1.000000000000000000e+00,-1.000000000000000000e+00,8.900000000000087841e-01,5.700000000000102762e-01,-9.399999999999990585e-01,-1.000000000000000000e+00,-7.499999999999988898e-01,-1.000000000000000000e+00,-3.399999999999976374e-01,9.100000000000034728e-01,-4.999999999999915623e-01,-1.000000000000000000e+00
-1.000000000000000000e+00,-6.699999999999934897e-01,-1.000000000000000000e+00,-1.000000000000000000e+00,6.200000000000041034e-01,1.700000000000028155e-01,-1.699999999999974865e-01,-8.599999999999972111e-01,-1.000000000000000000e+00,-3.099999999999922817e-01,1.900000000000046096e-01,-2.999999999999825029e-02,-1.000000000000000000e+00,-2.799999999999949196e-01,-1.000000000000000000e+00,3.500000000000029754e-01,-1.000000000000000000e+00,-2.099999999999966338e-01,-1.000000000000000000e+00,1.800000000000108180e-01,-1.000000000000000000e+00,-1.000000000000000000e+00,5.100000000000057820e-01,-1.000000000000000000e+00,7.600000000000113332e-01,-1.000000000000000000e+00,3.500000000000047518e-01,-1.799999999999983835e-01,3.100000000000064926e-01,-5.999999999999738876e-02,1.600000000000090239e-01,-3.499999999999976463e-01,9.600000000000079581e-01,6.000000000000538236e-02,6.900000000000086064e-01,-3.999999999999470646e-02,-2.599999999999957900e-01,-1.000000000000000000e+00,-1.000000000000000000e+00,1.800000000000019362e-01,-2.599999999999975664e-01,-6.199999999999987743e-01,-1.000000000000000000e+00,-1.000000000000000000e+00,-1.000000000000000000e+00,-1.000000000000000000e+00,-1.000000000000000000e+00,-1.000000000000000000e+00,-1.000000000000000000e+00,-7.499999999999917843e-01,4.400000000000101608e-01,-9.999999999999298339e-02,-3.099999999999878408e-01,-1.000000000000000000e+00,-3.499999999999985345e-01,-1.000000000000000000e+00,-1.000000000000000000e+00,-4.699999999999986411e-01,-7.999999999999980460e-01,-1.599999999999930367e-01,-8.999999999999963585e-01,-1.000000000000000000e+00,-4.999999999999737987e-02,5.000000000000537348e-02,-1.000000000000000000e+00,-3.999999999999985789e-01,-1.000000000000000000e+00,-1.000000000000000000e+00,8.900000000000087841e-01,5.700000000000102762e-01,-1.000000000000000000e+00,-1.000000000000000000e+00,-1.000000000000000000e+00,-1.000000000000000000e+00,-9.299999999999990496e-01,9.100000000000034728e-01,-3.999999999999968026e-01,-1.000000000000000000e+00
-1.000000000000000000e+00,-6.699999999999934897e-01,-1.000000000000000000e+00,-1.000000000000000000e+00,1.000000000000027534e-01,-6.999999999999828582e-02,-6.199999999999987743e-01,-1.000000000000000000e+00,-1.000000000000000000e+00,-3.099999999999922817e-01,-1.999999999999468869e-02,6.200000000000032152e-01,4.000000000000092371e-01,-2.799999999999949196e-01,-1.000000000000000000e+00,-1.000000000000000000e+00,-2.799999999999966960e-01,-2.099999999999966338e-01,6.200000000000049916e-01,-9.999999999989350741e-03,4.400000000000057199e-01,-1.000000000000000000e+00,9.900000000000070965e-01,-1.000000000000000000e+00,6.400000000000121148e-01,-1.000000000000000000e+00,3.500000000000047518e-01,-1.000000000000000000e+00,3.100000000000064926e-01,-5.999999999999738876e-02,8.600000000000105338e-01,-4.399999999999977263e-01,9.600000000000079581e-01,6.000000000000538236e-02,6.900000000000086064e-01,1.500000000000045741e-01,-1.399999999999947953e-01,5.700000000000120526e-01,-1.000000000000000000e+00,1.800000000000019362e-01,-1.000000000000000000e+00,-6.999999999999739764e-02,-1.000000000000000000e+00,-6.399999999999961275e-01,-1.000000000000000000e+00,-1.000000000000000000e+00,-1.000000000000000000e+00,-6.199999999999987743e-01,-1.000000000000000000e+00,-3.999999999999204192e-02,2.500000000000064393e-01,-9.999999999999298339e-02,-3.099999999999878408e-01,-1.000000000000000000e+00,-3.499999999999985345e-01,2.400000000000028777e-01,-6.999999999999739764e-02,-4.699999999999986411e-01,-3.799999999999985612e-01,-1.599999999999930367e-01,-5.899999999999987477e-01,-5.899999999999978595e-01,-4.999999999999737987e-02,-6.199999999999952216e-01,-9.999999999998232525e-03,4.000000000000270006e-02,-1.000000000000000000e+00,-1.000000000000000000e+00,9.000000000000079048e-01,5.700000000000102762e-01,-9.899999999999982148e-01,-1.000000000000000000e+00,-1.000000000000000000e+00,-1.000000000000000000e+00,-9.299999999999990496e-01,9.100000000000034728e-01,-4.999999999999915623e-01,-1.000000000000000000e+00
-1.000000000000000000e+00,8.000000000000806466e-02,-1.799999999999983835e-01,9.300000000000043787e-01,1.000000000000027534e-01,6.500000000000041300e-01,-9.699999999999981970e-01,-1.000000000000000000e+00,-6.599999999999988098e-01,5.900000000000094058e-01,1.900000000000046096e-01,-2.999999999999825029e-02,1.000000000000889067e-02,-7.999999999999980460e-01,-1.000000000000000000e+00,-2.399999999999966604e-01,-2.799999999999966960e-01,-2.099999999999966338e-01,-1.000000000000000000e+00,1.800000000000108180e-01,4.400000000000057199e-01,-1.000000000000000000e+00,5.100000000000057820e-01,-1.000000000000000000e+00,7.600000000000113332e-01,-1.000000000000000000e+00,3.500000000000047518e-01,-1.799999999999983835e-01,3.100000000000064926e-01,-5.999999999999738876e-02,8.900000000000105604e-01,-2.199999999999984190e-01,9.600000000000079581e-01,6.000000000000538236e-02,-1.000000000000000000e+00,1.500000000000045741e-01,-2.599999999999957900e-01,5.700000000000120526e-01,-1.000000000000000000e+00,1.800000000000019362e-01,2.100000000000046274e-01,-6.199999999999987743e-01,-1.000000000000000000e+00,-1.899999999999957279e-01,-1.000000000000000000e+00,-1.000000000000000000e+00,-1.000000000000000000e+00,-9.199999999999990408e-01,-3.999999999999985789e-01,-3.999999999999204192e-02,-2.299999999999939870e-01,-1.299999999999921219e-01,-4.399999999999870681e-01,-1.000000000000000000e+00,-1.000000000000000000e+00,-4.599999999999986322e-01,-6.999999999999739764e-02,-4.699999999999986411e-01,2.200000000000028599e-01,-1.599999999999930367e-01,-5.899999999999987477e-01,-5.699999999999951772e-01,-4.999999999999737987e-02,-6.199999999999952216e-01,-1.000000000000000000e+00,-7.399999999999988809e-01,-1.000000000000000000e+00,-1.000000000000000000e+00,9.000000000000079048e-01,5.700000000000102762e-01,-1.000000000000000000e+00,-1.000000000000000000e+00,-1.000000000000000000e+00,-1.000000000000000000e+00,-1.000000000000000000e+00,9.100000000000034728e-01,-3.999999999999968026e-01,-1.000000000000000000e+00
-1.000000000000000000e+00,-6.699999999999934897e-01,-1.000000000000000000e+00,-1.000000000000000000e+00,1.000000000000027534e-01,1.700000000000028155e-01,-5.799999999999987388e-01,-7.999999999999829470e-02,-1.000000000000000000e+00,-1.000000000000000000e+00,1.900000000000046096e-01,-1.000000000000000000e+00,-1.000000000000000000e+00,-4.599999999999968558e-01,-1.000000000000000000e+00,-1.000000000000000000e+00,-3.899999999999959055e-01,-2.099999999999966338e-01,6.200000000000049916e-01,1.800000000000108180e-01,4.400000000000057199e-01,-1.000000000000000000e+00,9.500000000000070610e-01,-1.000000000000000000e+00,7.600000000000113332e-01,-1.000000000000000000e+00,3.500000000000047518e-01,-8.699999999999981082e-01,3.100000000000064926e-01,-9.399999999999972822e-01,-2.799999999999904787e-01,6.100000000000032063e-01,9.600000000000079581e-01,6.000000000000538236e-02,-1.000000000000000000e+00,7.100000000000068479e-01,-1.399999999999947953e-01,5.700000000000120526e-01,-1.000000000000000000e+00,1.800000000000019362e-01,2.100000000000046274e-01,-6.999999999999739764e-02,6.700000000000059242e-01,-9.899999999999991029e-01,-1.000000000000000000e+00,-8.999999999999830358e-02,-7.099999999999988542e-01,-2.499999999999975575e-01,-3.999999999999985789e-01,4.000000000000802913e-02,3.100000000000047162e-01,-9.999999999999298339e-02,-3.099999999999878408e-01,-1.000000000000000000e+00,-3.499999999999985345e-01,2.400000000000028777e-01,-6.999999999999739764e-02,-4.699999999999986411e-01,-3.799999999999985612e-01,-1.599999999999930367e-01,-8.999999999999963585e-01,-1.000000000000000000e+00,-4.999999999999737987e-02,-6.199999999999952216e-01,-9.999999999998232525e-03,-1.000000000000000000e+00,-1.000000000000000000e+00,-1.000000000000000000e+00,2.500000000000082157e-01,5.700000000000102762e-01,-9.899999999999982148e-01,-1.000000000000000000e+00,-1.000000000000000000e+00,-1.000000000000000000e+00,-9.299999999999990496e-01,9.100000000000034728e-01,-3.699999999999932232e-01,-1.000000000000000000e+00
-1.000000000000000000e+00,-6.699999999999934897e-01,-1.000000000000000000e+00,1.500000000000045741e-01,1.000000000000027534e-01,1.700000000000028155e-01,-5.799999999999987388e-01,-7.999999999999829470e-02,-1.000000000000000000e+00,-3.099999999999913936e-01,1.900000000000046096e-01,6.200000000000032152e-01,3.900000000000083400e-01,-7.999999999999980460e-01,-1.000000000000000000e+00,-1.000000000000000000e+00,-1.000000000000000000e+00,-2.099999999999966338e-01,-1.000000000000000000e+00,1.800000000000108180e-01,4.400000000000057199e-01,-6.599999999999988098e-01,9.500000000000070610e-01,-1.000000000000000000e+00,7.600000000000113332e-01,-1.000000000000000000e+00,3.500000000000047518e-01,-8.699999999999981082e-01,3.600000000000056488e-01,-5.999999999999738876e-02,1.600000000000090239e-01,-2.199999999999984190e-01,9.600000000000079581e-01,6.000000000000538236e-02,-1.000000000000000000e+00,-1.999999999999380051e-02,-2.599999999999957900e-01,5.700000000000120526e-01,-1.000000000000000000e+00,1.800000000000019362e-01,-1.000000000000000000e+00,-6.199999999999987743e-01,1.200000000000063238e-01,-1.000000000000000000e+00,-1.000000000000000000e+00,-1.000000000000000000e+00,-1.000000000000000000e+00,-1.000000000000000000e+00,-1.000000000000000000e+00,-3.999999999999204192e-02,-7.999999999999474198e-02,-9.999999999999298339e-02,-3.099999999999878408e-01,-1.000000000000000000e+00,3.500000000000029754e-01,-6.599999999999988098e-01,-1.000000000000000000e+00,-5.299999999999969180e-01,-5.199999999999977973e-01,-1.599999999999930367e-01,-1.000000000000000000e+00,-5.599999999999987210e-01,-4.999999999999737987e-02,-6.199999999999952216e-01,-1.000000000000000000e+00,-1.000000000000000000e+00,-1.000000000000000000e+00,-1.000000000000000000e+00,8.900000000000087841e-01,5.700000000000102762e-01,-1.000000000000000000e+00,-1.000000000000000000e+00,-7.299999999999988720e-01,-1.000000000000000000e+00,-7.699999999999989075e-01,9.100000000000034728e-01,5.300000000000049116e-01,-1.000000000000000000e+00
