-6.399999999999970157e-01,-9.599999999999964118e-01,-1.000000000000000000e+00,-1.000000000000000000e+00,-7.499999999999935607e-01,-3.999999999999648281e-02,-4.699999999999968647e-01,-1.000000000000000000e+00,-1.000000000000000000e+00,-5.099999999999960121e-01,-1.000000000000000000e+00,-1.000000000000000000e+00,-2.699999999999913580e-01,-4.299999999999977174e-01,-1.000000000000000000e+00,-8.999999999999936939e-01,-1.000000000000000000e+00,-1.000000000000000000e+00,-6.399999999999979039e-01,3.800000000000083311e-01,5.600000000000040501e-01,-5.099999999999986766e-01,7.300000000000042011e-01,-1.000000000000000000e+00,3.900000000000101164e-01,-1.000000000000000000e+00,3.600000000000038725e-01,-1.000000000000000000e+00,-9.999999999994679811e-03,-4.999999999999649170e-02,8.000000000000806466e-02,-1.000000000000000000e+00,9.000000000000052403e-01,5.900000000000058531e-01,-8.799999999999972289e-01,1.500000000000054623e-01,-5.599999999999978328e-01,5.600000000000093792e-01,-9.499999999999990674e-01,2.500000000000011102e-01,-4.899999999999986589e-01,-1.000000000000000000e+00,-1.000000000000000000e+00,-1.000000000000000000e+00,-4.199999999999968203e-01,-8.399999999999980815e-01,-9.399999999999990585e-01,-1.000000000000000000e+00,-7.999999999999962697e-01,3.300000000000056222e-01,-1.000000000000000000e+00,-4.199999999999959321e-01,-8.599999999999963229e-01,-6.899999999999979483e-01,-1.000000000000000000e+00,-1.000000000000000000e+00,-1.000000000000000000e+00,-1.000000000000000000e+00,-4.899999999999986589e-01,1.000000000000444977e-02,1.000000000000045297e-01,-1.000000000000000000e+00,-1.000000000000000000e+00,-9.999999999995567990e-03,3.400000000000056311e-01,-1.000000000000000000e+00,-8.099999999999989431e-01,-3.699999999999985523e-01,8.200000000000042810e-01,3.400000000000109601e-01,-3.199999999999985079e-01,4.400000000000039435e-01,-1.000000000000000000e+00,8.800000000000069988e-01,-6.199999999999987743e-01,9.700000000000026379e-01,-1.999999999999975131e-01,-4.999999999999560352e-02
-7.399999999999979927e-01,-3.899999999999967937e-01,-6.299999999999987832e-01,-1.000000000000000000e+00,-9.399999999999990585e-01,-3.999999999999648281e-02,-4.699999999999968647e-01,-1.000000000000000000e+00,-1.000000000000000000e+00,-5.099999999999960121e-01,-9.199999999999981526e-01,-1.000000000000000000e+00,6.000000000000715872e-02,-4.299999999999977174e-01,-1.000000000000000000e+00,-9.499999999999937383e-01,-1.000000000000000000e+00,-1.000000000000000000e+00,-6.399999999999979039e-01,3.800000000000083311e-01,5.600000000000040501e-01,-5.099999999999977884e-01,7.300000000000042011e-01,-9.999999999999991118e-01,6.000000000000085265e-01,-1.000000000000000000e+00,3.600000000000038725e-01,-1.000000000000000000e+00,-1.799999999999939426e-01,-4.999999999999649170e-02,8.000000000000806466e-02,-1.000000000000000000e+00,9.000000000000052403e-01,5.900000000000058531e-01,-2.999999999999736211e-02,1.500000000000045741e-01,-9.299999999999954969e-01,7.100000000000077360e-01,-1.000000000000000000e+00,2.500000000000011102e-01,-1.000000000000000000e+00,-2.999999999999736211e-02,-1.000000000000000000e+00,-8.799999999999981171e-01,-4.199999999999968203e-01,-4.999999999999986677e-01,-9.599999999999981881e-01,-1.000000000000000000e+00,-1.199999999999947775e-01,3.300000000000056222e-01,-9.699999999999990852e-01,-4.199999999999959321e-01,-4.799999999999950973e-01,-6.899999999999979483e-01,-1.000000000000000000e+00,-5.599999999999987210e-01,-7.899999999999989253e-01,-1.000000000000000000e+00,-6.999999999999739764e-02,1.500000000000054623e-01,-4.399999999999968381e-01,-1.000000000000000000e+00,-7.299999999999988720e-01,-5.399999999999969269e-01,7.000000000000627942e-02,-1.000000000000000000e+00,-8.099999999999989431e-01,-3.699999999999985523e-01,6.700000000000050360e-01,3.400000000000109601e-01,-3.199999999999976197e-01,4.400000000000039435e-01,-1.000000000000000000e+00,-6.399999999999952394e-01,-6.199999999999987743e-01,9.700000000000026379e-01,-1.999999999999975131e-01,-4.999999999999560352e-02
-7.399999999999979927e-01,2.000000000000445866e-02,-1.000000000000000000e+00,-5.199999999999977973e-01,3.700000000000092104e-01,-6.799999999999979394e-01,1.300000000000027800e-01,-1.000000000000000000e+00,-1.000000000000000000e+00,-5.099999999999960121e-01,-9.199999999999981526e-01,-1.000000000000000000e+00,5.300000000000084643e-01,-1.000000000000000000e+00,-1.000000000000000000e+00,-8.999999999999936939e-01,-1.000000000000000000e+00,-1.000000000000000000e+00,-1.000000000000000000e+00,3.800000000000083311e-01,5.600000000000040501e-01,-5.099999999999986766e-01,9.300000000000034905e-01,-1.000000000000000000e+00,6.000000000000085265e-01,-1.000000000000000000e+00,3.600000000000038725e-01,-7.099999999999988542e-01,4.200000000000065903e-01,-4.999999999999649170e-02,8.000000000000806466e-02,-1.000000000000000000e+00,9.000000000000052403e-01,1.700000000000045919e-01,-6.999999999999650946e-02,1.500000000000045741e-01,-2.599999999999957900e-01,7.100000000000077360e-01,-1.000000000000000000e+00,2.500000000000011102e-01,-9.799999999999990941e-01,-1.000000000000000000e+00,-1.000000000000000000e+00,-3.799999999999985612e-01,-7.299999999999979838e-01,-4.999999999999986677e-01,-9.599999999999981881e-01,-1.000000000000000000e+00,-1.000000000000000000e+00,-9.999999999999387157e-02,-7.199999999999935341e-01,-4.199999999999959321e-01,-8.599999999999963229e-01,-6.899999999999979483e-01,-1.000000000000000000e+00,-5.599999999999987210e-01,-7.899999999999989253e-01,2.300000000000055334e-01,-1.000000000000000000e+00,1.500000000000054623e-01,-4.399999999999968381e-01,-6.799999999999979394e-01,-1.000000000000000000e+00,-1.000000000000000000e+00,6.200000000000032152e-01,-1.000000000000000000e+00,-8.099999999999989431e-01,-1.000000000000000000e+00,8.200000000000042810e-01,-1.099999999999929923e-01,6.700000000000068123e-01,4.400000000000039435e-01,-1.000000000000000000e+00,2.800000000000055778e-01,-6.199999999999987743e-01,9.700000000000026379e-01,-1.999999999999975131e-01,8.800000000000043343e-01
-7.399999999999979927e-01,-9.599999999999964118e-01,-6.299999999999987832e-01,-4.399999999999986144e-01,-7.499999999999935607e-01,-3.999999999999648281e-02,1.300000000000027800e-01,-1.000000000000000000e+00,-1.000000000000000000e+00,-5.099999999999960121e-01,-1.000000000000000000e+00,-1.000000000000000000e+00,6.000000000000715872e-02,-4.299999999999977174e-01,-1.000000000000000000e+00,-8.999999999999936939e-01,-1.000000000000000000e+00,-5.599999999999987210e-01,-6.399999999999979039e-01,2.400000000000082068e-01,5.600000000000040501e-01,-5.099999999999977884e-01,9.300000000000034905e-01,-1.000000000000000000e+00,6.000000000000085265e-01,-1.000000000000000000e+00,3.600000000000038725e-01,-1.000000000000000000e+00,3.600000000000056488e-01,-5.999999999999738876e-02,8.000000000000806466e-02,-1.000000000000000000e+00,9.000000000000052403e-01,1.700000000000045919e-01,-2.999999999999736211e-02,1.500000000000045741e-01,-5.599999999999978328e-01,7.100000000000077360e-01,-9.499999999999990674e-01,2.500000000000011102e-01,-1.000000000000000000e+00,-2.999999999999736211e-02,-1.000000000000000000e+00,-1.000000000000000000e+00,-4.199999999999968203e-01,-4.999999999999986677e-01,-1.000000000000000000e+00,-1.000000000000000000e+00,-4.299999999999959410e-01,4.440892098500626162e-15,-1.000000000000000000e+00,3.600000000000038725e-01,-8.599999999999963229e-01,-6.899999999999979483e-01,-1.000000000000000000e+00,-1.000000000000000000e+00,-1.000000000000000000e+00,2.300000000000055334e-01,-4.899999999999986589e-01,1.000000000000444977e-02,-4.399999999999968381e-01,-1.000000000000000000e+00,-6.399999999999987921e-01,-5.099999999999960121e-01,3.400000000000056311e-01,-1.000000000000000000e+00,-8.099999999999989431e-01,-1.000000000000000000e+00,8.200000000000042810e-01,-1.099999999999929923e-01,-3.199999999999976197e-01,4.400000000000039435e-01,-1.000000000000000000e+00,-8.999999999999954703e-01,4.100000000000030287e-01,1.700000000000028155e-01,-1.999999999999975131e-01,-1.000000000000000000e+00
-6.399999999999970157e-01,-9.599999999999964118e-01,-1.000000000000000000e+00,-1.000000000000000000e+00,-7.499999999999935607e-01,-1.000000000000000000e+00,-5.699999999999969535e-01,-1.799999999999983835e-01,-1.000000000000000000e+00,-5.099999999999960121e-01,-1.000000000000000000e+00,-1.000000000000000000e+00,-4.099999999999923705e-01,-4.299999999999977174e-01,-1.000000000000000000e+00,-8.999999999999936939e-01,-1.000000000000000000e+00,-5.599999999999987210e-01,-1.000000000000000000e+00,-6.999999999999118039e-02,5.600000000000040501e-01,-5.099999999999986766e-01,6.100000000000049827e-01,-1.000000000000000000e+00,6.000000000000085265e-01,-1.000000000000000000e+00,4.100000000000048050e-01,-1.000000000000000000e+00,-9.999999999994679811e-03,-4.999999999999649170e-02,6.000000000000893507e-02,-1.000000000000000000e+00,9.000000000000052403e-01,3.500000000000056399e-01,-2.999999999999736211e-02,1.500000000000054623e-01,-5.599999999999978328e-01,7.200000000000104095e-01,-9.499999999999990674e-01,2.600000000000020073e-01,-4.899999999999986589e-01,-1.000000000000000000e+00,-1.000000000000000000e+00,-3.799999999999985612e-01,-7.299999999999979838e-01,-4.999999999999986677e-01,-9.599999999999981881e-01,-3.999999999999825917e-02,-7.199999999999953104e-01,-3.499999999999932054e-01,-1.799999999999983835e-01,-1.000000000000000000e+00,-8.599999999999963229e-01,-6.899999999999979483e-01,-7.699999999999989075e-01,-1.000000000000000000e+00,-1.000000000000000000e+00,2.300000000000055334e-01,-4.899999999999986589e-01,1.000000000000444977e-02,-1.000000000000000000e+00,-6.799999999999979394e-01,-1.000000000000000000e+00,-5.399999999999969269e-01,3.400000000000056311e-01,-1.000000000000000000e+00,-3.199999999999976197e-01,-1.000000000000000000e+00,8.200000000000042810e-01,3.400000000000109601e-01,-3.199999999999985079e-01,4.400000000000039435e-01,-1.000000000000000000e+00,1.000000000000063061e-01,-1.000000000000000000e+00,9.700000000000026379e-01,-1.999999999999975131e-01,-9.799999999999990941e-01
-7.399999999999979927e-01,-3.899999999999967937e-01,-6.299999999999987832e-01,-1.000000000000000000e+00,-1.000000000000000000e+00,-3.999999999999648281e-02,1.300000000000027800e-01,-1.000000000000000000e+00,-2.199999999999984190e-01,-5.099999999999960121e-01,-1.000000000000000000e+00,-1.000000000000000000e+00,6.000000000000715872e-02,-4.299999999999977174e-01,-1.000000000000000000e+00,-8.999999999999936939e-01,-1.000000000000000000e+00,-5.599999999999987210e-01,-1.000000000000000000e+00,3.800000000000083311e-01,5.600000000000040501e-01,-5.099999999999977884e-01,7.700000000000042366e-01,-1.000000000000000000e+00,6.000000000000085265e-01,-1.000000000000000000e+00,3.600000000000038725e-01,-1.000000000000000000e+00,3.600000000000056488e-01,-5.999999999999738876e-02,8.000000000000806466e-02,-1.000000000000000000e+00,9.000000000000052403e-01,1.700000000000045919e-01,2.600000000000037836e-01,1.500000000000045741e-01,-2.299999999999939870e-01,7.100000000000077360e-01,-9.499999999999990674e-01,2.500000000000011102e-01,3.200000000000029488e-01,-1.000000000000000000e+00,-3.699999999999985523e-01,-1.000000000000000000e+00,-1.000000000000000000e+00,-4.999999999999986677e-01,-1.000000000000000000e+00,-1.000000000000000000e+00,-4.299999999999959410e-01,3.300000000000056222e-01,-1.000000000000000000e+00,3.600000000000038725e-01,-8.599999999999963229e-01,-6.899999999999979483e-01,-1.000000000000000000e+00,-5.599999999999987210e-01,-1.000000000000000000e+00,2.300000000000055334e-01,-4.899999999999986589e-01,-2.399999999999948841e-01,-4.399999999999968381e-01,-6.699999999999988187e-01,-1.000000000000000000e+00,-5.099999999999960121e-01,-1.000000000000000000e+00,-1.000000000000000000e+00,-1.000000000000000000e+00,-1.000000000000000000e+00,2.700000000000046807e-01,-1.099999999999929923e-01,-3.199999999999976197e-01,4.400000000000039435e-01,-4.799999999999986500e-01,-8.999999999999954703e-01,-1.000000000000000000e+00,1.700000000000028155e-01,-1.999999999999975131e-01,-1.000000000000000000e+00
-7.399999999999979927e-01,-9.599999999999964118e-01,-1.000000000000000000e+00,-6.799999999999979394e-01,-7.499999999999935607e-01,-3.999999999999648281e-02,1.300000000000027800e-01,-1.000000000000000000e+00,-1.000000000000000000e+00,-6.099999999999952127e-01,-1.000000000000000000e+00,-1.000000000000000000e+00,6.000000000000715872e-02,-1.000000000000000000e+00,-1.000000000000000000e+00,-8.999999999999936939e-01,-1.000000000000000000e+00,-1.000000000000000000e+00,-6.999999999999970690e-01,3.800000000000083311e-01,6.500000000000050182e-01,-1.000000000000000000e+00,9.300000000000034905e-01,-1.000000000000000000e+00,5.300000000000093525e-01,-1.000000000000000000e+00,3.600000000000038725e-01,-1.000000000000000000e+00,3.600000000000056488e-01,-5.999999999999738876e-02,8.000000000000806466e-02,-1.000000000000000000e+00,9.000000000000052403e-01,1.700000000000045919e-01,-2.999999999999736211e-02,6.700000000000059242e-01,-5.599999999999978328e-01,7.100000000000077360e-01,-9.499999999999990674e-01,2.500000000000011102e-01,3.200000000000029488e-01,-1.000000000000000000e+00,-3.699999999999985523e-01,-1.000000000000000000e+00,-7.299999999999979838e-01,-4.999999999999986677e-01,-9.399999999999990585e-01,-1.000000000000000000e+00,-7.999999999999962697e-01,4.440892098500626162e-15,-6.299999999999987832e-01,3.600000000000038725e-01,-8.599999999999963229e-01,-6.899999999999979483e-01,-1.000000000000000000e+00,-5.599999999999987210e-01,-1.000000000000000000e+00,2.300000000000055334e-01,-1.000000000000000000e+00,1.000000000000444977e-02,-4.399999999999968381e-01,-6.699999999999988187e-01,-1.000000000000000000e+00,-5.099999999999960121e-01,-1.000000000000000000e+00,-1.000000000000000000e+00,-8.099999999999989431e-01,-1.000000000000000000e+00,8.200000000000042810e-01,-1.099999999999929923e-01,-3.199999999999976197e-01,4.400000000000039435e-01,-1.000000000000000000e+00,1.000000000000063061e-01,-1.000000000000000000e+00,9.700000000000026379e-01,-1.999999999999975131e-01,-1.000000000000000000e+00
-7.399999999999979927e-01,2.000000000000445866e-02,-6.299999999999987832e-01,-5.199999999999977973e-01,-1.000000000000000000e+00,-3.999999999999648281e-02,1.300000000000027800e-01,-1.000000000000000000e+00,-1.000000000000000000e+00,-5.099999999999960121e-01,-9.199999999999981526e-01,-1.000000000000000000e+00,5.300000000000084643e-01,-1.000000000000000000e+00,-1.000000000000000000e+00,-8.999999999999936939e-01,-1.000000000000000000e+00,-7.399999999999988809e-01,-6.399999999999979039e-01,2.400000000000082068e-01,5.600000000000040501e-01,-5.099999999999986766e-01,9.300000000000034905e-01,-1.000000000000000000e+00,6.000000000000085265e-01,-1.000000000000000000e+00,3.600000000000038725e-01,-7.099999999999988542e-01,4.200000000000065903e-01,-5.999999999999738876e-02,8.000000000000806466e-02,-1.000000000000000000e+00,9.000000000000052403e-01,1.700000000000045919e-01,-2.999999999999736211e-02,1.500000000000045741e-01,-2.599999999999957900e-01,7.100000000000077360e-01,-1.000000000000000000e+00,2.500000000000011102e-01,-1.000000000000000000e+00,-1.000000000000000000e+00,-1.000000000000000000e+00,-8.799999999999981171e-01,-3.599999999999958789e-01,-4.999999999999986677e-01,-9.599999999999981881e-01,-1.000000000000000000e+00,-1.000000000000000000e+00,-6.799999999999934985e-01,-9.699999999999990852e-01,-4.199999999999959321e-01,-8.599999999999963229e-01,-6.899999999999979483e-01,-1.000000000000000000e+00,-5.599999999999987210e-01,-7.899999999999989253e-01,1.500000000000063505e-01,-1.000000000000000000e+00,1.500000000000054623e-01,-4.399999999999968381e-01,-6.799999999999979394e-01,-1.000000000000000000e+00,-5.399999999999969269e-01,6.200000000000032152e-01,-1.000000000000000000e+00,-8.099999999999989431e-01,-5.399999999999987033e-01,6.700000000000050360e-01,-1.099999999999929923e-01,6.700000000000068123e-01,4.400000000000039435e-01,-1.000000000000000000e+00,2.800000000000055778e-01,-1.000000000000000000e+00,9.700000000000026379e-01,-1.999999999999975131e-01,8.800000000000043343e-01
-7.399999999999979927e-01,-3.899999999999967937e-01,-1.000000000000000000e+00,-1.000000000000000000e+00,-1.000000000000000000e+00,-3.999999999999648281e-02,1.300000000000027800e-01,-1.000000000000000000e+00,-2.199999999999984190e-01,-5.099999999999960121e-01,-1.000000000000000000e+00,-1.000000000000000000e+00,-1.000000000000000000e+00,-1.000000000000000000e+00,-1.000000000000000000e+00,-8.999999999999936939e-01,-1.000000000000000000e+00,-1.000000000000000000e+00,-6.399999999999979039e-01,3.800000000000083311e-01,5.600000000000040501e-01,-1.000000000000000000e+00,7.700000000000042366e-01,-1.000000000000000000e+00,5.300000000000093525e-01,-1.000000000000000000e+00,3.600000000000038725e-01,-1.000000000000000000e+00,3.600000000000056488e-01,-4.999999999999649170e-02,8.000000000000806466e-02,-1.000000000000000000e+00,9.000000000000052403e-01,1.700000000000045919e-01,-8.799999999999972289e-01,1.500000000000045741e-01,-2.299999999999939870e-01,7.100000000000077360e-01,-9.499999999999990674e-01,2.500000000000011102e-01,3.200000000000029488e-01,-1.000000000000000000e+00,-3.699999999999985523e-01,-1.000000000000000000e+00,-7.299999999999979838e-01,-4.999999999999986677e-01,-9.399999999999990585e-01,-1.000000000000000000e+00,-7.999999999999962697e-01,3.300000000000056222e-01,-1.000000000000000000e+00,3.600000000000038725e-01,-8.599999999999963229e-01,-6.899999999999979483e-01,-1.000000000000000000e+00,-5.599999999999987210e-01,-7.899999999999989253e-01,2.300000000000055334e-01,-1.000000000000000000e+00,1.000000000000444977e-02,-4.399999999999968381e-01,-6.699999999999988187e-01,-1.000000000000000000e+00,-5.399999999999969269e-01,-1.000000000000000000e+00,-1.000000000000000000e+00,-8.099999999999989431e-01,-1.000000000000000000e+00,8.200000000000042810e-01,-3.199999999999922906e-01,-3.199999999999985079e-01,4.400000000000039435e-01,-1.000000000000000000e+00,1.000000000000063061e-01,-1.000000000000000000e+00,9.700000000000026379e-01,-1.999999999999975131e-01,8.800000000000043343e-01
-7.399999999999979927e-01,-3.599999999999949907e-01,-1.000000000000000000e+00,-1.000000000000000000e+00,-1.000000000000000000e+00,5.000000000000048850e-01,1.300000000000027800e-01,-1.000000000000000000e+00,-1.000000000000000000e+00,4.300000000000057110e-01,-1.000000000000000000e+00,-1.000000000000000000e+00,6.000000000000715872e-02,-4.299999999999977174e-01,-1.000000000000000000e+00,-8.999999999999936939e-01,-1.000000000000000000e+00,-7.499999999999988898e-01,-6.399999999999979039e-01,3.800000000000083311e-01,5.600000000000040501e-01,-6.499999999999988010e-01,7.700000000000042366e-01,-1.000000000000000000e+00,5.300000000000093525e-01,-1.000000000000000000e+00,3.600000000000038725e-01,-7.099999999999988542e-01,5.300000000000075762e-01,-4.999999999999649170e-02,8.000000000000806466e-02,-1.000000000000000000e+00,9.000000000000052403e-01,1.700000000000045919e-01,-8.799999999999972289e-01,1.500000000000045741e-01,-2.299999999999939870e-01,2.300000000000081979e-01,-9.499999999999990674e-01,2.500000000000011102e-01,-1.000000000000000000e+00,-1.000000000000000000e+00,-1.000000000000000000e+00,-3.799999999999985612e-01,-7.299999999999979838e-01,-4.999999999999986677e-01,-9.399999999999990585e-01,-1.000000000000000000e+00,-1.000000000000000000e+00,3.300000000000056222e-01,-1.000000000000000000e+00,3.600000000000038725e-01,-8.599999999999963229e-01,-6.899999999999979483e-01,-1.000000000000000000e+00,-5.599999999999987210e-01,-1.000000000000000000e+00,-5.299999999999942535e-01,-1.000000000000000000e+00,1.000000000000444977e-02,-4.399999999999968381e-01,-1.000000000000000000e+00,-1.000000000000000000e+00,-5.399999999999969269e-01,3.400000000000056311e-01,-1.000000000000000000e+00,-1.000000000000000000e+00,2.600000000000028955e-01,2.500000000000046629e-01,-1.099999999999929923e-01,-1.000000000000000000e+00,4.400000000000039435e-01,-1.000000000000000000e+00,1.000000000000063061e-01,-6.199999999999987743e-01,9.700000000000026379e-01,-1.999999999999975131e-01,-7.199999999999988631e-01
-7.399999999999979927e-01,-3.899999999999967937e-01,-6.299999999999987832e-01,-1.000000000000000000e+00,-9.399999999999990585e-01,-3.999999999999648281e-02,-4.699999999999968647e-01,-1.000000000000000000e+00,-1.000000000000000000e+00,-5.099999999999960121e-01,-1.000000000000000000e+00,-1.000000000000000000e+00,-2.699999999999913580e-01,-4.299999999999977174e-01,-1.000000000000000000e+00,-9.499999999999937383e-01,-1.000000000000000000e+00,-1.000000000000000000e+00,-6.399999999999979039e-01,3.800000000000083311e-01,5.600000000000040501e-01,2.300000000000028688e-01,7.300000000000042011e-01,-9.999999999999991118e-01,3.900000000000101164e-01,-1.000000000000000000e+00,3.600000000000038725e-01,-1.000000000000000000e+00,-9.999999999994679811e-03,-4.999999999999649170e-02,8.000000000000806466e-02,-1.000000000000000000e+00,5.900000000000058531e-01,5.900000000000058531e-01,-8.799999999999972289e-01,1.500000000000045741e-01,-5.599999999999978328e-01,7.100000000000077360e-01,-9.499999999999990674e-01,2.500000000000011102e-01,-4.899999999999986589e-01,-1.000000000000000000e+00,-1.000000000000000000e+00,-1.000000000000000000e+00,-4.199999999999968203e-01,-8.399999999999980815e-01,-9.399999999999990585e-01,-1.000000000000000000e+00,-7.999999999999962697e-01,3.300000000000056222e-01,-1.000000000000000000e+00,-4.199999999999959321e-01,-8.599999999999963229e-01,-1.000000000000000000e+00,-1.000000000000000000e+00,-1.000000000000000000e+00,-7.899999999999989253e-01,-1.000000000000000000e+00,-9.999999999999653610e-02,8.100000000000060485e-01,-4.399999999999968381e-01,-1.000000000000000000e+00,-1.000000000000000000e+00,-2.899999999999958167e-01,7.000000000000627942e-02,-1.000000000000000000e+00,-8.099999999999989431e-01,-3.699999999999985523e-01,8.200000000000042810e-01,3.400000000000109601e-01,-3.199999999999976197e-01,4.400000000000039435e-01,-1.000000000000000000e+00,8.800000000000069988e-01,-1.000000000000000000e+00,9.700000000000026379e-01,-1.999999999999975131e-01,-4.999999999999560352e-02
-7.399999999999979927e-01,2.000000000000445866e-02,-6.299999999999987832e-01,-5.199999999999977973e-01,3.700000000000092104e-01,-6.799999999999979394e-01,1.300000000000027800e-01,-1.000000000000000000e+00,-1.000000000000000000e+00,-5.099999999999960121e-01,-9.199999999999981526e-01,-1.000000000000000000e+00,6.000000000000715872e-02,-4.299999999999977174e-01,-1.000000000000000000e+00,-8.999999999999936939e-01,-1.000000000000000000e+00,-5.599999999999987210e-01,-1.000000000000000000e+00,3.800000000000083311e-01,5.600000000000040501e-01,-5.099999999999986766e-01,9.300000000000034905e-01,-1.000000000000000000e+00,6.000000000000085265e-01,-1.000000000000000000e+00,3.600000000000038725e-01,-8.399999999999980815e-01,2.100000000000064038e-01,-7.699999999999962430e-01,8.000000000000806466e-02,-1.000000000000000000e+00,9.000000000000052403e-01,1.700000000000045919e-01,-2.999999999999736211e-02,1.500000000000045741e-01,-5.599999999999978328e-01,7.100000000000077360e-01,-9.499999999999990674e-01,2.500000000000011102e-01,-1.000000000000000000e+00,-2.999999999999736211e-02,-1.000000000000000000e+00,-1.000000000000000000e+00,-7.699999999999971312e-01,-4.999999999999986677e-01,-9.599999999999981881e-01,-1.000000000000000000e+00,-1.000000000000000000e+00,-9.999999999999387157e-02,-7.199999999999935341e-01,-4.199999999999959321e-01,2.000000000000534683e-02,-1.000000000000000000e+00,-1.000000000000000000e+00,-1.000000000000000000e+00,-1.000000000000000000e+00,9.600000000000070699e-01,-4.899999999999986589e-01,1.500000000000054623e-01,-4.399999999999968381e-01,-1.000000000000000000e+00,-6.399999999999987921e-01,-5.099999999999960121e-01,3.400000000000056311e-01,-1.000000000000000000e+00,-8.099999999999989431e-01,-1.000000000000000000e+00,8.200000000000042810e-01,-1.099999999999929923e-01,6.700000000000068123e-01,4.400000000000039435e-01,-1.000000000000000000e+00,2.800000000000055778e-01,-6.199999999999987743e-01,7.300000000000042011e-01,-1.999999999999975131e-01,-1.000000000000000000e+00
-7.399999999999979927e-01,-9.599999999999964118e-01,-1.000000000000000000e+00,-1.000000000000000000e+00,-7.499999999999935607e-01,2.700000000000046807e-01,-4.699999999999968647e-01,-1.000000000000000000e+00,-2.199999999999984190e-01,-5.099999999999960121e-01,-1.000000000000000000e+00,-1.000000000000000000e+00,-2.699999999999913580e-01,-4.299999999999977174e-01,-1.000000000000000000e+00,-8.999999999999936939e-01,-1.000000000000000000e+00,-1.000000000000000000e+00,-6.399999999999979039e-01,3.800000000000083311e-01,5.600000000000040501e-01,-5.099999999999986766e-01,7.700000000000042366e-01,-1.499999999999983569e-01,5.300000000000093525e-01,-1.000000000000000000e+00,3.600000000000038725e-01,-1.000000000000000000e+00,-9.999999999994679811e-03,-4.999999999999649170e-02,8.000000000000806466e-02,-1.000000000000000000e+00,9.000000000000052403e-01,5.900000000000058531e-01,-8.799999999999972289e-01,1.500000000000045741e-01,-5.599999999999978328e-01,5.600000000000093792e-01,-9.499999999999990674e-01,2.500000000000011102e-01,-4.899999999999986589e-01,-1.000000000000000000e+00,-3.699999999999985523e-01,-9.999999999999991118e-01,-7.299999999999979838e-01,-4.999999999999986677e-01,-9.399999999999990585e-01,-1.000000000000000000e+00,-7.999999999999962697e-01,3.300000000000056222e-01,-1.000000000000000000e+00,-4.199999999999959321e-01,-8.599999999999963229e-01,-6.899999999999979483e-01,-1.000000000000000000e+00,-1.000000000000000000e+00,-7.899999999999989253e-01,-1.000000000000000000e+00,-4.899999999999986589e-01,1.000000000000444977e-02,-4.399999999999968381e-01,-1.000000000000000000e+00,-1.000000000000000000e+00,-9.999999999995567990e-03,-1.000000000000000000e+00,-1.000000000000000000e+00,-8.099999999999989431e-01,-1.000000000000000000e+00,8.200000000000042810e-01,-3.199999999999922906e-01,-3.199999999999985079e-01,4.400000000000039435e-01,-1.000000000000000000e+00,1.000000000000063061e-01,-1.000000000000000000e+00,9.700000000000026379e-01,-1.999999999999975131e-01,-4.799999999999950973e-01
-7.399999999999979927e-01,-3.899999999999967937e-01,-6.299999999999987832e-01,-1.000000000000000000e+00,-1.000000000000000000e+00,-3.999999999999648281e-02,6.100000000000040945e-01,-1.000000000000000000e+00,-1.000000000000000000e+00,-5.099999999999960121e-01,-1.000000000000000000e+00,-1.000000000000000000e+00,6.000000000000715872e-02,-1.000000000000000000e+00,-1.000000000000000000e+00,-8.999999999999936939e-01,-1.000000000000000000e+00,-1.000000000000000000e+00,-6.399999999999979039e-01,3.800000000000083311e-01,5.600000000000040501e-01,-1.000000000000000000e+00,7.300000000000042011e-01,-9.999999999999991118e-01,5.300000000000093525e-01,-1.000000000000000000e+00,3.600000000000038725e-01,-1.000000000000000000e+00,-1.799999999999939426e-01,-4.999999999999649170e-02,8.000000000000806466e-02,-1.699999999999983746e-01,9.000000000000052403e-01,1.700000000000045919e-01,-8.799999999999972289e-01,1.500000000000045741e-01,-9.299999999999954969e-01,7.100000000000077360e-01,-9.499999999999990674e-01,2.500000000000011102e-01,3.200000000000029488e-01,-2.999999999999736211e-02,-1.000000000000000000e+00,-8.799999999999981171e-01,-4.199999999999968203e-01,-4.999999999999986677e-01,-2.699999999999975753e-01,-1.000000000000000000e+00,-1.199999999999947775e-01,3.300000000000056222e-01,-1.000000000000000000e+00,3.600000000000038725e-01,-8.599999999999963229e-01,-6.899999999999979483e-01,-1.000000000000000000e+00,-1.499999999999974687e-01,-7.899999999999989253e-01,-1.000000000000000000e+00,-1.000000000000000000e+00,1.500000000000054623e-01,-4.399999999999968381e-01,-6.699999999999988187e-01,-7.299999999999988720e-01,-5.399999999999969269e-01,7.000000000000627942e-02,-1.000000000000000000e+00,-8.099999999999989431e-01,-3.699999999999985523e-01,6.700000000000050360e-01,3.400000000000109601e-01,-3.199999999999976197e-01,4.400000000000039435e-01,-1.000000000000000000e+00,-6.399999999999952394e-01,-6.199999999999987743e-01,9.700000000000026379e-01,-1.999999999999975131e-01,-4.999999999999560352e-02
-7.399999999999979927e-01,-3.899999999999967937e-01,-6.299999999999987832e-01,-4.399999999999986144e-01,-3.899999999999923528e-01,-3.999999999999648281e-02,1.300000000000027800e-01,-1.000000000000000000e+00,-2.199999999999984190e-01,-5.099999999999960121e-01,-1.000000000000000000e+00,-1.000000000000000000e+00,6.000000000000715872e-02,-1.000000000000000000e+00,-1.000000000000000000e+00,-8.999999999999936939e-01,-1.000000000000000000e+00,-5.599999999999987210e-01,-6.399999999999979039e-01,2.400000000000082068e-01,-1.000000000000000000e+00,-1.000000000000000000e+00,9.300000000000034905e-01,-1.000000000000000000e+00,6.000000000000085265e-01,-1.000000000000000000e+00,3.600000000000038725e-01,-1.000000000000000000e+00,9.800000000000070877e-01,-4.999999999999649170e-02,8.000000000000806466e-02,-1.000000000000000000e+00,9.000000000000052403e-01,1.700000000000045919e-01,-8.799999999999972289e-01,-3.599999999999949907e-01,-2.299999999999939870e-01,7.100000000000077360e-01,-9.499999999999990674e-01,2.500000000000011102e-01,-1.000000000000000000e+00,-1.000000000000000000e+00,-3.699999999999985523e-01,-6.799999999999988276e-01,-4.999999999999960032e-01,-4.999999999999986677e-01,-1.000000000000000000e+00,-1.000000000000000000e+00,-7.999999999999962697e-01,3.300000000000056222e-01,-1.000000000000000000e+00,3.600000000000038725e-01,-8.599999999999963229e-01,-6.899999999999979483e-01,-1.000000000000000000e+00,-5.599999999999987210e-01,-1.000000000000000000e+00,2.300000000000055334e-01,-1.000000000000000000e+00,1.000000000000444977e-02,-4.399999999999968381e-01,-6.699999999999988187e-01,-6.399999999999987921e-01,-5.099999999999960121e-01,3.400000000000056311e-01,-1.000000000000000000e+00,-8.099999999999989431e-01,-1.000000000000000000e+00,8.200000000000042810e-01,-3.199999999999922906e-01,-3.199999999999985079e-01,4.400000000000039435e-01,-1.000000000000000000e+00,-8.999999999999954703e-01,4.100000000000030287e-01,9.700000000000026379e-01,-1.999999999999975131e-01,-1.000000000000000000e+00
-7.399999999999979927e-01,-9.599999999999964118e-01,-1.000000000000000000e+00,-1.000000000000000000e+00,-1.000000000000000000e+00,-3.999999999999648281e-02,1.300000000000027800e-01,-1.799999999999983835e-01,-2.199999999999984190e-01,-5.099999999999960121e-01,-1.000000000000000000e+00,-5.999999999999827693e-02,-4.099999999999923705e-01,-4.299999999999977174e-01,-5.499999999999987121e-01,-8.999999999999936939e-01,-1.000000000000000000e+00,-1.000000000000000000e+00,-1.000000000000000000e+00,-6.999999999999118039e-02,5.600000000000040501e-01,-1.000000000000000000e+00,6.100000000000049827e-01,-1.000000000000000000e+00,6.000000000000085265e-01,-1.000000000000000000e+00,3.600000000000038725e-01,-1.000000000000000000e+00,-3.999999999999941380e-01,-3.299999999999958522e-01,8.000000000000806466e-02,-1.000000000000000000e+00,9.000000000000052403e-01,3.500000000000056399e-01,3.100000000000038280e-01,1.500000000000054623e-01,-1.000000000000000000e+00,7.200000000000104095e-01,-9.499999999999990674e-01,2.500000000000011102e-01,-4.899999999999986589e-01,-1.000000000000000000e+00,-3.699999999999985523e-01,-1.000000000000000000e+00,-7.299999999999979838e-01,-4.999999999999986677e-01,-9.399999999999990585e-01,-3.999999999999825917e-02,-1.000000000000000000e+00,-3.499999999999932054e-01,-1.000000000000000000e+00,3.600000000000038725e-01,-8.599999999999963229e-01,-1.000000000000000000e+00,-1.000000000000000000e+00,-5.599999999999987210e-01,-7.899999999999989253e-01,2.300000000000055334e-01,-1.000000000000000000e+00,1.000000000000444977e-02,-1.000000000000000000e+00,-6.799999999999979394e-01,-1.000000000000000000e+00,-7.599999999999962341e-01,3.400000000000056311e-01,-1.000000000000000000e+00,-3.199999999999976197e-01,-1.000000000000000000e+00,8.200000000000042810e-01,-3.199999999999922906e-01,-3.199999999999985079e-01,4.400000000000039435e-01,-1.000000000000000000e+00,1.000000000000063061e-01,-1.799999999999983835e-01,9.700000000000026379e-01,-1.999999999999975131e-01,-9.799999999999990941e-01
-7.399999999999979927e-01,2.000000000000445866e-02,-6.299999999999987832e-01,-5.199999999999977973e-01,3.700000000000092104e-01,-6.799999999999979394e-01,1.300000000000027800e-01,-1.000000000000000000e+00,-1.000000000000000000e+00,-5.099999999999960121e-01,-9.199999999999981526e-01,-1.000000000000000000e+00,5.300000000000084643e-01,-1.000000000000000000e+00,-1.000000000000000000e+00,-8.999999999999936939e-01,-1.000000000000000000e+00,-7.399999999999988809e-01,-1.000000000000000000e+00,2.400000000000082068e-01,5.600000000000040501e-01,-5.099999999999986766e-01,9.300000000000034905e-01,-5.799999999999987388e-01,6.000000000000085265e-01,-1.000000000000000000e+00,3.600000000000038725e-01,-1.000000000000000000e+00,-4.499999999999932943e-01,-4.999999999999649170e-02,8.000000000000806466e-02,-1.000000000000000000e+00,9.000000000000052403e-01,1.700000000000045919e-01,-2.999999999999736211e-02,1.500000000000045741e-01,-2.599999999999957900e-01,7.100000000000077360e-01,-1.000000000000000000e+00,2.500000000000011102e-01,-1.000000000000000000e+00,-1.000000000000000000e+00,-1.000000000000000000e+00,-8.799999999999981171e-01,-3.599999999999958789e-01,-4.999999999999986677e-01,-9.599999999999981881e-01,-1.000000000000000000e+00,-1.000000000000000000e+00,-6.799999999999934985e-01,-7.199999999999935341e-01,-4.199999999999959321e-01,-8.599999999999963229e-01,-6.899999999999979483e-01,-1.000000000000000000e+00,-5.599999999999987210e-01,-8.099999999999980549e-01,2.300000000000055334e-01,-1.000000000000000000e+00,5.000000000000066613e-01,-4.399999999999968381e-01,-6.799999999999979394e-01,-1.000000000000000000e+00,-5.399999999999969269e-01,6.200000000000032152e-01,-1.000000000000000000e+00,-8.099999999999989431e-01,-5.399999999999987033e-01,8.200000000000042810e-01,-1.099999999999929923e-01,6.700000000000068123e-01,4.400000000000039435e-01,-2.099999999999984102e-01,2.800000000000055778e-01,-1.000000000000000000e+00,-1.000000000000000000e+00,-1.999999999999975131e-01,8.800000000000043343e-01
-7.399999999999979927e-01,-3.899999999999967937e-01,-7.399999999999979927e-01,-4.399999999999986144e-01,-7.499999999999935607e-01,-3.999999999999648281e-02,1.300000000000027800e-01,-1.000000000000000000e+00,-2.199999999999984190e-01,-5.099999999999960121e-01,-1.000000000000000000e+00,-1.000000000000000000e+00,6.000000000000715872e-02,-4.299999999999977174e-01,-1.000000000000000000e+00,-8.999999999999936939e-01,-3.999999999999985789e-01,-5.599999999999987210e-01,-1.000000000000000000e+00,3.800000000000083311e-01,5.600000000000040501e-01,-5.099999999999977884e-01,4.100000000000048050e-01,-1.000000000000000000e+00,6.000000000000085265e-01,-1.000000000000000000e+00,3.600000000000038725e-01,-1.000000000000000000e+00,3.600000000000056488e-01,-5.999999999999738876e-02,8.000000000000806466e-02,-1.000000000000000000e+00,9.000000000000052403e-01,1.700000000000045919e-01,2.600000000000037836e-01,1.500000000000045741e-01,1.300000000000072209e-01,7.100000000000077360e-01,-9.499999999999990674e-01,2.500000000000011102e-01,3.200000000000029488e-01,-1.000000000000000000e+00,-1.000000000000000000e+00,-1.000000000000000000e+00,-1.000000000000000000e+00,-4.999999999999986677e-01,-1.000000000000000000e+00,-1.000000000000000000e+00,-4.299999999999959410e-01,3.300000000000056222e-01,-1.000000000000000000e+00,3.600000000000038725e-01,-8.599999999999963229e-01,-6.899999999999979483e-01,-1.000000000000000000e+00,-1.000000000000000000e+00,-1.000000000000000000e+00,2.300000000000055334e-01,-4.899999999999986589e-01,-2.399999999999948841e-01,-4.399999999999968381e-01,-1.000000000000000000e+00,-6.399999999999987921e-01,-5.099999999999960121e-01,-1.000000000000000000e+00,-1.000000000000000000e+00,-1.000000000000000000e+00,-1.000000000000000000e+00,8.200000000000042810e-01,-1.099999999999929923e-01,-3.199999999999976197e-01,1.200000000000045475e-01,-4.799999999999986500e-01,-8.999999999999954703e-01,6.100000000000040945e-01,5.100000000000040057e-01,-1.999999999999975131e-01,-1.000000000000000000e+00
-6.399999999999970157e-01,-9.599999999999964118e-01,-1.000000000000000000e+00,-1.000000000000000000e+00,-1.000000000000000000e+00,-3.999999999999648281e-02,-2.599999999999957900e-01,-1.000000000000000000e+00,-1.000000000000000000e+00,-5.099999999999960121e-01,-1.000000000000000000e+00,-1.000000000000000000e+00,-4.099999999999923705e-01,-4.299999999999977174e-01,-1.000000000000000000e+00,-8.999999999999936939e-01,-6.499999999999988010e-01,-1.000000000000000000e+00,-7.999999999999651834e-02,-6.999999999999118039e-02,5.600000000000040501e-01,-5.099999999999986766e-01,7.300000000000042011e-01,-1.000000000000000000e+00,3.900000000000101164e-01,-1.000000000000000000e+00,4.100000000000048050e-01,-1.000000000000000000e+00,-9.999999999994679811e-03,-4.999999999999649170e-02,6.000000000000893507e-02,-1.000000000000000000e+00,9.000000000000052403e-01,3.500000000000056399e-01,-2.999999999999736211e-02,1.500000000000054623e-01,-5.599999999999978328e-01,5.600000000000093792e-01,-9.499999999999990674e-01,2.600000000000020073e-01,-4.899999999999986589e-01,-1.000000000000000000e+00,-1.000000000000000000e+00,-1.000000000000000000e+00,-4.199999999999968203e-01,-4.999999999999986677e-01,-9.399999999999990585e-01,-3.999999999999825917e-02,-7.999999999999962697e-01,-3.499999999999932054e-01,-1.000000000000000000e+00,-4.199999999999959321e-01,-8.599999999999963229e-01,-1.000000000000000000e+00,-1.000000000000000000e+00,-1.000000000000000000e+00,-9.399999999999990585e-01,-1.000000000000000000e+00,-1.199999999999974420e-01,1.000000000000444977e-02,-1.000000000000000000e+00,-1.000000000000000000e+00,-1.000000000000000000e+00,-9.999999999995567990e-03,3.400000000000056311e-01,-1.000000000000000000e+00,-8.099999999999989431e-01,-3.699999999999985523e-01,8.200000000000042810e-01,3.400000000000109601e-01,-3.199999999999985079e-01,4.400000000000039435e-01,-1.000000000000000000e+00,-1.000000000000000000e+00,-1.000000000000000000e+00,9.700000000000026379e-01,-1.999999999999975131e-01,-9.799999999999990941e-01
-6.399999999999970157e-01,-1.000000000000000000e+00,-6.299999999999987832e-01,-4.399999999999986144e-01,-7.499999999999935607e-01,-3.999999999999648281e-02,-4.699999999999968647e-01,-1.000000000000000000e+00,-8.299999999999989608e-01,-5.099999999999960121e-01,-9.399999999999990585e-01,-1.000000000000000000e+00,-2.699999999999913580e-01,-4.299999999999977174e-01,-1.000000000000000000e+00,-8.999999999999936939e-01,-1.000000000000000000e+00,-5.599999999999987210e-01,-1.000000000000000000e+00,-3.099999999999913936e-01,5.600000000000040501e-01,-5.099999999999986766e-01,7.300000000000042011e-01,-1.000000000000000000e+00,6.000000000000085265e-01,-1.000000000000000000e+00,3.600000000000038725e-01,-1.000000000000000000e+00,3.600000000000056488e-01,-5.999999999999738876e-02,2.100000000000090683e-01,-1.000000000000000000e+00,9.000000000000052403e-01,1.700000000000045919e-01,2.300000000000037570e-01,1.500000000000045741e-01,-5.599999999999978328e-01,7.100000000000077360e-01,-9.499999999999990674e-01,2.500000000000011102e-01,-4.899999999999986589e-01,-1.000000000000000000e+00,-1.000000000000000000e+00,-1.000000000000000000e+00,2.500000000000046629e-01,-4.999999999999986677e-01,-1.000000000000000000e+00,-1.000000000000000000e+00,-7.999999999999962697e-01,3.300000000000056222e-01,-1.000000000000000000e+00,-4.199999999999959321e-01,-8.599999999999963229e-01,-6.899999999999979483e-01,-1.000000000000000000e+00,-1.000000000000000000e+00,-1.000000000000000000e+00,-3.899999999999985700e-01,-4.899999999999986589e-01,1.000000000000444977e-02,-4.399999999999968381e-01,-1.000000000000000000e+00,-1.000000000000000000e+00,-9.999999999995567990e-03,3.400000000000056311e-01,-1.000000000000000000e+00,-8.099999999999989431e-01,-3.699999999999985523e-01,8.200000000000042810e-01,-1.099999999999929923e-01,-3.199999999999976197e-01,4.400000000000039435e-01,-1.000000000000000000e+00,-8.999999999999954703e-01,4.100000000000030287e-01,2.700000000000037925e-01,-1.999999999999975131e-01,-4.999999999999560352e-02
-7.399999999999979927e-01,-3.899999999999967937e-01,-1.000000000000000000e+00,-1.000000000000000000e+00,-1.000000000000000000e+00,-3.999999999999648281e-02,1.300000000000027800e-01,-1.000000000000000000e+00,-2.199999999999984190e-01,-5.099999999999960121e-01,-1.000000000000000000e+00,-1.000000000000000000e+00,6.000000000000715872e-02,-4.299999999999977174e-01,-1.000000000000000000e+00,-8.699999999999927791e-01,-1.000000000000000000e+00,-5.599999999999987210e-01,-6.399999999999979039e-01,3.800000000000083311e-01,5.600000000000040501e-01,-5.099999999999977884e-01,6.200000000000049916e-01,-1.000000000000000000e+00,-3.599999999999905498e-01,-1.000000000000000000e+00,3.600000000000038725e-01,-1.000000000000000000e+00,-1.000000000000000000e+00,-4.999999999999649170e-02,8.000000000000806466e-02,-1.000000000000000000e+00,-1.000000000000000000e+00,1.700000000000045919e-01,-3.199999999999967315e-01,1.500000000000045741e-01,-2.299999999999939870e-01,7.100000000000077360e-01,-9.499999999999990674e-01,2.500000000000011102e-01,3.200000000000029488e-01,-2.999999999999736211e-02,-3.699999999999985523e-01,-1.000000000000000000e+00,-7.299999999999979838e-01,-4.999999999999986677e-01,-1.000000000000000000e+00,-1.000000000000000000e+00,-7.999999999999962697e-01,-1.000000000000000000e+00,-1.000000000000000000e+00,3.600000000000038725e-01,-8.599999999999963229e-01,-6.899999999999979483e-01,-1.000000000000000000e+00,-5.599999999999987210e-01,-1.000000000000000000e+00,2.300000000000055334e-01,-1.000000000000000000e+00,1.000000000000444977e-02,-4.399999999999968381e-01,-1.000000000000000000e+00,-1.000000000000000000e+00,-8.199999999999953992e-01,-1.000000000000000000e+00,-1.000000000000000000e+00,-1.000000000000000000e+00,-1.000000000000000000e+00,8.200000000000042810e-01,-1.099999999999929923e-01,-3.199999999999976197e-01,4.400000000000039435e-01,-1.000000000000000000e+00,-8.999999999999954703e-01,-1.000000000000000000e+00,1.700000000000028155e-01,-1.999999999999975131e-01,8.800000000000043343e-01
-6.399999999999970157e-01,-9.599999999999964118e-01,-6.299999999999987832e-01,-1.000000000000000000e+00,-7.499999999999935607e-01,-3.999999999999648281e-02,-4.699999999999968647e-01,-1.000000000000000000e+00,-1.000000000000000000e+00,-5.099999999999960121e-01,-1.000000000000000000e+00,-1.000000000000000000e+00,-2.699999999999913580e-01,-4.299999999999977174e-01,-1.000000000000000000e+00,-8.999999999999936939e-01,-1.000000000000000000e+00,-5.599999999999987210e-01,-1.000000000000000000e+00,3.800000000000083311e-01,5.600000000000040501e-01,-5.099999999999977884e-01,7.700000000000042366e-01,-1.000000000000000000e+00,6.000000000000085265e-01,-1.000000000000000000e+00,3.600000000000038725e-01,-1.000000000000000000e+00,3.600000000000056488e-01,-4.999999999999649170e-02,8.000000000000806466e-02,-1.000000000000000000e+00,9.000000000000052403e-01,1.700000000000045919e-01,-8.799999999999972289e-01,1.500000000000045741e-01,-5.599999999999978328e-01,5.600000000000093792e-01,-9.499999999999990674e-01,2.500000000000011102e-01,-4.899999999999986589e-01,-1.000000000000000000e+00,-3.699999999999985523e-01,-1.000000000000000000e+00,-4.199999999999968203e-01,-4.999999999999986677e-01,-1.000000000000000000e+00,-1.000000000000000000e+00,-4.299999999999959410e-01,3.300000000000056222e-01,-1.000000000000000000e+00,3.600000000000038725e-01,-8.599999999999963229e-01,-6.899999999999979483e-01,-1.000000000000000000e+00,-1.000000000000000000e+00,-1.000000000000000000e+00,2.300000000000055334e-01,-4.899999999999986589e-01,1.000000000000444977e-02,-3.699999999999949996e-01,-6.699999999999988187e-01,-1.000000000000000000e+00,-5.099999999999960121e-01,3.400000000000056311e-01,-1.000000000000000000e+00,-1.000000000000000000e+00,-1.000000000000000000e+00,-1.000000000000000000e+00,-1.099999999999929923e-01,-2.999999999999736211e-02,4.400000000000039435e-01,-1.000000000000000000e+00,8.800000000000069988e-01,1.400000000000027889e-01,-1.000000000000000000e+00,-1.999999999999975131e-01,-1.000000000000000000e+00
-7.399999999999979927e-01,-3.899999999999967937e-01,-6.299999999999987832e-01,-1.000000000000000000e+00,-1.000000000000000000e+00,-3.999999999999648281e-02,1.300000000000027800e-01,-1.000000000000000000e+00,-2.199999999999984190e-01,-5.099999999999960121e-01,-1.000000000000000000e+00,-1.000000000000000000e+00,6.000000000000715872e-02,-1.000000000000000000e+00,-7.999999999999989342e-01,-8.999999999999936939e-01,-1.000000000000000000e+00,-1.000000000000000000e+00,-6.399999999999979039e-01,3.500000000000091926e-01,5.600000000000040501e-01,-1.000000000000000000e+00,7.700000000000042366e-01,-1.000000000000000000e+00,6.000000000000085265e-01,-1.000000000000000000e+00,-1.000000000000000000e+00,-1.000000000000000000e+00,3.600000000000056488e-01,-5.999999999999738876e-02,8.000000000000806466e-02,-1.000000000000000000e+00,9.000000000000052403e-01,1.700000000000045919e-01,2.600000000000037836e-01,1.500000000000045741e-01,-2.299999999999939870e-01,7.100000000000077360e-01,-9.499999999999990674e-01,2.500000000000011102e-01,3.200000000000029488e-01,-4.899999999999986589e-01,-3.699999999999985523e-01,-1.000000000000000000e+00,-1.000000000000000000e+00,-4.999999999999986677e-01,-1.000000000000000000e+00,-1.000000000000000000e+00,-4.299999999999959410e-01,-1.000000000000000000e+00,-1.000000000000000000e+00,3.600000000000038725e-01,-8.599999999999963229e-01,-6.899999999999979483e-01,-8.799999999999990052e-01,-5.599999999999987210e-01,-1.000000000000000000e+00,2.300000000000055334e-01,-4.899999999999986589e-01,1.000000000000444977e-02,-4.399999999999968381e-01,-6.699999999999988187e-01,-1.000000000000000000e+00,-5.399999999999969269e-01,-1.000000000000000000e+00,-1.000000000000000000e+00,-1.000000000000000000e+00,-1.000000000000000000e+00,2.700000000000046807e-01,-1.099999999999929923e-01,-3.199999999999985079e-01,4.400000000000039435e-01,-4.799999999999986500e-01,1.000000000000063061e-01,-1.000000000000000000e+00,9.700000000000026379e-01,-1.999999999999975131e-01,8.800000000000043343e-01
-7.399999999999979927e-01,5.300000000000049116e-01,-1.000000000000000000e+00,-1.000000000000000000e+00,-9.399999999999990585e-01,-3.999999999999648281e-02,5.900000000000040767e-01,-1.000000000000000000e+00,-2.199999999999984190e-01,-5.099999999999960121e-01,-5.599999999999969447e-01,-1.000000000000000000e+00,-1.000000000000000000e+00,-4.299999999999977174e-01,-1.000000000000000000e+00,-8.999999999999936939e-01,-1.000000000000000000e+00,-1.000000000000000000e+00,-6.399999999999979039e-01,3.800000000000083311e-01,5.600000000000040501e-01,-9.499999999999990674e-01,7.300000000000042011e-01,-1.000000000000000000e+00,5.300000000000093525e-01,-1.000000000000000000e+00,3.600000000000038725e-01,-1.000000000000000000e+00,-1.799999999999939426e-01,-4.999999999999649170e-02,8.000000000000806466e-02,-1.000000000000000000e+00,9.000000000000052403e-01,1.700000000000045919e-01,-2.999999999999736211e-02,1.500000000000045741e-01,-9.299999999999954969e-01,7.100000000000077360e-01,-9.499999999999990674e-01,2.500000000000011102e-01,-1.000000000000000000e+00,-2.999999999999736211e-02,-3.699999999999985523e-01,-8.799999999999981171e-01,-4.199999999999968203e-01,-1.000000000000000000e+00,-9.599999999999981881e-01,-1.000000000000000000e+00,-7.999999999999962697e-01,-5.399999999999942624e-01,-9.699999999999990852e-01,2.600000000000046718e-01,-8.599999999999963229e-01,-6.899999999999979483e-01,-1.000000000000000000e+00,-5.599999999999987210e-01,-7.899999999999989253e-01,-1.000000000000000000e+00,-6.999999999999739764e-02,1.000000000000444977e-02,-4.399999999999968381e-01,-6.699999999999988187e-01,-1.000000000000000000e+00,-1.000000000000000000e+00,7.000000000000627942e-02,-1.000000000000000000e+00,-8.099999999999989431e-01,-3.699999999999985523e-01,6.700000000000050360e-01,-3.199999999999922906e-01,-3.199999999999976197e-01,3.000000000000047073e-01,-1.000000000000000000e+00,-6.399999999999952394e-01,-1.000000000000000000e+00,9.700000000000026379e-01,-1.999999999999975131e-01,-4.999999999999560352e-02
-7.399999999999979927e-01,-3.899999999999967937e-01,-1.000000000000000000e+00,-1.000000000000000000e+00,-1.000000000000000000e+00,7.400000000000059863e-01,1.300000000000027800e-01,-1.000000000000000000e+00,-1.000000000000000000e+00,-5.099999999999960121e-01,-1.000000000000000000e+00,-8.799999999999990052e-01,-1.000000000000000000e+00,-1.000000000000000000e+00,-1.000000000000000000e+00,-8.999999999999936939e-01,-1.000000000000000000e+00,-1.000000000000000000e+00,-6.399999999999979039e-01,3.800000000000083311e-01,5.600000000000040501e-01,9.000000000000274447e-02,7.700000000000042366e-01,-1.000000000000000000e+00,5.300000000000093525e-01,-1.000000000000000000e+00,3.600000000000038725e-01,-7.099999999999988542e-01,3.600000000000056488e-01,-4.999999999999649170e-02,8.000000000000806466e-02,-1.000000000000000000e+00,7.900000000000060307e-01,1.700000000000045919e-01,-8.799999999999972289e-01,1.500000000000045741e-01,-2.299999999999939870e-01,7.100000000000077360e-01,-9.499999999999990674e-01,2.500000000000011102e-01,3.200000000000029488e-01,-1.000000000000000000e+00,-1.000000000000000000e+00,-1.000000000000000000e+00,-7.299999999999979838e-01,-4.999999999999986677e-01,-1.000000000000000000e+00,-1.000000000000000000e+00,-7.999999999999962697e-01,3.300000000000056222e-01,-1.000000000000000000e+00,-1.000000000000000000e+00,9.000000000000540901e-02,-6.899999999999979483e-01,-1.000000000000000000e+00,-5.599999999999987210e-01,-1.000000000000000000e+00,2.300000000000055334e-01,-1.000000000000000000e+00,1.000000000000444977e-02,-4.399999999999968381e-01,-1.000000000000000000e+00,-1.000000000000000000e+00,-5.399999999999969269e-01,3.400000000000056311e-01,-1.000000000000000000e+00,-1.000000000000000000e+00,2.600000000000028955e-01,8.200000000000042810e-01,-1.099999999999912159e-01,-3.199999999999985079e-01,4.400000000000039435e-01,-1.000000000000000000e+00,1.000000000000063061e-01,-1.299999999999974509e-01,9.700000000000026379e-01,-1.999999999999975131e-01,8.800000000000043343e-01
-7.399999999999979927e-01,1.700000000000054801e-01,-1.000000000000000000e+00,-1.000000000000000000e+00,-1.000000000000000000e+00,-3.999999999999648281e-02,1.300000000000027800e-01,-1.000000000000000000e+00,-1.000000000000000000e+00,-5.099999999999960121e-01,-9.199999999999981526e-01,-1.000000000000000000e+00,5.300000000000084643e-01,-4.299999999999977174e-01,-1.000000000000000000e+00,-1.000000000000000000e+00,-1.000000000000000000e+00,-1.000000000000000000e+00,-7.099999999999988542e-01,3.800000000000083311e-01,5.600000000000040501e-01,-5.099999999999986766e-01,7.700000000000042366e-01,-1.000000000000000000e+00,6.000000000000085265e-01,-1.000000000000000000e+00,3.600000000000038725e-01,-7.099999999999988542e-01,4.200000000000065903e-01,-4.999999999999649170e-02,8.000000000000806466e-02,-1.000000000000000000e+00,9.000000000000052403e-01,1.700000000000045919e-01,2.600000000000037836e-01,1.500000000000045741e-01,-2.299999999999939870e-01,7.100000000000077360e-01,-1.000000000000000000e+00,2.500000000000011102e-01,6.700000000000041478e-01,-1.000000000000000000e+00,-3.699999999999985523e-01,-1.000000000000000000e+00,-1.000000000000000000e+00,-1.000000000000000000e+00,-9.599999999999981881e-01,-1.000000000000000000e+00,-1.000000000000000000e+00,3.300000000000056222e-01,-7.199999999999935341e-01,-4.199999999999959321e-01,-8.599999999999963229e-01,-6.899999999999979483e-01,-1.000000000000000000e+00,-5.599999999999987210e-01,-1.000000000000000000e+00,2.300000000000055334e-01,-1.000000000000000000e+00,1.500000000000054623e-01,-4.399999999999968381e-01,-6.699999999999988187e-01,-1.000000000000000000e+00,4.700000000000057465e-01,-1.000000000000000000e+00,-1.000000000000000000e+00,-8.099999999999989431e-01,-1.000000000000000000e+00,2.700000000000046807e-01,-1.099999999999929923e-01,-3.199999999999976197e-01,4.400000000000039435e-01,-4.799999999999986500e-01,-8.999999999999954703e-01,-1.000000000000000000e+00,1.700000000000028155e-01,-1.000000000000000000e+00,8.800000000000043343e-01
-7.399999999999979927e-01,-3.899999999999967937e-01,-6.299999999999987832e-01,-1.000000000000000000e+00,-1.000000000000000000e+00,-3.999999999999648281e-02,1.300000000000027800e-01,-1.000000000000000000e+00,-2.199999999999984190e-01,-4.999999999999471534e-02,-1.000000000000000000e+00,-1.000000000000000000e+00,5.300000000000084643e-01,-1.000000000000000000e+00,-1.000000000000000000e+00,-8.999999999999936939e-01,-1.000000000000000000e+00,-7.399999999999988809e-01,-6.399999999999979039e-01,3.800000000000083311e-01,2.400000000000046541e-01,-5.099999999999986766e-01,9.300000000000034905e-01,-1.000000000000000000e+00,5.300000000000093525e-01,-1.000000000000000000e+00,3.600000000000038725e-01,-1.000000000000000000e+00,4.200000000000065903e-01,-4.999999999999649170e-02,8.000000000000806466e-02,-1.000000000000000000e+00,5.500000000000058176e-01,1.700000000000045919e-01,-2.999999999999736211e-02,1.500000000000045741e-01,-2.599999999999957900e-01,7.100000000000077360e-01,-1.000000000000000000e+00,2.500000000000011102e-01,3.200000000000029488e-01,-1.000000000000000000e+00,-3.699999999999985523e-01,-1.000000000000000000e+00,-3.599999999999958789e-01,-4.999999999999986677e-01,-9.399999999999990585e-01,-1.000000000000000000e+00,-1.000000000000000000e+00,-6.799999999999934985e-01,-1.000000000000000000e+00,3.600000000000038725e-01,-8.599999999999963229e-01,-6.899999999999979483e-01,-1.000000000000000000e+00,-5.599999999999987210e-01,-7.899999999999989253e-01,2.300000000000055334e-01,-1.000000000000000000e+00,1.500000000000054623e-01,-4.399999999999968381e-01,-6.699999999999988187e-01,-1.000000000000000000e+00,-5.399999999999969269e-01,6.200000000000032152e-01,-7.899999999999989253e-01,-8.099999999999989431e-01,-5.399999999999987033e-01,6.700000000000050360e-01,-3.199999999999922906e-01,6.700000000000068123e-01,4.400000000000039435e-01,-1.000000000000000000e+00,1.000000000000063061e-01,-1.000000000000000000e+00,9.700000000000026379e-01,-1.999999999999975131e-01,8.800000000000043343e-01
-7.399999999999979927e-01,-9.599999999999964118e-01,-6.299999999999987832e-01,-4.399999999999986144e-01,-7.499999999999935607e-01,-3.999999999999648281e-02,1.300000000000027800e-01,-1.000000000000000000e+00,7.600000000000033396e-01,-5.099999999999960121e-01,-1.000000000000000000e+00,-1.000000000000000000e+00,-2.899999999999922640e-01,-4.299999999999977174e-01,-1.000000000000000000e+00,-8.999999999999936939e-01,-1.000000000000000000e+00,-5.599999999999987210e-01,-1.000000000000000000e+00,2.400000000000082068e-01,5.600000000000040501e-01,-5.099999999999977884e-01,7.700000000000042366e-01,-1.000000000000000000e+00,6.000000000000085265e-01,-1.000000000000000000e+00,3.600000000000038725e-01,-1.000000000000000000e+00,3.600000000000056488e-01,-5.999999999999738876e-02,8.000000000000806466e-02,-1.000000000000000000e+00,9.000000000000052403e-01,1.700000000000045919e-01,2.600000000000037836e-01,2.100000000000055156e-01,-2.299999999999939870e-01,8.800000000000087752e-01,-9.499999999999990674e-01,2.500000000000011102e-01,3.200000000000029488e-01,-2.999999999999736211e-02,-1.000000000000000000e+00,-1.000000000000000000e+00,-7.699999999999989075e-01,-4.999999999999986677e-01,-1.000000000000000000e+00,-1.000000000000000000e+00,-4.299999999999959410e-01,4.440892098500626162e-15,-1.000000000000000000e+00,3.600000000000038725e-01,-8.599999999999963229e-01,-6.899999999999979483e-01,-1.000000000000000000e+00,-5.599999999999987210e-01,-1.000000000000000000e+00,2.300000000000055334e-01,-4.899999999999986589e-01,-2.399999999999948841e-01,-4.399999999999968381e-01,-1.000000000000000000e+00,-6.399999999999987921e-01,-5.099999999999960121e-01,-1.000000000000000000e+00,-1.000000000000000000e+00,-1.000000000000000000e+00,-1.000000000000000000e+00,8.200000000000042810e-01,-1.099999999999929923e-01,-3.199999999999976197e-01,4.400000000000039435e-01,-1.000000000000000000e+00,-8.999999999999954703e-01,4.100000000000030287e-01,1.700000000000028155e-01,-1.999999999999975131e-01,-1.000000000000000000e+00
-6.399999999999970157e-01,-9.599999999999964118e-01,-1.000000000000000000e+00,-1.000000000000000000e+00,-1.000000000000000000e+00,-1.000000000000000000e+00,1.300000000000027800e-01,-1.799999999999983835e-01,-2.199999999999984190e-01,-5.099999999999960121e-01,-1.000000000000000000e+00,-1.000000000000000000e+00,-1.000000000000000000e+00,-4.299999999999977174e-01,-1.000000000000000000e+00,-8.999999999999936939e-01,-1.000000000000000000e+00,-1.000000000000000000e+00,-1.000000000000000000e+00,-6.999999999999118039e-02,5.600000000000040501e-01,-1.000000000000000000e+00,6.100000000000049827e-01,-1.000000000000000000e+00,6.000000000000085265e-01,-1.000000000000000000e+00,4.100000000000048050e-01,-1.000000000000000000e+00,3.600000000000056488e-01,5.100000000000048939e-01,6.000000000000893507e-02,-1.000000000000000000e+00,9.000000000000052403e-01,1.700000000000045919e-01,-8.799999999999972289e-01,1.500000000000045741e-01,2.500000000000073275e-01,-2.199999999999922018e-01,-1.000000000000000000e+00,2.500000000000011102e-01,-1.000000000000000000e+00,-1.000000000000000000e+00,-3.699999999999985523e-01,-3.799999999999985612e-01,-7.299999999999979838e-01,-4.999999999999986677e-01,-9.599999999999981881e-01,-3.999999999999825917e-02,-7.999999999999962697e-01,-3.499999999999932054e-01,-1.799999999999983835e-01,3.600000000000038725e-01,-8.599999999999963229e-01,-6.899999999999979483e-01,-7.699999999999989075e-01,-1.000000000000000000e+00,-1.000000000000000000e+00,2.300000000000055334e-01,-1.099999999999974332e-01,1.000000000000444977e-02,-1.000000000000000000e+00,-6.799999999999979394e-01,-1.000000000000000000e+00,-5.399999999999969269e-01,-1.000000000000000000e+00,-1.000000000000000000e+00,-3.199999999999976197e-01,-1.000000000000000000e+00,6.300000000000050004e-01,-3.199999999999922906e-01,-3.199999999999985079e-01,4.400000000000039435e-01,-1.000000000000000000e+00,1.000000000000063061e-01,-1.000000000000000000e+00,9.700000000000026379e-01,-1.999999999999975131e-01,8.800000000000043343e-01
-7.399999999999979927e-01,-3.899999999999967937e-01,-1.000000000000000000e+00,-1.000000000000000000e+00,-1.000000000000000000e+00,3.800000000000047784e-01,1.300000000000027800e-01,-1.000000000000000000e+00,-2.199999999999984190e-01,4.300000000000057110e-01,-1.000000000000000000e+00,-1.000000000000000000e+00,6.000000000000715872e-02,-4.299999999999977174e-01,-1.000000000000000000e+00,-1.000000000000000000e+00,-1.000000000000000000e+00,-7.499999999999988898e-01,-6.399999999999979039e-01,3.800000000000083311e-01,5.600000000000040501e-01,-6.499999999999988010e-01,7.700000000000042366e-01,-5.999999999999987566e-01,5.300000000000093525e-01,-1.000000000000000000e+00,7.000000000000050626e-01,-1.000000000000000000e+00,3.600000000000056488e-01,-4.999999999999649170e-02,8.000000000000806466e-02,-1.000000000000000000e+00,9.000000000000052403e-01,1.700000000000045919e-01,2.600000000000037836e-01,1.500000000000045741e-01,-2.299999999999939870e-01,7.100000000000077360e-01,-9.499999999999990674e-01,2.500000000000011102e-01,-1.000000000000000000e+00,-1.000000000000000000e+00,-1.000000000000000000e+00,-3.799999999999976730e-01,-1.000000000000000000e+00,-4.999999999999986677e-01,-1.000000000000000000e+00,-1.000000000000000000e+00,-4.299999999999959410e-01,3.300000000000056222e-01,-1.000000000000000000e+00,3.600000000000038725e-01,-8.599999999999963229e-01,-6.899999999999979483e-01,-1.000000000000000000e+00,-5.599999999999987210e-01,-2.999999999999984901e-01,2.300000000000055334e-01,-1.000000000000000000e+00,-2.399999999999948841e-01,-4.399999999999968381e-01,-1.000000000000000000e+00,-1.000000000000000000e+00,-5.399999999999969269e-01,-1.000000000000000000e+00,-1.000000000000000000e+00,-1.000000000000000000e+00,-1.000000000000000000e+00,2.700000000000046807e-01,6.000000000000085265e-01,-1.000000000000000000e+00,4.400000000000039435e-01,-4.799999999999986500e-01,-8.999999999999954703e-01,-2.799999999999984723e-01,9.700000000000026379e-01,-1.999999999999975131e-01,-1.000000000000000000e+00
-6.399999999999970157e-01,-9.599999999999964118e-01,-3.999999999999985789e-01,-6.799999999999979394e-01,-7.499999999999935607e-01,-3.999999999999648281e-02,4.500000000000048406e-01,-1.000000000000000000e+00,-1.000000000000000000e+00,-6.099999999999952127e-01,-1.000000000000000000e+00,-1.000000000000000000e+00,6.000000000000715872e-02,-4.299999999999977174e-01,-6.899999999999988365e-01,-8.999999999999936939e-01,-1.000000000000000000e+00,-1.000000000000000000e+00,-6.399999999999979039e-01,3.800000000000083311e-01,5.600000000000040501e-01,-1.000000000000000000e+00,7.300000000000042011e-01,-1.000000000000000000e+00,5.300000000000093525e-01,-1.000000000000000000e+00,-4.299999999999959410e-01,-1.000000000000000000e+00,3.600000000000056488e-01,-5.999999999999738876e-02,8.000000000000806466e-02,-1.000000000000000000e+00,9.000000000000052403e-01,5.900000000000058531e-01,-2.999999999999736211e-02,8.100000000000069367e-01,-5.599999999999978328e-01,7.100000000000077360e-01,-9.499999999999990674e-01,2.500000000000011102e-01,-4.899999999999986589e-01,-1.000000000000000000e+00,-1.000000000000000000e+00,-1.000000000000000000e+00,-4.399999999999959499e-01,-4.999999999999986677e-01,-9.399999999999990585e-01,-1.000000000000000000e+00,-7.999999999999962697e-01,3.300000000000056222e-01,-1.000000000000000000e+00,-4.199999999999959321e-01,-8.599999999999963229e-01,-6.899999999999979483e-01,-1.000000000000000000e+00,-1.000000000000000000e+00,-1.000000000000000000e+00,2.300000000000055334e-01,-4.899999999999986589e-01,1.000000000000444977e-02,1.000000000000045297e-01,-1.000000000000000000e+00,-1.000000000000000000e+00,-5.099999999999960121e-01,-1.000000000000000000e+00,-1.000000000000000000e+00,-8.099999999999989431e-01,-1.000000000000000000e+00,8.200000000000042810e-01,3.400000000000109601e-01,-3.199999999999985079e-01,4.400000000000039435e-01,-1.000000000000000000e+00,8.800000000000069988e-01,-1.000000000000000000e+00,9.700000000000026379e-01,-1.999999999999975131e-01,-4.999999999999560352e-02
-7.399999999999979927e-01,-9.599999999999964118e-01,-9.799999999999990941e-01,-6.799999999999979394e-01,-7.499999999999935607e-01,-3.999999999999648281e-02,1.300000000000027800e-01,-1.000000000000000000e+00,-7.999999999999829470e-02,-5.099999999999960121e-01,-1.000000000000000000e+00,-2.399999999999984368e-01,6.000000000000715872e-02,-8.399999999999989697e-01,-1.000000000000000000e+00,-8.999999999999936939e-01,-1.000000000000000000e+00,-1.000000000000000000e+00,-1.000000000000000000e+00,3.800000000000083311e-01,5.600000000000040501e-01,-5.099999999999977884e-01,9.300000000000034905e-01,-1.000000000000000000e+00,-1.000000000000000000e+00,-1.000000000000000000e+00,3.600000000000038725e-01,-1.000000000000000000e+00,3.600000000000056488e-01,-5.999999999999738876e-02,8.000000000000806466e-02,-1.000000000000000000e+00,9.000000000000052403e-01,1.700000000000045919e-01,-2.999999999999736211e-02,6.700000000000059242e-01,-6.999999999999650946e-02,7.100000000000077360e-01,-1.000000000000000000e+00,2.500000000000011102e-01,-1.000000000000000000e+00,-2.999999999999736211e-02,-1.000000000000000000e+00,-1.000000000000000000e+00,-4.199999999999968203e-01,-4.999999999999986677e-01,-5.799999999999987388e-01,-1.000000000000000000e+00,-7.999999999999962697e-01,-4.999999999999951150e-01,-6.299999999999987832e-01,3.600000000000038725e-01,-8.599999999999963229e-01,-6.899999999999979483e-01,-1.000000000000000000e+00,-5.599999999999987210e-01,-6.199999999999987743e-01,2.300000000000055334e-01,-1.000000000000000000e+00,1.000000000000444977e-02,-4.399999999999968381e-01,-6.699999999999988187e-01,-1.000000000000000000e+00,-5.099999999999960121e-01,3.400000000000056311e-01,-1.000000000000000000e+00,-8.099999999999989431e-01,-1.000000000000000000e+00,8.200000000000042810e-01,-1.099999999999929923e-01,-3.199999999999976197e-01,4.400000000000039435e-01,-1.000000000000000000e+00,1.000000000000063061e-01,4.100000000000030287e-01,9.700000000000026379e-01,-1.999999999999975131e-01,-1.000000000000000000e+00
-7.399999999999979927e-01,-3.899999999999967937e-01,-6.299999999999987832e-01,-1.000000000000000000e+00,-1.000000000000000000e+00,-3.999999999999648281e-02,1.300000000000027800e-01,-1.000000000000000000e+00,-2.199999999999984190e-01,-5.099999999999960121e-01,-1.000000000000000000e+00,-1.000000000000000000e+00,6.000000000000715872e-02,-4.299999999999977174e-01,-1.000000000000000000e+00,-9.499999999999937383e-01,-1.000000000000000000e+00,-5.599999999999987210e-01,-1.000000000000000000e+00,3.800000000000083311e-01,5.600000000000040501e-01,-5.099999999999977884e-01,4.100000000000048050e-01,-9.999999999999991118e-01,6.000000000000085265e-01,-1.000000000000000000e+00,3.600000000000038725e-01,-1.000000000000000000e+00,3.600000000000056488e-01,-4.999999999999649170e-02,-4.799999999999915445e-01,-1.000000000000000000e+00,9.000000000000052403e-01,1.700000000000045919e-01,-2.999999999999736211e-02,1.500000000000045741e-01,-9.299999999999954969e-01,-1.000000000000000000e+00,-1.000000000000000000e+00,2.500000000000011102e-01,-1.000000000000000000e+00,-1.000000000000000000e+00,-3.699999999999985523e-01,-1.000000000000000000e+00,-4.199999999999968203e-01,-4.999999999999986677e-01,-9.599999999999981881e-01,-1.000000000000000000e+00,-4.299999999999959410e-01,3.300000000000056222e-01,-1.000000000000000000e+00,-4.199999999999959321e-01,-4.799999999999950973e-01,-6.899999999999979483e-01,-1.000000000000000000e+00,-5.599999999999987210e-01,-1.000000000000000000e+00,-1.000000000000000000e+00,-6.999999999999739764e-02,-2.399999999999948841e-01,-4.399999999999968381e-01,-6.699999999999988187e-01,-7.299999999999988720e-01,-5.099999999999960121e-01,-1.000000000000000000e+00,-1.000000000000000000e+00,-9.999999999999742428e-02,-3.699999999999985523e-01,6.700000000000050360e-01,3.400000000000109601e-01,-3.199999999999976197e-01,4.400000000000039435e-01,-4.799999999999986500e-01,-6.399999999999952394e-01,-1.000000000000000000e+00,1.700000000000028155e-01,-1.999999999999975131e-01,-1.000000000000000000e+00
-7.399999999999979927e-01,2.000000000000445866e-02,-1.000000000000000000e+00,-5.199999999999977973e-01,-7.499999999999935607e-01,-6.799999999999979394e-01,1.300000000000027800e-01,-1.000000000000000000e+00,-1.000000000000000000e+00,-5.099999999999960121e-01,-1.000000000000000000e+00,-1.000000000000000000e+00,5.300000000000084643e-01,-1.000000000000000000e+00,-1.000000000000000000e+00,-8.999999999999936939e-01,-1.000000000000000000e+00,-5.599999999999987210e-01,-1.000000000000000000e+00,3.800000000000083311e-01,5.600000000000040501e-01,-5.099999999999986766e-01,6.100000000000049827e-01,-1.000000000000000000e+00,6.000000000000085265e-01,-1.000000000000000000e+00,4.100000000000048050e-01,-1.000000000000000000e+00,-9.999999999994679811e-03,-4.999999999999649170e-02,8.000000000000806466e-02,-1.000000000000000000e+00,8.900000000000061195e-01,1.700000000000045919e-01,-6.999999999999650946e-02,1.500000000000045741e-01,-1.000000000000000000e+00,7.100000000000077360e-01,-9.499999999999990674e-01,2.600000000000020073e-01,-9.799999999999990941e-01,-1.000000000000000000e+00,-1.000000000000000000e+00,-3.799999999999985612e-01,-7.299999999999979838e-01,2.400000000000028777e-01,-1.000000000000000000e+00,-1.000000000000000000e+00,-7.199999999999953104e-01,-9.999999999999387157e-02,-7.199999999999935341e-01,-4.199999999999959321e-01,-8.599999999999963229e-01,-6.899999999999979483e-01,-1.000000000000000000e+00,-1.000000000000000000e+00,-7.899999999999989253e-01,2.300000000000055334e-01,-1.000000000000000000e+00,1.500000000000054623e-01,-4.399999999999968381e-01,-6.799999999999979394e-01,-1.000000000000000000e+00,-1.000000000000000000e+00,3.400000000000056311e-01,-1.000000000000000000e+00,-3.199999999999976197e-01,-1.000000000000000000e+00,8.200000000000042810e-01,3.400000000000109601e-01,-3.199999999999985079e-01,4.400000000000039435e-01,-6.199999999999987743e-01,2.800000000000055778e-01,-1.000000000000000000e+00,9.700000000000026379e-01,-9.099999999999972555e-01,-9.799999999999990941e-01
-6.399999999999970157e-01,-9.599999999999964118e-01,-1.000000000000000000e+00,-1.000000000000000000e+00,-7.499999999999935607e-01,-3.999999999999648281e-02,1.300000000000027800e-01,-1.799999999999983835e-01,-5.999999999999987566e-01,-2.499999999999948930e-01,-1.000000000000000000e+00,-1.000000000000000000e+00,-1.000000000000000000e+00,-4.299999999999977174e-01,-4.699999999999986411e-01,-8.999999999999936939e-01,-1.000000000000000000e+00,-1.000000000000000000e+00,-1.000000000000000000e+00,3.800000000000083311e-01,7.300000000000050893e-01,-1.000000000000000000e+00,6.100000000000049827e-01,-1.000000000000000000e+00,6.000000000000085265e-01,-1.000000000000000000e+00,4.100000000000048050e-01,-1.000000000000000000e+00,3.600000000000056488e-01,-4.999999999999649170e-02,8.000000000000806466e-02,-1.000000000000000000e+00,9.000000000000052403e-01,1.700000000000045919e-01,-8.799999999999972289e-01,1.500000000000045741e-01,-2.299999999999939870e-01,7.100000000000077360e-01,-9.499999999999990674e-01,2.600000000000020073e-01,-4.899999999999986589e-01,-1.000000000000000000e+00,-3.699999999999985523e-01,-1.000000000000000000e+00,-7.299999999999979838e-01,-4.999999999999986677e-01,-9.599999999999981881e-01,4.700000000000030820e-01,-7.199999999999953104e-01,3.300000000000056222e-01,-1.799999999999983835e-01,3.600000000000038725e-01,-8.599999999999963229e-01,-6.899999999999979483e-01,-1.000000000000000000e+00,-1.000000000000000000e+00,-7.899999999999989253e-01,2.300000000000055334e-01,-4.899999999999986589e-01,1.000000000000444977e-02,-1.000000000000000000e+00,-6.699999999999988187e-01,-1.000000000000000000e+00,-5.399999999999969269e-01,3.400000000000056311e-01,-1.000000000000000000e+00,-8.099999999999989431e-01,-1.000000000000000000e+00,8.200000000000042810e-01,-3.199999999999922906e-01,-3.199999999999985079e-01,4.400000000000039435e-01,-1.000000000000000000e+00,6.700000000000077005e-01,-1.000000000000000000e+00,-1.000000000000000000e+00,-1.999999999999975131e-01,-9.799999999999990941e-01
-7.399999999999979927e-01,5.700000000000058353e-01,-6.299999999999987832e-01,-1.000000000000000000e+00,-1.000000000000000000e+00,-7.999999999999962697e-01,6.000000000000360600e-02,-9.299999999999990496e-01,-2.199999999999984190e-01,-5.099999999999960121e-01,-9.199999999999981526e-01,-1.000000000000000000e+00,5.300000000000084643e-01,-1.000000000000000000e+00,-1.000000000000000000e+00,-8.999999999999936939e-01,-1.000000000000000000e+00,-1.000000000000000000e+00,-6.399999999999979039e-01,2.400000000000082068e-01,5.600000000000040501e-01,-1.000000000000000000e+00,9.300000000000034905e-01,-1.000000000000000000e+00,-1.000000000000000000e+00,-1.000000000000000000e+00,3.600000000000038725e-01,-7.099999999999988542e-01,8.100000000000078249e-01,-5.999999999999738876e-02,-3.999999999999914735e-01,-1.000000000000000000e+00,9.000000000000052403e-01,1.700000000000045919e-01,-2.999999999999736211e-02,1.500000000000045741e-01,-2.599999999999957900e-01,7.100000000000077360e-01,-9.499999999999990674e-01,-2.099999999999984102e-01,-1.000000000000000000e+00,-1.000000000000000000e+00,-1.000000000000000000e+00,-1.000000000000000000e+00,-3.599999999999958789e-01,-4.999999999999986677e-01,-1.000000000000000000e+00,-1.000000000000000000e+00,-7.999999999999962697e-01,3.300000000000056222e-01,-9.699999999999990852e-01,3.600000000000038725e-01,-8.599999999999963229e-01,-6.899999999999979483e-01,-1.000000000000000000e+00,-5.599999999999987210e-01,-7.899999999999989253e-01,2.300000000000055334e-01,-1.000000000000000000e+00,1.500000000000054623e-01,-4.399999999999968381e-01,-6.799999999999979394e-01,-1.000000000000000000e+00,-5.399999999999969269e-01,-1.000000000000000000e+00,-1.000000000000000000e+00,-8.099999999999989431e-01,-1.000000000000000000e+00,8.200000000000042810e-01,-1.099999999999929923e-01,-3.199999999999985079e-01,4.400000000000039435e-01,-5.199999999999986855e-01,1.000000000000063061e-01,-1.000000000000000000e+00,9.700000000000026379e-01,-7.699999999999971312e-01,8.800000000000043343e-01
-7.399999999999979927e-01,-9.599999999999964118e-01,-1.000000000000000000e+00,-1.000000000000000000e+00,-9.399999999999990585e-01,-3.999999999999648281e-02,-4.699999999999968647e-01,-1.799999999999983835e-01,-1.000000000000000000e+00,-5.099999999999960121e-01,-1.000000000000000000e+00,-1.000000000000000000e+00,-4.099999999999923705e-01,-4.299999999999977174e-01,-1.000000000000000000e+00,-8.999999999999936939e-01,-1.000000000000000000e+00,-5.599999999999987210e-01,-6.399999999999979039e-01,1.700000000000090328e-01,5.600000000000040501e-01,-5.099999999999986766e-01,7.300000000000042011e-01,-9.999999999999991118e-01,6.000000000000085265e-01,-1.000000000000000000e+00,4.100000000000048050e-01,-1.000000000000000000e+00,-9.999999999994679811e-03,-4.999999999999649170e-02,6.000000000000893507e-02,-1.000000000000000000e+00,9.000000000000052403e-01,3.500000000000056399e-01,-2.999999999999736211e-02,1.500000000000045741e-01,-9.299999999999954969e-01,3.500000000000109690e-01,-9.499999999999990674e-01,2.500000000000011102e-01,-4.899999999999986589e-01,-1.000000000000000000e+00,-1.000000000000000000e+00,-8.799999999999981171e-01,-4.199999999999968203e-01,-4.999999999999986677e-01,-9.599999999999981881e-01,-1.000000000000000000e+00,-7.199999999999953104e-01,-3.499999999999932054e-01,-1.799999999999983835e-01,-1.000000000000000000e+00,-8.599999999999963229e-01,-6.899999999999979483e-01,-7.699999999999989075e-01,-5.599999999999987210e-01,-7.899999999999989253e-01,2.300000000000055334e-01,-6.999999999999739764e-02,1.500000000000054623e-01,-4.399999999999968381e-01,-1.000000000000000000e+00,-1.000000000000000000e+00,-5.399999999999969269e-01,3.400000000000056311e-01,-1.000000000000000000e+00,-3.199999999999976197e-01,-3.699999999999985523e-01,6.700000000000050360e-01,3.400000000000109601e-01,-3.199999999999985079e-01,4.400000000000039435e-01,-1.000000000000000000e+00,1.000000000000063061e-01,-6.199999999999987743e-01,-1.000000000000000000e+00,-7.199999999999970868e-01,-9.799999999999990941e-01
-7.399999999999979927e-01,-9.599999999999964118e-01,-6.299999999999987832e-01,-1.000000000000000000e+00,-1.000000000000000000e+00,5.100000000000057820e-01,1.300000000000027800e-01,-1.000000000000000000e+00,-1.000000000000000000e+00,4.300000000000057110e-01,-1.000000000000000000e+00,-1.000000000000000000e+00,6.000000000000715872e-02,-4.299999999999977174e-01,-1.000000000000000000e+00,-8.999999999999936939e-01,-1.000000000000000000e+00,-5.599999999999987210e-01,-6.399999999999979039e-01,2.400000000000082068e-01,5.600000000000040501e-01,-6.499999999999988010e-01,9.300000000000034905e-01,-1.000000000000000000e+00,5.300000000000093525e-01,-1.000000000000000000e+00,3.600000000000038725e-01,-1.000000000000000000e+00,-4.499999999999924061e-01,-5.999999999999738876e-02,8.000000000000806466e-02,-1.000000000000000000e+00,3.600000000000056488e-01,1.700000000000045919e-01,6.600000000000041389e-01,1.500000000000045741e-01,-2.299999999999939870e-01,2.300000000000081979e-01,-9.499999999999990674e-01,2.500000000000011102e-01,-1.000000000000000000e+00,-7.799999999999989164e-01,-1.000000000000000000e+00,-3.799999999999985612e-01,-4.199999999999968203e-01,-4.999999999999986677e-01,-9.399999999999990585e-01,-1.000000000000000000e+00,-1.000000000000000000e+00,3.300000000000056222e-01,-1.000000000000000000e+00,3.600000000000038725e-01,-8.599999999999963229e-01,-6.899999999999979483e-01,-1.000000000000000000e+00,-5.599999999999987210e-01,-1.000000000000000000e+00,2.300000000000055334e-01,-4.899999999999986589e-01,1.000000000000444977e-02,-4.399999999999968381e-01,-1.000000000000000000e+00,-6.399999999999987921e-01,-1.499999999999956923e-01,3.400000000000056311e-01,-1.000000000000000000e+00,-1.000000000000000000e+00,-1.000000000000000000e+00,2.500000000000046629e-01,-1.099999999999929923e-01,4.600000000000039613e-01,4.400000000000039435e-01,-1.000000000000000000e+00,-8.999999999999954703e-01,-1.000000000000000000e+00,1.700000000000028155e-01,-1.999999999999975131e-01,-7.199999999999988631e-01
-7.399999999999979927e-01,-3.599999999999949907e-01,-1.000000000000000000e+00,-6.799999999999979394e-01,-1.000000000000000000e+00,5.000000000000048850e-01,1.300000000000027800e-01,-1.000000000000000000e+00,-1.000000000000000000e+00,4.300000000000057110e-01,-1.000000000000000000e+00,-1.000000000000000000e+00,6.000000000000715872e-02,-4.299999999999977174e-01,-1.000000000000000000e+00,-8.999999999999936939e-01,-1.000000000000000000e+00,-1.000000000000000000e+00,-6.399999999999979039e-01,3.800000000000083311e-01,6.500000000000050182e-01,-6.499999999999988010e-01,7.700000000000042366e-01,-8.799999999999990052e-01,5.300000000000093525e-01,-1.000000000000000000e+00,3.600000000000038725e-01,-1.000000000000000000e+00,5.300000000000075762e-01,-5.999999999999738876e-02,8.000000000000806466e-02,-1.000000000000000000e+00,9.000000000000052403e-01,-7.599999999999953459e-01,-8.799999999999972289e-01,1.500000000000045741e-01,-5.599999999999978328e-01,2.300000000000081979e-01,-9.499999999999990674e-01,2.500000000000011102e-01,3.200000000000029488e-01,-1.000000000000000000e+00,-3.699999999999985523e-01,-1.000000000000000000e+00,-7.299999999999979838e-01,-4.999999999999986677e-01,-9.399999999999990585e-01,-1.000000000000000000e+00,-3.599999999999949907e-01,4.440892098500626162e-15,-1.000000000000000000e+00,3.600000000000038725e-01,-8.599999999999963229e-01,-6.899999999999979483e-01,-1.000000000000000000e+00,-5.599999999999987210e-01,-1.000000000000000000e+00,-5.299999999999942535e-01,-1.000000000000000000e+00,1.000000000000444977e-02,-4.399999999999968381e-01,-6.699999999999988187e-01,-1.000000000000000000e+00,-5.399999999999969269e-01,3.400000000000056311e-01,-1.000000000000000000e+00,-1.000000000000000000e+00,-1.000000000000000000e+00,8.200000000000042810e-01,-1.099999999999929923e-01,-1.000000000000000000e+00,4.400000000000039435e-01,-1.000000000000000000e+00,1.000000000000063061e-01,-1.000000000000000000e+00,9.700000000000026379e-01,-1.999999999999975131e-01,-7.199999999999988631e-01
-6.399999999999970157e-01,-9.599999999999964118e-01,-1.000000000000000000e+00,-1.000000000000000000e+00,-7.499999999999935607e-01,-3.999999999999648281e-02,-4.699999999999968647e-01,-1.000000000000000000e+00,-1.000000000000000000e+00,-6.099999999999952127e-01,-1.000000000000000000e+00,-1.000000000000000000e+00,6.000000000000715872e-02,-1.000000000000000000e+00,-4.799999999999986500e-01,-8.999999999999936939e-01,-1.000000000000000000e+00,-1.000000000000000000e+00,-6.999999999999970690e-01,3.800000000000083311e-01,-1.000000000000000000e+00,-5.099999999999986766e-01,9.300000000000034905e-01,-7.899999999999989253e-01,5.300000000000093525e-01,-1.000000000000000000e+00,3.600000000000038725e-01,-1.000000000000000000e+00,9.700000000000070788e-01,-5.999999999999738876e-02,8.000000000000806466e-02,-1.000000000000000000e+00,9.000000000000052403e-01,5.900000000000058531e-01,-2.999999999999736211e-02,1.500000000000054623e-01,-5.599999999999978328e-01,6.700000000000103650e-01,-9.499999999999990674e-01,2.500000000000011102e-01,3.200000000000029488e-01,-1.000000000000000000e+00,-9.999999999999991118e-01,-1.000000000000000000e+00,-7.299999999999979838e-01,-4.999999999999986677e-01,-9.399999999999990585e-01,-1.000000000000000000e+00,1.100000000000054268e-01,3.300000000000056222e-01,-1.000000000000000000e+00,-4.199999999999959321e-01,-1.000000000000000000e+00,-6.899999999999979483e-01,-1.000000000000000000e+00,-5.599999999999987210e-01,-1.000000000000000000e+00,2.300000000000055334e-01,-1.000000000000000000e+00,1.000000000000444977e-02,1.000000000000045297e-01,-6.699999999999988187e-01,-1.000000000000000000e+00,-9.999999999995567990e-03,3.400000000000056311e-01,-1.000000000000000000e+00,-8.099999999999989431e-01,-1.000000000000000000e+00,8.200000000000042810e-01,-6.999999999999926281e-01,-3.199999999999985079e-01,4.400000000000039435e-01,-8.599999999999989875e-01,1.000000000000063061e-01,-6.199999999999987743e-01,9.700000000000026379e-01,-3.299999999999967404e-01,-4.999999999999560352e-02
-6.399999999999970157e-01,-9.599999999999964118e-01,-1.000000000000000000e+00,-1.000000000000000000e+00,-1.000000000000000000e+00,-3.999999999999648281e-02,1.300000000000027800e-01,-1.799999999999983835e-01,-1.000000000000000000e+00,-5.099999999999960121e-01,-1.000000000000000000e+00,-1.000000000000000000e+00,-4.099999999999923705e-01,-4.299999999999977174e-01,-1.000000000000000000e+00,-8.999999999999936939e-01,-3.899999999999985700e-01,-5.599999999999987210e-01,-6.399999999999979039e-01,-6.999999999999118039e-02,5.600000000000040501e-01,-1.000000000000000000e+00,6.100000000000049827e-01,-1.000000000000000000e+00,1.300000000000089972e-01,-1.000000000000000000e+00,3.600000000000038725e-01,-1.000000000000000000e+00,3.600000000000056488e-01,-4.999999999999649170e-02,8.000000000000806466e-02,-9.999999999999991118e-01,9.000000000000052403e-01,1.400000000000063416e-01,-8.799999999999972289e-01,1.500000000000045741e-01,-2.299999999999939870e-01,9.700000000000115197e-01,-9.499999999999990674e-01,2.500000000000011102e-01,-4.899999999999986589e-01,-1.000000000000000000e+00,-1.000000000000000000e+00,-1.000000000000000000e+00,-7.299999999999979838e-01,-4.999999999999986677e-01,-9.599999999999981881e-01,-1.000000000000000000e+00,-7.999999999999962697e-01,3.300000000000056222e-01,-1.000000000000000000e+00,-1.000000000000000000e+00,-6.599999999999952571e-01,-6.899999999999979483e-01,-1.000000000000000000e+00,-1.000000000000000000e+00,-7.899999999999989253e-01,2.300000000000055334e-01,-1.000000000000000000e+00,1.000000000000444977e-02,-4.399999999999968381e-01,-5.699999999999978417e-01,-1.000000000000000000e+00,-5.399999999999969269e-01,3.400000000000056311e-01,-1.000000000000000000e+00,-8.099999999999989431e-01,-1.000000000000000000e+00,8.200000000000042810e-01,1.400000000000090061e-01,-3.199999999999985079e-01,4.400000000000039435e-01,-1.000000000000000000e+00,1.000000000000063061e-01,-1.000000000000000000e+00,9.700000000000026379e-01,-1.999999999999975131e-01,8.800000000000043343e-01
-6.399999999999970157e-01,-3.899999999999967937e-01,-6.299999999999987832e-01,-1.000000000000000000e+00,-7.499999999999935607e-01,7.900000000000051426e-01,1.300000000000027800e-01,-1.000000000000000000e+00,-1.000000000000000000e+00,-5.099999999999960121e-01,-1.000000000000000000e+00,-1.000000000000000000e+00,6.000000000000715872e-02,-4.299999999999977174e-01,-1.000000000000000000e+00,-8.999999999999936939e-01,-1.000000000000000000e+00,-5.599999999999987210e-01,-1.000000000000000000e+00,3.800000000000083311e-01,5.600000000000040501e-01,-5.099999999999986766e-01,7.700000000000042366e-01,-1.000000000000000000e+00,3.900000000000101164e-01,-1.000000000000000000e+00,3.600000000000038725e-01,-1.000000000000000000e+00,-9.999999999994679811e-03,-4.999999999999649170e-02,8.000000000000806466e-02,-1.000000000000000000e+00,9.000000000000052403e-01,5.900000000000058531e-01,-8.799999999999972289e-01,1.500000000000045741e-01,-5.599999999999978328e-01,7.100000000000077360e-01,-9.499999999999990674e-01,2.500000000000011102e-01,-4.899999999999986589e-01,-1.000000000000000000e+00,-1.000000000000000000e+00,-1.000000000000000000e+00,-4.199999999999968203e-01,-4.999999999999986677e-01,-9.399999999999990585e-01,-1.000000000000000000e+00,-4.299999999999959410e-01,3.300000000000056222e-01,-1.000000000000000000e+00,-6.299999999999952305e-01,-8.599999999999963229e-01,-6.899999999999979483e-01,-1.000000000000000000e+00,-1.399999999999974598e-01,-1.000000000000000000e+00,2.300000000000055334e-01,-4.899999999999986589e-01,-2.399999999999948841e-01,-4.399999999999968381e-01,-1.000000000000000000e+00,-1.000000000000000000e+00,-5.099999999999960121e-01,3.400000000000056311e-01,-1.000000000000000000e+00,-1.000000000000000000e+00,-1.000000000000000000e+00,8.200000000000042810e-01,3.400000000000109601e-01,-3.199999999999985079e-01,4.400000000000039435e-01,-4.799999999999986500e-01,8.800000000000069988e-01,-6.299999999999987832e-01,1.700000000000028155e-01,-1.999999999999975131e-01,-4.999999999999560352e-02
-6.399999999999970157e-01,-9.599999999999964118e-01,-6.299999999999987832e-01,-1.000000000000000000e+00,-1.000000000000000000e+00,-1.000000000000000000e+00,-5.699999999999969535e-01,-1.799999999999983835e-01,-1.000000000000000000e+00,-5.099999999999960121e-01,-1.000000000000000000e+00,-1.000000000000000000e+00,-4.099999999999923705e-01,-4.299999999999977174e-01,-1.000000000000000000e+00,-8.999999999999936939e-01,-1.000000000000000000e+00,-5.599999999999987210e-01,-1.000000000000000000e+00,-1.000000000000000000e+00,5.600000000000040501e-01,-5.099999999999986766e-01,6.100000000000049827e-01,-1.000000000000000000e+00,6.000000000000085265e-01,-1.000000000000000000e+00,4.100000000000048050e-01,-1.000000000000000000e+00,-9.999999999994679811e-03,-4.999999999999649170e-02,8.000000000000806466e-02,-7.599999999999988987e-01,9.000000000000052403e-01,1.700000000000045919e-01,2.600000000000037836e-01,1.500000000000054623e-01,-1.000000000000000000e+00,7.200000000000104095e-01,-9.499999999999990674e-01,2.600000000000020073e-01,3.200000000000029488e-01,-1.000000000000000000e+00,5.800000000000031797e-01,-1.000000000000000000e+00,-7.299999999999979838e-01,-4.999999999999986677e-01,-1.000000000000000000e+00,-2.399999999999984368e-01,-4.299999999999959410e-01,-3.499999999999932054e-01,-1.799999999999983835e-01,3.600000000000038725e-01,-8.599999999999963229e-01,-6.899999999999979483e-01,-1.000000000000000000e+00,-5.599999999999987210e-01,-1.000000000000000000e+00,3.000000000000624389e-02,-4.899999999999986589e-01,1.000000000000444977e-02,-1.000000000000000000e+00,-6.699999999999988187e-01,-1.000000000000000000e+00,-5.399999999999969269e-01,-1.000000000000000000e+00,-1.000000000000000000e+00,-1.000000000000000000e+00,-1.000000000000000000e+00,8.200000000000042810e-01,-1.099999999999929923e-01,-3.199999999999985079e-01,4.400000000000039435e-01,-1.000000000000000000e+00,-8.999999999999954703e-01,-1.000000000000000000e+00,9.700000000000026379e-01,-1.999999999999975131e-01,-9.799999999999990941e-01
-7.399999999999979927e-01,-3.899999999999967937e-01,-1.000000000000000000e+00,-1.000000000000000000e+00,-1.000000000000000000e+00,-3.999999999999648281e-02,1.300000000000027800e-01,-1.000000000000000000e+00,-1.000000000000000000e+00,-6.099999999999952127e-01,-1.000000000000000000e+00,-1.000000000000000000e+00,6.000000000000715872e-02,-1.000000000000000000e+00,-1.000000000000000000e+00,-8.999999999999936939e-01,-1.000000000000000000e+00,-1.000000000000000000e+00,-6.399999999999979039e-01,3.800000000000083311e-01,5.600000000000040501e-01,-1.000000000000000000e+00,7.700000000000042366e-01,-1.000000000000000000e+00,-9.999999999990238919e-03,-1.000000000000000000e+00,3.600000000000038725e-01,-1.000000000000000000e+00,3.600000000000056488e-01,-5.999999999999738876e-02,8.000000000000806466e-02,-1.000000000000000000e+00,9.000000000000052403e-01,1.700000000000045919e-01,-8.799999999999972289e-01,6.700000000000059242e-01,-2.299999999999939870e-01,7.100000000000077360e-01,-9.499999999999990674e-01,2.500000000000011102e-01,3.200000000000029488e-01,-1.000000000000000000e+00,-3.699999999999985523e-01,-1.000000000000000000e+00,-7.299999999999979838e-01,-4.999999999999986677e-01,-9.399999999999990585e-01,-1.000000000000000000e+00,-7.999999999999962697e-01,4.440892098500626162e-15,-1.000000000000000000e+00,-4.399999999999959499e-01,-8.599999999999963229e-01,-6.899999999999979483e-01,-1.000000000000000000e+00,-5.599999999999987210e-01,-1.000000000000000000e+00,2.300000000000055334e-01,-1.000000000000000000e+00,1.000000000000444977e-02,-4.399999999999968381e-01,-6.699999999999988187e-01,-1.000000000000000000e+00,-5.399999999999969269e-01,-1.000000000000000000e+00,-1.000000000000000000e+00,-8.099999999999989431e-01,-1.000000000000000000e+00,8.200000000000042810e-01,-3.199999999999922906e-01,-3.199999999999976197e-01,4.400000000000039435e-01,-1.000000000000000000e+00,1.000000000000063061e-01,-1.000000000000000000e+00,9.700000000000026379e-01,-1.999999999999975131e-01,-1.000000000000000000e+00
-7.399999999999979927e-01,-9.599999999999964118e-01,-1.000000000000000000e+00,-1.000000000000000000e+00,-7.499999999999935607e-01,5.000000000000048850e-01,1.300000000000027800e-01,-1.000000000000000000e+00,-1.000000000000000000e+00,4.300000000000057110e-01,-1.000000000000000000e+00,-1.000000000000000000e+00,-5.999999999999925393e-01,-4.299999999999977174e-01,-1.000000000000000000e+00,-8.999999999999936939e-01,-1.000000000000000000e+00,-7.499999999999988898e-01,-6.399999999999979039e-01,3.800000000000083311e-01,5.600000000000040501e-01,-6.499999999999988010e-01,9.300000000000034905e-01,-1.000000000000000000e+00,-1.000000000000000000e+00,-1.000000000000000000e+00,3.600000000000038725e-01,-1.000000000000000000e+00,3.600000000000056488e-01,-5.999999999999738876e-02,8.000000000000806466e-02,-1.000000000000000000e+00,9.000000000000052403e-01,1.700000000000045919e-01,-2.999999999999736211e-02,6.700000000000059242e-01,-2.299999999999939870e-01,7.100000000000077360e-01,-9.199999999999981526e-01,2.500000000000011102e-01,3.200000000000029488e-01,-1.000000000000000000e+00,-3.699999999999985523e-01,-1.000000000000000000e+00,-7.299999999999979838e-01,-4.999999999999986677e-01,-9.399999999999990585e-01,-1.000000000000000000e+00,-7.999999999999962697e-01,3.300000000000056222e-01,-6.299999999999987832e-01,3.600000000000038725e-01,-8.599999999999963229e-01,-6.899999999999979483e-01,-1.000000000000000000e+00,-1.099999999999974332e-01,-1.000000000000000000e+00,2.300000000000055334e-01,-1.000000000000000000e+00,1.000000000000444977e-02,-4.399999999999968381e-01,-1.000000000000000000e+00,-1.000000000000000000e+00,-5.399999999999969269e-01,-1.000000000000000000e+00,-1.000000000000000000e+00,-1.000000000000000000e+00,2.600000000000028955e-01,2.500000000000046629e-01,-1.099999999999929923e-01,-3.199999999999976197e-01,4.400000000000039435e-01,-1.000000000000000000e+00,1.000000000000063061e-01,-1.000000000000000000e+00,9.700000000000026379e-01,7.300000000000042011e-01,-1.000000000000000000e+00
-7.399999999999979927e-01,-9.599999999999964118e-01,-6.299999999999987832e-01,-4.399999999999986144e-01,-7.499999999999935607e-01,-9.099999999999963674e-01,1.300000000000027800e-01,-1.000000000000000000e+00,-1.000000000000000000e+00,4.700000000000057465e-01,-1.000000000000000000e+00,-1.000000000000000000e+00,6.000000000000715872e-02,-1.000000000000000000e+00,-5.999999999999987566e-01,-8.999999999999936939e-01,-1.000000000000000000e+00,-1.000000000000000000e+00,-6.999999999999970690e-01,2.400000000000082068e-01,5.600000000000040501e-01,-1.000000000000000000e+00,9.300000000000034905e-01,-1.000000000000000000e+00,5.300000000000093525e-01,-1.000000000000000000e+00,3.600000000000038725e-01,-1.000000000000000000e+00,4.100000000000065814e-01,-5.999999999999738876e-02,8.000000000000806466e-02,-9.599999999999990763e-01,8.600000000000060929e-01,9.900000000000062084e-01,-2.999999999999736211e-02,3.700000000000056577e-01,-5.599999999999978328e-01,7.100000000000077360e-01,-9.499999999999990674e-01,2.500000000000011102e-01,-1.000000000000000000e+00,-1.000000000000000000e+00,-1.000000000000000000e+00,-1.000000000000000000e+00,-7.299999999999979838e-01,-4.999999999999986677e-01,-3.499999999999976463e-01,-1.000000000000000000e+00,-4.299999999999959410e-01,-9.599999999999955236e-01,-1.000000000000000000e+00,3.600000000000038725e-01,-8.599999999999963229e-01,-6.899999999999979483e-01,-1.000000000000000000e+00,-5.599999999999987210e-01,-1.000000000000000000e+00,2.300000000000055334e-01,-1.000000000000000000e+00,1.000000000000444977e-02,-1.000000000000000000e+00,-6.699999999999988187e-01,-6.399999999999987921e-01,-5.099999999999960121e-01,3.400000000000056311e-01,-1.000000000000000000e+00,-8.099999999999989431e-01,-1.000000000000000000e+00,8.200000000000042810e-01,-1.099999999999929923e-01,-3.199999999999976197e-01,4.400000000000039435e-01,-1.000000000000000000e+00,1.000000000000063061e-01,-2.599999999999966782e-01,9.700000000000026379e-01,-1.999999999999975131e-01,-1.000000000000000000e+00
-7.399999999999979927e-01,2.000000000000445866e-02,-6.299999999999987832e-01,-4.399999999999986144e-01,-7.499999999999935607e-01,-3.999999999999648281e-02,1.300000000000027800e-01,-1.000000000000000000e+00,-1.000000000000000000e+00,-5.099999999999960121e-01,-9.199999999999981526e-01,-1.000000000000000000e+00,6.000000000000715872e-02,-4.299999999999977174e-01,-1.000000000000000000e+00,-8.999999999999936939e-01,-1.000000000000000000e+00,-1.000000000000000000e+00,-1.000000000000000000e+00,3.800000000000083311e-01,5.600000000000040501e-01,-5.099999999999986766e-01,9.300000000000034905e-01,-1.000000000000000000e+00,6.100000000000094236e-01,-1.999999999999824141e-02,3.600000000000038725e-01,-7.099999999999988542e-01,3.600000000000056488e-01,-5.999999999999738876e-02,8.000000000000806466e-02,-1.000000000000000000e+00,9.000000000000052403e-01,1.700000000000045919e-01,-8.699999999999963318e-01,1.500000000000045741e-01,-2.699999999999949107e-01,7.100000000000077360e-01,-9.499999999999990674e-01,2.500000000000011102e-01,-1.000000000000000000e+00,-2.999999999999736211e-02,-1.000000000000000000e+00,-1.000000000000000000e+00,-7.299999999999979838e-01,-4.999999999999986677e-01,-1.000000000000000000e+00,-1.000000000000000000e+00,-1.000000000000000000e+00,1.100000000000054268e-01,-7.199999999999935341e-01,3.600000000000038725e-01,-8.599999999999963229e-01,-6.899999999999979483e-01,-1.000000000000000000e+00,-1.000000000000000000e+00,-1.000000000000000000e+00,2.300000000000055334e-01,-1.000000000000000000e+00,1.000000000000444977e-02,-4.399999999999968381e-01,-1.000000000000000000e+00,-6.399999999999987921e-01,-5.099999999999960121e-01,3.400000000000056311e-01,-1.000000000000000000e+00,-8.099999999999989431e-01,-1.000000000000000000e+00,8.200000000000042810e-01,-1.099999999999929923e-01,-3.199999999999976197e-01,4.400000000000039435e-01,-1.000000000000000000e+00,-1.000000000000000000e+00,4.100000000000030287e-01,9.700000000000026379e-01,-1.999999999999975131e-01,-1.000000000000000000e+00
-7.399999999999979927e-01,-9.599999999999964118e-01,-1.000000000000000000e+00,-1.000000000000000000e+00,-7.499999999999935607e-01,-3.999999999999648281e-02,-5.699999999999969535e-01,-1.000000000000000000e+00,-1.000000000000000000e+00,-5.099999999999960121e-01,-1.000000000000000000e+00,-1.000000000000000000e+00,-4.099999999999923705e-01,-4.299999999999977174e-01,-1.000000000000000000e+00,-8.999999999999936939e-01,-1.000000000000000000e+00,-5.599999999999987210e-01,-1.000000000000000000e+00,-6.999999999999118039e-02,5.600000000000040501e-01,-5.099999999999977884e-01,6.100000000000049827e-01,-1.000000000000000000e+00,6.000000000000085265e-01,-1.000000000000000000e+00,3.600000000000038725e-01,-1.000000000000000000e+00,-9.999999999994679811e-03,-4.999999999999649170e-02,6.000000000000893507e-02,-1.000000000000000000e+00,9.000000000000052403e-01,1.700000000000045919e-01,-2.999999999999736211e-02,1.500000000000045741e-01,-5.599999999999978328e-01,7.100000000000077360e-01,-9.499999999999990674e-01,2.600000000000020073e-01,-4.899999999999986589e-01,-2.999999999999736211e-02,-1.000000000000000000e+00,-3.799999999999985612e-01,-7.299999999999979838e-01,-4.999999999999986677e-01,-9.599999999999981881e-01,-1.000000000000000000e+00,-7.199999999999953104e-01,4.440892098500626162e-15,-1.799999999999983835e-01,3.600000000000038725e-01,-8.599999999999963229e-01,-6.899999999999979483e-01,-1.000000000000000000e+00,-1.000000000000000000e+00,-1.000000000000000000e+00,2.300000000000055334e-01,-4.899999999999986589e-01,1.000000000000444977e-02,-1.000000000000000000e+00,-6.799999999999979394e-01,-1.000000000000000000e+00,8.000000000000540012e-02,3.400000000000056311e-01,-1.000000000000000000e+00,-8.099999999999989431e-01,-1.000000000000000000e+00,8.200000000000042810e-01,-1.099999999999929923e-01,-3.199999999999985079e-01,4.400000000000039435e-01,-1.000000000000000000e+00,-8.999999999999954703e-01,4.100000000000030287e-01,9.700000000000026379e-01,-1.999999999999975131e-01,-9.799999999999990941e-01
-6.399999999999970157e-01,-9.599999999999964118e-01,-1.000000000000000000e+00,-1.000000000000000000e+00,-7.499999999999935607e-01,-1.000000000000000000e+00,-4.699999999999968647e-01,-1.000000000000000000e+00,-1.000000000000000000e+00,-4.599999999999950795e-01,-8.899999999999990141e-01,-1.000000000000000000e+00,-4.099999999999923705e-01,-4.299999999999977174e-01,-1.000000000000000000e+00,-8.999999999999936939e-01,-1.000000000000000000e+00,-1.000000000000000000e+00,-6.399999999999979039e-01,3.800000000000083311e-01,5.600000000000040501e-01,-5.099999999999986766e-01,6.100000000000049827e-01,-1.000000000000000000e+00,6.000000000000085265e-01,-1.000000000000000000e+00,3.600000000000038725e-01,-1.000000000000000000e+00,-9.999999999994679811e-03,-4.999999999999649170e-02,6.000000000000893507e-02,-1.000000000000000000e+00,-1.000000000000000000e+00,3.500000000000056399e-01,-8.799999999999972289e-01,1.500000000000054623e-01,-5.599999999999978328e-01,7.200000000000104095e-01,-9.499999999999990674e-01,2.500000000000011102e-01,-4.899999999999986589e-01,-1.000000000000000000e+00,-1.000000000000000000e+00,-3.799999999999985612e-01,-7.299999999999979838e-01,-4.999999999999986677e-01,-9.399999999999990585e-01,-1.000000000000000000e+00,-7.199999999999953104e-01,-3.499999999999932054e-01,-1.000000000000000000e+00,-4.199999999999959321e-01,-8.599999999999963229e-01,-6.899999999999979483e-01,-1.000000000000000000e+00,-1.000000000000000000e+00,-1.000000000000000000e+00,2.300000000000055334e-01,-4.899999999999986589e-01,1.000000000000444977e-02,-1.000000000000000000e+00,-6.799999999999979394e-01,-1.000000000000000000e+00,-5.399999999999969269e-01,3.400000000000056311e-01,-1.000000000000000000e+00,-8.099999999999989431e-01,-1.000000000000000000e+00,8.200000000000042810e-01,3.400000000000109601e-01,-3.199999999999985079e-01,4.400000000000039435e-01,-1.000000000000000000e+00,8.800000000000069988e-01,-1.000000000000000000e+00,9.700000000000026379e-01,-1.999999999999975131e-01,-4.999999999999560352e-02
